{"classes": [0, 1], "dtrees": [{"children_left": [1, 2, -1, 4, -1, 6, 7, 8, -1, -1, -1, -1, 13, 14, -1, -1, 17, 18, 19, -1, 21, -1, -1, -1, 25, -1, -1], "children_right": [12, 3, -1, 5, -1, 11, 10, 9, -1, -1, -1, -1, 16, 15, -1, -1, 24, 23, 20, -1, 22, -1, -1, -1, 26, -1, -1], "threshold": [22.824999809265137, 16.835000038146973, -2.0, 4.7850000858306885, -2.0, 135.5, 12.5, 221.0, -2.0, -2.0, -2.0, -2.0, 3.6049998998641968, -81.5, -2.0, -2.0, 69.5, 7.694999933242798, 29.035000801086426, -2.0, 125.5, -2.0, -2.0, -2.0, 126.5, -2.0, -2.0], "feature": [2, 2, -2, 3, -2, 1, 1, 9, -2, -2, -2, -2, 3, 1, -2, -2, 6, 3, 2, -2, 1, -2, -2, -2, 1, -2, -2], "classes": [0, 1], "value": [[7789.0, 8110.0], [3935.0, 3011.0], [1817.0, 1140.0], [2118.0, 1871.0], [847.0, 945.0], [1271.0, 926.0], [1045.0, 835.0], [793.0, 544.0], [759.0, 476.0], [34.0, 68.0], [252.0, 291.0], [226.0, 91.0], [3854.0, 5099.0], [726.0, 1394.0], [178.0, 192.0], [548.0, 1202.0], [3128.0, 3705.0], [2236.0, 2340.0], [1839.0, 2050.0], [1162.0, 1142.0], [677.0, 908.0], [544.0, 817.0], [133.0, 91.0], [397.0, 290.0], [892.0, 1365.0], [702.0, 1199.0], [190.0, 166.0]]}, {"children_left": [1, 2, 3, -1, 5, -1, 7, -1, -1, 10, -1, -1, 13, 14, 15, -1, 17, -1, 19, -1, -1, 22, 23, -1, 25, -1, -1, -1, 29, 30, 31, -1, -1, -1, 35, -1, -1], "children_right": [12, 9, 4, -1, 6, -1, 8, -1, -1, 11, -1, -1, 28, 21, 16, -1, 18, -1, 20, -1, -1, 27, 24, -1, 26, -1, -1, -1, 34, 33, 32, -1, -1, -1, 36, -1, -1], "threshold": [19.585000038146973, 12.5, 31.5, -2.0, 124.5, -2.0, 85.5, -2.0, -2.0, 16.144999504089355, -2.0, -2.0, 19.13499927520752, 6.125, -85.5, -2.0, 125.5, -2.0, 66.0, -2.0, -2.0, 352.5, 111.0, -2.0, 144.5, -2.0, -2.0, -2.0, 25.5, 4.5, 28.074999809265137, -2.0, -2.0, -2.0, 5.5299999713897705, -2.0, -2.0], "feature": [2, 1, 0, -2, 9, -2, 5, -2, -2, 2, -2, -2, 8, 3, 1, -2, 1, -2, 9, -2, -2, 9, 1, -2, 9, -2, -2, -2, 0, 0, 2, -2, -2, -2, 3, -2, -2], "classes": [0, 1], "value": [[7862.0, 8037.0], [2643.0, 1820.0], [1693.0, 980.0], [53.0, 123.0], [1640.0, 857.0], [1098.0, 493.0], [542.0, 364.0], [415.0, 338.0], [127.0, 26.0], [950.0, 840.0], [584.0, 412.0], [366.0, 428.0], [5219.0, 6217.0], [4017.0, 4282.0], [2611.0, 3100.0], [619.0, 519.0], [1992.0, 2581.0], [1557.0, 2209.0], [435.0, 372.0], [35.0, 83.0], [400.0, 289.0], [1406.0, 1182.0], [1405.0, 1159.0], [1055.0, 968.0], [350.0, 191.0], [182.0, 146.0], [168.0, 45.0], [1.0, 23.0], [1202.0, 1935.0], [690.0, 1362.0], [336.0, 446.0], [58.0, 163.0], [278.0, 283.0], [354.0, 916.0], [512.0, 573.0], [265.0, 388.0], [247.0, 185.0]]}, {"children_left": [1, 2, -1, 4, 5, -1, -1, 8, -1, -1, 11, 12, 13, -1, -1, 16, -1, -1, 19, 20, -1, 22, -1, -1, -1], "children_right": [10, 3, -1, 7, 6, -1, -1, 9, -1, -1, 18, 15, 14, -1, -1, 17, -1, -1, 24, 21, -1, 23, -1, -1, -1], "threshold": [20.925000190734863, 16.335000038146973, -2.0, 216.5, -37.5, -2.0, -2.0, 57.5, -2.0, -2.0, 16.925000190734863, 45.5, 4.884999990463257, -2.0, -2.0, 23.77500057220459, -2.0, -2.0, 25.5, 103.5, -2.0, 2.5, -2.0, -2.0, -2.0], "feature": [2, 2, -2, 9, 0, -2, -2, 5, -2, -2, 8, 0, 3, -2, -2, 2, -2, -2, 0, 1, -2, 0, -2, -2, -2], "classes": [0, 1], "value": [[7945.0, 7954.0], [3245.0, 2195.0], [1716.0, 973.0], [1529.0, 1222.0], [1296.0, 937.0], [75.0, 13.0], [1221.0, 924.0], [233.0, 285.0], [149.0, 110.0], [84.0, 175.0], [4700.0, 5759.0], [2962.0, 3095.0], [2339.0, 2193.0], [891.0, 1057.0], [1448.0, 1136.0], [623.0, 902.0], [347.0, 368.0], [276.0, 534.0], [1738.0, 2664.0], [814.0, 1637.0], [222.0, 704.0], [592.0, 933.0], [343.0, 399.0], [249.0, 534.0], [924.0, 1027.0]]}, {"children_left": [1, 2, 3, 4, -1, -1, -1, 8, -1, -1, 11, 12, 13, -1, -1, 16, -1, -1, 19, 20, -1, -1, -1], "children_right": [10, 7, 6, 5, -1, -1, -1, 9, -1, -1, 18, 15, 14, -1, -1, 17, -1, -1, 22, 21, -1, -1, -1], "threshold": [21.5649995803833, 12.5, 125.5, 12.5, -2.0, -2.0, -2.0, 49.5, -2.0, -2.0, 16.755000114440918, 49.5, 6.1549999713897705, -2.0, -2.0, 40.5, -2.0, -2.0, 34.5, 125.5, -2.0, -2.0, -2.0], "feature": [2, 1, 9, 0, -2, -2, -2, 5, -2, -2, 8, 0, 3, -2, -2, 1, -2, -2, 0, 1, -2, -2, -2], "classes": [0, 1], "value": [[7845.0, 8054.0], [3473.0, 2484.0], [2193.0, 1348.0], [1432.0, 684.0], [21.0, 40.0], [1411.0, 644.0], [761.0, 664.0], [1280.0, 1136.0], [286.0, 397.0], [994.0, 739.0], [4372.0, 5570.0], [2691.0, 2908.0], [2376.0, 2353.0], [1528.0, 1690.0], [848.0, 663.0], [315.0, 555.0], [297.0, 555.0], [18.0, 0.0], [1681.0, 2662.0], [937.0, 1935.0], [770.0, 1772.0], [167.0, 163.0], [744.0, 727.0]]}, {"children_left": [1, 2, 3, -1, -1, 6, -1, -1, 9, 10, 11, -1, -1, 14, 15, -1, 17, -1, -1, 20, -1, 22, 23, 24, -1, -1, -1, -1, 29, 30, 31, -1, -1, -1, -1], "children_right": [8, 5, 4, -1, -1, 7, -1, -1, 28, 13, 12, -1, -1, 19, 16, -1, 18, -1, -1, 21, -1, 27, 26, 25, -1, -1, -1, -1, 34, 33, 32, -1, -1, -1, -1], "threshold": [20.34500026702881, 16.010000228881836, 7.950000047683716, -2.0, -2.0, 229.5, -2.0, -2.0, 21.295000076293945, 2.9850000143051147, -102.0, -2.0, -2.0, 109.5, 18.5, -2.0, 42.5, -2.0, -2.0, 129.5, -2.0, 10.5, 146.5, 210.5, -2.0, -2.0, -2.0, -2.0, 28.5, 4.5, 20.5, -2.0, -2.0, -2.0, -2.0], "feature": [2, 2, 2, -2, -2, 9, -2, -2, 8, 3, 1, -2, -2, 1, 0, -2, 0, -2, -2, 9, -2, 0, 1, 9, -2, -2, -2, -2, 0, 0, 1, -2, -2, -2, -2], "classes": [0, 1], "value": [[7848.0, 8051.0], [2935.0, 2072.0], [1620.0, 984.0], [276.0, 254.0], [1344.0, 730.0], [1315.0, 1088.0], [1177.0, 874.0], [138.0, 214.0], [4913.0, 5979.0], [4157.0, 4632.0], [357.0, 605.0], [58.0, 32.0], [299.0, 573.0], [3800.0, 4027.0], [2987.0, 3408.0], [172.0, 370.0], [2815.0, 3038.0], [1809.0, 1737.0], [1006.0, 1301.0], [813.0, 619.0], [335.0, 343.0], [478.0, 276.0], [466.0, 243.0], [251.0, 76.0], [207.0, 36.0], [44.0, 40.0], [215.0, 167.0], [12.0, 33.0], [756.0, 1347.0], [546.0, 1135.0], [243.0, 344.0], [6.0, 54.0], [237.0, 290.0], [303.0, 791.0], [210.0, 212.0]]}, {"children_left": [1, 2, -1, 4, 5, 6, -1, -1, 9, -1, 11, -1, 13, 14, -1, 16, -1, -1, 19, -1, -1, -1, 23, 24, -1, -1, 27, 28, -1, -1, 31, 32, -1, 34, -1, 36, -1, -1, 39, -1, -1], "children_right": [22, 3, -1, 21, 8, 7, -1, -1, 10, -1, 12, -1, 18, 15, -1, 17, -1, -1, 20, -1, -1, -1, 26, 25, -1, -1, 30, 29, -1, -1, 38, 33, -1, 35, -1, 37, -1, -1, 40, -1, -1], "threshold": [24.175000190734863, 15.835000038146973, -2.0, 228.5, -36.5, 146.5, -2.0, -2.0, 17.875, -2.0, 53.5, -2.0, 125.5, 34.5, -2.0, 16.5, -2.0, -2.0, 50.5, -2.0, -2.0, -2.0, 3.584999918937683, -85.5, -2.0, -2.0, -18.5, 130.5, -2.0, -2.0, 25.5, 102.5, -2.0, 35.5, -2.0, 106.5, -2.0, -2.0, 42.5, -2.0, -2.0], "feature": [2, 2, -2, 9, 0, 1, -2, -2, 2, -2, 9, -2, 9, 0, -2, 1, -2, -2, 0, -2, -2, -2, 3, 1, -2, -2, 0, 9, -2, -2, 0, 1, -2, 9, -2, 1, -2, -2, 0, -2, -2], "classes": [0, 1], "value": [[7855.0, 8044.0], [4553.0, 3659.0], [1570.0, 959.0], [2983.0, 2700.0], [2676.0, 2273.0], [165.0, 71.0], [145.0, 36.0], [20.0, 35.0], [2511.0, 2202.0], [481.0, 308.0], [2030.0, 1894.0], [233.0, 320.0], [1797.0, 1574.0], [1056.0, 800.0], [142.0, 190.0], [914.0, 610.0], [691.0, 375.0], [223.0, 235.0], [741.0, 774.0], [504.0, 426.0], [237.0, 348.0], [307.0, 427.0], [3302.0, 4385.0], [606.0, 1129.0], [107.0, 99.0], [499.0, 1030.0], [2696.0, 3256.0], [593.0, 512.0], [235.0, 286.0], [358.0, 226.0], [2103.0, 2744.0], [444.0, 867.0], [136.0, 418.0], [308.0, 449.0], [65.0, 25.0], [243.0, 424.0], [84.0, 64.0], [159.0, 360.0], [1659.0, 1877.0], [1197.0, 1159.0], [462.0, 718.0]]}, {"children_left": [1, -1, 3, 4, 5, -1, 7, 8, 9, -1, -1, 12, 13, -1, -1, 16, -1, 18, -1, -1, -1, -1, 23, 24, 25, -1, 27, -1, -1, -1, -1], "children_right": [2, -1, 22, 21, 6, -1, 20, 11, 10, -1, -1, 15, 14, -1, -1, 17, -1, 19, -1, -1, -1, -1, 30, 29, 26, -1, 28, -1, -1, -1, -1], "threshold": [18.085000038146973, -2.0, 18.11500072479248, 5.375, -82.5, -2.0, 141.5, 30.5, -23.5, -2.0, -2.0, 113.5, 49.5, -2.0, -2.0, 37.5, -2.0, 0.48499999940395355, -2.0, -2.0, -2.0, -2.0, 33.5, 3.5, 78.5, -2.0, 43.5, -2.0, -2.0, -2.0, -2.0], "feature": [2, -2, 8, 3, 1, -2, 1, 0, 0, -2, -2, 9, 5, -2, -2, 0, -2, 4, -2, -2, -2, -2, 0, 0, 1, -2, 9, -2, -2, -2, -2], "classes": [0, 1], "value": [[7945.0, 7954.0], [2261.0, 1353.0], [5684.0, 6601.0], [4246.0, 4375.0], [2195.0, 2595.0], [592.0, 529.0], [1603.0, 2066.0], [1289.0, 1777.0], [122.0, 321.0], [79.0, 110.0], [43.0, 211.0], [1167.0, 1456.0], [542.0, 511.0], [233.0, 331.0], [309.0, 180.0], [625.0, 945.0], [69.0, 36.0], [556.0, 909.0], [374.0, 730.0], [182.0, 179.0], [314.0, 289.0], [2051.0, 1780.0], [1438.0, 2226.0], [948.0, 1735.0], [431.0, 547.0], [35.0, 127.0], [396.0, 420.0], [72.0, 25.0], [324.0, 395.0], [517.0, 1188.0], [490.0, 491.0]]}, {"children_left": [1, 2, -1, 4, -1, -1, 7, 8, -1, 10, 11, -1, 13, -1, -1, 16, -1, -1, 19, -1, 21, -1, 23, -1, -1], "children_right": [6, 3, -1, 5, -1, -1, 18, 9, -1, 15, 12, -1, 14, -1, -1, 17, -1, -1, 20, -1, 22, -1, 24, -1, -1], "threshold": [23.015000343322754, 16.945000648498535, -2.0, 2.7050000429153442, -2.0, -2.0, 4.565000057220459, -85.5, -2.0, 29.5, 97.0, -2.0, 16.044999599456787, -2.0, -2.0, 24.039999961853027, -2.0, -2.0, -17.5, -2.0, 25.5, -2.0, 40.5, -2.0, -2.0], "feature": [2, 2, -2, 3, -2, -2, 3, 1, -2, 0, 1, -2, 8, -2, -2, 8, -2, -2, 0, -2, 0, -2, 0, -2, -2], "classes": [0, 1], "value": [[7912.0, 7987.0], [4026.0, 2976.0], [1869.0, 1101.0], [2157.0, 1875.0], [107.0, 190.0], [2050.0, 1685.0], [3886.0, 5011.0], [1441.0, 2359.0], [289.0, 291.0], [1152.0, 2068.0], [493.0, 1081.0], [66.0, 333.0], [427.0, 748.0], [95.0, 72.0], [332.0, 676.0], [659.0, 987.0], [641.0, 987.0], [18.0, 0.0], [2445.0, 2652.0], [611.0, 474.0], [1834.0, 2178.0], [330.0, 652.0], [1504.0, 1526.0], [862.0, 734.0], [642.0, 792.0]]}, {"children_left": [1, 2, 3, -1, -1, 6, 7, -1, -1, 10, 11, 12, -1, -1, -1, -1, 17, 18, -1, -1, 21, 22, -1, 24, -1, -1, 27, 28, 29, -1, 31, -1, -1, -1, 35, -1, -1], "children_right": [16, 5, 4, -1, -1, 9, 8, -1, -1, 15, 14, 13, -1, -1, -1, -1, 20, 19, -1, -1, 26, 23, -1, 25, -1, -1, 34, 33, 30, -1, 32, -1, -1, -1, 36, -1, -1], "threshold": [20.875, 3.1450001001358032, 14.349999904632568, -2.0, -2.0, 41.5, 17.5, -2.0, -2.0, 125.5, 58.5, 16.22000026702881, -2.0, -2.0, -2.0, -2.0, -72.5, 25.5, -2.0, -2.0, -26.5, 129.5, -2.0, 146.5, -2.0, -2.0, 28.5, 128.5, 97.5, -2.0, 1.5, -2.0, -2.0, -2.0, 114.5, -2.0, -2.0], "feature": [2, 3, 2, -2, -2, 5, 1, -2, -2, 9, 9, 2, -2, -2, -2, -2, 1, 0, -2, -2, 0, 9, -2, 1, -2, -2, 0, 1, 1, -2, 0, -2, -2, -2, 9, -2, -2], "classes": [0, 1], "value": [[7841.0, 8058.0], [3138.0, 2286.0], [365.0, 417.0], [188.0, 136.0], [177.0, 281.0], [2773.0, 1869.0], [268.0, 281.0], [224.0, 168.0], [44.0, 113.0], [2505.0, 1588.0], [1606.0, 900.0], [619.0, 469.0], [467.0, 280.0], [152.0, 189.0], [987.0, 431.0], [899.0, 688.0], [4703.0, 5772.0], [1652.0, 1602.0], [127.0, 237.0], [1525.0, 1365.0], [3051.0, 4170.0], [811.0, 694.0], [339.0, 410.0], [472.0, 284.0], [265.0, 95.0], [207.0, 189.0], [2240.0, 3476.0], [767.0, 1594.0], [677.0, 1542.0], [144.0, 542.0], [533.0, 1000.0], [178.0, 209.0], [355.0, 791.0], [90.0, 52.0], [1473.0, 1882.0], [576.0, 577.0], [897.0, 1305.0]]}, {"children_left": [1, 2, -1, 4, 5, -1, -1, -1, 9, 10, 11, -1, 13, 14, -1, 16, -1, 18, -1, 20, -1, -1, -1, 24, -1, 26, -1, -1, 29, 30, 31, -1, -1, -1, -1], "children_right": [8, 3, -1, 7, 6, -1, -1, -1, 28, 23, 12, -1, 22, 15, -1, 17, -1, 19, -1, 21, -1, -1, -1, 25, -1, 27, -1, -1, 34, 33, 32, -1, -1, -1, -1], "threshold": [19.744999885559082, 1.5, -2.0, 3.125, 13.860000133514404, -2.0, -2.0, -2.0, 18.6850004196167, 115.0, 20.5, -2.0, 6.125, -72.5, -2.0, 61.5, -2.0, 117.5, -2.0, 49.5, -2.0, -2.0, -2.0, 146.5, -2.0, -34.5, -2.0, -2.0, 28.5, 4.5, 48.0, -2.0, -2.0, -2.0, -2.0], "feature": [2, 6, -2, 3, 2, -2, -2, -2, 8, 1, 0, -2, 3, 1, -2, 9, -2, 9, -2, 0, -2, -2, -2, 1, -2, 0, -2, -2, 0, 0, 1, -2, -2, -2, -2], "classes": [0, 1], "value": [[7947.0, 7952.0], [2756.0, 1830.0], [179.0, 203.0], [2577.0, 1627.0], [295.0, 279.0], [160.0, 90.0], [135.0, 189.0], [2282.0, 1348.0], [5191.0, 6122.0], [3938.0, 4110.0], [3132.0, 3520.0], [202.0, 409.0], [2930.0, 3111.0], [1974.0, 2287.0], [870.0, 808.0], [1104.0, 1479.0], [40.0, 127.0], [1064.0, 1352.0], [437.0, 418.0], [627.0, 934.0], [421.0, 492.0], [206.0, 442.0], [956.0, 824.0], [806.0, 590.0], [355.0, 151.0], [451.0, 439.0], [108.0, 176.0], [343.0, 263.0], [1253.0, 2012.0], [742.0, 1495.0], [365.0, 498.0], [28.0, 114.0], [337.0, 384.0], [377.0, 997.0], [511.0, 517.0]]}, {"children_left": [1, 2, -1, 4, -1, -1, 7, 8, 9, 10, -1, 12, -1, -1, -1, 16, -1, -1, 19, 20, 21, -1, -1, -1, -1], "children_right": [6, 3, -1, 5, -1, -1, 18, 15, 14, 11, -1, 13, -1, -1, -1, 17, -1, -1, 24, 23, 22, -1, -1, -1, -1], "threshold": [20.65499973297119, -119.5, -2.0, 4.5950000286102295, -2.0, -2.0, 17.234999656677246, 42.5, 4.365000009536743, -79.5, -2.0, 103.0, -2.0, -2.0, -2.0, 115.5, -2.0, -2.0, 28.5, 125.5, 38.5, -2.0, -2.0, -2.0, -2.0], "feature": [2, 1, -2, 3, -2, -2, 8, 0, 3, 1, -2, 1, -2, -2, -2, 9, -2, -2, 0, 1, 9, -2, -2, -2, -2], "classes": [0, 1], "value": [[7891.0, 8008.0], [3008.0, 2137.0], [173.0, 50.0], [2835.0, 2087.0], [1022.0, 924.0], [1813.0, 1163.0], [4883.0, 5871.0], [3226.0, 3363.0], [2280.0, 2099.0], [600.0, 737.0], [254.0, 191.0], [346.0, 546.0], [181.0, 390.0], [165.0, 156.0], [1680.0, 1362.0], [946.0, 1264.0], [367.0, 359.0], [579.0, 905.0], [1657.0, 2508.0], [866.0, 1665.0], [693.0, 1501.0], [86.0, 82.0], [607.0, 1419.0], [173.0, 164.0], [791.0, 843.0]]}, {"children_left": [1, 2, 3, 4, 5, -1, 7, -1, -1, 10, -1, -1, 13, -1, -1, 16, 17, 18, 19, -1, 21, -1, -1, 24, -1, -1, 27, -1, -1, -1, 31, 32, -1, 34, -1, 36, 37, -1, -1, 40, -1, -1, 43, -1, 45, -1, -1], "children_right": [30, 15, 12, 9, 6, -1, 8, -1, -1, 11, -1, -1, 14, -1, -1, 29, 26, 23, 20, -1, 22, -1, -1, 25, -1, -1, 28, -1, -1, -1, 42, 33, -1, 35, -1, 39, 38, -1, -1, 41, -1, -1, 44, -1, 46, -1, -1], "threshold": [24.3149995803833, 16.954999923706055, 9.5, 164.5, 3.3850001096725464, -2.0, 5.265000104904175, -2.0, -2.0, 5.724999904632568, -2.0, -2.0, 45.5, -2.0, -2.0, 235.5, 103.0, 11.5, 16.0, -2.0, 113.5, -2.0, -2.0, 0.9950000047683716, -2.0, -2.0, 60.5, -2.0, -2.0, -2.0, 28.5, -16.5, -2.0, -96.5, -2.0, 97.5, -78.5, -2.0, -2.0, 5.5, -2.0, -2.0, 49.5, -2.0, 116.5, -2.0, -2.0], "feature": [2, 2, 1, 9, 3, -2, 8, -2, -2, 8, -2, -2, 5, -2, -2, 9, 1, 1, 0, -2, 9, -2, -2, 4, -2, -2, 9, -2, -2, -2, 0, 0, -2, 1, -2, 1, 1, -2, -2, 0, -2, -2, 0, -2, 9, -2, -2], "classes": [0, 1], "value": [[7842.0, 8057.0], [4538.0, 3674.0], [1813.0, 1168.0], [1162.0, 628.0], [809.0, 357.0], [52.0, 61.0], [757.0, 296.0], [297.0, 175.0], [460.0, 121.0], [353.0, 271.0], [250.0, 136.0], [103.0, 135.0], [651.0, 540.0], [50.0, 97.0], [601.0, 443.0], [2725.0, 2506.0], [2533.0, 2181.0], [2069.0, 1938.0], [1536.0, 1268.0], [25.0, 80.0], [1511.0, 1188.0], [823.0, 501.0], [688.0, 687.0], [533.0, 670.0], [367.0, 551.0], [166.0, 119.0], [464.0, 243.0], [76.0, 90.0], [388.0, 153.0], [192.0, 325.0], [3304.0, 4383.0], [1328.0, 2195.0], [585.0, 558.0], [743.0, 1637.0], [102.0, 70.0], [641.0, 1567.0], [138.0, 600.0], [72.0, 129.0], [66.0, 471.0], [503.0, 967.0], [273.0, 354.0], [230.0, 613.0], [1976.0, 2188.0], [1783.0, 1793.0], [193.0, 395.0], [85.0, 73.0], [108.0, 322.0]]}, {"children_left": [1, 2, -1, 4, -1, 6, -1, -1, 9, 10, 11, 12, -1, 14, 15, -1, -1, -1, 19, -1, 21, 22, -1, -1, -1, 26, 27, -1, -1, 30, -1, -1, 33, 34, -1, -1, -1], "children_right": [8, 3, -1, 5, -1, 7, -1, -1, 32, 25, 18, 13, -1, 17, 16, -1, -1, -1, 20, -1, 24, 23, -1, -1, -1, 29, 28, -1, -1, 31, -1, -1, 36, 35, -1, -1, -1], "threshold": [20.34500026702881, 4.7149999141693115, -2.0, 11.5, -2.0, 132.5, -2.0, -2.0, 18.945000648498535, 113.5, 31.5, -100.5, -2.0, -25.5, 6.309999942779541, -2.0, -2.0, -2.0, 42.5, -2.0, 31.670000076293945, 23.65499973297119, -2.0, -2.0, -2.0, 146.5, -5.5, -2.0, -2.0, -34.5, -2.0, -2.0, 28.5, 125.5, -2.0, -2.0, -2.0], "feature": [2, 3, -2, 1, -2, 1, -2, -2, 8, 1, 0, 1, -2, 0, 8, -2, -2, -2, 0, -2, 2, 2, -2, -2, -2, 1, 0, -2, -2, 0, -2, -2, 0, 1, -2, -2, -2], "classes": [0, 1], "value": [[7972.0, 7927.0], [2961.0, 2044.0], [1191.0, 1009.0], [1770.0, 1035.0], [1214.0, 583.0], [556.0, 452.0], [342.0, 354.0], [214.0, 98.0], [5011.0, 5883.0], [3778.0, 3949.0], [2990.0, 3371.0], [394.0, 648.0], [55.0, 35.0], [339.0, 613.0], [107.0, 102.0], [6.0, 37.0], [101.0, 65.0], [232.0, 511.0], [2596.0, 2723.0], [1441.0, 1237.0], [1155.0, 1486.0], [1082.0, 1447.0], [547.0, 572.0], [535.0, 875.0], [73.0, 39.0], [788.0, 578.0], [380.0, 144.0], [360.0, 106.0], [20.0, 38.0], [408.0, 434.0], [91.0, 187.0], [317.0, 247.0], [1233.0, 1934.0], [742.0, 1407.0], [650.0, 1330.0], [92.0, 77.0], [491.0, 527.0]]}, {"children_left": [1, 2, 3, 4, -1, 6, -1, -1, -1, 10, -1, 12, 13, -1, -1, 16, -1, -1, 19, 20, 21, -1, -1, 24, 25, -1, -1, 28, 29, -1, -1, -1, 33, 34, -1, -1, -1], "children_right": [18, 9, 8, 5, -1, 7, -1, -1, -1, 11, -1, 15, 14, -1, -1, 17, -1, -1, 32, 23, 22, -1, -1, 27, 26, -1, -1, 31, 30, -1, -1, -1, 36, 35, -1, -1, -1], "threshold": [20.804999351501465, 124.5, 15.5, 28.5, -2.0, 13.5, -2.0, -2.0, -2.0, -33.5, -2.0, -8.5, 35.5, -2.0, -2.0, 16.885000228881836, -2.0, -2.0, 21.65499973297119, 5.365000009536743, 233.5, -2.0, -2.0, 137.5, 134.5, -2.0, -2.0, 285.0, 26.984999656677246, -2.0, -2.0, -2.0, 40.5, -95.5, -2.0, -2.0, -2.0], "feature": [2, 9, 1, 6, -2, 0, -2, -2, -2, 0, -2, 1, 0, -2, -2, 2, -2, -2, 8, 3, 9, -2, -2, 9, 9, -2, -2, 9, 2, -2, -2, -2, 0, 1, -2, -2, -2], "classes": [0, 1], "value": [[7959.0, 7940.0], [3263.0, 2193.0], [2035.0, 1188.0], [1345.0, 640.0], [268.0, 201.0], [1077.0, 439.0], [21.0, 38.0], [1056.0, 401.0], [690.0, 548.0], [1228.0, 1005.0], [250.0, 102.0], [978.0, 903.0], [400.0, 248.0], [102.0, 118.0], [298.0, 130.0], [578.0, 655.0], [337.0, 283.0], [241.0, 372.0], [4696.0, 5747.0], [4007.0, 4451.0], [2093.0, 2729.0], [1975.0, 2456.0], [118.0, 273.0], [1914.0, 1722.0], [1150.0, 1190.0], [1137.0, 1133.0], [13.0, 57.0], [764.0, 532.0], [728.0, 457.0], [431.0, 199.0], [297.0, 258.0], [36.0, 75.0], [689.0, 1296.0], [614.0, 1248.0], [41.0, 20.0], [573.0, 1228.0], [75.0, 48.0]]}, {"children_left": [1, 2, 3, 4, -1, -1, 7, -1, -1, 10, 11, 12, -1, -1, -1, -1, 17, 18, 19, 20, -1, -1, -1, 24, -1, -1, 27, -1, -1], "children_right": [16, 9, 6, 5, -1, -1, 8, -1, -1, 15, 14, 13, -1, -1, -1, -1, 26, 23, 22, 21, -1, -1, -1, 25, -1, -1, 28, -1, -1], "threshold": [23.795000076293945, 16.954999923706055, -61.5, 34.5, -2.0, -2.0, -1.5299999713897705, -2.0, -2.0, 212.5, 6.115000009536743, -92.5, -2.0, -2.0, -2.0, -2.0, 125.5, 25.5, -31.5, 62.5, -2.0, -2.0, -2.0, 46.5, -2.0, -2.0, 146.5, -2.0, -2.0], "feature": [2, 2, 1, 0, -2, -2, 8, -2, -2, 9, 3, 1, -2, -2, -2, -2, 1, 0, 0, 5, -2, -2, -2, 0, -2, -2, 1, -2, -2], "classes": [0, 1], "value": [[7895.0, 8004.0], [4384.0, 3342.0], [1952.0, 1112.0], [739.0, 320.0], [80.0, 83.0], [659.0, 237.0], [1213.0, 792.0], [64.0, 94.0], [1149.0, 698.0], [2432.0, 2230.0], [2179.0, 1834.0], [1419.0, 1365.0], [262.0, 143.0], [1157.0, 1222.0], [760.0, 469.0], [253.0, 396.0], [3511.0, 4662.0], [2947.0, 4217.0], [860.0, 1732.0], [126.0, 81.0], [120.0, 55.0], [6.0, 26.0], [734.0, 1651.0], [2087.0, 2485.0], [1709.0, 1829.0], [378.0, 656.0], [564.0, 445.0], [213.0, 98.0], [351.0, 347.0]]}, {"children_left": [1, 2, 3, 4, -1, -1, 7, -1, 9, -1, -1, 12, -1, 14, -1, -1, 17, -1, 19, 20, 21, -1, -1, -1, 25, 26, 27, -1, -1, -1, -1], "children_right": [16, 11, 6, 5, -1, -1, 8, -1, 10, -1, -1, 13, -1, 15, -1, -1, 18, -1, 24, 23, 22, -1, -1, -1, 30, 29, 28, -1, -1, -1, -1], "threshold": [24.1850004196167, 16.8149995803833, 12.5, 32.5, -2.0, -2.0, 45.5, -2.0, 50.5, -2.0, -2.0, 4.884999990463257, -2.0, -36.5, -2.0, -2.0, -20.5, -2.0, 25.5, 101.5, -97.5, -2.0, -2.0, -2.0, 41.5, 4.244999885559082, -92.5, -2.0, -2.0, -2.0, -2.0], "feature": [2, 2, 1, 0, -2, -2, 5, -2, 1, -2, -2, 3, -2, 0, -2, -2, 0, -2, 0, 1, 1, -2, -2, -2, 0, 3, 1, -2, -2, -2, -2], "classes": [0, 1], "value": [[7978.0, 7921.0], [4592.0, 3408.0], [1856.0, 1058.0], [1181.0, 552.0], [33.0, 49.0], [1148.0, 503.0], [675.0, 506.0], [57.0, 106.0], [618.0, 400.0], [394.0, 320.0], [224.0, 80.0], [2736.0, 2350.0], [1225.0, 1242.0], [1511.0, 1108.0], [114.0, 30.0], [1397.0, 1078.0], [3386.0, 4513.0], [633.0, 509.0], [2753.0, 4004.0], [649.0, 1517.0], [182.0, 643.0], [63.0, 64.0], [119.0, 579.0], [467.0, 874.0], [2104.0, 2487.0], [1364.0, 1395.0], [348.0, 465.0], [88.0, 46.0], [260.0, 419.0], [1016.0, 930.0], [740.0, 1092.0]]}, {"children_left": [1, 2, 3, -1, 5, -1, -1, 8, 9, -1, -1, -1, 13, 14, 15, -1, 17, -1, -1, -1, 21, 22, -1, 24, -1, -1, 27, -1, 29, -1, 31, 32, -1, -1, 35, -1, -1], "children_right": [12, 7, 4, -1, 6, -1, -1, 11, 10, -1, -1, -1, 20, 19, 16, -1, 18, -1, -1, -1, 26, 23, -1, 25, -1, -1, 28, -1, 30, -1, 34, 33, -1, -1, 36, -1, -1], "threshold": [20.875, 136.5, 1.5, -2.0, 17.5, -2.0, -2.0, -34.5, 16.135000228881836, -2.0, -2.0, -2.0, 3.6850000619888306, 28.5, -102.0, -2.0, 4.5, -2.0, -2.0, -2.0, -16.5, 26.5, -2.0, 8.375, -2.0, -2.0, 25.5, -2.0, 49.5, -2.0, 117.5, 50.5, -2.0, -2.0, 27.5, -2.0, -2.0], "feature": [2, 9, 6, -2, 1, -2, -2, 0, 2, -2, -2, -2, 3, 0, 1, -2, 0, -2, -2, -2, 0, 9, -2, 3, -2, -2, 0, -2, 0, -2, 9, 0, -2, -2, 1, -2, -2], "classes": [0, 1], "value": [[7964.0, 7935.0], [3229.0, 2234.0], [2064.0, 1250.0], [113.0, 144.0], [1951.0, 1106.0], [1355.0, 661.0], [596.0, 445.0], [1165.0, 984.0], [206.0, 78.0], [128.0, 14.0], [78.0, 64.0], [959.0, 906.0], [4735.0, 5701.0], [986.0, 1603.0], [352.0, 818.0], [26.0, 11.0], [326.0, 807.0], [200.0, 329.0], [126.0, 478.0], [634.0, 785.0], [3749.0, 4098.0], [827.0, 688.0], [18.0, 62.0], [809.0, 626.0], [683.0, 584.0], [126.0, 42.0], [2922.0, 3410.0], [525.0, 929.0], [2397.0, 2481.0], [2002.0, 1945.0], [395.0, 536.0], [167.0, 130.0], [6.0, 30.0], [161.0, 100.0], [228.0, 406.0], [206.0, 403.0], [22.0, 3.0]]}, {"children_left": [1, 2, 3, -1, 5, -1, -1, 8, 9, 10, -1, -1, -1, 14, 15, -1, -1, 18, -1, -1, 21, 22, -1, -1, 25, 26, -1, 28, -1, 30, -1, -1, 33, -1, -1], "children_right": [20, 7, 4, -1, 6, -1, -1, 13, 12, 11, -1, -1, -1, 17, 16, -1, -1, 19, -1, -1, 24, 23, -1, -1, 32, 27, -1, 29, -1, 31, -1, -1, 34, -1, -1], "threshold": [24.175000190734863, 17.11500072479248, 266.5, -2.0, 332.5, -2.0, -2.0, 125.5, 14.5, 43.5, -2.0, -2.0, -2.0, -26.5, 235.5, -2.0, -2.0, 20.5, -2.0, -2.0, 3.584999918937683, 28.5, -2.0, -2.0, 49.5, 18.804999351501465, -2.0, 2.5, -2.0, 25.5, -2.0, -2.0, 116.5, -2.0, -2.0], "feature": [2, 2, 9, -2, 9, -2, -2, 9, 1, 9, -2, -2, -2, 0, 9, -2, -2, 0, -2, -2, 3, 0, -2, -2, 0, 8, -2, 0, -2, 0, -2, -2, 9, -2, -2], "classes": [0, 1], "value": [[7876.0, 8023.0], [4499.0, 3487.0], [1902.0, 1169.0], [1490.0, 822.0], [412.0, 347.0], [208.0, 249.0], [204.0, 98.0], [2597.0, 2318.0], [1521.0, 1172.0], [997.0, 630.0], [138.0, 153.0], [859.0, 477.0], [524.0, 542.0], [1076.0, 1146.0], [306.0, 197.0], [247.0, 98.0], [59.0, 99.0], [770.0, 949.0], [42.0, 139.0], [728.0, 810.0], [3377.0, 4536.0], [628.0, 1229.0], [279.0, 707.0], [349.0, 522.0], [2749.0, 3307.0], [2585.0, 2966.0], [1746.0, 1727.0], [839.0, 1239.0], [242.0, 229.0], [597.0, 1010.0], [213.0, 554.0], [384.0, 456.0], [164.0, 341.0], [66.0, 61.0], [98.0, 280.0]]}, {"children_left": [1, 2, 3, -1, -1, 6, 7, -1, -1, 10, -1, 12, -1, 14, -1, -1, 17, 18, -1, 20, 21, 22, -1, -1, -1, -1, 27, -1, 29, -1, -1], "children_right": [16, 5, 4, -1, -1, 9, 8, -1, -1, 11, -1, 13, -1, 15, -1, -1, 26, 19, -1, 25, 24, 23, -1, -1, -1, -1, 28, -1, 30, -1, -1], "threshold": [25.15499973297119, 16.8149995803833, 5.944999933242798, -2.0, -2.0, 4.384999990463257, -85.5, -2.0, -2.0, -36.5, -2.0, -70.0, -2.0, 248.5, -2.0, -2.0, 61.5, 5.5950000286102295, -2.0, 25.5, -10.5, 148.5, -2.0, -2.0, -2.0, -2.0, 1.5, -2.0, 28.5, -2.0, -2.0], "feature": [2, 2, 2, -2, -2, 3, 1, -2, -2, 0, -2, 1, -2, 9, -2, -2, 6, 3, -2, 0, 0, 9, -2, -2, -2, -2, 0, -2, 0, -2, -2], "classes": [0, 1], "value": [[7890.0, 8009.0], [4939.0, 3994.0], [1856.0, 1118.0], [158.0, 186.0], [1698.0, 932.0], [3083.0, 2876.0], [1020.0, 1257.0], [233.0, 161.0], [787.0, 1096.0], [2063.0, 1619.0], [126.0, 39.0], [1937.0, 1580.0], [641.0, 407.0], [1296.0, 1173.0], [1271.0, 1095.0], [25.0, 78.0], [2951.0, 4015.0], [1971.0, 2280.0], [1069.0, 1450.0], [902.0, 830.0], [287.0, 348.0], [221.0, 182.0], [115.0, 140.0], [106.0, 42.0], [66.0, 166.0], [615.0, 482.0], [980.0, 1735.0], [310.0, 360.0], [670.0, 1375.0], [282.0, 795.0], [388.0, 580.0]]}, {"children_left": [1, 2, 3, -1, -1, 6, 7, -1, -1, -1, 11, 12, -1, -1, 15, 16, -1, 18, 19, 20, -1, -1, -1, 24, 25, -1, -1, -1, 29, 30, 31, 32, -1, 34, 35, -1, -1, -1, -1, -1, 41, -1, -1], "children_right": [10, 5, 4, -1, -1, 9, 8, -1, -1, -1, 14, 13, -1, -1, 28, 17, -1, 23, 22, 21, -1, -1, -1, 27, 26, -1, -1, -1, 40, 39, 38, 33, -1, 37, 36, -1, -1, -1, -1, -1, 42, -1, -1], "threshold": [20.414999961853027, 12.5, 20.5, -2.0, -2.0, 140.0, 16.0649995803833, -2.0, -2.0, -2.0, -20.5, 81.5, -2.0, -2.0, 28.5, -99.5, -2.0, 95.0, -76.5, 54.0, -2.0, -2.0, -2.0, 4.5, 104.5, -2.0, -2.0, -2.0, 49.5, 23.1850004196167, 28.1850004196167, 4.855000019073486, -2.0, 44.5, 31.5, -2.0, -2.0, -2.0, -2.0, -2.0, 116.5, -2.0, -2.0], "feature": [2, 1, 0, -2, -2, 1, 2, -2, -2, -2, 0, 9, -2, -2, 0, 1, -2, 1, 1, 9, -2, -2, -2, 0, 9, -2, -2, -2, 0, 8, 2, 3, -2, 9, 5, -2, -2, -2, -2, -2, 9, -2, -2], "classes": [0, 1], "value": [[7801.0, 8098.0], [2919.0, 2123.0], [1844.0, 1148.0], [34.0, 76.0], [1810.0, 1072.0], [1075.0, 975.0], [709.0, 761.0], [433.0, 355.0], [276.0, 406.0], [366.0, 214.0], [4882.0, 5975.0], [946.0, 764.0], [145.0, 209.0], [801.0, 555.0], [3936.0, 5211.0], [862.0, 1773.0], [87.0, 69.0], [775.0, 1704.0], [205.0, 744.0], [109.0, 211.0], [39.0, 15.0], [70.0, 196.0], [96.0, 533.0], [570.0, 960.0], [258.0, 308.0], [125.0, 82.0], [133.0, 226.0], [312.0, 652.0], [3074.0, 3438.0], [2562.0, 2652.0], [2456.0, 2607.0], [1730.0, 1651.0], [802.0, 905.0], [928.0, 746.0], [64.0, 99.0], [32.0, 6.0], [32.0, 93.0], [864.0, 647.0], [726.0, 956.0], [106.0, 45.0], [512.0, 786.0], [194.0, 171.0], [318.0, 615.0]]}, {"children_left": [1, 2, 3, -1, -1, -1, 7, 8, 9, -1, 11, -1, 13, 14, -1, -1, 17, 18, -1, -1, -1, 22, 23, -1, 25, -1, 27, -1, -1, -1, 31, 32, -1, -1, -1], "children_right": [6, 5, 4, -1, -1, -1, 30, 21, 10, -1, 12, -1, 16, 15, -1, -1, 20, 19, -1, -1, -1, 29, 24, -1, 26, -1, 28, -1, -1, -1, 34, 33, -1, -1, -1], "threshold": [19.925000190734863, -8.5, 27.5, -2.0, -2.0, -2.0, 19.164999961853027, 5.434999942779541, -92.5, -2.0, 59.5, -2.0, 112.5, 27.93000030517578, -2.0, -2.0, -4.5, 1013.5, -2.0, -2.0, -2.0, 246.5, 28.5, -2.0, 40.5, -2.0, 23.785000801086426, -2.0, -2.0, -2.0, 29.5, 4.5, -2.0, -2.0, -2.0], "feature": [2, 1, 0, -2, -2, -2, 8, 3, 1, -2, 9, -2, 9, 2, -2, -2, 0, 7, -2, -2, -2, 9, 9, -2, 0, -2, 2, -2, -2, -2, 0, 0, -2, -2, -2], "classes": [0, 1], "value": [[7831.0, 8068.0], [2770.0, 1934.0], [1013.0, 519.0], [43.0, 65.0], [970.0, 454.0], [1757.0, 1415.0], [5061.0, 6134.0], [3900.0, 4185.0], [2032.0, 2549.0], [377.0, 314.0], [1655.0, 2235.0], [138.0, 291.0], [1517.0, 1944.0], [534.0, 524.0], [461.0, 365.0], [73.0, 159.0], [983.0, 1420.0], [259.0, 232.0], [121.0, 54.0], [138.0, 178.0], [724.0, 1188.0], [1868.0, 1636.0], [1837.0, 1556.0], [58.0, 116.0], [1779.0, 1440.0], [1166.0, 787.0], [613.0, 653.0], [337.0, 251.0], [276.0, 402.0], [31.0, 80.0], [1161.0, 1949.0], [694.0, 1494.0], [319.0, 494.0], [375.0, 1000.0], [467.0, 455.0]]}, {"children_left": [1, 2, 3, 4, -1, -1, 7, -1, -1, -1, 11, 12, 13, -1, 15, 16, -1, -1, 19, -1, -1, 22, 23, -1, -1, -1, 27, -1, -1], "children_right": [10, 9, 6, 5, -1, -1, 8, -1, -1, -1, 26, 21, 14, -1, 18, 17, -1, -1, 20, -1, -1, 25, 24, -1, -1, -1, 28, -1, -1], "threshold": [20.875, 16.804999351501465, -73.5, 35.5, -2.0, -2.0, -1.7450000047683716, -2.0, -2.0, -2.0, 21.65499973297119, 6.164999961853027, -92.5, -2.0, 125.5, 29.5, -2.0, -2.0, 66.5, -2.0, -2.0, 96.5, -31.5, -2.0, -2.0, -2.0, 34.5, -2.0, -2.0], "feature": [2, 2, 1, 0, -2, -2, 8, -2, -2, -2, 8, 3, 1, -2, 1, 0, -2, -2, 9, -2, -2, 6, 0, -2, -2, -2, 0, -2, -2], "classes": [0, 1], "value": [[7873.0, 8026.0], [3205.0, 2252.0], [1851.0, 1129.0], [665.0, 315.0], [75.0, 92.0], [590.0, 223.0], [1186.0, 814.0], [59.0, 91.0], [1127.0, 723.0], [1354.0, 1123.0], [4668.0, 5774.0], [4030.0, 4544.0], [2639.0, 3387.0], [458.0, 406.0], [2181.0, 2981.0], [1736.0, 2589.0], [269.0, 640.0], [1467.0, 1949.0], [445.0, 392.0], [41.0, 87.0], [404.0, 305.0], [1391.0, 1157.0], [1241.0, 945.0], [262.0, 112.0], [979.0, 833.0], [150.0, 212.0], [638.0, 1230.0], [514.0, 1126.0], [124.0, 104.0]]}, {"children_left": [1, 2, 3, 4, -1, -1, -1, 8, -1, -1, 11, 12, 13, -1, 15, -1, -1, -1, 19, 20, 21, -1, -1, -1, -1], "children_right": [10, 7, 6, 5, -1, -1, -1, 9, -1, -1, 18, 17, 14, -1, 16, -1, -1, -1, 24, 23, 22, -1, -1, -1, -1], "threshold": [20.84500026702881, 16.355000495910645, 88.5, -3.5, -2.0, -2.0, -2.0, 198.5, -2.0, -2.0, 18.585000038146973, 42.5, 51.5, -2.0, 5.295000076293945, -2.0, -2.0, -2.0, 28.5, 4.5, 48.0, -2.0, -2.0, -2.0, -2.0], "feature": [2, 2, 5, 1, -2, -2, -2, 9, -2, -2, 8, 0, 9, -2, 3, -2, -2, -2, 0, 0, 1, -2, -2, -2, -2], "classes": [0, 1], "value": [[7876.0, 8023.0], [3142.0, 2178.0], [1711.0, 973.0], [1466.0, 906.0], [683.0, 318.0], [783.0, 588.0], [245.0, 67.0], [1431.0, 1205.0], [1160.0, 862.0], [271.0, 343.0], [4734.0, 5845.0], [3435.0, 3786.0], [2441.0, 2351.0], [242.0, 359.0], [2199.0, 1992.0], [1021.0, 1111.0], [1178.0, 881.0], [994.0, 1435.0], [1299.0, 2059.0], [788.0, 1529.0], [396.0, 505.0], [38.0, 115.0], [358.0, 390.0], [392.0, 1024.0], [511.0, 530.0]]}, {"children_left": [1, 2, 3, 4, -1, -1, -1, 8, 9, -1, 11, -1, 13, -1, 15, 16, 17, -1, -1, 20, -1, -1, 23, -1, -1, -1, 27, 28, 29, -1, 31, -1, -1, 34, 35, -1, 37, -1, -1, -1, 41, 42, -1, 44, 45, -1, -1, -1, -1], "children_right": [26, 7, 6, 5, -1, -1, -1, 25, 10, -1, 12, -1, 14, -1, 22, 19, 18, -1, -1, 21, -1, -1, 24, -1, -1, -1, 40, 33, 30, -1, 32, -1, -1, 39, 36, -1, 38, -1, -1, -1, 48, 43, -1, 47, 46, -1, -1, -1, -1], "threshold": [23.015000343322754, 16.255000114440918, -1.4449999928474426, 6.5, -2.0, -2.0, -2.0, 228.5, -119.5, -2.0, 1.5, -2.0, 53.5, -2.0, 111.0, 125.5, 46.0, -2.0, -2.0, 5.204999923706055, -2.0, -2.0, 146.5, -2.0, -2.0, -2.0, 204.5, 3.584999918937683, 1013.5, -2.0, -82.5, -2.0, -2.0, 49.5, 73.5, -2.0, 30.09500026702881, -2.0, -2.0, -2.0, 125.5, -81.5, -2.0, 4.5, 7.184999942779541, -2.0, -2.0, -2.0, -2.0], "feature": [2, 2, 8, 1, -2, -2, -2, 9, 1, -2, 6, -2, 9, -2, 1, 9, 1, -2, -2, 3, -2, -2, 1, -2, -2, -2, 9, 3, 7, -2, 1, -2, -2, 0, 6, -2, 2, -2, -2, -2, 1, 1, -2, 0, 3, -2, -2, -2, -2], "classes": [0, 1], "value": [[7910.0, 7989.0], [4063.0, 3093.0], [1686.0, 1053.0], [225.0, 215.0], [184.0, 117.0], [41.0, 98.0], [1461.0, 838.0], [2377.0, 2040.0], [2144.0, 1696.0], [85.0, 23.0], [2059.0, 1673.0], [156.0, 206.0], [1903.0, 1467.0], [237.0, 271.0], [1666.0, 1196.0], [1410.0, 1102.0], [896.0, 589.0], [896.0, 569.0], [0.0, 20.0], [514.0, 513.0], [223.0, 307.0], [291.0, 206.0], [256.0, 94.0], [138.0, 16.0], [118.0, 78.0], [233.0, 344.0], [3847.0, 4896.0], [3430.0, 4062.0], [621.0, 987.0], [260.0, 552.0], [361.0, 435.0], [132.0, 87.0], [229.0, 348.0], [2809.0, 3075.0], [2576.0, 2675.0], [1889.0, 1787.0], [687.0, 888.0], [536.0, 589.0], [151.0, 299.0], [233.0, 400.0], [417.0, 834.0], [346.0, 787.0], [75.0, 77.0], [271.0, 710.0], [123.0, 203.0], [96.0, 199.0], [27.0, 4.0], [148.0, 507.0], [71.0, 47.0]]}, {"children_left": [1, 2, 3, -1, -1, 6, -1, 8, -1, 10, -1, -1, 13, 14, 15, -1, 17, -1, 19, -1, -1, 22, 23, -1, -1, 26, -1, -1, 29, 30, -1, -1, -1], "children_right": [12, 5, 4, -1, -1, 7, -1, 9, -1, 11, -1, -1, 28, 21, 16, -1, 18, -1, 20, -1, -1, 25, 24, -1, -1, 27, -1, -1, 32, 31, -1, -1, -1], "threshold": [20.535000801086426, -8.5, 20.5, -2.0, -2.0, -1.8949999809265137, -2.0, -34.5, -2.0, 157.5, -2.0, -2.0, 21.285000801086426, 5.204999923706055, -85.5, -2.0, -27.5, -2.0, 30.5, -2.0, -2.0, 109.5, 26.5, -2.0, -2.0, 145.5, -2.0, -2.0, 24.5, 4.5, -2.0, -2.0, -2.0], "feature": [2, 1, 0, -2, -2, 8, -2, 0, -2, 9, -2, -2, 8, 3, 1, -2, 0, -2, 0, -2, -2, 1, 0, -2, -2, 1, -2, -2, 0, 0, -2, -2, -2], "classes": [0, 1], "value": [[7815.0, 8084.0], [2972.0, 2130.0], [1112.0, 601.0], [30.0, 81.0], [1082.0, 520.0], [1860.0, 1529.0], [48.0, 113.0], [1812.0, 1416.0], [280.0, 123.0], [1532.0, 1293.0], [1089.0, 799.0], [443.0, 494.0], [4843.0, 5954.0], [4122.0, 4616.0], [1991.0, 2582.0], [467.0, 404.0], [1524.0, 2178.0], [265.0, 239.0], [1259.0, 1939.0], [183.0, 505.0], [1076.0, 1434.0], [2131.0, 2034.0], [1587.0, 1668.0], [157.0, 281.0], [1430.0, 1387.0], [544.0, 366.0], [269.0, 92.0], [275.0, 274.0], [721.0, 1338.0], [471.0, 1059.0], [218.0, 336.0], [253.0, 723.0], [250.0, 279.0]]}, {"children_left": [1, 2, -1, 4, -1, 6, 7, 8, -1, 10, -1, -1, 13, 14, -1, -1, -1, -1, 19, 20, -1, -1, 23, 24, -1, -1, 27, -1, 29, -1, -1], "children_right": [18, 3, -1, 5, -1, 17, 12, 9, -1, 11, -1, -1, 16, 15, -1, -1, -1, -1, 22, 21, -1, -1, 26, 25, -1, -1, 28, -1, 30, -1, -1], "threshold": [24.054999351501465, 16.234999656677246, -2.0, -36.5, -2.0, 219.5, 13.5, 16.0, -2.0, 54.5, -2.0, -2.0, 5.990000009536743, 151.5, -2.0, -2.0, -2.0, -2.0, 3.2549999952316284, 212.5, -2.0, -2.0, 44.5, 49.5, -2.0, -2.0, 13.380000114440918, -2.0, 31.34500026702881, -2.0, -2.0], "feature": [2, 2, -2, 0, -2, 9, 1, 0, -2, 0, -2, -2, 3, 1, -2, -2, -2, -2, 3, 9, -2, -2, 6, 0, -2, -2, 8, -2, 2, -2, -2], "classes": [0, 1], "value": [[7990.0, 7909.0], [4476.0, 3486.0], [1646.0, 947.0], [2830.0, 2539.0], [199.0, 83.0], [2631.0, 2456.0], [2338.0, 2022.0], [1606.0, 1229.0], [25.0, 80.0], [1581.0, 1149.0], [1525.0, 1050.0], [56.0, 99.0], [732.0, 793.0], [421.0, 565.0], [385.0, 556.0], [36.0, 9.0], [311.0, 228.0], [293.0, 434.0], [3514.0, 4423.0], [511.0, 969.0], [438.0, 705.0], [73.0, 264.0], [3003.0, 3454.0], [1782.0, 1754.0], [1692.0, 1579.0], [90.0, 175.0], [1221.0, 1700.0], [309.0, 293.0], [912.0, 1407.0], [803.0, 1117.0], [109.0, 290.0]]}, {"children_left": [1, 2, 3, 4, 5, -1, -1, -1, -1, 10, -1, 12, -1, 14, 15, -1, -1, -1, 19, 20, -1, 22, 23, -1, 25, -1, -1, -1, 29, 30, 31, -1, -1, 34, 35, -1, -1, -1, -1], "children_right": [18, 9, 8, 7, 6, -1, -1, -1, -1, 11, -1, 13, -1, 17, 16, -1, -1, -1, 28, 21, -1, 27, 24, -1, 26, -1, -1, -1, 38, 33, 32, -1, -1, 37, 36, -1, -1, -1, -1], "threshold": [24.175000190734863, 18.085000038146973, 140.0, 9.5, 118.5, -2.0, -2.0, -2.0, -2.0, 36.5, -2.0, 124.5, -2.0, 107.0, 20.5, -2.0, -2.0, -2.0, 4.355000019073486, -92.5, -2.0, 29.5, 97.5, -2.0, 42.5, -2.0, -2.0, -2.0, 24.925000190734863, 101.5, 25.5, -2.0, -2.0, 9.5, -33.5, -2.0, -2.0, -2.0, -2.0], "feature": [2, 2, 1, 1, 9, -2, -2, -2, -2, 9, -2, 9, -2, 1, 0, -2, -2, -2, 3, 1, -2, 0, 1, -2, 5, -2, -2, -2, 8, 1, 0, -2, -2, 0, 0, -2, -2, -2, -2], "classes": [0, 1], "value": [[7879.0, 8020.0], [4473.0, 3621.0], [2160.0, 1438.0], [1861.0, 1305.0], [1329.0, 802.0], [829.0, 393.0], [500.0, 409.0], [532.0, 503.0], [299.0, 133.0], [2313.0, 2183.0], [106.0, 183.0], [2207.0, 2000.0], [1188.0, 895.0], [1019.0, 1105.0], [734.0, 931.0], [43.0, 129.0], [691.0, 802.0], [285.0, 174.0], [3406.0, 4399.0], [1094.0, 1822.0], [158.0, 119.0], [936.0, 1703.0], [412.0, 920.0], [52.0, 275.0], [360.0, 645.0], [65.0, 36.0], [295.0, 609.0], [524.0, 783.0], [2312.0, 2577.0], [2296.0, 2510.0], [1571.0, 1862.0], [168.0, 433.0], [1403.0, 1429.0], [725.0, 648.0], [593.0, 451.0], [219.0, 239.0], [374.0, 212.0], [132.0, 197.0], [16.0, 67.0]]}, {"children_left": [1, 2, 3, -1, -1, 6, -1, -1, 9, 10, -1, -1, 13, -1, -1], "children_right": [8, 5, 4, -1, -1, 7, -1, -1, 12, 11, -1, -1, 14, -1, -1], "threshold": [24.15499973297119, 16.804999351501465, -1.0750000476837158, -2.0, -2.0, 229.5, -2.0, -2.0, 61.5, 5.295000076293945, -2.0, -2.0, 33.5, -2.0, -2.0], "feature": [2, 2, 8, -2, -2, 9, -2, -2, 6, 3, -2, -2, 5, -2, -2], "classes": [0, 1], "value": [[7827.0, 8072.0], [4423.0, 3507.0], [1777.0, 1074.0], [219.0, 213.0], [1558.0, 861.0], [2646.0, 2433.0], [2424.0, 2062.0], [222.0, 371.0], [3404.0, 4565.0], [2291.0, 2636.0], [1144.0, 1576.0], [1147.0, 1060.0], [1113.0, 1929.0], [140.0, 127.0], [973.0, 1802.0]]}, {"children_left": [1, 2, -1, 4, -1, 6, -1, -1, 9, 10, -1, 12, 13, -1, -1, -1, 17, 18, -1, 20, -1, 22, -1, -1, 25, 26, 27, -1, -1, -1, 31, -1, -1], "children_right": [8, 3, -1, 5, -1, 7, -1, -1, 16, 11, -1, 15, 14, -1, -1, -1, 24, 19, -1, 21, -1, 23, -1, -1, 30, 29, 28, -1, -1, -1, 32, -1, -1], "threshold": [20.875, 16.505000114440918, -2.0, 217.5, -2.0, 294.5, -2.0, -2.0, 3.6850000619888306, -85.5, -2.0, 30.5, 97.5, -2.0, -2.0, -2.0, -20.5, 28.5, -2.0, 27.5, -2.0, 146.5, -2.0, -2.0, 25.5, 102.5, -97.5, -2.0, -2.0, -2.0, 49.5, -2.0, -2.0], "feature": [2, 2, -2, 9, -2, 9, -2, -2, 3, 1, -2, 0, 1, -2, -2, -2, 0, 9, -2, 1, -2, 1, -2, -2, 0, 1, 1, -2, -2, -2, 0, -2, -2], "classes": [0, 1], "value": [[7886.0, 8013.0], [3067.0, 2197.0], [1682.0, 1020.0], [1385.0, 1177.0], [1197.0, 902.0], [188.0, 275.0], [102.0, 212.0], [86.0, 63.0], [4819.0, 5816.0], [1014.0, 1675.0], [207.0, 172.0], [807.0, 1503.0], [343.0, 841.0], [49.0, 277.0], [294.0, 564.0], [464.0, 662.0], [3805.0, 4141.0], [836.0, 644.0], [21.0, 59.0], [815.0, 585.0], [70.0, 111.0], [745.0, 474.0], [327.0, 118.0], [418.0, 356.0], [2969.0, 3497.0], [509.0, 930.0], [184.0, 472.0], [81.0, 70.0], [103.0, 402.0], [325.0, 458.0], [2460.0, 2567.0], [2097.0, 2015.0], [363.0, 552.0]]}, {"children_left": [1, 2, 3, -1, -1, 6, -1, -1, 9, -1, 11, 12, -1, 14, -1, 16, -1, -1, 19, -1, 21, -1, 23, 24, -1, -1, -1], "children_right": [8, 5, 4, -1, -1, 7, -1, -1, 10, -1, 18, 13, -1, 15, -1, 17, -1, -1, 20, -1, 22, -1, 26, 25, -1, -1, -1], "threshold": [20.695000648498535, -8.5, 32.5, -2.0, -2.0, -1.8199999928474426, -2.0, -2.0, 2.9850000143051147, -2.0, -17.5, 44.5, -2.0, 146.5, -2.0, -29.5, -2.0, -2.0, 25.5, -2.0, 41.5, -2.0, 6.085000038146973, -99.0, -2.0, -2.0, -2.0], "feature": [2, 1, 0, -2, -2, 8, -2, -2, 3, -2, 0, 1, -2, 1, -2, 0, -2, -2, 0, -2, 0, -2, 3, 1, -2, -2, -2], "classes": [0, 1], "value": [[7806.0, 8093.0], [3076.0, 2173.0], [1130.0, 628.0], [95.0, 134.0], [1035.0, 494.0], [1946.0, 1545.0], [40.0, 95.0], [1906.0, 1450.0], [4730.0, 5920.0], [465.0, 965.0], [4265.0, 4955.0], [914.0, 751.0], [115.0, 174.0], [799.0, 577.0], [338.0, 111.0], [461.0, 466.0], [258.0, 340.0], [203.0, 126.0], [3351.0, 4204.0], [529.0, 1138.0], [2822.0, 3066.0], [1667.0, 1515.0], [1155.0, 1551.0], [808.0, 1209.0], [82.0, 48.0], [726.0, 1161.0], [347.0, 342.0]]}, {"children_left": [1, 2, 3, -1, 5, -1, 7, -1, -1, 10, -1, -1, 13, 14, -1, 16, 17, -1, 19, -1, -1, -1, 23, 24, 25, 26, -1, -1, 29, -1, 31, -1, 33, -1, -1, 36, 37, -1, -1, 40, -1, -1, -1], "children_right": [12, 9, 4, -1, 6, -1, 8, -1, -1, 11, -1, -1, 22, 15, -1, 21, 18, -1, 20, -1, -1, -1, 42, 35, 28, 27, -1, -1, 30, -1, 32, -1, 34, -1, -1, 39, 38, -1, -1, 41, -1, -1, -1], "threshold": [19.61500072479248, 12.5, 31.5, -2.0, 143.5, -2.0, 283.0, -2.0, -2.0, 44.5, -2.0, -2.0, 4.255000114440918, -92.5, -2.0, 28.5, 97.0, -2.0, 42.5, -2.0, -2.0, -2.0, 10.194999694824219, 30.244999885559082, -27.5, 35.0, -2.0, -2.0, 26.5, -2.0, 42.5, -2.0, 22.454999923706055, -2.0, -2.0, 39.5, 110.5, -2.0, -2.0, 14.5, -2.0, -2.0, -2.0], "feature": [2, 1, 0, -2, 9, -2, 9, -2, -2, 5, -2, -2, 3, 1, -2, 0, 1, -2, 5, -2, -2, -2, 3, 2, 0, 9, -2, -2, 0, -2, 0, -2, 2, -2, -2, 6, 9, -2, -2, 5, -2, -2, -2], "classes": [0, 1], "value": [[7833.0, 8066.0], [2712.0, 1846.0], [1716.0, 1014.0], [58.0, 95.0], [1658.0, 919.0], [1169.0, 545.0], [489.0, 374.0], [248.0, 262.0], [241.0, 112.0], [996.0, 832.0], [102.0, 160.0], [894.0, 672.0], [5121.0, 6220.0], [1540.0, 2392.0], [220.0, 178.0], [1320.0, 2214.0], [469.0, 1041.0], [72.0, 339.0], [397.0, 702.0], [70.0, 50.0], [327.0, 652.0], [851.0, 1173.0], [3581.0, 3828.0], [3421.0, 3750.0], [2747.0, 2780.0], [541.0, 406.0], [20.0, 64.0], [521.0, 342.0], [2206.0, 2374.0], [359.0, 544.0], [1847.0, 1830.0], [1078.0, 889.0], [769.0, 941.0], [347.0, 290.0], [422.0, 651.0], [674.0, 970.0], [460.0, 504.0], [90.0, 178.0], [370.0, 326.0], [214.0, 466.0], [18.0, 3.0], [196.0, 463.0], [160.0, 78.0]]}, {"children_left": [1, 2, 3, 4, -1, 6, -1, -1, -1, 10, -1, -1, 13, 14, 15, -1, 17, -1, -1, 20, 21, 22, -1, -1, -1, 26, 27, -1, 29, -1, -1, 32, 33, -1, 35, -1, 37, -1, 39, -1, -1, -1, 43, 44, 45, -1, -1, -1, -1], "children_right": [12, 9, 8, 5, -1, 7, -1, -1, -1, 11, -1, -1, 42, 19, 16, -1, 18, -1, -1, 25, 24, 23, -1, -1, -1, 31, 28, -1, 30, -1, -1, 41, 34, -1, 36, -1, 38, -1, 40, -1, -1, -1, 48, 47, 46, -1, -1, -1, -1], "threshold": [20.40499973297119, 17.105000495910645, 138.5, 43.5, -2.0, 38.5, -2.0, -2.0, -2.0, 217.5, -2.0, -2.0, 21.295000076293945, -26.5, 147.5, -2.0, 1013.5, -2.0, -2.0, 29.5, 125.5, -82.5, -2.0, -2.0, -2.0, 40.5, 15.5, -2.0, 66.5, -2.0, -2.0, 210.5, 7.615000009536743, -2.0, 49.5, -2.0, 117.5, -2.0, 163.5, -2.0, -2.0, -2.0, 28.5, 3.5, 4.080000162124634, -2.0, -2.0, -2.0, -2.0], "feature": [2, 2, 1, 1, -2, 0, -2, -2, -2, 9, -2, -2, 8, 0, 9, -2, 7, -2, -2, 0, 1, 1, -2, -2, -2, 0, 9, -2, 9, -2, -2, 9, 8, -2, 0, -2, 9, -2, 9, -2, -2, -2, 0, 0, 3, -2, -2, -2, -2], "classes": [0, 1], "value": [[7990.0, 7909.0], [3020.0, 2008.0], [1984.0, 1143.0], [1736.0, 1057.0], [1701.0, 989.0], [35.0, 68.0], [31.0, 22.0], [4.0, 46.0], [248.0, 86.0], [1036.0, 865.0], [903.0, 658.0], [133.0, 207.0], [4970.0, 5901.0], [4211.0, 4549.0], [853.0, 636.0], [432.0, 417.0], [421.0, 219.0], [228.0, 69.0], [193.0, 150.0], [3358.0, 3913.0], [462.0, 836.0], [406.0, 814.0], [148.0, 157.0], [258.0, 657.0], [56.0, 22.0], [2896.0, 3077.0], [1239.0, 1084.0], [6.0, 37.0], [1233.0, 1047.0], [220.0, 106.0], [1013.0, 941.0], [1657.0, 1993.0], [1642.0, 1930.0], [107.0, 206.0], [1535.0, 1724.0], [1042.0, 1033.0], [493.0, 691.0], [180.0, 149.0], [313.0, 542.0], [222.0, 483.0], [91.0, 59.0], [15.0, 63.0], [759.0, 1352.0], [525.0, 1138.0], [247.0, 322.0], [87.0, 184.0], [160.0, 138.0], [278.0, 816.0], [234.0, 214.0]]}, {"children_left": [1, 2, 3, -1, -1, 6, -1, 8, 9, -1, -1, -1, 13, 14, 15, 16, -1, -1, -1, 20, 21, -1, -1, -1, 25, 26, 27, -1, -1, -1, -1], "children_right": [12, 5, 4, -1, -1, 7, -1, 11, 10, -1, -1, -1, 24, 19, 18, 17, -1, -1, -1, 23, 22, -1, -1, -1, 30, 29, 28, -1, -1, -1, -1], "threshold": [23.375, 16.824999809265137, 0.014999999664723873, -2.0, -2.0, -36.5, -2.0, 223.5, -72.5, -2.0, -2.0, -2.0, 19.02500057220459, 114.0, 49.5, 31.5, -2.0, -2.0, -2.0, 146.5, -3.0, -2.0, -2.0, -2.0, 25.5, 3.5, 8.449999809265137, -2.0, -2.0, -2.0, -2.0], "feature": [2, 2, 8, -2, -2, 0, -2, 9, 1, -2, -2, -2, 8, 1, 0, 0, -2, -2, -2, 1, 0, -2, -2, -2, 0, 0, 3, -2, -2, -2, -2], "classes": [0, 1], "value": [[7877.0, 8022.0], [4161.0, 3186.0], [1812.0, 1057.0], [287.0, 259.0], [1525.0, 798.0], [2349.0, 2129.0], [178.0, 65.0], [2171.0, 2064.0], [1943.0, 1698.0], [662.0, 422.0], [1281.0, 1276.0], [228.0, 366.0], [3716.0, 4836.0], [2555.0, 2874.0], [1990.0, 2458.0], [1758.0, 2011.0], [289.0, 524.0], [1469.0, 1487.0], [232.0, 447.0], [565.0, 416.0], [252.0, 97.0], [233.0, 67.0], [19.0, 30.0], [313.0, 319.0], [1161.0, 1962.0], [633.0, 1394.0], [305.0, 479.0], [275.0, 471.0], [30.0, 8.0], [328.0, 915.0], [528.0, 568.0]]}, {"children_left": [1, 2, 3, -1, -1, 6, -1, -1, 9, 10, 11, -1, -1, 14, -1, 16, -1, -1, 19, -1, -1], "children_right": [8, 5, 4, -1, -1, 7, -1, -1, 18, 13, 12, -1, -1, 15, -1, 17, -1, -1, 20, -1, -1], "threshold": [24.1850004196167, 17.13499927520752, 12.5, -2.0, -2.0, 229.5, -2.0, -2.0, 28.5, -18.5, 8.190000057220459, -2.0, -2.0, -81.5, -2.0, 95.0, -2.0, -2.0, 42.5, -2.0, -2.0], "feature": [2, 2, 1, -2, -2, 9, -2, -2, 0, 0, 3, -2, -2, 1, -2, 1, -2, -2, 0, -2, -2], "classes": [0, 1], "value": [[7894.0, 8005.0], [4561.0, 3589.0], [1910.0, 1191.0], [1190.0, 629.0], [720.0, 562.0], [2651.0, 2398.0], [2440.0, 2070.0], [211.0, 328.0], [3333.0, 4416.0], [1329.0, 2200.0], [618.0, 558.0], [517.0, 524.0], [101.0, 34.0], [711.0, 1642.0], [126.0, 133.0], [585.0, 1509.0], [111.0, 535.0], [474.0, 974.0], [2004.0, 2216.0], [1354.0, 1316.0], [650.0, 900.0]]}, {"children_left": [1, 2, 3, -1, -1, 6, -1, -1, 9, 10, 11, 12, -1, -1, -1, -1, 17, 18, 19, 20, -1, 22, -1, 24, -1, -1, 27, -1, 29, 30, -1, -1, -1, -1, 35, 36, 37, -1, -1, 40, -1, -1, -1], "children_right": [8, 5, 4, -1, -1, 7, -1, -1, 16, 15, 14, 13, -1, -1, -1, -1, 34, 33, 26, 21, -1, 23, -1, 25, -1, -1, 28, -1, 32, 31, -1, -1, -1, -1, 42, 39, 38, -1, -1, 41, -1, -1, -1], "threshold": [19.585000038146973, 3.1450001001358032, 14.349999904632568, -2.0, -2.0, -8.5, -2.0, -2.0, 3.4550000429153442, 1014.5, 143.0, -92.5, -2.0, -2.0, -2.0, -2.0, 27.744999885559082, 257.5, 114.5, 21.5, -2.0, 40.5, -2.0, 18.34000015258789, -2.0, -2.0, 58.5, -2.0, 146.5, 0.7549999952316284, -2.0, -2.0, -2.0, -2.0, 11.384999752044678, 28.5, 10.5, -2.0, -2.0, 1019.5, -2.0, -2.0, -2.0], "feature": [2, 3, 2, -2, -2, 1, -2, -2, 3, 7, 1, 1, -2, -2, -2, -2, 2, 9, 1, 0, -2, 0, -2, 8, -2, -2, 9, -2, 1, 4, -2, -2, -2, -2, 3, 0, 0, -2, -2, 7, -2, -2, -2], "classes": [0, 1], "value": [[7832.0, 8067.0], [2631.0, 1793.0], [359.0, 346.0], [200.0, 122.0], [159.0, 224.0], [2272.0, 1447.0], [871.0, 427.0], [1401.0, 1020.0], [5201.0, 6274.0], [844.0, 1490.0], [391.0, 890.0], [352.0, 870.0], [51.0, 43.0], [301.0, 827.0], [39.0, 20.0], [453.0, 600.0], [4357.0, 4784.0], [2760.0, 2716.0], [2671.0, 2541.0], [2100.0, 2151.0], [131.0, 244.0], [1969.0, 1907.0], [796.0, 610.0], [1173.0, 1297.0], [1047.0, 1230.0], [126.0, 67.0], [571.0, 390.0], [66.0, 109.0], [505.0, 281.0], [253.0, 80.0], [227.0, 44.0], [26.0, 36.0], [252.0, 201.0], [89.0, 175.0], [1597.0, 2068.0], [1563.0, 2061.0], [713.0, 1104.0], [487.0, 564.0], [226.0, 540.0], [850.0, 957.0], [822.0, 856.0], [28.0, 101.0], [34.0, 7.0]]}, {"children_left": [1, 2, 3, -1, 5, -1, -1, 8, -1, -1, 11, 12, 13, -1, -1, -1, 17, 18, 19, -1, -1, -1, -1], "children_right": [10, 7, 4, -1, 6, -1, -1, 9, -1, -1, 16, 15, 14, -1, -1, -1, 22, 21, 20, -1, -1, -1, -1], "threshold": [22.824999809265137, 16.484999656677246, -8.5, -2.0, -1.5299999713897705, -2.0, -2.0, 4.924999952316284, -2.0, -2.0, 18.52500057220459, 49.5, 265.0, -2.0, -2.0, -2.0, 28.5, 4.5, 30.5, -2.0, -2.0, -2.0, -2.0], "feature": [2, 2, 1, -2, 8, -2, -2, 3, -2, -2, 8, 0, 9, -2, -2, -2, 0, 0, 1, -2, -2, -2, -2], "classes": [0, 1], "value": [[8014.0, 7885.0], [4030.0, 2937.0], [1761.0, 1055.0], [728.0, 341.0], [1033.0, 714.0], [49.0, 89.0], [984.0, 625.0], [2269.0, 1882.0], [990.0, 1001.0], [1279.0, 881.0], [3984.0, 4948.0], [2729.0, 2865.0], [2471.0, 2419.0], [2433.0, 2317.0], [38.0, 102.0], [258.0, 446.0], [1255.0, 2083.0], [718.0, 1507.0], [348.0, 493.0], [27.0, 125.0], [321.0, 368.0], [370.0, 1014.0], [537.0, 576.0]]}, {"children_left": [1, 2, 3, 4, -1, -1, -1, 8, 9, -1, -1, -1, 13, -1, 15, 16, 17, -1, 19, -1, 21, -1, -1, -1, 25, -1, 27, -1, 29, -1, -1], "children_right": [12, 7, 6, 5, -1, -1, -1, 11, 10, -1, -1, -1, 14, -1, 24, 23, 18, -1, 20, -1, 22, -1, -1, -1, 26, -1, 28, -1, 30, -1, -1], "threshold": [20.65499973297119, 136.5, 12.5, 12.5, -2.0, -2.0, -2.0, 16.894999504089355, -29.5, -2.0, -2.0, -2.0, -27.5, -2.0, 25.5, 125.5, -101.5, -2.0, 94.5, -2.0, 106.5, -2.0, -2.0, -2.0, 42.5, -2.0, 114.5, -2.0, 49.5, -2.0, -2.0], "feature": [2, 9, 1, 0, -2, -2, -2, 2, 0, -2, -2, -2, 0, -2, 0, 1, 1, -2, 1, -2, 1, -2, -2, -2, 0, -2, 9, -2, 0, -2, -2], "classes": [0, 1], "value": [[7974.0, 7925.0], [3129.0, 2140.0], [2044.0, 1190.0], [1373.0, 624.0], [18.0, 38.0], [1355.0, 586.0], [671.0, 566.0], [1085.0, 950.0], [712.0, 502.0], [170.0, 52.0], [542.0, 450.0], [373.0, 448.0], [4845.0, 5785.0], [802.0, 608.0], [4043.0, 5177.0], [956.0, 1769.0], [802.0, 1627.0], [62.0, 39.0], [740.0, 1588.0], [220.0, 687.0], [520.0, 901.0], [245.0, 275.0], [275.0, 626.0], [154.0, 142.0], [3087.0, 3408.0], [1968.0, 1822.0], [1119.0, 1586.0], [402.0, 413.0], [717.0, 1173.0], [414.0, 532.0], [303.0, 641.0]]}, {"children_left": [1, 2, 3, 4, -1, -1, 7, -1, 9, -1, -1, 12, 13, 14, -1, -1, 17, 18, -1, 20, -1, -1, -1, 24, 25, 26, 27, -1, -1, -1, -1, -1, 33, 34, 35, -1, 37, -1, -1, -1, -1], "children_right": [32, 11, 6, 5, -1, -1, 8, -1, 10, -1, -1, 23, 16, 15, -1, -1, 22, 19, -1, 21, -1, -1, -1, 31, 30, 29, 28, -1, -1, -1, -1, -1, 40, 39, 36, -1, 38, -1, -1, -1, -1], "threshold": [18.585000038146973, 17.125, -8.5, 31.5, -2.0, -2.0, 4.4049999713897705, -2.0, 53.5, -2.0, -2.0, 5.204999923706055, -5.5, 20.5, -2.0, -2.0, 113.5, 7.229999780654907, -2.0, 13.5, -2.0, -2.0, -2.0, 111.0, 28.175000190734863, 40.5, 40.5, -2.0, -2.0, -2.0, -2.0, -2.0, 29.5, 125.5, -92.5, -2.0, 101.5, -2.0, -2.0, -2.0, -2.0], "feature": [8, 2, 1, 0, -2, -2, 8, -2, 9, -2, -2, 3, 1, 0, -2, -2, 9, 8, -2, 1, -2, -2, -2, 1, 2, 0, 1, -2, -2, -2, -2, -2, 0, 1, 1, -2, 1, -2, -2, -2, -2], "classes": [0, 1], "value": [[7854.0, 8045.0], [6630.0, 5965.0], [1904.0, 1159.0], [760.0, 326.0], [27.0, 45.0], [733.0, 281.0], [1144.0, 833.0], [367.0, 368.0], [777.0, 465.0], [147.0, 151.0], [630.0, 314.0], [4726.0, 4806.0], [2292.0, 2702.0], [968.0, 978.0], [88.0, 167.0], [880.0, 811.0], [1324.0, 1724.0], [558.0, 604.0], [74.0, 179.0], [484.0, 425.0], [178.0, 74.0], [306.0, 351.0], [766.0, 1120.0], [2434.0, 2104.0], [1836.0, 1727.0], [1460.0, 1251.0], [633.0, 441.0], [623.0, 398.0], [10.0, 43.0], [827.0, 810.0], [376.0, 476.0], [598.0, 377.0], [1224.0, 2080.0], [708.0, 1527.0], [599.0, 1423.0], [36.0, 21.0], [563.0, 1402.0], [154.0, 578.0], [409.0, 824.0], [109.0, 104.0], [516.0, 553.0]]}, {"children_left": [1, -1, 3, 4, 5, -1, 7, 8, -1, -1, -1, 12, 13, -1, 15, -1, -1, 18, -1, -1, 21, 22, -1, -1, 25, -1, -1], "children_right": [2, -1, 20, 11, 6, -1, 10, 9, -1, -1, -1, 17, 14, -1, 16, -1, -1, 19, -1, -1, 24, 23, -1, -1, 26, -1, -1], "threshold": [18.085000038146973, -2.0, 16.954999923706055, 5.505000114440918, -92.5, -2.0, 138.5, 30.5, -2.0, -2.0, -2.0, 111.0, 27.0, -2.0, -0.5, -2.0, -2.0, 148.5, -2.0, -2.0, 33.5, -10.5, -2.0, -2.0, 18.280000686645508, -2.0, -2.0], "feature": [2, -2, 8, 3, 1, -2, 1, 0, -2, -2, -2, 1, 0, -2, 1, -2, -2, 1, -2, -2, 0, 0, -2, -2, 8, -2, -2], "classes": [0, 1], "value": [[7810.0, 8089.0], [2161.0, 1405.0], [5649.0, 6684.0], [3872.0, 3992.0], [2059.0, 2505.0], [422.0, 363.0], [1637.0, 2142.0], [1307.0, 1853.0], [109.0, 283.0], [1198.0, 1570.0], [330.0, 289.0], [1813.0, 1487.0], [1353.0, 1224.0], [98.0, 171.0], [1255.0, 1053.0], [659.0, 435.0], [596.0, 618.0], [460.0, 263.0], [260.0, 88.0], [200.0, 175.0], [1777.0, 2692.0], [1014.0, 1923.0], [256.0, 252.0], [758.0, 1671.0], [763.0, 769.0], [211.0, 309.0], [552.0, 460.0]]}, {"children_left": [1, 2, 3, -1, -1, 6, -1, 8, -1, -1, 11, 12, 13, 14, -1, 16, -1, -1, -1, -1, 21, -1, 23, 24, -1, -1, -1], "children_right": [10, 5, 4, -1, -1, 7, -1, 9, -1, -1, 20, 19, 18, 15, -1, 17, -1, -1, -1, -1, 22, -1, 26, 25, -1, -1, -1], "threshold": [24.3149995803833, 15.904999732971191, -0.9749999940395355, -2.0, -2.0, 4.894999980926514, -2.0, 220.5, -2.0, -2.0, 5.204999923706055, 29.5, 125.5, -89.5, -2.0, 3.5, -2.0, -2.0, -2.0, -2.0, -19.5, -2.0, 25.5, 5.305000066757202, -2.0, -2.0, -2.0], "feature": [2, 2, 8, -2, -2, 3, -2, 9, -2, -2, 3, 0, 1, 1, -2, 0, -2, -2, -2, -2, 0, -2, 0, 3, -2, -2, -2], "classes": [0, 1], "value": [[7950.0, 7949.0], [4615.0, 3618.0], [1574.0, 952.0], [249.0, 239.0], [1325.0, 713.0], [3041.0, 2666.0], [1314.0, 1396.0], [1727.0, 1270.0], [1605.0, 1107.0], [122.0, 163.0], [3335.0, 4331.0], [1671.0, 2610.0], [662.0, 1338.0], [468.0, 1140.0], [51.0, 31.0], [417.0, 1109.0], [198.0, 350.0], [219.0, 759.0], [194.0, 198.0], [1009.0, 1272.0], [1664.0, 1721.0], [416.0, 288.0], [1248.0, 1433.0], [249.0, 456.0], [27.0, 8.0], [222.0, 448.0], [999.0, 977.0]]}, {"children_left": [1, 2, 3, 4, -1, -1, 7, 8, -1, -1, -1, 12, -1, -1, 15, 16, 17, 18, 19, -1, -1, -1, 23, 24, -1, 26, -1, -1, -1, 30, 31, -1, -1, -1, 35, 36, 37, -1, 39, -1, -1, -1, -1], "children_right": [14, 11, 6, 5, -1, -1, 10, 9, -1, -1, -1, 13, -1, -1, 34, 29, 22, 21, 20, -1, -1, -1, 28, 25, -1, 27, -1, -1, -1, 33, 32, -1, -1, -1, 42, 41, 38, -1, 40, -1, -1, -1, -1], "threshold": [20.875, 157.5, 12.5, 19.5, -2.0, -2.0, 49.5, 133.5, -2.0, -2.0, -2.0, 17.13499927520752, -2.0, -2.0, 18.785000801086426, 113.5, 18.5, -23.5, 7.950000047683716, -2.0, -2.0, -2.0, 80.5, 40.5, -2.0, 18.425000190734863, -2.0, -2.0, -2.0, 145.5, -3.0, -2.0, -2.0, -2.0, 29.5, 1.5, 48.0, -2.0, 87.5, -2.0, -2.0, -2.0, -2.0], "feature": [2, 9, 1, 0, -2, -2, 5, 1, -2, -2, -2, 2, -2, -2, 8, 1, 0, 0, 8, -2, -2, -2, 1, 0, -2, 8, -2, -2, -2, 1, 0, -2, -2, -2, 0, 0, 1, -2, 9, -2, -2, -2, -2], "classes": [0, 1], "value": [[7841.0, 8058.0], [3214.0, 2224.0], [2210.0, 1352.0], [1438.0, 753.0], [20.0, 55.0], [1418.0, 698.0], [772.0, 599.0], [155.0, 201.0], [104.0, 181.0], [51.0, 20.0], [617.0, 398.0], [1004.0, 872.0], [680.0, 480.0], [324.0, 392.0], [4627.0, 5834.0], [3373.0, 3795.0], [2642.0, 3225.0], [128.0, 332.0], [92.0, 141.0], [10.0, 61.0], [82.0, 80.0], [36.0, 191.0], [2514.0, 2893.0], [2509.0, 2842.0], [1142.0, 1076.0], [1367.0, 1766.0], [1317.0, 1757.0], [50.0, 9.0], [5.0, 51.0], [731.0, 570.0], [341.0, 165.0], [325.0, 114.0], [16.0, 51.0], [390.0, 405.0], [1254.0, 2039.0], [811.0, 1516.0], [324.0, 383.0], [26.0, 92.0], [298.0, 291.0], [100.0, 40.0], [198.0, 251.0], [487.0, 1133.0], [443.0, 523.0]]}, {"children_left": [1, 2, 3, 4, -1, -1, 7, -1, -1, 10, 11, -1, -1, -1, 15, 16, -1, 18, 19, -1, -1, -1, 23, 24, -1, -1, 27, 28, -1, -1, 31, -1, -1], "children_right": [14, 9, 6, 5, -1, -1, 8, -1, -1, 13, 12, -1, -1, -1, 22, 17, -1, 21, 20, -1, -1, -1, 26, 25, -1, -1, 30, 29, -1, -1, 32, -1, -1], "threshold": [23.954999923706055, 17.304999351501465, -0.5, 32.5, -2.0, -2.0, -0.7599999904632568, -2.0, -2.0, 5.355000019073486, -62.5, -2.0, -2.0, -2.0, 3.9550000429153442, -92.5, -2.0, 29.5, 4.5, -2.0, -2.0, -2.0, -20.5, 128.5, -2.0, -2.0, 25.5, 34.5, -2.0, -2.0, 42.5, -2.0, -2.0], "feature": [2, 2, 1, 0, -2, -2, 8, -2, -2, 3, 1, -2, -2, -2, 3, 1, -2, 0, 0, -2, -2, -2, 0, 9, -2, -2, 0, 9, -2, -2, 0, -2, -2], "classes": [0, 1], "value": [[7810.0, 8089.0], [4362.0, 3432.0], [1917.0, 1211.0], [986.0, 496.0], [32.0, 61.0], [954.0, 435.0], [931.0, 715.0], [65.0, 116.0], [866.0, 599.0], [2445.0, 2221.0], [1279.0, 1390.0], [477.0, 390.0], [802.0, 1000.0], [1166.0, 831.0], [3448.0, 4657.0], [831.0, 1574.0], [117.0, 94.0], [714.0, 1480.0], [323.0, 855.0], [187.0, 306.0], [136.0, 549.0], [391.0, 625.0], [2617.0, 3083.0], [618.0, 483.0], [249.0, 274.0], [369.0, 209.0], [1999.0, 2600.0], [411.0, 905.0], [80.0, 80.0], [331.0, 825.0], [1588.0, 1695.0], [1182.0, 1051.0], [406.0, 644.0]]}, {"children_left": [1, 2, 3, -1, -1, 6, 7, 8, -1, -1, -1, -1, 13, 14, -1, 16, 17, 18, -1, -1, -1, -1, 23, 24, -1, 26, -1, 28, -1, -1, 31, 32, -1, 34, -1, 36, -1, 38, 39, -1, 41, -1, -1, 44, -1, -1, -1], "children_right": [12, 5, 4, -1, -1, 11, 10, 9, -1, -1, -1, -1, 22, 15, -1, 21, 20, 19, -1, -1, -1, -1, 30, 25, -1, 27, -1, 29, -1, -1, 46, 33, -1, 35, -1, 37, -1, 43, 40, -1, 42, -1, -1, 45, -1, -1, -1], "threshold": [20.964999198913574, 200.5, 17.875, -2.0, -2.0, 83.5, -32.5, 17.139999389648438, -2.0, -2.0, -2.0, -2.0, -18.5, 90.5, -2.0, 89.5, 145.5, 86.5, -2.0, -2.0, -2.0, -2.0, 25.5, -96.5, -2.0, 97.5, -2.0, 3.5, -2.0, -2.0, 5.384999990463257, -72.5, -2.0, 30.5, -2.0, 10.900000095367432, -2.0, 114.5, 13.5, -2.0, 16.795000076293945, -2.0, -2.0, 29.5, -2.0, -2.0, -2.0], "feature": [2, 9, 2, -2, -2, 5, 0, 2, -2, -2, -2, -2, 0, 9, -2, 5, 1, 1, -2, -2, -2, -2, 0, 1, -2, 1, -2, 0, -2, -2, 3, 1, -2, 0, -2, 8, -2, 9, 1, -2, 8, -2, -2, 1, -2, -2, -2], "classes": [0, 1], "value": [[7923.0, 7976.0], [3233.0, 2200.0], [2425.0, 1472.0], [1539.0, 806.0], [886.0, 666.0], [808.0, 728.0], [664.0, 663.0], [187.0, 104.0], [128.0, 34.0], [59.0, 70.0], [477.0, 559.0], [144.0, 65.0], [4690.0, 5776.0], [947.0, 746.0], [174.0, 240.0], [773.0, 506.0], [773.0, 491.0], [405.0, 189.0], [94.0, 103.0], [311.0, 86.0], [368.0, 302.0], [0.0, 15.0], [3743.0, 5030.0], [715.0, 1583.0], [91.0, 78.0], [624.0, 1505.0], [99.0, 522.0], [525.0, 983.0], [250.0, 308.0], [275.0, 675.0], [3028.0, 3447.0], [1613.0, 2121.0], [809.0, 849.0], [804.0, 1272.0], [11.0, 80.0], [793.0, 1192.0], [189.0, 416.0], [604.0, 776.0], [231.0, 208.0], [139.0, 71.0], [92.0, 137.0], [62.0, 130.0], [30.0, 7.0], [373.0, 568.0], [315.0, 537.0], [58.0, 31.0], [1415.0, 1326.0]]}, {"children_left": [1, 2, 3, -1, 5, 6, -1, 8, -1, -1, -1, 12, -1, -1, 15, 16, 17, 18, -1, 20, -1, 22, -1, -1, -1, -1, 27, 28, 29, -1, -1, -1, -1], "children_right": [14, 11, 4, -1, 10, 7, -1, 9, -1, -1, -1, 13, -1, -1, 26, 25, 24, 19, -1, 21, -1, 23, -1, -1, -1, -1, 32, 31, 30, -1, -1, -1, -1], "threshold": [20.40499973297119, 220.5, 12.619999885559082, -2.0, 57.5, 5.5, -2.0, 51.5, -2.0, -2.0, -2.0, 16.894999504089355, -2.0, -2.0, 17.545000076293945, 42.5, 249.0, 165.5, -2.0, 40.5, -2.0, -82.5, -2.0, -2.0, -2.0, -2.0, 25.5, 4.5, 78.5, -2.0, -2.0, -2.0, -2.0], "feature": [2, 9, 2, -2, 9, 1, -2, 9, -2, -2, -2, 2, -2, -2, 8, 0, 9, 9, -2, 0, -2, 1, -2, -2, -2, -2, 0, 0, 1, -2, -2, -2, -2], "classes": [0, 1], "value": [[7788.0, 8111.0], [2970.0, 2058.0], [2239.0, 1401.0], [491.0, 215.0], [1748.0, 1186.0], [449.0, 424.0], [281.0, 193.0], [168.0, 231.0], [159.0, 169.0], [9.0, 62.0], [1299.0, 762.0], [731.0, 657.0], [594.0, 431.0], [137.0, 226.0], [4818.0, 6053.0], [3310.0, 3576.0], [2330.0, 2195.0], [2256.0, 2044.0], [1652.0, 1640.0], [604.0, 404.0], [539.0, 316.0], [65.0, 88.0], [29.0, 5.0], [36.0, 83.0], [74.0, 151.0], [980.0, 1381.0], [1508.0, 2477.0], [720.0, 1581.0], [405.0, 546.0], [36.0, 129.0], [369.0, 417.0], [315.0, 1035.0], [788.0, 896.0]]}, {"children_left": [1, 2, 3, -1, 5, -1, -1, 8, -1, 10, -1, 12, -1, 14, 15, -1, -1, -1, 19, -1, 21, -1, 23, -1, 25, -1, -1], "children_right": [18, 7, 4, -1, 6, -1, -1, 9, -1, 11, -1, 13, -1, 17, 16, -1, -1, -1, 20, -1, 22, -1, 24, -1, 26, -1, -1], "threshold": [23.77500057220459, 18.085000038146973, 4.724999904632568, -2.0, -8.5, -2.0, -2.0, 53.5, -2.0, 3.0549999475479126, -2.0, -36.5, -2.0, 125.5, 47.5, -2.0, -2.0, -2.0, 2.9950000047683716, -2.0, 61.5, -2.0, -20.5, -2.0, 25.5, -2.0, -2.0], "feature": [2, 2, 3, -2, 1, -2, -2, 9, -2, 3, -2, 0, -2, 9, 0, -2, -2, -2, 3, -2, 6, -2, 0, -2, 0, -2, -2], "classes": [0, 1], "value": [[8032.0, 7867.0], [4362.0, 3318.0], [2174.0, 1369.0], [834.0, 650.0], [1340.0, 719.0], [550.0, 202.0], [790.0, 517.0], [2188.0, 1949.0], [222.0, 328.0], [1966.0, 1621.0], [209.0, 294.0], [1757.0, 1327.0], [107.0, 29.0], [1650.0, 1298.0], [891.0, 575.0], [542.0, 426.0], [349.0, 149.0], [759.0, 723.0], [3670.0, 4549.0], [349.0, 744.0], [3321.0, 3805.0], [2228.0, 2223.0], [1093.0, 1582.0], [226.0, 169.0], [867.0, 1413.0], [315.0, 683.0], [552.0, 730.0]]}, {"children_left": [1, 2, 3, -1, 5, 6, -1, -1, -1, 10, -1, -1, 13, 14, 15, -1, 17, -1, -1, 20, 21, 22, -1, -1, 25, -1, -1, 28, -1, -1, -1], "children_right": [12, 9, 4, -1, 8, 7, -1, -1, -1, 11, -1, -1, 30, 19, 16, -1, 18, -1, -1, 27, 24, 23, -1, -1, 26, -1, -1, 29, -1, -1, -1], "threshold": [20.394999504089355, 17.5, 31.5, -2.0, 5.115000009536743, 41.5, -2.0, -2.0, -2.0, 45.5, -2.0, -2.0, 21.755000114440918, 5.515000104904175, -92.5, -2.0, 2.7450000047683716, -2.0, -2.0, 31.100000381469727, 79.0, 18.5, -2.0, -2.0, 30.0, -2.0, -2.0, 5.979999780654907, -2.0, -2.0, -2.0], "feature": [2, 1, 0, -2, 3, 0, -2, -2, -2, 5, -2, -2, 8, 3, 1, -2, 3, -2, -2, 2, 1, 0, -2, -2, 9, -2, -2, 8, -2, -2, -2], "classes": [0, 1], "value": [[7859.0, 8040.0], [2894.0, 2026.0], [1892.0, 1116.0], [71.0, 110.0], [1821.0, 1006.0], [760.0, 529.0], [269.0, 115.0], [491.0, 414.0], [1061.0, 477.0], [1002.0, 910.0], [115.0, 205.0], [887.0, 705.0], [4965.0, 6014.0], [4327.0, 4837.0], [2402.0, 3064.0], [419.0, 334.0], [1983.0, 2730.0], [232.0, 468.0], [1751.0, 2262.0], [1925.0, 1773.0], [1605.0, 1351.0], [1150.0, 1089.0], [40.0, 97.0], [1110.0, 992.0], [455.0, 262.0], [18.0, 43.0], [437.0, 219.0], [320.0, 422.0], [73.0, 38.0], [247.0, 384.0], [638.0, 1177.0]]}, {"children_left": [1, 2, -1, 4, 5, 6, 7, -1, -1, 10, -1, -1, -1, -1, 15, 16, -1, -1, 19, 20, 21, -1, -1, 24, 25, -1, -1, -1, 29, 30, -1, -1, 33, 34, -1, -1, -1], "children_right": [14, 3, -1, 13, 12, 9, 8, -1, -1, 11, -1, -1, -1, -1, 18, 17, -1, -1, 28, 23, 22, -1, -1, 27, 26, -1, -1, -1, 32, 31, -1, -1, 36, 35, -1, -1, -1], "threshold": [23.954999923706055, 16.855000495910645, -2.0, 193.5, 165.5, 125.5, 53.5, -2.0, -2.0, 42.5, -2.0, -2.0, -2.0, -2.0, -18.5, 147.5, -2.0, -2.0, 25.5, 101.5, -96.5, -2.0, -2.0, 3.5, 57.5, -2.0, -2.0, -2.0, 49.5, 79.5, -2.0, -2.0, 116.5, 17.434999465942383, -2.0, -2.0, -2.0], "feature": [2, 2, -2, 9, 9, 9, 9, -2, -2, 1, -2, -2, -2, -2, 0, 9, -2, -2, 0, 1, 1, -2, -2, 0, 9, -2, -2, -2, 0, 1, -2, -2, 9, 8, -2, -2, -2], "classes": [0, 1], "value": [[7889.0, 8010.0], [4481.0, 3400.0], [1838.0, 1075.0], [2643.0, 2325.0], [2215.0, 1760.0], [1985.0, 1665.0], [1563.0, 1146.0], [327.0, 366.0], [1236.0, 780.0], [422.0, 519.0], [347.0, 491.0], [75.0, 28.0], [230.0, 95.0], [428.0, 565.0], [3408.0, 4610.0], [680.0, 579.0], [345.0, 402.0], [335.0, 177.0], [2728.0, 4031.0], [647.0, 1538.0], [183.0, 663.0], [70.0, 89.0], [113.0, 574.0], [464.0, 875.0], [236.0, 289.0], [50.0, 15.0], [186.0, 274.0], [228.0, 586.0], [2081.0, 2493.0], [1866.0, 2066.0], [1850.0, 1998.0], [16.0, 68.0], [215.0, 427.0], [87.0, 83.0], [51.0, 80.0], [36.0, 3.0], [128.0, 344.0]]}, {"children_left": [1, 2, -1, 4, -1, 6, -1, -1, 9, 10, 11, 12, 13, -1, 15, -1, -1, 18, -1, 20, -1, -1, -1, 24, -1, 26, -1, -1, 29, 30, 31, -1, -1, 34, -1, 36, -1, -1, -1], "children_right": [8, 3, -1, 5, -1, 7, -1, -1, 28, 23, 22, 17, 14, -1, 16, -1, -1, 19, -1, 21, -1, -1, -1, 25, -1, 27, -1, -1, 38, 33, 32, -1, -1, 35, -1, 37, -1, -1, -1], "threshold": [20.40499973297119, -119.5, -2.0, 15.96500015258789, -2.0, 229.5, -2.0, -2.0, 18.585000038146973, 49.5, 271.5, -20.5, 109.5, -2.0, 147.5, -2.0, -2.0, 18.5, -2.0, 1.6049999594688416, -2.0, -2.0, -2.0, 117.5, -2.0, 22.47499942779541, -2.0, -2.0, 28.5, 101.5, 44.5, -2.0, -2.0, 3.965000033378601, -2.0, 10.5, -2.0, -2.0, -2.0], "feature": [2, 1, -2, 2, -2, 9, -2, -2, 8, 0, 9, 0, 9, -2, 1, -2, -2, 0, -2, 8, -2, -2, -2, 9, -2, 2, -2, -2, 0, 1, 6, -2, -2, 3, -2, 0, -2, -2, -2], "classes": [0, 1], "value": [[7923.0, 7976.0], [2969.0, 2023.0], [156.0, 41.0], [2813.0, 1982.0], [1435.0, 858.0], [1378.0, 1124.0], [1206.0, 894.0], [172.0, 230.0], [4954.0, 5953.0], [3668.0, 3881.0], [3173.0, 3110.0], [3080.0, 2935.0], [847.0, 643.0], [276.0, 318.0], [571.0, 325.0], [346.0, 126.0], [225.0, 199.0], [2233.0, 2292.0], [44.0, 128.0], [2189.0, 2164.0], [136.0, 64.0], [2053.0, 2100.0], [93.0, 175.0], [495.0, 771.0], [203.0, 151.0], [292.0, 620.0], [140.0, 170.0], [152.0, 450.0], [1286.0, 2072.0], [744.0, 1514.0], [177.0, 599.0], [88.0, 150.0], [89.0, 449.0], [567.0, 915.0], [213.0, 464.0], [354.0, 451.0], [232.0, 208.0], [122.0, 243.0], [542.0, 558.0]]}, {"children_left": [1, 2, -1, 4, -1, -1, 7, 8, 9, -1, 11, -1, -1, 14, -1, 16, -1, -1, 19, -1, -1], "children_right": [6, 3, -1, 5, -1, -1, 18, 13, 10, -1, 12, -1, -1, 15, -1, 17, -1, -1, 20, -1, -1], "threshold": [20.704999923706055, 16.855000495910645, -2.0, 226.0, -2.0, -2.0, 19.105000495910645, 6.164999961853027, -73.5, -2.0, 29.5, -2.0, -2.0, 48.5, -2.0, 145.5, -2.0, -2.0, 34.5, -2.0, -2.0], "feature": [2, 2, -2, 9, -2, -2, 8, 3, 1, -2, 1, -2, -2, 1, -2, 1, -2, -2, 0, -2, -2], "classes": [0, 1], "value": [[7840.0, 8059.0], [3066.0, 2152.0], [1865.0, 1098.0], [1201.0, 1054.0], [1055.0, 828.0], [146.0, 226.0], [4774.0, 5907.0], [3590.0, 3968.0], [2359.0, 2881.0], [869.0, 828.0], [1490.0, 2053.0], [836.0, 1346.0], [654.0, 707.0], [1231.0, 1087.0], [830.0, 835.0], [401.0, 252.0], [251.0, 100.0], [150.0, 152.0], [1184.0, 1939.0], [820.0, 1594.0], [364.0, 345.0]]}, {"children_left": [1, 2, 3, 4, -1, -1, -1, 8, 9, 10, -1, -1, -1, -1, 15, 16, 17, 18, 19, 20, -1, 22, -1, -1, 25, -1, -1, -1, -1, -1, 31, 32, 33, -1, -1, -1, -1], "children_right": [14, 7, 6, 5, -1, -1, -1, 13, 12, 11, -1, -1, -1, -1, 30, 29, 28, 27, 24, 21, -1, 23, -1, -1, 26, -1, -1, -1, -1, -1, 36, 35, 34, -1, -1, -1, -1], "threshold": [23.77500057220459, 18.085000038146973, -8.5, 31.5, -2.0, -2.0, -2.0, 4.894999980926514, -5.5, 20.5, -2.0, -2.0, -2.0, -2.0, 21.804999351501465, 7.474999904632568, 225.5, 49.5, 16.765000343322754, 135.5, -2.0, 38.5, -2.0, -2.0, 34.5, -2.0, -2.0, -2.0, -2.0, -2.0, 25.5, 1.5, 177.5, -2.0, -2.0, -2.0, -2.0], "feature": [2, 2, 1, 0, -2, -2, -2, 3, 1, 0, -2, -2, -2, -2, 8, 3, 9, 0, 8, 9, -2, 0, -2, -2, 0, -2, -2, -2, -2, -2, 0, 0, 9, -2, -2, -2, -2], "classes": [0, 1], "value": [[7794.0, 8105.0], [4329.0, 3401.0], [2146.0, 1401.0], [805.0, 414.0], [38.0, 70.0], [767.0, 344.0], [1341.0, 987.0], [2183.0, 2000.0], [974.0, 1068.0], [435.0, 353.0], [26.0, 84.0], [409.0, 269.0], [539.0, 715.0], [1209.0, 932.0], [3465.0, 4704.0], [2846.0, 3463.0], [2316.0, 3027.0], [2203.0, 2766.0], [1982.0, 2356.0], [1320.0, 1424.0], [761.0, 975.0], [559.0, 449.0], [336.0, 194.0], [223.0, 255.0], [662.0, 932.0], [291.0, 532.0], [371.0, 400.0], [221.0, 410.0], [113.0, 261.0], [530.0, 436.0], [619.0, 1241.0], [430.0, 1024.0], [164.0, 202.0], [115.0, 87.0], [49.0, 115.0], [266.0, 822.0], [189.0, 217.0]]}, {"children_left": [1, 2, -1, 4, 5, -1, -1, 8, -1, 10, -1, -1, 13, 14, -1, 16, 17, 18, 19, -1, -1, -1, 23, -1, -1, -1, 27, 28, -1, 30, -1, -1, -1], "children_right": [12, 3, -1, 7, 6, -1, -1, 9, -1, 11, -1, -1, 26, 15, -1, 25, 22, 21, 20, -1, -1, -1, 24, -1, -1, -1, 32, 29, -1, 31, -1, -1, -1], "threshold": [19.994999885559082, 3.215000033378601, -2.0, -8.5, 31.5, -2.0, -2.0, 44.5, -2.0, 57.5, -2.0, -2.0, 5.204999923706055, -92.5, -2.0, 129.0, 29.5, 3.5, 103.5, -2.0, -2.0, -2.0, 29.5, -2.0, -2.0, -2.0, 22.664999961853027, 144.5, -2.0, -16.5, -2.0, -2.0, -2.0], "feature": [2, 3, -2, 1, 0, -2, -2, 5, -2, 9, -2, -2, 3, 1, -2, 1, 0, 0, 1, -2, -2, -2, 1, -2, -2, -2, 8, 9, -2, 0, -2, -2, -2], "classes": [0, 1], "value": [[7814.0, 8085.0], [2808.0, 1943.0], [388.0, 398.0], [2420.0, 1545.0], [926.0, 432.0], [49.0, 63.0], [877.0, 369.0], [1494.0, 1113.0], [117.0, 162.0], [1377.0, 951.0], [289.0, 289.0], [1088.0, 662.0], [5006.0, 6142.0], [2486.0, 3660.0], [392.0, 346.0], [2094.0, 3314.0], [1804.0, 3037.0], [506.0, 1232.0], [243.0, 364.0], [110.0, 247.0], [133.0, 117.0], [263.0, 868.0], [1298.0, 1805.0], [1134.0, 1682.0], [164.0, 123.0], [290.0, 277.0], [2520.0, 2482.0], [2351.0, 2167.0], [1534.0, 1573.0], [817.0, 594.0], [310.0, 130.0], [507.0, 464.0], [169.0, 315.0]]}, {"children_left": [1, 2, -1, 4, 5, -1, -1, -1, 9, 10, 11, -1, -1, 14, 15, -1, 17, -1, -1, 20, -1, -1, 23, 24, 25, -1, -1, -1, -1], "children_right": [8, 3, -1, 7, 6, -1, -1, -1, 22, 13, 12, -1, -1, 19, 16, -1, 18, -1, -1, 21, -1, -1, 28, 27, 26, -1, -1, -1, -1], "threshold": [22.394999504089355, 17.84500026702881, -2.0, 221.5, 20.5, -2.0, -2.0, -2.0, 18.585000038146973, 4.484999895095825, -59.5, -2.0, -2.0, 114.0, 47.5, -2.0, 117.5, -2.0, -2.0, 146.5, -2.0, -2.0, 28.5, 1.5, 48.0, -2.0, -2.0, -2.0, -2.0], "feature": [2, 2, -2, 9, 9, -2, -2, -2, 8, 3, 1, -2, -2, 1, 0, -2, 9, -2, -2, 1, -2, -2, 0, 0, 1, -2, -2, -2, -2], "classes": [0, 1], "value": [[7792.0, 8107.0], [3664.0, 2858.0], [2027.0, 1336.0], [1637.0, 1522.0], [1477.0, 1268.0], [24.0, 69.0], [1453.0, 1199.0], [160.0, 254.0], [4128.0, 5249.0], [2864.0, 3156.0], [976.0, 1344.0], [422.0, 431.0], [554.0, 913.0], [1888.0, 1812.0], [1407.0, 1498.0], [1171.0, 1150.0], [236.0, 348.0], [100.0, 60.0], [136.0, 288.0], [481.0, 314.0], [229.0, 82.0], [252.0, 232.0], [1264.0, 2093.0], [768.0, 1538.0], [324.0, 404.0], [28.0, 110.0], [296.0, 294.0], [444.0, 1134.0], [496.0, 555.0]]}, {"children_left": [1, 2, -1, -1, 5, 6, -1, 8, -1, 10, -1, -1, 13, 14, 15, -1, -1, -1, 19, -1, 21, -1, -1], "children_right": [4, 3, -1, -1, 12, 7, -1, 9, -1, 11, -1, -1, 18, 17, 16, -1, -1, -1, 20, -1, 22, -1, -1], "threshold": [20.875, 4.525000095367432, -2.0, -2.0, -26.5, 132.5, -2.0, 145.5, -2.0, -34.5, -2.0, -2.0, 28.5, 125.5, -96.5, -2.0, -2.0, -2.0, 5.474999904632568, -2.0, 109.5, -2.0, -2.0], "feature": [2, 3, -2, -2, 0, 9, -2, 1, -2, 0, -2, -2, 0, 1, 1, -2, -2, -2, 3, -2, 9, -2, -2], "classes": [0, 1], "value": [[7920.0, 7979.0], [3211.0, 2166.0], [1120.0, 978.0], [2091.0, 1188.0], [4709.0, 5813.0], [862.0, 677.0], [358.0, 388.0], [504.0, 289.0], [276.0, 88.0], [228.0, 201.0], [57.0, 101.0], [171.0, 100.0], [3847.0, 5136.0], [925.0, 1835.0], [827.0, 1773.0], [137.0, 120.0], [690.0, 1653.0], [98.0, 62.0], [2922.0, 3301.0], [1682.0, 2117.0], [1240.0, 1184.0], [507.0, 329.0], [733.0, 855.0]]}, {"children_left": [1, 2, 3, 4, -1, -1, -1, 8, -1, -1, 11, 12, -1, 14, 15, -1, -1, -1, 19, 20, -1, 22, -1, 24, -1, -1, 27, 28, -1, -1, 31, 32, -1, -1, -1], "children_right": [10, 7, 6, 5, -1, -1, -1, 9, -1, -1, 18, 13, -1, 17, 16, -1, -1, -1, 26, 21, -1, 23, -1, 25, -1, -1, 30, 29, -1, -1, 34, 33, -1, -1, -1], "threshold": [20.875, 124.5, 14.5, 12.5, -2.0, -2.0, -2.0, 16.894999504089355, -2.0, -2.0, -17.5, 147.5, -2.0, 145.5, 245.5, -2.0, -2.0, -2.0, 25.5, -102.5, -2.0, 47.5, -2.0, 97.5, -2.0, -2.0, 42.5, -85.5, -2.0, -2.0, 114.5, 47.5, -2.0, -2.0, -2.0], "feature": [2, 9, 1, 0, -2, -2, -2, 2, -2, -2, 0, 9, -2, 1, 9, -2, -2, -2, 0, 1, -2, 9, -2, 1, -2, -2, 0, 1, -2, -2, 9, 0, -2, -2, -2], "classes": [0, 1], "value": [[7964.0, 7935.0], [3202.0, 2201.0], [2011.0, 1139.0], [1324.0, 610.0], [19.0, 38.0], [1305.0, 572.0], [687.0, 529.0], [1191.0, 1062.0], [707.0, 509.0], [484.0, 553.0], [4762.0, 5734.0], [1042.0, 819.0], [525.0, 531.0], [517.0, 288.0], [295.0, 107.0], [288.0, 87.0], [7.0, 20.0], [222.0, 181.0], [3720.0, 4915.0], [727.0, 1561.0], [56.0, 27.0], [671.0, 1534.0], [140.0, 174.0], [531.0, 1360.0], [102.0, 457.0], [429.0, 903.0], [2993.0, 3354.0], [1916.0, 1858.0], [718.0, 548.0], [1198.0, 1310.0], [1077.0, 1496.0], [388.0, 396.0], [156.0, 237.0], [232.0, 159.0], [689.0, 1100.0]]}, {"children_left": [1, 2, -1, 4, -1, 6, -1, -1, 9, 10, 11, -1, 13, -1, -1, -1, 17, 18, 19, -1, -1, 22, -1, -1, -1], "children_right": [8, 3, -1, 5, -1, 7, -1, -1, 16, 15, 12, -1, 14, -1, -1, -1, 24, 21, 20, -1, -1, 23, -1, -1, -1], "threshold": [24.15499973297119, 15.675000190734863, -2.0, 6.065000057220459, -2.0, 220.5, -2.0, -2.0, 19.125, 112.5, 26.5, -2.0, 49.5, -2.0, -2.0, -2.0, 28.5, 103.5, -96.5, -2.0, -2.0, 108.5, -2.0, -2.0, -2.0], "feature": [2, 2, -2, 3, -2, 9, -2, -2, 8, 1, 0, -2, 0, -2, -2, -2, 0, 1, 1, -2, -2, 1, -2, -2, -2], "classes": [0, 1], "value": [[7841.0, 8058.0], [4529.0, 3561.0], [1528.0, 896.0], [3001.0, 2665.0], [1977.0, 1949.0], [1024.0, 716.0], [940.0, 599.0], [84.0, 117.0], [3312.0, 4497.0], [2284.0, 2616.0], [1790.0, 2215.0], [190.0, 380.0], [1600.0, 1835.0], [1403.0, 1478.0], [197.0, 357.0], [494.0, 401.0], [1028.0, 1881.0], [633.0, 1403.0], [191.0, 626.0], [34.0, 23.0], [157.0, 603.0], [442.0, 777.0], [162.0, 171.0], [280.0, 606.0], [395.0, 478.0]]}, {"children_left": [1, -1, 3, 4, 5, -1, 7, -1, -1, 10, -1, 12, 13, -1, -1, -1, 17, 18, -1, 20, -1, -1, -1], "children_right": [2, -1, 16, 9, 6, -1, 8, -1, -1, 11, -1, 15, 14, -1, -1, -1, 22, 19, -1, 21, -1, -1, -1], "threshold": [15.914999961853027, -2.0, 18.714999198913574, 5.204999923706055, -92.5, -2.0, 18.545000076293945, -2.0, -2.0, 147.5, -2.0, -27.5, 248.5, -2.0, -2.0, -2.0, 28.5, 101.5, -2.0, 4.5, -2.0, -2.0, -2.0], "feature": [2, -2, 8, 3, 1, -2, 2, -2, -2, 9, -2, 0, 9, -2, -2, -2, 0, 1, -2, 0, -2, -2, -2], "classes": [0, 1], "value": [[7730.0, 8169.0], [1550.0, 916.0], [6180.0, 7253.0], [4970.0, 5227.0], [2424.0, 2964.0], [444.0, 373.0], [1980.0, 2591.0], [345.0, 297.0], [1635.0, 2294.0], [2546.0, 2263.0], [1728.0, 1660.0], [818.0, 603.0], [271.0, 117.0], [259.0, 85.0], [12.0, 32.0], [547.0, 486.0], [1210.0, 2026.0], [670.0, 1452.0], [166.0, 571.0], [504.0, 881.0], [296.0, 369.0], [208.0, 512.0], [540.0, 574.0]]}, {"children_left": [1, 2, 3, 4, -1, -1, 7, -1, -1, 10, 11, -1, -1, -1, 15, 16, -1, 18, -1, 20, -1, -1, 23, 24, 25, -1, -1, 28, 29, -1, -1, 32, -1, 34, 35, -1, -1, 38, -1, -1, -1], "children_right": [14, 9, 6, 5, -1, -1, 8, -1, -1, 13, 12, -1, -1, -1, 22, 17, -1, 19, -1, 21, -1, -1, 40, 27, 26, -1, -1, 31, 30, -1, -1, 33, -1, 37, 36, -1, -1, 39, -1, -1, -1], "threshold": [20.40499973297119, 12.5, 114.5, 13.5, -2.0, -2.0, 339.5, -2.0, -2.0, 129.5, 45.5, -2.0, -2.0, -2.0, 3.6950000524520874, -92.5, -2.0, -26.5, -2.0, 29.5, -2.0, -2.0, 251.5, -19.0, 137.5, -2.0, -2.0, 25.5, 102.5, -2.0, -2.0, 49.5, -2.0, 113.5, 51.5, -2.0, -2.0, 5.454999923706055, -2.0, -2.0, -2.0], "feature": [2, 1, 9, 0, -2, -2, 9, -2, -2, 1, 5, -2, -2, -2, 3, 1, -2, 0, -2, 0, -2, -2, 9, 0, 9, -2, -2, 0, 1, -2, -2, 0, -2, 9, 0, -2, -2, 3, -2, -2, -2], "classes": [0, 1], "value": [[7717.0, 8182.0], [2936.0, 2134.0], [1846.0, 1123.0], [1120.0, 569.0], [12.0, 31.0], [1108.0, 538.0], [726.0, 554.0], [608.0, 519.0], [118.0, 35.0], [1090.0, 1011.0], [686.0, 753.0], [94.0, 198.0], [592.0, 555.0], [404.0, 258.0], [4781.0, 6048.0], [1029.0, 1760.0], [155.0, 122.0], [874.0, 1638.0], [101.0, 83.0], [773.0, 1555.0], [252.0, 761.0], [521.0, 794.0], [3752.0, 4288.0], [3620.0, 3996.0], [781.0, 668.0], [368.0, 442.0], [413.0, 226.0], [2839.0, 3328.0], [367.0, 709.0], [133.0, 389.0], [234.0, 320.0], [2472.0, 2619.0], [2062.0, 2014.0], [410.0, 605.0], [138.0, 109.0], [44.0, 76.0], [94.0, 33.0], [272.0, 496.0], [115.0, 327.0], [157.0, 169.0], [132.0, 292.0]]}, {"children_left": [1, 2, 3, 4, 5, -1, -1, 8, -1, 10, 11, -1, -1, -1, -1, 16, 17, -1, 19, -1, -1, -1, 23, 24, -1, -1, -1], "children_right": [22, 15, 14, 7, 6, -1, -1, 9, -1, 13, 12, -1, -1, -1, -1, 21, 18, -1, 20, -1, -1, -1, 26, 25, -1, -1, -1], "threshold": [18.59500026702881, 19.925000190734863, 4.694999933242798, 30.5, -29.5, -2.0, -2.0, -7.5, -2.0, 46.5, 12.5, -2.0, -2.0, -2.0, -2.0, 5.1549999713897705, -63.5, -2.0, 129.0, -2.0, -2.0, -2.0, 28.5, 1.5, -2.0, -2.0, -2.0], "feature": [8, 2, 3, 0, 0, -2, -2, 1, -2, 5, 1, -2, -2, -2, -2, 3, 1, -2, 1, -2, -2, -2, 0, 0, -2, -2, -2], "classes": [0, 1], "value": [[7906.0, 7993.0], [6652.0, 5891.0], [2850.0, 1959.0], [1076.0, 917.0], [172.0, 233.0], [150.0, 122.0], [22.0, 111.0], [904.0, 684.0], [404.0, 207.0], [500.0, 477.0], [56.0, 114.0], [21.0, 4.0], [35.0, 110.0], [444.0, 363.0], [1774.0, 1042.0], [3802.0, 3932.0], [1740.0, 2128.0], [724.0, 668.0], [1016.0, 1460.0], [777.0, 1252.0], [239.0, 208.0], [2062.0, 1804.0], [1254.0, 2102.0], [730.0, 1564.0], [305.0, 425.0], [425.0, 1139.0], [524.0, 538.0]]}, {"children_left": [1, 2, 3, -1, -1, 6, 7, -1, -1, 10, 11, 12, -1, -1, -1, -1, 17, 18, -1, 20, 21, -1, -1, -1, 25, -1, 27, 28, 29, 30, -1, -1, -1, -1, 35, -1, -1], "children_right": [16, 5, 4, -1, -1, 9, 8, -1, -1, 15, 14, 13, -1, -1, -1, -1, 24, 19, -1, 23, 22, -1, -1, -1, 26, -1, 34, 33, 32, 31, -1, -1, -1, -1, 36, -1, -1], "threshold": [24.054999351501465, 18.085000038146973, 4.724999904632568, -2.0, -2.0, -36.5, -40.5, -2.0, -2.0, 125.5, 14.5, 8.0, -2.0, -2.0, -2.0, -2.0, 4.255000114440918, -92.5, -2.0, 29.5, -5.0, -2.0, -2.0, -2.0, 18.785000801086426, -2.0, 34.5, 1.5, 0.0, -10.5, -2.0, -2.0, -2.0, -2.0, 19.324999809265137, -2.0, -2.0], "feature": [2, 2, 3, -2, -2, 0, 0, -2, -2, 9, 1, 0, -2, -2, -2, -2, 3, 1, -2, 0, 0, -2, -2, -2, 8, -2, 0, 0, 0, 0, -2, -2, -2, -2, 8, -2, -2], "classes": [0, 1], "value": [[7937.0, 7962.0], [4445.0, 3436.0], [2225.0, 1400.0], [830.0, 678.0], [1395.0, 722.0], [2220.0, 2036.0], [131.0, 45.0], [4.0, 17.0], [127.0, 28.0], [2089.0, 1991.0], [1217.0, 981.0], [831.0, 552.0], [14.0, 41.0], [817.0, 511.0], [386.0, 429.0], [872.0, 1010.0], [3492.0, 4526.0], [1038.0, 1828.0], [154.0, 102.0], [884.0, 1726.0], [346.0, 920.0], [143.0, 202.0], [203.0, 718.0], [538.0, 806.0], [2454.0, 2698.0], [1716.0, 1661.0], [738.0, 1037.0], [495.0, 838.0], [208.0, 226.0], [116.0, 173.0], [92.0, 76.0], [24.0, 97.0], [92.0, 53.0], [287.0, 612.0], [243.0, 199.0], [19.0, 62.0], [224.0, 137.0]]}, {"children_left": [1, 2, 3, -1, 5, -1, -1, 8, -1, -1, 11, 12, 13, -1, -1, 16, -1, -1, 19, 20, -1, 22, -1, 24, -1, -1, 27, -1, 29, -1, 31, -1, -1], "children_right": [10, 7, 4, -1, 6, -1, -1, 9, -1, -1, 18, 15, 14, -1, -1, 17, -1, -1, 26, 21, -1, 23, -1, 25, -1, -1, 28, -1, 30, -1, 32, -1, -1], "threshold": [21.5649995803833, 17.13499927520752, -8.5, -2.0, -0.7599999904632568, -2.0, -2.0, 217.5, -2.0, -2.0, -18.5, 94.5, 27.0, -2.0, -2.0, 0.13499999791383743, -2.0, -2.0, 25.5, -96.5, -2.0, 94.5, -2.0, 4.5, -2.0, -2.0, 42.5, -2.0, 113.5, -2.0, 41.5, -2.0, -2.0], "feature": [2, 2, 1, -2, 8, -2, -2, 9, -2, -2, 0, 9, 1, -2, -2, 4, -2, -2, 0, 1, -2, 1, -2, 0, -2, -2, 0, -2, 9, -2, 1, -2, -2], "classes": [0, 1], "value": [[7730.0, 8169.0], [3401.0, 2413.0], [1962.0, 1157.0], [773.0, 339.0], [1189.0, 818.0], [73.0, 127.0], [1116.0, 691.0], [1439.0, 1256.0], [1261.0, 998.0], [178.0, 258.0], [4329.0, 5756.0], [893.0, 777.0], [187.0, 266.0], [20.0, 83.0], [167.0, 183.0], [706.0, 511.0], [422.0, 226.0], [284.0, 285.0], [3436.0, 4979.0], [713.0, 1667.0], [88.0, 80.0], [625.0, 1587.0], [103.0, 536.0], [522.0, 1051.0], [251.0, 327.0], [271.0, 724.0], [2723.0, 3312.0], [1708.0, 1814.0], [1015.0, 1498.0], [324.0, 339.0], [691.0, 1159.0], [668.0, 1156.0], [23.0, 3.0]]}, {"children_left": [1, 2, -1, 4, -1, 6, -1, -1, 9, 10, 11, -1, 13, 14, 15, 16, 17, -1, 19, -1, 21, -1, -1, -1, -1, -1, 27, -1, 29, -1, -1, -1, 33, 34, -1, 36, 37, 38, -1, -1, 41, 42, -1, -1, -1, -1, -1], "children_right": [8, 3, -1, 5, -1, 7, -1, -1, 32, 31, 12, -1, 26, 25, 24, 23, 18, -1, 20, -1, 22, -1, -1, -1, -1, -1, 28, -1, 30, -1, -1, -1, 46, 35, -1, 45, 40, 39, -1, -1, 44, 43, -1, -1, -1, -1, -1], "threshold": [20.38499927520752, -119.5, -2.0, 15.914999961853027, -2.0, 4.394999980926514, -2.0, -2.0, 16.755000114440918, 6.115000009536743, -82.5, -2.0, 138.5, 46.0, 29.5, 25.389999389648438, 123.5, -2.0, 163.5, -2.0, 174.5, -2.0, -2.0, -2.0, -2.0, -2.0, 145.5, -2.0, -33.5, -2.0, -2.0, -2.0, 34.5, -8.5, -2.0, 350.5, -97.5, 19.035000801086426, -2.0, -2.0, 99.5, 25.5, -2.0, -2.0, -2.0, -2.0, -2.0], "feature": [2, 1, -2, 2, -2, 3, -2, -2, 8, 3, 1, -2, 1, 1, 1, 2, 9, -2, 9, -2, 9, -2, -2, -2, -2, -2, 1, -2, 0, -2, -2, -2, 0, 0, -2, 9, 1, 8, -2, -2, 1, 0, -2, -2, -2, -2, -2], "classes": [0, 1], "value": [[7720.0, 8179.0], [2916.0, 2072.0], [172.0, 39.0], [2744.0, 2033.0], [1437.0, 895.0], [1307.0, 1138.0], [411.0, 486.0], [896.0, 652.0], [4804.0, 6107.0], [3085.0, 3355.0], [2006.0, 2476.0], [549.0, 468.0], [1457.0, 2008.0], [1133.0, 1707.0], [1099.0, 1576.0], [927.0, 1443.0], [580.0, 766.0], [310.0, 321.0], [270.0, 445.0], [135.0, 312.0], [135.0, 133.0], [47.0, 6.0], [88.0, 127.0], [347.0, 677.0], [172.0, 133.0], [34.0, 131.0], [324.0, 301.0], [115.0, 55.0], [209.0, 246.0], [110.0, 189.0], [99.0, 57.0], [1079.0, 879.0], [1719.0, 2752.0], [1007.0, 1954.0], [222.0, 231.0], [785.0, 1723.0], [753.0, 1707.0], [69.0, 74.0], [11.0, 42.0], [58.0, 32.0], [684.0, 1633.0], [219.0, 684.0], [56.0, 405.0], [163.0, 279.0], [465.0, 949.0], [32.0, 16.0], [712.0, 798.0]]}, {"children_left": [1, 2, -1, 4, 5, -1, 7, -1, 9, -1, -1, -1, 13, 14, 15, 16, -1, -1, 19, 20, -1, -1, -1, -1, 25, 26, -1, -1, -1], "children_right": [12, 3, -1, 11, 6, -1, 8, -1, 10, -1, -1, -1, 24, 23, 18, 17, -1, -1, 22, 21, -1, -1, -1, -1, 28, 27, -1, -1, -1], "threshold": [21.505000114440918, 16.214999198913574, -2.0, 228.5, 4.335000038146973, -2.0, -37.5, -2.0, 12.5, -2.0, -2.0, -2.0, 18.8149995803833, 6.375, 42.5, 249.0, -2.0, -2.0, 117.5, 1019.5, -2.0, -2.0, -2.0, -2.0, 25.5, 4.5, -2.0, -2.0, -2.0], "feature": [2, 2, -2, 9, 3, -2, 0, -2, 1, -2, -2, -2, 8, 3, 0, 9, -2, -2, 9, 7, -2, -2, -2, -2, 0, 0, -2, -2, -2], "classes": [0, 1], "value": [[7906.0, 7993.0], [3480.0, 2573.0], [1635.0, 977.0], [1845.0, 1596.0], [1645.0, 1302.0], [476.0, 505.0], [1169.0, 797.0], [81.0, 15.0], [1088.0, 782.0], [774.0, 441.0], [314.0, 341.0], [200.0, 294.0], [4426.0, 5420.0], [3233.0, 3496.0], [2230.0, 2687.0], [1509.0, 1603.0], [1459.0, 1470.0], [50.0, 133.0], [721.0, 1084.0], [301.0, 315.0], [196.0, 264.0], [105.0, 51.0], [420.0, 769.0], [1003.0, 809.0], [1193.0, 1924.0], [669.0, 1358.0], [326.0, 478.0], [343.0, 880.0], [524.0, 566.0]]}, {"children_left": [1, 2, -1, 4, -1, -1, 7, 8, 9, 10, -1, 12, 13, -1, 15, 16, -1, -1, -1, -1, -1, 22, 23, -1, 25, -1, -1, 28, 29, 30, -1, -1, -1, -1, 35, 36, -1, -1, -1], "children_right": [6, 3, -1, 5, -1, -1, 34, 21, 20, 11, -1, 19, 14, -1, 18, 17, -1, -1, -1, -1, -1, 27, 24, -1, 26, -1, -1, 33, 32, 31, -1, -1, -1, -1, 38, 37, -1, -1, -1], "threshold": [17.234999656677246, 4.515000104904175, -2.0, 261.5, -2.0, -2.0, 18.765000343322754, 4.484999895095825, 229.5, -84.5, -2.0, 144.5, 30.5, -2.0, 114.5, 20.5, -2.0, -2.0, -2.0, -2.0, -2.0, 114.0, 26.5, -2.0, 107.5, -2.0, -2.0, 146.5, 237.5, 64.0, -2.0, -2.0, -2.0, -2.0, 28.5, 3.5, -2.0, -2.0, -2.0], "feature": [2, 3, -2, 9, -2, -2, 8, 3, 9, 1, -2, 1, 0, -2, 9, 1, -2, -2, -2, -2, -2, 1, 0, -2, 9, -2, -2, 1, 9, 9, -2, -2, -2, -2, 0, 0, -2, -2, -2], "classes": [0, 1], "value": [[7894.0, 8005.0], [1920.0, 1126.0], [629.0, 490.0], [1291.0, 636.0], [1048.0, 443.0], [243.0, 193.0], [5974.0, 6879.0], [4738.0, 4886.0], [1585.0, 2040.0], [1453.0, 1755.0], [317.0, 268.0], [1136.0, 1487.0], [960.0, 1348.0], [65.0, 181.0], [895.0, 1167.0], [473.0, 481.0], [362.0, 283.0], [111.0, 198.0], [422.0, 686.0], [176.0, 139.0], [132.0, 285.0], [3153.0, 2846.0], [2441.0, 2362.0], [193.0, 295.0], [2248.0, 2067.0], [927.0, 668.0], [1321.0, 1399.0], [712.0, 484.0], [333.0, 147.0], [325.0, 117.0], [20.0, 31.0], [305.0, 86.0], [8.0, 30.0], [379.0, 337.0], [1236.0, 1993.0], [732.0, 1447.0], [353.0, 478.0], [379.0, 969.0], [504.0, 546.0]]}, {"children_left": [1, 2, -1, 4, 5, 6, -1, -1, 9, -1, 11, -1, 13, -1, -1, -1, 17, 18, -1, 20, -1, -1, 23, -1, -1], "children_right": [16, 3, -1, 15, 8, 7, -1, -1, 10, -1, 12, -1, 14, -1, -1, -1, 22, 19, -1, 21, -1, -1, 24, -1, -1], "threshold": [24.175000190734863, 15.914999961853027, -2.0, 216.5, -36.5, -41.5, -2.0, -2.0, -72.5, -2.0, 6.515000104904175, -2.0, 5.174999952316284, -2.0, -2.0, -2.0, 5.134999990463257, 40.5, -2.0, 150.0, -2.0, -2.0, 22.63499927520752, -2.0, -2.0], "feature": [2, 2, -2, 9, 0, 0, -2, -2, 1, -2, 8, -2, 3, -2, -2, -2, 3, 6, -2, 1, -2, -2, 8, -2, -2], "classes": [0, 1], "value": [[7845.0, 8054.0], [4554.0, 3537.0], [1621.0, 937.0], [2933.0, 2600.0], [2586.0, 2101.0], [161.0, 52.0], [3.0, 18.0], [158.0, 34.0], [2425.0, 2049.0], [824.0, 542.0], [1601.0, 1507.0], [154.0, 251.0], [1447.0, 1256.0], [649.0, 694.0], [798.0, 562.0], [347.0, 499.0], [3291.0, 4517.0], [1530.0, 2574.0], [820.0, 1130.0], [710.0, 1444.0], [648.0, 1398.0], [62.0, 46.0], [1761.0, 1943.0], [1581.0, 1598.0], [180.0, 345.0]]}]}