{"classes": [0, 1], "dtrees": [{"children_left": [1, 2, 3, 4, 5, -1, 7, -1, 9, -1, -1, 12, 13, -1, 15, 16, -1, -1, -1, 20, -1, 22, 23, -1, 25, 26, 27, 28, 29, 30, -1, 32, -1, -1, -1, -1, -1, -1, -1, 40, -1, -1, 43, 44, 45, -1, -1, 48, -1, -1, 51, -1, 53, -1, 55, -1, 57, -1, -1, 60, 61, 62, 63, -1, -1, 66, 67, 68, -1, -1, -1, 72, -1, 74, -1, 76, -1, -1, 79, -1, 81, 82, -1, 84, -1, -1, 87, -1, -1, 90, 91, 92, -1, 94, 95, 96, -1, 98, 99, 100, 101, -1, -1, 104, -1, -1, 107, 108, 109, 110, -1, -1, -1, -1, -1, 116, -1, 118, -1, -1, -1, -1, -1, 124, -1, 126, 127, 128, -1, -1, 131, 132, 133, 134, -1, -1, 137, -1, -1, -1, -1, 142, 143, 144, -1, 146, 147, -1, 149, -1, -1, -1, -1, -1, 155, 156, 157, 158, 159, 160, -1, -1, 163, -1, 165, 166, -1, -1, -1, -1, 171, 172, -1, -1, 175, 176, -1, -1, 179, 180, -1, 182, 183, -1, 185, -1, -1, -1, -1, 190, 191, -1, 193, -1, 195, -1, 197, -1, 199, -1, 201, -1, 203, -1, -1, 206, -1, 208, 209, 210, 211, -1, -1, -1, 215, 216, -1, 218, -1, 220, -1, 222, 223, -1, -1, -1, -1, 228, 229, -1, 231, 232, 233, -1, 235, -1, -1, 238, -1, -1, 241, 242, -1, -1, -1, 246, 247, -1, -1, 250, 251, -1, 253, 254, -1, -1, -1, 258, 259, -1, -1, -1, 263, 264, 265, -1, 267, -1, -1, -1, 271, 272, 273, -1, -1, 276, 277, -1, 279, 280, 281, -1, 283, -1, 285, -1, -1, 288, 289, -1, -1, 292, -1, -1, 295, 296, 297, -1, 299, -1, -1, -1, 303, -1, 305, 306, -1, -1, -1, 310, -1, 312, 313, -1, 315, -1, 317, 318, 319, -1, 321, -1, 323, -1, -1, -1, -1, -1, 329, 330, -1, -1, -1], "children_right": [154, 59, 42, 11, 6, -1, 8, -1, 10, -1, -1, 19, 14, -1, 18, 17, -1, -1, -1, 21, -1, 39, 24, -1, 38, 37, 36, 35, 34, 31, -1, 33, -1, -1, -1, -1, -1, -1, -1, 41, -1, -1, 50, 47, 46, -1, -1, 49, -1, -1, 52, -1, 54, -1, 56, -1, 58, -1, -1, 89, 78, 65, 64, -1, -1, 71, 70, 69, -1, -1, -1, 73, -1, 75, -1, 77, -1, -1, 80, -1, 86, 83, -1, 85, -1, -1, 88, -1, -1, 123, 122, 93, -1, 121, 120, 97, -1, 115, 106, 103, 102, -1, -1, 105, -1, -1, 114, 113, 112, 111, -1, -1, -1, -1, -1, 117, -1, 119, -1, -1, -1, -1, -1, 125, -1, 141, 130, 129, -1, -1, 140, 139, 136, 135, -1, -1, 138, -1, -1, -1, -1, 153, 152, 145, -1, 151, 148, -1, 150, -1, -1, -1, -1, -1, 262, 189, 170, 169, 162, 161, -1, -1, 164, -1, 168, 167, -1, -1, -1, -1, 174, 173, -1, -1, 178, 177, -1, -1, 188, 181, -1, 187, 184, -1, 186, -1, -1, -1, -1, 205, 192, -1, 194, -1, 196, -1, 198, -1, 200, -1, 202, -1, 204, -1, -1, 207, -1, 227, 214, 213, 212, -1, -1, -1, 226, 217, -1, 219, -1, 221, -1, 225, 224, -1, -1, -1, -1, 245, 230, -1, 240, 237, 234, -1, 236, -1, -1, 239, -1, -1, 244, 243, -1, -1, -1, 249, 248, -1, -1, 257, 252, -1, 256, 255, -1, -1, -1, 261, 260, -1, -1, -1, 270, 269, 266, -1, 268, -1, -1, -1, 328, 275, 274, -1, -1, 309, 278, -1, 294, 287, 282, -1, 284, -1, 286, -1, -1, 291, 290, -1, -1, 293, -1, -1, 302, 301, 298, -1, 300, -1, -1, -1, 304, -1, 308, 307, -1, -1, -1, 311, -1, 327, 314, -1, 316, -1, 326, 325, 320, -1, 322, -1, 324, -1, -1, -1, -1, -1, 332, 331, -1, -1, -1], "threshold": [4.3500001430511475, 29.5, 1015.5, 24.5, 8.299999713897705, -2.0, 1.949999988079071, -2.0, 84.5, -2.0, -2.0, 61.5, 133.0, -2.0, 52.0, 33.5, -2.0, -2.0, -2.0, 80.5, -2.0, 256.0, 82.5, -2.0, 125.5, 210.5, 77.5, 115.5, 78.5, 63.5, -2.0, 1008.5, -2.0, -2.0, -2.0, -2.0, -2.0, -2.0, -2.0, 75.5, -2.0, -2.0, 43.5, 3.549999952316284, 2.649999976158142, -2.0, -2.0, 347.0, -2.0, -2.0, 1017.5, -2.0, 17.5, -2.0, -36.5, -2.0, 37.5, -2.0, -2.0, 19.5, 113.0, 42.5, 7.949999809265137, -2.0, -2.0, 87.5, 15.5, 6.5, -2.0, -2.0, -2.0, 100.5, -2.0, 12.0, -2.0, 14.5, -2.0, -2.0, 21.5, -2.0, 1.0, 13.0, -2.0, -7.5, -2.0, -2.0, 36.0, -2.0, -2.0, 100.5, 1027.5, -117.5, -2.0, 26.5, 1021.5, 1.8499999642372131, -2.0, 67.5, 3.149999976158142, 20.0, 87.0, -2.0, -2.0, 28.5, -2.0, -2.0, 11.5, 58.5, 40.5, 34.0, -2.0, -2.0, -2.0, -2.0, -2.0, 34.5, -2.0, 1006.5, -2.0, -2.0, -2.0, -2.0, -2.0, 10.5, -2.0, 1017.5, 59.5, 65.5, -2.0, -2.0, 19.5, 4.25, 1014.5, 2.850000023841858, -2.0, -2.0, 90.5, -2.0, -2.0, -2.0, -2.0, 28.5, 0.5, -84.5, -2.0, 211.5, 1019.5, -2.0, 22.0, -2.0, -2.0, -2.0, -2.0, -2.0, 26.5, 1011.5, -68.0, -73.5, 25.5, 24.5, -2.0, -2.0, 75.5, -2.0, 59.5, 92.5, -2.0, -2.0, -2.0, -2.0, 9.25, 4.75, -2.0, -2.0, 58.0, 7.5, -2.0, -2.0, 9.050000190734863, 117.5, -2.0, 15.5, 54.5, -2.0, 5.950000047683716, -2.0, -2.0, -2.0, -2.0, 65.5, 5.75, -2.0, 9.900000095367432, -2.0, -106.0, -2.0, 57.5, -2.0, 6.099999904632568, -2.0, 64.5, -2.0, 1018.5, -2.0, -2.0, 27.5, -2.0, 43.5, 39.5, 6.6499998569488525, 193.0, -2.0, -2.0, -2.0, 1015.5, -80.5, -2.0, 4.549999952316284, -2.0, 48.5, -2.0, 151.0, 73.0, -2.0, -2.0, -2.0, -2.0, 124.5, 38.5, -2.0, 64.5, 48.5, 42.5, -2.0, 5.599999904632568, -2.0, -2.0, 54.5, -2.0, -2.0, 21.5, 70.0, -2.0, -2.0, -2.0, 15.5, 0.09999999776482582, -2.0, -2.0, 42.5, -104.5, -2.0, 8.75, 96.5, -2.0, -2.0, -2.0, 59.0, 5.450000047683716, -2.0, -2.0, -2.0, -29.5, 158.5, 27.5, -2.0, 2.5, -2.0, -2.0, -2.0, 49.5, -108.5, 112.5, -2.0, -2.0, 34.5, 28.5, -2.0, 5.5, 6.1499998569488525, 4.75, -2.0, 86.0, -2.0, 70.5, -2.0, -2.0, 38.5, 121.0, -2.0, -2.0, 22.5, -2.0, -2.0, 18.5, 79.0, 75.5, -2.0, 111.0, -2.0, -2.0, -2.0, 118.0, -2.0, 295.5, 36.5, -2.0, -2.0, -2.0, 28.5, -2.0, 7.8500001430511475, 11.5, -2.0, 5.1499998569488525, -2.0, 30.5, 80.5, 126.5, -2.0, 5.8500001430511475, -2.0, 18.5, -2.0, -2.0, -2.0, -2.0, -2.0, 27.5, 6.049999952316284, -2.0, -2.0, -2.0], "feature": [3, 0, 6, 2, 7, -2, 3, -2, 4, -2, -2, 4, 1, -2, 4, 4, -2, -2, -2, 1, -2, 8, 1, -2, 1, 8, 4, 8, 8, 4, -2, 6, -2, -2, -2, -2, -2, -2, -2, 4, -2, -2, 4, 3, 3, -2, -2, 8, -2, -2, 6, -2, 2, -2, 0, -2, 8, -2, -2, 5, 8, 0, 7, -2, -2, 8, 2, 5, -2, -2, -2, 8, -2, 7, -2, 7, -2, -2, 4, -2, 1, 2, -2, 1, -2, -2, 0, -2, -2, 8, 6, 1, -2, 2, 6, 3, -2, 4, 3, 1, 8, -2, -2, 1, -2, -2, 7, 4, 0, 1, -2, -2, -2, -2, -2, 0, -2, 6, -2, -2, -2, -2, -2, 2, -2, 6, 5, 4, -2, -2, 7, 3, 6, 3, -2, -2, 5, -2, -2, -2, -2, 2, 1, 1, -2, 8, 6, -2, 2, -2, -2, -2, -2, -2, 2, 6, 1, 1, 4, 5, -2, -2, 5, -2, 8, 5, -2, -2, -2, -2, 7, 3, -2, -2, 8, 5, -2, -2, 3, 8, -2, 7, 0, -2, 3, -2, -2, -2, -2, 8, 2, -2, 2, -2, 1, -2, 4, -2, 7, -2, 4, -2, 6, -2, -2, 4, -2, 5, 4, 7, 8, -2, -2, -2, 6, 1, -2, 3, -2, 4, -2, 8, 8, -2, -2, -2, -2, 8, 0, -2, 4, 0, 0, -2, 3, -2, -2, 0, -2, -2, 2, 5, -2, -2, -2, 2, 7, -2, -2, 0, 1, -2, 3, 5, -2, -2, -2, 5, 3, -2, -2, -2, 0, 8, 2, -2, 5, -2, -2, -2, 0, 1, 8, -2, -2, 0, 4, -2, 0, 3, 3, -2, 5, -2, 4, -2, -2, 5, 8, -2, -2, 7, -2, -2, 7, 5, 1, -2, 1, -2, -2, -2, 1, -2, 8, 8, -2, -2, -2, 2, -2, 3, 4, -2, 3, -2, 2, 5, 8, -2, 3, -2, 7, -2, -2, -2, -2, -2, 2, 3, -2, -2, -2], "classes": [0, 1], "value": [[2384.0, 2382.0], [697.0, 1022.0], [192.0, 474.0], [112.0, 362.0], [21.0, 29.0], [1.0, 12.0], [20.0, 17.0], [0.0, 5.0], [20.0, 12.0], [20.0, 6.0], [0.0, 6.0], [91.0, 333.0], [21.0, 133.0], [9.0, 116.0], [12.0, 17.0], [12.0, 9.0], [1.0, 8.0], [11.0, 1.0], [0.0, 8.0], [70.0, 200.0], [3.0, 41.0], [67.0, 159.0], [54.0, 151.0], [4.0, 0.0], [50.0, 151.0], [37.0, 132.0], [36.0, 91.0], [36.0, 71.0], [11.0, 46.0], [9.0, 15.0], [6.0, 0.0], [3.0, 15.0], [3.0, 0.0], [0.0, 15.0], [2.0, 31.0], [25.0, 25.0], [0.0, 20.0], [1.0, 41.0], [13.0, 19.0], [13.0, 8.0], [13.0, 3.0], [0.0, 5.0], [80.0, 112.0], [19.0, 56.0], [15.0, 23.0], [0.0, 17.0], [15.0, 6.0], [4.0, 33.0], [1.0, 33.0], [3.0, 0.0], [61.0, 56.0], [26.0, 5.0], [35.0, 51.0], [13.0, 7.0], [22.0, 44.0], [6.0, 0.0], [16.0, 44.0], [7.0, 2.0], [9.0, 42.0], [505.0, 548.0], [163.0, 246.0], [90.0, 83.0], [59.0, 32.0], [23.0, 24.0], [36.0, 8.0], [31.0, 51.0], [8.0, 35.0], [7.0, 7.0], [1.0, 7.0], [6.0, 0.0], [1.0, 28.0], [23.0, 16.0], [11.0, 0.0], [12.0, 16.0], [0.0, 8.0], [12.0, 8.0], [10.0, 0.0], [2.0, 8.0], [73.0, 163.0], [8.0, 2.0], [65.0, 161.0], [43.0, 67.0], [4.0, 0.0], [39.0, 67.0], [30.0, 66.0], [9.0, 1.0], [22.0, 94.0], [3.0, 0.0], [19.0, 94.0], [342.0, 302.0], [176.0, 105.0], [175.0, 98.0], [21.0, 2.0], [154.0, 96.0], [150.0, 81.0], [124.0, 77.0], [0.0, 5.0], [124.0, 72.0], [78.0, 58.0], [37.0, 14.0], [29.0, 5.0], [29.0, 2.0], [0.0, 3.0], [8.0, 9.0], [0.0, 9.0], [8.0, 0.0], [41.0, 44.0], [25.0, 39.0], [24.0, 23.0], [4.0, 14.0], [0.0, 13.0], [4.0, 1.0], [20.0, 9.0], [1.0, 16.0], [16.0, 5.0], [46.0, 14.0], [0.0, 3.0], [46.0, 11.0], [0.0, 4.0], [46.0, 7.0], [26.0, 4.0], [4.0, 15.0], [1.0, 7.0], [166.0, 197.0], [8.0, 0.0], [158.0, 197.0], [111.0, 108.0], [47.0, 25.0], [34.0, 25.0], [13.0, 0.0], [64.0, 83.0], [62.0, 62.0], [62.0, 53.0], [34.0, 41.0], [15.0, 6.0], [19.0, 35.0], [28.0, 12.0], [10.0, 11.0], [18.0, 1.0], [0.0, 9.0], [2.0, 21.0], [47.0, 89.0], [36.0, 83.0], [30.0, 36.0], [2.0, 13.0], [28.0, 23.0], [8.0, 21.0], [0.0, 13.0], [8.0, 8.0], [1.0, 7.0], [7.0, 1.0], [20.0, 2.0], [6.0, 47.0], [11.0, 6.0], [1687.0, 1360.0], [1061.0, 704.0], [373.0, 183.0], [135.0, 44.0], [105.0, 43.0], [5.0, 8.0], [0.0, 8.0], [5.0, 0.0], [100.0, 35.0], [52.0, 8.0], [48.0, 27.0], [15.0, 18.0], [3.0, 15.0], [12.0, 3.0], [33.0, 9.0], [30.0, 1.0], [238.0, 139.0], [99.0, 26.0], [3.0, 7.0], [96.0, 19.0], [139.0, 113.0], [6.0, 19.0], [4.0, 0.0], [2.0, 19.0], [133.0, 94.0], [98.0, 82.0], [40.0, 9.0], [58.0, 73.0], [51.0, 45.0], [30.0, 40.0], [21.0, 5.0], [2.0, 5.0], [19.0, 0.0], [7.0, 28.0], [35.0, 12.0], [688.0, 521.0], [102.0, 127.0], [6.0, 0.0], [96.0, 127.0], [6.0, 25.0], [90.0, 102.0], [8.0, 0.0], [82.0, 102.0], [41.0, 72.0], [41.0, 30.0], [15.0, 1.0], [26.0, 29.0], [14.0, 5.0], [12.0, 24.0], [12.0, 9.0], [0.0, 15.0], [586.0, 394.0], [0.0, 11.0], [586.0, 383.0], [288.0, 131.0], [24.0, 24.0], [20.0, 10.0], [16.0, 1.0], [4.0, 9.0], [4.0, 14.0], [264.0, 107.0], [77.0, 50.0], [3.0, 11.0], [74.0, 39.0], [0.0, 5.0], [74.0, 34.0], [22.0, 3.0], [52.0, 31.0], [38.0, 10.0], [0.0, 3.0], [38.0, 7.0], [14.0, 21.0], [187.0, 57.0], [298.0, 252.0], [134.0, 81.0], [23.0, 3.0], [111.0, 78.0], [88.0, 38.0], [32.0, 27.0], [26.0, 10.0], [6.0, 17.0], [5.0, 0.0], [1.0, 17.0], [56.0, 11.0], [54.0, 6.0], [2.0, 5.0], [23.0, 40.0], [21.0, 19.0], [0.0, 9.0], [21.0, 10.0], [2.0, 21.0], [164.0, 171.0], [31.0, 12.0], [2.0, 6.0], [29.0, 6.0], [133.0, 159.0], [79.0, 54.0], [1.0, 9.0], [78.0, 45.0], [77.0, 39.0], [62.0, 20.0], [15.0, 19.0], [1.0, 6.0], [54.0, 105.0], [15.0, 12.0], [2.0, 10.0], [13.0, 2.0], [39.0, 93.0], [626.0, 656.0], [117.0, 53.0], [73.0, 46.0], [12.0, 18.0], [61.0, 28.0], [24.0, 22.0], [37.0, 6.0], [44.0, 7.0], [509.0, 603.0], [497.0, 548.0], [58.0, 28.0], [18.0, 0.0], [40.0, 28.0], [439.0, 520.0], [218.0, 340.0], [9.0, 46.0], [209.0, 294.0], [96.0, 74.0], [54.0, 59.0], [18.0, 4.0], [36.0, 55.0], [20.0, 48.0], [16.0, 7.0], [15.0, 2.0], [1.0, 5.0], [42.0, 15.0], [13.0, 10.0], [2.0, 8.0], [11.0, 2.0], [29.0, 5.0], [29.0, 1.0], [0.0, 4.0], [113.0, 220.0], [51.0, 36.0], [48.0, 23.0], [40.0, 13.0], [8.0, 10.0], [0.0, 9.0], [8.0, 1.0], [3.0, 13.0], [62.0, 184.0], [21.0, 113.0], [41.0, 71.0], [40.0, 49.0], [7.0, 0.0], [33.0, 49.0], [1.0, 22.0], [221.0, 180.0], [54.0, 75.0], [167.0, 105.0], [140.0, 101.0], [0.0, 7.0], [140.0, 94.0], [65.0, 26.0], [75.0, 68.0], [26.0, 38.0], [16.0, 38.0], [3.0, 23.0], [13.0, 15.0], [6.0, 0.0], [7.0, 15.0], [3.0, 15.0], [4.0, 0.0], [10.0, 0.0], [49.0, 30.0], [27.0, 4.0], [12.0, 55.0], [9.0, 14.0], [3.0, 14.0], [6.0, 0.0], [3.0, 41.0]]}, {"children_left": [1, 2, 3, -1, 5, -1, -1, 8, 9, 10, 11, 12, -1, 14, -1, -1, 17, 18, 19, -1, 21, -1, 23, -1, 25, -1, -1, -1, -1, 30, -1, -1, 33, 34, 35, -1, 37, -1, -1, -1, 41, 42, 43, -1, 45, -1, 47, -1, -1, 50, -1, 52, 53, -1, -1, -1, 57, 58, 59, -1, 61, 62, 63, 64, -1, -1, 67, 68, -1, -1, 71, 72, -1, 74, -1, 76, -1, -1, -1, 80, -1, 82, -1, -1, -1, -1, -1, 88, 89, 90, 91, 92, 93, 94, 95, 96, 97, 98, 99, 100, 101, -1, -1, -1, -1, 106, -1, -1, -1, -1, -1, -1, 113, 114, 115, -1, -1, 118, 119, -1, -1, -1, -1, -1, -1, 126, 127, 128, -1, -1, -1, 132, 133, -1, 135, 136, 137, -1, -1, 140, -1, -1, -1, -1, 145, 146, -1, -1, -1, 150, 151, 152, 153, -1, -1, 156, -1, -1, -1, 160, 161, -1, 163, -1, 165, -1, -1, 168, 169, -1, -1, 172, -1, 174, 175, 176, 177, -1, -1, -1, 181, 182, 183, -1, 185, 186, -1, 188, -1, 190, -1, -1, 193, -1, 195, -1, 197, -1, 199, 200, 201, -1, 203, -1, -1, -1, -1, 208, 209, 210, -1, -1, 213, -1, 215, -1, -1, -1, -1, -1, 221, 222, 223, -1, 225, 226, -1, -1, 229, -1, 231, -1, 233, 234, -1, -1, -1, -1, 239, 240, -1, 242, -1, 244, 245, 246, -1, 248, -1, -1, -1, 252, 253, 254, 255, 256, -1, -1, -1, 260, 261, -1, -1, 264, -1, -1, -1, -1, 269, 270, 271, 272, 273, 274, 275, 276, 277, -1, 279, -1, 281, 282, -1, 284, 285, 286, -1, -1, -1, 290, 291, 292, -1, 294, -1, -1, -1, 298, 299, 300, -1, -1, 303, -1, 305, -1, -1, -1, 309, 310, 311, -1, -1, 314, -1, 316, -1, -1, -1, -1, 321, -1, 323, 324, -1, -1, -1, -1, 329, -1, -1, -1, -1, 334, 335, 336, -1, 338, 339, 340, 341, -1, 343, -1, -1, 346, -1, -1, -1, -1, -1, -1, 353, 354, 355, -1, -1, -1, 359, 360, -1, 362, -1, 364, 365, -1, -1, -1, 369, -1, 371, 372, -1, -1, 375, 376, 377, 378, 379, -1, -1, -1, -1, -1, -1], "children_right": [220, 7, 4, -1, 6, -1, -1, 87, 32, 29, 16, 13, -1, 15, -1, -1, 28, 27, 20, -1, 22, -1, 24, -1, 26, -1, -1, -1, -1, 31, -1, -1, 40, 39, 36, -1, 38, -1, -1, -1, 56, 49, 44, -1, 46, -1, 48, -1, -1, 51, -1, 55, 54, -1, -1, -1, 86, 85, 60, -1, 84, 79, 66, 65, -1, -1, 70, 69, -1, -1, 78, 73, -1, 75, -1, 77, -1, -1, -1, 81, -1, 83, -1, -1, -1, -1, -1, 149, 144, 125, 124, 123, 112, 111, 110, 109, 108, 105, 104, 103, 102, -1, -1, -1, -1, 107, -1, -1, -1, -1, -1, -1, 122, 117, 116, -1, -1, 121, 120, -1, -1, -1, -1, -1, -1, 131, 130, 129, -1, -1, -1, 143, 134, -1, 142, 139, 138, -1, -1, 141, -1, -1, -1, -1, 148, 147, -1, -1, -1, 159, 158, 155, 154, -1, -1, 157, -1, -1, -1, 167, 162, -1, 164, -1, 166, -1, -1, 171, 170, -1, -1, 173, -1, 219, 180, 179, 178, -1, -1, -1, 218, 207, 184, -1, 192, 187, -1, 189, -1, 191, -1, -1, 194, -1, 196, -1, 198, -1, 206, 205, 202, -1, 204, -1, -1, -1, -1, 217, 212, 211, -1, -1, 214, -1, 216, -1, -1, -1, -1, -1, 238, 237, 224, -1, 228, 227, -1, -1, 230, -1, 232, -1, 236, 235, -1, -1, -1, -1, 268, 241, -1, 243, -1, 251, 250, 247, -1, 249, -1, -1, -1, 267, 266, 259, 258, 257, -1, -1, -1, 263, 262, -1, -1, 265, -1, -1, -1, -1, 352, 333, 332, 331, 328, 327, 320, 319, 278, -1, 280, -1, 308, 283, -1, 289, 288, 287, -1, -1, -1, 297, 296, 293, -1, 295, -1, -1, -1, 307, 302, 301, -1, -1, 304, -1, 306, -1, -1, -1, 318, 313, 312, -1, -1, 315, -1, 317, -1, -1, -1, -1, 322, -1, 326, 325, -1, -1, -1, -1, 330, -1, -1, -1, -1, 351, 350, 337, -1, 349, 348, 345, 342, -1, 344, -1, -1, 347, -1, -1, -1, -1, -1, -1, 358, 357, 356, -1, -1, -1, 368, 361, -1, 363, -1, 367, 366, -1, -1, -1, 370, -1, 374, 373, -1, -1, 384, 383, 382, 381, 380, -1, -1, -1, -1, -1, -1], "threshold": [26.5, 25.5, 32.0, -2.0, 1011.5, -2.0, -2.0, 4.450000047683716, 17.5, 9.400000095367432, -79.5, 5.549999952316284, -2.0, 107.5, -2.0, -2.0, 331.5, 5.950000047683716, 2.350000023841858, -2.0, 3.75, -2.0, 12.5, -2.0, 66.5, -2.0, -2.0, -2.0, -2.0, 146.0, -2.0, -2.0, 2.350000023841858, 180.5, 44.5, -2.0, -80.5, -2.0, -2.0, -2.0, 8.050000190734863, 5.299999952316284, 3.75, -2.0, 26.0, -2.0, 9.0, -2.0, -2.0, 46.0, -2.0, 44.5, 23.5, -2.0, -2.0, -2.0, 32.5, 333.5, 48.5, -2.0, 19.5, 82.0, 11.5, -82.0, -2.0, -2.0, 109.0, 68.5, -2.0, -2.0, 25.5, 3.450000047683716, -2.0, 1014.5, -2.0, 184.5, -2.0, -2.0, -2.0, 33.0, -2.0, 14.5, -2.0, -2.0, -2.0, -2.0, -2.0, 10.5, 81.5, 46.5, 73.5, 43.5, 224.5, 7.25, 5.75, 61.5, 1022.5, 6.099999904632568, 81.5, 1018.5, 41.5, -2.0, -2.0, -2.0, -2.0, -0.6949999928474426, -2.0, -2.0, -2.0, -2.0, -2.0, -2.0, 8.949999809265137, 37.5, 6.0, -2.0, -2.0, 7.099999904632568, 57.5, -2.0, -2.0, -2.0, -2.0, -2.0, -2.0, 45.5, 52.5, 6.299999952316284, -2.0, -2.0, -2.0, 7.799999952316284, 1010.5, -2.0, 7.25, 63.5, 1014.5, -2.0, -2.0, 1017.0, -2.0, -2.0, -2.0, -2.0, 6.1499998569488525, 95.5, -2.0, -2.0, -2.0, 56.5, 17.5, -74.5, 5.450000047683716, -2.0, -2.0, 1015.5, -2.0, -2.0, -2.0, 4.8500001430511475, 20.5, -2.0, 96.5, -2.0, 50.5, -2.0, -2.0, -16.5, -33.5, -2.0, -2.0, 13.5, -2.0, 18.5, 53.5, 41.5, 120.5, -2.0, -2.0, -2.0, 234.5, 98.5, -84.5, -2.0, 145.5, 15.0, -2.0, 1011.5, -2.0, 42.5, -2.0, -2.0, 17.5, -2.0, 13.5, -2.0, 43.5, -2.0, 204.5, 4.5, -2.5, -2.0, 95.0, -2.0, -2.0, -2.0, -2.0, 91.5, -3.5, -78.0, -2.0, -2.0, 7.0, -2.0, 19.5, -2.0, -2.0, -2.0, -2.0, -2.0, 3.049999952316284, 354.5, 8.5, -2.0, 8.650000095367432, 33.5, -2.0, -2.0, 50.5, -2.0, 46.5, -2.0, 51.5, 96.5, -2.0, -2.0, -2.0, -2.0, 88.5, 13.5, -2.0, -109.5, -2.0, 1012.5, 34.5, 4.549999952316284, -2.0, 22.5, -2.0, -2.0, -2.0, 19.5, 79.5, 4.950000047683716, 57.5, 1020.5, -2.0, -2.0, -2.0, 4.5, 10.0, -2.0, -2.0, 33.5, -2.0, -2.0, -2.0, -2.0, 6.950000047683716, 19.5, 315.0, 246.0, 211.5, 203.5, 33.5, 197.5, -120.5, -2.0, 1005.5, -2.0, 146.5, 11.5, -2.0, 4.5, 28.5, 20.5, -2.0, -2.0, -2.0, 15.0, 9.5, 50.0, -2.0, 1012.5, -2.0, -2.0, -2.0, 92.0, 4.950000047683716, 1011.0, -2.0, -2.0, 54.5, -2.0, 61.5, -2.0, -2.0, -2.0, 49.0, -78.5, 4.949999809265137, -2.0, -2.0, 19.5, -2.0, 27.5, -2.0, -2.0, -2.0, -2.0, 12.5, -2.0, 7.0, 177.0, -2.0, -2.0, -2.0, -2.0, -16.5, -2.0, -2.0, -2.0, -2.0, 125.5, 5.75, 9.0, -2.0, 36.5, 13.5, 4.950000047683716, 10.5, -2.0, 95.5, -2.0, -2.0, 29.5, -2.0, -2.0, -2.0, -2.0, -2.0, -2.0, -27.5, 150.0, 148.5, -2.0, -2.0, -2.0, 31.5, 56.0, -2.0, 65.0, -2.0, 8.050000190734863, 67.0, -2.0, -2.0, -2.0, 4.949999809265137, -2.0, 29.5, 39.5, -2.0, -2.0, 1017.5, 156.5, 42.0, 32.5, -103.0, -2.0, -2.0, -2.0, -2.0, -2.0, -2.0], "feature": [2, 4, 5, -2, 6, -2, -2, 3, 2, 7, 1, 7, -2, 8, -2, -2, 8, 7, 7, -2, 7, -2, 2, -2, 5, -2, -2, -2, -2, 1, -2, -2, 3, 8, 4, -2, 1, -2, -2, -2, 7, 7, 3, -2, 0, -2, 1, -2, -2, 0, -2, 4, 2, -2, -2, -2, 1, 8, 4, -2, 1, 5, 7, 1, -2, -2, 8, 4, -2, -2, 2, 3, -2, 6, -2, 8, -2, -2, -2, 0, -2, 7, -2, -2, -2, -2, -2, 7, 4, 0, 4, 0, 8, 7, 7, 8, 6, 3, 1, 6, 0, -2, -2, -2, -2, 7, -2, -2, -2, -2, -2, -2, 7, 5, 3, -2, -2, 7, 4, -2, -2, -2, -2, -2, -2, 4, 0, 3, -2, -2, -2, 3, 6, -2, 3, 4, 6, -2, -2, 6, -2, -2, -2, -2, 3, 4, -2, -2, -2, 8, 7, 1, 3, -2, -2, 6, -2, -2, -2, 3, 2, -2, 5, -2, 4, -2, -2, 0, 0, -2, -2, 0, -2, 7, 4, 0, 8, -2, -2, -2, 8, 5, 1, -2, 8, 1, -2, 6, -2, 5, -2, -2, 2, -2, 5, -2, 0, -2, 8, 1, 1, -2, 5, -2, -2, -2, -2, 4, 1, 1, -2, -2, 1, -2, 1, -2, -2, -2, -2, -2, 3, 8, 8, -2, 7, 0, -2, -2, 4, -2, 5, -2, 8, 5, -2, -2, -2, -2, 8, 4, -2, 1, -2, 6, 8, 3, -2, 7, -2, -2, -2, 7, 8, 3, 4, 6, -2, -2, -2, 5, 7, -2, -2, 2, -2, -2, -2, -2, 3, 7, 8, 8, 8, 8, 2, 8, 1, -2, 6, -2, 8, 7, -2, 5, 2, 1, -2, -2, -2, 1, 1, 4, -2, 6, -2, -2, -2, 5, 3, 6, -2, -2, 4, -2, 4, -2, -2, -2, 0, 1, 7, -2, -2, 4, -2, 2, -2, -2, -2, -2, 7, -2, 1, 8, -2, -2, -2, -2, 0, -2, -2, -2, -2, 1, 3, 5, -2, 0, 0, 3, 0, -2, 5, -2, -2, 2, -2, -2, -2, -2, -2, -2, 0, 8, 1, -2, -2, -2, 0, 4, -2, 4, -2, 3, 4, -2, -2, -2, 7, -2, 2, 0, -2, -2, 6, 8, 0, 4, 1, -2, -2, -2, -2, -2, -2], "classes": [0, 1], "value": [[2395.0, 2371.0], [1577.0, 1212.0], [12.0, 39.0], [3.0, 29.0], [9.0, 10.0], [8.0, 1.0], [1.0, 9.0], [1565.0, 1173.0], [524.0, 526.0], [167.0, 108.0], [116.0, 99.0], [39.0, 15.0], [33.0, 5.0], [6.0, 10.0], [5.0, 0.0], [1.0, 10.0], [77.0, 84.0], [69.0, 83.0], [53.0, 45.0], [15.0, 26.0], [38.0, 19.0], [14.0, 0.0], [24.0, 19.0], [0.0, 6.0], [24.0, 13.0], [10.0, 12.0], [14.0, 1.0], [16.0, 38.0], [8.0, 1.0], [51.0, 9.0], [51.0, 4.0], [0.0, 5.0], [357.0, 418.0], [26.0, 71.0], [22.0, 31.0], [1.0, 11.0], [21.0, 20.0], [12.0, 2.0], [9.0, 18.0], [4.0, 40.0], [331.0, 347.0], [68.0, 109.0], [41.0, 42.0], [25.0, 11.0], [16.0, 31.0], [0.0, 16.0], [16.0, 15.0], [16.0, 2.0], [0.0, 13.0], [27.0, 67.0], [13.0, 57.0], [14.0, 10.0], [4.0, 10.0], [0.0, 10.0], [4.0, 0.0], [10.0, 0.0], [263.0, 238.0], [204.0, 213.0], [197.0, 213.0], [44.0, 21.0], [153.0, 192.0], [142.0, 153.0], [54.0, 85.0], [6.0, 36.0], [5.0, 2.0], [1.0, 34.0], [48.0, 49.0], [26.0, 14.0], [25.0, 6.0], [1.0, 8.0], [22.0, 35.0], [22.0, 22.0], [13.0, 4.0], [9.0, 18.0], [5.0, 0.0], [4.0, 18.0], [0.0, 16.0], [4.0, 2.0], [0.0, 13.0], [88.0, 68.0], [7.0, 19.0], [81.0, 49.0], [53.0, 18.0], [28.0, 31.0], [11.0, 39.0], [7.0, 0.0], [59.0, 25.0], [1041.0, 647.0], [554.0, 292.0], [495.0, 278.0], [313.0, 203.0], [307.0, 183.0], [284.0, 150.0], [220.0, 98.0], [112.0, 68.0], [98.0, 49.0], [59.0, 41.0], [47.0, 40.0], [33.0, 12.0], [31.0, 7.0], [30.0, 3.0], [29.0, 0.0], [1.0, 3.0], [1.0, 4.0], [2.0, 5.0], [14.0, 28.0], [9.0, 3.0], [5.0, 25.0], [12.0, 1.0], [39.0, 8.0], [14.0, 19.0], [108.0, 30.0], [64.0, 52.0], [51.0, 49.0], [37.0, 22.0], [27.0, 5.0], [10.0, 17.0], [14.0, 27.0], [13.0, 11.0], [5.0, 11.0], [8.0, 0.0], [1.0, 16.0], [13.0, 3.0], [23.0, 33.0], [6.0, 20.0], [182.0, 75.0], [37.0, 29.0], [34.0, 14.0], [6.0, 10.0], [28.0, 4.0], [3.0, 15.0], [145.0, 46.0], [121.0, 45.0], [25.0, 3.0], [96.0, 42.0], [95.0, 36.0], [79.0, 19.0], [5.0, 8.0], [74.0, 11.0], [16.0, 17.0], [7.0, 0.0], [9.0, 17.0], [1.0, 6.0], [24.0, 1.0], [59.0, 14.0], [16.0, 12.0], [16.0, 7.0], [0.0, 5.0], [43.0, 2.0], [487.0, 355.0], [23.0, 53.0], [22.0, 38.0], [13.0, 7.0], [2.0, 6.0], [11.0, 1.0], [9.0, 31.0], [2.0, 27.0], [7.0, 4.0], [1.0, 15.0], [464.0, 302.0], [77.0, 24.0], [30.0, 1.0], [47.0, 23.0], [42.0, 14.0], [5.0, 9.0], [4.0, 0.0], [1.0, 9.0], [387.0, 278.0], [107.0, 42.0], [24.0, 24.0], [83.0, 18.0], [280.0, 236.0], [1.0, 16.0], [279.0, 220.0], [255.0, 215.0], [19.0, 39.0], [14.0, 11.0], [13.0, 4.0], [1.0, 7.0], [5.0, 28.0], [236.0, 176.0], [234.0, 154.0], [178.0, 89.0], [2.0, 10.0], [176.0, 79.0], [121.0, 33.0], [102.0, 15.0], [19.0, 18.0], [9.0, 1.0], [10.0, 17.0], [8.0, 3.0], [2.0, 14.0], [55.0, 46.0], [10.0, 0.0], [45.0, 46.0], [1.0, 9.0], [44.0, 37.0], [19.0, 3.0], [25.0, 34.0], [25.0, 24.0], [24.0, 16.0], [2.0, 9.0], [22.0, 7.0], [22.0, 4.0], [0.0, 3.0], [1.0, 8.0], [0.0, 10.0], [56.0, 65.0], [30.0, 59.0], [17.0, 15.0], [3.0, 13.0], [14.0, 2.0], [13.0, 44.0], [3.0, 29.0], [10.0, 15.0], [9.0, 3.0], [1.0, 12.0], [26.0, 6.0], [2.0, 22.0], [24.0, 5.0], [818.0, 1159.0], [74.0, 239.0], [70.0, 239.0], [2.0, 0.0], [68.0, 239.0], [10.0, 14.0], [1.0, 12.0], [9.0, 2.0], [58.0, 225.0], [10.0, 73.0], [48.0, 152.0], [19.0, 20.0], [29.0, 132.0], [7.0, 3.0], [0.0, 3.0], [7.0, 0.0], [22.0, 129.0], [4.0, 0.0], [744.0, 920.0], [118.0, 233.0], [10.0, 3.0], [108.0, 230.0], [14.0, 5.0], [94.0, 225.0], [42.0, 155.0], [15.0, 25.0], [0.0, 11.0], [15.0, 14.0], [15.0, 7.0], [0.0, 7.0], [27.0, 130.0], [52.0, 70.0], [48.0, 52.0], [39.0, 51.0], [6.0, 22.0], [3.0, 22.0], [0.0, 22.0], [3.0, 0.0], [3.0, 0.0], [33.0, 29.0], [8.0, 15.0], [0.0, 10.0], [8.0, 5.0], [25.0, 14.0], [25.0, 9.0], [0.0, 5.0], [9.0, 1.0], [4.0, 18.0], [626.0, 687.0], [465.0, 580.0], [355.0, 384.0], [351.0, 370.0], [341.0, 369.0], [328.0, 338.0], [313.0, 333.0], [233.0, 275.0], [230.0, 262.0], [15.0, 4.0], [215.0, 258.0], [11.0, 5.0], [204.0, 253.0], [121.0, 184.0], [13.0, 43.0], [108.0, 141.0], [23.0, 60.0], [12.0, 12.0], [2.0, 10.0], [10.0, 2.0], [11.0, 48.0], [85.0, 81.0], [61.0, 38.0], [46.0, 38.0], [33.0, 16.0], [13.0, 22.0], [6.0, 0.0], [7.0, 22.0], [15.0, 0.0], [24.0, 43.0], [16.0, 40.0], [11.0, 8.0], [0.0, 5.0], [11.0, 3.0], [5.0, 32.0], [0.0, 24.0], [5.0, 8.0], [5.0, 0.0], [0.0, 8.0], [8.0, 3.0], [83.0, 69.0], [83.0, 58.0], [11.0, 21.0], [5.0, 0.0], [6.0, 21.0], [72.0, 37.0], [0.0, 5.0], [72.0, 32.0], [4.0, 12.0], [68.0, 20.0], [0.0, 11.0], [3.0, 13.0], [80.0, 58.0], [42.0, 17.0], [38.0, 41.0], [11.0, 28.0], [5.0, 26.0], [6.0, 2.0], [27.0, 13.0], [15.0, 5.0], [13.0, 31.0], [8.0, 1.0], [5.0, 30.0], [10.0, 1.0], [4.0, 14.0], [110.0, 196.0], [87.0, 182.0], [80.0, 131.0], [9.0, 1.0], [71.0, 130.0], [54.0, 119.0], [40.0, 61.0], [27.0, 55.0], [16.0, 48.0], [11.0, 7.0], [1.0, 6.0], [10.0, 1.0], [13.0, 6.0], [0.0, 6.0], [13.0, 0.0], [14.0, 58.0], [17.0, 11.0], [7.0, 51.0], [23.0, 14.0], [161.0, 107.0], [47.0, 11.0], [17.0, 9.0], [17.0, 3.0], [0.0, 6.0], [30.0, 2.0], [114.0, 96.0], [31.0, 52.0], [6.0, 36.0], [25.0, 16.0], [19.0, 3.0], [6.0, 13.0], [6.0, 3.0], [0.0, 3.0], [6.0, 0.0], [0.0, 10.0], [83.0, 44.0], [17.0, 0.0], [66.0, 44.0], [15.0, 19.0], [9.0, 1.0], [6.0, 18.0], [51.0, 25.0], [40.0, 25.0], [35.0, 14.0], [22.0, 14.0], [18.0, 3.0], [0.0, 3.0], [18.0, 0.0], [4.0, 11.0], [13.0, 0.0], [5.0, 11.0], [11.0, 0.0]]}, {"children_left": [1, 2, 3, 4, -1, -1, 7, 8, -1, -1, 11, 12, 13, 14, -1, 16, -1, -1, 19, 20, 21, -1, -1, -1, -1, 26, 27, -1, 29, -1, 31, 32, -1, -1, -1, 36, 37, 38, 39, -1, -1, 42, 43, -1, 45, -1, -1, -1, 49, -1, -1, 52, -1, 54, -1, 56, -1, -1, -1, 60, 61, 62, -1, 64, -1, 66, -1, -1, 69, 70, -1, 72, 73, -1, -1, -1, 77, -1, 79, 80, -1, -1, 83, -1, 85, 86, 87, -1, 89, -1, -1, -1, 93, 94, 95, 96, -1, 98, 99, -1, 101, 102, -1, 104, 105, -1, -1, -1, -1, -1, -1, -1, -1, 114, 115, 116, -1, 118, 119, 120, -1, -1, 123, -1, 125, 126, 127, 128, -1, -1, 131, -1, 133, 134, 135, 136, -1, -1, -1, 140, -1, -1, -1, -1, 145, 146, -1, 148, -1, -1, 151, -1, 153, 154, -1, -1, -1, -1, 159, 160, 161, -1, -1, 164, -1, 166, 167, -1, 169, -1, 171, -1, -1, -1, 175, 176, 177, -1, -1, -1, 181, -1, 183, -1, -1, 186, 187, -1, 189, -1, 191, -1, -1, -1, 195, 196, 197, -1, 199, 200, -1, -1, -1, 204, 205, 206, 207, 208, 209, 210, -1, 212, 213, -1, -1, -1, 217, -1, 219, 220, -1, -1, 223, -1, 225, 226, -1, -1, 229, -1, -1, -1, 233, 234, -1, 236, -1, 238, -1, -1, 241, 242, -1, 244, 245, 246, 247, -1, -1, 250, 251, 252, -1, 254, -1, -1, -1, -1, -1, 260, -1, -1, -1, -1, 265, -1, 267, -1, -1, 270, 271, 272, -1, -1, 275, 276, -1, 278, -1, 280, -1, 282, -1, -1, 285, 286, -1, 288, -1, -1, 291, -1, -1, -1, 295, 296, 297, -1, 299, -1, -1, -1, 303, -1, 305, -1, -1], "children_right": [194, 59, 6, 5, -1, -1, 10, 9, -1, -1, 58, 25, 18, 15, -1, 17, -1, -1, 24, 23, 22, -1, -1, -1, -1, 35, 28, -1, 30, -1, 34, 33, -1, -1, -1, 51, 48, 41, 40, -1, -1, 47, 44, -1, 46, -1, -1, -1, 50, -1, -1, 53, -1, 55, -1, 57, -1, -1, -1, 113, 68, 63, -1, 65, -1, 67, -1, -1, 76, 71, -1, 75, 74, -1, -1, -1, 78, -1, 82, 81, -1, -1, 84, -1, 92, 91, 88, -1, 90, -1, -1, -1, 112, 111, 110, 97, -1, 109, 100, -1, 108, 103, -1, 107, 106, -1, -1, -1, -1, -1, -1, -1, -1, 185, 158, 117, -1, 157, 122, 121, -1, -1, 124, -1, 144, 143, 130, 129, -1, -1, 132, -1, 142, 139, 138, 137, -1, -1, -1, 141, -1, -1, -1, -1, 150, 147, -1, 149, -1, -1, 152, -1, 156, 155, -1, -1, -1, -1, 174, 163, 162, -1, -1, 165, -1, 173, 168, -1, 170, -1, 172, -1, -1, -1, 180, 179, 178, -1, -1, -1, 182, -1, 184, -1, -1, 193, 188, -1, 190, -1, 192, -1, -1, -1, 294, 203, 198, -1, 202, 201, -1, -1, -1, 269, 264, 263, 232, 231, 216, 211, -1, 215, 214, -1, -1, -1, 218, -1, 222, 221, -1, -1, 224, -1, 228, 227, -1, -1, 230, -1, -1, -1, 240, 235, -1, 237, -1, 239, -1, -1, 262, 243, -1, 259, 258, 249, 248, -1, -1, 257, 256, 253, -1, 255, -1, -1, -1, -1, -1, 261, -1, -1, -1, -1, 266, -1, 268, -1, -1, 293, 274, 273, -1, -1, 284, 277, -1, 279, -1, 281, -1, 283, -1, -1, 290, 287, -1, 289, -1, -1, 292, -1, -1, -1, 302, 301, 298, -1, 300, -1, -1, -1, 304, -1, 306, -1, -1], "threshold": [25.5, 17.5, 6.75, 1027.0, -2.0, -2.0, 2.649999976158142, 48.5, -2.0, -2.0, 58.0, 76.5, 1018.5, -1.5, -2.0, 12.5, -2.0, -2.0, 132.5, 41.5, 0.5, -2.0, -2.0, -2.0, -2.0, 1000.5, 41.5, -2.0, 44.5, -2.0, 7.0, 14.0, -2.0, -2.0, -2.0, 52.5, 34.0, -0.4000000059604645, 96.0, -2.0, -2.0, 1012.5, 97.0, -2.0, 7.450000047683716, -2.0, -2.0, -2.0, 12.0, -2.0, -2.0, 95.5, -2.0, 1018.5, -2.0, 10.5, -2.0, -2.0, -2.0, 4.3500001430511475, -87.0, 19.5, -2.0, 42.5, -2.0, 3.450000047683716, -2.0, -2.0, 7.25, 1021.5, -2.0, 5.049999952316284, 315.5, -2.0, -2.0, -2.0, 7.75, -2.0, 44.5, 68.5, -2.0, -2.0, -35.5, -2.0, 52.5, 6.5, 86.5, -2.0, 46.5, -2.0, -2.0, -2.0, 1022.5, 1021.5, 249.5, 31.0, -2.0, 32.0, 13.5, -2.0, 99.5, 46.5, -2.0, 144.0, 63.5, -2.0, -2.0, -2.0, -2.0, -2.0, -2.0, -2.0, -2.0, 98.5, 13.5, 19.0, -2.0, 9.150000095367432, -84.5, 98.5, -2.0, -2.0, 1.1649999916553497, -2.0, 124.5, 7.25, 39.5, 6.049999952316284, -2.0, -2.0, 1009.5, -2.0, 76.0, 6.950000047683716, 3.5, 2.5, -2.0, -2.0, -2.0, 96.5, -2.0, -2.0, -2.0, -2.0, 61.5, 20.5, -2.0, 42.5, -2.0, -2.0, 69.5, -2.0, 54.0, 89.5, -2.0, -2.0, -2.0, -2.0, 34.5, 1.5, 20.5, -2.0, -2.0, 7.299999952316284, -2.0, 18.5, 116.5, -2.0, 7.5, -2.0, 37.0, -2.0, -2.0, -2.0, 1019.5, 18.5, 137.0, -2.0, -2.0, -2.0, 7.900000095367432, -2.0, 36.5, -2.0, -2.0, 87.5, 5.150000095367432, -2.0, 24.5, -2.0, 39.5, -2.0, -2.0, -2.0, 21.5, 3.450000047683716, 35.5, -2.0, 1014.5, 26.5, -2.0, -2.0, -2.0, 111.5, 196.5, 8.550000190734863, -63.5, 47.5, 1.5, 4.950000047683716, -2.0, -91.0, -113.0, -2.0, -2.0, -2.0, -119.5, -2.0, -83.5, 67.0, -2.0, -2.0, 32.0, -2.0, 61.0, 4.25, -2.0, -2.0, 19.5, -2.0, -2.0, -2.0, 86.0, -1.25, -2.0, 32.5, -2.0, 1015.5, -2.0, -2.0, 1019.5, 96.5, -2.0, 134.5, 5.8500001430511475, 11.5, 27.5, -2.0, -2.0, 130.5, 39.5, 31.5, -2.0, 113.0, -2.0, -2.0, -2.0, -2.0, -2.0, 15.0, -2.0, -2.0, -2.0, -2.0, 64.0, -2.0, 310.5, -2.0, -2.0, 9.849999904632568, 56.5, -19.0, -2.0, -2.0, 152.5, 2.5, -2.0, 44.0, -2.0, 69.5, -2.0, 326.0, -2.0, -2.0, 31.5, 104.0, -2.0, 130.5, -2.0, -2.0, 10.0, -2.0, -2.0, -2.0, 125.5, 5.5, 2.850000023841858, -2.0, -39.5, -2.0, -2.0, -2.0, 28.5, -2.0, 23.5, -2.0, -2.0], "feature": [2, 2, 2, 6, -2, -2, 3, 4, -2, -2, 0, 5, 6, 1, -2, 5, -2, -2, 1, 0, 5, -2, -2, -2, -2, 6, 0, -2, 0, -2, 1, 2, -2, -2, -2, 8, 1, 7, 5, -2, -2, 6, 5, -2, 7, -2, -2, -2, 8, -2, -2, 8, -2, 6, -2, 7, -2, -2, -2, 3, 1, 2, -2, 0, -2, 3, -2, -2, 7, 6, -2, 7, 8, -2, -2, -2, 7, -2, 4, 8, -2, -2, 0, -2, 4, 5, 8, -2, 4, -2, -2, -2, 6, 6, 8, 0, -2, 1, 7, -2, 5, 0, -2, 8, 4, -2, -2, -2, -2, -2, -2, -2, -2, 5, 1, 8, -2, 3, 1, 8, -2, -2, 7, -2, 8, 3, 0, 3, -2, -2, 6, -2, 4, 3, 1, 1, -2, -2, -2, 8, -2, -2, -2, -2, 4, 2, -2, 0, -2, -2, 4, -2, 0, 5, -2, -2, -2, -2, 0, 5, 2, -2, -2, 7, -2, 7, 1, -2, 5, -2, 8, -2, -2, -2, 6, 1, 8, -2, -2, -2, 7, -2, 0, -2, -2, 4, 7, -2, 2, -2, 0, -2, -2, -2, 7, 3, 0, -2, 6, 2, -2, -2, -2, 1, 8, 3, 1, 0, 5, 3, -2, 1, 1, -2, -2, -2, 1, -2, 1, 8, -2, -2, 8, -2, 4, 3, -2, -2, 7, -2, -2, -2, 8, 7, -2, 0, -2, 6, -2, -2, 6, 8, -2, 8, 3, 7, 4, -2, -2, 8, 0, 1, -2, 8, -2, -2, -2, -2, -2, 0, -2, -2, -2, -2, 1, -2, 8, -2, -2, 3, 8, 0, -2, -2, 1, 5, -2, 5, -2, 5, -2, 8, -2, -2, 2, 8, -2, 8, -2, -2, 5, -2, -2, -2, 1, 0, 3, -2, 1, -2, -2, -2, 2, -2, 7, -2, -2], "classes": [0, 1], "value": [[2328.0, 2438.0], [1415.0, 1168.0], [489.0, 291.0], [25.0, 38.0], [25.0, 26.0], [0.0, 12.0], [464.0, 253.0], [26.0, 33.0], [1.0, 20.0], [25.0, 13.0], [438.0, 220.0], [437.0, 212.0], [164.0, 104.0], [97.0, 41.0], [50.0, 5.0], [47.0, 36.0], [26.0, 5.0], [21.0, 31.0], [67.0, 63.0], [51.0, 58.0], [17.0, 32.0], [10.0, 3.0], [7.0, 29.0], [34.0, 26.0], [16.0, 5.0], [273.0, 108.0], [24.0, 22.0], [8.0, 0.0], [16.0, 22.0], [1.0, 14.0], [15.0, 8.0], [7.0, 8.0], [0.0, 7.0], [7.0, 1.0], [8.0, 0.0], [249.0, 86.0], [66.0, 42.0], [62.0, 27.0], [4.0, 8.0], [0.0, 8.0], [4.0, 0.0], [58.0, 19.0], [17.0, 12.0], [9.0, 0.0], [8.0, 12.0], [1.0, 10.0], [7.0, 2.0], [41.0, 7.0], [4.0, 15.0], [3.0, 0.0], [1.0, 15.0], [183.0, 44.0], [87.0, 8.0], [96.0, 36.0], [74.0, 15.0], [22.0, 21.0], [15.0, 21.0], [7.0, 0.0], [1.0, 8.0], [926.0, 877.0], [268.0, 363.0], [46.0, 29.0], [0.0, 7.0], [46.0, 22.0], [33.0, 7.0], [13.0, 15.0], [11.0, 4.0], [2.0, 11.0], [222.0, 334.0], [33.0, 91.0], [12.0, 61.0], [21.0, 30.0], [20.0, 12.0], [20.0, 4.0], [0.0, 8.0], [1.0, 18.0], [189.0, 243.0], [9.0, 1.0], [180.0, 242.0], [6.0, 23.0], [4.0, 1.0], [2.0, 22.0], [174.0, 219.0], [25.0, 3.0], [149.0, 216.0], [39.0, 26.0], [8.0, 14.0], [4.0, 0.0], [4.0, 14.0], [3.0, 0.0], [1.0, 14.0], [31.0, 12.0], [110.0, 190.0], [103.0, 152.0], [92.0, 151.0], [84.0, 150.0], [5.0, 29.0], [79.0, 121.0], [71.0, 121.0], [15.0, 47.0], [56.0, 74.0], [34.0, 61.0], [13.0, 41.0], [21.0, 20.0], [18.0, 6.0], [1.0, 5.0], [17.0, 1.0], [3.0, 14.0], [22.0, 13.0], [8.0, 0.0], [8.0, 1.0], [11.0, 1.0], [7.0, 38.0], [658.0, 514.0], [580.0, 392.0], [368.0, 192.0], [0.0, 5.0], [368.0, 187.0], [326.0, 183.0], [54.0, 52.0], [41.0, 17.0], [13.0, 35.0], [272.0, 131.0], [0.0, 8.0], [272.0, 123.0], [149.0, 45.0], [126.0, 45.0], [17.0, 17.0], [14.0, 5.0], [3.0, 12.0], [109.0, 28.0], [25.0, 0.0], [84.0, 28.0], [83.0, 22.0], [78.0, 16.0], [39.0, 13.0], [39.0, 8.0], [0.0, 5.0], [39.0, 3.0], [5.0, 6.0], [0.0, 6.0], [5.0, 0.0], [1.0, 6.0], [23.0, 0.0], [123.0, 78.0], [48.0, 45.0], [22.0, 5.0], [26.0, 40.0], [14.0, 4.0], [12.0, 36.0], [75.0, 33.0], [52.0, 9.0], [23.0, 24.0], [17.0, 24.0], [8.0, 22.0], [9.0, 2.0], [6.0, 0.0], [42.0, 4.0], [212.0, 200.0], [138.0, 81.0], [50.0, 12.0], [8.0, 9.0], [42.0, 3.0], [88.0, 69.0], [22.0, 3.0], [66.0, 66.0], [57.0, 65.0], [27.0, 10.0], [30.0, 55.0], [1.0, 17.0], [29.0, 38.0], [0.0, 11.0], [29.0, 27.0], [9.0, 1.0], [74.0, 119.0], [46.0, 103.0], [24.0, 20.0], [24.0, 8.0], [0.0, 12.0], [22.0, 83.0], [28.0, 16.0], [2.0, 7.0], [26.0, 9.0], [0.0, 4.0], [26.0, 5.0], [78.0, 122.0], [54.0, 114.0], [9.0, 2.0], [45.0, 112.0], [34.0, 106.0], [11.0, 6.0], [11.0, 1.0], [0.0, 5.0], [24.0, 8.0], [913.0, 1270.0], [771.0, 942.0], [79.0, 203.0], [25.0, 111.0], [54.0, 92.0], [25.0, 18.0], [2.0, 9.0], [23.0, 9.0], [29.0, 74.0], [692.0, 739.0], [503.0, 609.0], [461.0, 516.0], [415.0, 495.0], [229.0, 212.0], [229.0, 195.0], [44.0, 60.0], [11.0, 33.0], [33.0, 27.0], [18.0, 25.0], [12.0, 5.0], [6.0, 20.0], [15.0, 2.0], [185.0, 135.0], [21.0, 2.0], [164.0, 133.0], [75.0, 85.0], [1.0, 11.0], [74.0, 74.0], [89.0, 48.0], [0.0, 5.0], [89.0, 43.0], [84.0, 31.0], [11.0, 18.0], [73.0, 13.0], [5.0, 12.0], [0.0, 11.0], [5.0, 1.0], [0.0, 17.0], [186.0, 283.0], [27.0, 72.0], [2.0, 0.0], [25.0, 72.0], [15.0, 63.0], [10.0, 9.0], [2.0, 9.0], [8.0, 0.0], [159.0, 211.0], [141.0, 201.0], [14.0, 1.0], [127.0, 200.0], [65.0, 132.0], [51.0, 67.0], [5.0, 19.0], [4.0, 1.0], [1.0, 18.0], [46.0, 48.0], [44.0, 31.0], [7.0, 19.0], [0.0, 12.0], [7.0, 7.0], [7.0, 0.0], [0.0, 7.0], [37.0, 12.0], [2.0, 17.0], [14.0, 65.0], [62.0, 68.0], [1.0, 11.0], [61.0, 57.0], [18.0, 10.0], [46.0, 21.0], [42.0, 93.0], [23.0, 73.0], [19.0, 20.0], [5.0, 15.0], [14.0, 5.0], [189.0, 130.0], [176.0, 130.0], [11.0, 36.0], [4.0, 33.0], [7.0, 3.0], [165.0, 94.0], [117.0, 50.0], [32.0, 31.0], [85.0, 19.0], [41.0, 1.0], [44.0, 18.0], [10.0, 11.0], [34.0, 7.0], [33.0, 2.0], [1.0, 5.0], [48.0, 44.0], [43.0, 27.0], [12.0, 2.0], [31.0, 25.0], [1.0, 11.0], [30.0, 14.0], [5.0, 17.0], [4.0, 0.0], [1.0, 17.0], [13.0, 0.0], [142.0, 328.0], [116.0, 312.0], [54.0, 66.0], [5.0, 24.0], [49.0, 42.0], [0.0, 7.0], [49.0, 35.0], [62.0, 246.0], [26.0, 16.0], [9.0, 0.0], [17.0, 16.0], [3.0, 11.0], [14.0, 5.0]]}, {"children_left": [1, 2, 3, 4, -1, 6, 7, -1, 9, 10, -1, 12, 13, -1, 15, 16, -1, -1, -1, 20, 21, 22, -1, 24, 25, -1, -1, -1, 29, 30, -1, -1, 33, -1, 35, 36, -1, 38, -1, -1, 41, 42, -1, 44, 45, -1, -1, -1, -1, 50, -1, 52, -1, -1, -1, -1, 57, 58, 59, 60, -1, -1, 63, -1, -1, 66, 67, -1, -1, -1, 71, 72, -1, 74, 75, -1, -1, 78, 79, 80, 81, -1, -1, -1, -1, -1, -1, 88, 89, 90, -1, 92, 93, -1, 95, 96, 97, -1, -1, -1, -1, -1, 103, 104, 105, 106, -1, -1, -1, 110, 111, -1, 113, -1, 115, -1, 117, 118, 119, 120, -1, -1, 123, -1, 125, -1, -1, 128, -1, 130, 131, -1, 133, 134, -1, -1, -1, -1, -1, 140, -1, 142, -1, 144, -1, -1, 147, 148, 149, -1, 151, 152, -1, 154, -1, -1, 157, 158, 159, 160, -1, 162, 163, -1, -1, -1, -1, -1, -1, 170, -1, -1, 173, 174, -1, -1, 177, 178, 179, -1, 181, 182, -1, -1, 185, -1, 187, -1, 189, -1, -1, -1, 193, 194, 195, -1, -1, -1, 199, 200, -1, -1, -1, 204, 205, -1, 207, 208, 209, 210, 211, -1, -1, 214, 215, -1, 217, 218, -1, -1, 221, -1, 223, -1, 225, -1, -1, 228, -1, 230, -1, 232, 233, 234, -1, -1, -1, 238, -1, 240, 241, -1, -1, -1, -1, 246, 247, 248, 249, 250, -1, 252, -1, 254, 255, -1, 257, -1, -1, -1, -1, 262, 263, 264, 265, 266, -1, -1, 269, -1, 271, -1, -1, 274, 275, -1, -1, -1, -1, -1, -1, -1, 283, -1, -1, 286, 287, 288, -1, -1, -1, 292, -1, 294, 295, -1, -1, 298, -1, -1, 301, 302, -1, 304, -1, -1, 307, 308, 309, 310, -1, 312, 313, -1, 315, 316, -1, -1, 319, 320, -1, 322, -1, -1, 325, -1, -1, -1, 329, -1, -1, 332, -1, 334, -1, 336, 337, -1, -1, 340, 341, -1, -1, -1, 345, -1, 347, 348, -1, -1, -1], "children_right": [300, 87, 56, 5, -1, 55, 8, -1, 54, 11, -1, 19, 14, -1, 18, 17, -1, -1, -1, 49, 28, 23, -1, 27, 26, -1, -1, -1, 32, 31, -1, -1, 34, -1, 40, 37, -1, 39, -1, -1, 48, 43, -1, 47, 46, -1, -1, -1, -1, 51, -1, 53, -1, -1, -1, -1, 70, 65, 62, 61, -1, -1, 64, -1, -1, 69, 68, -1, -1, -1, 86, 73, -1, 77, 76, -1, -1, 85, 84, 83, 82, -1, -1, -1, -1, -1, -1, 203, 102, 91, -1, 101, 94, -1, 100, 99, 98, -1, -1, -1, -1, -1, 146, 109, 108, 107, -1, -1, -1, 139, 112, -1, 114, -1, 116, -1, 138, 127, 122, 121, -1, -1, 124, -1, 126, -1, -1, 129, -1, 137, 132, -1, 136, 135, -1, -1, -1, -1, -1, 141, -1, 143, -1, 145, -1, -1, 172, 169, 150, -1, 156, 153, -1, 155, -1, -1, 168, 167, 166, 161, -1, 165, 164, -1, -1, -1, -1, -1, -1, 171, -1, -1, 176, 175, -1, -1, 192, 191, 180, -1, 184, 183, -1, -1, 186, -1, 188, -1, 190, -1, -1, -1, 198, 197, 196, -1, -1, -1, 202, 201, -1, -1, -1, 285, 206, -1, 282, 245, 244, 213, 212, -1, -1, 227, 216, -1, 220, 219, -1, -1, 222, -1, 224, -1, 226, -1, -1, 229, -1, 231, -1, 237, 236, 235, -1, -1, -1, 239, -1, 243, 242, -1, -1, -1, -1, 281, 280, 261, 260, 251, -1, 253, -1, 259, 256, -1, 258, -1, -1, -1, -1, 279, 278, 273, 268, 267, -1, -1, 270, -1, 272, -1, -1, 277, 276, -1, -1, -1, -1, -1, -1, -1, 284, -1, -1, 291, 290, 289, -1, -1, -1, 293, -1, 297, 296, -1, -1, 299, -1, -1, 306, 303, -1, 305, -1, -1, 344, 331, 328, 311, -1, 327, 314, -1, 318, 317, -1, -1, 324, 321, -1, 323, -1, -1, 326, -1, -1, -1, 330, -1, -1, 333, -1, 335, -1, 339, 338, -1, -1, 343, 342, -1, -1, -1, 346, -1, 350, 349, -1, -1, -1], "threshold": [18.5, 18.5, 26.5, 32.5, -2.0, 58.5, 998.5, -2.0, 332.5, 1006.5, -2.0, 0.9249999821186066, 36.5, -2.0, -1.6500000357627869, 38.0, -2.0, -2.0, -2.0, 52.5, 15.5, 17.5, -2.0, 54.5, 47.0, -2.0, -2.0, -2.0, 3.899999976158142, 37.5, -2.0, -2.0, -94.5, -2.0, 63.5, 92.5, -2.0, 17.0, -2.0, -2.0, -5.5, 1013.5, -2.0, 92.0, 4.75, -2.0, -2.0, -2.0, -2.0, 25.0, -2.0, 73.5, -2.0, -2.0, -2.0, -2.0, 4.950000047683716, 133.0, 1018.5, 39.0, -2.0, -2.0, -30.0, -2.0, -2.0, 49.0, 3.149999976158142, -2.0, -2.0, -2.0, 175.5, -40.5, -2.0, 45.5, 56.0, -2.0, -2.0, 9.75, 140.5, 301.5, 17.5, -2.0, -2.0, -2.0, -2.0, -2.0, -2.0, 5.3500001430511475, 2.850000023841858, 48.5, -2.0, 25.5, 6.8500001430511475, -2.0, 157.0, 1018.5, 14.5, -2.0, -2.0, -2.0, -2.0, -2.0, 38.5, 71.5, 36.5, -106.5, -2.0, -2.0, -2.0, 29.5, -35.5, -2.0, -34.5, -2.0, -117.5, -2.0, 37.5, 216.0, 41.0, 4.550000071525574, -2.0, -2.0, 14.5, -2.0, 97.5, -2.0, -2.0, 3.549999952316284, -2.0, 4.950000047683716, 27.5, -2.0, -27.5, 24.5, -2.0, -2.0, -2.0, -2.0, -2.0, 26.0, -2.0, 26.5, -2.0, 17.5, -2.0, -2.0, 120.5, 4.549999952316284, 74.5, -2.0, 11.5, 3.149999976158142, -2.0, 4.550000190734863, -2.0, -2.0, 4.25, 3.649999976158142, 27.5, 53.0, -2.0, 62.5, 112.0, -2.0, -2.0, -2.0, -2.0, -2.0, -2.0, 5.25, -2.0, -2.0, 1.5, 26.5, -2.0, -2.0, 49.5, 5.1499998569488525, -91.0, -2.0, 171.5, 169.5, -2.0, -2.0, 216.5, -2.0, 3.950000047683716, -2.0, 7.5, -2.0, -2.0, -2.0, 52.5, 3.75, 136.0, -2.0, -2.0, -2.0, 11.5, 98.0, -2.0, -2.0, -2.0, 111.5, -1.75, -2.0, 36.5, 125.5, 10.5, -14.0, 27.0, -2.0, -2.0, 48.5, 0.5, -2.0, 6.049999952316284, 5.8500001430511475, -2.0, -2.0, 6.8500001430511475, -2.0, 1012.5, -2.0, 35.0, -2.0, -2.0, 11.5, -2.0, 5.950000047683716, -2.0, 96.5, 24.5, 99.0, -2.0, -2.0, -2.0, 48.5, -2.0, 96.5, 23.5, -2.0, -2.0, -2.0, -2.0, 252.5, 9.949999809265137, -8.5, 66.5, 22.0, -2.0, 33.5, -2.0, -96.5, 6.400000095367432, -2.0, 30.5, -2.0, -2.0, -2.0, -2.0, 236.0, 1019.5, 54.5, 57.5, 41.5, -2.0, -2.0, 83.0, -2.0, 23.5, -2.0, -2.0, 64.0, 37.0, -2.0, -2.0, -2.0, -2.0, -2.0, -2.0, -2.0, 42.5, -2.0, -2.0, 148.5, 37.0, 32.0, -2.0, -2.0, -2.0, 32.0, -2.0, 46.5, 7.799999952316284, -2.0, -2.0, 232.5, -2.0, -2.0, -20.5, 73.5, -2.0, -26.0, -2.0, -2.0, 196.5, 79.5, 33.5, 57.5, -2.0, 29.5, -80.5, -2.0, 11.5, 7.700000047683716, -2.0, -2.0, 5.5, 32.5, -2.0, 3.1500000953674316, -2.0, -2.0, 6.6499998569488525, -2.0, -2.0, -2.0, 19.5, -2.0, -2.0, 4.3500001430511475, -2.0, 95.5, -2.0, 5.950000047683716, 70.5, -2.0, -2.0, 125.5, 185.5, -2.0, -2.0, -2.0, 261.0, -2.0, 278.0, 104.5, -2.0, -2.0, -2.0], "feature": [7, 2, 1, 4, -2, 0, 6, -2, 8, 6, -2, 7, 4, -2, 7, 4, -2, -2, -2, 0, 2, 0, -2, 4, 8, -2, -2, -2, 7, 4, -2, -2, 1, -2, 8, 5, -2, 2, -2, -2, 1, 6, -2, 4, 7, -2, -2, -2, -2, 5, -2, 4, -2, -2, -2, -2, 7, 1, 6, 0, -2, -2, 0, -2, -2, 5, 3, -2, -2, -2, 1, 0, -2, 8, 4, -2, -2, 3, 1, 8, 2, -2, -2, -2, -2, -2, -2, 3, 3, 4, -2, 2, 7, -2, 8, 6, 7, -2, -2, -2, -2, -2, 0, 8, 5, 1, -2, -2, -2, 2, 0, -2, 0, -2, 1, -2, 0, 8, 4, 7, -2, -2, 7, -2, 8, -2, -2, 3, -2, 3, 4, -2, 0, 5, -2, -2, -2, -2, -2, 0, -2, 4, -2, 7, -2, -2, 8, 3, 8, -2, 7, 3, -2, 7, -2, -2, 3, 3, 2, 5, -2, 4, 8, -2, -2, -2, -2, -2, -2, 7, -2, -2, 5, 1, -2, -2, 0, 3, 1, -2, 8, 8, -2, -2, 8, -2, 3, -2, 1, -2, -2, -2, 0, 3, 8, -2, -2, -2, 7, 5, -2, -2, -2, 1, 7, -2, 1, 8, 3, 0, 2, -2, -2, 4, 5, -2, 3, 3, -2, -2, 3, -2, 6, -2, 4, -2, -2, 7, -2, 3, -2, 8, 2, 5, -2, -2, -2, 5, -2, 5, 1, -2, -2, -2, -2, 8, 3, 1, 4, 0, -2, 2, -2, 1, 3, -2, 0, -2, -2, -2, -2, 8, 6, 0, 5, 5, -2, -2, 5, -2, 2, -2, -2, 4, 5, -2, -2, -2, -2, -2, -2, -2, 1, -2, -2, 1, 5, 8, -2, -2, -2, 8, -2, 4, 3, -2, -2, 8, -2, -2, 0, 1, -2, 0, -2, -2, 8, 5, 0, 4, -2, 0, 1, -2, 5, 3, -2, -2, 0, 1, -2, 3, -2, -2, 3, -2, -2, -2, 7, -2, -2, 3, -2, 1, -2, 3, 4, -2, -2, 1, 8, -2, -2, -2, 8, -2, 8, 1, -2, -2, -2], "classes": [0, 1], "value": [[2338.0, 2428.0], [2031.0, 1814.0], [595.0, 354.0], [455.0, 222.0], [10.0, 20.0], [445.0, 202.0], [444.0, 194.0], [14.0, 21.0], [430.0, 173.0], [391.0, 172.0], [66.0, 14.0], [325.0, 158.0], [50.0, 38.0], [7.0, 0.0], [43.0, 38.0], [31.0, 11.0], [0.0, 4.0], [31.0, 7.0], [12.0, 27.0], [275.0, 120.0], [238.0, 90.0], [128.0, 31.0], [1.0, 4.0], [127.0, 27.0], [13.0, 9.0], [0.0, 7.0], [13.0, 2.0], [114.0, 18.0], [110.0, 59.0], [3.0, 10.0], [3.0, 0.0], [0.0, 10.0], [107.0, 49.0], [14.0, 0.0], [93.0, 49.0], [11.0, 18.0], [3.0, 15.0], [8.0, 3.0], [8.0, 0.0], [0.0, 3.0], [82.0, 31.0], [18.0, 20.0], [9.0, 1.0], [9.0, 19.0], [3.0, 16.0], [3.0, 0.0], [0.0, 16.0], [6.0, 3.0], [64.0, 11.0], [37.0, 30.0], [16.0, 0.0], [21.0, 30.0], [8.0, 26.0], [13.0, 4.0], [39.0, 1.0], [1.0, 8.0], [140.0, 132.0], [42.0, 72.0], [20.0, 63.0], [14.0, 20.0], [8.0, 2.0], [6.0, 18.0], [6.0, 43.0], [3.0, 0.0], [3.0, 43.0], [22.0, 9.0], [8.0, 9.0], [0.0, 6.0], [8.0, 3.0], [14.0, 0.0], [98.0, 60.0], [98.0, 52.0], [1.0, 9.0], [97.0, 43.0], [26.0, 22.0], [0.0, 6.0], [26.0, 16.0], [71.0, 21.0], [71.0, 20.0], [40.0, 18.0], [38.0, 9.0], [33.0, 2.0], [5.0, 7.0], [2.0, 9.0], [31.0, 2.0], [0.0, 1.0], [0.0, 8.0], [1436.0, 1460.0], [716.0, 887.0], [78.0, 168.0], [27.0, 94.0], [51.0, 74.0], [46.0, 50.0], [0.0, 6.0], [46.0, 44.0], [32.0, 17.0], [29.0, 9.0], [27.0, 4.0], [2.0, 5.0], [3.0, 8.0], [14.0, 27.0], [5.0, 24.0], [638.0, 719.0], [229.0, 337.0], [42.0, 111.0], [29.0, 47.0], [7.0, 0.0], [22.0, 47.0], [13.0, 64.0], [187.0, 226.0], [145.0, 145.0], [21.0, 3.0], [124.0, 142.0], [3.0, 18.0], [121.0, 124.0], [0.0, 11.0], [121.0, 113.0], [115.0, 94.0], [65.0, 39.0], [10.0, 14.0], [6.0, 0.0], [4.0, 14.0], [55.0, 25.0], [31.0, 6.0], [24.0, 19.0], [2.0, 10.0], [22.0, 9.0], [50.0, 55.0], [9.0, 25.0], [41.0, 30.0], [40.0, 22.0], [0.0, 4.0], [40.0, 18.0], [9.0, 12.0], [9.0, 2.0], [0.0, 10.0], [31.0, 6.0], [1.0, 8.0], [6.0, 19.0], [42.0, 81.0], [14.0, 57.0], [28.0, 24.0], [12.0, 1.0], [16.0, 23.0], [10.0, 23.0], [6.0, 0.0], [409.0, 382.0], [231.0, 141.0], [154.0, 119.0], [38.0, 9.0], [116.0, 110.0], [32.0, 55.0], [8.0, 2.0], [24.0, 53.0], [6.0, 0.0], [18.0, 53.0], [84.0, 55.0], [79.0, 43.0], [34.0, 30.0], [32.0, 17.0], [18.0, 3.0], [14.0, 14.0], [3.0, 11.0], [0.0, 11.0], [3.0, 0.0], [11.0, 3.0], [2.0, 13.0], [45.0, 13.0], [5.0, 12.0], [77.0, 22.0], [0.0, 5.0], [77.0, 17.0], [178.0, 241.0], [13.0, 65.0], [8.0, 63.0], [5.0, 2.0], [165.0, 176.0], [117.0, 94.0], [115.0, 83.0], [23.0, 2.0], [92.0, 81.0], [45.0, 57.0], [44.0, 44.0], [1.0, 13.0], [47.0, 24.0], [40.0, 12.0], [7.0, 12.0], [0.0, 9.0], [7.0, 3.0], [7.0, 0.0], [0.0, 3.0], [2.0, 11.0], [48.0, 82.0], [16.0, 54.0], [9.0, 9.0], [6.0, 0.0], [3.0, 9.0], [7.0, 45.0], [32.0, 28.0], [12.0, 21.0], [7.0, 21.0], [5.0, 0.0], [20.0, 7.0], [720.0, 573.0], [472.0, 462.0], [18.0, 4.0], [454.0, 458.0], [436.0, 418.0], [242.0, 163.0], [240.0, 153.0], [9.0, 25.0], [2.0, 21.0], [7.0, 4.0], [231.0, 128.0], [87.0, 75.0], [7.0, 21.0], [80.0, 54.0], [21.0, 26.0], [18.0, 11.0], [3.0, 15.0], [59.0, 28.0], [32.0, 5.0], [27.0, 23.0], [18.0, 6.0], [9.0, 17.0], [8.0, 2.0], [1.0, 15.0], [144.0, 53.0], [46.0, 3.0], [98.0, 50.0], [38.0, 5.0], [60.0, 45.0], [41.0, 16.0], [27.0, 15.0], [26.0, 7.0], [1.0, 8.0], [14.0, 1.0], [19.0, 29.0], [3.0, 16.0], [16.0, 13.0], [13.0, 4.0], [13.0, 1.0], [0.0, 3.0], [3.0, 9.0], [2.0, 10.0], [194.0, 255.0], [194.0, 236.0], [170.0, 228.0], [78.0, 68.0], [65.0, 67.0], [9.0, 0.0], [56.0, 67.0], [24.0, 50.0], [32.0, 17.0], [22.0, 17.0], [17.0, 2.0], [5.0, 15.0], [4.0, 1.0], [1.0, 14.0], [10.0, 0.0], [13.0, 1.0], [92.0, 160.0], [85.0, 158.0], [65.0, 148.0], [52.0, 140.0], [34.0, 59.0], [19.0, 53.0], [15.0, 6.0], [18.0, 81.0], [1.0, 40.0], [17.0, 41.0], [3.0, 27.0], [14.0, 14.0], [13.0, 8.0], [13.0, 4.0], [0.0, 3.0], [13.0, 1.0], [0.0, 4.0], [20.0, 10.0], [7.0, 2.0], [24.0, 8.0], [0.0, 19.0], [18.0, 40.0], [0.0, 18.0], [18.0, 22.0], [248.0, 111.0], [146.0, 24.0], [90.0, 24.0], [6.0, 9.0], [84.0, 15.0], [56.0, 0.0], [102.0, 87.0], [1.0, 16.0], [101.0, 71.0], [56.0, 14.0], [51.0, 7.0], [5.0, 7.0], [45.0, 57.0], [29.0, 50.0], [16.0, 7.0], [307.0, 614.0], [47.0, 29.0], [0.0, 7.0], [47.0, 22.0], [9.0, 14.0], [38.0, 8.0], [260.0, 585.0], [217.0, 368.0], [132.0, 154.0], [77.0, 123.0], [23.0, 61.0], [54.0, 62.0], [46.0, 62.0], [6.0, 0.0], [40.0, 62.0], [8.0, 3.0], [8.0, 0.0], [0.0, 3.0], [32.0, 59.0], [23.0, 24.0], [0.0, 9.0], [23.0, 15.0], [5.0, 11.0], [18.0, 4.0], [9.0, 35.0], [4.0, 33.0], [5.0, 2.0], [8.0, 0.0], [55.0, 31.0], [15.0, 20.0], [40.0, 11.0], [85.0, 214.0], [27.0, 118.0], [58.0, 96.0], [16.0, 66.0], [42.0, 30.0], [34.0, 11.0], [29.0, 3.0], [5.0, 8.0], [8.0, 19.0], [5.0, 19.0], [2.0, 19.0], [3.0, 0.0], [3.0, 0.0], [43.0, 217.0], [19.0, 148.0], [24.0, 69.0], [14.0, 14.0], [0.0, 10.0], [14.0, 4.0], [10.0, 55.0]]}, {"children_left": [1, 2, 3, 4, 5, 6, 7, -1, 9, -1, -1, -1, 13, 14, 15, 16, -1, -1, -1, 20, 21, 22, -1, 24, 25, -1, -1, -1, -1, 30, 31, 32, -1, 34, 35, 36, 37, 38, -1, -1, 41, 42, -1, -1, -1, 46, -1, 48, -1, -1, 51, 52, -1, 54, -1, 56, -1, -1, -1, -1, 61, 62, -1, 64, -1, 66, -1, -1, -1, -1, -1, 72, -1, 74, 75, -1, -1, 78, -1, -1, 81, 82, -1, 84, 85, 86, -1, -1, 89, -1, 91, -1, 93, 94, 95, -1, 97, 98, 99, -1, -1, -1, -1, 104, 105, 106, 107, -1, -1, -1, 111, 112, 113, 114, 115, 116, -1, -1, -1, -1, -1, -1, 123, -1, -1, -1, -1, -1, 129, 130, -1, -1, -1, 134, -1, 136, 137, 138, -1, 140, -1, 142, 143, 144, -1, -1, -1, -1, 149, -1, 151, -1, 153, 154, 155, 156, 157, -1, 159, 160, -1, 162, -1, -1, -1, -1, 167, 168, 169, -1, 171, -1, -1, -1, 175, -1, 177, -1, -1, -1, 181, -1, -1, 184, 185, 186, -1, -1, -1, 190, 191, 192, 193, -1, 195, 196, -1, -1, 199, 200, 201, -1, 203, 204, 205, -1, -1, -1, -1, -1, 211, 212, -1, 214, -1, -1, -1, -1, -1, 220, -1, 222, 223, -1, 225, 226, -1, -1, -1, 230, 231, 232, 233, -1, -1, -1, 237, -1, 239, -1, -1, 242, 243, 244, 245, 246, 247, -1, 249, 250, -1, -1, 253, 254, 255, 256, 257, 258, -1, -1, -1, -1, -1, 264, 265, -1, -1, -1, -1, -1, 271, -1, 273, -1, 275, -1, -1, -1, 279, -1, -1, -1, 283, 284, 285, -1, -1, -1, 289, 290, 291, 292, 293, -1, -1, -1, -1, 298, -1, 300, -1, 302, -1, -1, 305, 306, 307, -1, -1, 310, -1, -1, -1], "children_right": [282, 133, 80, 71, 12, 11, 8, -1, 10, -1, -1, -1, 70, 19, 18, 17, -1, -1, -1, 29, 28, 23, -1, 27, 26, -1, -1, -1, -1, 69, 60, 33, -1, 59, 50, 45, 40, 39, -1, -1, 44, 43, -1, -1, -1, 47, -1, 49, -1, -1, 58, 53, -1, 55, -1, 57, -1, -1, -1, -1, 68, 63, -1, 65, -1, 67, -1, -1, -1, -1, -1, 73, -1, 77, 76, -1, -1, 79, -1, -1, 128, 83, -1, 127, 88, 87, -1, -1, 90, -1, 92, -1, 126, 103, 96, -1, 102, 101, 100, -1, -1, -1, -1, 125, 110, 109, 108, -1, -1, -1, 122, 121, 120, 119, 118, 117, -1, -1, -1, -1, -1, -1, 124, -1, -1, -1, -1, -1, 132, 131, -1, -1, -1, 135, -1, 183, 148, 139, -1, 141, -1, 147, 146, 145, -1, -1, -1, -1, 150, -1, 152, -1, 180, 179, 166, 165, 158, -1, 164, 161, -1, 163, -1, -1, -1, -1, 174, 173, 170, -1, 172, -1, -1, -1, 176, -1, 178, -1, -1, -1, 182, -1, -1, 189, 188, 187, -1, -1, -1, 219, 218, 217, 194, -1, 198, 197, -1, -1, 210, 209, 202, -1, 208, 207, 206, -1, -1, -1, -1, -1, 216, 213, -1, 215, -1, -1, -1, -1, -1, 221, -1, 229, 224, -1, 228, 227, -1, -1, -1, 241, 236, 235, 234, -1, -1, -1, 238, -1, 240, -1, -1, 281, 278, 277, 270, 269, 248, -1, 252, 251, -1, -1, 268, 263, 262, 261, 260, 259, -1, -1, -1, -1, -1, 267, 266, -1, -1, -1, -1, -1, 272, -1, 274, -1, 276, -1, -1, -1, 280, -1, -1, -1, 288, 287, 286, -1, -1, -1, 304, 297, 296, 295, 294, -1, -1, -1, -1, 299, -1, 301, -1, 303, -1, -1, 312, 309, 308, -1, -1, 311, -1, -1, -1], "threshold": [19.5, 49.5, 10.5, 105.0, 31.5, 8.150000095367432, 37.5, -2.0, 7.099999904632568, -2.0, -2.0, -2.0, 330.5, -2.850000023841858, 59.0, 7.5, -2.0, -2.0, -2.0, 3.549999952316284, 3.350000023841858, 1014.5, -2.0, 136.0, 20.0, -2.0, -2.0, -2.0, -2.0, 239.5, 13.5, 12.5, -2.0, 45.5, 37.5, 8.349999904632568, 4.349999904632568, 8.5, -2.0, -2.0, 191.0, 4.1499998569488525, -2.0, -2.0, -2.0, 33.0, -2.0, 1010.5, -2.0, -2.0, 41.5, 3.049999952316284, -2.0, 4.450000047683716, -2.0, 1010.5, -2.0, -2.0, -2.0, -2.0, 9.649999618530273, 43.5, -2.0, 17.5, -2.0, 4.25, -2.0, -2.0, -2.0, -2.0, -2.0, 31.0, -2.0, 42.5, 5.3500001430511475, -2.0, -2.0, 4.25, -2.0, -2.0, 112.5, 25.5, -2.0, 18.5, -122.5, 129.0, -2.0, -2.0, 1006.5, -2.0, -121.5, -2.0, 1023.5, -1.5, 87.5, -2.0, 45.5, 3.049999952316284, 139.0, -2.0, -2.0, -2.0, -2.0, 38.0, 1014.5, 79.5, 29.5, -2.0, -2.0, -2.0, 160.0, 4.450000047683716, 4.299999952316284, 79.0, 2.5, 120.0, -2.0, -2.0, -2.0, -2.0, -2.0, -2.0, 180.5, -2.0, -2.0, -2.0, -2.0, -2.0, 120.5, 6.3500001430511475, -2.0, -2.0, -2.0, -119.5, -2.0, 10.5, 4.549999952316284, 50.5, -2.0, 69.0, -2.0, 1027.5, 1012.5, 3.450000047683716, -2.0, -2.0, -2.0, -2.0, 994.5, -2.0, -40.5, -2.0, 21.5, 8.050000190734863, 15.5, 52.5, 1001.5, -2.0, 62.5, 1018.5, -2.0, 1025.5, -2.0, -2.0, -2.0, -2.0, 84.5, 66.5, 26.5, -2.0, 218.0, -2.0, -2.0, -2.0, 65.5, -2.0, 69.5, -2.0, -2.0, -2.0, 14.5, -2.0, -2.0, -84.5, 12.5, 46.0, -2.0, -2.0, -2.0, 4.3500001430511475, 28.5, 246.0, 15.5, -2.0, 4.5, 38.0, -2.0, -2.0, 10.5, 0.5, 54.5, -2.0, 3.149999976158142, 92.5, 189.5, -2.0, -2.0, -2.0, -2.0, -2.0, 93.5, 22.5, -2.0, 61.5, -2.0, -2.0, -2.0, -2.0, -2.0, 39.0, -2.0, 4.6499998569488525, 14.5, -2.0, 1016.5, 161.5, -2.0, -2.0, -2.0, 31.5, 1017.5, 225.5, 147.0, -2.0, -2.0, -2.0, 164.0, -2.0, 33.5, -2.0, -2.0, 29.5, 84.5, 1022.5, 96.5, 92.5, 80.5, -2.0, 1004.5, 26.5, -2.0, -2.0, 30.0, 125.5, 28.5, 83.5, 55.0, 22.5, -2.0, -2.0, -2.0, -2.0, -2.0, 25.5, 70.5, -2.0, -2.0, -2.0, -2.0, -2.0, 21.5, -2.0, 42.5, -2.0, 50.5, -2.0, -2.0, -2.0, 7.400000095367432, -2.0, -2.0, -2.0, 2.950000047683716, 76.5, 74.0, -2.0, -2.0, -2.0, 34.5, 5.5, 30.5, 21.5, 117.5, -2.0, -2.0, -2.0, -2.0, 43.5, -2.0, 101.5, -2.0, 36.0, -2.0, -2.0, 29.5, 65.5, -1.5, -2.0, -2.0, 91.5, -2.0, -2.0, -2.0], "feature": [7, 4, 7, 1, 0, 3, 4, -2, 7, -2, -2, -2, 8, 7, 8, 2, -2, -2, -2, 3, 3, 6, -2, 8, 1, -2, -2, -2, -2, 8, 1, 2, -2, 4, 5, 7, 7, 5, -2, -2, 8, 3, -2, -2, -2, 2, -2, 6, -2, -2, 0, 7, -2, 3, -2, 6, -2, -2, -2, -2, 7, 8, -2, 4, -2, 3, -2, -2, -2, -2, -2, 8, -2, 4, 3, -2, -2, 3, -2, -2, 1, 0, -2, 7, 1, 8, -2, -2, 6, -2, 1, -2, 6, 1, 8, -2, 0, 3, 8, -2, -2, -2, -2, 1, 6, 5, 2, -2, -2, -2, 8, 3, 3, 5, 5, 8, -2, -2, -2, -2, -2, -2, 8, -2, -2, -2, -2, -2, 8, 3, -2, -2, -2, 1, -2, 7, 3, 4, -2, 5, -2, 6, 6, 3, -2, -2, -2, -2, 6, -2, 0, -2, 2, 3, 2, 0, 6, -2, 8, 6, -2, 6, -2, -2, -2, -2, 5, 5, 5, -2, 8, -2, -2, -2, 4, -2, 4, -2, -2, -2, 5, -2, -2, 1, 7, 0, -2, -2, -2, 3, 2, 8, 2, -2, 5, 0, -2, -2, 1, 1, 4, -2, 3, 4, 8, -2, -2, -2, -2, -2, 5, 1, -2, 4, -2, -2, -2, -2, -2, 8, -2, 3, 5, -2, 6, 8, -2, -2, -2, 5, 6, 8, 1, -2, -2, -2, 8, -2, 0, -2, -2, 2, 4, 6, 5, 5, 8, -2, 6, 2, -2, -2, 1, 8, 1, 4, 5, 2, -2, -2, -2, -2, -2, 2, 4, -2, -2, -2, -2, -2, 2, -2, 0, -2, 4, -2, -2, -2, 3, -2, -2, -2, 3, 5, 5, -2, -2, -2, 0, 0, 2, 7, 8, -2, -2, -2, -2, 4, -2, 1, -2, 8, -2, -2, 1, 5, 1, -2, -2, 4, -2, -2, -2], "classes": [0, 1], "value": [[2320.0, 2446.0], [2091.0, 1896.0], [865.0, 934.0], [562.0, 521.0], [420.0, 435.0], [34.0, 86.0], [27.0, 82.0], [18.0, 73.0], [9.0, 9.0], [0.0, 9.0], [9.0, 0.0], [7.0, 4.0], [386.0, 349.0], [361.0, 347.0], [37.0, 14.0], [27.0, 6.0], [1.0, 5.0], [26.0, 1.0], [10.0, 8.0], [324.0, 333.0], [46.0, 89.0], [44.0, 67.0], [9.0, 28.0], [35.0, 39.0], [31.0, 20.0], [31.0, 14.0], [0.0, 6.0], [4.0, 19.0], [2.0, 22.0], [278.0, 244.0], [261.0, 240.0], [213.0, 162.0], [2.0, 9.0], [211.0, 153.0], [171.0, 142.0], [99.0, 103.0], [83.0, 70.0], [23.0, 38.0], [21.0, 18.0], [2.0, 20.0], [60.0, 32.0], [60.0, 27.0], [3.0, 8.0], [57.0, 19.0], [0.0, 5.0], [16.0, 33.0], [6.0, 26.0], [10.0, 7.0], [0.0, 5.0], [10.0, 2.0], [72.0, 39.0], [31.0, 25.0], [14.0, 1.0], [17.0, 24.0], [0.0, 10.0], [17.0, 14.0], [0.0, 9.0], [17.0, 5.0], [41.0, 14.0], [40.0, 11.0], [48.0, 78.0], [37.0, 76.0], [10.0, 2.0], [27.0, 74.0], [6.0, 1.0], [21.0, 73.0], [13.0, 16.0], [8.0, 57.0], [11.0, 2.0], [17.0, 4.0], [25.0, 2.0], [142.0, 86.0], [9.0, 30.0], [133.0, 56.0], [103.0, 29.0], [34.0, 22.0], [69.0, 7.0], [30.0, 27.0], [8.0, 24.0], [22.0, 3.0], [303.0, 413.0], [229.0, 368.0], [13.0, 73.0], [216.0, 295.0], [208.0, 294.0], [10.0, 3.0], [0.0, 3.0], [10.0, 0.0], [198.0, 291.0], [14.0, 7.0], [184.0, 284.0], [0.0, 8.0], [184.0, 276.0], [179.0, 275.0], [101.0, 124.0], [17.0, 4.0], [84.0, 120.0], [74.0, 118.0], [3.0, 21.0], [3.0, 0.0], [0.0, 21.0], [71.0, 97.0], [10.0, 2.0], [78.0, 151.0], [78.0, 143.0], [41.0, 50.0], [38.0, 27.0], [22.0, 5.0], [16.0, 22.0], [3.0, 23.0], [37.0, 93.0], [25.0, 81.0], [21.0, 38.0], [16.0, 38.0], [13.0, 38.0], [9.0, 11.0], [9.0, 1.0], [0.0, 10.0], [4.0, 27.0], [3.0, 0.0], [5.0, 0.0], [4.0, 43.0], [12.0, 12.0], [9.0, 2.0], [3.0, 10.0], [0.0, 8.0], [5.0, 1.0], [8.0, 1.0], [74.0, 45.0], [27.0, 32.0], [14.0, 31.0], [13.0, 1.0], [47.0, 13.0], [1226.0, 962.0], [48.0, 8.0], [1178.0, 954.0], [450.0, 271.0], [130.0, 131.0], [12.0, 1.0], [118.0, 130.0], [49.0, 80.0], [69.0, 50.0], [69.0, 42.0], [6.0, 16.0], [5.0, 2.0], [1.0, 14.0], [63.0, 26.0], [0.0, 8.0], [320.0, 140.0], [5.0, 10.0], [315.0, 130.0], [1.0, 5.0], [314.0, 125.0], [306.0, 112.0], [240.0, 103.0], [113.0, 33.0], [108.0, 25.0], [2.0, 4.0], [106.0, 21.0], [42.0, 17.0], [31.0, 5.0], [11.0, 12.0], [3.0, 11.0], [8.0, 1.0], [64.0, 4.0], [5.0, 8.0], [127.0, 70.0], [102.0, 32.0], [65.0, 30.0], [38.0, 5.0], [27.0, 25.0], [27.0, 18.0], [0.0, 7.0], [37.0, 2.0], [25.0, 38.0], [11.0, 33.0], [14.0, 5.0], [14.0, 0.0], [0.0, 5.0], [66.0, 9.0], [8.0, 13.0], [7.0, 0.0], [1.0, 13.0], [728.0, 683.0], [40.0, 80.0], [19.0, 8.0], [19.0, 3.0], [0.0, 5.0], [21.0, 72.0], [688.0, 603.0], [193.0, 231.0], [186.0, 200.0], [164.0, 198.0], [5.0, 1.0], [159.0, 197.0], [10.0, 25.0], [6.0, 1.0], [4.0, 24.0], [149.0, 172.0], [70.0, 115.0], [68.0, 98.0], [14.0, 6.0], [54.0, 92.0], [14.0, 46.0], [10.0, 46.0], [5.0, 44.0], [5.0, 2.0], [4.0, 0.0], [40.0, 46.0], [2.0, 17.0], [79.0, 57.0], [60.0, 29.0], [35.0, 5.0], [25.0, 24.0], [9.0, 22.0], [16.0, 2.0], [19.0, 28.0], [22.0, 2.0], [7.0, 31.0], [495.0, 372.0], [10.0, 41.0], [485.0, 331.0], [60.0, 13.0], [1.0, 3.0], [59.0, 10.0], [40.0, 10.0], [38.0, 2.0], [2.0, 8.0], [19.0, 0.0], [425.0, 318.0], [133.0, 58.0], [96.0, 29.0], [90.0, 22.0], [88.0, 15.0], [2.0, 7.0], [6.0, 7.0], [37.0, 29.0], [26.0, 8.0], [11.0, 21.0], [11.0, 6.0], [0.0, 15.0], [292.0, 260.0], [273.0, 257.0], [225.0, 235.0], [224.0, 221.0], [178.0, 146.0], [156.0, 144.0], [11.0, 26.0], [145.0, 118.0], [5.0, 17.0], [2.0, 17.0], [3.0, 0.0], [140.0, 101.0], [103.0, 89.0], [39.0, 15.0], [39.0, 11.0], [39.0, 8.0], [9.0, 7.0], [7.0, 0.0], [2.0, 7.0], [30.0, 1.0], [0.0, 3.0], [0.0, 4.0], [64.0, 74.0], [55.0, 44.0], [39.0, 19.0], [16.0, 25.0], [9.0, 30.0], [37.0, 12.0], [22.0, 2.0], [46.0, 75.0], [25.0, 22.0], [21.0, 53.0], [14.0, 10.0], [7.0, 43.0], [3.0, 0.0], [4.0, 43.0], [1.0, 14.0], [48.0, 22.0], [40.0, 7.0], [8.0, 15.0], [19.0, 3.0], [229.0, 550.0], [28.0, 172.0], [18.0, 66.0], [11.0, 66.0], [7.0, 0.0], [10.0, 106.0], [201.0, 378.0], [146.0, 345.0], [78.0, 80.0], [65.0, 51.0], [13.0, 23.0], [8.0, 3.0], [5.0, 20.0], [52.0, 28.0], [13.0, 29.0], [68.0, 265.0], [9.0, 9.0], [59.0, 256.0], [18.0, 135.0], [41.0, 121.0], [6.0, 0.0], [35.0, 121.0], [55.0, 33.0], [44.0, 33.0], [33.0, 14.0], [26.0, 4.0], [7.0, 10.0], [11.0, 19.0], [5.0, 18.0], [6.0, 1.0], [11.0, 0.0]]}, {"children_left": [1, 2, 3, 4, 5, 6, 7, 8, 9, -1, -1, -1, -1, -1, 15, -1, 17, 18, 19, -1, 21, 22, -1, -1, -1, -1, -1, 28, 29, 30, 31, 32, -1, 34, -1, 36, -1, 38, -1, -1, -1, -1, 43, 44, -1, 46, 47, -1, 49, 50, 51, -1, -1, -1, -1, 56, -1, -1, 59, -1, 61, 62, -1, -1, -1, 66, -1, 68, -1, -1, -1, 72, -1, 74, 75, -1, -1, -1, 79, 80, 81, 82, 83, -1, -1, -1, 87, 88, -1, 90, -1, 92, -1, -1, -1, 96, 97, 98, 99, -1, -1, -1, -1, 104, -1, 106, -1, -1, 109, 110, 111, 112, 113, -1, -1, -1, 117, 118, 119, -1, -1, -1, 123, -1, 125, 126, 127, 128, -1, -1, -1, -1, 133, 134, 135, -1, 137, 138, -1, -1, -1, -1, 143, 144, -1, 146, -1, -1, 149, -1, 151, -1, 153, -1, -1, 156, 157, 158, -1, -1, 161, 162, -1, -1, -1, 166, -1, 168, 169, 170, -1, 172, 173, -1, -1, 176, -1, -1, 179, -1, -1, -1, 183, 184, 185, -1, 187, 188, -1, -1, 191, 192, 193, 194, -1, 196, 197, -1, 199, -1, -1, 202, -1, -1, -1, -1, 207, 208, -1, 210, 211, -1, -1, 214, -1, 216, 217, -1, -1, -1, 221, 222, -1, -1, -1, 226, 227, -1, -1, 230, 231, 232, 233, 234, 235, -1, 237, -1, -1, 240, -1, 242, -1, 244, 245, 246, 247, -1, -1, 250, -1, -1, -1, -1, 255, -1, 257, -1, 259, 260, -1, 262, -1, -1, 265, -1, 267, 268, 269, -1, -1, -1, -1, -1, 275, -1, 277, -1, -1, 280, 281, -1, 283, -1, -1, 286, 287, -1, 289, 290, 291, 292, -1, 294, -1, -1, -1, -1, 299, -1, -1, 302, 303, 304, 305, 306, 307, 308, -1, 310, -1, 312, -1, 314, -1, -1, -1, -1, -1, -1, -1, -1, 323, 324, 325, 326, -1, -1, -1, 330, 331, -1, -1, 334, -1, 336, -1, 338, -1, -1, -1], "children_right": [78, 71, 70, 27, 14, 13, 12, 11, 10, -1, -1, -1, -1, -1, 16, -1, 26, 25, 20, -1, 24, 23, -1, -1, -1, -1, -1, 65, 42, 41, 40, 33, -1, 35, -1, 37, -1, 39, -1, -1, -1, -1, 58, 45, -1, 55, 48, -1, 54, 53, 52, -1, -1, -1, -1, 57, -1, -1, 60, -1, 64, 63, -1, -1, -1, 67, -1, 69, -1, -1, -1, 73, -1, 77, 76, -1, -1, -1, 108, 95, 86, 85, 84, -1, -1, -1, 94, 89, -1, 91, -1, 93, -1, -1, -1, 103, 102, 101, 100, -1, -1, -1, -1, 105, -1, 107, -1, -1, 182, 155, 116, 115, 114, -1, -1, -1, 122, 121, 120, -1, -1, -1, 124, -1, 132, 131, 130, 129, -1, -1, -1, -1, 142, 141, 136, -1, 140, 139, -1, -1, -1, -1, 148, 145, -1, 147, -1, -1, 150, -1, 152, -1, 154, -1, -1, 165, 160, 159, -1, -1, 164, 163, -1, -1, -1, 167, -1, 181, 178, 171, -1, 175, 174, -1, -1, 177, -1, -1, 180, -1, -1, -1, 322, 225, 186, -1, 190, 189, -1, -1, 206, 205, 204, 195, -1, 201, 198, -1, 200, -1, -1, 203, -1, -1, -1, -1, 220, 209, -1, 213, 212, -1, -1, 215, -1, 219, 218, -1, -1, -1, 224, 223, -1, -1, -1, 229, 228, -1, -1, 279, 274, 273, 254, 239, 236, -1, 238, -1, -1, 241, -1, 243, -1, 253, 252, 249, 248, -1, -1, 251, -1, -1, -1, -1, 256, -1, 258, -1, 264, 261, -1, 263, -1, -1, 266, -1, 272, 271, 270, -1, -1, -1, -1, -1, 276, -1, 278, -1, -1, 285, 282, -1, 284, -1, -1, 301, 288, -1, 298, 297, 296, 293, -1, 295, -1, -1, -1, -1, 300, -1, -1, 321, 320, 319, 318, 317, 316, 309, -1, 311, -1, 313, -1, 315, -1, -1, -1, -1, -1, -1, -1, -1, 340, 329, 328, 327, -1, -1, -1, 333, 332, -1, -1, 335, -1, 337, -1, 339, -1, -1, -1], "threshold": [-20.5, 8.349999904632568, -22.5, 74.5, 19.5, -34.5, 11.5, 4.3500001430511475, 147.0, -2.0, -2.0, -2.0, -2.0, -2.0, -62.5, -2.0, 31.5, 5.75, 25.0, -2.0, 1020.5, 4.599999904632568, -2.0, -2.0, -2.0, -2.0, -2.0, 310.5, 5.25, 32.5, 87.5, -35.5, -2.0, 15.5, -2.0, 2.899999976158142, -2.0, 149.5, -2.0, -2.0, -2.0, -2.0, 16.5, -40.5, -2.0, 148.5, 0.5, -2.0, 7.5, 10.5, 5.549999952316284, -2.0, -2.0, -2.0, -2.0, 224.5, -2.0, -2.0, 17.5, -2.0, 7.450000047683716, 5.8500001430511475, -2.0, -2.0, -2.0, 322.5, -2.0, -27.0, -2.0, -2.0, -2.0, -40.5, -2.0, 27.0, 1017.5, -2.0, -2.0, -2.0, 2.950000047683716, 23.5, 84.0, 66.0, 1014.5, -2.0, -2.0, -2.0, 308.0, 1012.5, -2.0, 13.5, -2.0, -82.5, -2.0, -2.0, -2.0, 124.5, 47.5, -81.5, 81.0, -2.0, -2.0, -2.0, -2.0, 80.5, -2.0, 1.8499999642372131, -2.0, -2.0, 20.5, 13.5, 38.5, 47.5, 1018.5, -2.0, -2.0, -2.0, 9.849999904632568, 41.5, 29.5, -2.0, -2.0, -2.0, -122.5, -2.0, 45.5, 31.0, 3.5, 39.5, -2.0, -2.0, -2.0, -2.0, 83.5, 82.5, 17.0, -2.0, 4.549999952316284, 54.5, -2.0, -2.0, -2.0, -2.0, 1010.5, 26.0, -2.0, 65.5, -2.0, -2.0, 60.0, -2.0, 13.5, -2.0, 79.0, -2.0, -2.0, 56.5, 14.5, 4.900000095367432, -2.0, -2.0, 19.5, 1022.0, -2.0, -2.0, -2.0, 16.0, -2.0, 15.5, 17.5, 4.900000095367432, -2.0, 36.0, 94.5, -2.0, -2.0, 6.950000047683716, -2.0, -2.0, 6.099999904632568, -2.0, -2.0, -2.0, 21.5, 4.450000047683716, 37.0, -2.0, 23.5, 1.8499999642372131, -2.0, -2.0, 38.5, 1019.5, 37.5, 1007.5, -2.0, 99.5, 3.5, -2.0, -113.5, -2.0, -2.0, 56.5, -2.0, -2.0, -2.0, -2.0, 15.5, 100.5, -2.0, 10.5, 49.5, -2.0, -2.0, 106.5, -2.0, 117.5, 52.5, -2.0, -2.0, -2.0, 41.5, 27.5, -2.0, -2.0, -2.0, 13.5, 127.5, -2.0, -2.0, 42.5, 8.949999809265137, 1015.5, -78.0, 47.5, 4.75, -2.0, 4.700000047683716, -2.0, -2.0, 23.0, -2.0, 27.0, -2.0, 73.5, 40.0, 38.5, 6.799999952316284, -2.0, -2.0, 5.25, -2.0, -2.0, -2.0, -2.0, 3.350000023841858, -2.0, 27.5, -2.0, 1008.5, 92.0, -2.0, 47.5, -2.0, -2.0, 28.5, -2.0, 20.5, 115.0, 4.799999952316284, -2.0, -2.0, -2.0, -2.0, -2.0, 9.550000190734863, -2.0, 127.5, -2.0, -2.0, -99.0, 60.5, -2.0, 88.0, -2.0, -2.0, 22.5, 5.549999952316284, -2.0, 6.5, 181.5, 111.0, 5.75, -2.0, 88.0, -2.0, -2.0, -2.0, -2.0, 7.450000047683716, -2.0, -2.0, 18.5, 99.5, 27.5, 53.5, 10.449999809265137, 1013.5, 1010.5, -2.0, 36.5, -2.0, 65.5, -2.0, 44.5, -2.0, -2.0, -2.0, -2.0, -2.0, -2.0, -2.0, -2.0, 34.5, 103.0, 4.8500001430511475, 21.0, -2.0, -2.0, -2.0, 105.0, 95.0, -2.0, -2.0, 7.0, -2.0, 216.5, -2.0, 12.0, -2.0, -2.0, -2.0], "feature": [0, 3, 0, 8, 2, 0, 7, 3, 1, -2, -2, -2, -2, -2, 1, -2, 5, 3, 2, -2, 6, 3, -2, -2, -2, -2, -2, 8, 3, 2, 4, 0, -2, 2, -2, 7, -2, 1, -2, -2, -2, -2, 7, 0, -2, 1, 7, -2, 5, 7, 3, -2, -2, -2, -2, 8, -2, -2, 7, -2, 3, 3, -2, -2, -2, 8, -2, 0, -2, -2, -2, 0, -2, 1, 6, -2, -2, -2, 3, 2, 8, 5, 6, -2, -2, -2, 8, 6, -2, 7, -2, 1, -2, -2, -2, 1, 0, 1, 5, -2, -2, -2, -2, 5, -2, 3, -2, -2, 2, 1, 0, 4, 6, -2, -2, -2, 2, 0, 4, -2, -2, -2, 1, -2, 4, 5, 5, 8, -2, -2, -2, -2, 5, 4, 8, -2, 3, 0, -2, -2, -2, -2, 6, 8, -2, 4, -2, -2, 4, -2, 2, -2, 8, -2, -2, 4, 5, 3, -2, -2, 1, 6, -2, -2, -2, 5, -2, 7, 2, 3, -2, 8, 5, -2, -2, 7, -2, -2, 3, -2, -2, -2, 7, 3, 8, -2, 4, 7, -2, -2, 0, 6, 0, 6, -2, 5, 5, -2, 1, -2, -2, 4, -2, -2, -2, -2, 7, 8, -2, 7, 0, -2, -2, 8, -2, 8, 0, -2, -2, -2, 0, 2, -2, -2, -2, 0, 1, -2, -2, 0, 3, 6, 1, 5, 3, -2, 7, -2, -2, 4, -2, 0, -2, 4, 2, 0, 3, -2, -2, 3, -2, -2, -2, -2, 7, -2, 1, -2, 6, 8, -2, 4, -2, -2, 1, -2, 7, 8, 3, -2, -2, -2, -2, -2, 3, -2, 8, -2, -2, 1, 5, -2, 5, -2, -2, 2, 3, -2, 3, 8, 8, 3, -2, 5, -2, -2, -2, -2, 3, -2, -2, 7, 5, 1, 0, 3, 6, 6, -2, 4, -2, 5, -2, 4, -2, -2, -2, -2, -2, -2, -2, -2, 0, 1, 3, 5, -2, -2, -2, 1, 5, -2, -2, 5, -2, 8, -2, 0, -2, -2, -2], "classes": [0, 1], "value": [[2348.0, 2418.0], [521.0, 388.0], [434.0, 374.0], [395.0, 364.0], [81.0, 139.0], [30.0, 26.0], [16.0, 24.0], [16.0, 15.0], [6.0, 13.0], [0.0, 11.0], [6.0, 2.0], [10.0, 2.0], [0.0, 9.0], [14.0, 2.0], [51.0, 113.0], [5.0, 1.0], [46.0, 112.0], [32.0, 44.0], [27.0, 18.0], [16.0, 2.0], [11.0, 16.0], [7.0, 16.0], [0.0, 12.0], [7.0, 4.0], [4.0, 0.0], [5.0, 26.0], [14.0, 68.0], [314.0, 225.0], [293.0, 185.0], [130.0, 107.0], [124.0, 85.0], [123.0, 78.0], [46.0, 14.0], [77.0, 64.0], [9.0, 0.0], [68.0, 64.0], [8.0, 1.0], [60.0, 63.0], [21.0, 41.0], [39.0, 22.0], [1.0, 7.0], [6.0, 22.0], [163.0, 78.0], [133.0, 48.0], [0.0, 2.0], [133.0, 46.0], [82.0, 18.0], [0.0, 2.0], [82.0, 16.0], [36.0, 16.0], [22.0, 3.0], [0.0, 3.0], [22.0, 0.0], [14.0, 13.0], [46.0, 0.0], [51.0, 28.0], [45.0, 14.0], [6.0, 14.0], [30.0, 30.0], [4.0, 14.0], [26.0, 16.0], [26.0, 10.0], [3.0, 7.0], [23.0, 3.0], [0.0, 6.0], [21.0, 40.0], [0.0, 18.0], [21.0, 22.0], [21.0, 11.0], [0.0, 11.0], [39.0, 10.0], [87.0, 14.0], [0.0, 3.0], [87.0, 11.0], [12.0, 9.0], [11.0, 3.0], [1.0, 6.0], [75.0, 2.0], [1827.0, 2030.0], [163.0, 378.0], [83.0, 91.0], [40.0, 16.0], [16.0, 15.0], [1.0, 8.0], [15.0, 7.0], [24.0, 1.0], [43.0, 75.0], [36.0, 75.0], [13.0, 6.0], [23.0, 69.0], [13.0, 63.0], [10.0, 6.0], [1.0, 5.0], [9.0, 1.0], [7.0, 0.0], [80.0, 287.0], [67.0, 275.0], [50.0, 253.0], [17.0, 26.0], [16.0, 11.0], [1.0, 15.0], [33.0, 227.0], [17.0, 22.0], [13.0, 12.0], [7.0, 1.0], [6.0, 11.0], [6.0, 0.0], [0.0, 11.0], [1664.0, 1652.0], [604.0, 348.0], [458.0, 195.0], [77.0, 17.0], [16.0, 13.0], [13.0, 2.0], [3.0, 11.0], [61.0, 4.0], [381.0, 178.0], [36.0, 39.0], [20.0, 6.0], [0.0, 4.0], [20.0, 2.0], [16.0, 33.0], [345.0, 139.0], [1.0, 5.0], [344.0, 134.0], [30.0, 28.0], [13.0, 25.0], [10.0, 7.0], [1.0, 7.0], [9.0, 0.0], [3.0, 18.0], [17.0, 3.0], [314.0, 106.0], [168.0, 39.0], [167.0, 36.0], [0.0, 2.0], [167.0, 34.0], [30.0, 17.0], [30.0, 11.0], [0.0, 6.0], [137.0, 17.0], [1.0, 3.0], [146.0, 67.0], [55.0, 40.0], [10.0, 0.0], [45.0, 40.0], [1.0, 9.0], [44.0, 31.0], [91.0, 27.0], [25.0, 0.0], [66.0, 27.0], [17.0, 0.0], [49.0, 27.0], [4.0, 11.0], [45.0, 16.0], [146.0, 153.0], [34.0, 83.0], [15.0, 16.0], [1.0, 13.0], [14.0, 3.0], [19.0, 67.0], [9.0, 8.0], [3.0, 8.0], [6.0, 0.0], [10.0, 59.0], [112.0, 70.0], [4.0, 12.0], [108.0, 58.0], [108.0, 54.0], [77.0, 27.0], [49.0, 7.0], [28.0, 20.0], [5.0, 10.0], [5.0, 1.0], [0.0, 9.0], [23.0, 10.0], [13.0, 0.0], [10.0, 10.0], [31.0, 27.0], [12.0, 23.0], [19.0, 4.0], [0.0, 4.0], [1060.0, 1304.0], [942.0, 1069.0], [268.0, 383.0], [1.0, 14.0], [267.0, 369.0], [21.0, 10.0], [2.0, 6.0], [19.0, 4.0], [246.0, 359.0], [55.0, 122.0], [49.0, 120.0], [48.0, 98.0], [6.0, 2.0], [42.0, 96.0], [33.0, 93.0], [16.0, 12.0], [17.0, 81.0], [5.0, 2.0], [12.0, 79.0], [9.0, 3.0], [0.0, 3.0], [9.0, 0.0], [1.0, 22.0], [6.0, 2.0], [191.0, 237.0], [154.0, 159.0], [68.0, 41.0], [86.0, 118.0], [15.0, 51.0], [14.0, 21.0], [1.0, 30.0], [71.0, 67.0], [0.0, 9.0], [71.0, 58.0], [23.0, 6.0], [23.0, 3.0], [0.0, 3.0], [48.0, 52.0], [37.0, 78.0], [13.0, 10.0], [11.0, 2.0], [2.0, 8.0], [24.0, 68.0], [674.0, 686.0], [15.0, 49.0], [8.0, 48.0], [7.0, 1.0], [659.0, 637.0], [417.0, 349.0], [391.0, 308.0], [263.0, 238.0], [108.0, 138.0], [53.0, 95.0], [14.0, 4.0], [39.0, 91.0], [16.0, 10.0], [23.0, 81.0], [55.0, 43.0], [12.0, 1.0], [43.0, 42.0], [9.0, 1.0], [34.0, 41.0], [26.0, 40.0], [22.0, 40.0], [8.0, 30.0], [0.0, 26.0], [8.0, 4.0], [14.0, 10.0], [10.0, 1.0], [4.0, 9.0], [4.0, 0.0], [8.0, 1.0], [155.0, 100.0], [1.0, 12.0], [154.0, 88.0], [82.0, 24.0], [72.0, 64.0], [11.0, 22.0], [1.0, 14.0], [10.0, 8.0], [8.0, 1.0], [2.0, 7.0], [61.0, 42.0], [0.0, 6.0], [61.0, 36.0], [47.0, 35.0], [39.0, 11.0], [0.0, 3.0], [39.0, 8.0], [8.0, 24.0], [14.0, 1.0], [128.0, 70.0], [26.0, 41.0], [6.0, 25.0], [20.0, 16.0], [6.0, 14.0], [14.0, 2.0], [242.0, 288.0], [32.0, 7.0], [26.0, 1.0], [6.0, 6.0], [1.0, 6.0], [5.0, 0.0], [210.0, 281.0], [87.0, 62.0], [39.0, 12.0], [48.0, 50.0], [14.0, 36.0], [10.0, 36.0], [10.0, 15.0], [5.0, 0.0], [5.0, 15.0], [1.0, 14.0], [4.0, 1.0], [0.0, 21.0], [4.0, 0.0], [34.0, 14.0], [29.0, 5.0], [5.0, 9.0], [123.0, 219.0], [114.0, 217.0], [112.0, 178.0], [109.0, 162.0], [87.0, 150.0], [82.0, 150.0], [43.0, 56.0], [11.0, 31.0], [32.0, 25.0], [11.0, 1.0], [21.0, 24.0], [9.0, 20.0], [12.0, 4.0], [0.0, 4.0], [12.0, 0.0], [39.0, 94.0], [5.0, 0.0], [22.0, 12.0], [3.0, 16.0], [2.0, 39.0], [9.0, 2.0], [118.0, 235.0], [101.0, 228.0], [22.0, 111.0], [17.0, 31.0], [5.0, 0.0], [12.0, 31.0], [5.0, 80.0], [79.0, 117.0], [30.0, 14.0], [29.0, 7.0], [1.0, 7.0], [49.0, 103.0], [6.0, 1.0], [43.0, 102.0], [19.0, 73.0], [24.0, 29.0], [4.0, 20.0], [20.0, 9.0], [17.0, 7.0]]}]}