{"classes": [0, 1], "dtrees": [{"children_left": [1, 2, 3, -1, 5, 6, -1, 8, -1, -1, 11, 12, 13, 14, -1, 16, -1, 18, -1, -1, -1, 22, -1, 24, -1, -1, 27, 28, 29, -1, -1, -1, -1, 34, 35, 36, 37, -1, 39, -1, -1, 42, -1, 44, -1, 46, -1, -1, 49, 50, -1, -1, 53, 54, -1, -1, 57, 58, -1, -1, 61, -1, -1, 64, -1, 66, -1, -1, 69, 70, -1, 72, -1, -1, 75, 76, 77, 78, -1, 80, -1, -1, -1, -1, -1], "children_right": [68, 33, 4, -1, 10, 7, -1, 9, -1, -1, 26, 21, 20, 15, -1, 17, -1, 19, -1, -1, -1, 23, -1, 25, -1, -1, 32, 31, 30, -1, -1, -1, -1, 63, 48, 41, 38, -1, 40, -1, -1, 43, -1, 45, -1, 47, -1, -1, 52, 51, -1, -1, 56, 55, -1, -1, 60, 59, -1, -1, 62, -1, -1, 65, -1, 67, -1, -1, 74, 71, -1, 73, -1, -1, 84, 83, 82, 79, -1, 81, -1, -1, -1, -1, -1], "threshold": [18.9350004196167, 19.925000190734863, -4.5, -2.0, -32.5, 9.300000190734863, -2.0, 54.5, -2.0, -2.0, 5.2099997997283936, 4.295000076293945, 4.359999895095825, -3.190000057220459, -2.0, 2.90500009059906, -2.0, 16.670000076293945, -2.0, -2.0, -2.0, 63.5, -2.0, 137.5, -2.0, -2.0, 173.0, 35.5, 52.5, -2.0, -2.0, -2.0, -2.0, 221.5, 41.5, 40.5, 2.5, -2.0, 22.230000495910645, -2.0, -2.0, 164.5, -2.0, 1012.5, -2.0, 0.5649999976158142, -2.0, -2.0, 115.5, 1023.5, -2.0, -2.0, 49.5, 46.5, -2.0, -2.0, 182.5, 21.425000190734863, -2.0, -2.0, 7.569999933242798, -2.0, -2.0, 147.0, -2.0, -30.0, -2.0, -2.0, -71.5, 25.5, -2.0, 18.5, -2.0, -2.0, 129.5, 29.5, 4.5, -2.5, -2.0, 5.025000095367432, -2.0, -2.0, -2.0, -2.0, -2.0], "feature": [8, 2, 1, -2, 0, 8, -2, 9, -2, -2, 3, 8, 3, 8, -2, 3, -2, 2, -2, -2, -2, 9, -2, 9, -2, -2, 9, 1, 0, -2, -2, -2, -2, 9, 0, 9, 9, -2, 2, -2, -2, 9, -2, 7, -2, 4, -2, -2, 9, 7, -2, -2, 0, 0, -2, -2, 9, 2, -2, -2, 8, -2, -2, 1, -2, 0, -2, -2, 1, 0, -2, 6, -2, -2, 1, 0, 0, 0, -2, 3, -2, -2, -2, -2, -2], "classes": [0, 1], "value": [[5275.0, 5088.0], [4490.0, 3793.0], [2041.0, 1342.0], [805.0, 421.0], [1236.0, 921.0], [307.0, 132.0], [197.0, 46.0], [110.0, 86.0], [10.0, 28.0], [100.0, 58.0], [929.0, 789.0], [405.0, 442.0], [83.0, 158.0], [74.0, 107.0], [27.0, 7.0], [47.0, 100.0], [14.0, 68.0], [33.0, 32.0], [32.0, 17.0], [1.0, 15.0], [9.0, 51.0], [322.0, 284.0], [67.0, 92.0], [255.0, 192.0], [163.0, 76.0], [92.0, 116.0], [524.0, 347.0], [410.0, 213.0], [394.0, 182.0], [249.0, 149.0], [145.0, 33.0], [16.0, 31.0], [114.0, 134.0], [2449.0, 2451.0], [2299.0, 2152.0], [1479.0, 1152.0], [131.0, 200.0], [17.0, 2.0], [114.0, 198.0], [54.0, 41.0], [60.0, 157.0], [1348.0, 952.0], [927.0, 747.0], [421.0, 205.0], [174.0, 38.0], [247.0, 167.0], [221.0, 120.0], [26.0, 47.0], [820.0, 1000.0], [294.0, 256.0], [291.0, 234.0], [3.0, 22.0], [526.0, 744.0], [325.0, 347.0], [184.0, 250.0], [141.0, 97.0], [201.0, 397.0], [166.0, 382.0], [68.0, 80.0], [98.0, 302.0], [35.0, 15.0], [0.0, 8.0], [35.0, 7.0], [150.0, 299.0], [108.0, 266.0], [42.0, 33.0], [1.0, 16.0], [41.0, 17.0], [785.0, 1295.0], [275.0, 282.0], [37.0, 100.0], [238.0, 182.0], [72.0, 16.0], [166.0, 166.0], [510.0, 1013.0], [427.0, 964.0], [356.0, 892.0], [144.0, 239.0], [32.0, 126.0], [112.0, 113.0], [55.0, 92.0], [57.0, 21.0], [212.0, 653.0], [71.0, 72.0], [83.0, 49.0]]}, {"children_left": [1, 2, 3, -1, 5, 6, 7, -1, 9, -1, -1, -1, -1, 14, 15, 16, -1, -1, -1, 20, 21, -1, 23, 24, -1, 26, -1, -1, -1, -1, 31, 32, 33, 34, -1, 36, -1, -1, -1, 40, -1, 42, -1, -1, 45, -1, 47, 48, -1, 50, 51, -1, -1, 54, -1, -1, 57, 58, 59, -1, -1, -1, 63, -1, -1], "children_right": [30, 13, 4, -1, 12, 11, 8, -1, 10, -1, -1, -1, -1, 19, 18, 17, -1, -1, -1, 29, 22, -1, 28, 25, -1, 27, -1, -1, -1, -1, 44, 39, 38, 35, -1, 37, -1, -1, -1, 41, -1, 43, -1, -1, 46, -1, 56, 49, -1, 53, 52, -1, -1, 55, -1, -1, 62, 61, 60, -1, -1, -1, 64, -1, -1], "threshold": [28.5, -19.5, 26.5, -2.0, 146.5, 4.890000104904175, 112.0, -2.0, 80.5, -2.0, -2.0, -2.0, -2.0, -96.5, 197.5, 7.5, -2.0, -2.0, -2.0, 31.195000648498535, 5.164999961853027, -2.0, 25.5, 35.5, -2.0, 5.840000152587891, -2.0, -2.0, -2.0, -2.0, 20.054999351501465, 19.5, 41.5, 32.5, -2.0, -5.0, -2.0, -2.0, -2.0, 23.5, -2.0, 25.5, -2.0, -2.0, 115.5, -2.0, 49.5, 41.5, -2.0, 47.5, 4.859999895095825, -2.0, -2.0, 186.5, -2.0, -2.0, 23.47499942779541, 5.4700000286102295, 5.120000123977661, -2.0, -2.0, -2.0, 184.0, -2.0, -2.0], "feature": [0, 0, 1, -2, 1, 3, 9, -2, 5, -2, -2, -2, -2, 1, 9, 6, -2, -2, -2, 2, 3, -2, 0, 1, -2, 3, -2, -2, -2, -2, 2, 1, 0, 0, -2, 1, -2, -2, -2, 1, -2, 1, -2, -2, 9, -2, 0, 6, -2, 0, 3, -2, -2, 9, -2, -2, 2, 3, 3, -2, -2, -2, 9, -2, -2], "classes": [0, 1], "value": [[5210.0, 5153.0], [1600.0, 2038.0], [1023.0, 774.0], [61.0, 141.0], [962.0, 633.0], [397.0, 179.0], [102.0, 83.0], [9.0, 36.0], [93.0, 47.0], [93.0, 38.0], [0.0, 9.0], [295.0, 96.0], [565.0, 454.0], [577.0, 1264.0], [96.0, 96.0], [90.0, 64.0], [30.0, 2.0], [60.0, 62.0], [6.0, 32.0], [481.0, 1168.0], [381.0, 811.0], [203.0, 559.0], [178.0, 252.0], [154.0, 245.0], [21.0, 84.0], [133.0, 161.0], [59.0, 33.0], [74.0, 128.0], [24.0, 7.0], [100.0, 357.0], [3610.0, 3115.0], [1680.0, 1140.0], [1410.0, 835.0], [453.0, 192.0], [20.0, 29.0], [433.0, 163.0], [405.0, 131.0], [28.0, 32.0], [957.0, 643.0], [270.0, 305.0], [51.0, 110.0], [219.0, 195.0], [54.0, 17.0], [165.0, 178.0], [1930.0, 1975.0], [791.0, 658.0], [1139.0, 1317.0], [916.0, 944.0], [585.0, 504.0], [331.0, 440.0], [263.0, 396.0], [98.0, 221.0], [165.0, 175.0], [68.0, 44.0], [67.0, 27.0], [1.0, 17.0], [223.0, 373.0], [148.0, 175.0], [73.0, 128.0], [72.0, 97.0], [1.0, 31.0], [75.0, 47.0], [75.0, 198.0], [53.0, 193.0], [22.0, 5.0]]}, {"children_left": [1, 2, 3, 4, 5, -1, -1, 8, -1, 10, -1, 12, -1, -1, -1, 16, 17, 18, -1, 20, -1, 22, -1, 24, 25, -1, -1, -1, 29, -1, -1, 32, -1, 34, -1, -1, 37, 38, 39, 40, 41, -1, -1, -1, 45, 46, -1, 48, -1, -1, -1, 52, 53, -1, -1, -1, 57, 58, -1, -1, 61, -1, 63, -1, -1], "children_right": [36, 15, 14, 7, 6, -1, -1, 9, -1, 11, -1, 13, -1, -1, -1, 31, 28, 19, -1, 21, -1, 23, -1, 27, 26, -1, -1, -1, 30, -1, -1, 33, -1, 35, -1, -1, 56, 51, 44, 43, 42, -1, -1, -1, 50, 47, -1, 49, -1, -1, -1, 55, 54, -1, -1, -1, 60, 59, -1, -1, 62, -1, 64, -1, -1], "threshold": [24.054999351501465, 17.984999656677246, 89.5, 230.5, 63.5, -2.0, -2.0, -32.5, -2.0, -5.0, -2.0, 54.5, -2.0, -2.0, -2.0, 221.5, 72.0, -85.5, -2.0, 5.644999980926514, -2.0, 123.5, -2.0, 0.024999999441206455, 50.5, -2.0, -2.0, -2.0, 71.5, -2.0, -2.0, 52.5, -2.0, 66.5, -2.0, -2.0, 0.20499999821186066, 109.5, 25.5, 4.5, 200.0, -2.0, -2.0, -2.0, 16.984999656677246, 5.615000009536743, -2.0, 8.105000019073486, -2.0, -2.0, -2.0, -34.5, 146.5, -2.0, -2.0, -2.0, 3.024999976158142, 10.0, -2.0, -2.0, 29.34500026702881, -2.0, 23.535000801086426, -2.0, -2.0], "feature": [2, 2, 5, 9, 6, -2, -2, 0, -2, 1, -2, 0, -2, -2, -2, 9, 1, 1, -2, 8, -2, 9, -2, 4, 0, -2, -2, -2, 9, -2, -2, 5, -2, 5, -2, -2, 4, 1, 0, 6, 9, -2, -2, -2, 8, 3, -2, 3, -2, -2, -2, 0, 1, -2, -2, -2, 3, 6, -2, -2, 2, -2, 8, -2, -2], "classes": [0, 1], "value": [[5225.0, 5138.0], [3121.0, 2369.0], [1551.0, 971.0], [1375.0, 905.0], [990.0, 578.0], [463.0, 192.0], [527.0, 386.0], [385.0, 327.0], [87.0, 39.0], [298.0, 288.0], [179.0, 105.0], [119.0, 183.0], [108.0, 183.0], [11.0, 0.0], [176.0, 66.0], [1570.0, 1398.0], [1414.0, 1170.0], [1139.0, 1032.0], [257.0, 133.0], [882.0, 899.0], [41.0, 106.0], [841.0, 793.0], [484.0, 381.0], [357.0, 412.0], [157.0, 127.0], [109.0, 52.0], [48.0, 75.0], [200.0, 285.0], [275.0, 138.0], [70.0, 69.0], [205.0, 69.0], [156.0, 228.0], [96.0, 83.0], [60.0, 145.0], [27.0, 114.0], [33.0, 31.0], [2104.0, 2769.0], [1100.0, 1165.0], [804.0, 952.0], [102.0, 240.0], [55.0, 64.0], [46.0, 27.0], [9.0, 37.0], [47.0, 176.0], [702.0, 712.0], [509.0, 602.0], [316.0, 442.0], [193.0, 160.0], [166.0, 99.0], [27.0, 61.0], [193.0, 110.0], [296.0, 213.0], [81.0, 109.0], [49.0, 31.0], [32.0, 78.0], [215.0, 104.0], [1004.0, 1604.0], [120.0, 349.0], [23.0, 17.0], [97.0, 332.0], [884.0, 1255.0], [554.0, 674.0], [330.0, 581.0], [277.0, 412.0], [53.0, 169.0]]}, {"children_left": [1, 2, 3, 4, 5, -1, 7, -1, 9, 10, 11, -1, -1, -1, 15, 16, -1, -1, -1, -1, 21, -1, 23, -1, 25, -1, -1, 28, 29, 30, -1, -1, 33, 34, 35, -1, -1, 38, -1, 40, -1, 42, -1, 44, -1, 46, -1, 48, -1, -1, -1, 52, 53, 54, 55, -1, -1, -1, 59, 60, -1, -1, -1, -1, 65, 66, -1, 68, 69, -1, -1, 72, -1, -1, 75, -1, 77, -1, -1], "children_right": [64, 27, 20, 19, 6, -1, 8, -1, 14, 13, 12, -1, -1, -1, 18, 17, -1, -1, -1, -1, 22, -1, 24, -1, 26, -1, -1, 51, 32, 31, -1, -1, 50, 37, 36, -1, -1, 39, -1, 41, -1, 43, -1, 45, -1, 47, -1, 49, -1, -1, -1, 63, 58, 57, 56, -1, -1, -1, 62, 61, -1, -1, -1, -1, 74, 67, -1, 71, 70, -1, -1, 73, -1, -1, 76, -1, 78, -1, -1], "threshold": [19.375, 20.02500057220459, 4.664999961853027, 60.5, -79.5, -2.0, 1014.5, -2.0, 268.0, -29.5, 44.5, -2.0, -2.0, -2.0, 8.360000133514404, 39.5, -2.0, -2.0, -2.0, -2.0, 145.5, -2.0, 49.5, -2.0, 6.495000123977661, -2.0, -2.0, 107.5, -99.5, 14.714999675750732, -2.0, -2.0, 252.5, 18.5, -25.5, -2.0, -2.0, 4.769999980926514, -2.0, 115.5, -2.0, 49.5, -2.0, 0.24499999731779099, -2.0, 7.8399999141693115, -2.0, 129.5, -2.0, -2.0, -2.0, 8.635000228881836, 145.5, 4.2900002002716064, 25.005000114440918, -2.0, -2.0, -2.0, 150.5, 17.40999984741211, -2.0, -2.0, -2.0, -2.0, 25.5, 101.5, -2.0, 1.5, 5.055000066757202, -2.0, -2.0, 11.5, -2.0, -2.0, 11.0, -2.0, 25.390000343322754, -2.0, -2.0], "feature": [8, 2, 3, 0, 1, -2, 7, -2, 9, 1, 0, -2, -2, -2, 8, 0, -2, -2, -2, -2, 9, -2, 0, -2, 3, -2, -2, 1, 1, 8, -2, -2, 9, 0, 0, -2, -2, 8, -2, 9, -2, 0, -2, 4, -2, 8, -2, 9, -2, -2, -2, 3, 1, 3, 2, -2, -2, -2, 1, 8, -2, -2, -2, -2, 0, 1, -2, 0, 3, -2, -2, 0, -2, -2, 1, -2, 2, -2, -2], "classes": [0, 1], "value": [[5218.0, 5145.0], [4581.0, 3955.0], [2048.0, 1405.0], [782.0, 670.0], [780.0, 651.0], [208.0, 114.0], [572.0, 537.0], [108.0, 156.0], [464.0, 381.0], [376.0, 253.0], [27.0, 54.0], [17.0, 53.0], [10.0, 1.0], [349.0, 199.0], [88.0, 128.0], [81.0, 86.0], [55.0, 20.0], [26.0, 66.0], [7.0, 42.0], [2.0, 19.0], [1266.0, 735.0], [832.0, 414.0], [434.0, 321.0], [326.0, 183.0], [108.0, 138.0], [35.0, 83.0], [73.0, 55.0], [2533.0, 2550.0], [1935.0, 2121.0], [357.0, 248.0], [312.0, 184.0], [45.0, 64.0], [1578.0, 1873.0], [1543.0, 1742.0], [95.0, 202.0], [70.0, 88.0], [25.0, 114.0], [1448.0, 1540.0], [46.0, 94.0], [1402.0, 1446.0], [632.0, 536.0], [770.0, 910.0], [581.0, 597.0], [189.0, 313.0], [79.0, 191.0], [110.0, 122.0], [11.0, 0.0], [99.0, 122.0], [9.0, 46.0], [90.0, 76.0], [35.0, 131.0], [598.0, 429.0], [528.0, 416.0], [209.0, 108.0], [19.0, 36.0], [17.0, 8.0], [2.0, 28.0], [190.0, 72.0], [319.0, 308.0], [92.0, 135.0], [72.0, 133.0], [20.0, 2.0], [227.0, 173.0], [70.0, 13.0], [637.0, 1190.0], [396.0, 924.0], [81.0, 333.0], [315.0, 591.0], [150.0, 177.0], [60.0, 116.0], [90.0, 61.0], [165.0, 414.0], [45.0, 206.0], [120.0, 208.0], [241.0, 266.0], [209.0, 186.0], [32.0, 80.0], [12.0, 1.0], [20.0, 79.0]]}, {"children_left": [1, 2, 3, 4, -1, -1, 7, 8, 9, -1, -1, -1, 13, -1, -1, 16, 17, 18, 19, -1, -1, 22, -1, -1, 25, 26, -1, 28, 29, -1, -1, 32, 33, -1, -1, -1, -1, -1, 39, 40, -1, -1, 43, 44, -1, 46, -1, -1, -1], "children_right": [38, 15, 6, 5, -1, -1, 12, 11, 10, -1, -1, -1, 14, -1, -1, 37, 24, 21, 20, -1, -1, 23, -1, -1, 36, 27, -1, 31, 30, -1, -1, 35, 34, -1, -1, -1, -1, -1, 42, 41, -1, -1, 48, 45, -1, 47, -1, -1, -1], "threshold": [17.335000038146973, 20.65499973297119, 19.5, 5.5299999713897705, -2.0, -2.0, 128.5, 359.5, 294.5, -2.0, -2.0, -2.0, 54.5, -2.0, -2.0, 286.5, 42.5, 4.335000038146973, 38.0, -2.0, -2.0, 148.5, -2.0, -2.0, 41.5, 125.5, -2.0, 5.555000066757202, 172.5, -2.0, -2.0, 10.485000133514404, 171.5, -2.0, -2.0, -2.0, -2.0, -2.0, 25.5, 128.5, -2.0, -2.0, 78.5, 32.57500076293945, -2.0, 54.0, -2.0, -2.0, -2.0], "feature": [8, 2, 1, 3, -2, -2, 1, 9, 9, -2, -2, -2, 5, -2, -2, 9, 0, 3, 9, -2, -2, 9, -2, -2, 1, 9, -2, 3, 9, -2, -2, 8, 9, -2, -2, -2, -2, -2, 0, 1, -2, -2, 5, 2, -2, 6, -2, -2, -2], "classes": [0, 1], "value": [[5192.0, 5171.0], [4253.0, 3551.0], [2244.0, 1493.0], [1634.0, 951.0], [813.0, 568.0], [821.0, 383.0], [610.0, 542.0], [309.0, 375.0], [295.0, 375.0], [268.0, 281.0], [27.0, 94.0], [14.0, 0.0], [301.0, 167.0], [132.0, 38.0], [169.0, 129.0], [2009.0, 2058.0], [1967.0, 1938.0], [1386.0, 1177.0], [384.0, 441.0], [22.0, 72.0], [362.0, 369.0], [1002.0, 736.0], [640.0, 550.0], [362.0, 186.0], [581.0, 761.0], [568.0, 761.0], [253.0, 269.0], [315.0, 492.0], [180.0, 363.0], [120.0, 303.0], [60.0, 60.0], [135.0, 129.0], [62.0, 23.0], [54.0, 7.0], [8.0, 16.0], [73.0, 106.0], [13.0, 0.0], [42.0, 120.0], [939.0, 1620.0], [488.0, 1090.0], [360.0, 1008.0], [128.0, 82.0], [451.0, 530.0], [357.0, 477.0], [273.0, 416.0], [84.0, 61.0], [76.0, 37.0], [8.0, 24.0], [94.0, 53.0]]}, {"children_left": [1, 2, 3, 4, -1, -1, -1, -1, 9, 10, 11, 12, 13, -1, -1, -1, -1, 18, -1, 20, -1, -1, 23, 24, 25, -1, 27, 28, 29, -1, -1, -1, -1, 34, 35, -1, 37, -1, -1, -1, 41, 42, -1, 44, -1, -1, -1], "children_right": [8, 7, 6, 5, -1, -1, -1, -1, 22, 17, 16, 15, 14, -1, -1, -1, -1, 19, -1, 21, -1, -1, 40, 33, 26, -1, 32, 31, 30, -1, -1, -1, -1, 39, 36, -1, 38, -1, -1, -1, 46, 43, -1, 45, -1, -1, -1], "threshold": [20.785000801086426, 4.765000104904175, 4.375, 19.5, -2.0, -2.0, -2.0, -2.0, -20.5, 7.394999980926514, -25.5, 143.5, 5.875, -2.0, -2.0, -2.0, -2.0, -34.5, -2.0, -14.5, -2.0, -2.0, 25.5, -82.0, 15.0, -2.0, 80.5, 6.025000095367432, 3.59499990940094, -2.0, -2.0, -2.0, -2.0, 25.394999504089355, 22.5, -2.0, 1.5, -2.0, -2.0, -2.0, 5.474999904632568, -119.5, -2.0, 31.97499942779541, -2.0, -2.0, -2.0], "feature": [2, 3, 3, 1, -2, -2, -2, -2, 0, 3, 0, 9, 3, -2, -2, -2, -2, 0, -2, 1, -2, -2, 0, 1, 6, -2, 6, 3, 3, -2, -2, -2, -2, 8, 1, -2, 0, -2, -2, -2, 3, 1, -2, 2, -2, -2, -2], "classes": [0, 1], "value": [[5216.0, 5147.0], [2269.0, 1520.0], [935.0, 776.0], [806.0, 616.0], [541.0, 333.0], [265.0, 283.0], [129.0, 160.0], [1334.0, 744.0], [2947.0, 3627.0], [672.0, 519.0], [497.0, 465.0], [420.0, 435.0], [209.0, 288.0], [165.0, 174.0], [44.0, 114.0], [211.0, 147.0], [77.0, 30.0], [175.0, 54.0], [27.0, 23.0], [148.0, 31.0], [4.0, 11.0], [144.0, 20.0], [2275.0, 3108.0], [503.0, 1173.0], [104.0, 103.0], [46.0, 9.0], [58.0, 94.0], [48.0, 52.0], [41.0, 26.0], [10.0, 23.0], [31.0, 3.0], [7.0, 26.0], [10.0, 42.0], [399.0, 1070.0], [374.0, 1056.0], [34.0, 213.0], [340.0, 843.0], [110.0, 160.0], [230.0, 683.0], [25.0, 14.0], [1772.0, 1935.0], [1032.0, 1294.0], [67.0, 36.0], [965.0, 1258.0], [867.0, 1198.0], [98.0, 60.0], [740.0, 641.0]]}, {"children_left": [1, 2, 3, -1, -1, -1, 7, 8, 9, 10, 11, 12, 13, -1, 15, -1, 17, -1, 19, -1, -1, -1, 23, -1, -1, 26, 27, -1, -1, -1, -1, 32, -1, 34, -1, -1, 37, 38, 39, 40, -1, 42, 43, -1, -1, -1, -1, -1, 49, -1, -1], "children_right": [6, 5, 4, -1, -1, -1, 36, 31, 30, 25, 22, 21, 14, -1, 16, -1, 18, -1, 20, -1, -1, -1, 24, -1, -1, 29, 28, -1, -1, -1, -1, 33, -1, 35, -1, -1, 48, 47, 46, 41, -1, 45, 44, -1, -1, -1, -1, -1, 50, -1, -1], "threshold": [20.644999504089355, 4.684999942779541, 0.3400000035762787, -2.0, -2.0, -2.0, 21.36500072479248, 113.5, 47.5, 44.5, -73.5, -76.5, 20.5, -2.0, 7.619999885559082, -2.0, 12.234999656677246, -2.0, 20.61500072479248, -2.0, -2.0, -2.0, 34.5, -2.0, -2.0, 201.5, -1.5, -2.0, -2.0, -2.0, -2.0, 120.5, -2.0, 94.5, -2.0, -2.0, 126.5, 26.5, 31.644999504089355, 3.6149998903274536, -2.0, 10.5, 14.5, -2.0, -2.0, -2.0, -2.0, -2.0, 52.5, -2.0, -2.0], "feature": [2, 3, 4, -2, -2, -2, 8, 1, 1, 6, 1, 1, 0, -2, 8, -2, 8, -2, 8, -2, -2, -2, 1, -2, -2, 9, 0, -2, -2, -2, -2, 1, -2, 9, -2, -2, 1, 0, 2, 3, -2, 0, 1, -2, -2, -2, -2, -2, 5, -2, -2], "classes": [0, 1], "value": [[5140.0, 5223.0], [2222.0, 1530.0], [879.0, 745.0], [584.0, 415.0], [295.0, 330.0], [1343.0, 785.0], [2918.0, 3693.0], [2476.0, 2839.0], [1918.0, 2393.0], [1852.0, 2170.0], [1174.0, 1156.0], [598.0, 464.0], [522.0, 444.0], [39.0, 6.0], [483.0, 438.0], [69.0, 112.0], [414.0, 326.0], [160.0, 79.0], [254.0, 247.0], [215.0, 237.0], [39.0, 10.0], [76.0, 20.0], [576.0, 692.0], [499.0, 658.0], [77.0, 34.0], [678.0, 1014.0], [622.0, 855.0], [13.0, 68.0], [609.0, 787.0], [56.0, 159.0], [66.0, 223.0], [558.0, 446.0], [77.0, 18.0], [481.0, 428.0], [107.0, 188.0], [374.0, 240.0], [442.0, 854.0], [384.0, 834.0], [300.0, 757.0], [263.0, 565.0], [75.0, 257.0], [188.0, 308.0], [103.0, 110.0], [0.0, 17.0], [103.0, 93.0], [85.0, 198.0], [37.0, 192.0], [84.0, 77.0], [58.0, 20.0], [0.0, 7.0], [58.0, 13.0]]}, {"children_left": [1, 2, 3, 4, -1, 6, -1, 8, -1, 10, -1, 12, -1, 14, -1, -1, 17, 18, -1, 20, 21, -1, 23, -1, -1, -1, -1, 28, 29, 30, -1, -1, 33, 34, 35, -1, -1, -1, 39, -1, 41, -1, -1, 44, 45, -1, -1, 48, 49, -1, -1, -1, 53, 54, 55, 56, -1, 58, -1, -1, -1, 62, -1, 64, 65, -1, 67, -1, -1, -1, -1], "children_right": [52, 27, 16, 5, -1, 7, -1, 9, -1, 11, -1, 13, -1, 15, -1, -1, 26, 19, -1, 25, 22, -1, 24, -1, -1, -1, -1, 43, 32, 31, -1, -1, 38, 37, 36, -1, -1, -1, 40, -1, 42, -1, -1, 47, 46, -1, -1, 51, 50, -1, -1, -1, 70, 61, 60, 57, -1, 59, -1, -1, -1, 63, -1, 69, 66, -1, 68, -1, -1, -1, -1], "threshold": [18.945000648498535, 18.204999923706055, 5.174999952316284, -101.5, -2.0, 46.5, -2.0, 0.7549999952316284, -2.0, 26.5, -2.0, 61.5, -2.0, 75.0, -2.0, -2.0, 1031.5, 212.5, -2.0, 361.5, 5.765000104904175, -2.0, 0.9350000023841858, -2.0, -2.0, -2.0, -2.0, 5.375, -99.5, 18.984999656677246, -2.0, -2.0, 39.5, 46.5, 2.5649999380111694, -2.0, -2.0, -2.0, 70.5, -2.0, 14.880000114440918, -2.0, -2.0, 42.5, 5.505000114440918, -2.0, -2.0, 10.775000095367432, 9.119999885559082, -2.0, -2.0, -2.0, 129.0, 25.5, 342.0, 103.5, -2.0, 108.5, -2.0, -2.0, -2.0, 20.644999504089355, -2.0, -84.5, 0.510000005364418, -2.0, 79.0, -2.0, -2.0, -2.0, -2.0], "feature": [8, 2, 3, 1, -2, 5, -2, 4, -2, 9, -2, 9, -2, 9, -2, -2, 7, 9, -2, 9, 3, -2, 4, -2, -2, -2, -2, 3, 1, 2, -2, -2, 6, 5, 3, -2, -2, -2, 5, -2, 8, -2, -2, 0, 3, -2, -2, 8, 8, -2, -2, -2, 1, 0, 9, 1, -2, 1, -2, -2, -2, 8, -2, 1, 4, -2, 5, -2, -2, -2, -2], "classes": [0, 1], "value": [[5151.0, 5212.0], [4376.0, 3929.0], [1590.0, 1045.0], [707.0, 564.0], [103.0, 41.0], [604.0, 523.0], [77.0, 105.0], [527.0, 418.0], [372.0, 249.0], [155.0, 169.0], [25.0, 5.0], [130.0, 164.0], [14.0, 63.0], [116.0, 101.0], [35.0, 6.0], [81.0, 95.0], [883.0, 481.0], [881.0, 467.0], [662.0, 289.0], [219.0, 178.0], [193.0, 178.0], [62.0, 24.0], [131.0, 154.0], [70.0, 120.0], [61.0, 34.0], [26.0, 0.0], [2.0, 14.0], [2786.0, 2884.0], [1455.0, 1795.0], [191.0, 136.0], [0.0, 12.0], [191.0, 124.0], [1264.0, 1659.0], [738.0, 833.0], [365.0, 524.0], [19.0, 79.0], [346.0, 445.0], [373.0, 309.0], [526.0, 826.0], [423.0, 739.0], [103.0, 87.0], [6.0, 26.0], [97.0, 61.0], [1331.0, 1089.0], [988.0, 712.0], [67.0, 15.0], [921.0, 697.0], [343.0, 377.0], [129.0, 91.0], [69.0, 77.0], [60.0, 14.0], [214.0, 286.0], [775.0, 1283.0], [688.0, 1229.0], [369.0, 932.0], [347.0, 922.0], [113.0, 447.0], [234.0, 475.0], [93.0, 100.0], [141.0, 375.0], [22.0, 10.0], [319.0, 297.0], [128.0, 165.0], [191.0, 132.0], [44.0, 55.0], [22.0, 7.0], [22.0, 48.0], [9.0, 46.0], [13.0, 2.0], [147.0, 77.0], [87.0, 54.0]]}, {"children_left": [1, 2, 3, 4, -1, 6, 7, -1, -1, 10, 11, -1, 13, -1, -1, -1, -1, 18, 19, 20, -1, -1, 23, -1, -1, -1, 27, 28, 29, -1, -1, -1, 33, 34, -1, -1, 37, 38, 39, -1, 41, 42, 43, -1, 45, -1, -1, -1, -1, -1, -1], "children_right": [26, 17, 16, 5, -1, 9, 8, -1, -1, 15, 12, -1, 14, -1, -1, -1, -1, 25, 22, 21, -1, -1, 24, -1, -1, -1, 32, 31, 30, -1, -1, -1, 36, 35, -1, -1, 50, 49, 40, -1, 48, 47, 44, -1, 46, -1, -1, -1, -1, -1, -1], "threshold": [24.015000343322754, 124.5, 6.414999961853027, -119.5, -2.0, 19.5, 8.0, -2.0, -2.0, 0.35500000417232513, 38.5, -2.0, 29.5, -2.0, -2.0, -2.0, -2.0, 107.5, 28.5, 347.5, -2.0, -2.0, 14.5, -2.0, -2.0, -2.0, -20.5, 149.5, 8.694999694824219, -2.0, -2.0, -2.0, 19.5, 3.0049999952316284, -2.0, -2.0, 7.5, 6.9049999713897705, 24.65499973297119, -2.0, 1.5, 32.670000076293945, 2.140000104904175, -2.0, 42.5, -2.0, -2.0, -2.0, -2.0, -2.0, -2.0], "feature": [2, 9, 3, 1, -2, 1, 0, -2, -2, 4, 5, -2, 1, -2, -2, -2, -2, 1, 0, 9, -2, -2, 1, -2, -2, -2, 0, 9, 3, -2, -2, -2, 0, 3, -2, -2, 1, 3, 2, -2, 1, 2, 3, -2, 0, -2, -2, -2, -2, -2, -2], "classes": [0, 1], "value": [[5153.0, 5210.0], [3111.0, 2407.0], [1733.0, 1157.0], [1165.0, 898.0], [77.0, 16.0], [1088.0, 882.0], [782.0, 563.0], [12.0, 33.0], [770.0, 530.0], [306.0, 319.0], [209.0, 151.0], [39.0, 58.0], [170.0, 93.0], [50.0, 55.0], [120.0, 38.0], [97.0, 168.0], [568.0, 259.0], [1378.0, 1250.0], [1042.0, 1057.0], [57.0, 130.0], [36.0, 118.0], [21.0, 12.0], [985.0, 927.0], [834.0, 700.0], [151.0, 227.0], [336.0, 193.0], [2042.0, 2803.0], [480.0, 403.0], [249.0, 303.0], [196.0, 295.0], [53.0, 8.0], [231.0, 100.0], [1562.0, 2400.0], [336.0, 939.0], [60.0, 298.0], [276.0, 641.0], [1226.0, 1461.0], [876.0, 900.0], [631.0, 763.0], [32.0, 82.0], [599.0, 681.0], [520.0, 640.0], [438.0, 588.0], [17.0, 4.0], [421.0, 584.0], [353.0, 410.0], [68.0, 174.0], [82.0, 52.0], [79.0, 41.0], [245.0, 137.0], [350.0, 561.0]]}, {"children_left": [1, 2, 3, -1, 5, 6, 7, 8, 9, -1, -1, 12, -1, -1, -1, -1, 17, 18, -1, 20, 21, -1, -1, 24, -1, -1, 27, -1, 29, -1, -1, 32, -1, 34, 35, -1, 37, -1, 39, -1, -1, -1, 43, 44, 45, -1, 47, 48, -1, 50, -1, 52, 53, 54, -1, -1, -1, 58, -1, -1, -1, -1, 63, -1, 65, 66, -1, -1, 69, 70, -1, -1, -1], "children_right": [42, 31, 4, -1, 16, 15, 14, 11, 10, -1, -1, 13, -1, -1, -1, -1, 26, 19, -1, 23, 22, -1, -1, 25, -1, -1, 28, -1, 30, -1, -1, 33, -1, 41, 36, -1, 38, -1, 40, -1, -1, -1, 62, 61, 46, -1, 60, 49, -1, 51, -1, 57, 56, 55, -1, -1, -1, 59, -1, -1, -1, -1, 64, -1, 68, 67, -1, -1, 72, 71, -1, -1, -1], "threshold": [25.02500057220459, 17.27500057220459, -40.5, -2.0, 4.615000009536743, 15.670000076293945, 128.5, 19.5, 4.5, -2.0, -2.0, 8.480000019073486, -2.0, -2.0, -2.0, -2.0, -43.0, 74.0, -2.0, 34.5, 0.17999999690800905, -2.0, -2.0, -77.5, -2.0, -2.0, -6.5, -2.0, 7.629999876022339, -2.0, -2.0, 2.7649999856948853, -2.0, 221.5, 16.5, -2.0, 41.5, -2.0, 124.5, -2.0, -2.0, -2.0, 32.5, 198.5, -118.5, -2.0, 48.5, 32.5, -2.0, -111.5, -2.0, 162.5, 35.0, 2.115000009536743, -2.0, -2.0, -2.0, 32.5, -2.0, -2.0, -2.0, -2.0, 12.84499979019165, -2.0, -20.5, 73.5, -2.0, -2.0, 12.5, 4.5, -2.0, -2.0, -2.0], "feature": [2, 2, 0, -2, 3, 2, 1, 1, 6, -2, -2, 2, -2, -2, -2, -2, 1, 9, -2, 0, 4, -2, -2, 1, -2, -2, 1, -2, 2, -2, -2, 3, -2, 9, 9, -2, 0, -2, 9, -2, -2, -2, 6, 9, 1, -2, 0, 9, -2, 1, -2, 9, 2, 3, -2, -2, -2, 0, -2, -2, -2, -2, 8, -2, 0, 1, -2, -2, 0, 0, -2, -2, -2], "classes": [0, 1], "value": [[5167.0, 5196.0], [3341.0, 2700.0], [1367.0, 897.0], [9.0, 29.0], [1358.0, 868.0], [485.0, 390.0], [333.0, 316.0], [288.0, 303.0], [220.0, 177.0], [45.0, 8.0], [175.0, 169.0], [68.0, 126.0], [38.0, 24.0], [30.0, 102.0], [45.0, 13.0], [152.0, 74.0], [873.0, 478.0], [350.0, 140.0], [223.0, 52.0], [127.0, 88.0], [11.0, 32.0], [0.0, 28.0], [11.0, 4.0], [116.0, 56.0], [69.0, 53.0], [47.0, 3.0], [523.0, 338.0], [3.0, 17.0], [520.0, 321.0], [47.0, 66.0], [473.0, 255.0], [1974.0, 1803.0], [129.0, 218.0], [1845.0, 1585.0], [1659.0, 1338.0], [26.0, 54.0], [1633.0, 1284.0], [826.0, 532.0], [807.0, 752.0], [434.0, 304.0], [373.0, 448.0], [186.0, 247.0], [1826.0, 2496.0], [940.0, 996.0], [869.0, 838.0], [72.0, 21.0], [797.0, 817.0], [758.0, 724.0], [13.0, 51.0], [745.0, 673.0], [20.0, 52.0], [725.0, 621.0], [559.0, 533.0], [525.0, 462.0], [0.0, 21.0], [525.0, 441.0], [34.0, 71.0], [166.0, 88.0], [84.0, 19.0], [82.0, 69.0], [39.0, 93.0], [71.0, 158.0], [886.0, 1500.0], [201.0, 184.0], [685.0, 1316.0], [98.0, 98.0], [5.0, 29.0], [93.0, 69.0], [587.0, 1218.0], [159.0, 462.0], [116.0, 224.0], [43.0, 238.0], [428.0, 756.0]]}, {"children_left": [1, 2, 3, 4, 5, -1, -1, 8, 9, -1, -1, -1, 13, 14, 15, 16, 17, -1, -1, -1, -1, -1, -1, 24, 25, -1, -1, 28, 29, 30, -1, -1, 33, 34, -1, 36, -1, -1, -1, 40, 41, -1, -1, -1, 45, 46, -1, -1, 49, -1, 51, 52, -1, -1, -1], "children_right": [44, 23, 12, 7, 6, -1, -1, 11, 10, -1, -1, -1, 22, 21, 20, 19, 18, -1, -1, -1, -1, -1, -1, 27, 26, -1, -1, 39, 32, 31, -1, -1, 38, 35, -1, 37, -1, -1, -1, 43, 42, -1, -1, -1, 48, 47, -1, -1, 50, -1, 54, 53, -1, -1, -1], "threshold": [18.945000648498535, 5.375, 20.02500057220459, 19.5, 32.5, -2.0, -2.0, -33.5, 10.450000286102295, -2.0, -2.0, -2.0, 39.5, 1024.5, 287.0, 1022.5, 195.5, -2.0, -2.0, -2.0, -2.0, -2.0, -2.0, 24.054999351501465, 10.845000267028809, -2.0, -2.0, 111.5, 7.5, 38.86000061035156, -2.0, -2.0, 23.0, 7.134999990463257, -2.0, 25.0, -2.0, -2.0, -2.0, 149.0, 8.550000190734863, -2.0, -2.0, -2.0, 25.5, 128.5, -2.0, -2.0, 42.5, -2.0, 32.57500076293945, 3.100000023841858, -2.0, -2.0, -2.0], "feature": [8, 3, 2, 1, 0, -2, -2, 0, 8, -2, -2, -2, 6, 7, 9, 7, 9, -2, -2, -2, -2, -2, -2, 2, 8, -2, -2, 1, 6, 2, -2, -2, 1, 3, -2, 0, -2, -2, -2, 9, 3, -2, -2, -2, 0, 1, -2, -2, 5, -2, 2, 3, -2, -2, -2], "classes": [0, 1], "value": [[5186.0, 5177.0], [4472.0, 3889.0], [2315.0, 2359.0], [1065.0, 801.0], [706.0, 455.0], [25.0, 51.0], [681.0, 404.0], [359.0, 346.0], [162.0, 92.0], [123.0, 41.0], [39.0, 51.0], [197.0, 254.0], [1250.0, 1558.0], [784.0, 856.0], [739.0, 840.0], [727.0, 787.0], [716.0, 743.0], [581.0, 666.0], [135.0, 77.0], [11.0, 44.0], [12.0, 53.0], [45.0, 16.0], [466.0, 702.0], [2157.0, 1530.0], [1476.0, 870.0], [958.0, 485.0], [518.0, 385.0], [681.0, 660.0], [426.0, 502.0], [199.0, 150.0], [195.0, 127.0], [4.0, 23.0], [227.0, 352.0], [197.0, 251.0], [91.0, 163.0], [106.0, 88.0], [6.0, 25.0], [100.0, 63.0], [30.0, 101.0], [255.0, 158.0], [136.0, 130.0], [95.0, 124.0], [41.0, 6.0], [119.0, 28.0], [714.0, 1288.0], [432.0, 954.0], [367.0, 899.0], [65.0, 55.0], [282.0, 334.0], [0.0, 18.0], [282.0, 316.0], [230.0, 295.0], [14.0, 62.0], [216.0, 233.0], [52.0, 21.0]]}, {"children_left": [1, 2, 3, 4, 5, -1, -1, 8, 9, -1, 11, -1, 13, 14, 15, -1, 17, -1, -1, -1, -1, 22, -1, 24, -1, 26, 27, -1, 29, -1, 31, -1, -1, -1, 35, 36, -1, -1, 39, -1, -1, 42, 43, -1, -1, 46, 47, -1, 49, -1, 51, 52, -1, -1, -1, 56, -1, 58, 59, 60, 61, -1, -1, 64, -1, -1, 67, -1, -1, -1, 71, 72, -1, -1, 75, 76, -1, -1, -1], "children_right": [70, 41, 34, 7, 6, -1, -1, 21, 10, -1, 12, -1, 20, 19, 16, -1, 18, -1, -1, -1, -1, 23, -1, 25, -1, 33, 28, -1, 30, -1, 32, -1, -1, -1, 38, 37, -1, -1, 40, -1, -1, 45, 44, -1, -1, 55, 48, -1, 50, -1, 54, 53, -1, -1, -1, 57, -1, 69, 66, 63, 62, -1, -1, 65, -1, -1, 68, -1, -1, -1, 74, 73, -1, -1, 78, 77, -1, -1, -1], "threshold": [18.63499927520752, 10.684999942779541, 20.47499942779541, 1008.5, 3.490000009536743, -2.0, -2.0, 4.734999895095825, 1010.5, -2.0, 2.5, -2.0, 16.289999961853027, 9.224999904632568, 3.8249999284744263, -2.0, 174.0, -2.0, -2.0, -2.0, -2.0, -39.0, -2.0, 27.5, -2.0, 1031.5, -32.5, -2.0, 33.5, -2.0, 0.07500000298023224, -2.0, -2.0, -2.0, 1014.5, 165.5, -2.0, -2.0, 2.0749999284744263, -2.0, -2.0, 19.4350004196167, 4.5350000858306885, -2.0, -2.0, -19.5, 97.0, -2.0, 1014.5, -2.0, 23.045000076293945, 16.515000343322754, -2.0, -2.0, -2.0, 18.5, -2.0, 9.46999979019165, 68.5, 43.5, 26.5, -2.0, -2.0, 23.77500057220459, -2.0, -2.0, 54.5, -2.0, -2.0, -2.0, 126.5, 25.5, -2.0, -2.0, 21.719999313354492, 193.0, -2.0, -2.0, -2.0], "feature": [8, 8, 2, 7, 3, -2, -2, 3, 7, -2, 9, -2, 2, 8, 3, -2, 9, -2, -2, -2, -2, 0, -2, 6, -2, 7, 0, -2, 1, -2, 4, -2, -2, -2, 7, 9, -2, -2, 3, -2, -2, 2, 3, -2, -2, 0, 9, -2, 7, -2, 2, 8, -2, -2, -2, 0, -2, 3, 6, 0, 6, -2, -2, 2, -2, -2, 5, -2, -2, -2, 1, 0, -2, -2, 8, 9, -2, -2, -2], "classes": [0, 1], "value": [[5175.0, 5188.0], [4371.0, 3854.0], [2412.0, 1828.0], [1611.0, 1004.0], [274.0, 104.0], [14.0, 24.0], [260.0, 80.0], [1337.0, 900.0], [592.0, 494.0], [9.0, 41.0], [583.0, 453.0], [0.0, 18.0], [583.0, 435.0], [402.0, 245.0], [352.0, 241.0], [267.0, 138.0], [85.0, 103.0], [62.0, 40.0], [23.0, 63.0], [50.0, 4.0], [181.0, 190.0], [745.0, 406.0], [1.0, 12.0], [744.0, 394.0], [204.0, 165.0], [540.0, 229.0], [536.0, 214.0], [76.0, 6.0], [460.0, 208.0], [449.0, 182.0], [11.0, 26.0], [11.0, 3.0], [0.0, 23.0], [4.0, 15.0], [801.0, 824.0], [457.0, 381.0], [330.0, 322.0], [127.0, 59.0], [344.0, 443.0], [21.0, 3.0], [323.0, 440.0], [1959.0, 2026.0], [439.0, 337.0], [136.0, 153.0], [303.0, 184.0], [1520.0, 1689.0], [375.0, 298.0], [64.0, 99.0], [311.0, 199.0], [209.0, 90.0], [102.0, 109.0], [27.0, 57.0], [18.0, 57.0], [9.0, 0.0], [75.0, 52.0], [1145.0, 1391.0], [36.0, 129.0], [1109.0, 1262.0], [1080.0, 1189.0], [767.0, 731.0], [472.0, 366.0], [299.0, 282.0], [173.0, 84.0], [295.0, 365.0], [156.0, 116.0], [139.0, 249.0], [313.0, 458.0], [89.0, 204.0], [224.0, 254.0], [29.0, 73.0], [804.0, 1334.0], [703.0, 1267.0], [384.0, 959.0], [319.0, 308.0], [101.0, 67.0], [48.0, 52.0], [33.0, 52.0], [15.0, 0.0], [53.0, 15.0]]}, {"children_left": [1, 2, 3, 4, -1, 6, 7, 8, -1, 10, -1, -1, 13, -1, -1, -1, 17, -1, -1, 20, 21, -1, -1, 24, -1, 26, 27, -1, -1, 30, -1, -1, 33, 34, 35, 36, -1, 38, -1, 40, -1, -1, 43, -1, 45, 46, 47, -1, 49, -1, -1, -1, 53, -1, 55, -1, 57, -1, 59, -1, -1, 62, 63, -1, 65, 66, -1, 68, 69, -1, -1, -1, 73, -1, 75, -1, 77, -1, -1, -1, 81, 82, 83, -1, 85, -1, -1, -1, 89, 90, 91, -1, -1, -1, -1], "children_right": [32, 19, 16, 5, -1, 15, 12, 9, -1, 11, -1, -1, 14, -1, -1, -1, 18, -1, -1, 23, 22, -1, -1, 25, -1, 29, 28, -1, -1, 31, -1, -1, 80, 61, 42, 37, -1, 39, -1, 41, -1, -1, 44, -1, 52, 51, 48, -1, 50, -1, -1, -1, 54, -1, 56, -1, 58, -1, 60, -1, -1, 79, 64, -1, 72, 67, -1, 71, 70, -1, -1, -1, 74, -1, 76, -1, 78, -1, -1, -1, 88, 87, 84, -1, 86, -1, -1, -1, 94, 93, 92, -1, -1, -1, -1], "threshold": [20.704999923706055, -62.0, 47.5, 32.5, -2.0, -77.5, -79.5, 7.315000057220459, -2.0, 68.5, -2.0, -2.0, -3.399999976158142, -2.0, -2.0, -2.0, 9.015000343322754, -2.0, -2.0, -33.5, 0.6049999892711639, -2.0, -2.0, 42.5, -2.0, 6.164999961853027, 56.5, -2.0, -2.0, 239.5, -2.0, -2.0, 18.505000114440918, 114.0, 14.5, 25.5, -2.0, 116.5, -2.0, 1012.5, -2.0, -2.0, 4.505000114440918, -2.0, 31.5, 171.0, 12.5, -2.0, 136.5, -2.0, -2.0, -2.0, 9.5, -2.0, 28.5, -2.0, 13.330000400543213, -2.0, 7.855000019073486, -2.0, -2.0, 8.070000171661377, 4.4700000286102295, -2.0, 146.5, 4.2850000858306885, -2.0, 210.0, 31.72000026702881, -2.0, -2.0, -2.0, -34.5, -2.0, 22.31999969482422, -2.0, 29.5, -2.0, -2.0, -2.0, 24.5, 148.5, 97.5, -2.0, 357.5, -2.0, -2.0, -2.0, 34.77000045776367, 131.5, 75.5, -2.0, -2.0, -2.0, -2.0], "feature": [2, 1, 0, 0, -2, 1, 1, 8, -2, 5, -2, -2, 8, -2, -2, -2, 8, -2, -2, 0, 4, -2, -2, 0, -2, 3, 0, -2, -2, 9, -2, -2, 8, 1, 1, 0, -2, 9, -2, 7, -2, -2, 3, -2, 5, 9, 5, -2, 9, -2, -2, -2, 6, -2, 1, -2, 8, -2, 3, -2, -2, 3, 8, -2, 1, 3, -2, 9, 2, -2, -2, -2, 0, -2, 2, -2, 9, -2, -2, -2, 0, 1, 1, -2, 9, -2, -2, -2, 2, 9, 5, -2, -2, -2, -2], "classes": [0, 1], "value": [[5275.0, 5088.0], [2277.0, 1473.0], [813.0, 387.0], [769.0, 335.0], [57.0, 61.0], [712.0, 274.0], [503.0, 234.0], [466.0, 194.0], [304.0, 101.0], [162.0, 93.0], [51.0, 61.0], [111.0, 32.0], [37.0, 40.0], [22.0, 5.0], [15.0, 35.0], [209.0, 40.0], [44.0, 52.0], [41.0, 20.0], [3.0, 32.0], [1464.0, 1086.0], [312.0, 155.0], [237.0, 64.0], [75.0, 91.0], [1152.0, 931.0], [305.0, 355.0], [847.0, 576.0], [502.0, 411.0], [487.0, 368.0], [15.0, 43.0], [345.0, 165.0], [322.0, 132.0], [23.0, 33.0], [2998.0, 3615.0], [2186.0, 2267.0], [1672.0, 1894.0], [1220.0, 1192.0], [86.0, 144.0], [1134.0, 1048.0], [500.0, 373.0], [634.0, 675.0], [219.0, 145.0], [415.0, 530.0], [452.0, 702.0], [151.0, 345.0], [301.0, 357.0], [56.0, 115.0], [52.0, 70.0], [9.0, 0.0], [43.0, 70.0], [14.0, 54.0], [29.0, 16.0], [4.0, 45.0], [245.0, 242.0], [102.0, 50.0], [143.0, 192.0], [71.0, 139.0], [72.0, 53.0], [38.0, 9.0], [34.0, 44.0], [33.0, 24.0], [1.0, 20.0], [514.0, 373.0], [421.0, 362.0], [17.0, 46.0], [404.0, 316.0], [168.0, 78.0], [17.0, 32.0], [151.0, 46.0], [145.0, 32.0], [128.0, 15.0], [17.0, 17.0], [6.0, 14.0], [236.0, 238.0], [55.0, 114.0], [181.0, 124.0], [38.0, 7.0], [143.0, 117.0], [1.0, 18.0], [142.0, 99.0], [93.0, 11.0], [812.0, 1348.0], [467.0, 971.0], [397.0, 923.0], [80.0, 289.0], [317.0, 634.0], [306.0, 634.0], [11.0, 0.0], [70.0, 48.0], [345.0, 377.0], [337.0, 345.0], [141.0, 200.0], [90.0, 172.0], [51.0, 28.0], [196.0, 145.0], [8.0, 32.0]]}, {"children_left": [1, 2, 3, 4, -1, 6, -1, -1, -1, 10, 11, 12, 13, -1, -1, -1, 17, -1, -1, 20, -1, -1, 23, 24, 25, 26, 27, -1, -1, 30, 31, -1, -1, 34, 35, -1, -1, 38, -1, -1, 41, 42, -1, -1, -1, 46, 47, 48, 49, -1, 51, 52, -1, -1, -1, -1, 57, 58, -1, -1, -1, 62, 63, -1, -1, -1, 67, 68, 69, -1, -1, 72, -1, -1, 75, -1, 77, -1, -1], "children_right": [22, 9, 8, 5, -1, 7, -1, -1, -1, 19, 16, 15, 14, -1, -1, -1, 18, -1, -1, 21, -1, -1, 66, 45, 40, 29, 28, -1, -1, 33, 32, -1, -1, 37, 36, -1, -1, 39, -1, -1, 44, 43, -1, -1, -1, 61, 56, 55, 50, -1, 54, 53, -1, -1, -1, -1, 60, 59, -1, -1, -1, 65, 64, -1, -1, -1, 74, 71, 70, -1, -1, 73, -1, -1, 76, -1, 78, -1, -1], "threshold": [20.644999504089355, -73.5, 49.5, 75.5, -2.0, 31.5, -2.0, -2.0, -2.0, 129.5, 41.5, 13.139999866485596, 5.484999895095825, -2.0, -2.0, -2.0, 134.5, -2.0, -2.0, 0.5999999940395355, -2.0, -2.0, 20.394999504089355, -27.5, 7.580000162124634, 28.5, 1018.5, -2.0, -2.0, 22.0, 97.5, -2.0, -2.0, 148.0, 44.5, -2.0, -2.0, 1015.5, -2.0, -2.0, -35.5, 26.625, -2.0, -2.0, -2.0, 211.5, 42.5, 31.5, 2.6049998998641968, -2.0, 163.5, 65.0, -2.0, -2.0, -2.0, -2.0, 23.449999809265137, 12.75, -2.0, -2.0, -2.0, 147.0, 360.5, -2.0, -2.0, -2.0, 25.5, 128.5, 117.5, -2.0, -2.0, 3.825000047683716, -2.0, -2.0, 97.5, -2.0, 41.5, -2.0, -2.0], "feature": [2, 1, 0, 9, -2, 0, -2, -2, -2, 1, 0, 2, 2, -2, -2, -2, 9, -2, -2, 4, -2, -2, 8, 0, 3, 1, 7, -2, -2, 6, 9, -2, -2, 9, 5, -2, -2, 7, -2, -2, 0, 2, -2, -2, -2, 9, 0, 0, 3, -2, 9, 6, -2, -2, -2, -2, 2, 8, -2, -2, -2, 1, 9, -2, -2, -2, 0, 1, 9, -2, -2, 3, -2, -2, 9, -2, 6, -2, -2], "classes": [0, 1], "value": [[5144.0, 5219.0], [2254.0, 1538.0], [723.0, 355.0], [697.0, 299.0], [368.0, 99.0], [329.0, 200.0], [24.0, 53.0], [305.0, 147.0], [26.0, 56.0], [1531.0, 1183.0], [1196.0, 1019.0], [284.0, 364.0], [93.0, 65.0], [2.0, 17.0], [91.0, 48.0], [191.0, 299.0], [912.0, 655.0], [608.0, 362.0], [304.0, 293.0], [335.0, 164.0], [240.0, 81.0], [95.0, 83.0], [2890.0, 3681.0], [2350.0, 2638.0], [484.0, 384.0], [346.0, 343.0], [16.0, 58.0], [9.0, 58.0], [7.0, 0.0], [330.0, 285.0], [193.0, 123.0], [28.0, 45.0], [165.0, 78.0], [137.0, 162.0], [71.0, 121.0], [23.0, 80.0], [48.0, 41.0], [66.0, 41.0], [47.0, 6.0], [19.0, 35.0], [138.0, 41.0], [18.0, 22.0], [3.0, 18.0], [15.0, 4.0], [120.0, 19.0], [1866.0, 2254.0], [1710.0, 1958.0], [1067.0, 1049.0], [278.0, 393.0], [10.0, 50.0], [268.0, 343.0], [211.0, 309.0], [163.0, 177.0], [48.0, 132.0], [57.0, 34.0], [789.0, 656.0], [643.0, 909.0], [276.0, 300.0], [112.0, 179.0], [164.0, 121.0], [367.0, 609.0], [156.0, 296.0], [135.0, 288.0], [120.0, 284.0], [15.0, 4.0], [21.0, 8.0], [540.0, 1043.0], [384.0, 892.0], [337.0, 865.0], [85.0, 347.0], [252.0, 518.0], [47.0, 27.0], [2.0, 12.0], [45.0, 15.0], [156.0, 151.0], [29.0, 6.0], [127.0, 145.0], [70.0, 42.0], [57.0, 103.0]]}, {"children_left": [1, 2, 3, 4, -1, -1, 7, 8, 9, -1, -1, -1, -1, 14, 15, -1, -1, -1, 19, 20, 21, 22, 23, -1, -1, 26, 27, -1, -1, 30, -1, -1, -1, 34, 35, -1, 37, 38, 39, -1, -1, 42, -1, 44, 45, -1, -1, -1, -1, -1, 51, 52, 53, -1, -1, -1, 57, 58, 59, -1, 61, -1, -1, -1, -1], "children_right": [18, 13, 6, 5, -1, -1, 12, 11, 10, -1, -1, -1, -1, 17, 16, -1, -1, -1, 50, 33, 32, 25, 24, -1, -1, 29, 28, -1, -1, 31, -1, -1, -1, 49, 36, -1, 48, 41, 40, -1, -1, 43, -1, 47, 46, -1, -1, -1, -1, -1, 56, 55, 54, -1, -1, -1, 64, 63, 60, -1, 62, -1, -1, -1, -1], "threshold": [20.09500026702881, 140.0, 19.5, 19.5, -2.0, -2.0, 5.065000057220459, 1014.5, 88.5, -2.0, -2.0, -2.0, -2.0, 52.5, 10.855000019073486, -2.0, -2.0, -2.0, 39.5, 5.365000009536743, 128.5, 27.5, -90.0, -2.0, -2.0, 4.5, 162.5, -2.0, -2.0, 5.894999980926514, -2.0, -2.0, -2.0, 38.86000061035156, 5.394999980926514, -2.0, 36.494998931884766, -31.5, 143.5, -2.0, -2.0, 30.0, -2.0, 7.615000009536743, 29.550000190734863, -2.0, -2.0, -2.0, -2.0, -2.0, 4.484999895095825, 20.15499973297119, 73.5, -2.0, -2.0, -2.0, 91.5, 30.399999618530273, 1012.5, -2.0, 29.949999809265137, -2.0, -2.0, -2.0, -2.0], "feature": [2, 1, 1, 0, -2, -2, 3, 7, 5, -2, -2, -2, -2, 9, 8, -2, -2, -2, 6, 3, 1, 0, 1, -2, -2, 6, 9, -2, -2, 8, -2, -2, -2, 2, 3, -2, 2, 0, 9, -2, -2, 1, -2, 3, 2, -2, -2, -2, -2, -2, 3, 8, 5, -2, -2, -2, 5, 2, 7, -2, 2, -2, -2, -2, -2], "classes": [0, 1], "value": [[5190.0, 5173.0], [2050.0, 1391.0], [1756.0, 1267.0], [1447.0, 889.0], [33.0, 52.0], [1414.0, 837.0], [309.0, 378.0], [143.0, 236.0], [22.0, 86.0], [13.0, 84.0], [9.0, 2.0], [121.0, 150.0], [166.0, 142.0], [294.0, 124.0], [35.0, 35.0], [35.0, 15.0], [0.0, 20.0], [259.0, 89.0], [3140.0, 3782.0], [1696.0, 1619.0], [902.0, 1005.0], [748.0, 911.0], [89.0, 217.0], [23.0, 6.0], [66.0, 211.0], [659.0, 694.0], [270.0, 383.0], [155.0, 288.0], [115.0, 95.0], [389.0, 311.0], [13.0, 36.0], [376.0, 275.0], [154.0, 94.0], [794.0, 614.0], [790.0, 596.0], [23.0, 2.0], [767.0, 594.0], [727.0, 584.0], [184.0, 101.0], [78.0, 74.0], [106.0, 27.0], [543.0, 483.0], [436.0, 345.0], [107.0, 138.0], [93.0, 75.0], [64.0, 19.0], [29.0, 56.0], [14.0, 63.0], [40.0, 10.0], [4.0, 18.0], [1444.0, 2163.0], [543.0, 1021.0], [352.0, 545.0], [294.0, 509.0], [58.0, 36.0], [191.0, 476.0], [901.0, 1142.0], [899.0, 1112.0], [768.0, 855.0], [432.0, 399.0], [336.0, 456.0], [317.0, 454.0], [19.0, 2.0], [131.0, 257.0], [2.0, 30.0]]}, {"children_left": [1, 2, 3, 4, -1, 6, -1, 8, -1, -1, 11, 12, -1, -1, 15, -1, 17, -1, -1, 20, -1, 22, 23, -1, 25, -1, -1, 28, -1, -1, 31, 32, 33, -1, 35, -1, 37, -1, 39, 40, 41, 42, 43, -1, 45, 46, -1, 48, -1, -1, -1, -1, -1, -1, -1, 56, -1, 58, -1, -1, 61, 62, -1, 64, 65, -1, 67, -1, -1, 70, 71, 72, 73, 74, -1, -1, -1, -1, -1, -1, -1], "children_right": [30, 19, 10, 5, -1, 7, -1, 9, -1, -1, 14, 13, -1, -1, 16, -1, 18, -1, -1, 21, -1, 27, 24, -1, 26, -1, -1, 29, -1, -1, 60, 55, 34, -1, 36, -1, 38, -1, 54, 53, 52, 51, 44, -1, 50, 47, -1, 49, -1, -1, -1, -1, -1, -1, -1, 57, -1, 59, -1, -1, 80, 63, -1, 69, 66, -1, 68, -1, -1, 79, 78, 77, 76, 75, -1, -1, -1, -1, -1, -1, -1], "threshold": [24.085000038146973, 5.115000009536743, 46.5, 17.5, -2.0, 114.0, -2.0, 3.625, -2.0, -2.0, 1013.5, 0.9549999833106995, -2.0, -2.0, -34.5, -2.0, 120.5, -2.0, -2.0, -70.5, -2.0, 212.5, 10.775000095367432, -2.0, 49.5, -2.0, -2.0, 0.9950000047683716, -2.0, -2.0, 21.36500072479248, 7.394999980926514, 21.5, -2.0, 10.115000247955322, -2.0, 2.6850000619888306, -2.0, 63.5, 49.5, 1012.5, 198.5, 13.955000400543213, -2.0, 138.5, 17.5, -2.0, 48.5, -2.0, -2.0, -2.0, -2.0, -2.0, -2.0, -2.0, -28.0, -2.0, 27.5, -2.0, -2.0, 1017.5, 3.6149998903274536, -2.0, 2.0, 29.90499973297119, -2.0, 145.5, -2.0, -2.0, 25.5, 5.585000038146973, 5.335000038146973, 64.0, 114.5, -2.0, -2.0, -2.0, -2.0, -2.0, -2.0, -2.0], "feature": [2, 3, 5, 6, -2, 9, -2, 3, -2, -2, 7, 4, -2, -2, 0, -2, 9, -2, -2, 1, -2, 9, 8, -2, 9, -2, -2, 4, -2, -2, 8, 3, 9, -2, 8, -2, 3, -2, 6, 0, 7, 9, 8, -2, 9, 6, -2, 5, -2, -2, -2, -2, -2, -2, -2, 0, -2, 1, -2, -2, 7, 3, -2, 0, 2, -2, 9, -2, -2, 0, 3, 3, 6, 9, -2, -2, -2, -2, -2, -2, -2], "classes": [0, 1], "value": [[5205.0, 5158.0], [3134.0, 2410.0], [1477.0, 1329.0], [315.0, 371.0], [198.0, 160.0], [117.0, 211.0], [40.0, 126.0], [77.0, 85.0], [55.0, 33.0], [22.0, 52.0], [1162.0, 958.0], [282.0, 310.0], [109.0, 184.0], [173.0, 126.0], [880.0, 648.0], [97.0, 34.0], [783.0, 614.0], [393.0, 236.0], [390.0, 378.0], [1657.0, 1081.0], [582.0, 283.0], [1075.0, 798.0], [904.0, 607.0], [496.0, 264.0], [408.0, 343.0], [12.0, 35.0], [396.0, 308.0], [171.0, 191.0], [128.0, 179.0], [43.0, 12.0], [2071.0, 2748.0], [1609.0, 1893.0], [1281.0, 1658.0], [25.0, 93.0], [1256.0, 1565.0], [316.0, 286.0], [940.0, 1279.0], [60.0, 158.0], [880.0, 1121.0], [645.0, 733.0], [621.0, 654.0], [210.0, 291.0], [204.0, 244.0], [51.0, 108.0], [153.0, 136.0], [78.0, 104.0], [25.0, 65.0], [53.0, 39.0], [20.0, 33.0], [33.0, 6.0], [75.0, 32.0], [6.0, 47.0], [411.0, 363.0], [24.0, 79.0], [235.0, 388.0], [328.0, 235.0], [107.0, 30.0], [221.0, 205.0], [185.0, 134.0], [36.0, 71.0], [462.0, 855.0], [435.0, 842.0], [121.0, 344.0], [314.0, 498.0], [111.0, 96.0], [83.0, 48.0], [28.0, 48.0], [25.0, 13.0], [3.0, 35.0], [203.0, 402.0], [127.0, 335.0], [94.0, 173.0], [78.0, 168.0], [34.0, 35.0], [2.0, 22.0], [32.0, 13.0], [44.0, 133.0], [16.0, 5.0], [33.0, 162.0], [76.0, 67.0], [27.0, 13.0]]}]}