{"classes": [0, 1], "dtrees": [{"children_left": [1, 2, -1, 4, -1, 6, -1, 8, 9, 10, -1, -1, -1, -1, 15, 16, 17, 18, -1, -1, -1, 22, -1, -1, 25, 26, 27, 28, 29, 30, -1, 32, 33, -1, 35, -1, -1, -1, 39, -1, -1, -1, 43, -1, 45, -1, -1, 48, -1, -1, 51, 52, -1, 54, 55, 56, -1, -1, -1, -1, 61, -1, -1], "children_right": [14, 3, -1, 5, -1, 7, -1, 13, 12, 11, -1, -1, -1, -1, 24, 21, 20, 19, -1, -1, -1, 23, -1, -1, 50, 47, 42, 41, 38, 31, -1, 37, 34, -1, 36, -1, -1, -1, 40, -1, -1, -1, 44, -1, 46, -1, -1, 49, -1, -1, 60, 53, -1, 59, 58, 57, -1, -1, -1, -1, 62, -1, -1], "threshold": [19.36500072479248, 1.5649999976158142, -2.0, 25.0, -2.0, 2.859999895095825, -2.0, 10.96500015258789, 6.505000114440918, 57.5, -2.0, -2.0, -2.0, -2.0, 3.59499990940094, 28.5, 15.5, 16.0, -2.0, -2.0, -2.0, 41.5, -2.0, -2.0, 16.925000190734863, 16.234999656677246, 104.0, 113.5, 31.484999656677246, 3.975000023841858, -2.0, 50.5, 23.289999961853027, -2.0, 38.5, -2.0, -2.0, -2.0, 3.9650001525878906, -2.0, -2.0, -2.0, 82.5, -2.0, 119.0, -2.0, -2.0, 50.5, -2.0, -2.0, 53.5, 24.210000038146973, -2.0, 1022.0, 25.5, 120.5, -2.0, -2.0, -2.0, -2.0, 30.945000648498535, -2.0, -2.0], "feature": [2, 3, -2, 5, -2, 3, -2, 8, 8, 0, -2, -2, -2, -2, 3, 0, 6, 5, -2, -2, -2, 0, -2, -2, 8, 8, 1, 9, 2, 3, -2, 0, 2, -2, 1, -2, -2, -2, 3, -2, -2, -2, 9, -2, 1, -2, -2, 6, -2, -2, 6, 2, -2, 7, 0, 1, -2, -2, -2, -2, 2, -2, -2], "classes": [0, 1], "value": [[4846.0, 4917.0], [1687.0, 1128.0], [3.0, 26.0], [1684.0, 1102.0], [5.0, 21.0], [1679.0, 1081.0], [134.0, 137.0], [1545.0, 944.0], [1183.0, 644.0], [631.0, 411.0], [629.0, 396.0], [2.0, 15.0], [552.0, 233.0], [362.0, 300.0], [3159.0, 3789.0], [619.0, 1063.0], [227.0, 578.0], [54.0, 55.0], [15.0, 0.0], [39.0, 55.0], [173.0, 523.0], [392.0, 485.0], [190.0, 144.0], [202.0, 341.0], [2540.0, 2726.0], [1742.0, 1655.0], [1608.0, 1590.0], [1219.0, 1332.0], [553.0, 477.0], [528.0, 421.0], [38.0, 63.0], [490.0, 358.0], [417.0, 336.0], [148.0, 164.0], [269.0, 172.0], [267.0, 153.0], [2.0, 19.0], [73.0, 22.0], [25.0, 56.0], [11.0, 2.0], [14.0, 54.0], [666.0, 855.0], [389.0, 258.0], [64.0, 91.0], [325.0, 167.0], [77.0, 13.0], [248.0, 154.0], [134.0, 65.0], [60.0, 50.0], [74.0, 15.0], [798.0, 1071.0], [376.0, 390.0], [11.0, 38.0], [365.0, 352.0], [365.0, 345.0], [166.0, 206.0], [74.0, 146.0], [92.0, 60.0], [199.0, 139.0], [0.0, 7.0], [422.0, 681.0], [373.0, 526.0], [49.0, 155.0]]}, {"children_left": [1, 2, -1, 4, 5, 6, 7, 8, -1, 10, -1, -1, -1, -1, 15, -1, -1, -1, 19, 20, 21, -1, -1, -1, 25, 26, 27, -1, 29, 30, -1, -1, -1, -1, 35, 36, 37, -1, -1, 40, -1, 42, -1, -1, 45, 46, 47, -1, -1, 50, -1, 52, 53, 54, -1, 56, -1, -1, -1, -1, -1], "children_right": [18, 3, -1, 17, 14, 13, 12, 9, -1, 11, -1, -1, -1, -1, 16, -1, -1, -1, 24, 23, 22, -1, -1, -1, 34, 33, 28, -1, 32, 31, -1, -1, -1, -1, 44, 39, 38, -1, -1, 41, -1, 43, -1, -1, 60, 49, 48, -1, -1, 51, -1, 59, 58, 55, -1, 57, -1, -1, -1, -1, -1], "threshold": [20.789999961853027, 2.7450000047683716, -2.0, 61.5, 4.525000095367432, 98.5, 14.125, 3.3549998998641968, -2.0, 1026.5, -2.0, -2.0, -2.0, -2.0, 28.5, -2.0, -2.0, -2.0, 2.9850000143051147, 151.5, 29.0, -2.0, -2.0, -2.0, -20.5, 8.240000247955322, 81.5, -2.0, -23.5, 304.0, -2.0, -2.0, -2.0, -2.0, 29.5, 55.5, 125.5, -2.0, -2.0, 98.0, -2.0, 73.5, -2.0, -2.0, 11.400000095367432, 107.5, 0.574999988079071, -2.0, -2.0, 40.5, -2.0, 9.884999752044678, 187.5, 5.2749998569488525, -2.0, 3.5, -2.0, -2.0, -2.0, -2.0, -2.0], "feature": [2, 3, -2, 0, 3, 5, 2, 3, -2, 7, -2, -2, -2, -2, 5, -2, -2, -2, 3, 1, 0, -2, -2, -2, 0, 3, 9, -2, 0, 9, -2, -2, -2, -2, 0, 5, 1, -2, -2, 1, -2, 5, -2, -2, 8, 9, 4, -2, -2, 0, -2, 8, 9, 8, -2, 6, -2, -2, -2, -2, -2], "classes": [0, 1], "value": [[4884.0, 4879.0], [2052.0, 1478.0], [153.0, 198.0], [1899.0, 1280.0], [1897.0, 1266.0], [577.0, 460.0], [577.0, 449.0], [203.0, 89.0], [77.0, 13.0], [126.0, 76.0], [118.0, 52.0], [8.0, 24.0], [374.0, 360.0], [0.0, 11.0], [1320.0, 806.0], [14.0, 39.0], [1306.0, 767.0], [2.0, 14.0], [2832.0, 3401.0], [289.0, 597.0], [275.0, 594.0], [117.0, 354.0], [158.0, 240.0], [14.0, 3.0], [2543.0, 2804.0], [560.0, 408.0], [475.0, 389.0], [80.0, 140.0], [395.0, 249.0], [330.0, 237.0], [328.0, 220.0], [2.0, 17.0], [65.0, 12.0], [85.0, 19.0], [1983.0, 2396.0], [456.0, 882.0], [102.0, 333.0], [95.0, 333.0], [7.0, 0.0], [354.0, 549.0], [86.0, 221.0], [268.0, 328.0], [224.0, 227.0], [44.0, 101.0], [1527.0, 1514.0], [409.0, 505.0], [180.0, 134.0], [170.0, 106.0], [10.0, 28.0], [229.0, 371.0], [117.0, 130.0], [112.0, 241.0], [88.0, 137.0], [80.0, 87.0], [5.0, 29.0], [75.0, 58.0], [13.0, 29.0], [62.0, 29.0], [8.0, 50.0], [24.0, 104.0], [1118.0, 1009.0]]}, {"children_left": [1, 2, 3, -1, 5, 6, -1, -1, 9, -1, -1, 12, 13, 14, -1, -1, -1, 18, 19, -1, 21, 22, -1, -1, -1, 26, 27, -1, -1, -1, 31, 32, -1, -1, 35, 36, 37, -1, 39, -1, -1, 42, -1, 44, -1, -1, 47, 48, -1, 50, -1, -1, -1], "children_right": [30, 11, 4, -1, 8, 7, -1, -1, 10, -1, -1, 17, 16, 15, -1, -1, -1, 25, 20, -1, 24, 23, -1, -1, -1, 29, 28, -1, -1, -1, 34, 33, -1, -1, 46, 41, 38, -1, 40, -1, -1, 43, -1, 45, -1, -1, 52, 49, -1, 51, -1, -1, -1], "threshold": [17.1850004196167, 20.785000801086426, 4.315000057220459, -2.0, 0.9050000011920929, 32.5, -2.0, -2.0, 91.5, -2.0, -2.0, 112.0, 45.5, 13.934999942779541, -2.0, -2.0, -2.0, 34.5, 148.5, -2.0, 130.5, -33.5, -2.0, -2.0, -2.0, 1017.5, 88.5, -2.0, -2.0, -2.0, 3.334999918937683, 29.5, -2.0, -2.0, 125.5, 24.5, 28.5, -2.0, 1012.5, -2.0, -2.0, 63.0, -2.0, 30.22499942779541, -2.0, -2.0, 84.5, 149.5, -2.0, -26.0, -2.0, -2.0, -2.0], "feature": [8, 2, 3, -2, 4, 5, -2, -2, 5, -2, -2, 1, 1, 8, -2, -2, -2, 6, 1, -2, 9, 0, -2, -2, -2, 7, 9, -2, -2, -2, 3, 0, -2, -2, 1, 0, 1, -2, 7, -2, -2, 6, -2, 2, -2, -2, 5, 1, -2, 0, -2, -2, -2], "classes": [0, 1], "value": [[4872.0, 4891.0], [3833.0, 3309.0], [1994.0, 1348.0], [596.0, 513.0], [1398.0, 835.0], [846.0, 572.0], [26.0, 55.0], [820.0, 517.0], [552.0, 263.0], [459.0, 250.0], [93.0, 13.0], [1839.0, 1961.0], [1407.0, 1677.0], [1372.0, 1555.0], [868.0, 1100.0], [504.0, 455.0], [35.0, 122.0], [432.0, 284.0], [285.0, 130.0], [156.0, 31.0], [129.0, 99.0], [66.0, 81.0], [28.0, 61.0], [38.0, 20.0], [63.0, 18.0], [147.0, 154.0], [123.0, 97.0], [12.0, 36.0], [111.0, 61.0], [24.0, 57.0], [1039.0, 1582.0], [196.0, 453.0], [127.0, 372.0], [69.0, 81.0], [843.0, 1129.0], [714.0, 1057.0], [320.0, 599.0], [48.0, 171.0], [272.0, 428.0], [224.0, 401.0], [48.0, 27.0], [394.0, 458.0], [238.0, 216.0], [156.0, 242.0], [150.0, 197.0], [6.0, 45.0], [129.0, 72.0], [106.0, 70.0], [66.0, 16.0], [40.0, 54.0], [23.0, 52.0], [17.0, 2.0], [23.0, 2.0]]}, {"children_left": [1, 2, -1, 4, 5, 6, -1, 8, 9, -1, -1, 12, -1, -1, -1, -1, 17, 18, 19, -1, -1, 22, 23, 24, -1, -1, -1, 28, 29, -1, 31, 32, 33, -1, -1, 36, -1, 38, -1, 40, -1, -1, -1, -1, 45, 46, 47, -1, -1, 50, -1, 52, -1, 54, -1, 56, -1, 58, 59, -1, -1, -1, 63, 64, 65, -1, -1, 68, 69, 70, -1, -1, -1, -1, 75, -1, 77, 78, -1, -1, 81, -1, -1], "children_right": [16, 3, -1, 15, 14, 7, -1, 11, 10, -1, -1, 13, -1, -1, -1, -1, 44, 21, 20, -1, -1, 27, 26, 25, -1, -1, -1, 43, 30, -1, 42, 35, 34, -1, -1, 37, -1, 39, -1, 41, -1, -1, -1, -1, 62, 49, 48, -1, -1, 51, -1, 53, -1, 55, -1, 57, -1, 61, 60, -1, -1, -1, 74, 67, 66, -1, -1, 73, 72, 71, -1, -1, -1, -1, 76, -1, 80, 79, -1, -1, 82, -1, -1], "threshold": [19.59500026702881, 2.375, -2.0, 0.9150000214576721, 99.5, 228.5, -2.0, 335.5, 29.5, -2.0, -2.0, 88.5, -2.0, -2.0, -2.0, -2.0, -20.5, 82.5, 1011.5, -2.0, -2.0, 28.5, 32.070000648498535, 6.014999866485596, -2.0, -2.0, -2.0, -24.0, 145.5, -2.0, 18.760000228881836, -34.5, 170.5, -2.0, -2.0, 6.619999885559082, -2.0, 1.0, -2.0, 17.13499927520752, -2.0, -2.0, -2.0, -2.0, 29.5, 3.5549999475479126, 353.0, -2.0, -2.0, 1004.5, -2.0, 44.5, -2.0, 54.5, -2.0, 97.5, -2.0, 23.824999809265137, 6.505000114440918, -2.0, -2.0, -2.0, 1017.5, 3.8600000143051147, 65.5, -2.0, -2.0, 41.5, 78.5, 175.5, -2.0, -2.0, -2.0, -2.0, -72.5, -2.0, 13.835000038146973, 0.9750000238418579, -2.0, -2.0, 47.5, -2.0, -2.0], "feature": [2, 3, -2, 4, 6, 9, -2, 9, 1, -2, -2, 6, -2, -2, -2, -2, 0, 9, 7, -2, -2, 1, 2, 3, -2, -2, -2, 0, 1, -2, 8, 0, 9, -2, -2, 3, -2, 6, -2, 8, -2, -2, -2, -2, 0, 3, 9, -2, -2, 7, -2, 5, -2, 9, -2, 9, -2, 8, 3, -2, -2, -2, 7, 8, 9, -2, -2, 0, 5, 9, -2, -2, -2, -2, 1, -2, 8, 4, -2, -2, 5, -2, -2], "classes": [0, 1], "value": [[4863.0, 4900.0], [1736.0, 1154.0], [73.0, 95.0], [1663.0, 1059.0], [1095.0, 783.0], [924.0, 598.0], [682.0, 384.0], [242.0, 214.0], [170.0, 184.0], [105.0, 150.0], [65.0, 34.0], [72.0, 30.0], [65.0, 13.0], [7.0, 17.0], [171.0, 185.0], [568.0, 276.0], [3127.0, 3746.0], [691.0, 531.0], [120.0, 178.0], [15.0, 62.0], [105.0, 116.0], [571.0, 353.0], [50.0, 64.0], [32.0, 62.0], [11.0, 51.0], [21.0, 11.0], [18.0, 2.0], [521.0, 289.0], [441.0, 284.0], [189.0, 71.0], [252.0, 213.0], [231.0, 166.0], [53.0, 86.0], [20.0, 63.0], [33.0, 23.0], [178.0, 80.0], [160.0, 50.0], [18.0, 30.0], [0.0, 17.0], [18.0, 13.0], [18.0, 4.0], [0.0, 9.0], [21.0, 47.0], [80.0, 5.0], [2436.0, 3215.0], [585.0, 1161.0], [147.0, 428.0], [136.0, 426.0], [11.0, 2.0], [438.0, 733.0], [7.0, 53.0], [431.0, 680.0], [53.0, 144.0], [378.0, 536.0], [73.0, 51.0], [305.0, 485.0], [29.0, 110.0], [276.0, 375.0], [190.0, 306.0], [124.0, 255.0], [66.0, 51.0], [86.0, 69.0], [1851.0, 2054.0], [1451.0, 1491.0], [48.0, 99.0], [16.0, 6.0], [32.0, 93.0], [1403.0, 1392.0], [737.0, 634.0], [687.0, 620.0], [527.0, 534.0], [160.0, 86.0], [50.0, 14.0], [666.0, 758.0], [400.0, 563.0], [190.0, 192.0], [210.0, 371.0], [121.0, 269.0], [104.0, 264.0], [17.0, 5.0], [89.0, 102.0], [30.0, 2.0], [59.0, 100.0]]}, {"children_left": [1, 2, 3, 4, 5, -1, 7, 8, -1, -1, 11, -1, -1, 14, -1, 16, -1, -1, -1, 20, -1, 22, -1, -1, 25, 26, 27, -1, 29, -1, -1, 32, -1, 34, 35, -1, -1, 38, -1, -1, 41, 42, 43, 44, 45, -1, -1, -1, 49, 50, -1, 52, 53, -1, -1, -1, 57, 58, -1, 60, 61, 62, -1, -1, -1, -1, 67, -1, 69, -1, -1, 72, -1, 74, -1, -1, 77, 78, 79, -1, 81, -1, -1, 84, 85, 86, -1, -1, -1, -1, 91, -1, -1], "children_right": [24, 19, 18, 13, 6, -1, 10, 9, -1, -1, 12, -1, -1, 15, -1, 17, -1, -1, -1, 21, -1, 23, -1, -1, 40, 31, 28, -1, 30, -1, -1, 33, -1, 37, 36, -1, -1, 39, -1, -1, 76, 71, 48, 47, 46, -1, -1, -1, 56, 51, -1, 55, 54, -1, -1, -1, 66, 59, -1, 65, 64, 63, -1, -1, -1, -1, 68, -1, 70, -1, -1, 73, -1, 75, -1, -1, 90, 83, 80, -1, 82, -1, -1, 89, 88, 87, -1, -1, -1, -1, 92, -1, -1], "threshold": [19.925000190734863, 217.5, 56.5, 16.5, 32.5, -2.0, 4.724999904632568, 2.9700000286102295, -2.0, -2.0, 154.5, -2.0, -2.0, 7.5, -2.0, -35.5, -2.0, -2.0, -2.0, 128.0, -2.0, 18.515000343322754, -2.0, -2.0, 2.9850000143051147, 28.5, 5.0, -2.0, 21.5, -2.0, -2.0, 6.919999837875366, -2.0, 41.5, 1020.5, -2.0, -2.0, 2.524999976158142, -2.0, -2.0, 19.809999465942383, 78.5, -31.5, 148.5, 247.0, -2.0, -2.0, -2.0, 29.5, 116.5, -2.0, -25.5, 1011.5, -2.0, -2.0, -2.0, 11.355000019073486, 8.400000095367432, -2.0, 117.5, 10.389999866485596, 55.5, -2.0, -2.0, -2.0, -2.0, 12.855000019073486, -2.0, 13.265000343322754, -2.0, -2.0, 13.425000190734863, -2.0, 14.760000228881836, -2.0, -2.0, 129.0, 24.5, -2.0, -2.0, 1012.5, -2.0, -2.0, 178.5, 60.5, 43.0, -2.0, -2.0, -2.0, -2.0, -33.5, -2.0, -2.0], "feature": [2, 9, 0, 1, 0, -2, 3, 3, -2, -2, 9, -2, -2, 9, -2, 0, -2, -2, -2, 1, -2, 2, -2, -2, 3, 0, 6, -2, 9, -2, -2, 8, -2, 0, 7, -2, -2, 3, -2, -2, 8, 6, 0, 1, 9, -2, -2, -2, 0, 1, -2, 0, 7, -2, -2, -2, 8, 8, -2, 9, 8, 6, -2, -2, -2, -2, 8, -2, 8, -2, -2, 8, -2, 8, -2, -2, 1, 0, 1, -2, 7, -2, -2, 9, 6, 6, -2, -2, -2, -2, 0, -2, -2], "classes": [0, 1], "value": [[5006.0, 4757.0], [1905.0, 1246.0], [1433.0, 806.0], [1413.0, 778.0], [1113.0, 523.0], [20.0, 33.0], [1093.0, 490.0], [358.0, 211.0], [105.0, 26.0], [253.0, 185.0], [735.0, 279.0], [671.0, 227.0], [64.0, 52.0], [300.0, 255.0], [21.0, 0.0], [279.0, 255.0], [68.0, 25.0], [211.0, 230.0], [20.0, 28.0], [472.0, 440.0], [355.0, 381.0], [117.0, 59.0], [109.0, 39.0], [8.0, 20.0], [3101.0, 3511.0], [315.0, 575.0], [122.0, 331.0], [21.0, 13.0], [101.0, 318.0], [7.0, 0.0], [94.0, 318.0], [193.0, 244.0], [4.0, 28.0], [189.0, 216.0], [85.0, 53.0], [80.0, 36.0], [5.0, 17.0], [104.0, 163.0], [70.0, 58.0], [34.0, 105.0], [2786.0, 2936.0], [2239.0, 2160.0], [1790.0, 1605.0], [287.0, 176.0], [184.0, 66.0], [184.0, 57.0], [0.0, 9.0], [103.0, 110.0], [1503.0, 1429.0], [251.0, 330.0], [131.0, 254.0], [120.0, 76.0], [50.0, 57.0], [7.0, 29.0], [43.0, 28.0], [70.0, 19.0], [1252.0, 1099.0], [408.0, 430.0], [239.0, 193.0], [169.0, 237.0], [87.0, 77.0], [56.0, 68.0], [30.0, 67.0], [26.0, 1.0], [31.0, 9.0], [82.0, 160.0], [844.0, 669.0], [197.0, 109.0], [647.0, 560.0], [22.0, 55.0], [625.0, 505.0], [449.0, 555.0], [147.0, 250.0], [302.0, 305.0], [76.0, 36.0], [226.0, 269.0], [547.0, 776.0], [467.0, 746.0], [268.0, 542.0], [17.0, 104.0], [251.0, 438.0], [207.0, 411.0], [44.0, 27.0], [199.0, 204.0], [153.0, 189.0], [101.0, 74.0], [68.0, 70.0], [33.0, 4.0], [52.0, 115.0], [46.0, 15.0], [80.0, 30.0], [0.0, 7.0], [80.0, 23.0]]}, {"children_left": [1, 2, 3, 4, -1, 6, -1, -1, 9, 10, -1, 12, -1, -1, -1, 16, 17, -1, -1, 20, 21, -1, -1, -1, 25, 26, 27, 28, -1, -1, 31, 32, -1, 34, 35, -1, -1, -1, 39, 40, -1, -1, -1, 44, -1, 46, 47, 48, 49, 50, 51, -1, -1, -1, -1, -1, 57, 58, 59, -1, -1, -1, -1, -1, 65, 66, 67, -1, 69, -1, -1, -1, 73, -1, 75, -1, -1], "children_right": [24, 15, 8, 5, -1, 7, -1, -1, 14, 11, -1, 13, -1, -1, -1, 19, 18, -1, -1, 23, 22, -1, -1, -1, 64, 43, 30, 29, -1, -1, 38, 33, -1, 37, 36, -1, -1, -1, 42, 41, -1, -1, -1, 45, -1, 63, 56, 55, 54, 53, 52, -1, -1, -1, -1, -1, 62, 61, 60, -1, -1, -1, -1, -1, 72, 71, 68, -1, 70, -1, -1, -1, 74, -1, 76, -1, -1], "threshold": [19.925000190734863, 16.5, 144.5, -119.5, -2.0, 20.5, -2.0, -2.0, 16.355000495910645, 3.865000009536743, -2.0, 212.5, -2.0, -2.0, -2.0, 138.5, 0.8799999952316284, -2.0, -2.0, 79.0, 42.0, -2.0, -2.0, -2.0, 18.755000114440918, 109.0, 28.5, -24.5, -2.0, -2.0, 114.5, -119.5, -2.0, 46.5, 7.2149999141693115, -2.0, -2.0, -2.0, 13.444999694824219, 71.5, -2.0, -2.0, -2.0, 21.5, -2.0, 8.654999732971191, -34.5, 147.5, 145.5, -37.5, 22.670000076293945, -2.0, -2.0, -2.0, -2.0, -2.0, 76.5, 12.039999961853027, 152.5, -2.0, -2.0, -2.0, -2.0, -2.0, 148.5, 27.5, 3.09499990940094, -2.0, 55.5, -2.0, -2.0, -2.0, 19.050000190734863, -2.0, 3.8799999952316284, -2.0, -2.0], "feature": [2, 1, 9, 1, -2, 0, -2, -2, 2, 3, -2, 9, -2, -2, -2, 1, 4, -2, -2, 9, 5, -2, -2, -2, 8, 1, 0, 0, -2, -2, 9, 1, -2, 9, 3, -2, -2, -2, 8, 6, -2, -2, -2, 9, -2, 3, 0, 1, 9, 0, 2, -2, -2, -2, -2, -2, 9, 8, 1, -2, -2, -2, -2, -2, 1, 0, 3, -2, 5, -2, -2, -2, 8, -2, 3, -2, -2], "classes": [0, 1], "value": [[4857.0, 4906.0], [1894.0, 1246.0], [1328.0, 752.0], [906.0, 439.0], [61.0, 7.0], [845.0, 432.0], [11.0, 30.0], [834.0, 402.0], [422.0, 313.0], [274.0, 162.0], [91.0, 26.0], [183.0, 136.0], [48.0, 9.0], [135.0, 127.0], [148.0, 151.0], [566.0, 494.0], [335.0, 360.0], [222.0, 296.0], [113.0, 64.0], [231.0, 134.0], [40.0, 58.0], [11.0, 0.0], [29.0, 58.0], [191.0, 76.0], [2963.0, 3660.0], [2229.0, 2341.0], [1712.0, 1987.0], [179.0, 370.0], [84.0, 92.0], [95.0, 278.0], [1533.0, 1617.0], [631.0, 542.0], [56.0, 19.0], [575.0, 523.0], [60.0, 99.0], [41.0, 93.0], [19.0, 6.0], [515.0, 424.0], [902.0, 1075.0], [420.0, 612.0], [366.0, 472.0], [54.0, 140.0], [482.0, 463.0], [517.0, 354.0], [12.0, 42.0], [505.0, 312.0], [448.0, 303.0], [136.0, 139.0], [83.0, 45.0], [29.0, 34.0], [14.0, 29.0], [12.0, 1.0], [2.0, 28.0], [15.0, 5.0], [54.0, 11.0], [53.0, 94.0], [312.0, 164.0], [52.0, 47.0], [43.0, 19.0], [43.0, 10.0], [0.0, 9.0], [9.0, 28.0], [260.0, 117.0], [57.0, 9.0], [734.0, 1319.0], [666.0, 1273.0], [404.0, 952.0], [85.0, 330.0], [319.0, 622.0], [21.0, 111.0], [298.0, 511.0], [262.0, 321.0], [68.0, 46.0], [0.0, 9.0], [68.0, 37.0], [3.0, 17.0], [65.0, 20.0]]}, {"children_left": [1, 2, 3, -1, 5, 6, -1, 8, 9, -1, 11, -1, 13, -1, -1, 16, -1, -1, 19, -1, -1, 22, 23, 24, 25, 26, 27, -1, 29, 30, -1, -1, -1, -1, -1, 36, -1, -1, -1, -1, 41, 42, 43, -1, 45, -1, 47, -1, 49, -1, 51, -1, 53, -1, 55, -1, -1, 58, -1, -1, 61, 62, 63, 64, -1, -1, -1, -1, 69, 70, 71, -1, -1, -1, -1], "children_right": [40, 21, 4, -1, 18, 7, -1, 15, 10, -1, 12, -1, 14, -1, -1, 17, -1, -1, 20, -1, -1, 39, 38, 35, 34, 33, 28, -1, 32, 31, -1, -1, -1, -1, -1, 37, -1, -1, -1, -1, 60, 57, 44, -1, 46, -1, 48, -1, 50, -1, 52, -1, 54, -1, 56, -1, -1, 59, -1, -1, 68, 67, 66, 65, -1, -1, -1, -1, 74, 73, 72, -1, -1, -1, -1], "threshold": [20.804999351501465, 228.5, 32.5, -2.0, 12.5, 18.5, -2.0, 6.855000019073486, 1010.5, -2.0, 19.9350004196167, -2.0, 179.0, -2.0, -2.0, 157.5, -2.0, -2.0, 213.5, -2.0, -2.0, 7.7149999141693115, 352.5, 5.859999895095825, 0.9550000131130219, 6.684999942779541, -34.0, -2.0, 82.5, 23.5, -2.0, -2.0, -2.0, -2.0, -2.0, -99.5, -2.0, -2.0, -2.0, -2.0, -20.5, 115.5, 1009.5, -2.0, 4.1600000858306885, -2.0, 6.335000038146973, -2.0, 22.0, -2.0, 68.0, -2.0, 99.5, -2.0, 0.27000000327825546, -2.0, -2.0, 74.0, -2.0, -2.0, 24.5, 23.5, -87.5, 1.7549999952316284, -2.0, -2.0, -2.0, -2.0, 31.3149995803833, 1017.5, 4.674999952316284, -2.0, -2.0, -2.0, -2.0], "feature": [2, 9, 5, -2, 1, 0, -2, 3, 7, -2, 2, -2, 9, -2, -2, 9, -2, -2, 9, -2, -2, 8, 9, 8, 4, 3, 1, -2, 5, 1, -2, -2, -2, -2, -2, 1, -2, -2, -2, -2, 0, 9, 7, -2, 3, -2, 8, -2, 6, -2, 6, -2, 6, -2, 4, -2, -2, 1, -2, -2, 1, 0, 1, 8, -2, -2, -2, -2, 2, 7, 3, -2, -2, -2, -2], "classes": [0, 1], "value": [[4887.0, 4876.0], [2056.0, 1498.0], [1587.0, 1049.0], [38.0, 58.0], [1549.0, 991.0], [1130.0, 616.0], [14.0, 31.0], [1116.0, 585.0], [769.0, 467.0], [116.0, 116.0], [653.0, 351.0], [602.0, 291.0], [51.0, 60.0], [39.0, 60.0], [12.0, 0.0], [347.0, 118.0], [322.0, 91.0], [25.0, 27.0], [419.0, 375.0], [370.0, 365.0], [49.0, 10.0], [469.0, 449.0], [352.0, 280.0], [305.0, 265.0], [221.0, 229.0], [182.0, 212.0], [171.0, 160.0], [86.0, 45.0], [85.0, 115.0], [73.0, 113.0], [6.0, 48.0], [67.0, 65.0], [12.0, 2.0], [11.0, 52.0], [39.0, 17.0], [84.0, 36.0], [0.0, 8.0], [84.0, 28.0], [47.0, 15.0], [117.0, 169.0], [2831.0, 3378.0], [629.0, 466.0], [222.0, 264.0], [35.0, 72.0], [187.0, 192.0], [15.0, 47.0], [172.0, 145.0], [16.0, 43.0], [156.0, 102.0], [83.0, 32.0], [73.0, 70.0], [16.0, 39.0], [57.0, 31.0], [41.0, 9.0], [16.0, 22.0], [0.0, 17.0], [16.0, 5.0], [407.0, 202.0], [34.0, 50.0], [373.0, 152.0], [2202.0, 2912.0], [1550.0, 1785.0], [95.0, 265.0], [59.0, 84.0], [22.0, 8.0], [37.0, 76.0], [36.0, 181.0], [1455.0, 1520.0], [652.0, 1127.0], [524.0, 784.0], [509.0, 708.0], [244.0, 426.0], [265.0, 282.0], [15.0, 76.0], [128.0, 343.0]]}, {"children_left": [1, 2, 3, -1, -1, 6, 7, 8, -1, 10, 11, -1, 13, -1, -1, 16, -1, 18, -1, -1, 21, -1, -1, -1, 25, 26, 27, -1, -1, -1, 31, 32, 33, 34, -1, -1, -1, 38, 39, 40, 41, -1, 43, 44, -1, -1, -1, -1, 49, -1, -1, -1, 53, 54, 55, 56, -1, -1, -1, 60, -1, 62, -1, -1, 65, 66, 67, 68, 69, 70, 71, -1, -1, -1, -1, 76, -1, 78, -1, 80, -1, -1, -1, -1, 85, -1, -1], "children_right": [24, 5, 4, -1, -1, 23, 20, 9, -1, 15, 12, -1, 14, -1, -1, 17, -1, 19, -1, -1, 22, -1, -1, -1, 30, 29, 28, -1, -1, -1, 52, 37, 36, 35, -1, -1, -1, 51, 48, 47, 42, -1, 46, 45, -1, -1, -1, -1, 50, -1, -1, -1, 64, 59, 58, 57, -1, -1, -1, 61, -1, 63, -1, -1, 84, 83, 82, 75, 74, 73, 72, -1, -1, -1, -1, 77, -1, 79, -1, 81, -1, -1, -1, -1, 86, -1, -1], "threshold": [20.574999809265137, 0.5, 32.5, -2.0, -2.0, 361.5, 340.0, 4.5, -2.0, 16.3149995803833, -39.0, -2.0, 8.190000057220459, -2.0, -2.0, 16.61500072479248, -2.0, 4.585000038146973, -2.0, -2.0, 2.350000023841858, -2.0, -2.0, -2.0, 2.9950000047683716, -79.5, 0.9650000035762787, -2.0, -2.0, -2.0, -20.5, 99.5, -33.5, 57.5, -2.0, -2.0, -2.0, 306.0, 95.5, 5.894999980926514, 26.5, -2.0, -34.5, 11.894999980926514, -2.0, -2.0, -2.0, -2.0, 127.5, -2.0, -2.0, -2.0, 30.5, 55.5, -78.5, 90.5, -2.0, -2.0, -2.0, 98.0, -2.0, 0.6050000190734863, -2.0, -2.0, 107.5, 29.130000114440918, 80.5, 24.5, 26.72499942779541, 14.440000057220459, 12.805000305175781, -2.0, -2.0, -2.0, -2.0, 0.6949999928474426, -2.0, 54.0, -2.0, 27.6899995803833, -2.0, -2.0, -2.0, -2.0, 11.46999979019165, -2.0, -2.0], "feature": [2, 1, 0, -2, -2, 9, 9, 1, -2, 2, 0, -2, 3, -2, -2, 2, -2, 3, -2, -2, 3, -2, -2, -2, 3, 1, 4, -2, -2, -2, 0, 9, 0, 9, -2, -2, -2, 9, 6, 3, 1, -2, 0, 8, -2, -2, -2, -2, 9, -2, -2, -2, 0, 5, 1, 6, -2, -2, -2, 1, -2, 4, -2, -2, 9, 2, 6, 6, 2, 8, 8, -2, -2, -2, -2, 4, -2, 5, -2, 2, -2, -2, -2, -2, 8, -2, -2], "classes": [0, 1], "value": [[4917.0, 4846.0], [1958.0, 1308.0], [1063.0, 611.0], [34.0, 73.0], [1029.0, 538.0], [895.0, 697.0], [880.0, 697.0], [861.0, 660.0], [70.0, 90.0], [791.0, 570.0], [391.0, 220.0], [3.0, 17.0], [388.0, 203.0], [327.0, 195.0], [61.0, 8.0], [400.0, 350.0], [6.0, 30.0], [394.0, 320.0], [158.0, 182.0], [236.0, 138.0], [19.0, 37.0], [8.0, 0.0], [11.0, 37.0], [15.0, 0.0], [2959.0, 3538.0], [312.0, 641.0], [102.0, 90.0], [92.0, 55.0], [10.0, 35.0], [210.0, 551.0], [2647.0, 2897.0], [613.0, 462.0], [158.0, 214.0], [58.0, 136.0], [15.0, 82.0], [43.0, 54.0], [100.0, 78.0], [455.0, 248.0], [449.0, 222.0], [382.0, 162.0], [194.0, 119.0], [10.0, 21.0], [184.0, 98.0], [43.0, 47.0], [35.0, 17.0], [8.0, 30.0], [141.0, 51.0], [188.0, 43.0], [67.0, 60.0], [8.0, 27.0], [59.0, 33.0], [6.0, 26.0], [2034.0, 2435.0], [533.0, 920.0], [150.0, 338.0], [74.0, 89.0], [72.0, 63.0], [2.0, 26.0], [76.0, 249.0], [383.0, 582.0], [98.0, 234.0], [285.0, 348.0], [105.0, 76.0], [180.0, 272.0], [1501.0, 1515.0], [487.0, 378.0], [418.0, 349.0], [333.0, 237.0], [151.0, 150.0], [106.0, 135.0], [75.0, 125.0], [71.0, 85.0], [4.0, 40.0], [31.0, 10.0], [45.0, 15.0], [182.0, 87.0], [136.0, 42.0], [46.0, 45.0], [7.0, 24.0], [39.0, 21.0], [37.0, 8.0], [2.0, 13.0], [85.0, 112.0], [69.0, 29.0], [1014.0, 1137.0], [237.0, 356.0], [777.0, 781.0]]}, {"children_left": [1, 2, -1, 4, -1, 6, -1, 8, -1, 10, 11, -1, 13, 14, -1, 16, 17, 18, -1, 20, -1, 22, 23, -1, -1, -1, -1, -1, 29, -1, 31, 32, 33, -1, -1, -1, -1, 38, -1, -1, 41, 42, 43, 44, -1, -1, 47, 48, 49, -1, -1, 52, 53, -1, -1, 56, 57, -1, -1, -1, 61, 62, 63, 64, 65, -1, -1, -1, -1, -1, -1, 72, 73, 74, -1, -1, 77, -1, -1, -1, 81, 82, -1, -1, 85, -1, -1], "children_right": [40, 3, -1, 5, -1, 7, -1, 9, -1, 37, 12, -1, 28, 15, -1, 27, 26, 19, -1, 21, -1, 25, 24, -1, -1, -1, -1, -1, 30, -1, 36, 35, 34, -1, -1, -1, -1, 39, -1, -1, 80, 71, 46, 45, -1, -1, 60, 51, 50, -1, -1, 55, 54, -1, -1, 59, 58, -1, -1, -1, 70, 69, 68, 67, 66, -1, -1, -1, -1, -1, -1, 79, 76, 75, -1, -1, 78, -1, -1, -1, 84, 83, -1, -1, 86, -1, -1], "threshold": [19.920000076293945, 2.40500009059906, -2.0, -119.5, -2.0, -113.5, -2.0, -100.5, -2.0, 0.9050000011920929, -96.5, -2.0, 97.5, 50.5, -2.0, 151.5, 48.0, 144.5, -2.0, -7.5, -2.0, 17.875, 6.985000133514404, -2.0, -2.0, -2.0, -2.0, -2.0, -3.5, -2.0, 37.5, 4.610000133514404, 8.514999866485596, -2.0, -2.0, -2.0, -2.0, 33.5, -2.0, -2.0, 18.755000114440918, 114.5, 32.5, 14.5, -2.0, -2.0, 110.5, 23.27500057220459, 1.2099999785423279, -2.0, -2.0, 17.5, 9.349999904632568, -2.0, -2.0, 37.5, 2.2100000381469727, -2.0, -2.0, -2.0, 18.5, 28.68000030517578, 49.5, 41.5, 13.809999942779541, -2.0, -2.0, -2.0, -2.0, -2.0, -2.0, 8.080000400543213, -25.5, 84.5, -2.0, -2.0, -3.0, -2.0, -2.0, -2.0, 81.5, 89.5, -2.0, -2.0, 0.9950000047683716, -2.0, -2.0], "feature": [2, 3, -2, 1, -2, 1, -2, 1, -2, 4, 1, -2, 6, 9, -2, 1, 1, 9, -2, 1, -2, 2, 8, -2, -2, -2, -2, -2, 1, -2, 0, 3, 8, -2, -2, -2, -2, 6, -2, -2, 8, 1, 0, 5, -2, -2, 9, 2, 8, -2, -2, 1, 8, -2, -2, 5, 8, -2, -2, -2, 8, 2, 5, 0, 8, -2, -2, -2, -2, -2, -2, 3, 0, 9, -2, -2, 0, -2, -2, -2, 5, 6, -2, -2, 4, -2, -2], "classes": [0, 1], "value": [[5001.0, 4762.0], [1846.0, 1229.0], [82.0, 117.0], [1764.0, 1112.0], [66.0, 14.0], [1698.0, 1098.0], [21.0, 38.0], [1677.0, 1060.0], [73.0, 14.0], [1604.0, 1046.0], [1032.0, 750.0], [12.0, 42.0], [1020.0, 708.0], [825.0, 503.0], [168.0, 148.0], [657.0, 355.0], [644.0, 332.0], [535.0, 307.0], [298.0, 127.0], [237.0, 180.0], [113.0, 40.0], [124.0, 140.0], [102.0, 80.0], [50.0, 67.0], [52.0, 13.0], [22.0, 60.0], [109.0, 25.0], [13.0, 23.0], [195.0, 205.0], [74.0, 40.0], [121.0, 165.0], [50.0, 31.0], [24.0, 29.0], [15.0, 2.0], [9.0, 27.0], [26.0, 2.0], [71.0, 134.0], [572.0, 296.0], [67.0, 9.0], [505.0, 287.0], [3155.0, 3533.0], [2363.0, 2353.0], [1832.0, 1986.0], [264.0, 449.0], [25.0, 11.0], [239.0, 438.0], [1568.0, 1537.0], [581.0, 436.0], [211.0, 212.0], [1.0, 18.0], [210.0, 194.0], [370.0, 224.0], [306.0, 155.0], [89.0, 18.0], [217.0, 137.0], [64.0, 69.0], [7.0, 35.0], [5.0, 0.0], [2.0, 35.0], [57.0, 34.0], [987.0, 1101.0], [948.0, 1092.0], [672.0, 869.0], [265.0, 416.0], [119.0, 124.0], [98.0, 123.0], [21.0, 1.0], [146.0, 292.0], [407.0, 453.0], [276.0, 223.0], [39.0, 9.0], [531.0, 367.0], [444.0, 348.0], [367.0, 324.0], [62.0, 123.0], [305.0, 201.0], [77.0, 24.0], [62.0, 4.0], [15.0, 20.0], [87.0, 19.0], [792.0, 1180.0], [684.0, 1095.0], [501.0, 676.0], [183.0, 419.0], [108.0, 85.0], [15.0, 40.0], [93.0, 45.0]]}, {"children_left": [1, 2, 3, -1, -1, 6, -1, -1, 9, 10, 11, 12, 13, -1, 15, -1, 17, 18, 19, -1, -1, 22, 23, -1, -1, -1, 27, 28, 29, -1, -1, -1, -1, -1, -1, -1, 37, 38, 39, 40, 41, -1, 43, -1, 45, -1, -1, -1, 49, -1, 51, 52, -1, 54, 55, -1, 57, 58, -1, -1, -1, -1, -1, 64, -1, 66, 67, -1, 69, -1, 71, -1, -1, 74, 75, -1, 77, 78, -1, -1, -1, 82, 83, -1, 85, 86, 87, 88, 89, -1, -1, -1, -1, -1, -1, 96, 97, -1, -1, -1, 101, -1, 103, 104, 105, -1, 107, -1, 109, 110, -1, -1, -1, -1, 115, -1, 117, -1, -1], "children_right": [8, 5, 4, -1, -1, 7, -1, -1, 36, 35, 34, 33, 14, -1, 16, -1, 26, 21, 20, -1, -1, 25, 24, -1, -1, -1, 32, 31, 30, -1, -1, -1, -1, -1, -1, -1, 100, 63, 48, 47, 42, -1, 44, -1, 46, -1, -1, -1, 50, -1, 62, 53, -1, 61, 56, -1, 60, 59, -1, -1, -1, -1, -1, 65, -1, 73, 68, -1, 70, -1, 72, -1, -1, 81, 76, -1, 80, 79, -1, -1, -1, 95, 84, -1, 94, 93, 92, 91, 90, -1, -1, -1, -1, -1, -1, 99, 98, -1, -1, -1, 102, -1, 114, 113, 106, -1, 108, -1, 112, 111, -1, -1, -1, -1, 116, -1, 118, -1, -1], "threshold": [2.9950000047683716, 28.5, 144.5, -2.0, -2.0, -81.5, -2.0, -2.0, 19.59500026702881, 310.5, 287.5, 244.5, -2.215000033378601, -2.0, 0.7949999868869781, -2.0, 13.5, 157.5, -119.0, -2.0, -2.0, 0.7549999952316284, 1021.5, -2.0, -2.0, -2.0, -29.0, 50.5, 25.0, -2.0, -2.0, -2.0, -2.0, -2.0, -2.0, -2.0, 19.704999923706055, -16.5, 82.5, 1018.5, 4.569999933242798, -2.0, 9.460000038146973, -2.0, 0.22500000149011612, -2.0, -2.0, -2.0, 4.414999961853027, -2.0, 306.5, 148.5, -2.0, -25.5, 6.515000104904175, -2.0, 0.7050000131130219, 7.065000057220459, -2.0, -2.0, -2.0, -2.0, -2.0, 29.5, -2.0, 3.6950000524520874, 8.5, -2.0, 96.5, -2.0, -78.0, -2.0, -2.0, 106.5, 44.5, -2.0, 37.5, 31.5, -2.0, -2.0, -2.0, 176.5, 998.5, -2.0, 1019.5, 17.795000076293945, 13.5, 16.30500030517578, -111.5, -2.0, -2.0, -2.0, -2.0, -2.0, -2.0, 47.5, 1015.5, -2.0, -2.0, -2.0, -20.5, -2.0, 24.5, 31.710000038146973, 28.505000114440918, -2.0, 77.0, -2.0, 63.5, 70.5, -2.0, -2.0, -2.0, -2.0, 53.0, -2.0, 178.5, -2.0, -2.0], "feature": [3, 0, 1, -2, -2, 1, -2, -2, 2, 9, 9, 9, 8, -2, 8, -2, 1, 9, 1, -2, -2, 4, 7, -2, -2, -2, 0, 9, 9, -2, -2, -2, -2, -2, -2, -2, 8, 0, 9, 7, 8, -2, 8, -2, 4, -2, -2, -2, 3, -2, 9, 1, -2, 0, 3, -2, 4, 8, -2, -2, -2, -2, -2, 0, -2, 3, 6, -2, 6, -2, 1, -2, -2, 9, 9, -2, 0, 6, -2, -2, -2, 9, 7, -2, 7, 8, 1, 8, 1, -2, -2, -2, -2, -2, -2, 5, 7, -2, -2, -2, 0, -2, 0, 2, 2, -2, 1, -2, 6, 5, -2, -2, -2, -2, 6, -2, 9, -2, -2], "classes": [0, 1], "value": [[4863.0, 4900.0], [496.0, 828.0], [162.0, 443.0], [105.0, 374.0], [57.0, 69.0], [334.0, 385.0], [113.0, 61.0], [221.0, 324.0], [4367.0, 4072.0], [1556.0, 1007.0], [1456.0, 888.0], [1359.0, 864.0], [1293.0, 774.0], [47.0, 64.0], [1246.0, 710.0], [96.0, 20.0], [1150.0, 690.0], [818.0, 418.0], [707.0, 317.0], [46.0, 1.0], [661.0, 316.0], [111.0, 101.0], [52.0, 74.0], [34.0, 72.0], [18.0, 2.0], [59.0, 27.0], [332.0, 272.0], [160.0, 68.0], [33.0, 47.0], [22.0, 9.0], [11.0, 38.0], [127.0, 21.0], [172.0, 204.0], [66.0, 90.0], [97.0, 24.0], [100.0, 119.0], [2811.0, 3065.0], [2265.0, 2250.0], [581.0, 439.0], [125.0, 167.0], [71.0, 134.0], [5.0, 38.0], [66.0, 96.0], [33.0, 16.0], [33.0, 80.0], [2.0, 42.0], [31.0, 38.0], [54.0, 33.0], [456.0, 272.0], [72.0, 82.0], [384.0, 190.0], [373.0, 168.0], [210.0, 63.0], [163.0, 105.0], [130.0, 105.0], [105.0, 61.0], [25.0, 44.0], [13.0, 42.0], [6.0, 0.0], [7.0, 42.0], [12.0, 2.0], [33.0, 0.0], [11.0, 22.0], [1684.0, 1811.0], [129.0, 260.0], [1555.0, 1551.0], [259.0, 182.0], [76.0, 85.0], [183.0, 97.0], [166.0, 67.0], [17.0, 30.0], [14.0, 6.0], [3.0, 24.0], [1296.0, 1369.0], [447.0, 371.0], [48.0, 74.0], [399.0, 297.0], [170.0, 79.0], [69.0, 56.0], [101.0, 23.0], [229.0, 218.0], [849.0, 998.0], [615.0, 798.0], [12.0, 0.0], [603.0, 798.0], [555.0, 689.0], [461.0, 633.0], [368.0, 429.0], [329.0, 337.0], [39.0, 88.0], [290.0, 249.0], [39.0, 92.0], [93.0, 204.0], [94.0, 56.0], [48.0, 109.0], [234.0, 200.0], [96.0, 133.0], [71.0, 53.0], [25.0, 80.0], [138.0, 67.0], [546.0, 815.0], [64.0, 30.0], [482.0, 785.0], [278.0, 555.0], [245.0, 415.0], [44.0, 140.0], [201.0, 275.0], [22.0, 70.0], [179.0, 205.0], [84.0, 54.0], [71.0, 28.0], [13.0, 26.0], [95.0, 151.0], [33.0, 140.0], [204.0, 230.0], [116.0, 89.0], [88.0, 141.0], [65.0, 133.0], [23.0, 8.0]]}, {"children_left": [1, 2, 3, 4, 5, 6, -1, -1, -1, 10, -1, -1, -1, 14, 15, 16, -1, 18, -1, -1, -1, 22, 23, -1, 25, -1, -1, -1, 29, 30, 31, -1, 33, 34, 35, 36, -1, -1, -1, -1, 41, -1, 43, -1, -1, 46, 47, -1, -1, 50, 51, 52, -1, -1, 55, -1, -1, 58, -1, 60, -1, -1, 63, 64, 65, 66, -1, -1, -1, -1, -1], "children_right": [28, 13, 12, 9, 8, 7, -1, -1, -1, 11, -1, -1, -1, 21, 20, 17, -1, 19, -1, -1, -1, 27, 24, -1, 26, -1, -1, -1, 62, 45, 32, -1, 40, 39, 38, 37, -1, -1, -1, -1, 42, -1, 44, -1, -1, 49, 48, -1, -1, 57, 54, 53, -1, -1, 56, -1, -1, 59, -1, 61, -1, -1, 70, 69, 68, 67, -1, -1, -1, -1, -1], "threshold": [19.925000190734863, -1.7200000286102295, 34.5, -5.590000152587891, -7.2799999713897705, 1013.5, -2.0, -2.0, -2.0, -3.819999933242798, -2.0, -2.0, -2.0, 220.5, 16.5, 12.46500015258789, -2.0, 1002.5, -2.0, -2.0, -2.0, -32.5, 57.5, -2.0, 149.5, -2.0, -2.0, -2.0, 125.5, 5.365000009536743, 28.5, -2.0, 11.259999752044678, 107.5, 27.63499927520752, 36.5, -2.0, -2.0, -2.0, -2.0, 177.5, -2.0, 1017.5, -2.0, -2.0, -31.5, 73.5, -2.0, -2.0, 24.5, 95.5, -85.0, -2.0, -2.0, 122.0, -2.0, -2.0, 9.5, -2.0, 111.5, -2.0, -2.0, 113.5, -25.5, 1009.5, 21.97000026702881, -2.0, -2.0, -2.0, -2.0, -2.0], "feature": [2, 8, 1, 8, 8, 7, -2, -2, -2, 8, -2, -2, -2, 9, 1, 8, -2, 7, -2, -2, -2, 0, 5, -2, 1, -2, -2, -2, 1, 3, 0, -2, 8, 9, 2, 5, -2, -2, -2, -2, 9, -2, 7, -2, -2, 0, 6, -2, -2, 0, 1, 1, -2, -2, 1, -2, -2, 1, -2, 9, -2, -2, 9, 0, 7, 2, -2, -2, -2, -2, -2], "classes": [0, 1], "value": [[4821.0, 4942.0], [1756.0, 1216.0], [149.0, 159.0], [140.0, 130.0], [78.0, 49.0], [40.0, 44.0], [0.0, 15.0], [40.0, 29.0], [38.0, 5.0], [62.0, 81.0], [7.0, 46.0], [55.0, 35.0], [9.0, 29.0], [1607.0, 1057.0], [1242.0, 723.0], [933.0, 463.0], [788.0, 334.0], [145.0, 129.0], [7.0, 27.0], [138.0, 102.0], [309.0, 260.0], [365.0, 334.0], [106.0, 55.0], [62.0, 13.0], [44.0, 42.0], [41.0, 21.0], [3.0, 21.0], [259.0, 279.0], [3065.0, 3726.0], [2494.0, 3323.0], [1409.0, 2184.0], [370.0, 897.0], [1039.0, 1287.0], [249.0, 438.0], [139.0, 130.0], [113.0, 124.0], [28.0, 65.0], [85.0, 59.0], [26.0, 6.0], [110.0, 308.0], [790.0, 849.0], [622.0, 730.0], [168.0, 119.0], [133.0, 49.0], [35.0, 70.0], [1085.0, 1139.0], [107.0, 40.0], [96.0, 19.0], [11.0, 21.0], [978.0, 1099.0], [199.0, 387.0], [77.0, 228.0], [37.0, 41.0], [40.0, 187.0], [122.0, 159.0], [121.0, 136.0], [1.0, 23.0], [779.0, 712.0], [605.0, 458.0], [174.0, 254.0], [65.0, 47.0], [109.0, 207.0], [571.0, 403.0], [197.0, 223.0], [148.0, 210.0], [27.0, 82.0], [10.0, 0.0], [17.0, 82.0], [121.0, 128.0], [49.0, 13.0], [374.0, 180.0]]}, {"children_left": [1, 2, 3, 4, -1, -1, -1, 8, -1, 10, 11, 12, 13, 14, 15, -1, 17, -1, 19, -1, -1, 22, -1, -1, 25, -1, -1, -1, -1, -1, 31, 32, -1, 34, 35, 36, -1, 38, -1, -1, 41, -1, -1, -1, 45, 46, 47, 48, -1, -1, 51, 52, -1, 54, -1, -1, -1, -1, 59, -1, 61, 62, 63, -1, -1, -1, 67, 68, -1, -1, 71, 72, 73, 74, -1, -1, -1, -1, -1], "children_right": [30, 7, 6, 5, -1, -1, -1, 9, -1, 29, 28, 27, 24, 21, 16, -1, 18, -1, 20, -1, -1, 23, -1, -1, 26, -1, -1, -1, -1, -1, 44, 33, -1, 43, 40, 37, -1, 39, -1, -1, 42, -1, -1, -1, 58, 57, 50, 49, -1, -1, 56, 53, -1, 55, -1, -1, -1, -1, 60, -1, 66, 65, 64, -1, -1, -1, 70, 69, -1, -1, 78, 77, 76, 75, -1, -1, -1, -1, -1], "threshold": [20.324999809265137, -1.625, -5.8999998569488525, 1029.5, -2.0, -2.0, -2.0, 2.8950001001358032, -2.0, 308.5, 55.5, 298.5, 14.5, 213.5, 15.265000343322754, -2.0, 15.375, -2.0, 15.53499984741211, -2.0, -2.0, 18.49000072479248, -2.0, -2.0, 23.5, -2.0, -2.0, -2.0, -2.0, -2.0, -20.5, 30.0, -2.0, -24.0, 148.5, -39.5, -2.0, 98.5, -2.0, -2.0, 150.5, -2.0, -2.0, -2.0, 29.5, 31.625, 97.5, -76.5, -2.0, -2.0, 1012.5, 59.0, -2.0, 30.309999465942383, -2.0, -2.0, -2.0, -2.0, 46.5, -2.0, 49.5, 77.5, 206.5, -2.0, -2.0, -2.0, 3.4550000429153442, 173.5, -2.0, -2.0, 13.5, 1017.5, 99.5, 79.5, -2.0, -2.0, -2.0, -2.0, -2.0], "feature": [2, 8, 8, 7, -2, -2, -2, 3, -2, 9, 0, 9, 1, 9, 2, -2, 2, -2, 8, -2, -2, 2, -2, -2, 1, -2, -2, -2, -2, -2, 0, 1, -2, 0, 1, 0, -2, 9, -2, -2, 1, -2, -2, -2, 0, 2, 1, 1, -2, -2, 7, 5, -2, 2, -2, -2, -2, -2, 5, -2, 0, 6, 9, -2, -2, -2, 3, 9, -2, -2, 1, 7, 6, 5, -2, -2, -2, -2, -2], "classes": [0, 1], "value": [[4949.0, 4814.0], [1955.0, 1330.0], [122.0, 162.0], [60.0, 46.0], [57.0, 28.0], [3.0, 18.0], [62.0, 116.0], [1833.0, 1168.0], [163.0, 185.0], [1670.0, 983.0], [1584.0, 892.0], [1540.0, 833.0], [1487.0, 826.0], [1027.0, 514.0], [915.0, 410.0], [360.0, 112.0], [555.0, 298.0], [4.0, 16.0], [551.0, 282.0], [520.0, 242.0], [31.0, 40.0], [112.0, 104.0], [82.0, 99.0], [30.0, 5.0], [460.0, 312.0], [90.0, 104.0], [370.0, 208.0], [53.0, 7.0], [44.0, 59.0], [86.0, 91.0], [2994.0, 3484.0], [641.0, 476.0], [62.0, 127.0], [579.0, 349.0], [492.0, 337.0], [224.0, 69.0], [0.0, 7.0], [224.0, 62.0], [20.0, 25.0], [204.0, 37.0], [268.0, 268.0], [45.0, 96.0], [223.0, 172.0], [87.0, 12.0], [2353.0, 3008.0], [581.0, 1126.0], [493.0, 854.0], [158.0, 408.0], [96.0, 141.0], [62.0, 267.0], [335.0, 446.0], [276.0, 418.0], [25.0, 9.0], [251.0, 409.0], [159.0, 320.0], [92.0, 89.0], [59.0, 28.0], [88.0, 272.0], [1772.0, 1882.0], [705.0, 878.0], [1067.0, 1004.0], [842.0, 705.0], [607.0, 415.0], [584.0, 372.0], [23.0, 43.0], [235.0, 290.0], [225.0, 299.0], [16.0, 64.0], [7.0, 64.0], [9.0, 0.0], [209.0, 235.0], [177.0, 166.0], [143.0, 103.0], [130.0, 71.0], [130.0, 61.0], [0.0, 10.0], [13.0, 32.0], [34.0, 63.0], [32.0, 69.0]]}, {"children_left": [1, 2, 3, 4, -1, -1, 7, -1, 9, 10, -1, -1, 13, -1, -1, 16, 17, 18, -1, 20, -1, -1, -1, -1, 25, 26, -1, 28, 29, 30, 31, 32, -1, -1, -1, -1, 37, 38, 39, -1, -1, -1, 43, 44, -1, 46, -1, 48, 49, -1, 51, -1, 53, 54, 55, 56, 57, -1, -1, -1, 61, -1, -1, -1, -1, 66, -1, -1, 69, 70, -1, -1, -1, 74, 75, 76, -1, -1, -1, 80, -1, -1, 83, 84, -1, -1, 87, 88, -1, 90, -1, 92, 93, 94, -1, -1, -1, -1, -1], "children_right": [24, 15, 6, 5, -1, -1, 8, -1, 12, 11, -1, -1, 14, -1, -1, 23, 22, 19, -1, 21, -1, -1, -1, -1, 82, 27, -1, 73, 36, 35, 34, 33, -1, -1, -1, -1, 42, 41, 40, -1, -1, -1, 68, 45, -1, 47, -1, 65, 50, -1, 52, -1, 64, 63, 60, 59, 58, -1, -1, -1, 62, -1, -1, -1, -1, 67, -1, -1, 72, 71, -1, -1, -1, 79, 78, 77, -1, -1, -1, 81, -1, -1, 86, 85, -1, -1, 98, 89, -1, 91, -1, 97, 96, 95, -1, -1, -1, -1, -1], "threshold": [19.61500072479248, 228.5, 4.505000114440918, 51.5, -2.0, -2.0, 12.5, -2.0, -28.5, 48.0, -2.0, -2.0, 37.5, -2.0, -2.0, 346.5, 314.5, 286.5, -2.0, 75.0, -2.0, -2.0, -2.0, -2.0, 17.5649995803833, 15.5, -2.0, 97.0, 29.5, 46.5, 0.08500000089406967, 25.479999542236328, -2.0, -2.0, -2.0, -2.0, 37.5, 96.5, -0.6050000051036477, -2.0, -2.0, -2.0, 193.5, 6.240000009536743, -2.0, -120.5, -2.0, 8.710000038146973, 1003.5, -2.0, 1008.5, -2.0, 7.295000076293945, 6.890000104904175, 122.5, 64.5, 21.5, -2.0, -2.0, -2.0, 138.5, -2.0, -2.0, -2.0, -2.0, 35.0, -2.0, -2.0, 47.5, 40.5, -2.0, -2.0, -2.0, 99.5, -34.5, 1019.5, -2.0, -2.0, -2.0, 172.0, -2.0, -2.0, 2.9550000429153442, 33.40500068664551, -2.0, -2.0, 125.5, 14.5, -2.0, -83.5, -2.0, 78.5, 49.5, 53.5, -2.0, -2.0, -2.0, -2.0, -2.0], "feature": [2, 9, 3, 0, -2, -2, 1, -2, 0, 9, -2, -2, 1, -2, -2, 9, 9, 9, -2, 5, -2, -2, -2, -2, 8, 9, -2, 1, 0, 6, 4, 2, -2, -2, -2, -2, 0, 9, 8, -2, -2, -2, 9, 8, -2, 1, -2, 3, 7, -2, 7, -2, 3, 3, 9, 5, 1, -2, -2, -2, 9, -2, -2, -2, -2, 6, -2, -2, 5, 0, -2, -2, -2, 9, 0, 7, -2, -2, -2, 1, -2, -2, 3, 2, -2, -2, 1, 0, -2, 1, -2, 6, 0, 5, -2, -2, -2, -2, -2], "classes": [0, 1], "value": [[4820.0, 4943.0], [1741.0, 1192.0], [1361.0, 780.0], [407.0, 314.0], [359.0, 240.0], [48.0, 74.0], [954.0, 466.0], [716.0, 300.0], [238.0, 166.0], [96.0, 30.0], [23.0, 22.0], [73.0, 8.0], [142.0, 136.0], [140.0, 115.0], [2.0, 21.0], [380.0, 412.0], [315.0, 380.0], [255.0, 266.0], [154.0, 209.0], [101.0, 57.0], [62.0, 53.0], [39.0, 4.0], [60.0, 114.0], [65.0, 32.0], [3079.0, 3751.0], [2125.0, 2287.0], [26.0, 79.0], [2099.0, 2208.0], [1620.0, 1870.0], [132.0, 279.0], [104.0, 145.0], [52.0, 109.0], [32.0, 24.0], [20.0, 85.0], [52.0, 36.0], [28.0, 134.0], [1488.0, 1591.0], [344.0, 265.0], [176.0, 72.0], [0.0, 8.0], [176.0, 64.0], [168.0, 193.0], [1144.0, 1326.0], [1060.0, 1159.0], [70.0, 127.0], [990.0, 1032.0], [64.0, 31.0], [926.0, 1001.0], [875.0, 976.0], [32.0, 12.0], [843.0, 964.0], [36.0, 88.0], [807.0, 876.0], [771.0, 800.0], [729.0, 791.0], [328.0, 292.0], [272.0, 272.0], [239.0, 201.0], [33.0, 71.0], [56.0, 20.0], [401.0, 499.0], [94.0, 206.0], [307.0, 293.0], [42.0, 9.0], [36.0, 76.0], [51.0, 25.0], [38.0, 5.0], [13.0, 20.0], [84.0, 167.0], [32.0, 107.0], [24.0, 21.0], [8.0, 86.0], [52.0, 60.0], [479.0, 338.0], [124.0, 165.0], [26.0, 73.0], [8.0, 61.0], [18.0, 12.0], [98.0, 92.0], [355.0, 173.0], [355.0, 164.0], [0.0, 9.0], [954.0, 1464.0], [123.0, 343.0], [107.0, 336.0], [16.0, 7.0], [831.0, 1121.0], [724.0, 1054.0], [176.0, 390.0], [548.0, 664.0], [99.0, 200.0], [449.0, 464.0], [305.0, 248.0], [301.0, 228.0], [73.0, 94.0], [228.0, 134.0], [4.0, 20.0], [144.0, 216.0], [107.0, 67.0]]}, {"children_left": [1, 2, -1, 4, 5, -1, -1, 8, -1, 10, 11, 12, -1, 14, -1, -1, -1, -1, 19, 20, 21, 22, -1, -1, -1, 26, 27, -1, -1, 30, 31, 32, -1, 34, -1, -1, 37, 38, -1, -1, -1, -1, 43, 44, -1, 46, 47, -1, 49, -1, -1, -1, 53, 54, 55, 56, -1, -1, 59, 60, -1, 62, 63, -1, -1, -1, 67, -1, 69, -1, -1, -1, 73, 74, 75, -1, -1, -1, -1], "children_right": [18, 3, -1, 7, 6, -1, -1, 9, -1, 17, 16, 13, -1, 15, -1, -1, -1, -1, 42, 25, 24, 23, -1, -1, -1, 29, 28, -1, -1, 41, 36, 33, -1, 35, -1, -1, 40, 39, -1, -1, -1, -1, 52, 45, -1, 51, 48, -1, 50, -1, -1, -1, 72, 71, 58, 57, -1, -1, 66, 61, -1, 65, 64, -1, -1, -1, 68, -1, 70, -1, -1, -1, 78, 77, 76, -1, -1, -1, -1], "threshold": [20.324999809265137, 2.6450001001358032, -2.0, 27.5, 19.5, -2.0, -2.0, 136.5, -2.0, 91.5, 8.25, 1001.5, -2.0, -33.5, -2.0, -2.0, -2.0, -2.0, -20.5, 26.5, 6.440000057220459, 21.94499969482422, -2.0, -2.0, -2.0, 82.5, 4.325000047683716, -2.0, -2.0, 8.525000095367432, 171.5, 22.619999885559082, -2.0, -34.5, -2.0, -2.0, 25.074999809265137, 36.5, -2.0, -2.0, -2.0, -2.0, 29.5, 3.084999918937683, -2.0, 101.5, -2.0, -2.0, 0.39000000059604645, -2.0, -2.0, -2.0, 41.5, 24.045000076293945, 23.27500057220459, 51.0, -2.0, -2.0, -82.5, 33.5, -2.0, 88.5, 18.47499942779541, -2.0, -2.0, -2.0, -0.5, -2.0, 36.5, -2.0, -2.0, -2.0, 40.5, 7.815000057220459, 49.5, -2.0, -2.0, -2.0, -2.0], "feature": [2, 3, -2, 5, 5, -2, -2, 9, -2, 5, 8, 7, -2, 0, -2, -2, -2, -2, 0, 1, 3, 2, -2, -2, -2, 9, 3, -2, -2, 3, 9, 2, -2, 0, -2, -2, 2, 5, -2, -2, -2, -2, 0, 3, -2, 1, 0, -2, 4, -2, -2, -2, 0, 8, 2, 6, -2, -2, 1, 0, -2, 9, 8, -2, -2, -2, 1, -2, 5, -2, -2, -2, 6, 8, 0, -2, -2, -2, -2], "classes": [0, 1], "value": [[4794.0, 4969.0], [1891.0, 1366.0], [116.0, 171.0], [1775.0, 1195.0], [14.0, 34.0], [11.0, 3.0], [3.0, 31.0], [1761.0, 1161.0], [1132.0, 660.0], [629.0, 501.0], [583.0, 490.0], [316.0, 211.0], [4.0, 18.0], [312.0, 193.0], [62.0, 8.0], [250.0, 185.0], [267.0, 279.0], [46.0, 11.0], [2903.0, 3603.0], [613.0, 474.0], [46.0, 89.0], [22.0, 78.0], [11.0, 0.0], [11.0, 78.0], [24.0, 11.0], [567.0, 385.0], [91.0, 133.0], [8.0, 46.0], [83.0, 87.0], [476.0, 252.0], [412.0, 241.0], [240.0, 174.0], [39.0, 8.0], [201.0, 166.0], [52.0, 79.0], [149.0, 87.0], [172.0, 67.0], [71.0, 52.0], [5.0, 19.0], [66.0, 33.0], [101.0, 15.0], [64.0, 11.0], [2290.0, 3129.0], [605.0, 1180.0], [98.0, 336.0], [507.0, 844.0], [227.0, 488.0], [7.0, 64.0], [220.0, 424.0], [129.0, 174.0], [91.0, 250.0], [280.0, 356.0], [1685.0, 1949.0], [877.0, 831.0], [861.0, 830.0], [124.0, 205.0], [49.0, 146.0], [75.0, 59.0], [737.0, 625.0], [309.0, 328.0], [48.0, 114.0], [261.0, 214.0], [77.0, 30.0], [73.0, 17.0], [4.0, 13.0], [184.0, 184.0], [428.0, 297.0], [269.0, 145.0], [159.0, 152.0], [37.0, 71.0], [122.0, 81.0], [16.0, 1.0], [808.0, 1118.0], [438.0, 517.0], [34.0, 86.0], [17.0, 80.0], [17.0, 6.0], [404.0, 431.0], [370.0, 601.0]]}, {"children_left": [1, 2, 3, 4, -1, -1, 7, 8, -1, 10, 11, -1, -1, -1, 15, -1, 17, -1, -1, -1, 21, 22, 23, 24, -1, 26, 27, 28, -1, -1, 31, 32, 33, -1, 35, -1, -1, -1, -1, -1, -1, 42, 43, -1, 45, -1, -1, 48, -1, 50, -1, -1, 53, 54, -1, 56, -1, -1, 59, -1, 61, 62, 63, 64, -1, -1, -1, 68, -1, 70, -1, 72, -1, 74, -1, 76, -1, 78, -1, -1, -1], "children_right": [20, 19, 6, 5, -1, -1, 14, 9, -1, 13, 12, -1, -1, -1, 16, -1, 18, -1, -1, -1, 52, 41, 40, 25, -1, 39, 30, 29, -1, -1, 38, 37, 34, -1, 36, -1, -1, -1, -1, -1, -1, 47, 44, -1, 46, -1, -1, 49, -1, 51, -1, -1, 58, 55, -1, 57, -1, -1, 60, -1, 80, 67, 66, 65, -1, -1, -1, 69, -1, 71, -1, 73, -1, 75, -1, 77, -1, 79, -1, -1, -1], "threshold": [19.414999961853027, 233.5, 13.5, 33.5, -2.0, -2.0, 106.5, -1.800000011920929, -2.0, 19.144999504089355, 24.5, -2.0, -2.0, -2.0, 49.5, -2.0, 157.5, -2.0, -2.0, -2.0, 73.5, 109.5, 217.5, 24.5, -2.0, 18.324999809265137, 104.5, 17.5, -2.0, -2.0, 17.81999969482422, 0.3050000071525574, 49.5, -2.0, 125.5, -2.0, -2.0, -2.0, -2.0, -2.0, -2.0, 98.5, 4.1600000858306885, -2.0, -30.5, -2.0, -2.0, 58.5, -2.0, 3.1500000953674316, -2.0, -2.0, 24.054999351501465, 2.9550000429153442, -2.0, 19.09000015258789, -2.0, -2.0, 9.054999828338623, -2.0, 33.02000045776367, 3.584999918937683, 12.0, 24.204999923706055, -2.0, -2.0, -2.0, 24.5649995803833, -2.0, 3.8049999475479126, -2.0, 103.5, -2.0, 4.340000152587891, -2.0, -34.5, -2.0, 23.489999771118164, -2.0, -2.0, -2.0], "feature": [2, 9, 1, 0, -2, -2, 9, 8, -2, 2, 9, -2, -2, -2, 0, -2, 9, -2, -2, -2, 6, 1, 9, 0, -2, 8, 9, 1, -2, -2, 8, 4, 0, -2, 9, -2, -2, -2, -2, -2, -2, 9, 3, -2, 0, -2, -2, 5, -2, 3, -2, -2, 2, 3, -2, 8, -2, -2, 8, -2, 2, 3, 0, 8, -2, -2, -2, 2, -2, 3, -2, 1, -2, 3, -2, 0, -2, 8, -2, -2, -2], "classes": [0, 1], "value": [[4845.0, 4918.0], [1701.0, 1136.0], [1317.0, 761.0], [966.0, 476.0], [24.0, 40.0], [942.0, 436.0], [351.0, 285.0], [236.0, 248.0], [4.0, 27.0], [232.0, 221.0], [215.0, 219.0], [82.0, 31.0], [133.0, 188.0], [17.0, 2.0], [115.0, 37.0], [100.0, 16.0], [15.0, 21.0], [13.0, 1.0], [2.0, 20.0], [384.0, 375.0], [3144.0, 3782.0], [2217.0, 2304.0], [1685.0, 1905.0], [1563.0, 1656.0], [150.0, 271.0], [1413.0, 1385.0], [1161.0, 1216.0], [413.0, 327.0], [338.0, 226.0], [75.0, 101.0], [748.0, 889.0], [734.0, 842.0], [484.0, 629.0], [384.0, 442.0], [100.0, 187.0], [37.0, 20.0], [63.0, 167.0], [250.0, 213.0], [14.0, 47.0], [252.0, 169.0], [122.0, 249.0], [532.0, 399.0], [127.0, 185.0], [15.0, 61.0], [112.0, 124.0], [44.0, 85.0], [68.0, 39.0], [405.0, 214.0], [277.0, 102.0], [128.0, 112.0], [12.0, 34.0], [116.0, 78.0], [927.0, 1478.0], [371.0, 440.0], [31.0, 79.0], [340.0, 361.0], [285.0, 339.0], [55.0, 22.0], [556.0, 1038.0], [61.0, 50.0], [495.0, 988.0], [487.0, 907.0], [110.0, 301.0], [45.0, 186.0], [25.0, 173.0], [20.0, 13.0], [65.0, 115.0], [377.0, 606.0], [12.0, 52.0], [365.0, 554.0], [36.0, 15.0], [329.0, 539.0], [152.0, 321.0], [177.0, 218.0], [19.0, 58.0], [158.0, 160.0], [3.0, 20.0], [155.0, 140.0], [107.0, 60.0], [48.0, 80.0], [8.0, 81.0]]}, {"children_left": [1, 2, 3, -1, 5, 6, 7, -1, 9, -1, -1, 12, -1, -1, 15, -1, 17, -1, 19, 20, 21, -1, -1, -1, -1, -1, 27, 28, 29, -1, 31, 32, -1, -1, 35, -1, -1, 38, 39, 40, -1, 42, -1, -1, -1, 46, -1, -1, 49, 50, -1, 52, 53, 54, -1, 56, -1, 58, 59, -1, -1, -1, 63, -1, 65, -1, 67, -1, -1, -1, 71, 72, 73, 74, 75, 76, 77, 78, -1, -1, -1, -1, -1, 84, -1, -1, 87, -1, 89, 90, -1, -1, -1, 94, -1, 96, -1, -1, -1], "children_right": [26, 25, 4, -1, 14, 11, 8, -1, 10, -1, -1, 13, -1, -1, 16, -1, 18, -1, 24, 23, 22, -1, -1, -1, -1, -1, 48, 37, 30, -1, 34, 33, -1, -1, 36, -1, -1, 45, 44, 41, -1, 43, -1, -1, -1, 47, -1, -1, 70, 51, -1, 69, 62, 55, -1, 57, -1, 61, 60, -1, -1, -1, 64, -1, 66, -1, 68, -1, -1, -1, 98, 93, 86, 83, 82, 81, 80, 79, -1, -1, -1, -1, -1, 85, -1, -1, 88, -1, 92, 91, -1, -1, -1, 95, -1, 97, -1, -1, -1], "threshold": [19.59500026702881, 244.5, -38.5, -2.0, 13.5, 86.5, 10.335000038146973, -2.0, 4.894999980926514, -2.0, -2.0, 17.175000190734863, -2.0, -2.0, -35.5, -2.0, -2.2200000286102295, -2.0, 210.5, 9.615000247955322, 7.004999876022339, -2.0, -2.0, -2.0, -2.0, -2.0, -19.5, 105.5, -34.5, -2.0, 25.03499984741211, 77.5, -2.0, -2.0, 152.5, -2.0, -2.0, 303.0, 162.0, 18.535000801086426, -2.0, 21.949999809265137, -2.0, -2.0, -2.0, 1011.5, -2.0, -2.0, 29.5, 3.084999918937683, -2.0, 31.739999771118164, 98.0, -1.0950000286102295, -2.0, 26.81999969482422, -2.0, 63.5, 16.46500015258789, -2.0, -2.0, -2.0, 20.5, -2.0, 83.5, -2.0, 31.00999927520752, -2.0, -2.0, -2.0, 41.5, 35.5, 12.5, -4.5, 24.045000076293945, 96.5, 33.5, -108.5, -2.0, -2.0, -2.0, -2.0, -2.0, 25.670000076293945, -2.0, -2.0, 23.5, -2.0, 31.635000228881836, 1017.5, -2.0, -2.0, -2.0, 4.569999933242798, -2.0, 7.0350000858306885, -2.0, -2.0, -2.0], "feature": [2, 9, 0, -2, 1, 6, 2, -2, 3, -2, -2, 2, -2, -2, 0, -2, 8, -2, 9, 2, 3, -2, -2, -2, -2, -2, 0, 9, 0, -2, 2, 9, -2, -2, 1, -2, -2, 9, 1, 8, -2, 8, -2, -2, -2, 7, -2, -2, 0, 3, -2, 2, 1, 8, -2, 2, -2, 5, 8, -2, -2, -2, 9, -2, 6, -2, 2, -2, -2, -2, 0, 1, 1, 1, 8, 9, 0, 1, -2, -2, -2, -2, -2, 2, -2, -2, 1, -2, 2, 7, -2, -2, -2, 8, -2, 3, -2, -2, -2], "classes": [0, 1], "value": [[4848.0, 4915.0], [1782.0, 1221.0], [1451.0, 865.0], [8.0, 25.0], [1443.0, 840.0], [1038.0, 523.0], [631.0, 251.0], [42.0, 41.0], [589.0, 210.0], [210.0, 113.0], [379.0, 97.0], [407.0, 272.0], [309.0, 167.0], [98.0, 105.0], [405.0, 317.0], [64.0, 21.0], [341.0, 296.0], [1.0, 16.0], [340.0, 280.0], [273.0, 258.0], [45.0, 13.0], [44.0, 6.0], [1.0, 7.0], [228.0, 245.0], [67.0, 22.0], [331.0, 356.0], [3066.0, 3694.0], [668.0, 474.0], [185.0, 250.0], [31.0, 83.0], [154.0, 167.0], [98.0, 71.0], [47.0, 58.0], [51.0, 13.0], [56.0, 96.0], [53.0, 62.0], [3.0, 34.0], [483.0, 224.0], [465.0, 189.0], [465.0, 178.0], [389.0, 113.0], [76.0, 65.0], [51.0, 63.0], [25.0, 2.0], [0.0, 11.0], [18.0, 35.0], [8.0, 0.0], [10.0, 35.0], [2398.0, 3220.0], [627.0, 1169.0], [105.0, 359.0], [522.0, 810.0], [446.0, 605.0], [161.0, 316.0], [21.0, 6.0], [140.0, 310.0], [75.0, 107.0], [65.0, 203.0], [53.0, 104.0], [9.0, 70.0], [44.0, 34.0], [12.0, 99.0], [285.0, 289.0], [18.0, 2.0], [267.0, 287.0], [134.0, 93.0], [133.0, 194.0], [109.0, 186.0], [24.0, 8.0], [76.0, 205.0], [1771.0, 2051.0], [901.0, 863.0], [800.0, 805.0], [688.0, 637.0], [587.0, 589.0], [574.0, 589.0], [205.0, 146.0], [25.0, 46.0], [9.0, 0.0], [16.0, 46.0], [180.0, 100.0], [369.0, 443.0], [13.0, 0.0], [101.0, 48.0], [33.0, 35.0], [68.0, 13.0], [112.0, 168.0], [0.0, 26.0], [112.0, 142.0], [106.0, 104.0], [97.0, 72.0], [9.0, 32.0], [6.0, 38.0], [101.0, 58.0], [4.0, 17.0], [97.0, 41.0], [91.0, 24.0], [6.0, 17.0], [870.0, 1188.0]]}]}