{"classes": [0, 1], "dtrees": [{"children_left": [1, 2, 3, 4, 5, 6, -1, -1, 9, -1, -1, 12, -1, 14, 15, -1, 17, 18, -1, 20, -1, -1, -1, 24, 25, -1, -1, 28, -1, -1, 31, -1, 33, -1, 35, 36, -1, 38, -1, 40, 41, 42, 43, 44, -1, -1, -1, -1, 49, 50, 51, -1, -1, -1, -1, 56, 57, -1, 59, -1, 61, -1, 63, 64, 65, -1, -1, -1, -1, 70, -1, 72, -1, -1, 75, -1, 77, -1, 79, -1, -1, 82, 83, 84, -1, 86, -1, -1, -1, 90, 91, 92, -1, -1, 95, 96, 97, 98, -1, 100, 101, -1, -1, -1, -1, 106, -1, -1, 109, 110, 111, 112, 113, 114, 115, 116, -1, 118, -1, 120, 121, 122, -1, -1, -1, -1, 127, 128, -1, 130, -1, -1, -1, -1, 135, 136, 137, -1, -1, -1, -1, 142, -1, -1, 145, 146, -1, -1, -1, 150, -1, -1, 153, 154, -1, 156, 157, -1, 159, -1, -1, -1, 163, -1, 165, 166, -1, -1, 169, -1, -1, 172, 173, 174, 175, -1, 177, 178, 179, 180, -1, -1, -1, 184, 185, 186, -1, -1, -1, -1, 191, 192, 193, 194, 195, 196, -1, 198, -1, -1, 201, 202, -1, 204, -1, -1, -1, 208, 209, 210, -1, -1, -1, 214, -1, 216, -1, 218, -1, -1, -1, -1, 223, 224, 225, -1, -1, -1, 229, 230, 231, -1, -1, -1, -1, 236, 237, 238, -1, 240, 241, -1, 243, -1, -1, -1, -1, 248, -1, 250, 251, 252, 253, 254, 255, -1, 257, 258, -1, -1, -1, -1, -1, 264, -1, -1, 267, 268, 269, 270, 271, -1, -1, -1, 275, -1, -1, 278, -1, -1, 281, 282, -1, 284, -1, 286, 287, 288, 289, -1, 291, -1, -1, -1, -1, 296, -1, -1, -1, -1, 301, 302, -1, -1, -1, 306, 307, 308, -1, 310, -1, 312, -1, -1, 315, -1, 317, -1, -1, -1, 321, 322, 323, -1, -1, 326, -1, -1, 329, 330, -1, 332, -1, 334, 335, -1, 337, 338, -1, -1, -1, 342, -1, 344, 345, -1, -1, -1, 349, -1, -1], "children_right": [320, 81, 30, 11, 8, 7, -1, -1, 10, -1, -1, 13, -1, 23, 16, -1, 22, 19, -1, 21, -1, -1, -1, 27, 26, -1, -1, 29, -1, -1, 32, -1, 34, -1, 74, 37, -1, 39, -1, 55, 48, 47, 46, 45, -1, -1, -1, -1, 54, 53, 52, -1, -1, -1, -1, 69, 58, -1, 60, -1, 62, -1, 68, 67, 66, -1, -1, -1, -1, 71, -1, 73, -1, -1, 76, -1, 78, -1, 80, -1, -1, 89, 88, 85, -1, 87, -1, -1, -1, 171, 94, 93, -1, -1, 108, 105, 104, 99, -1, 103, 102, -1, -1, -1, -1, 107, -1, -1, 152, 149, 144, 141, 134, 133, 126, 117, -1, 119, -1, 125, 124, 123, -1, -1, -1, -1, 132, 129, -1, 131, -1, -1, -1, -1, 140, 139, 138, -1, -1, -1, -1, 143, -1, -1, 148, 147, -1, -1, -1, 151, -1, -1, 162, 155, -1, 161, 158, -1, 160, -1, -1, -1, 164, -1, 168, 167, -1, -1, 170, -1, -1, 305, 300, 235, 176, -1, 190, 183, 182, 181, -1, -1, -1, 189, 188, 187, -1, -1, -1, -1, 222, 221, 220, 207, 200, 197, -1, 199, -1, -1, 206, 203, -1, 205, -1, -1, -1, 213, 212, 211, -1, -1, -1, 215, -1, 217, -1, 219, -1, -1, -1, -1, 228, 227, 226, -1, -1, -1, 234, 233, 232, -1, -1, -1, -1, 247, 246, 239, -1, 245, 242, -1, 244, -1, -1, -1, -1, 249, -1, 299, 266, 263, 262, 261, 256, -1, 260, 259, -1, -1, -1, -1, -1, 265, -1, -1, 280, 277, 274, 273, 272, -1, -1, -1, 276, -1, -1, 279, -1, -1, 298, 283, -1, 285, -1, 295, 294, 293, 290, -1, 292, -1, -1, -1, -1, 297, -1, -1, -1, -1, 304, 303, -1, -1, -1, 319, 314, 309, -1, 311, -1, 313, -1, -1, 316, -1, 318, -1, -1, -1, 328, 325, 324, -1, -1, 327, -1, -1, 348, 331, -1, 333, -1, 341, 336, -1, 340, 339, -1, -1, -1, 343, -1, 347, 346, -1, -1, -1, 350, -1, -1], "threshold": [21.855000495910645, -20.5, 101.5, -34.5, -35.5, 69.0, -2.0, -2.0, 28.8149995803833, -2.0, -2.0, 18.00999927520752, -2.0, 0.004999999888241291, -33.5, -2.0, 42.5, 4.379999876022339, -2.0, 17.5, -2.0, -2.0, -2.0, 4.920000076293945, 19.375, -2.0, -2.0, 71.5, -2.0, -2.0, -39.0, -2.0, 2.0850000381469727, -2.0, 310.0, -71.5, -2.0, 5.705000162124634, -2.0, 7.5, 140.0, 131.5, 0.019999999552965164, 5.805000066757202, -2.0, -2.0, -2.0, -2.0, 12.309999942779541, 0.029999999329447746, 57.5, -2.0, -2.0, -2.0, -2.0, 5.434999942779541, 47.5, -2.0, 1011.5, -2.0, 18.15000057220459, -2.0, 20.359999656677246, 184.5, 148.0, -2.0, -2.0, -2.0, -2.0, 15.065000057220459, -2.0, 71.0, -2.0, -2.0, -33.5, -2.0, 21.47000026702881, -2.0, -27.0, -2.0, -2.0, 19.5, 21.524999618530273, -97.5, -2.0, 90.5, -2.0, -2.0, -2.0, 103.5, -119.5, 25.114999771118164, -2.0, -2.0, 1010.5, 13.0, -78.5, 20.0, -2.0, 46.0, -89.0, -2.0, -2.0, -2.0, -2.0, 0.9950000047683716, -2.0, -2.0, 6.120000123977661, 5.944999933242798, 1026.5, 1022.5, 11.71500015258789, 5.105000019073486, 73.5, 17.5, -2.0, 41.5, -2.0, 10.625, 51.5, 64.5, -2.0, -2.0, -2.0, -2.0, 16.5, 77.5, -2.0, 24.6899995803833, -2.0, -2.0, -2.0, -2.0, 14.330000400543213, 5.764999866485596, 1.0, -2.0, -2.0, -2.0, -2.0, -85.5, -2.0, -2.0, 0.3799999952316284, 36.5, -2.0, -2.0, -2.0, -79.0, -2.0, -2.0, 40.0, -90.5, -2.0, 0.8650000095367432, -2.9800000190734863, -2.0, 48.5, -2.0, -2.0, -2.0, 91.5, -2.0, 1014.5, 51.5, -2.0, -2.0, 76.5, -2.0, -2.0, 17.5, 19.96500015258789, 21.780000686645508, 2.359999895095825, -2.0, -84.5, -117.5, 261.0, 16.734999656677246, -2.0, -2.0, -2.0, 333.0, 223.5, 72.5, -2.0, -2.0, -2.0, -2.0, 200.0, 7.5, 174.5, 1016.5, 19.640000343322754, 1005.5, -2.0, 8.360000133514404, -2.0, -2.0, 14.420000076293945, 3.649999976158142, -2.0, 9.019999980926514, -2.0, -2.0, -2.0, 5.2200000286102295, 4.545000076293945, 0.4699999988079071, -2.0, -2.0, -2.0, 33.5, -2.0, 96.0, -2.0, 64.5, -2.0, -2.0, -2.0, -2.0, 282.5, 1025.5, 15.289999961853027, -2.0, -2.0, -2.0, 52.5, 1016.5, 69.0, -2.0, -2.0, -2.0, -2.0, 113.5, 16.324999809265137, -2.8600000143051147, -2.0, 5.049999952316284, 1011.5, -2.0, -117.0, -2.0, -2.0, -2.0, -2.0, -119.5, -2.0, 52.5, -78.5, 4.914999961853027, 0.8850000202655792, 49.0, 24.5, -2.0, 4.454999923706055, 10.519999980926514, -2.0, -2.0, -2.0, -2.0, -2.0, 15.5, -2.0, -2.0, 41.5, 17.005000114440918, 11.829999923706055, -4.5, 5.824999809265137, -2.0, -2.0, -2.0, 0.07000000029802322, -2.0, -2.0, -1.5, -2.0, -2.0, 7.855000019073486, 22.1899995803833, -2.0, 2.465000033378601, -2.0, 50.5, 11.37000036239624, 10.595000267028809, 3.509999990463257, -2.0, 7.819999933242798, -2.0, -2.0, -2.0, -2.0, 55.5, -2.0, -2.0, -2.0, -2.0, -75.5, -84.5, -2.0, -2.0, -2.0, 314.5, 29.5, 121.5, -2.0, 131.5, -2.0, 81.5, -2.0, -2.0, 44.5, -2.0, 59.5, -2.0, -2.0, -2.0, -77.5, 23.5, 1015.5, -2.0, -2.0, 98.0, -2.0, -2.0, 29.5, 87.0, -2.0, 24.5, -2.0, 2.975000023841858, 13.5, -2.0, 2.524999976158142, 24.510000228881836, -2.0, -2.0, -2.0, 1004.5, -2.0, 1.5, 1010.5, -2.0, -2.0, -2.0, 33.0, -2.0, -2.0], "feature": [8, 0, 9, 0, 0, 5, -2, -2, 2, -2, -2, 2, -2, 4, 0, -2, 5, 3, -2, 5, -2, -2, -2, 3, 8, -2, -2, 9, -2, -2, 0, -2, 3, -2, 9, 1, -2, 8, -2, 6, 9, 9, 4, 3, -2, -2, -2, -2, 8, 4, 5, -2, -2, -2, -2, 3, 6, -2, 7, -2, 2, -2, 8, 9, 9, -2, -2, -2, -2, 8, -2, 1, -2, -2, 0, -2, 2, -2, 0, -2, -2, 0, 8, 1, -2, 1, -2, -2, -2, 9, 1, 2, -2, -2, 7, 1, 1, 5, -2, 6, 1, -2, -2, -2, -2, 4, -2, -2, 3, 3, 7, 7, 8, 3, 9, 9, -2, 9, -2, 8, 0, 9, -2, -2, -2, -2, 1, 9, -2, 2, -2, -2, -2, -2, 8, 3, 6, -2, -2, -2, -2, 1, -2, -2, 4, 9, -2, -2, -2, 1, -2, -2, 9, 1, -2, 4, 8, -2, 0, -2, -2, -2, 6, -2, 7, 9, -2, -2, 5, -2, -2, 1, 8, 2, 3, -2, 1, 1, 9, 2, -2, -2, -2, 9, 9, 5, -2, -2, -2, -2, 9, 1, 9, 7, 2, 7, -2, 8, -2, -2, 8, 3, -2, 8, -2, -2, -2, 3, 3, 4, -2, -2, -2, 6, -2, 6, -2, 5, -2, -2, -2, -2, 9, 7, 8, -2, -2, -2, 0, 7, 5, -2, -2, -2, -2, 9, 8, 8, -2, 3, 7, -2, 1, -2, -2, -2, -2, 1, -2, 0, 1, 3, 4, 0, 5, -2, 3, 8, -2, -2, -2, -2, -2, 5, -2, -2, 0, 8, 8, 1, 3, -2, -2, -2, 4, -2, -2, 1, -2, -2, 3, 2, -2, 3, -2, 5, 8, 8, 3, -2, 8, -2, -2, -2, -2, 6, -2, -2, -2, -2, 1, 1, -2, -2, -2, 9, 1, 9, -2, 9, -2, 5, -2, -2, 1, -2, 5, -2, -2, -2, 1, 0, 7, -2, -2, 6, -2, -2, 0, 1, -2, 9, -2, 3, 0, -2, 3, 8, -2, -2, -2, 7, -2, 0, 7, -2, -2, -2, 6, -2, -2], "classes": [0, 1], "value": [[2514.0, 2639.0], [2349.0, 2252.0], [614.0, 423.0], [175.0, 183.0], [36.0, 75.0], [22.0, 22.0], [13.0, 22.0], [9.0, 0.0], [14.0, 53.0], [8.0, 51.0], [6.0, 2.0], [139.0, 108.0], [32.0, 6.0], [107.0, 102.0], [37.0, 57.0], [2.0, 21.0], [35.0, 36.0], [30.0, 18.0], [5.0, 11.0], [25.0, 7.0], [2.0, 6.0], [23.0, 1.0], [5.0, 18.0], [70.0, 45.0], [8.0, 17.0], [3.0, 16.0], [5.0, 1.0], [62.0, 28.0], [28.0, 23.0], [34.0, 5.0], [439.0, 240.0], [1.0, 13.0], [438.0, 227.0], [3.0, 15.0], [435.0, 212.0], [406.0, 177.0], [0.0, 6.0], [406.0, 171.0], [57.0, 9.0], [349.0, 162.0], [101.0, 69.0], [29.0, 37.0], [26.0, 19.0], [25.0, 11.0], [3.0, 10.0], [22.0, 1.0], [1.0, 8.0], [3.0, 18.0], [72.0, 32.0], [36.0, 28.0], [34.0, 18.0], [33.0, 12.0], [1.0, 6.0], [2.0, 10.0], [36.0, 4.0], [248.0, 93.0], [93.0, 54.0], [33.0, 5.0], [60.0, 49.0], [28.0, 7.0], [32.0, 42.0], [13.0, 2.0], [19.0, 40.0], [15.0, 40.0], [12.0, 14.0], [5.0, 14.0], [7.0, 0.0], [3.0, 26.0], [4.0, 0.0], [155.0, 39.0], [104.0, 15.0], [51.0, 24.0], [1.0, 7.0], [50.0, 17.0], [29.0, 35.0], [14.0, 3.0], [15.0, 32.0], [7.0, 26.0], [8.0, 6.0], [8.0, 0.0], [0.0, 6.0], [1735.0, 1829.0], [67.0, 235.0], [55.0, 223.0], [9.0, 4.0], [46.0, 219.0], [17.0, 157.0], [29.0, 62.0], [12.0, 12.0], [1668.0, 1594.0], [642.0, 492.0], [56.0, 6.0], [51.0, 0.0], [5.0, 6.0], [586.0, 486.0], [92.0, 114.0], [65.0, 53.0], [35.0, 45.0], [9.0, 0.0], [26.0, 45.0], [18.0, 16.0], [6.0, 14.0], [12.0, 2.0], [8.0, 29.0], [30.0, 8.0], [27.0, 61.0], [18.0, 59.0], [9.0, 2.0], [494.0, 372.0], [336.0, 289.0], [327.0, 262.0], [314.0, 235.0], [264.0, 216.0], [157.0, 158.0], [110.0, 134.0], [83.0, 80.0], [6.0, 19.0], [77.0, 61.0], [22.0, 3.0], [55.0, 58.0], [54.0, 48.0], [53.0, 39.0], [31.0, 35.0], [22.0, 4.0], [1.0, 9.0], [1.0, 10.0], [27.0, 54.0], [27.0, 23.0], [1.0, 10.0], [26.0, 13.0], [25.0, 6.0], [1.0, 7.0], [0.0, 31.0], [47.0, 24.0], [107.0, 58.0], [61.0, 18.0], [61.0, 13.0], [0.0, 4.0], [61.0, 9.0], [0.0, 5.0], [46.0, 40.0], [50.0, 19.0], [0.0, 4.0], [50.0, 15.0], [13.0, 27.0], [8.0, 27.0], [4.0, 0.0], [4.0, 27.0], [5.0, 0.0], [9.0, 27.0], [6.0, 2.0], [3.0, 25.0], [158.0, 83.0], [24.0, 34.0], [2.0, 16.0], [22.0, 18.0], [12.0, 17.0], [9.0, 1.0], [3.0, 16.0], [0.0, 16.0], [3.0, 0.0], [10.0, 1.0], [134.0, 49.0], [105.0, 28.0], [29.0, 21.0], [3.0, 13.0], [3.0, 0.0], [0.0, 13.0], [26.0, 8.0], [8.0, 8.0], [18.0, 0.0], [1026.0, 1102.0], [865.0, 841.0], [813.0, 822.0], [423.0, 349.0], [9.0, 26.0], [414.0, 323.0], [69.0, 87.0], [32.0, 9.0], [7.0, 8.0], [0.0, 6.0], [7.0, 2.0], [25.0, 1.0], [37.0, 78.0], [32.0, 78.0], [17.0, 16.0], [16.0, 4.0], [1.0, 12.0], [15.0, 62.0], [5.0, 0.0], [345.0, 236.0], [251.0, 135.0], [205.0, 128.0], [176.0, 127.0], [139.0, 74.0], [97.0, 30.0], [11.0, 14.0], [86.0, 16.0], [4.0, 7.0], [82.0, 9.0], [42.0, 44.0], [35.0, 20.0], [0.0, 9.0], [35.0, 11.0], [0.0, 4.0], [35.0, 7.0], [7.0, 24.0], [37.0, 53.0], [11.0, 32.0], [11.0, 9.0], [2.0, 9.0], [9.0, 0.0], [0.0, 23.0], [26.0, 21.0], [1.0, 9.0], [25.0, 12.0], [19.0, 2.0], [6.0, 10.0], [0.0, 8.0], [6.0, 2.0], [29.0, 1.0], [46.0, 7.0], [94.0, 101.0], [41.0, 73.0], [33.0, 73.0], [27.0, 73.0], [6.0, 0.0], [8.0, 0.0], [53.0, 28.0], [52.0, 22.0], [20.0, 17.0], [4.0, 13.0], [16.0, 4.0], [32.0, 5.0], [1.0, 6.0], [390.0, 473.0], [69.0, 40.0], [65.0, 27.0], [0.0, 5.0], [65.0, 22.0], [38.0, 21.0], [6.0, 11.0], [32.0, 10.0], [1.0, 5.0], [31.0, 5.0], [27.0, 1.0], [4.0, 13.0], [321.0, 433.0], [38.0, 17.0], [283.0, 416.0], [280.0, 392.0], [102.0, 198.0], [68.0, 82.0], [65.0, 62.0], [65.0, 55.0], [1.0, 9.0], [64.0, 46.0], [40.0, 43.0], [14.0, 3.0], [26.0, 40.0], [24.0, 3.0], [0.0, 7.0], [3.0, 20.0], [34.0, 116.0], [7.0, 2.0], [27.0, 114.0], [178.0, 194.0], [80.0, 53.0], [50.0, 45.0], [33.0, 15.0], [10.0, 13.0], [4.0, 13.0], [6.0, 0.0], [23.0, 2.0], [17.0, 30.0], [6.0, 26.0], [11.0, 4.0], [30.0, 8.0], [30.0, 4.0], [0.0, 4.0], [98.0, 141.0], [86.0, 137.0], [0.0, 11.0], [86.0, 126.0], [3.0, 18.0], [83.0, 108.0], [46.0, 77.0], [37.0, 40.0], [23.0, 39.0], [15.0, 9.0], [8.0, 30.0], [7.0, 2.0], [1.0, 28.0], [14.0, 1.0], [9.0, 37.0], [37.0, 31.0], [22.0, 6.0], [15.0, 25.0], [12.0, 4.0], [3.0, 24.0], [52.0, 19.0], [30.0, 19.0], [26.0, 3.0], [4.0, 16.0], [22.0, 0.0], [161.0, 261.0], [133.0, 254.0], [66.0, 180.0], [6.0, 49.0], [60.0, 131.0], [15.0, 3.0], [45.0, 128.0], [41.0, 128.0], [4.0, 0.0], [67.0, 74.0], [56.0, 34.0], [11.0, 40.0], [3.0, 35.0], [8.0, 5.0], [28.0, 7.0], [165.0, 387.0], [35.0, 21.0], [3.0, 12.0], [0.0, 12.0], [3.0, 0.0], [32.0, 9.0], [30.0, 2.0], [2.0, 7.0], [130.0, 366.0], [120.0, 361.0], [5.0, 79.0], [115.0, 282.0], [4.0, 0.0], [111.0, 282.0], [27.0, 114.0], [11.0, 92.0], [16.0, 22.0], [16.0, 8.0], [16.0, 4.0], [0.0, 4.0], [0.0, 14.0], [84.0, 168.0], [15.0, 9.0], [69.0, 159.0], [30.0, 31.0], [13.0, 28.0], [17.0, 3.0], [39.0, 128.0], [10.0, 5.0], [0.0, 4.0], [10.0, 1.0]]}, {"children_left": [1, 2, 3, 4, 5, -1, 7, 8, 9, 10, -1, 12, 13, -1, -1, -1, -1, -1, 19, -1, -1, 22, 23, 24, -1, -1, -1, 28, -1, -1, 31, 32, 33, 34, 35, 36, -1, 38, -1, 40, -1, 42, -1, -1, 45, 46, 47, 48, -1, 50, 51, 52, 53, 54, 55, -1, 57, -1, -1, -1, 61, -1, 63, -1, 65, -1, -1, -1, 69, -1, 71, 72, -1, -1, -1, 76, -1, 78, -1, 80, 81, -1, -1, -1, -1, 86, -1, -1, -1, 90, 91, 92, -1, 94, 95, 96, -1, -1, -1, -1, 101, -1, 103, -1, -1, -1, 107, -1, 109, -1, 111, -1, -1, 114, 115, 116, 117, -1, -1, 120, 121, 122, 123, 124, 125, 126, -1, -1, -1, -1, -1, 132, -1, -1, -1, -1, 137, -1, -1, 140, -1, 142, 143, -1, 145, 146, -1, 148, -1, -1, -1, -1, 153, 154, 155, 156, 157, 158, 159, 160, -1, -1, -1, -1, 165, 166, 167, -1, -1, 170, -1, -1, -1, -1, 175, 176, 177, -1, -1, 180, -1, -1, 183, -1, -1, 186, -1, 188, 189, -1, -1, -1, 193, 194, 195, 196, 197, 198, -1, -1, 201, 202, -1, 204, -1, 206, 207, -1, 209, -1, -1, 212, -1, -1, 215, -1, 217, 218, 219, -1, 221, 222, 223, 224, -1, -1, 227, 228, -1, -1, -1, 232, -1, 234, -1, -1, 237, -1, -1, 240, -1, -1, 243, -1, 245, -1, 247, -1, -1, 250, -1, -1, 253, -1, -1, -1, 257, -1, -1, 260, 261, 262, -1, 264, 265, -1, -1, 268, -1, -1, 271, -1, -1, 274, 275, 276, 277, -1, -1, -1, 281, 282, 283, 284, 285, 286, 287, 288, 289, -1, -1, -1, 293, -1, -1, -1, -1, 298, 299, -1, -1, -1, 303, -1, 305, -1, 307, -1, 309, -1, -1, 312, -1, -1, -1, 316, 317, -1, 319, 320, 321, -1, -1, -1, 325, 326, -1, 328, -1, -1, 331, 332, -1, -1, -1, 336, -1, -1, 339, 340, -1, -1, 343, 344, 345, 346, -1, -1, 349, -1, 351, -1, 353, -1, -1, -1, 357, 358, 359, -1, 361, 362, 363, -1, -1, -1, -1, 368, 369, 370, -1, 372, 373, -1, -1, 376, -1, 378, 379, -1, -1, -1, 383, -1, 385, -1, -1, -1, 389, 390, 391, -1, -1, 394, -1, 396, -1, -1, 399, -1, -1], "children_right": [338, 259, 30, 21, 6, -1, 18, 17, 16, 11, -1, 15, 14, -1, -1, -1, -1, -1, 20, -1, -1, 27, 26, 25, -1, -1, -1, 29, -1, -1, 152, 113, 106, 89, 44, 37, -1, 39, -1, 41, -1, 43, -1, -1, 88, 85, 84, 49, -1, 75, 68, 67, 60, 59, 56, -1, 58, -1, -1, -1, 62, -1, 64, -1, 66, -1, -1, -1, 70, -1, 74, 73, -1, -1, -1, 77, -1, 79, -1, 83, 82, -1, -1, -1, -1, 87, -1, -1, -1, 105, 100, 93, -1, 99, 98, 97, -1, -1, -1, -1, 102, -1, 104, -1, -1, -1, 108, -1, 110, -1, 112, -1, -1, 139, 136, 119, 118, -1, -1, 135, 134, 131, 130, 129, 128, 127, -1, -1, -1, -1, -1, 133, -1, -1, -1, -1, 138, -1, -1, 141, -1, 151, 144, -1, 150, 147, -1, 149, -1, -1, -1, -1, 192, 185, 174, 173, 164, 163, 162, 161, -1, -1, -1, -1, 172, 169, 168, -1, -1, 171, -1, -1, -1, -1, 182, 179, 178, -1, -1, 181, -1, -1, 184, -1, -1, 187, -1, 191, 190, -1, -1, -1, 256, 255, 252, 249, 200, 199, -1, -1, 214, 203, -1, 205, -1, 211, 208, -1, 210, -1, -1, 213, -1, -1, 216, -1, 242, 239, 220, -1, 236, 231, 226, 225, -1, -1, 230, 229, -1, -1, -1, 233, -1, 235, -1, -1, 238, -1, -1, 241, -1, -1, 244, -1, 246, -1, 248, -1, -1, 251, -1, -1, 254, -1, -1, -1, 258, -1, -1, 273, 270, 263, -1, 267, 266, -1, -1, 269, -1, -1, 272, -1, -1, 315, 280, 279, 278, -1, -1, -1, 314, 311, 302, 297, 296, 295, 292, 291, 290, -1, -1, -1, 294, -1, -1, -1, -1, 301, 300, -1, -1, -1, 304, -1, 306, -1, 308, -1, 310, -1, -1, 313, -1, -1, -1, 335, 318, -1, 324, 323, 322, -1, -1, -1, 330, 327, -1, 329, -1, -1, 334, 333, -1, -1, -1, 337, -1, -1, 342, 341, -1, -1, 356, 355, 348, 347, -1, -1, 350, -1, 352, -1, 354, -1, -1, -1, 388, 367, 360, -1, 366, 365, 364, -1, -1, -1, -1, 387, 382, 371, -1, 375, 374, -1, -1, 377, -1, 381, 380, -1, -1, -1, 384, -1, 386, -1, -1, -1, 398, 393, 392, -1, -1, 395, -1, 397, -1, -1, 400, -1, -1], "threshold": [18.72499942779541, 107.5, 31.5, -25.5, -71.5, -2.0, 265.0, 17.3700008392334, 132.0, -63.5, -2.0, 24.72000026702881, 18.309999465942383, -2.0, -2.0, -2.0, -2.0, -2.0, 1026.0, -2.0, -2.0, 0.8949999809265137, 0.2750000059604645, 24.5, -2.0, -2.0, -2.0, 24.829999923706055, -2.0, -2.0, 20.085000038146973, 157.5, 1027.5, 16.5, 8.599999904632568, -4.724999904632568, -2.0, 39.5, -2.0, -81.0, -2.0, 18.0, -2.0, -2.0, 19.875, 19.61500072479248, 18.27500057220459, -114.5, -2.0, 72.5, 0.824999988079071, 7.305000066757202, 44.5, 63.5, 15.87000036239624, -2.0, 1019.5, -2.0, -2.0, -2.0, 0.5, -2.0, 62.5, -2.0, -3.5, -2.0, -2.0, -2.0, 0.9900000095367432, -2.0, 8.380000114440918, 42.5, -2.0, -2.0, -2.0, -90.5, -2.0, 16.535000801086426, -2.0, 6.690000057220459, 49.5, -2.0, -2.0, -2.0, -2.0, 19.664999961853027, -2.0, -2.0, -2.0, 6.359999895095825, 89.5, 0.5, -2.0, 11.069999694824219, 27.5, 17.480000495910645, -2.0, -2.0, -2.0, -2.0, 9.819999694824219, -2.0, 3.0749999284744263, -2.0, -2.0, -2.0, 42.5, -2.0, 2.524999976158142, -2.0, -6.0, -2.0, -2.0, 17.300000190734863, 333.0, -0.5549999922513962, 8.5, -2.0, -2.0, 16.11500072479248, 52.5, 5.825000047683716, 28.5, 1012.0, 19.0, 255.5, -2.0, -2.0, -2.0, -2.0, -2.0, 13.579999923706055, -2.0, -2.0, -2.0, -2.0, 48.0, -2.0, -2.0, 2.3249999284744263, -2.0, 0.5, 1009.5, -2.0, 0.7349999845027924, 174.0, -2.0, 8.865000009536743, -2.0, -2.0, -2.0, -2.0, 114.5, 17.5, -0.5, 7.164999961853027, 10.110000133514404, 6.93999981880188, 8.080000162124634, -109.5, -2.0, -2.0, -2.0, -2.0, 43.5, 0.26000000536441803, 36.5, -2.0, -2.0, 63.5, -2.0, -2.0, -2.0, -2.0, 28.925000190734863, 21.9350004196167, 99.0, -2.0, -2.0, 0.7649999856948853, -2.0, -2.0, 5.5, -2.0, -2.0, 29.5, -2.0, 7.365000009536743, 45.5, -2.0, -2.0, -2.0, 32.5, 17.97499942779541, 69.5, 1022.5, 8.260000228881836, -6.5, -2.0, -2.0, 138.5, 20.80500030517578, -2.0, 3.4000000953674316, -2.0, 27.9399995803833, 0.7849999964237213, -2.0, 69.5, -2.0, -2.0, 40.5, -2.0, -2.0, 20.43000030517578, -2.0, 16.059999465942383, 14.855000019073486, 39.5, -2.0, 0.8449999988079071, 11.920000076293945, 10.315000057220459, 0.08500000089406967, -2.0, -2.0, 1012.5, 1009.0, -2.0, -2.0, -2.0, 0.06999999843537807, -2.0, 87.5, -2.0, -2.0, 8.764999866485596, -2.0, -2.0, 28.71500015258789, -2.0, -2.0, 3.2249999046325684, -2.0, 54.5, -2.0, 25.494999885559082, -2.0, -2.0, 15.9399995803833, -2.0, -2.0, 235.5, -2.0, -2.0, -2.0, 6.710000038146973, -2.0, -2.0, 51.5, 1019.5, -33.5, -2.0, -15.0, 8.039999723434448, -2.0, -2.0, 6.5, -2.0, -2.0, 19.190000534057617, -2.0, -2.0, 5.434999942779541, 6.674999952316284, 1.9899999499320984, 0.10000000149011612, -2.0, -2.0, -2.0, 162.0, -25.0, 54.0, 298.5, 34.06999969482422, 1025.5, 134.0, 12.385000228881836, 1013.5, -2.0, -2.0, -2.0, 17.369999885559082, -2.0, -2.0, -2.0, -2.0, 22.230000495910645, 3.215000033378601, -2.0, -2.0, -2.0, 10.349999904632568, -2.0, 11.920000076293945, -2.0, 0.8349999785423279, -2.0, 106.5, -2.0, -2.0, 15.505000114440918, -2.0, -2.0, -2.0, 1022.5, 0.004999999888241291, -2.0, 6.819999933242798, 1009.5, -33.5, -2.0, -2.0, -2.0, 54.5, 30.5, -2.0, 1009.5, -2.0, -2.0, 304.5, 74.5, -2.0, -2.0, -2.0, 236.0, -2.0, -2.0, 2.8850001096725464, 13.5, -2.0, -2.0, 1007.5, 29.5, 4.8500001430511475, 20.380000114440918, -2.0, -2.0, 41.0, -2.0, 72.5, -2.0, 133.5, -2.0, -2.0, -2.0, 22.56999969482422, 0.7599999904632568, -157.0, -2.0, 34.0, 1012.5, 138.0, -2.0, -2.0, -2.0, -2.0, 209.5, 102.5, 24.0, -2.0, 81.0, 7.1499998569488525, -2.0, -2.0, 63.5, -2.0, 20.265000343322754, 19.40499973297119, -2.0, -2.0, -2.0, -30.5, -2.0, 8.5, -2.0, -2.0, -2.0, 1011.5, 29.015000343322754, 0.5200000107288361, -2.0, -2.0, 31.085000038146973, -2.0, 31.30500030517578, -2.0, -2.0, 63.5, -2.0, -2.0], "feature": [8, 1, 0, 0, 1, -2, 9, 8, 9, 1, -2, 2, 2, -2, -2, -2, -2, -2, 7, -2, -2, 4, 4, 5, -2, -2, -2, 2, -2, -2, 2, 9, 7, 1, 2, 8, -2, 0, -2, 1, -2, 9, -2, -2, 2, 2, 2, 1, -2, 5, 4, 3, 0, 9, 2, -2, 7, -2, -2, -2, 6, -2, 5, -2, 1, -2, -2, -2, 4, -2, 3, 6, -2, -2, -2, 1, -2, 2, -2, 3, 0, -2, -2, -2, -2, 2, -2, -2, -2, 3, 6, 6, -2, 8, 6, 2, -2, -2, -2, -2, 2, -2, 3, -2, -2, -2, 0, -2, 3, -2, 1, -2, -2, 2, 9, 8, 2, -2, -2, 2, 0, 8, 1, 7, 1, 9, -2, -2, -2, -2, -2, 2, -2, -2, -2, -2, 0, -2, -2, 3, -2, 1, 7, -2, 4, 9, -2, 8, -2, -2, -2, -2, 9, 1, 1, 3, 8, 3, 8, 1, -2, -2, -2, -2, 0, 4, 0, -2, -2, 5, -2, -2, -2, -2, 2, 2, 9, -2, -2, 4, -2, -2, 1, -2, -2, 1, -2, 3, 1, -2, -2, -2, 1, 8, 5, 7, 8, 1, -2, -2, 9, 2, -2, 3, -2, 2, 4, -2, 6, -2, -2, 0, -2, -2, 2, -2, 8, 8, 6, -2, 4, 8, 8, 4, -2, -2, 7, 7, -2, -2, -2, 4, -2, 6, -2, -2, 3, -2, -2, 2, -2, -2, 3, -2, 5, -2, 2, -2, -2, 8, -2, -2, 9, -2, -2, -2, 8, -2, -2, 9, 7, 0, -2, 0, 3, -2, -2, 9, -2, -2, 2, -2, -2, 3, 8, 8, 4, -2, -2, -2, 1, 0, 6, 9, 2, 7, 9, 8, 7, -2, -2, -2, 8, -2, -2, -2, -2, 2, 3, -2, -2, -2, 8, -2, 8, -2, 4, -2, 9, -2, -2, 8, -2, -2, -2, 7, 4, -2, 3, 7, 0, -2, -2, -2, 5, 5, -2, 7, -2, -2, 9, 9, -2, -2, -2, 9, -2, -2, 3, 0, -2, -2, 7, 0, 3, 8, -2, -2, 5, -2, 5, -2, 9, -2, -2, -2, 8, 4, 1, -2, 0, 7, 9, -2, -2, -2, -2, 9, 1, 0, -2, 6, 3, -2, -2, 5, -2, 8, 8, -2, -2, -2, 0, -2, 0, -2, -2, -2, 7, 2, 4, -2, -2, 2, -2, 2, -2, -2, 5, -2, -2], "classes": [0, 1], "value": [[2597.0, 2556.0], [2250.0, 1932.0], [1725.0, 1616.0], [168.0, 273.0], [93.0, 72.0], [0.0, 8.0], [93.0, 64.0], [89.0, 51.0], [89.0, 48.0], [49.0, 42.0], [21.0, 6.0], [28.0, 36.0], [9.0, 26.0], [8.0, 1.0], [1.0, 25.0], [19.0, 10.0], [40.0, 6.0], [0.0, 3.0], [4.0, 13.0], [1.0, 13.0], [3.0, 0.0], [75.0, 201.0], [51.0, 187.0], [45.0, 106.0], [3.0, 41.0], [42.0, 65.0], [6.0, 81.0], [24.0, 14.0], [19.0, 3.0], [5.0, 11.0], [1557.0, 1343.0], [799.0, 556.0], [560.0, 323.0], [543.0, 290.0], [426.0, 181.0], [28.0, 28.0], [12.0, 1.0], [16.0, 27.0], [5.0, 0.0], [11.0, 27.0], [1.0, 18.0], [10.0, 9.0], [0.0, 6.0], [10.0, 3.0], [398.0, 153.0], [371.0, 153.0], [359.0, 136.0], [272.0, 122.0], [39.0, 3.0], [233.0, 119.0], [131.0, 93.0], [105.0, 56.0], [81.0, 55.0], [22.0, 35.0], [19.0, 15.0], [5.0, 12.0], [14.0, 3.0], [14.0, 0.0], [0.0, 3.0], [3.0, 20.0], [59.0, 20.0], [0.0, 4.0], [59.0, 16.0], [50.0, 7.0], [9.0, 9.0], [6.0, 0.0], [3.0, 9.0], [24.0, 1.0], [26.0, 37.0], [9.0, 25.0], [17.0, 12.0], [6.0, 12.0], [4.0, 0.0], [2.0, 12.0], [11.0, 0.0], [102.0, 26.0], [0.0, 4.0], [102.0, 22.0], [83.0, 9.0], [19.0, 13.0], [6.0, 12.0], [5.0, 0.0], [1.0, 12.0], [13.0, 1.0], [87.0, 14.0], [12.0, 17.0], [0.0, 10.0], [12.0, 7.0], [27.0, 0.0], [117.0, 109.0], [75.0, 96.0], [55.0, 44.0], [1.0, 12.0], [54.0, 32.0], [42.0, 32.0], [24.0, 7.0], [22.0, 2.0], [2.0, 5.0], [18.0, 25.0], [12.0, 0.0], [20.0, 52.0], [5.0, 0.0], [15.0, 52.0], [9.0, 2.0], [6.0, 50.0], [42.0, 13.0], [17.0, 33.0], [5.0, 0.0], [12.0, 33.0], [5.0, 0.0], [7.0, 33.0], [0.0, 27.0], [7.0, 6.0], [239.0, 233.0], [197.0, 163.0], [156.0, 154.0], [28.0, 55.0], [26.0, 32.0], [2.0, 23.0], [128.0, 99.0], [96.0, 90.0], [93.0, 71.0], [58.0, 25.0], [54.0, 16.0], [10.0, 12.0], [4.0, 12.0], [3.0, 0.0], [1.0, 12.0], [6.0, 0.0], [44.0, 4.0], [4.0, 9.0], [35.0, 46.0], [9.0, 33.0], [26.0, 13.0], [3.0, 19.0], [32.0, 9.0], [41.0, 9.0], [40.0, 5.0], [1.0, 4.0], [42.0, 70.0], [9.0, 3.0], [33.0, 67.0], [27.0, 32.0], [1.0, 12.0], [26.0, 20.0], [16.0, 20.0], [5.0, 16.0], [11.0, 4.0], [1.0, 4.0], [10.0, 0.0], [10.0, 0.0], [6.0, 35.0], [758.0, 787.0], [325.0, 246.0], [260.0, 160.0], [182.0, 136.0], [147.0, 131.0], [66.0, 31.0], [66.0, 27.0], [31.0, 22.0], [17.0, 2.0], [14.0, 20.0], [35.0, 5.0], [0.0, 4.0], [81.0, 100.0], [69.0, 61.0], [43.0, 19.0], [7.0, 11.0], [36.0, 8.0], [26.0, 42.0], [15.0, 40.0], [11.0, 2.0], [12.0, 39.0], [35.0, 5.0], [78.0, 24.0], [74.0, 16.0], [14.0, 10.0], [13.0, 2.0], [1.0, 8.0], [60.0, 6.0], [57.0, 1.0], [3.0, 5.0], [4.0, 8.0], [0.0, 8.0], [4.0, 0.0], [65.0, 86.0], [19.0, 59.0], [46.0, 27.0], [46.0, 19.0], [46.0, 15.0], [0.0, 4.0], [0.0, 8.0], [433.0, 541.0], [408.0, 535.0], [374.0, 518.0], [365.0, 467.0], [353.0, 427.0], [88.0, 69.0], [40.0, 54.0], [48.0, 15.0], [265.0, 358.0], [76.0, 146.0], [8.0, 1.0], [68.0, 145.0], [0.0, 28.0], [68.0, 117.0], [38.0, 94.0], [21.0, 80.0], [17.0, 14.0], [14.0, 1.0], [3.0, 13.0], [30.0, 23.0], [2.0, 13.0], [28.0, 10.0], [189.0, 212.0], [0.0, 10.0], [189.0, 202.0], [160.0, 146.0], [122.0, 137.0], [73.0, 56.0], [49.0, 81.0], [37.0, 77.0], [27.0, 31.0], [6.0, 21.0], [6.0, 3.0], [0.0, 18.0], [21.0, 10.0], [5.0, 9.0], [5.0, 1.0], [0.0, 8.0], [16.0, 1.0], [10.0, 46.0], [2.0, 36.0], [8.0, 10.0], [8.0, 1.0], [0.0, 9.0], [12.0, 4.0], [12.0, 1.0], [0.0, 3.0], [38.0, 9.0], [33.0, 1.0], [5.0, 8.0], [29.0, 56.0], [6.0, 1.0], [23.0, 55.0], [5.0, 32.0], [18.0, 23.0], [7.0, 21.0], [11.0, 2.0], [12.0, 40.0], [7.0, 39.0], [5.0, 1.0], [9.0, 51.0], [6.0, 51.0], [3.0, 0.0], [34.0, 17.0], [25.0, 6.0], [0.0, 3.0], [25.0, 3.0], [525.0, 316.0], [59.0, 91.0], [21.0, 61.0], [4.0, 46.0], [17.0, 15.0], [13.0, 3.0], [13.0, 0.0], [0.0, 3.0], [4.0, 12.0], [3.0, 0.0], [1.0, 12.0], [38.0, 30.0], [28.0, 6.0], [10.0, 24.0], [466.0, 225.0], [207.0, 142.0], [54.0, 17.0], [5.0, 12.0], [0.0, 12.0], [5.0, 0.0], [49.0, 5.0], [153.0, 125.0], [141.0, 125.0], [112.0, 120.0], [77.0, 53.0], [71.0, 38.0], [71.0, 31.0], [71.0, 26.0], [24.0, 19.0], [7.0, 15.0], [0.0, 12.0], [7.0, 3.0], [17.0, 4.0], [47.0, 7.0], [47.0, 4.0], [0.0, 3.0], [0.0, 5.0], [0.0, 7.0], [6.0, 15.0], [3.0, 15.0], [3.0, 0.0], [0.0, 15.0], [3.0, 0.0], [35.0, 67.0], [2.0, 23.0], [33.0, 44.0], [10.0, 1.0], [23.0, 43.0], [9.0, 35.0], [14.0, 8.0], [0.0, 7.0], [14.0, 1.0], [29.0, 5.0], [26.0, 0.0], [3.0, 5.0], [12.0, 0.0], [259.0, 83.0], [250.0, 71.0], [115.0, 15.0], [135.0, 56.0], [87.0, 15.0], [15.0, 10.0], [4.0, 9.0], [11.0, 1.0], [72.0, 5.0], [48.0, 41.0], [21.0, 32.0], [8.0, 0.0], [13.0, 32.0], [12.0, 12.0], [1.0, 20.0], [27.0, 9.0], [27.0, 5.0], [1.0, 4.0], [26.0, 1.0], [0.0, 4.0], [9.0, 12.0], [0.0, 8.0], [9.0, 4.0], [347.0, 624.0], [43.0, 191.0], [14.0, 125.0], [29.0, 66.0], [304.0, 433.0], [56.0, 39.0], [36.0, 37.0], [16.0, 4.0], [0.0, 3.0], [16.0, 1.0], [20.0, 33.0], [7.0, 0.0], [13.0, 33.0], [1.0, 25.0], [12.0, 8.0], [10.0, 0.0], [2.0, 8.0], [20.0, 2.0], [248.0, 394.0], [175.0, 215.0], [81.0, 141.0], [8.0, 1.0], [73.0, 140.0], [48.0, 123.0], [35.0, 51.0], [23.0, 9.0], [12.0, 42.0], [13.0, 72.0], [25.0, 17.0], [94.0, 74.0], [73.0, 72.0], [46.0, 63.0], [1.0, 30.0], [45.0, 33.0], [10.0, 17.0], [5.0, 17.0], [5.0, 0.0], [35.0, 16.0], [15.0, 1.0], [20.0, 15.0], [7.0, 13.0], [6.0, 1.0], [1.0, 12.0], [13.0, 2.0], [27.0, 9.0], [1.0, 5.0], [26.0, 4.0], [26.0, 1.0], [0.0, 3.0], [21.0, 2.0], [73.0, 179.0], [39.0, 139.0], [19.0, 31.0], [5.0, 0.0], [14.0, 31.0], [20.0, 108.0], [7.0, 79.0], [13.0, 29.0], [8.0, 1.0], [5.0, 28.0], [34.0, 40.0], [11.0, 0.0], [23.0, 40.0]]}, {"children_left": [1, 2, 3, -1, -1, 6, 7, 8, 9, 10, 11, 12, -1, 14, 15, 16, -1, -1, 19, -1, -1, -1, 23, -1, -1, 26, 27, 28, 29, 30, -1, 32, 33, 34, -1, -1, -1, -1, 39, -1, 41, 42, 43, -1, -1, 46, 47, -1, 49, -1, 51, 52, 53, -1, -1, -1, 57, -1, -1, -1, 61, -1, 63, 64, -1, 66, -1, 68, -1, 70, -1, -1, -1, 74, 75, 76, 77, -1, -1, -1, -1, 82, 83, -1, -1, 86, -1, -1, 89, 90, 91, -1, 93, 94, -1, -1, 97, 98, -1, -1, 101, -1, -1, -1, -1, 106, 107, 108, 109, 110, -1, 112, -1, 114, -1, -1, 117, -1, 119, -1, -1, -1, -1, 124, -1, -1, 127, 128, 129, -1, -1, -1, -1, -1, 135, 136, 137, 138, -1, 140, -1, -1, 143, -1, -1, -1, 147, -1, 149, 150, 151, 152, 153, -1, -1, 156, -1, 158, 159, -1, -1, -1, -1, 164, -1, -1, 167, 168, -1, -1, -1, 172, 173, 174, 175, 176, -1, 178, 179, -1, -1, -1, 183, -1, 185, 186, -1, 188, 189, -1, -1, -1, -1, 194, -1, 196, -1, -1, 199, 200, 201, -1, 203, -1, 205, -1, -1, 208, 209, 210, 211, -1, -1, -1, -1, -1, 217, 218, -1, -1, -1, 222, 223, -1, -1, -1, 227, 228, -1, 230, 231, -1, 233, -1, 235, 236, 237, -1, -1, 240, 241, -1, 243, -1, -1, -1, -1, 248, 249, 250, -1, -1, 253, -1, -1, 256, 257, 258, 259, -1, 261, -1, 263, -1, -1, -1, -1, 268, 269, 270, 271, 272, 273, 274, -1, -1, 277, -1, 279, -1, -1, 282, -1, -1, -1, -1, 287, 288, -1, 290, -1, -1, 293, 294, 295, 296, -1, 298, -1, -1, -1, -1, 303, 304, 305, -1, -1, -1, -1, 310, -1, -1, 313, 314, 315, -1, 317, 318, 319, -1, -1, 322, -1, 324, 325, 326, 327, -1, -1, 330, 331, -1, -1, 334, 335, -1, 337, 338, -1, -1, -1, -1, 343, -1, 345, -1, -1, 348, -1, -1, 351, -1, 353, -1, 355, 356, -1, -1, -1, 360, -1, 362, -1, -1, 365, -1, 367, -1, -1], "children_right": [226, 5, 4, -1, -1, 171, 134, 133, 126, 25, 22, 13, -1, 21, 18, 17, -1, -1, 20, -1, -1, -1, 24, -1, -1, 105, 88, 73, 38, 31, -1, 37, 36, 35, -1, -1, -1, -1, 40, -1, 60, 45, 44, -1, -1, 59, 48, -1, 50, -1, 56, 55, 54, -1, -1, -1, 58, -1, -1, -1, 62, -1, 72, 65, -1, 67, -1, 69, -1, 71, -1, -1, -1, 81, 80, 79, 78, -1, -1, -1, -1, 85, 84, -1, -1, 87, -1, -1, 104, 103, 92, -1, 96, 95, -1, -1, 100, 99, -1, -1, 102, -1, -1, -1, -1, 123, 122, 121, 116, 111, -1, 113, -1, 115, -1, -1, 118, -1, 120, -1, -1, -1, -1, 125, -1, -1, 132, 131, 130, -1, -1, -1, -1, -1, 146, 145, 142, 139, -1, 141, -1, -1, 144, -1, -1, -1, 148, -1, 166, 163, 162, 155, 154, -1, -1, 157, -1, 161, 160, -1, -1, -1, -1, 165, -1, -1, 170, 169, -1, -1, -1, 221, 198, 193, 182, 177, -1, 181, 180, -1, -1, -1, 184, -1, 192, 187, -1, 191, 190, -1, -1, -1, -1, 195, -1, 197, -1, -1, 216, 207, 202, -1, 204, -1, 206, -1, -1, 215, 214, 213, 212, -1, -1, -1, -1, -1, 220, 219, -1, -1, -1, 225, 224, -1, -1, -1, 312, 229, -1, 247, 232, -1, 234, -1, 246, 239, 238, -1, -1, 245, 242, -1, 244, -1, -1, -1, -1, 255, 252, 251, -1, -1, 254, -1, -1, 267, 266, 265, 260, -1, 262, -1, 264, -1, -1, -1, -1, 309, 286, 285, 284, 281, 276, 275, -1, -1, 278, -1, 280, -1, -1, 283, -1, -1, -1, -1, 292, 289, -1, 291, -1, -1, 302, 301, 300, 297, -1, 299, -1, -1, -1, -1, 308, 307, 306, -1, -1, -1, -1, 311, -1, -1, 364, 359, 316, -1, 350, 321, 320, -1, -1, 323, -1, 347, 342, 329, 328, -1, -1, 333, 332, -1, -1, 341, 336, -1, 340, 339, -1, -1, -1, -1, 344, -1, 346, -1, -1, 349, -1, -1, 352, -1, 354, -1, 358, 357, -1, -1, -1, 361, -1, 363, -1, -1, 366, -1, 368, -1, -1], "threshold": [25.074999809265137, -119.5, 1.8050000071525574, -2.0, -2.0, 213.5, 6.3450000286102295, 58.0, 6.144999980926514, 52.5, 1023.5, -108.5, -2.0, 83.5, 46.5, 5.754999876022339, -2.0, -2.0, 4.875, -2.0, -2.0, -2.0, 79.0, -2.0, -2.0, 29.5, 17.5, -0.5, 17.789999961853027, 1015.5, -2.0, 53.5, 203.0, 59.0, -2.0, -2.0, -2.0, -2.0, 1.4399999976158142, -2.0, 70.5, 19.0, -40.0, -2.0, -2.0, -2.5, 20.109999656677246, -2.0, 3.2699999809265137, -2.0, -74.5, -86.0, 1009.5, -2.0, -2.0, -2.0, 45.5, -2.0, -2.0, -2.0, 0.925000011920929, -2.0, 1017.0, 98.5, -2.0, -79.5, -2.0, 1010.5, -2.0, 19.40499973297119, -2.0, -2.0, -2.0, 120.0, 83.5, 50.5, 4.565000057220459, -2.0, -2.0, -2.0, -2.0, 10.884999752044678, 7.625, -2.0, -2.0, 201.5, -2.0, -2.0, 80.5, 209.5, 43.5, -2.0, 8.71500015258789, 4.269999980926514, -2.0, -2.0, 22.6899995803833, 96.0, -2.0, -2.0, 22.975000381469727, -2.0, -2.0, -2.0, -2.0, 98.5, 1026.0, 150.5, 0.39000000059604645, -39.5, -2.0, 5.670000076293945, -2.0, 22.875, -2.0, -2.0, 34.0, -2.0, 83.0, -2.0, -2.0, -2.0, -2.0, -35.5, -2.0, -2.0, 1020.0, 0.9950000047683716, 24.505000114440918, -2.0, -2.0, -2.0, -2.0, -2.0, 26.5, 47.0, 1013.5, 0.9699999988079071, -2.0, 88.0, -2.0, -2.0, 1023.0, -2.0, -2.0, -2.0, 6.640000104904175, -2.0, 13.889999866485596, 9.324999809265137, 9.244999885559082, -77.5, 43.5, -2.0, -2.0, -0.5, -2.0, 8.59000015258789, 37.5, -2.0, -2.0, -2.0, -2.0, 1020.5, -2.0, -2.0, 7.980000019073486, 22.100000381469727, -2.0, -2.0, -2.0, 82.5, 17.335000038146973, 29.5, -72.5, 1.5950000286102295, -2.0, -84.5, 7.06000018119812, -2.0, -2.0, -2.0, 231.5, -2.0, 329.5, 39.5, -2.0, 16.5, 2.165000081062317, -2.0, -2.0, -2.0, -2.0, 8.875, -2.0, 16.15999984741211, -2.0, -2.0, 1023.5, 86.0, 19.91999912261963, -2.0, 1010.5, -2.0, 6.4750001430511475, -2.0, -2.0, 74.0, 22.385000228881836, 0.5249999761581421, 39.5, -2.0, -2.0, -2.0, -2.0, -2.0, 6.244999885559082, 1.4350000023841858, -2.0, -2.0, -2.0, 1012.5, 11.65999984741211, -2.0, -2.0, -2.0, 16.96500015258789, 20.5, -2.0, -25.5, 32.5, -2.0, 3.8950001001358032, -2.0, 1011.5, 13.085000038146973, 89.0, -2.0, -2.0, 33.19500160217285, 4.0, -2.0, 6.674999952316284, -2.0, -2.0, -2.0, -2.0, 28.5, 1015.5, 8.535000324249268, -2.0, -2.0, 0.04499999899417162, -2.0, -2.0, 26.824999809265137, 1019.5, 7.059999942779541, 3.615000009536743, -2.0, 45.5, -2.0, 115.0, -2.0, -2.0, -2.0, -2.0, 185.5, 4.355000019073486, 171.5, 50.5, 13.055000305175781, 31.5, 1009.5, -2.0, -2.0, 26.960000038146973, -2.0, 159.0, -2.0, -2.0, 3.1850000619888306, -2.0, -2.0, -2.0, -2.0, 114.5, -0.5, -2.0, 43.5, -2.0, -2.0, 144.5, 137.5, 4.0, 4.9649999141693115, -2.0, 7.379999876022339, -2.0, -2.0, -2.0, -2.0, 36.5, 1012.5, 0.9550000131130219, -2.0, -2.0, -2.0, -2.0, 23.5, -2.0, -2.0, 1014.5, 148.5, 2.4600000381469727, -2.0, 34.5, 103.5, 40.29999923706055, -2.0, -2.0, 1004.5, -2.0, 93.5, 24.045000076293945, 21.604999542236328, 6.0, -2.0, -2.0, 57.0, 0.75, -2.0, -2.0, 17.0, 30.550000190734863, -2.0, 181.5, 3.09499990940094, -2.0, -2.0, -2.0, -2.0, 63.5, -2.0, 334.5, -2.0, -2.0, 25.395000457763672, -2.0, -2.0, 36.5, -2.0, -73.5, -2.0, 31.535000801086426, 17.829999923706055, -2.0, -2.0, -2.0, 28.585000038146973, -2.0, 4.984999895095825, -2.0, -2.0, 17.375, -2.0, 7.440000057220459, -2.0, -2.0], "feature": [2, 1, 3, -2, -2, 9, 3, 0, 3, 9, 7, 1, -2, 5, 0, 3, -2, -2, 3, -2, -2, -2, 1, -2, -2, 1, 1, 1, 2, 7, -2, 0, 9, 9, -2, -2, -2, -2, 8, -2, 5, 2, 1, -2, -2, 1, 2, -2, 3, -2, 1, 1, 7, -2, -2, -2, 0, -2, -2, -2, 4, -2, 7, 6, -2, 1, -2, 7, -2, 8, -2, -2, -2, 9, 9, 0, 3, -2, -2, -2, -2, 8, 8, -2, -2, 9, -2, -2, 5, 9, 0, -2, 8, 3, -2, -2, 2, 9, -2, -2, 2, -2, -2, -2, -2, 6, 7, 1, 4, 0, -2, 3, -2, 2, -2, -2, 1, -2, 6, -2, -2, -2, -2, 0, -2, -2, 7, 4, 2, -2, -2, -2, -2, -2, 9, 0, 7, 4, -2, 5, -2, -2, 7, -2, -2, -2, 3, -2, 8, 8, 8, 1, 0, -2, -2, 1, -2, 3, 6, -2, -2, -2, -2, 7, -2, -2, 3, 2, -2, -2, -2, 5, 2, 1, 1, 2, -2, 1, 2, -2, -2, -2, 9, -2, 9, 0, -2, 6, 3, -2, -2, -2, -2, 2, -2, 2, -2, -2, 7, 1, 2, -2, 7, -2, 8, -2, -2, 5, 2, 4, 5, -2, -2, -2, -2, -2, 3, 3, -2, -2, -2, 7, 2, -2, -2, -2, 8, 9, -2, 0, 5, -2, 3, -2, 7, 8, 9, -2, -2, 2, 6, -2, 3, -2, -2, -2, -2, 0, 7, 3, -2, -2, 4, -2, -2, 2, 7, 3, 3, -2, 0, -2, 9, -2, -2, -2, -2, 9, 3, 9, 0, 8, 5, 7, -2, -2, 2, -2, 9, -2, -2, 3, -2, -2, -2, -2, 9, 1, -2, 0, -2, -2, 9, 9, 1, 3, -2, 3, -2, -2, -2, -2, 5, 7, 4, -2, -2, -2, -2, 6, -2, -2, 7, 1, 3, -2, 0, 1, 2, -2, -2, 7, -2, 6, 8, 8, 6, -2, -2, 6, 4, -2, -2, 0, 2, -2, 9, 3, -2, -2, -2, -2, 5, -2, 9, -2, -2, 8, -2, -2, 0, -2, 1, -2, 2, 8, -2, -2, -2, 2, -2, 3, -2, -2, 8, -2, 3, -2, -2], "classes": [0, 1], "value": [[2620.0, 2533.0], [1692.0, 1329.0], [78.0, 23.0], [1.0, 8.0], [77.0, 15.0], [1614.0, 1306.0], [1274.0, 948.0], [876.0, 740.0], [872.0, 719.0], [846.0, 674.0], [121.0, 147.0], [88.0, 130.0], [7.0, 0.0], [81.0, 130.0], [67.0, 123.0], [50.0, 112.0], [40.0, 108.0], [10.0, 4.0], [17.0, 11.0], [17.0, 1.0], [0.0, 10.0], [14.0, 7.0], [33.0, 17.0], [27.0, 6.0], [6.0, 11.0], [725.0, 527.0], [549.0, 457.0], [496.0, 363.0], [306.0, 269.0], [102.0, 55.0], [45.0, 7.0], [57.0, 48.0], [36.0, 41.0], [21.0, 39.0], [8.0, 1.0], [13.0, 38.0], [15.0, 2.0], [21.0, 7.0], [204.0, 214.0], [2.0, 19.0], [202.0, 195.0], [161.0, 122.0], [6.0, 19.0], [1.0, 17.0], [5.0, 2.0], [155.0, 103.0], [143.0, 80.0], [23.0, 3.0], [120.0, 77.0], [25.0, 5.0], [95.0, 72.0], [53.0, 56.0], [36.0, 18.0], [3.0, 8.0], [33.0, 10.0], [17.0, 38.0], [42.0, 16.0], [40.0, 10.0], [2.0, 6.0], [12.0, 23.0], [41.0, 73.0], [6.0, 39.0], [35.0, 34.0], [25.0, 33.0], [11.0, 3.0], [14.0, 30.0], [0.0, 14.0], [14.0, 16.0], [10.0, 4.0], [4.0, 12.0], [4.0, 0.0], [0.0, 12.0], [10.0, 1.0], [190.0, 94.0], [112.0, 32.0], [36.0, 22.0], [16.0, 17.0], [13.0, 4.0], [3.0, 13.0], [20.0, 5.0], [76.0, 10.0], [78.0, 62.0], [30.0, 42.0], [14.0, 2.0], [16.0, 40.0], [48.0, 20.0], [48.0, 16.0], [0.0, 4.0], [53.0, 94.0], [42.0, 91.0], [38.0, 91.0], [2.0, 26.0], [36.0, 65.0], [16.0, 10.0], [4.0, 9.0], [12.0, 1.0], [20.0, 55.0], [5.0, 35.0], [4.0, 2.0], [1.0, 33.0], [15.0, 20.0], [9.0, 2.0], [6.0, 18.0], [4.0, 0.0], [11.0, 3.0], [176.0, 70.0], [145.0, 41.0], [144.0, 38.0], [88.0, 34.0], [71.0, 17.0], [0.0, 3.0], [71.0, 14.0], [60.0, 6.0], [11.0, 8.0], [11.0, 0.0], [0.0, 8.0], [17.0, 17.0], [10.0, 1.0], [7.0, 16.0], [0.0, 12.0], [7.0, 4.0], [56.0, 4.0], [1.0, 3.0], [31.0, 29.0], [11.0, 0.0], [20.0, 29.0], [26.0, 45.0], [16.0, 43.0], [11.0, 43.0], [6.0, 43.0], [5.0, 0.0], [5.0, 0.0], [10.0, 2.0], [4.0, 21.0], [398.0, 208.0], [36.0, 44.0], [27.0, 44.0], [10.0, 32.0], [1.0, 22.0], [9.0, 10.0], [9.0, 3.0], [0.0, 7.0], [17.0, 12.0], [17.0, 3.0], [0.0, 9.0], [9.0, 0.0], [362.0, 164.0], [60.0, 10.0], [302.0, 154.0], [252.0, 93.0], [120.0, 62.0], [120.0, 57.0], [30.0, 29.0], [30.0, 19.0], [0.0, 10.0], [90.0, 28.0], [39.0, 3.0], [51.0, 25.0], [34.0, 23.0], [25.0, 5.0], [9.0, 18.0], [17.0, 2.0], [0.0, 5.0], [132.0, 31.0], [129.0, 23.0], [3.0, 8.0], [50.0, 61.0], [39.0, 30.0], [27.0, 10.0], [12.0, 20.0], [11.0, 31.0], [340.0, 358.0], [282.0, 333.0], [176.0, 144.0], [96.0, 112.0], [48.0, 28.0], [1.0, 8.0], [47.0, 20.0], [16.0, 17.0], [8.0, 0.0], [8.0, 17.0], [31.0, 3.0], [48.0, 84.0], [8.0, 1.0], [40.0, 83.0], [27.0, 74.0], [0.0, 21.0], [27.0, 53.0], [4.0, 28.0], [4.0, 2.0], [0.0, 26.0], [23.0, 25.0], [13.0, 9.0], [80.0, 32.0], [0.0, 9.0], [80.0, 23.0], [67.0, 7.0], [13.0, 16.0], [106.0, 189.0], [90.0, 133.0], [44.0, 89.0], [4.0, 39.0], [40.0, 50.0], [8.0, 0.0], [32.0, 50.0], [10.0, 2.0], [22.0, 48.0], [46.0, 44.0], [46.0, 35.0], [25.0, 30.0], [16.0, 29.0], [6.0, 0.0], [10.0, 29.0], [9.0, 1.0], [21.0, 5.0], [0.0, 9.0], [16.0, 56.0], [8.0, 54.0], [4.0, 0.0], [4.0, 54.0], [8.0, 2.0], [58.0, 25.0], [13.0, 19.0], [13.0, 8.0], [0.0, 11.0], [45.0, 6.0], [928.0, 1204.0], [580.0, 521.0], [0.0, 35.0], [580.0, 486.0], [174.0, 82.0], [92.0, 23.0], [82.0, 59.0], [2.0, 10.0], [80.0, 49.0], [35.0, 35.0], [19.0, 5.0], [0.0, 4.0], [19.0, 1.0], [16.0, 30.0], [13.0, 30.0], [1.0, 14.0], [12.0, 16.0], [11.0, 3.0], [1.0, 13.0], [3.0, 0.0], [45.0, 14.0], [406.0, 404.0], [31.0, 79.0], [15.0, 68.0], [9.0, 67.0], [6.0, 1.0], [16.0, 11.0], [16.0, 6.0], [0.0, 5.0], [375.0, 325.0], [98.0, 124.0], [93.0, 99.0], [93.0, 85.0], [17.0, 36.0], [76.0, 49.0], [65.0, 29.0], [11.0, 20.0], [8.0, 3.0], [3.0, 17.0], [0.0, 14.0], [5.0, 25.0], [277.0, 201.0], [259.0, 170.0], [79.0, 79.0], [71.0, 79.0], [61.0, 78.0], [43.0, 34.0], [18.0, 26.0], [9.0, 0.0], [9.0, 26.0], [25.0, 8.0], [0.0, 3.0], [25.0, 5.0], [25.0, 2.0], [0.0, 3.0], [18.0, 44.0], [13.0, 8.0], [5.0, 36.0], [10.0, 1.0], [8.0, 0.0], [180.0, 91.0], [66.0, 15.0], [47.0, 2.0], [19.0, 13.0], [14.0, 2.0], [5.0, 11.0], [114.0, 76.0], [46.0, 48.0], [44.0, 36.0], [23.0, 32.0], [7.0, 0.0], [16.0, 32.0], [6.0, 28.0], [10.0, 4.0], [21.0, 4.0], [2.0, 12.0], [68.0, 28.0], [44.0, 28.0], [31.0, 8.0], [31.0, 4.0], [0.0, 4.0], [13.0, 20.0], [24.0, 0.0], [18.0, 31.0], [15.0, 11.0], [3.0, 20.0], [348.0, 683.0], [262.0, 605.0], [217.0, 583.0], [13.0, 126.0], [204.0, 457.0], [148.0, 401.0], [41.0, 197.0], [38.0, 197.0], [3.0, 0.0], [107.0, 204.0], [7.0, 0.0], [100.0, 204.0], [82.0, 120.0], [71.0, 79.0], [10.0, 32.0], [4.0, 0.0], [6.0, 32.0], [61.0, 47.0], [13.0, 25.0], [10.0, 4.0], [3.0, 21.0], [48.0, 22.0], [48.0, 17.0], [33.0, 4.0], [15.0, 13.0], [4.0, 12.0], [3.0, 0.0], [1.0, 12.0], [11.0, 1.0], [0.0, 5.0], [11.0, 41.0], [3.0, 0.0], [8.0, 41.0], [4.0, 40.0], [4.0, 1.0], [18.0, 84.0], [15.0, 84.0], [3.0, 0.0], [56.0, 56.0], [14.0, 0.0], [42.0, 56.0], [20.0, 41.0], [22.0, 15.0], [22.0, 9.0], [1.0, 7.0], [21.0, 2.0], [0.0, 6.0], [45.0, 22.0], [31.0, 7.0], [14.0, 15.0], [10.0, 2.0], [4.0, 13.0], [86.0, 78.0], [2.0, 17.0], [84.0, 61.0], [64.0, 60.0], [20.0, 1.0]]}, {"children_left": [1, 2, 3, 4, 5, 6, 7, 8, -1, 10, -1, -1, -1, -1, 15, 16, 17, 18, -1, 20, 21, -1, -1, -1, -1, -1, 27, -1, -1, 30, 31, 32, -1, -1, -1, -1, 37, 38, 39, 40, -1, -1, -1, 44, 45, 46, 47, -1, 49, 50, -1, -1, -1, -1, 55, 56, -1, 58, 59, 60, 61, 62, -1, -1, 65, 66, 67, -1, 69, 70, 71, -1, -1, -1, -1, -1, -1, 78, -1, 80, 81, 82, -1, 84, -1, -1, -1, -1, 89, -1, -1, 92, 93, -1, 95, -1, 97, 98, -1, 100, 101, 102, -1, -1, -1, -1, -1, -1, 109, 110, -1, 112, 113, 114, -1, 116, 117, -1, -1, -1, 121, 122, 123, -1, 125, -1, -1, -1, 129, 130, 131, 132, 133, -1, -1, -1, 137, 138, -1, 140, -1, -1, -1, 144, 145, -1, 147, 148, -1, -1, -1, -1, -1, -1, 155, -1, 157, -1, -1, 160, -1, -1, 163, -1, -1, 166, 167, 168, 169, 170, -1, -1, 173, 174, 175, 176, 177, 178, 179, -1, -1, -1, -1, 184, 185, 186, 187, 188, 189, -1, -1, -1, -1, 194, -1, 196, 197, -1, -1, -1, -1, 202, 203, 204, -1, -1, -1, -1, 209, 210, -1, 212, -1, -1, 215, -1, 217, -1, 219, -1, -1, -1, 223, -1, -1, 226, 227, 228, 229, 230, -1, -1, 233, -1, 235, 236, 237, -1, -1, 240, -1, 242, -1, 244, 245, 246, -1, -1, -1, -1, -1, 252, -1, 254, -1, 256, -1, -1, 259, -1, -1, 262, 263, -1, 265, -1, 267, -1, -1, 270, -1, -1, 273, 274, 275, -1, 277, -1, -1, -1, 281, -1, 283, 284, -1, 286, 287, -1, -1, 290, -1, 292, -1, 294, 295, -1, -1, -1, -1, 300, 301, -1, 303, 304, 305, -1, -1, -1, 309, -1, -1, 312, 313, -1, 315, 316, -1, 318, 319, -1, -1, -1, 323, 324, -1, 326, -1, -1, -1, -1, 331, 332, 333, 334, -1, -1, 337, 338, 339, -1, -1, 342, -1, -1, 345, -1, 347, -1, 349, -1, 351, 352, -1, -1, -1, 356, 357, -1, -1, 360, 361, -1, -1, -1, 365, 366, -1, 368, 369, -1, -1, -1, 373, -1, -1], "children_right": [330, 165, 36, 29, 14, 13, 12, 9, -1, 11, -1, -1, -1, -1, 26, 25, 24, 19, -1, 23, 22, -1, -1, -1, -1, -1, 28, -1, -1, 35, 34, 33, -1, -1, -1, -1, 162, 43, 42, 41, -1, -1, -1, 159, 54, 53, 48, -1, 52, 51, -1, -1, -1, -1, 108, 57, -1, 91, 88, 77, 64, 63, -1, -1, 76, 75, 68, -1, 74, 73, 72, -1, -1, -1, -1, -1, -1, 79, -1, 87, 86, 83, -1, 85, -1, -1, -1, -1, 90, -1, -1, 107, 94, -1, 96, -1, 106, 99, -1, 105, 104, 103, -1, -1, -1, -1, -1, -1, 154, 111, -1, 153, 120, 115, -1, 119, 118, -1, -1, -1, 128, 127, 124, -1, 126, -1, -1, -1, 152, 143, 136, 135, 134, -1, -1, -1, 142, 139, -1, 141, -1, -1, -1, 151, 146, -1, 150, 149, -1, -1, -1, -1, -1, -1, 156, -1, 158, -1, -1, 161, -1, -1, 164, -1, -1, 299, 272, 225, 172, 171, -1, -1, 222, 221, 208, 183, 182, 181, 180, -1, -1, -1, -1, 201, 200, 193, 192, 191, 190, -1, -1, -1, -1, 195, -1, 199, 198, -1, -1, -1, -1, 207, 206, 205, -1, -1, -1, -1, 214, 211, -1, 213, -1, -1, 216, -1, 218, -1, 220, -1, -1, -1, 224, -1, -1, 261, 258, 251, 232, 231, -1, -1, 234, -1, 250, 239, 238, -1, -1, 241, -1, 243, -1, 249, 248, 247, -1, -1, -1, -1, -1, 253, -1, 255, -1, 257, -1, -1, 260, -1, -1, 269, 264, -1, 266, -1, 268, -1, -1, 271, -1, -1, 280, 279, 276, -1, 278, -1, -1, -1, 282, -1, 298, 285, -1, 289, 288, -1, -1, 291, -1, 293, -1, 297, 296, -1, -1, -1, -1, 311, 302, -1, 308, 307, 306, -1, -1, -1, 310, -1, -1, 329, 314, -1, 322, 317, -1, 321, 320, -1, -1, -1, 328, 325, -1, 327, -1, -1, -1, -1, 364, 355, 336, 335, -1, -1, 344, 341, 340, -1, -1, 343, -1, -1, 346, -1, 348, -1, 350, -1, 354, 353, -1, -1, -1, 359, 358, -1, -1, 363, 362, -1, -1, -1, 372, 367, -1, 371, 370, -1, -1, -1, 374, -1, -1], "threshold": [18.744999885559082, 5.255000114440918, 32.5, -19.5, 110.5, 4.884999990463257, 17.639999389648438, 7.134999990463257, -2.0, 1015.5, -2.0, -2.0, -2.0, -2.0, 1024.5, 18.369999885559082, -34.5, 151.5, -2.0, 6.7250001430511475, 3.1349998712539673, -2.0, -2.0, -2.0, -2.0, -2.0, 3.200000047683716, -2.0, -2.0, 2.1950000524520874, 63.0, 260.0, -2.0, -2.0, -2.0, -2.0, 58.0, 2.4850000143051147, 1.7450000047683716, 55.0, -2.0, -2.0, -2.0, 1026.5, -0.7800000011920929, 0.8149999976158142, -96.5, -2.0, 1019.5, 0.009999999776482582, -2.0, -2.0, -2.0, -2.0, 9.954999923706055, 1008.5, -2.0, 46.5, 0.29999999701976776, 136.0, 3.2050000429153442, 3.534999966621399, -2.0, -2.0, 20.1850004196167, 19.449999809265137, 44.0, -2.0, 58.0, 37.5, 64.5, -2.0, -2.0, -2.0, -2.0, -2.0, -2.0, 159.0, -2.0, 1024.5, 89.5, 198.5, -2.0, 3.600000023841858, -2.0, -2.0, -2.0, -2.0, -109.5, -2.0, -2.0, 27.8149995803833, 28.0, -2.0, 5.7850000858306885, -2.0, 216.0, -2.5, -2.0, 74.5, 1017.5, 76.0, -2.0, -2.0, -2.0, -2.0, -2.0, -2.0, 4.994999885559082, 10.954999923706055, -2.0, 32.5, 12.014999866485596, 3.6200000047683716, -2.0, 54.5, 19.5, -2.0, -2.0, -2.0, 0.004999999888241291, 216.0, 16.88499927520752, -2.0, 67.5, -2.0, -2.0, -2.0, 17.244999885559082, 80.5, 49.5, 28.5, 17.0, -2.0, -2.0, -2.0, 14.630000114440918, 0.3400000035762787, -2.0, 3.4700000286102295, -2.0, -2.0, -2.0, 4.075000047683716, 44.5, -2.0, 118.5, 0.5050000101327896, -2.0, -2.0, -2.0, -2.0, -2.0, -2.0, 40.0, -2.0, 73.5, -2.0, -2.0, 65.0, -2.0, -2.0, 0.3100000023841858, -2.0, -2.0, 213.5, 111.0, 22.574999809265137, 32.5, 1016.5, -2.0, -2.0, 14.264999866485596, 14.519999980926514, 13.5, 0.1849999986588955, -0.7700000107288361, 10.654999732971191, 1.2200000286102295, -2.0, -2.0, -2.0, -2.0, 11.300000190734863, 67.5, 58.5, 57.5, -7.5, 43.0, -2.0, -2.0, -2.0, -2.0, 1018.5, -2.0, 47.5, 6.1000001430511475, -2.0, -2.0, -2.0, -2.0, 1018.5, 11.84499979019165, 70.5, -2.0, -2.0, -2.0, -2.0, 6.480000019073486, 1011.5, -2.0, 29.5, -2.0, -2.0, 7.075000047683716, -2.0, 42.5, -2.0, 87.5, -2.0, -2.0, -2.0, 7.559999942779541, -2.0, -2.0, 15.5, 1015.5, 7.8450000286102295, 5.525000095367432, 24.350000381469727, -2.0, -2.0, 13.0, -2.0, 10.5, -111.5, 0.12999999523162842, -2.0, -2.0, 34.5, -2.0, 50.0, -2.0, 6.930000066757202, 29.59000015258789, 24.31999969482422, -2.0, -2.0, -2.0, -2.0, -2.0, 57.5, -2.0, 110.5, -2.0, 45.5, -2.0, -2.0, 9.394999980926514, -2.0, -2.0, 44.5, 0.17999999970197678, -2.0, 27.5, -2.0, 1011.5, -2.0, -2.0, 1006.5, -2.0, -2.0, 41.5, 37.5, 18.940000534057617, -2.0, 20.5, -2.0, -2.0, -2.0, 999.5, -2.0, 135.5, 0.5, -2.0, 4.5, 6.769999980926514, -2.0, -2.0, 5.424999952316284, -2.0, 5.8999998569488525, -2.0, 113.5, 6.349999904632568, -2.0, -2.0, -2.0, -2.0, 5.979999780654907, 218.0, -2.0, 51.0, 0.10500000137835741, -33.5, -2.0, -2.0, -2.0, -1.5, -2.0, -2.0, 359.5, 3.1449999809265137, -2.0, -32.5, 1003.5, -2.0, 6.730000019073486, 54.5, -2.0, -2.0, -2.0, -76.5, 283.5, -2.0, 15.65999984741211, -2.0, -2.0, -2.0, -2.0, 126.5, 26.5, 97.0, -157.0, -2.0, -2.0, 1010.5, 22.835000038146973, 131.0, -2.0, -2.0, 14.5, -2.0, -2.0, 0.19500000029802322, -2.0, 0.699999988079071, -2.0, 100.5, -2.0, 0.9150000214576721, 3.0149999856948853, -2.0, -2.0, -2.0, 20.265000343322754, 166.5, -2.0, -2.0, 2.865000009536743, 1013.5, -2.0, -2.0, -2.0, 65.5, -30.5, -2.0, 62.5, 81.5, -2.0, -2.0, -2.0, 99.5, -2.0, -2.0], "feature": [8, 3, 0, 0, 9, 3, 2, 8, -2, 7, -2, -2, -2, -2, 7, 8, 0, 9, -2, 8, 8, -2, -2, -2, -2, -2, 3, -2, -2, 3, 5, 9, -2, -2, -2, -2, 0, 3, 3, 5, -2, -2, -2, 7, 8, 4, 1, -2, 7, 4, -2, -2, -2, -2, 8, 7, -2, 0, 4, 9, 8, 3, -2, -2, 2, 2, 5, -2, 9, 9, 5, -2, -2, -2, -2, -2, -2, 9, -2, 7, 6, 9, -2, 8, -2, -2, -2, -2, 1, -2, -2, 2, 6, -2, 8, -2, 9, 1, -2, 5, 7, 9, -2, -2, -2, -2, -2, -2, 3, 8, -2, 1, 8, 3, -2, 0, 1, -2, -2, -2, 4, 9, 8, -2, 5, -2, -2, -2, 8, 6, 0, 6, 1, -2, -2, -2, 8, 4, -2, 3, -2, -2, -2, 3, 0, -2, 9, 4, -2, -2, -2, -2, -2, -2, 6, -2, 5, -2, -2, 6, -2, -2, 4, -2, -2, 9, 1, 2, 0, 7, -2, -2, 8, 3, 1, 8, 8, 2, 2, -2, -2, -2, -2, 8, 5, 9, 9, 1, 0, -2, -2, -2, -2, 7, -2, 5, 3, -2, -2, -2, -2, 7, 8, 6, -2, -2, -2, -2, 3, 7, -2, 1, -2, -2, 3, -2, 6, -2, 6, -2, -2, -2, 3, -2, -2, 1, 7, 3, 3, 2, -2, -2, 5, -2, 1, 1, 4, -2, -2, 5, -2, 9, -2, 3, 2, 2, -2, -2, -2, -2, -2, 9, -2, 9, -2, 6, -2, -2, 8, -2, -2, 0, 4, -2, 9, -2, 7, -2, -2, 7, -2, -2, 9, 9, 2, -2, 9, -2, -2, -2, 7, -2, 9, 6, -2, 6, 8, -2, -2, 3, -2, 3, -2, 9, 3, -2, -2, -2, -2, 3, 9, -2, 5, 4, 0, -2, -2, -2, 1, -2, -2, 9, 2, -2, 0, 7, -2, 3, 5, -2, -2, -2, 1, 9, -2, 2, -2, -2, -2, -2, 1, 0, 1, 1, -2, -2, 7, 8, 9, -2, -2, 0, -2, -2, 4, -2, 4, -2, 1, -2, 4, 3, -2, -2, -2, 8, 9, -2, -2, 3, 7, -2, -2, -2, 5, 0, -2, 5, 9, -2, -2, -2, 6, -2, -2], "classes": [0, 1], "value": [[2614.0, 2539.0], [2292.0, 1882.0], [1148.0, 1076.0], [250.0, 346.0], [194.0, 208.0], [54.0, 116.0], [37.0, 107.0], [18.0, 18.0], [3.0, 14.0], [15.0, 4.0], [1.0, 4.0], [14.0, 0.0], [19.0, 89.0], [17.0, 9.0], [140.0, 92.0], [131.0, 69.0], [131.0, 62.0], [49.0, 39.0], [30.0, 10.0], [19.0, 29.0], [11.0, 4.0], [0.0, 4.0], [11.0, 0.0], [8.0, 25.0], [82.0, 23.0], [0.0, 7.0], [9.0, 23.0], [8.0, 5.0], [1.0, 18.0], [56.0, 138.0], [22.0, 14.0], [22.0, 7.0], [21.0, 2.0], [1.0, 5.0], [0.0, 7.0], [34.0, 124.0], [898.0, 730.0], [894.0, 712.0], [101.0, 48.0], [6.0, 12.0], [0.0, 10.0], [6.0, 2.0], [95.0, 36.0], [793.0, 664.0], [776.0, 623.0], [18.0, 35.0], [12.0, 35.0], [0.0, 17.0], [12.0, 18.0], [10.0, 6.0], [9.0, 0.0], [1.0, 6.0], [2.0, 12.0], [6.0, 0.0], [758.0, 588.0], [346.0, 213.0], [35.0, 7.0], [311.0, 206.0], [180.0, 151.0], [154.0, 104.0], [109.0, 50.0], [11.0, 15.0], [7.0, 0.0], [4.0, 15.0], [98.0, 35.0], [39.0, 25.0], [37.0, 16.0], [0.0, 5.0], [37.0, 11.0], [17.0, 11.0], [17.0, 5.0], [17.0, 2.0], [0.0, 3.0], [0.0, 6.0], [20.0, 0.0], [2.0, 9.0], [59.0, 10.0], [45.0, 54.0], [2.0, 16.0], [43.0, 38.0], [42.0, 30.0], [32.0, 29.0], [15.0, 2.0], [17.0, 27.0], [7.0, 1.0], [10.0, 26.0], [10.0, 1.0], [1.0, 8.0], [26.0, 47.0], [7.0, 1.0], [19.0, 46.0], [131.0, 55.0], [127.0, 45.0], [44.0, 6.0], [83.0, 39.0], [29.0, 2.0], [54.0, 37.0], [54.0, 32.0], [16.0, 0.0], [38.0, 32.0], [25.0, 32.0], [17.0, 7.0], [0.0, 4.0], [17.0, 3.0], [8.0, 25.0], [13.0, 0.0], [0.0, 5.0], [4.0, 10.0], [412.0, 375.0], [343.0, 341.0], [27.0, 57.0], [316.0, 284.0], [285.0, 280.0], [65.0, 29.0], [11.0, 14.0], [54.0, 15.0], [54.0, 11.0], [54.0, 8.0], [0.0, 3.0], [0.0, 4.0], [220.0, 251.0], [49.0, 86.0], [49.0, 72.0], [35.0, 65.0], [14.0, 7.0], [14.0, 2.0], [0.0, 5.0], [0.0, 14.0], [171.0, 165.0], [159.0, 133.0], [110.0, 63.0], [96.0, 42.0], [39.0, 31.0], [38.0, 18.0], [1.0, 13.0], [57.0, 11.0], [14.0, 21.0], [14.0, 6.0], [0.0, 2.0], [14.0, 4.0], [0.0, 4.0], [14.0, 0.0], [0.0, 15.0], [49.0, 70.0], [42.0, 30.0], [9.0, 19.0], [33.0, 11.0], [8.0, 10.0], [0.0, 7.0], [8.0, 3.0], [25.0, 1.0], [7.0, 40.0], [12.0, 32.0], [31.0, 4.0], [69.0, 34.0], [51.0, 9.0], [18.0, 25.0], [8.0, 24.0], [10.0, 1.0], [17.0, 41.0], [3.0, 32.0], [14.0, 9.0], [4.0, 18.0], [0.0, 18.0], [4.0, 0.0], [1144.0, 806.0], [992.0, 629.0], [699.0, 522.0], [442.0, 236.0], [15.0, 21.0], [4.0, 17.0], [11.0, 4.0], [427.0, 215.0], [380.0, 170.0], [380.0, 166.0], [310.0, 116.0], [32.0, 24.0], [32.0, 16.0], [12.0, 15.0], [8.0, 1.0], [4.0, 14.0], [20.0, 1.0], [0.0, 8.0], [278.0, 92.0], [212.0, 52.0], [161.0, 47.0], [30.0, 18.0], [30.0, 14.0], [18.0, 14.0], [18.0, 4.0], [0.0, 10.0], [12.0, 0.0], [0.0, 4.0], [131.0, 29.0], [94.0, 13.0], [37.0, 16.0], [8.0, 10.0], [8.0, 1.0], [0.0, 9.0], [29.0, 6.0], [51.0, 5.0], [66.0, 40.0], [63.0, 28.0], [14.0, 14.0], [10.0, 0.0], [4.0, 14.0], [49.0, 14.0], [3.0, 12.0], [70.0, 50.0], [22.0, 29.0], [1.0, 12.0], [21.0, 17.0], [11.0, 17.0], [10.0, 0.0], [48.0, 21.0], [22.0, 1.0], [26.0, 20.0], [9.0, 0.0], [17.0, 20.0], [1.0, 12.0], [16.0, 8.0], [0.0, 4.0], [47.0, 45.0], [44.0, 21.0], [3.0, 24.0], [257.0, 286.0], [203.0, 184.0], [131.0, 156.0], [92.0, 139.0], [23.0, 8.0], [0.0, 5.0], [23.0, 3.0], [69.0, 131.0], [5.0, 0.0], [64.0, 131.0], [56.0, 129.0], [13.0, 8.0], [4.0, 8.0], [9.0, 0.0], [43.0, 121.0], [9.0, 58.0], [34.0, 63.0], [6.0, 0.0], [28.0, 63.0], [26.0, 38.0], [16.0, 34.0], [12.0, 7.0], [4.0, 27.0], [10.0, 4.0], [2.0, 25.0], [8.0, 2.0], [39.0, 17.0], [1.0, 5.0], [38.0, 12.0], [21.0, 0.0], [17.0, 12.0], [2.0, 10.0], [15.0, 2.0], [72.0, 28.0], [16.0, 17.0], [56.0, 11.0], [54.0, 102.0], [47.0, 61.0], [16.0, 44.0], [31.0, 17.0], [0.0, 4.0], [31.0, 13.0], [27.0, 4.0], [4.0, 9.0], [7.0, 41.0], [5.0, 3.0], [2.0, 38.0], [293.0, 107.0], [33.0, 42.0], [33.0, 28.0], [15.0, 1.0], [18.0, 27.0], [2.0, 22.0], [16.0, 5.0], [0.0, 14.0], [260.0, 65.0], [0.0, 4.0], [260.0, 61.0], [159.0, 53.0], [38.0, 2.0], [121.0, 51.0], [4.0, 12.0], [3.0, 0.0], [1.0, 12.0], [117.0, 39.0], [4.0, 8.0], [113.0, 31.0], [51.0, 3.0], [62.0, 28.0], [57.0, 17.0], [2.0, 12.0], [55.0, 5.0], [5.0, 11.0], [101.0, 8.0], [152.0, 177.0], [56.0, 27.0], [0.0, 3.0], [56.0, 24.0], [10.0, 12.0], [10.0, 5.0], [0.0, 5.0], [10.0, 0.0], [0.0, 7.0], [46.0, 12.0], [8.0, 9.0], [38.0, 3.0], [96.0, 150.0], [88.0, 150.0], [15.0, 6.0], [73.0, 144.0], [22.0, 19.0], [0.0, 9.0], [22.0, 10.0], [6.0, 10.0], [5.0, 0.0], [1.0, 10.0], [16.0, 0.0], [51.0, 125.0], [24.0, 28.0], [1.0, 20.0], [23.0, 8.0], [22.0, 2.0], [1.0, 6.0], [27.0, 97.0], [8.0, 0.0], [322.0, 657.0], [256.0, 624.0], [151.0, 503.0], [21.0, 189.0], [8.0, 0.0], [13.0, 189.0], [130.0, 314.0], [62.0, 205.0], [28.0, 50.0], [4.0, 28.0], [24.0, 22.0], [34.0, 155.0], [16.0, 126.0], [18.0, 29.0], [68.0, 109.0], [16.0, 5.0], [52.0, 104.0], [10.0, 46.0], [42.0, 58.0], [7.0, 0.0], [35.0, 58.0], [22.0, 15.0], [2.0, 11.0], [20.0, 4.0], [13.0, 43.0], [105.0, 121.0], [36.0, 78.0], [35.0, 56.0], [1.0, 22.0], [69.0, 43.0], [5.0, 16.0], [1.0, 16.0], [4.0, 0.0], [64.0, 27.0], [66.0, 33.0], [20.0, 23.0], [0.0, 9.0], [20.0, 14.0], [20.0, 8.0], [0.0, 4.0], [20.0, 4.0], [0.0, 6.0], [46.0, 10.0], [43.0, 4.0], [3.0, 6.0]]}, {"children_left": [1, 2, -1, 4, 5, -1, 7, -1, 9, -1, 11, 12, -1, -1, -1, 16, 17, 18, 19, 20, 21, -1, 23, 24, -1, 26, -1, -1, 29, -1, -1, -1, -1, 34, 35, 36, 37, 38, 39, 40, -1, -1, 43, -1, -1, -1, -1, -1, 49, 50, -1, 52, 53, -1, 55, -1, -1, -1, 59, 60, -1, 62, -1, 64, 65, -1, 67, -1, -1, 70, -1, 72, 73, -1, -1, 76, -1, 78, -1, 80, 81, -1, -1, -1, 85, -1, -1, 88, 89, 90, -1, 92, -1, -1, -1, 96, -1, 98, -1, -1, 101, 102, 103, 104, 105, 106, 107, 108, -1, -1, -1, -1, -1, -1, -1, 116, -1, 118, -1, -1, 121, 122, 123, 124, 125, -1, -1, -1, 129, 130, 131, -1, -1, -1, -1, 136, 137, 138, 139, -1, -1, 142, -1, -1, -1, 146, 147, -1, -1, -1, 151, 152, -1, 154, 155, 156, 157, 158, 159, -1, -1, -1, -1, -1, 165, 166, -1, 168, -1, 170, -1, 172, 173, -1, -1, 176, -1, 178, -1, -1, 181, 182, 183, -1, -1, -1, 187, -1, -1, 190, -1, 192, 193, 194, -1, -1, -1, -1, 199, -1, 201, 202, 203, -1, 205, -1, -1, 208, -1, 210, 211, 212, -1, -1, -1, 216, -1, -1, 219, 220, 221, -1, 223, -1, -1, 226, -1, -1, 229, -1, 231, 232, -1, 234, -1, -1, -1, 238, 239, 240, -1, 242, -1, 244, 245, -1, -1, 248, 249, 250, -1, -1, -1, 254, -1, 256, 257, -1, -1, 260, -1, -1, -1, 264, 265, 266, 267, -1, -1, 270, -1, -1, -1, 274, 275, 276, -1, -1, 279, -1, 281, -1, -1, -1, 285, 286, 287, 288, -1, 290, 291, -1, -1, -1, 295, 296, 297, 298, -1, -1, -1, 302, -1, -1, 305, -1, 307, 308, -1, -1, 311, 312, -1, 314, -1, 316, -1, 318, 319, 320, -1, -1, -1, 324, 325, 326, -1, -1, -1, -1, -1, 332, 333, 334, -1, 336, 337, -1, -1, -1, 341, -1, -1, 344, -1, -1, 347, 348, -1, 350, 351, -1, -1, -1, 355, -1, -1], "children_right": [284, 3, -1, 15, 6, -1, 8, -1, 10, -1, 14, 13, -1, -1, -1, 237, 100, 33, 32, 31, 22, -1, 28, 25, -1, 27, -1, -1, 30, -1, -1, -1, -1, 87, 48, 47, 46, 45, 42, 41, -1, -1, 44, -1, -1, -1, -1, -1, 58, 51, -1, 57, 54, -1, 56, -1, -1, -1, 84, 61, -1, 63, -1, 69, 66, -1, 68, -1, -1, 71, -1, 75, 74, -1, -1, 77, -1, 79, -1, 83, 82, -1, -1, -1, 86, -1, -1, 95, 94, 91, -1, 93, -1, -1, -1, 97, -1, 99, -1, -1, 120, 115, 114, 113, 112, 111, 110, 109, -1, -1, -1, -1, -1, -1, -1, 117, -1, 119, -1, -1, 150, 135, 128, 127, 126, -1, -1, -1, 134, 133, 132, -1, -1, -1, -1, 145, 144, 141, 140, -1, -1, 143, -1, -1, -1, 149, 148, -1, -1, -1, 198, 153, -1, 189, 164, 163, 162, 161, 160, -1, -1, -1, -1, -1, 180, 167, -1, 169, -1, 171, -1, 175, 174, -1, -1, 177, -1, 179, -1, -1, 186, 185, 184, -1, -1, -1, 188, -1, -1, 191, -1, 197, 196, 195, -1, -1, -1, -1, 200, -1, 218, 207, 204, -1, 206, -1, -1, 209, -1, 215, 214, 213, -1, -1, -1, 217, -1, -1, 228, 225, 222, -1, 224, -1, -1, 227, -1, -1, 230, -1, 236, 233, -1, 235, -1, -1, -1, 263, 262, 241, -1, 243, -1, 247, 246, -1, -1, 253, 252, 251, -1, -1, -1, 255, -1, 259, 258, -1, -1, 261, -1, -1, -1, 273, 272, 269, 268, -1, -1, 271, -1, -1, -1, 283, 278, 277, -1, -1, 280, -1, 282, -1, -1, -1, 346, 331, 294, 289, -1, 293, 292, -1, -1, -1, 304, 301, 300, 299, -1, -1, -1, 303, -1, -1, 306, -1, 310, 309, -1, -1, 330, 313, -1, 315, -1, 317, -1, 323, 322, 321, -1, -1, -1, 329, 328, 327, -1, -1, -1, -1, -1, 343, 340, 335, -1, 339, 338, -1, -1, -1, 342, -1, -1, 345, -1, -1, 354, 349, -1, 353, 352, -1, -1, -1, 356, -1, -1], "threshold": [18.72499942779541, 1.715000033378601, -2.0, -119.5, 97.0, -2.0, 5.565000057220459, -2.0, 10.005000114440918, -2.0, 0.024999999441206455, 1012.5, -2.0, -2.0, -2.0, 213.5, 4.765000104904175, 27.5, -21.5, 111.5, -62.0, -2.0, 1021.5, 28.799999237060547, -2.0, 1010.5, -2.0, -2.0, 38.5, -2.0, -2.0, -2.0, -2.0, 1020.5, 27.5, 57.5, 197.5, 31.5, 12.980000019073486, 9.700000286102295, -2.0, -2.0, 34.5, -2.0, -2.0, -2.0, -2.0, -2.0, 52.5, -8.5, -2.0, 140.5, 19.924999237060547, -2.0, 27.195000648498535, -2.0, -2.0, -2.0, 177.0, 1.9899999499320984, -2.0, 30.5, -2.0, 0.39499999582767487, 1012.5, -2.0, 162.0, -2.0, -2.0, 15.899999618530273, -2.0, 3.384999990463257, 15.505000114440918, -2.0, -2.0, 8.119999885559082, -2.0, 62.5, -2.0, 138.0, 4.105000019073486, -2.0, -2.0, -2.0, 4.394999980926514, -2.0, -2.0, -1.5, 97.5, 2.5, -2.0, 34.0, -2.0, -2.0, -2.0, 3.875, -2.0, 77.0, -2.0, -2.0, 41.5, 20.100000381469727, 75.5, 63.5, 10.71999979019165, 1024.5, 2.5, 1017.5, -2.0, -2.0, -2.0, -2.0, -2.0, -2.0, -2.0, 20.0, -2.0, 6.019999980926514, -2.0, -2.0, -22.0, 147.5, 27.0, 32.09499931335449, 26.005000114440918, -2.0, -2.0, -2.0, 26.869999885559082, 123.5, 23.510000228881836, -2.0, -2.0, -2.0, -2.0, 7.230000019073486, -32.0, 15.684999942779541, 149.5, -2.0, -2.0, 1010.5, -2.0, -2.0, -2.0, 1010.5, 7.615000009536743, -2.0, -2.0, -2.0, 21.519999504089355, 39.5, -2.0, 14.789999961853027, 51.5, 8.694999694824219, 19.269999504089355, 45.5, 13.0, -2.0, -2.0, -2.0, -2.0, -2.0, 19.5, 15.34499979019165, -2.0, -108.5, -2.0, 2.865000009536743, -2.0, 1016.5, 33.5, -2.0, -2.0, 0.004999999888241291, -2.0, 0.5599999725818634, -2.0, -2.0, 6.569999933242798, 5.795000076293945, 71.0, -2.0, -2.0, -2.0, 16.19499969482422, -2.0, -2.0, 16.710000038146973, -2.0, 165.5, 17.940000534057617, 5.615000009536743, -2.0, -2.0, -2.0, -2.0, 26.0, -2.0, 43.5, -96.0, 108.5, -2.0, 90.0, -2.0, -2.0, 21.75, -2.0, 15.079999923706055, 23.850000381469727, 0.675000011920929, -2.0, -2.0, -2.0, 1005.5, -2.0, -2.0, 31.0, 12.884999752044678, 122.5, -2.0, -94.5, -2.0, -2.0, 16.0, -2.0, -2.0, 7.109999895095825, -2.0, 18.395000457763672, 162.5, -2.0, 22.489999771118164, -2.0, -2.0, -2.0, 17.15999984741211, 16.94499969482422, 228.0, -2.0, 237.0, -2.0, 1001.5, 316.5, -2.0, -2.0, 11.744999885559082, 291.5, -2.5, -2.0, -2.0, -2.0, 2.884999990463257, -2.0, 32.0, 1011.5, -2.0, -2.0, 99.5, -2.0, -2.0, -2.0, 105.0, 6.659999847412109, 0.4699999988079071, -31.0, -2.0, -2.0, 33.0, -2.0, -2.0, -2.0, -29.5, 1021.5, 0.6649999916553497, -2.0, -2.0, 4.424999952316284, -2.0, 11.25, -2.0, -2.0, -2.0, 126.5, 29.5, 2.9600000381469727, 97.0, -2.0, 0.5250000059604645, 14.5, -2.0, -2.0, -2.0, 86.5, -80.5, 26.5, -157.0, -2.0, -2.0, -2.0, 0.13999999687075615, -2.0, -2.0, 19.5, -2.0, 63.5, 82.0, -2.0, -2.0, 31.30500030517578, 34.5, -2.0, 21.949999809265137, -2.0, 22.100000381469727, -2.0, 12.0, 105.5, 0.7300000190734863, -2.0, -2.0, -2.0, 98.5, 0.2900000065565109, 30.539999961853027, -2.0, -2.0, -2.0, -2.0, -2.0, 42.5, 20.265000343322754, 1011.5, -2.0, 8.0, 49.5, -2.0, -2.0, -2.0, 39.0, -2.0, -2.0, 90.0, -2.0, -2.0, 1008.5, 54.5, -2.0, 197.0, 1003.5, -2.0, -2.0, -2.0, -35.0, -2.0, -2.0], "feature": [8, 3, -2, 1, 9, -2, 8, -2, 2, -2, 4, 7, -2, -2, -2, 9, 3, 0, 0, 9, 1, -2, 7, 2, -2, 7, -2, -2, 5, -2, -2, -2, -2, 7, 6, 5, 9, 1, 8, 8, -2, -2, 0, -2, -2, -2, -2, -2, 6, 1, -2, 9, 2, -2, 2, -2, -2, -2, 9, 3, -2, 5, -2, 4, 7, -2, 9, -2, -2, 2, -2, 3, 8, -2, -2, 8, -2, 5, -2, 9, 3, -2, -2, -2, 3, -2, -2, 1, 6, 3, -2, 9, -2, -2, -2, 3, -2, 9, -2, -2, 9, 2, 6, 6, 8, 7, 6, 7, -2, -2, -2, -2, -2, -2, -2, 9, -2, 3, -2, -2, 0, 1, 1, 2, 2, -2, -2, -2, 2, 9, 2, -2, -2, -2, -2, 3, 0, 8, 1, -2, -2, 7, -2, -2, -2, 7, 3, -2, -2, -2, 2, 0, -2, 8, 9, 3, 2, 9, 1, -2, -2, -2, -2, -2, 1, 2, -2, 1, -2, 8, -2, 7, 6, -2, -2, 4, -2, 4, -2, -2, 3, 3, 9, -2, -2, -2, 2, -2, -2, 2, -2, 9, 8, 3, -2, -2, -2, -2, 0, -2, 0, 1, 9, -2, 6, -2, -2, 2, -2, 8, 2, 4, -2, -2, -2, 7, -2, -2, 6, 8, 9, -2, 1, -2, -2, 6, -2, -2, 8, -2, 8, 9, -2, 2, -2, -2, -2, 2, 2, 9, -2, 9, -2, 7, 9, -2, -2, 2, 9, 1, -2, -2, -2, 3, -2, 1, 7, -2, -2, 6, -2, -2, -2, 1, 3, 4, 0, -2, -2, 0, -2, -2, -2, 0, 7, 4, -2, -2, 3, -2, 8, -2, -2, -2, 1, 0, 3, 1, -2, 4, 0, -2, -2, -2, 1, 1, 0, 1, -2, -2, -2, 4, -2, -2, 9, -2, 5, 9, -2, -2, 2, 6, -2, 8, -2, 8, -2, 0, 1, 4, -2, -2, -2, 6, 4, 2, -2, -2, -2, -2, -2, 0, 8, 7, -2, 1, 5, -2, -2, -2, 5, -2, -2, 5, -2, -2, 7, 5, -2, 9, 7, -2, -2, -2, 0, -2, -2], "classes": [0, 1], "value": [[2616.0, 2537.0], [2218.0, 1894.0], [3.0, 31.0], [2215.0, 1863.0], [122.0, 43.0], [62.0, 5.0], [60.0, 38.0], [13.0, 0.0], [47.0, 38.0], [0.0, 7.0], [47.0, 31.0], [23.0, 28.0], [14.0, 3.0], [9.0, 25.0], [24.0, 3.0], [2093.0, 1820.0], [1750.0, 1420.0], [628.0, 642.0], [82.0, 143.0], [78.0, 100.0], [42.0, 86.0], [5.0, 0.0], [37.0, 86.0], [17.0, 69.0], [8.0, 60.0], [9.0, 9.0], [0.0, 6.0], [9.0, 3.0], [20.0, 17.0], [1.0, 8.0], [19.0, 9.0], [36.0, 14.0], [4.0, 43.0], [546.0, 499.0], [431.0, 431.0], [152.0, 195.0], [125.0, 182.0], [116.0, 182.0], [94.0, 172.0], [60.0, 82.0], [30.0, 63.0], [30.0, 19.0], [34.0, 90.0], [7.0, 2.0], [27.0, 88.0], [22.0, 10.0], [9.0, 0.0], [27.0, 13.0], [279.0, 236.0], [97.0, 41.0], [55.0, 4.0], [42.0, 37.0], [40.0, 21.0], [2.0, 10.0], [38.0, 11.0], [38.0, 7.0], [0.0, 4.0], [2.0, 16.0], [182.0, 195.0], [161.0, 191.0], [9.0, 0.0], [152.0, 191.0], [17.0, 2.0], [135.0, 189.0], [35.0, 91.0], [15.0, 11.0], [20.0, 80.0], [14.0, 78.0], [6.0, 2.0], [100.0, 98.0], [28.0, 13.0], [72.0, 85.0], [13.0, 37.0], [5.0, 34.0], [8.0, 3.0], [59.0, 48.0], [1.0, 13.0], [58.0, 35.0], [42.0, 10.0], [16.0, 25.0], [16.0, 14.0], [13.0, 3.0], [3.0, 11.0], [0.0, 11.0], [21.0, 4.0], [21.0, 1.0], [0.0, 3.0], [115.0, 68.0], [45.0, 47.0], [27.0, 45.0], [9.0, 1.0], [18.0, 44.0], [4.0, 0.0], [14.0, 44.0], [18.0, 2.0], [70.0, 21.0], [54.0, 9.0], [16.0, 12.0], [11.0, 0.0], [5.0, 12.0], [1122.0, 778.0], [114.0, 133.0], [93.0, 61.0], [32.0, 35.0], [32.0, 27.0], [24.0, 27.0], [14.0, 25.0], [11.0, 8.0], [2.0, 8.0], [9.0, 0.0], [3.0, 17.0], [10.0, 2.0], [8.0, 0.0], [0.0, 8.0], [61.0, 26.0], [21.0, 72.0], [0.0, 39.0], [21.0, 33.0], [3.0, 24.0], [18.0, 9.0], [1008.0, 645.0], [295.0, 113.0], [170.0, 38.0], [23.0, 17.0], [15.0, 17.0], [14.0, 4.0], [1.0, 13.0], [8.0, 0.0], [147.0, 21.0], [80.0, 19.0], [15.0, 13.0], [14.0, 5.0], [1.0, 8.0], [65.0, 6.0], [67.0, 2.0], [125.0, 75.0], [112.0, 49.0], [55.0, 37.0], [51.0, 21.0], [11.0, 13.0], [40.0, 8.0], [4.0, 16.0], [3.0, 0.0], [1.0, 16.0], [57.0, 12.0], [13.0, 26.0], [12.0, 14.0], [0.0, 10.0], [12.0, 4.0], [1.0, 12.0], [713.0, 532.0], [396.0, 221.0], [43.0, 6.0], [353.0, 215.0], [324.0, 171.0], [19.0, 30.0], [12.0, 30.0], [9.0, 30.0], [8.0, 7.0], [8.0, 1.0], [0.0, 6.0], [1.0, 23.0], [3.0, 0.0], [7.0, 0.0], [305.0, 141.0], [274.0, 109.0], [89.0, 15.0], [185.0, 94.0], [0.0, 7.0], [185.0, 87.0], [2.0, 5.0], [183.0, 82.0], [122.0, 41.0], [33.0, 1.0], [89.0, 40.0], [61.0, 41.0], [32.0, 10.0], [29.0, 31.0], [9.0, 27.0], [20.0, 4.0], [31.0, 32.0], [10.0, 24.0], [10.0, 9.0], [7.0, 0.0], [3.0, 9.0], [0.0, 15.0], [21.0, 8.0], [1.0, 5.0], [20.0, 3.0], [29.0, 44.0], [7.0, 0.0], [22.0, 44.0], [15.0, 43.0], [12.0, 43.0], [7.0, 2.0], [5.0, 41.0], [3.0, 0.0], [7.0, 1.0], [317.0, 311.0], [5.0, 28.0], [312.0, 283.0], [212.0, 142.0], [42.0, 60.0], [21.0, 2.0], [21.0, 58.0], [14.0, 57.0], [7.0, 1.0], [170.0, 82.0], [4.0, 13.0], [166.0, 69.0], [87.0, 52.0], [5.0, 13.0], [1.0, 13.0], [4.0, 0.0], [82.0, 39.0], [79.0, 17.0], [0.0, 3.0], [79.0, 14.0], [100.0, 141.0], [64.0, 49.0], [23.0, 38.0], [15.0, 3.0], [8.0, 35.0], [7.0, 1.0], [1.0, 34.0], [41.0, 11.0], [39.0, 5.0], [2.0, 6.0], [36.0, 92.0], [5.0, 0.0], [31.0, 92.0], [26.0, 92.0], [14.0, 79.0], [12.0, 13.0], [9.0, 0.0], [3.0, 13.0], [5.0, 0.0], [343.0, 400.0], [193.0, 159.0], [175.0, 157.0], [17.0, 1.0], [158.0, 156.0], [2.0, 21.0], [156.0, 135.0], [3.0, 14.0], [0.0, 14.0], [3.0, 0.0], [153.0, 121.0], [95.0, 53.0], [18.0, 29.0], [4.0, 23.0], [14.0, 6.0], [77.0, 24.0], [58.0, 68.0], [4.0, 27.0], [54.0, 41.0], [15.0, 29.0], [6.0, 0.0], [9.0, 29.0], [39.0, 12.0], [38.0, 7.0], [1.0, 5.0], [18.0, 2.0], [150.0, 241.0], [71.0, 186.0], [69.0, 149.0], [49.0, 137.0], [4.0, 0.0], [45.0, 137.0], [20.0, 12.0], [3.0, 9.0], [17.0, 3.0], [2.0, 37.0], [79.0, 55.0], [35.0, 43.0], [12.0, 30.0], [3.0, 28.0], [9.0, 2.0], [23.0, 13.0], [4.0, 10.0], [19.0, 3.0], [19.0, 0.0], [0.0, 3.0], [44.0, 12.0], [398.0, 643.0], [326.0, 614.0], [205.0, 515.0], [35.0, 188.0], [0.0, 77.0], [35.0, 111.0], [9.0, 4.0], [9.0, 0.0], [0.0, 4.0], [26.0, 107.0], [170.0, 327.0], [36.0, 128.0], [23.0, 18.0], [9.0, 16.0], [9.0, 4.0], [0.0, 12.0], [14.0, 2.0], [13.0, 110.0], [11.0, 19.0], [2.0, 91.0], [134.0, 199.0], [10.0, 1.0], [124.0, 198.0], [53.0, 49.0], [5.0, 23.0], [48.0, 26.0], [71.0, 149.0], [71.0, 130.0], [8.0, 2.0], [63.0, 128.0], [0.0, 15.0], [63.0, 113.0], [5.0, 0.0], [58.0, 113.0], [24.0, 70.0], [19.0, 26.0], [6.0, 0.0], [13.0, 26.0], [5.0, 44.0], [34.0, 43.0], [14.0, 33.0], [8.0, 3.0], [8.0, 0.0], [0.0, 3.0], [6.0, 30.0], [20.0, 10.0], [0.0, 19.0], [121.0, 99.0], [109.0, 67.0], [33.0, 51.0], [17.0, 5.0], [16.0, 46.0], [10.0, 43.0], [6.0, 3.0], [4.0, 40.0], [6.0, 3.0], [76.0, 16.0], [0.0, 3.0], [76.0, 13.0], [12.0, 32.0], [7.0, 31.0], [5.0, 1.0], [72.0, 29.0], [17.0, 17.0], [0.0, 6.0], [17.0, 11.0], [17.0, 6.0], [0.0, 4.0], [17.0, 2.0], [0.0, 5.0], [55.0, 12.0], [1.0, 4.0], [54.0, 8.0]]}, {"children_left": [1, 2, 3, -1, 5, 6, 7, 8, -1, 10, -1, 12, -1, -1, 15, -1, 17, 18, 19, -1, 21, -1, 23, -1, 25, -1, 27, -1, -1, -1, 31, -1, 33, 34, -1, -1, -1, 38, 39, -1, -1, 42, 43, -1, -1, 46, -1, 48, -1, -1, 51, -1, 53, 54, 55, 56, 57, 58, -1, 60, 61, 62, 63, -1, 65, 66, -1, -1, -1, 70, -1, -1, -1, 74, 75, -1, 77, -1, 79, -1, -1, 82, 83, -1, 85, -1, -1, 88, -1, -1, -1, 92, 93, 94, 95, -1, 97, -1, -1, -1, -1, -1, 103, 104, 105, 106, 107, -1, -1, -1, -1, -1, 113, 114, 115, 116, -1, -1, 119, 120, -1, -1, -1, -1, 125, -1, -1, -1, -1, 130, 131, 132, -1, -1, 135, -1, 137, 138, 139, 140, -1, 142, -1, -1, 145, 146, -1, -1, -1, 150, 151, -1, 153, -1, -1, -1, -1, 158, 159, 160, -1, 162, -1, -1, 165, -1, 167, 168, -1, -1, -1, 172, -1, 174, -1, -1, 177, 178, 179, 180, -1, -1, 183, 184, 185, -1, 187, -1, 189, -1, -1, -1, 193, -1, 195, -1, 197, -1, -1, 200, 201, 202, -1, 204, -1, -1, -1, 208, 209, -1, -1, 212, 213, -1, -1, 216, 217, -1, 219, -1, -1, -1, 223, 224, -1, 226, 227, 228, 229, -1, -1, -1, 233, 234, 235, 236, 237, -1, -1, 240, 241, 242, -1, -1, -1, -1, -1, -1, 249, -1, 251, -1, -1, -1, 255, 256, 257, 258, 259, 260, -1, -1, -1, -1, 265, 266, 267, 268, 269, 270, 271, 272, -1, 274, 275, 276, -1, 278, 279, -1, 281, 282, 283, -1, -1, -1, -1, 288, -1, -1, -1, 292, 293, 294, -1, 296, -1, 298, -1, -1, -1, -1, -1, 304, 305, -1, -1, 308, -1, -1, 311, 312, 313, 314, 315, -1, 317, -1, 319, 320, 321, -1, -1, -1, -1, 326, -1, -1, 329, -1, -1, 332, -1, 334, -1, 336, -1, -1, 339, 340, -1, -1, 343, -1, -1, 346, 347, -1, 349, -1, -1, -1, 353, -1, 355, -1, -1, -1, 359, -1, 361, 362, -1, 364, -1, -1, -1, 368, -1, -1, 371, -1, 373, 374, -1, 376, -1, -1, -1], "children_right": [176, 129, 4, -1, 50, 37, 14, 9, -1, 11, -1, 13, -1, -1, 16, -1, 30, 29, 20, -1, 22, -1, 24, -1, 26, -1, 28, -1, -1, -1, 32, -1, 36, 35, -1, -1, -1, 41, 40, -1, -1, 45, 44, -1, -1, 47, -1, 49, -1, -1, 52, -1, 128, 127, 102, 91, 90, 59, -1, 73, 72, 69, 64, -1, 68, 67, -1, -1, -1, 71, -1, -1, -1, 81, 76, -1, 78, -1, 80, -1, -1, 87, 84, -1, 86, -1, -1, 89, -1, -1, -1, 101, 100, 99, 96, -1, 98, -1, -1, -1, -1, -1, 112, 111, 110, 109, 108, -1, -1, -1, -1, -1, 124, 123, 118, 117, -1, -1, 122, 121, -1, -1, -1, -1, 126, -1, -1, -1, -1, 157, 134, 133, -1, -1, 136, -1, 156, 149, 144, 141, -1, 143, -1, -1, 148, 147, -1, -1, -1, 155, 152, -1, 154, -1, -1, -1, -1, 171, 164, 161, -1, 163, -1, -1, 166, -1, 170, 169, -1, -1, -1, 173, -1, 175, -1, -1, 222, 199, 182, 181, -1, -1, 192, 191, 186, -1, 188, -1, 190, -1, -1, -1, 194, -1, 196, -1, 198, -1, -1, 207, 206, 203, -1, 205, -1, -1, -1, 211, 210, -1, -1, 215, 214, -1, -1, 221, 218, -1, 220, -1, -1, -1, 254, 225, -1, 253, 232, 231, 230, -1, -1, -1, 248, 247, 246, 239, 238, -1, -1, 245, 244, 243, -1, -1, -1, -1, -1, -1, 250, -1, 252, -1, -1, -1, 370, 367, 264, 263, 262, 261, -1, -1, -1, -1, 358, 357, 352, 345, 310, 303, 302, 273, -1, 291, 290, 277, -1, 287, 280, -1, 286, 285, 284, -1, -1, -1, -1, 289, -1, -1, -1, 301, 300, 295, -1, 297, -1, 299, -1, -1, -1, -1, -1, 307, 306, -1, -1, 309, -1, -1, 338, 331, 328, 325, 316, -1, 318, -1, 324, 323, 322, -1, -1, -1, -1, 327, -1, -1, 330, -1, -1, 333, -1, 335, -1, 337, -1, -1, 342, 341, -1, -1, 344, -1, -1, 351, 348, -1, 350, -1, -1, -1, 354, -1, 356, -1, -1, -1, 360, -1, 366, 363, -1, 365, -1, -1, -1, 369, -1, -1, 372, -1, 378, 375, -1, 377, -1, -1, -1], "threshold": [21.545000076293945, 227.5, -116.5, -2.0, 56.5, 37.5, 1010.5, -1.5649999976158142, -2.0, 10.345000267028809, -2.0, 0.33500000834465027, -2.0, -2.0, 3.190000057220459, -2.0, 18.5, 43.5, 33.5, -2.0, 3.799999952316284, -2.0, 10.40999984741211, -2.0, 1018.5, -2.0, 1020.5, -2.0, -2.0, -2.0, 53.5, -2.0, 6.144999980926514, 14.5, -2.0, -2.0, -2.0, 0.024999999441206455, 69.0, -2.0, -2.0, 1018.5, 6.039999961853027, -2.0, -2.0, 11.5, -2.0, 7.335000038146973, -2.0, -2.0, 12.21999979019165, -2.0, 11.214999675750732, 149.5, 17.5, 14.335000038146973, 58.0, -112.5, -2.0, 78.5, 20.890000343322754, 6.134999990463257, 66.5, -2.0, 20.070000648498535, 50.5, -2.0, -2.0, -2.0, 1.5, -2.0, -2.0, -2.0, 157.5, 3.7299998998641968, -2.0, 13.140000343322754, -2.0, 1002.5, -2.0, -2.0, 0.5, 161.5, -2.0, 21.389999389648438, -2.0, -2.0, 11.87999963760376, -2.0, -2.0, -2.0, 7.559999942779541, 166.5, 3.5, -71.5, -2.0, 53.5, -2.0, -2.0, -2.0, -2.0, -2.0, 29.5, 21.015000343322754, 0.9950000047683716, 1024.0, 65.5, -2.0, -2.0, -2.0, -2.0, -2.0, 146.0, 9.220000267028809, 78.5, 15.210000038146973, -2.0, -2.0, -36.5, 20.0, -2.0, -2.0, -2.0, -2.0, 54.5, -2.0, -2.0, -2.0, -2.0, 79.0, 236.5, 12.924999713897705, -2.0, -2.0, -117.5, -2.0, 361.5, 1025.5, 33.0, 0.2750000059604645, -2.0, 64.0, -2.0, -2.0, 9.139999866485596, 10.899999618530273, -2.0, -2.0, -2.0, 315.5, 1.0, -2.0, 0.20499999821186066, -2.0, -2.0, -2.0, -2.0, 15.5, 267.5, 14.855000019073486, -2.0, 68.0, -2.0, -2.0, 60.0, -2.0, 41.5, 35.0, -2.0, -2.0, -2.0, -30.0, -2.0, 1027.0, -2.0, -2.0, -18.5, 129.5, 3.9600000381469727, 20.295000076293945, -2.0, -2.0, -33.5, 75.5, 58.5, -2.0, -34.5, -2.0, 0.4650000035762787, -2.0, -2.0, -2.0, 21.960000038146973, -2.0, 4.129999876022339, -2.0, 33.34000015258789, -2.0, -2.0, 27.0, 61.0, 11.029999732971191, -2.0, 311.5, -2.0, -2.0, -2.0, 146.5, 17.94499969482422, -2.0, -2.0, 31.0, 172.0, -2.0, -2.0, 31.43000030517578, 187.0, -2.0, 206.0, -2.0, -2.0, -2.0, 19.5, 22.5, -2.0, 1017.0, 1.5, 1014.5, 2.5950000286102295, -2.0, -2.0, -2.0, 83.5, 0.8849999904632568, 24.219999313354492, 3.0199999809265137, 23.619999885559082, -2.0, -2.0, 32.23500061035156, 31.925000190734863, 4.81000018119812, -2.0, -2.0, -2.0, -2.0, -2.0, -2.0, 4.060000061988831, -2.0, 24.46500015258789, -2.0, -2.0, -2.0, 20.5, 21.24000072479248, -119.5, 47.5, 0.5, 9.674999713897705, -2.0, -2.0, -2.0, -2.0, 192.5, 54.5, 176.5, 7.325000047683716, -75.5, 51.5, -78.5, 20.5, -2.0, 5.630000114440918, 31.119999885559082, -117.5, -2.0, 5.21999979019165, 80.5, -2.0, 12.0, 4.5, 1014.5, -2.0, -2.0, -2.0, -2.0, -79.5, -2.0, -2.0, -2.0, 90.5, 20.860000610351562, 0.5600000023841858, -2.0, -102.5, -2.0, 14.025000095367432, -2.0, -2.0, -2.0, -2.0, -2.0, 1016.5, 31.5, -2.0, -2.0, -82.5, -2.0, -2.0, 49.5, 51.5, 0.7300000190734863, 60.5, 22.95500087738037, -2.0, -5.5, -2.0, 33.5, 6.619999885559082, 1013.5, -2.0, -2.0, -2.0, -2.0, 3.684999942779541, -2.0, -2.0, -38.0, -2.0, -2.0, 67.5, -2.0, 73.5, -2.0, 2.2450000047683716, -2.0, -2.0, 122.0, 14.285000324249268, -2.0, -2.0, 27.0, -2.0, -2.0, 20.074999809265137, 26.5, -2.0, 49.5, -2.0, -2.0, -2.0, 11.580000400543213, -2.0, 9.5, -2.0, -2.0, -2.0, -103.5, -2.0, 342.5, 22.824999809265137, -2.0, 5.674999952316284, -2.0, -2.0, -2.0, 0.14000000059604645, -2.0, -2.0, 29.5, -2.0, 169.5, 14.839999675750732, -2.0, 29.5, -2.0, -2.0, -2.0], "feature": [2, 9, 1, -2, 9, 1, 7, 8, -2, 2, -2, 4, -2, -2, 3, -2, 1, 0, 0, -2, 3, -2, 2, -2, 7, -2, 7, -2, -2, -2, 5, -2, 3, 9, -2, -2, -2, 4, 5, -2, -2, 7, 3, -2, -2, 2, -2, 3, -2, -2, 2, -2, 3, 1, 1, 8, 0, 1, -2, 9, 2, 3, 9, -2, 2, 0, -2, -2, -2, 6, -2, -2, -2, 9, 8, -2, 2, -2, 7, -2, -2, 1, 9, -2, 2, -2, -2, 8, -2, -2, -2, 3, 9, 1, 1, -2, 0, -2, -2, -2, -2, -2, 1, 2, 4, 7, 9, -2, -2, -2, -2, -2, 1, 8, 9, 2, -2, -2, 0, 6, -2, -2, -2, -2, 5, -2, -2, -2, -2, 6, 9, 2, -2, -2, 1, -2, 9, 7, 1, 4, -2, 5, -2, -2, 8, 2, -2, -2, -2, 9, 6, -2, 4, -2, -2, -2, -2, 1, 9, 2, -2, 5, -2, -2, 5, -2, 0, 0, -2, -2, -2, 0, -2, 7, -2, -2, 0, 9, 3, 8, -2, -2, 0, 5, 9, -2, 0, -2, 4, -2, -2, -2, 2, -2, 3, -2, 2, -2, -2, 1, 5, 8, -2, 9, -2, -2, -2, 1, 8, -2, -2, 6, 9, -2, -2, 2, 9, -2, 9, -2, -2, -2, 0, 1, -2, 7, 0, 7, 3, -2, -2, -2, 5, 4, 8, 3, 8, -2, -2, 2, 2, 3, -2, -2, -2, -2, -2, -2, 3, -2, 8, -2, -2, -2, 1, 8, 1, 0, 6, 8, -2, -2, -2, -2, 9, 0, 9, 3, 1, 5, 1, 0, -2, 3, 2, 1, -2, 3, 9, -2, 6, 6, 7, -2, -2, -2, -2, 1, -2, -2, -2, 6, 8, 4, -2, 1, -2, 8, -2, -2, -2, -2, -2, 7, 0, -2, -2, 1, -2, -2, 0, 5, 4, 6, 2, -2, 1, -2, 5, 3, 7, -2, -2, -2, -2, 3, -2, -2, 1, -2, -2, 6, -2, 6, -2, 3, -2, -2, 9, 8, -2, -2, 5, -2, -2, 8, 0, -2, 0, -2, -2, -2, 8, -2, 6, -2, -2, -2, 1, -2, 9, 2, -2, 8, -2, -2, -2, 4, -2, -2, 0, -2, 9, 8, -2, 1, -2, -2, -2], "classes": [0, 1], "value": [[2572.0, 2581.0], [1198.0, 880.0], [931.0, 576.0], [69.0, 10.0], [862.0, 566.0], [204.0, 193.0], [163.0, 130.0], [35.0, 47.0], [1.0, 14.0], [34.0, 33.0], [17.0, 3.0], [17.0, 30.0], [7.0, 1.0], [10.0, 29.0], [128.0, 83.0], [24.0, 2.0], [104.0, 81.0], [54.0, 59.0], [50.0, 38.0], [1.0, 12.0], [49.0, 26.0], [0.0, 5.0], [49.0, 21.0], [12.0, 12.0], [37.0, 9.0], [24.0, 0.0], [13.0, 9.0], [0.0, 6.0], [13.0, 3.0], [4.0, 21.0], [50.0, 22.0], [35.0, 7.0], [15.0, 15.0], [4.0, 14.0], [3.0, 0.0], [1.0, 14.0], [11.0, 1.0], [41.0, 63.0], [7.0, 30.0], [4.0, 30.0], [3.0, 0.0], [34.0, 33.0], [9.0, 24.0], [3.0, 22.0], [6.0, 2.0], [25.0, 9.0], [0.0, 4.0], [25.0, 5.0], [25.0, 2.0], [0.0, 3.0], [658.0, 373.0], [51.0, 6.0], [607.0, 367.0], [591.0, 367.0], [552.0, 362.0], [417.0, 237.0], [357.0, 178.0], [357.0, 171.0], [1.0, 8.0], [356.0, 163.0], [68.0, 51.0], [66.0, 41.0], [36.0, 35.0], [21.0, 7.0], [15.0, 28.0], [11.0, 28.0], [1.0, 22.0], [10.0, 6.0], [4.0, 0.0], [30.0, 6.0], [0.0, 5.0], [30.0, 1.0], [2.0, 10.0], [288.0, 112.0], [227.0, 68.0], [0.0, 4.0], [227.0, 64.0], [0.0, 4.0], [227.0, 60.0], [7.0, 9.0], [220.0, 51.0], [61.0, 44.0], [52.0, 26.0], [0.0, 5.0], [52.0, 21.0], [52.0, 17.0], [0.0, 4.0], [9.0, 18.0], [1.0, 16.0], [8.0, 2.0], [0.0, 7.0], [60.0, 59.0], [59.0, 44.0], [38.0, 42.0], [23.0, 39.0], [13.0, 4.0], [10.0, 35.0], [6.0, 35.0], [4.0, 0.0], [15.0, 3.0], [21.0, 2.0], [1.0, 15.0], [135.0, 125.0], [36.0, 66.0], [27.0, 65.0], [18.0, 62.0], [14.0, 61.0], [8.0, 5.0], [6.0, 56.0], [4.0, 1.0], [9.0, 3.0], [9.0, 1.0], [99.0, 59.0], [90.0, 40.0], [36.0, 30.0], [25.0, 6.0], [1.0, 4.0], [24.0, 2.0], [11.0, 24.0], [7.0, 3.0], [0.0, 3.0], [7.0, 0.0], [4.0, 21.0], [54.0, 10.0], [9.0, 19.0], [7.0, 2.0], [2.0, 17.0], [39.0, 5.0], [16.0, 0.0], [267.0, 304.0], [133.0, 209.0], [6.0, 37.0], [3.0, 0.0], [3.0, 37.0], [127.0, 172.0], [13.0, 1.0], [114.0, 171.0], [108.0, 171.0], [69.0, 144.0], [28.0, 94.0], [14.0, 80.0], [14.0, 14.0], [5.0, 14.0], [9.0, 0.0], [41.0, 50.0], [37.0, 23.0], [1.0, 12.0], [36.0, 11.0], [4.0, 27.0], [39.0, 27.0], [20.0, 26.0], [0.0, 8.0], [20.0, 18.0], [20.0, 11.0], [0.0, 7.0], [19.0, 1.0], [6.0, 0.0], [134.0, 95.0], [71.0, 77.0], [15.0, 38.0], [2.0, 20.0], [13.0, 18.0], [2.0, 15.0], [11.0, 3.0], [56.0, 39.0], [17.0, 3.0], [39.0, 36.0], [34.0, 14.0], [2.0, 11.0], [32.0, 3.0], [5.0, 22.0], [63.0, 18.0], [24.0, 1.0], [39.0, 17.0], [38.0, 9.0], [1.0, 8.0], [1374.0, 1701.0], [399.0, 276.0], [158.0, 176.0], [7.0, 42.0], [2.0, 41.0], [5.0, 1.0], [151.0, 134.0], [47.0, 80.0], [40.0, 80.0], [2.0, 27.0], [38.0, 53.0], [13.0, 36.0], [25.0, 17.0], [25.0, 7.0], [0.0, 10.0], [7.0, 0.0], [104.0, 54.0], [0.0, 6.0], [104.0, 48.0], [0.0, 5.0], [104.0, 43.0], [104.0, 38.0], [0.0, 5.0], [241.0, 100.0], [13.0, 27.0], [13.0, 14.0], [0.0, 10.0], [13.0, 4.0], [13.0, 1.0], [0.0, 3.0], [0.0, 13.0], [228.0, 73.0], [110.0, 14.0], [110.0, 11.0], [0.0, 3.0], [118.0, 59.0], [49.0, 39.0], [16.0, 33.0], [33.0, 6.0], [69.0, 20.0], [67.0, 15.0], [46.0, 3.0], [21.0, 12.0], [1.0, 8.0], [20.0, 4.0], [2.0, 5.0], [975.0, 1425.0], [173.0, 536.0], [9.0, 118.0], [164.0, 418.0], [158.0, 418.0], [53.0, 65.0], [44.0, 64.0], [0.0, 13.0], [44.0, 51.0], [9.0, 1.0], [105.0, 353.0], [85.0, 329.0], [68.0, 196.0], [67.0, 161.0], [8.0, 52.0], [3.0, 49.0], [5.0, 3.0], [59.0, 109.0], [57.0, 82.0], [45.0, 82.0], [31.0, 33.0], [14.0, 49.0], [12.0, 0.0], [2.0, 27.0], [1.0, 35.0], [17.0, 133.0], [20.0, 24.0], [13.0, 2.0], [7.0, 22.0], [2.0, 20.0], [5.0, 2.0], [6.0, 0.0], [802.0, 889.0], [677.0, 650.0], [627.0, 637.0], [57.0, 22.0], [57.0, 17.0], [16.0, 13.0], [0.0, 6.0], [16.0, 7.0], [41.0, 4.0], [0.0, 5.0], [570.0, 615.0], [532.0, 531.0], [531.0, 515.0], [473.0, 494.0], [411.0, 464.0], [157.0, 242.0], [121.0, 142.0], [108.0, 142.0], [7.0, 0.0], [101.0, 142.0], [79.0, 87.0], [63.0, 85.0], [0.0, 14.0], [63.0, 71.0], [46.0, 66.0], [3.0, 17.0], [43.0, 49.0], [14.0, 34.0], [14.0, 20.0], [5.0, 18.0], [9.0, 2.0], [0.0, 14.0], [29.0, 15.0], [17.0, 5.0], [17.0, 2.0], [0.0, 3.0], [16.0, 2.0], [22.0, 55.0], [13.0, 51.0], [10.0, 51.0], [2.0, 41.0], [8.0, 10.0], [0.0, 6.0], [8.0, 4.0], [0.0, 4.0], [8.0, 0.0], [3.0, 0.0], [9.0, 4.0], [13.0, 0.0], [36.0, 100.0], [21.0, 85.0], [6.0, 2.0], [15.0, 83.0], [15.0, 15.0], [12.0, 4.0], [3.0, 11.0], [254.0, 222.0], [191.0, 134.0], [113.0, 99.0], [108.0, 78.0], [81.0, 71.0], [11.0, 1.0], [70.0, 70.0], [14.0, 28.0], [56.0, 42.0], [28.0, 8.0], [28.0, 4.0], [0.0, 3.0], [28.0, 1.0], [0.0, 4.0], [28.0, 34.0], [27.0, 7.0], [4.0, 6.0], [23.0, 1.0], [5.0, 21.0], [5.0, 3.0], [0.0, 18.0], [78.0, 35.0], [46.0, 11.0], [32.0, 24.0], [0.0, 11.0], [32.0, 13.0], [0.0, 4.0], [32.0, 9.0], [63.0, 88.0], [38.0, 24.0], [29.0, 6.0], [9.0, 18.0], [25.0, 64.0], [7.0, 0.0], [18.0, 64.0], [62.0, 30.0], [62.0, 25.0], [0.0, 5.0], [62.0, 20.0], [60.0, 13.0], [2.0, 7.0], [0.0, 5.0], [58.0, 21.0], [21.0, 0.0], [37.0, 21.0], [7.0, 14.0], [30.0, 7.0], [1.0, 16.0], [38.0, 84.0], [7.0, 2.0], [31.0, 82.0], [27.0, 82.0], [11.0, 8.0], [16.0, 74.0], [4.0, 0.0], [12.0, 74.0], [4.0, 0.0], [50.0, 13.0], [3.0, 6.0], [47.0, 7.0], [125.0, 239.0], [12.0, 68.0], [113.0, 171.0], [74.0, 151.0], [28.0, 97.0], [46.0, 54.0], [23.0, 45.0], [23.0, 9.0], [39.0, 20.0]]}, {"children_left": [1, 2, 3, 4, 5, 6, 7, 8, -1, -1, 11, -1, -1, 14, -1, 16, -1, -1, -1, 20, 21, 22, 23, -1, 25, -1, -1, 28, -1, 30, -1, -1, 33, -1, -1, 36, -1, 38, 39, 40, 41, -1, 43, 44, -1, -1, -1, -1, -1, -1, 51, -1, 53, -1, 55, 56, 57, -1, 59, 60, -1, 62, 63, 64, 65, -1, -1, -1, -1, -1, 71, -1, 73, -1, 75, 76, -1, -1, 79, -1, 81, -1, 83, -1, -1, -1, 87, 88, -1, -1, -1, 92, 93, -1, 95, 96, 97, -1, -1, -1, -1, 102, 103, 104, 105, 106, -1, 108, -1, -1, 111, -1, 113, -1, 115, -1, -1, -1, 119, 120, 121, -1, 123, -1, 125, -1, 127, 128, -1, -1, -1, 132, -1, 134, -1, 136, 137, -1, -1, 140, 141, 142, -1, -1, -1, -1, 147, -1, 149, -1, -1, 152, 153, 154, 155, 156, -1, 158, 159, -1, 161, -1, -1, 164, -1, -1, -1, 168, 169, 170, 171, 172, 173, 174, -1, -1, 177, -1, -1, -1, 181, 182, -1, -1, 185, 186, 187, 188, 189, 190, -1, 192, -1, -1, 195, -1, 197, -1, -1, 200, 201, 202, -1, 204, -1, -1, -1, 208, 209, -1, -1, -1, -1, -1, 215, 216, -1, -1, -1, 220, -1, 222, -1, -1, -1, 226, -1, 228, 229, -1, -1, -1, 233, -1, 235, -1, -1, 238, 239, -1, 241, -1, -1, 244, 245, 246, 247, 248, 249, 250, -1, -1, -1, -1, -1, -1, 257, 258, 259, -1, -1, -1, -1, 264, -1, 266, 267, 268, 269, 270, -1, 272, -1, -1, -1, 276, -1, 278, -1, -1, -1, 282, 283, 284, 285, -1, 287, 288, -1, -1, -1, -1, 293, 294, -1, -1, -1, -1, 299, 300, 301, -1, -1, 304, -1, 306, -1, -1, 309, 310, 311, -1, 313, 314, -1, 316, 317, 318, 319, 320, -1, -1, -1, 324, -1, -1, 327, 328, -1, 330, 331, -1, -1, -1, -1, 336, 337, 338, -1, -1, -1, -1, 343, -1, -1, 346, -1, 348, -1, 350, 351, -1, -1, -1, 355, 356, 357, -1, -1, 360, -1, 362, -1, -1, 365, -1, 367, -1, -1], "children_right": [298, 91, 50, 19, 18, 13, 10, 9, -1, -1, 12, -1, -1, 15, -1, 17, -1, -1, -1, 35, 32, 27, 24, -1, 26, -1, -1, 29, -1, 31, -1, -1, 34, -1, -1, 37, -1, 49, 48, 47, 42, -1, 46, 45, -1, -1, -1, -1, -1, -1, 52, -1, 54, -1, 86, 85, 58, -1, 70, 61, -1, 69, 68, 67, 66, -1, -1, -1, -1, -1, 72, -1, 74, -1, 78, 77, -1, -1, 80, -1, 82, -1, 84, -1, -1, -1, 90, 89, -1, -1, -1, 101, 94, -1, 100, 99, 98, -1, -1, -1, -1, 151, 118, 117, 110, 107, -1, 109, -1, -1, 112, -1, 114, -1, 116, -1, -1, -1, 146, 131, 122, -1, 124, -1, 126, -1, 130, 129, -1, -1, -1, 133, -1, 135, -1, 139, 138, -1, -1, 145, 144, 143, -1, -1, -1, -1, 148, -1, 150, -1, -1, 237, 232, 167, 166, 157, -1, 163, 160, -1, 162, -1, -1, 165, -1, -1, -1, 225, 224, 219, 180, 179, 176, 175, -1, -1, 178, -1, -1, -1, 184, 183, -1, -1, 214, 213, 212, 199, 194, 191, -1, 193, -1, -1, 196, -1, 198, -1, -1, 207, 206, 203, -1, 205, -1, -1, -1, 211, 210, -1, -1, -1, -1, -1, 218, 217, -1, -1, -1, 221, -1, 223, -1, -1, -1, 227, -1, 231, 230, -1, -1, -1, 234, -1, 236, -1, -1, 243, 240, -1, 242, -1, -1, 263, 256, 255, 254, 253, 252, 251, -1, -1, -1, -1, -1, -1, 262, 261, 260, -1, -1, -1, -1, 265, -1, 281, 280, 275, 274, 271, -1, 273, -1, -1, -1, 277, -1, 279, -1, -1, -1, 297, 292, 291, 286, -1, 290, 289, -1, -1, -1, -1, 296, 295, -1, -1, -1, -1, 308, 303, 302, -1, -1, 305, -1, 307, -1, -1, 354, 345, 312, -1, 342, 315, -1, 335, 326, 323, 322, 321, -1, -1, -1, 325, -1, -1, 334, 329, -1, 333, 332, -1, -1, -1, -1, 341, 340, 339, -1, -1, -1, -1, 344, -1, -1, 347, -1, 349, -1, 353, 352, -1, -1, -1, 364, 359, 358, -1, -1, 361, -1, 363, -1, -1, 366, -1, 368, -1, -1], "threshold": [18.47499942779541, 4.184999942779541, 49.5, 32.5, -16.5, 1020.5, 116.5, 26.0, -2.0, -2.0, -33.5, -2.0, -2.0, 151.5, -2.0, 327.0, -2.0, -2.0, -2.0, 10.054999828338623, 1022.5, 19.46500015258789, 1013.0, -2.0, 27.5, -2.0, -2.0, 133.5, -2.0, 171.0, -2.0, -2.0, 44.0, -2.0, -2.0, 23.5, -2.0, 4.144999980926514, 0.4749999940395355, -73.5, 25.190000534057617, -2.0, 45.5, 10.90500020980835, -2.0, -2.0, -2.0, -2.0, -2.0, -2.0, 5.9700000286102295, -2.0, 3.4550000429153442, -2.0, 29.5, 217.5, 17.0, -2.0, -8.5, 11.075000286102295, -2.0, -67.5, 26.234999656677246, 189.5, 115.0, -2.0, -2.0, -2.0, -2.0, -2.0, 2.15500009059906, -2.0, 2.3499999046325684, -2.0, 0.35500000417232513, 15.049999713897705, -2.0, -2.0, 52.5, -2.0, 89.5, -2.0, 3.649999976158142, -2.0, -2.0, -2.0, 109.5, 2.9350000619888306, -2.0, -2.0, -2.0, -118.5, 25.369999885559082, -2.0, 46.5, 29.265000343322754, -122.5, -2.0, -2.0, -2.0, -2.0, -22.0, 63.5, 8.434999942779541, 1014.5, -62.0, -2.0, 0.014999999664723873, -2.0, -2.0, 18.940000534057617, -2.0, 21.355000495910645, -2.0, -33.5, -2.0, -2.0, -2.0, 263.0, 0.26500000059604645, 72.0, -2.0, 26.414999961853027, -2.0, 144.5, -2.0, 0.044999999925494194, 28.5, -2.0, -2.0, -2.0, 18.769999504089355, -2.0, 22.52999973297119, -2.0, 0.35500000417232513, -34.5, -2.0, -2.0, 33.93000030517578, 147.5, 5.234999895095825, -2.0, -2.0, -2.0, -2.0, 1020.5, -2.0, 22.0, -2.0, -2.0, 21.585000038146973, 37.0, 17.5, 326.5, -0.42000000178813934, -2.0, 49.0, 6.474999904632568, -2.0, 11.5, -2.0, -2.0, 17.0, -2.0, -2.0, -2.0, 14.049999713897705, 21.105000495910645, 77.5, -77.5, 42.5, 1017.5, 9.859999656677246, -2.0, -2.0, 3.740000009536743, -2.0, -2.0, -2.0, -8.5, 20.9350004196167, -2.0, -2.0, 186.5, 9.03499984741211, 150.5, 54.5, 0.41499999165534973, 1022.0, -2.0, 5.875, -2.0, -2.0, 43.0, -2.0, 0.5750000178813934, -2.0, -2.0, 18.59500026702881, 11.980000019073486, 8.115000247955322, -2.0, 1026.5, -2.0, -2.0, -2.0, 0.7549999952316284, 95.5, -2.0, -2.0, -2.0, -2.0, -2.0, 0.510000005364418, 1014.5, -2.0, -2.0, -2.0, 11.375, -2.0, 47.0, -2.0, -2.0, -2.0, 41.5, -2.0, 90.0, -72.5, -2.0, -2.0, -2.0, 1006.0, -2.0, 1.5, -2.0, -2.0, 31.5, 70.5, -2.0, 16.88499927520752, -2.0, -2.0, 24.289999961853027, 0.4049999862909317, 1023.5, 6.575000047683716, 105.5, 46.5, 5.75, -2.0, -2.0, -2.0, -2.0, -2.0, -2.0, 17.815000534057617, 22.47000026702881, 21.755000114440918, -2.0, -2.0, -2.0, -2.0, 24.40499973297119, -2.0, 28.074999809265137, 1019.5, 5.884999990463257, 188.0, 0.009999999776482582, -2.0, 27.515000343322754, -2.0, -2.0, -2.0, 0.45000000298023224, -2.0, 62.5, -2.0, -2.0, -2.0, 184.5, -5.0, 0.06499999947845936, 112.0, -2.0, 18.0, 5.815000057220459, -2.0, -2.0, -2.0, -2.0, 0.48499999940395355, 4.319999933242798, -2.0, -2.0, -2.0, -2.0, 2.4600000381469727, 13.5, 359.0, -2.0, -2.0, 114.5, -2.0, 0.7950000166893005, -2.0, -2.0, 34.5, 138.0, -157.0, -2.0, 121.5, 56.5, -2.0, 26.5, 63.5, 0.5949999988079071, 17.5, 308.5, -2.0, -2.0, -2.0, 30.505000114440918, -2.0, -2.0, 9.309999942779541, 97.0, -2.0, 89.5, 100.5, -2.0, -2.0, -2.0, -2.0, 21.920000076293945, 9.289999961853027, 1019.5, -2.0, -2.0, -2.0, -2.0, -12.5, -2.0, -2.0, 20.295000076293945, -2.0, 27.30500030517578, -2.0, 1012.5, 23.514999389648438, -2.0, -2.0, -2.0, 20.265000343322754, -78.0, 1016.5, -2.0, -2.0, 3.209999918937683, -2.0, 19.719999313354492, -2.0, -2.0, 0.8650000095367432, -2.0, -75.0, -2.0, -2.0], "feature": [8, 3, 5, 0, 0, 7, 9, 9, -2, -2, 0, -2, -2, 1, -2, 9, -2, -2, -2, 8, 7, 2, 7, -2, 1, -2, -2, 9, -2, 9, -2, -2, 5, -2, -2, 2, -2, 3, 4, 1, 2, -2, 0, 8, -2, -2, -2, -2, -2, -2, 2, -2, 8, -2, 1, 9, 0, -2, 1, 8, -2, 1, 2, 9, 9, -2, -2, -2, -2, -2, 3, -2, 3, -2, 4, 8, -2, -2, 5, -2, 6, -2, 3, -2, -2, -2, 9, 3, -2, -2, -2, 1, 2, -2, 0, 2, 1, -2, -2, -2, -2, 0, 9, 3, 7, 1, -2, 4, -2, -2, 2, -2, 2, -2, 0, -2, -2, -2, 9, 4, 1, -2, 2, -2, 1, -2, 4, 5, -2, -2, -2, 2, -2, 2, -2, 4, 0, -2, -2, 2, 9, 3, -2, -2, -2, -2, 7, -2, 6, -2, -2, 2, 1, 6, 9, 8, -2, 0, 3, -2, 6, -2, -2, 1, -2, -2, -2, 8, 2, 5, 1, 0, 7, 8, -2, -2, 2, -2, -2, -2, 1, 2, -2, -2, 9, 3, 9, 5, 4, 7, -2, 8, -2, -2, 5, -2, 4, -2, -2, 2, 8, 8, -2, 7, -2, -2, -2, 4, 6, -2, -2, -2, -2, -2, 4, 7, -2, -2, -2, 3, -2, 0, -2, -2, -2, 0, -2, 5, 1, -2, -2, -2, 7, -2, 6, -2, -2, 0, 6, -2, 8, -2, -2, 2, 4, 7, 3, 9, 0, 3, -2, -2, -2, -2, -2, -2, 8, 2, 2, -2, -2, -2, -2, 2, -2, 2, 7, 3, 9, 4, -2, 2, -2, -2, -2, 4, -2, 5, -2, -2, -2, 9, 1, 4, 9, -2, 5, 3, -2, -2, -2, -2, 4, 3, -2, -2, -2, -2, 3, 0, 9, -2, -2, 9, -2, 4, -2, -2, 0, 1, 1, -2, 1, 5, -2, 0, 5, 4, 0, 9, -2, -2, -2, 2, -2, -2, 3, 1, -2, 5, 1, -2, -2, -2, -2, 8, 3, 7, -2, -2, -2, -2, 0, -2, -2, 8, -2, 2, -2, 7, 8, -2, -2, -2, 8, 1, 7, -2, -2, 3, -2, 8, -2, -2, 4, -2, 1, -2, -2], "classes": [0, 1], "value": [[2603.0, 2550.0], [2180.0, 1876.0], [611.0, 675.0], [270.0, 370.0], [56.0, 126.0], [52.0, 71.0], [40.0, 30.0], [8.0, 18.0], [6.0, 2.0], [2.0, 16.0], [32.0, 12.0], [9.0, 10.0], [23.0, 2.0], [12.0, 41.0], [2.0, 32.0], [10.0, 9.0], [3.0, 9.0], [7.0, 0.0], [4.0, 55.0], [214.0, 244.0], [141.0, 123.0], [120.0, 83.0], [20.0, 34.0], [1.0, 21.0], [19.0, 13.0], [15.0, 3.0], [4.0, 10.0], [100.0, 49.0], [65.0, 18.0], [35.0, 31.0], [2.0, 21.0], [33.0, 10.0], [21.0, 40.0], [7.0, 38.0], [14.0, 2.0], [73.0, 121.0], [0.0, 20.0], [73.0, 101.0], [73.0, 90.0], [63.0, 89.0], [35.0, 29.0], [12.0, 0.0], [23.0, 29.0], [23.0, 19.0], [0.0, 7.0], [23.0, 12.0], [0.0, 10.0], [28.0, 60.0], [10.0, 1.0], [0.0, 11.0], [341.0, 305.0], [5.0, 23.0], [336.0, 282.0], [21.0, 1.0], [315.0, 281.0], [204.0, 230.0], [183.0, 170.0], [0.0, 16.0], [183.0, 154.0], [92.0, 49.0], [34.0, 4.0], [58.0, 45.0], [45.0, 45.0], [37.0, 45.0], [27.0, 43.0], [25.0, 24.0], [2.0, 19.0], [10.0, 2.0], [8.0, 0.0], [13.0, 0.0], [91.0, 105.0], [14.0, 3.0], [77.0, 102.0], [0.0, 12.0], [77.0, 90.0], [26.0, 48.0], [12.0, 40.0], [14.0, 8.0], [51.0, 42.0], [1.0, 12.0], [50.0, 30.0], [35.0, 6.0], [15.0, 24.0], [14.0, 10.0], [1.0, 14.0], [21.0, 60.0], [111.0, 51.0], [28.0, 28.0], [19.0, 3.0], [9.0, 25.0], [83.0, 23.0], [1569.0, 1201.0], [71.0, 14.0], [50.0, 1.0], [21.0, 13.0], [21.0, 10.0], [6.0, 9.0], [5.0, 0.0], [1.0, 9.0], [15.0, 1.0], [0.0, 3.0], [1498.0, 1187.0], [469.0, 262.0], [76.0, 83.0], [64.0, 82.0], [12.0, 37.0], [5.0, 1.0], [7.0, 36.0], [6.0, 5.0], [1.0, 31.0], [52.0, 45.0], [24.0, 6.0], [28.0, 39.0], [2.0, 17.0], [26.0, 22.0], [2.0, 11.0], [24.0, 11.0], [12.0, 1.0], [393.0, 179.0], [362.0, 143.0], [249.0, 68.0], [24.0, 18.0], [225.0, 50.0], [135.0, 16.0], [90.0, 34.0], [47.0, 5.0], [43.0, 29.0], [24.0, 27.0], [10.0, 1.0], [14.0, 26.0], [19.0, 2.0], [113.0, 75.0], [29.0, 4.0], [84.0, 71.0], [11.0, 29.0], [73.0, 42.0], [7.0, 14.0], [0.0, 11.0], [7.0, 3.0], [66.0, 28.0], [66.0, 24.0], [45.0, 24.0], [3.0, 9.0], [42.0, 15.0], [21.0, 0.0], [0.0, 4.0], [31.0, 36.0], [10.0, 26.0], [21.0, 10.0], [13.0, 0.0], [8.0, 10.0], [1029.0, 925.0], [632.0, 455.0], [622.0, 424.0], [79.0, 95.0], [72.0, 95.0], [9.0, 37.0], [63.0, 58.0], [40.0, 52.0], [18.0, 43.0], [22.0, 9.0], [21.0, 3.0], [1.0, 6.0], [23.0, 6.0], [23.0, 2.0], [0.0, 4.0], [7.0, 0.0], [543.0, 329.0], [488.0, 268.0], [449.0, 266.0], [336.0, 232.0], [53.0, 60.0], [47.0, 29.0], [37.0, 9.0], [37.0, 4.0], [0.0, 5.0], [10.0, 20.0], [5.0, 0.0], [5.0, 20.0], [6.0, 31.0], [283.0, 172.0], [54.0, 9.0], [54.0, 5.0], [0.0, 4.0], [229.0, 163.0], [192.0, 103.0], [168.0, 102.0], [132.0, 95.0], [60.0, 23.0], [43.0, 7.0], [31.0, 2.0], [12.0, 5.0], [12.0, 0.0], [0.0, 5.0], [17.0, 16.0], [1.0, 11.0], [16.0, 5.0], [1.0, 4.0], [15.0, 1.0], [72.0, 72.0], [38.0, 60.0], [38.0, 48.0], [8.0, 29.0], [30.0, 19.0], [30.0, 14.0], [0.0, 5.0], [0.0, 12.0], [34.0, 12.0], [17.0, 12.0], [16.0, 4.0], [1.0, 8.0], [17.0, 0.0], [36.0, 7.0], [24.0, 1.0], [37.0, 60.0], [28.0, 25.0], [12.0, 0.0], [16.0, 25.0], [9.0, 35.0], [113.0, 34.0], [109.0, 27.0], [4.0, 7.0], [0.0, 7.0], [4.0, 0.0], [39.0, 2.0], [55.0, 61.0], [14.0, 1.0], [41.0, 60.0], [26.0, 55.0], [5.0, 0.0], [21.0, 55.0], [15.0, 5.0], [10.0, 31.0], [4.0, 0.0], [6.0, 31.0], [4.0, 1.0], [2.0, 30.0], [397.0, 470.0], [30.0, 77.0], [13.0, 67.0], [17.0, 10.0], [7.0, 10.0], [10.0, 0.0], [367.0, 393.0], [94.0, 177.0], [40.0, 116.0], [36.0, 116.0], [36.0, 95.0], [22.0, 28.0], [13.0, 27.0], [6.0, 27.0], [7.0, 0.0], [9.0, 1.0], [14.0, 67.0], [0.0, 21.0], [4.0, 0.0], [54.0, 61.0], [47.0, 61.0], [33.0, 17.0], [4.0, 11.0], [29.0, 6.0], [14.0, 44.0], [7.0, 0.0], [273.0, 216.0], [11.0, 0.0], [262.0, 216.0], [115.0, 127.0], [113.0, 101.0], [80.0, 49.0], [60.0, 47.0], [11.0, 22.0], [49.0, 25.0], [49.0, 19.0], [0.0, 6.0], [20.0, 2.0], [33.0, 52.0], [21.0, 17.0], [12.0, 35.0], [8.0, 35.0], [4.0, 0.0], [2.0, 26.0], [147.0, 89.0], [133.0, 89.0], [58.0, 58.0], [22.0, 39.0], [9.0, 0.0], [13.0, 39.0], [10.0, 9.0], [1.0, 9.0], [9.0, 0.0], [3.0, 30.0], [36.0, 19.0], [75.0, 31.0], [72.0, 24.0], [0.0, 4.0], [72.0, 20.0], [3.0, 7.0], [14.0, 0.0], [423.0, 674.0], [29.0, 134.0], [7.0, 102.0], [3.0, 102.0], [4.0, 0.0], [22.0, 32.0], [6.0, 0.0], [16.0, 32.0], [9.0, 3.0], [7.0, 29.0], [394.0, 540.0], [279.0, 467.0], [213.0, 427.0], [14.0, 2.0], [199.0, 425.0], [184.0, 349.0], [19.0, 82.0], [165.0, 267.0], [133.0, 244.0], [47.0, 37.0], [32.0, 10.0], [32.0, 4.0], [31.0, 0.0], [1.0, 4.0], [0.0, 6.0], [15.0, 27.0], [0.0, 12.0], [15.0, 15.0], [86.0, 207.0], [75.0, 203.0], [9.0, 65.0], [66.0, 138.0], [57.0, 135.0], [13.0, 9.0], [44.0, 126.0], [9.0, 3.0], [11.0, 4.0], [32.0, 23.0], [17.0, 22.0], [9.0, 22.0], [4.0, 21.0], [5.0, 1.0], [8.0, 0.0], [15.0, 1.0], [15.0, 76.0], [4.0, 1.0], [11.0, 75.0], [66.0, 40.0], [16.0, 24.0], [50.0, 16.0], [29.0, 0.0], [21.0, 16.0], [12.0, 16.0], [4.0, 15.0], [8.0, 1.0], [9.0, 0.0], [115.0, 73.0], [45.0, 52.0], [6.0, 27.0], [1.0, 25.0], [5.0, 2.0], [39.0, 25.0], [2.0, 10.0], [37.0, 15.0], [33.0, 6.0], [4.0, 9.0], [70.0, 21.0], [45.0, 4.0], [25.0, 17.0], [12.0, 16.0], [13.0, 1.0]]}, {"children_left": [1, 2, 3, 4, -1, 6, 7, -1, 9, -1, -1, 12, 13, 14, 15, 16, 17, -1, 19, -1, -1, -1, 23, 24, 25, -1, 27, 28, -1, 30, 31, -1, 33, -1, 35, -1, -1, 38, -1, -1, -1, 42, 43, -1, -1, -1, 47, 48, 49, 50, 51, -1, 53, 54, -1, -1, 57, 58, 59, -1, 61, -1, 63, -1, 65, -1, 67, 68, -1, -1, 71, -1, -1, 74, -1, -1, -1, 78, 79, 80, 81, 82, -1, -1, -1, 86, 87, -1, 89, -1, 91, 92, 93, -1, -1, -1, -1, -1, 99, 100, -1, 102, -1, -1, -1, 106, -1, 108, -1, -1, 111, 112, 113, 114, 115, -1, 117, 118, -1, -1, -1, -1, -1, -1, -1, 126, 127, -1, 129, -1, 131, -1, -1, 134, 135, -1, -1, -1, 139, 140, -1, 142, 143, -1, -1, 146, -1, -1, 149, 150, 151, -1, -1, 154, 155, -1, -1, -1, 159, -1, 161, -1, 163, -1, -1, -1, 167, -1, -1, 170, -1, 172, -1, 174, 175, 176, -1, -1, -1, -1, 181, 182, -1, -1, 185, 186, -1, -1, -1, 190, 191, 192, 193, -1, -1, -1, 197, -1, 199, 200, 201, 202, 203, -1, 205, 206, -1, -1, 209, 210, -1, -1, 213, -1, -1, -1, -1, 218, -1, 220, -1, -1, -1, 224, 225, -1, 227, 228, 229, 230, 231, 232, 233, -1, -1, 236, -1, -1, -1, -1, 241, 242, 243, 244, 245, 246, -1, -1, -1, -1, 251, -1, -1, -1, -1, 256, 257, 258, 259, -1, -1, -1, -1, -1, 265, 266, 267, 268, -1, -1, -1, -1, 273, 274, -1, 276, -1, 278, -1, -1, -1, 282, 283, 284, 285, -1, -1, 288, -1, -1, 291, 292, 293, 294, -1, -1, 297, -1, -1, -1, 301, -1, 303, 304, -1, -1, 307, 308, 309, -1, -1, -1, -1, 314, -1, 316, -1, -1, 319, 320, 321, 322, 323, -1, -1, -1, 327, -1, 329, -1, 331, 332, 333, 334, 335, -1, -1, -1, -1, -1, 341, 342, -1, 344, -1, -1, -1, 348, 349, 350, -1, -1, -1, 354, 355, -1, -1, -1, 359, -1, 361, -1, -1], "children_right": [318, 189, 180, 5, -1, 11, 8, -1, 10, -1, -1, 169, 166, 165, 22, 21, 18, -1, 20, -1, -1, -1, 46, 41, 26, -1, 40, 29, -1, 37, 32, -1, 34, -1, 36, -1, -1, 39, -1, -1, -1, 45, 44, -1, -1, -1, 138, 125, 110, 77, 52, -1, 56, 55, -1, -1, 76, 73, 60, -1, 62, -1, 64, -1, 66, -1, 70, 69, -1, -1, 72, -1, -1, 75, -1, -1, -1, 105, 98, 85, 84, 83, -1, -1, -1, 97, 88, -1, 90, -1, 96, 95, 94, -1, -1, -1, -1, -1, 104, 101, -1, 103, -1, -1, -1, 107, -1, 109, -1, -1, 124, 123, 122, 121, 116, -1, 120, 119, -1, -1, -1, -1, -1, -1, -1, 133, 128, -1, 130, -1, 132, -1, -1, 137, 136, -1, -1, -1, 148, 141, -1, 145, 144, -1, -1, 147, -1, -1, 158, 153, 152, -1, -1, 157, 156, -1, -1, -1, 160, -1, 162, -1, 164, -1, -1, -1, 168, -1, -1, 171, -1, 173, -1, 179, 178, 177, -1, -1, -1, -1, 184, 183, -1, -1, 188, 187, -1, -1, -1, 223, 196, 195, 194, -1, -1, -1, 198, -1, 222, 217, 216, 215, 204, -1, 208, 207, -1, -1, 212, 211, -1, -1, 214, -1, -1, -1, -1, 219, -1, 221, -1, -1, -1, 281, 226, -1, 264, 255, 240, 239, 238, 235, 234, -1, -1, 237, -1, -1, -1, -1, 254, 253, 250, 249, 248, 247, -1, -1, -1, -1, 252, -1, -1, -1, -1, 263, 262, 261, 260, -1, -1, -1, -1, -1, 272, 271, 270, 269, -1, -1, -1, -1, 280, 275, -1, 277, -1, 279, -1, -1, -1, 313, 290, 287, 286, -1, -1, 289, -1, -1, 300, 299, 296, 295, -1, -1, 298, -1, -1, -1, 302, -1, 306, 305, -1, -1, 312, 311, 310, -1, -1, -1, -1, 315, -1, 317, -1, -1, 358, 347, 326, 325, 324, -1, -1, -1, 328, -1, 330, -1, 340, 339, 338, 337, 336, -1, -1, -1, -1, -1, 346, 343, -1, 345, -1, -1, -1, 353, 352, 351, -1, -1, -1, 357, 356, -1, -1, -1, 360, -1, 362, -1, -1], "threshold": [18.850000381469727, 5.234999895095825, 30.910000801086426, 1.4850000143051147, -2.0, -119.5, 25.135000228881836, -2.0, 45.5, -2.0, -2.0, 5.105000019073486, 90.5, 58.0, 1009.5, 97.5, 63.0, -2.0, 65.5, -2.0, -2.0, -2.0, 63.5, 19.5, 1014.5, -2.0, 17.5, 32.5, -2.0, 54.5, 6.615000009536743, -2.0, 2.084999918937683, -2.0, 35.5, -2.0, -2.0, 13.914999961853027, -2.0, -2.0, -2.0, 97.5, 7.894999980926514, -2.0, -2.0, -2.0, 49.5, 295.5, 15.015000343322754, 43.5, 102.0, -2.0, 2.5, 4.890000104904175, -2.0, -2.0, 1026.5, 235.5, 6.5, -2.0, -30.5, -2.0, 2.319999933242798, -2.0, 20.5, -2.0, 0.014999999664723873, 11.940000057220459, -2.0, -2.0, 167.0, -2.0, -2.0, 3.334999918937683, -2.0, -2.0, -2.0, 29.5, 19.5, 60.5, -111.0, 48.0, -2.0, -2.0, -2.0, 1021.5, -96.5, -2.0, 40.5, -2.0, 12.0, 11.449999809265137, 20.80500030517578, -2.0, -2.0, -2.0, -2.0, -2.0, 13.480000019073486, 45.5, -2.0, 2.319999933242798, -2.0, -2.0, -2.0, 18.34999942779541, -2.0, 20.140000343322754, -2.0, -2.0, 0.6349999904632568, 1022.5, 45.5, 28.295000076293945, 22.010000228881836, -2.0, -74.5, 60.5, -2.0, -2.0, -2.0, -2.0, -2.0, -2.0, -2.0, 3.59499990940094, 69.5, -2.0, 79.0, -2.0, 7.380000114440918, -2.0, -2.0, 20.925000190734863, 11.609999656677246, -2.0, -2.0, -2.0, 124.5, -105.5, -2.0, 4.825000047683716, 3.4600000381469727, -2.0, -2.0, 91.0, -2.0, -2.0, 175.5, 0.5249999761581421, 17.5, -2.0, -2.0, 169.0, 0.875, -2.0, -2.0, -2.0, -2.059999957680702, -2.0, 63.0, -2.0, -3.0, -2.0, -2.0, -2.0, 268.0, -2.0, -2.0, -21.0, -2.0, -35.5, -2.0, 28.97000026702881, 90.5, 17.380000114440918, -2.0, -2.0, -2.0, -2.0, 125.5, 54.0, -2.0, -2.0, 22.5, -5.5, -2.0, -2.0, -2.0, -22.0, 60.5, 30.06999969482422, -36.5, -2.0, -2.0, -2.0, 1001.5, -2.0, 65.5, 197.5, 61.5, 0.8050000071525574, 148.5, -2.0, -34.5, 5.674999952316284, -2.0, -2.0, 6.9750001430511475, 34.845001220703125, -2.0, -2.0, -33.5, -2.0, -2.0, -2.0, -2.0, 35.5, -2.0, 71.5, -2.0, -2.0, -2.0, 22.4350004196167, -119.5, -2.0, 202.5, 13.5, 11.300000190734863, -77.5, 14.670000076293945, 6.484999895095825, 78.5, -2.0, -2.0, 5.3399999141693115, -2.0, -2.0, -2.0, -2.0, 8.474999904632568, 21.755000114440918, 147.5, 1020.0, 122.0, 97.5, -2.0, -2.0, -2.0, -2.0, 16.0, -2.0, -2.0, -2.0, -2.0, 0.9650000035762787, 0.8899999856948853, 7.085000038146973, 20.204999923706055, -2.0, -2.0, -2.0, -2.0, -2.0, 284.0, 20.989999771118164, 17.704999923706055, 5.980000019073486, -2.0, -2.0, -2.0, -2.0, 11.269999980926514, 7.5950000286102295, -2.0, 69.5, -2.0, 48.0, -2.0, -2.0, -2.0, 13.5, 35.5, 108.0, -105.5, -2.0, -2.0, -105.0, -2.0, -2.0, 28.09000015258789, 140.0, 7.5, 1.5, -2.0, -2.0, 1004.5, -2.0, -2.0, -2.0, 115.5, -2.0, 39.5, 131.5, -2.0, -2.0, 178.0, 1011.5, 143.5, -2.0, -2.0, -2.0, -2.0, 14.824999809265137, -2.0, 0.35500000417232513, -2.0, -2.0, 126.5, 26.5, 97.0, 9.0, 200.0, -2.0, -2.0, -2.0, -8.5, -2.0, 3.0799999237060547, -2.0, 4.81000018119812, 24.524999618530273, 4.454999923706055, 15.5, 3.5749999284744263, -2.0, -2.0, -2.0, -2.0, -2.0, 85.5, 1010.5, -2.0, 0.19500000029802322, -2.0, -2.0, -2.0, 21.24000072479248, 0.35500000417232513, 9.0, -2.0, -2.0, -2.0, 0.2900000065565109, 143.0, -2.0, -2.0, -2.0, 21.085000038146973, -2.0, 71.5, -2.0, -2.0], "feature": [8, 3, 2, 3, -2, 1, 2, -2, 0, -2, -2, 3, 5, 0, 7, 9, 6, -2, 5, -2, -2, -2, 9, 1, 7, -2, 1, 0, -2, 9, 2, -2, 8, -2, 0, -2, -2, 2, -2, -2, -2, 6, 8, -2, -2, -2, 0, 9, 8, 5, 9, -2, 6, 3, -2, -2, 7, 9, 6, -2, 0, -2, 3, -2, 0, -2, 4, 8, -2, -2, 9, -2, -2, 3, -2, -2, -2, 1, 1, 6, 1, 5, -2, -2, -2, 7, 1, -2, 0, -2, 1, 8, 2, -2, -2, -2, -2, -2, 8, 5, -2, 3, -2, -2, -2, 2, -2, 2, -2, -2, 4, 7, 0, 2, 2, -2, 1, 5, -2, -2, -2, -2, -2, -2, -2, 3, 6, -2, 6, -2, 8, -2, -2, 2, 2, -2, -2, -2, 9, 1, -2, 3, 3, -2, -2, 6, -2, -2, 9, 4, 8, -2, -2, 9, 4, -2, -2, -2, 8, -2, 5, -2, 1, -2, -2, -2, 9, -2, -2, 1, -2, 0, -2, 2, 9, 2, -2, -2, -2, -2, 9, 9, -2, -2, 5, 1, -2, -2, -2, 0, 9, 2, 0, -2, -2, -2, 7, -2, 5, 9, 5, 4, 1, -2, 0, 3, -2, -2, 3, 2, -2, -2, 0, -2, -2, -2, -2, 5, -2, 1, -2, -2, -2, 2, 1, -2, 9, 1, 8, 1, 2, 2, 5, -2, -2, 3, -2, -2, -2, -2, 3, 2, 9, 7, 9, 9, -2, -2, -2, -2, 6, -2, -2, -2, -2, 4, 4, 3, 2, -2, -2, -2, -2, -2, 9, 2, 2, 3, -2, -2, -2, -2, 3, 2, -2, 5, -2, 0, -2, -2, -2, 1, 0, 9, 1, -2, -2, 1, -2, -2, 2, 9, 6, 6, -2, -2, 7, -2, -2, -2, 9, -2, 0, 9, -2, -2, 9, 7, 9, -2, -2, -2, -2, 8, -2, 4, -2, -2, 1, 0, 1, 6, 9, -2, -2, -2, 0, -2, 3, -2, 3, 8, 3, 0, 3, -2, -2, -2, -2, -2, 5, 7, -2, 4, -2, -2, -2, 8, 4, 6, -2, -2, -2, 4, 9, -2, -2, -2, 8, -2, 5, -2, -2], "classes": [0, 1], "value": [[2529.0, 2624.0], [2216.0, 1983.0], [1104.0, 1146.0], [1065.0, 1055.0], [2.0, 21.0], [1063.0, 1034.0], [76.0, 33.0], [61.0, 15.0], [15.0, 18.0], [15.0, 4.0], [0.0, 14.0], [987.0, 1001.0], [949.0, 923.0], [913.0, 910.0], [912.0, 891.0], [95.0, 58.0], [16.0, 24.0], [3.0, 18.0], [13.0, 6.0], [13.0, 2.0], [0.0, 4.0], [79.0, 34.0], [817.0, 833.0], [97.0, 150.0], [64.0, 58.0], [3.0, 18.0], [61.0, 40.0], [49.0, 40.0], [1.0, 7.0], [48.0, 33.0], [42.0, 19.0], [0.0, 5.0], [42.0, 14.0], [26.0, 2.0], [16.0, 12.0], [10.0, 0.0], [6.0, 12.0], [6.0, 14.0], [5.0, 1.0], [1.0, 13.0], [12.0, 0.0], [33.0, 92.0], [31.0, 63.0], [16.0, 55.0], [15.0, 8.0], [2.0, 29.0], [720.0, 683.0], [592.0, 520.0], [535.0, 435.0], [422.0, 295.0], [165.0, 159.0], [24.0, 46.0], [141.0, 113.0], [71.0, 33.0], [71.0, 26.0], [0.0, 7.0], [70.0, 80.0], [64.0, 80.0], [55.0, 54.0], [5.0, 16.0], [50.0, 38.0], [1.0, 8.0], [49.0, 30.0], [0.0, 5.0], [49.0, 25.0], [15.0, 0.0], [34.0, 25.0], [26.0, 9.0], [26.0, 5.0], [0.0, 4.0], [8.0, 16.0], [4.0, 16.0], [4.0, 0.0], 