{"classes": [0, 1], "dtrees": [{"children_left": [1, 2, -1, 4, 5, 6, 7, -1, 9, 10, 11, 12, -1, -1, -1, 16, 17, -1, -1, -1, -1, -1, -1, 24, 25, 26, -1, 28, 29, -1, -1, -1, 33, 34, 35, 36, -1, 38, -1, 40, -1, 42, 43, 44, -1, -1, 47, 48, -1, 50, -1, -1, -1, -1, -1, 56, -1, -1, 59, 60, -1, -1, 63, 64, -1, 66, -1, -1, -1, 70, -1, 72, -1, 74, 75, 76, -1, 78, -1, 80, -1, -1, -1, -1, 85, 86, 87, 88, -1, 90, 91, 92, 93, -1, -1, -1, -1, -1, 99, -1, 101, -1, 103, 104, 105, 106, -1, 108, -1, -1, -1, -1, -1, 114, 115, 116, -1, -1, 119, 120, 121, -1, -1, -1, 125, 126, -1, -1, 129, -1, 131, 132, 133, -1, -1, -1, -1, 138, 139, -1, 141, -1, 143, -1, -1, 146, 147, 148, -1, 150, -1, -1, -1, -1, 155, 156, -1, -1, 159, 160, 161, -1, -1, -1, 165, -1, -1], "children_right": [84, 3, -1, 23, 22, 21, 8, -1, 20, 15, 14, 13, -1, -1, -1, 19, 18, -1, -1, -1, -1, -1, -1, 69, 32, 27, -1, 31, 30, -1, -1, -1, 58, 55, 54, 37, -1, 39, -1, 41, -1, 53, 46, 45, -1, -1, 52, 49, -1, 51, -1, -1, -1, -1, -1, 57, -1, -1, 62, 61, -1, -1, 68, 65, -1, 67, -1, -1, -1, 71, -1, 73, -1, 83, 82, 77, -1, 79, -1, 81, -1, -1, -1, -1, 154, 113, 98, 89, -1, 97, 96, 95, 94, -1, -1, -1, -1, -1, 100, -1, 102, -1, 112, 111, 110, 107, -1, 109, -1, -1, -1, -1, -1, 137, 118, 117, -1, -1, 124, 123, 122, -1, -1, -1, 128, 127, -1, -1, 130, -1, 136, 135, 134, -1, -1, -1, -1, 145, 140, -1, 142, -1, 144, -1, -1, 153, 152, 149, -1, 151, -1, -1, -1, -1, 158, 157, -1, -1, 164, 163, 162, -1, -1, -1, 166, -1, -1], "threshold": [20.855000495910645, -119.5, -2.0, 61.5, 152.5, 20.72499942779541, 16.695000648498535, -2.0, 4.700000047683716, 19.894999504089355, 19.394999504089355, 1.5, -2.0, -2.0, -2.0, 20.53499984741211, 2.899999976158142, -2.0, -2.0, -2.0, -2.0, -2.0, -2.0, 3.284999966621399, 11.489999771118164, 5.0950000286102295, -2.0, 6.5, 7.945000171661377, -2.0, -2.0, -2.0, 16.5, 204.5, 3.2050000429153442, 15.860000133514404, -2.0, 16.11500072479248, -2.0, -36.5, -2.0, 1024.5, 1013.5, 2.625, -2.0, -2.0, 19.855000495910645, 1.5850000381469727, -2.0, 2.5, -2.0, -2.0, -2.0, -2.0, -2.0, 15.559999942779541, -2.0, -2.0, -31.0, 136.0, -2.0, -2.0, 1018.5, 12.829999923706055, -2.0, 97.0, -2.0, -2.0, -2.0, 3.5649999380111694, -2.0, 1014.5, -2.0, 18.5, 7.099999904632568, 62.5, -2.0, 46.5, -2.0, 75.5, -2.0, -2.0, -2.0, -2.0, 126.5, 29.5, 5.5, 18.5, -2.0, 25.135000228881836, 22.1899995803833, 112.5, 1011.5, -2.0, -2.0, -2.0, -2.0, -2.0, 10.5, -2.0, 6.0, -2.0, 3.0449999570846558, 1.340000033378601, 1011.5, 21.90999984741211, -2.0, 1.074999988079071, -2.0, -2.0, -2.0, -2.0, -2.0, 42.5, 0.6850000023841858, 31.5, -2.0, -2.0, 4.1549999713897705, 5.5, 1.0699999928474426, -2.0, -2.0, -2.0, 6.5400002002716064, 33.5, -2.0, -2.0, 32.5, -2.0, 34.5, 2.5, -5.5, -2.0, -2.0, -2.0, -2.0, 4.244999885559082, 94.5, -2.0, 180.5, -2.0, 2.0199999809265137, -2.0, -2.0, 17.5, 6.355000019073486, 4.944999933242798, -2.0, 7.5, -2.0, -2.0, -2.0, -2.0, 2.5549999475479126, 26.96500015258789, -2.0, -2.0, 146.5, -31.5, 1017.5, -2.0, -2.0, -2.0, 1014.5, -2.0, -2.0], "feature": [3, 1, -2, 5, 1, 3, 3, -2, 4, 3, 3, 2, -2, -2, -2, 3, 4, -2, -2, -2, -2, -2, -2, 4, 3, 7, -2, 2, 7, -2, -2, -2, 2, 8, 4, 3, -2, 3, -2, 0, -2, 6, 6, 4, -2, -2, 3, 4, -2, 2, -2, -2, -2, -2, -2, 7, -2, -2, 0, 8, -2, -2, 6, 7, -2, 8, -2, -2, -2, 4, -2, 6, -2, 2, 4, 8, -2, 0, -2, 5, -2, -2, -2, -2, 1, 0, 0, 1, -2, 7, 7, 1, 6, -2, -2, -2, -2, -2, 0, -2, 8, -2, 4, 4, 6, 7, -2, 4, -2, -2, -2, -2, -2, 0, 4, 0, -2, -2, 4, 2, 4, -2, -2, -2, 7, 0, -2, -2, 8, -2, 1, 1, 1, -2, -2, -2, -2, 4, 8, -2, 8, -2, 4, -2, -2, 2, 4, 4, -2, 2, -2, -2, -2, -2, 4, 3, -2, -2, 8, 0, 6, -2, -2, -2, 6, -2, -2], "classes": [0, 1], "value": [[3974.0, 4185.0], [2055.0, 1557.0], [98.0, 19.0], [1957.0, 1538.0], [560.0, 568.0], [560.0, 555.0], [534.0, 547.0], [275.0, 227.0], [259.0, 320.0], [171.0, 256.0], [105.0, 202.0], [95.0, 150.0], [11.0, 0.0], [84.0, 150.0], [10.0, 52.0], [66.0, 54.0], [57.0, 30.0], [44.0, 8.0], [13.0, 22.0], [9.0, 24.0], [88.0, 64.0], [26.0, 8.0], [0.0, 13.0], [1397.0, 970.0], [740.0, 621.0], [204.0, 99.0], [86.0, 66.0], [118.0, 33.0], [18.0, 16.0], [6.0, 16.0], [12.0, 0.0], [100.0, 17.0], [536.0, 522.0], [361.0, 270.0], [305.0, 187.0], [304.0, 173.0], [118.0, 37.0], [186.0, 136.0], [0.0, 10.0], [186.0, 126.0], [0.0, 7.0], [186.0, 119.0], [185.0, 111.0], [48.0, 51.0], [27.0, 47.0], [21.0, 4.0], [137.0, 60.0], [96.0, 60.0], [42.0, 7.0], [54.0, 53.0], [17.0, 2.0], [37.0, 51.0], [41.0, 0.0], [1.0, 8.0], [1.0, 14.0], [56.0, 83.0], [54.0, 58.0], [2.0, 25.0], [175.0, 252.0], [52.0, 18.0], [14.0, 17.0], [38.0, 1.0], [123.0, 234.0], [100.0, 134.0], [47.0, 35.0], [53.0, 99.0], [5.0, 47.0], [48.0, 52.0], [23.0, 100.0], [657.0, 349.0], [94.0, 20.0], [563.0, 329.0], [360.0, 162.0], [203.0, 167.0], [173.0, 111.0], [141.0, 107.0], [20.0, 34.0], [121.0, 73.0], [71.0, 20.0], [50.0, 53.0], [23.0, 43.0], [27.0, 10.0], [32.0, 4.0], [30.0, 56.0], [1919.0, 2628.0], [1659.0, 2434.0], [453.0, 921.0], [215.0, 272.0], [23.0, 98.0], [192.0, 174.0], [188.0, 150.0], [64.0, 76.0], [30.0, 65.0], [5.0, 40.0], [25.0, 25.0], [34.0, 11.0], [124.0, 74.0], [4.0, 24.0], [238.0, 649.0], [8.0, 147.0], [230.0, 502.0], [11.0, 4.0], [219.0, 498.0], [70.0, 226.0], [35.0, 53.0], [34.0, 31.0], [16.0, 2.0], [18.0, 29.0], [5.0, 26.0], [13.0, 3.0], [1.0, 22.0], [35.0, 173.0], [149.0, 272.0], [1206.0, 1513.0], [754.0, 760.0], [45.0, 9.0], [0.0, 5.0], [45.0, 4.0], [709.0, 751.0], [455.0, 549.0], [48.0, 100.0], [9.0, 0.0], [39.0, 100.0], [407.0, 449.0], [254.0, 202.0], [51.0, 14.0], [1.0, 9.0], [50.0, 5.0], [203.0, 188.0], [2.0, 16.0], [201.0, 172.0], [163.0, 157.0], [148.0, 105.0], [119.0, 104.0], [29.0, 1.0], [15.0, 52.0], [38.0, 15.0], [452.0, 753.0], [285.0, 563.0], [37.0, 35.0], [248.0, 528.0], [213.0, 492.0], [35.0, 36.0], [25.0, 3.0], [10.0, 33.0], [167.0, 190.0], [137.0, 122.0], [94.0, 105.0], [58.0, 34.0], [36.0, 71.0], [8.0, 0.0], [28.0, 71.0], [43.0, 17.0], [30.0, 68.0], [260.0, 194.0], [63.0, 96.0], [33.0, 81.0], [30.0, 15.0], [197.0, 98.0], [82.0, 72.0], [49.0, 63.0], [48.0, 45.0], [1.0, 18.0], [33.0, 9.0], [115.0, 26.0], [82.0, 4.0], [33.0, 22.0]]}, {"children_left": [1, 2, -1, 4, 5, 6, 7, 8, -1, -1, 11, -1, 13, -1, 15, -1, -1, -1, 19, 20, 21, 22, -1, 24, -1, 26, -1, -1, -1, 30, -1, -1, -1, 34, -1, 36, 37, 38, -1, -1, -1, 42, -1, 44, 45, 46, -1, -1, 49, -1, -1, -1, 53, 54, 55, 56, -1, 58, -1, -1, 61, 62, -1, -1, 65, 66, 67, 68, -1, 70, 71, -1, -1, -1, -1, -1, 77, -1, 79, -1, -1, 82, 83, 84, 85, -1, 87, 88, 89, 90, -1, -1, -1, -1, 95, 96, -1, 98, 99, -1, 101, 102, -1, -1, 105, 106, 107, -1, 109, -1, 111, -1, -1, -1, -1, -1, 117, -1, -1, 120, 121, -1, 123, -1, -1, -1, -1, 128, 129, -1, -1, 132, 133, -1, 135, -1, -1, -1, 139, 140, 141, -1, -1, -1, 145, -1, 147, -1, -1], "children_right": [52, 3, -1, 33, 18, 17, 10, 9, -1, -1, 12, -1, 14, -1, 16, -1, -1, -1, 32, 29, 28, 23, -1, 25, -1, 27, -1, -1, -1, 31, -1, -1, -1, 35, -1, 41, 40, 39, -1, -1, -1, 43, -1, 51, 48, 47, -1, -1, 50, -1, -1, -1, 138, 81, 60, 57, -1, 59, -1, -1, 64, 63, -1, -1, 76, 75, 74, 69, -1, 73, 72, -1, -1, -1, -1, -1, 78, -1, 80, -1, -1, 127, 126, 119, 86, -1, 94, 93, 92, 91, -1, -1, -1, -1, 116, 97, -1, 115, 100, -1, 104, 103, -1, -1, 114, 113, 108, -1, 110, -1, 112, -1, -1, -1, -1, -1, 118, -1, -1, 125, 122, -1, 124, -1, -1, -1, -1, 131, 130, -1, -1, 137, 134, -1, 136, -1, -1, -1, 144, 143, 142, -1, -1, -1, 146, -1, 148, -1, -1], "threshold": [19.27500057220459, -119.5, -2.0, 15.5, 38.5, 12.5, 18.5, -78.0, -2.0, -2.0, 11.960000038146973, -2.0, 1010.5, -2.0, 1025.5, -2.0, -2.0, -2.0, 73.5, 4.609999895095825, 4.3450000286102295, -105.5, -2.0, 5.5, -2.0, 11.980000019073486, -2.0, -2.0, -2.0, 1003.5, -2.0, -2.0, -2.0, -30.5, -2.0, 3.7050000429153442, 9.800000190734863, 3.584999918937683, -2.0, -2.0, -2.0, 36.5, -2.0, 51.5, 43.5, 1009.5, -2.0, -2.0, 13.0, -2.0, -2.0, -2.0, 126.5, 29.5, -25.5, 2.700000047683716, -2.0, 8.929999828338623, -2.0, -2.0, -98.5, 13.0, -2.0, -2.0, 99.5, -47.5, 24.335000038146973, 1.8199999928474426, -2.0, 20.5, 1010.5, -2.0, -2.0, -2.0, -2.0, -2.0, 121.5, -2.0, 11.5, -2.0, -2.0, 49.5, 191.5, 132.5, 3.9850000143051147, -2.0, 2.875, 82.5, 16.660000801086426, 10.389999866485596, -2.0, -2.0, -2.0, -2.0, 4.815000057220459, 1007.5, -2.0, 1022.5, 19.535000801086426, -2.0, 20.88499927520752, 1019.5, -2.0, -2.0, 31.5, 4.479999780654907, 106.5, -2.0, 116.5, -2.0, 80.5, -2.0, -2.0, -2.0, -2.0, -2.0, 9.625, -2.0, -2.0, 23.84999942779541, 55.5, -2.0, 0.9050000011920929, -2.0, -2.0, -2.0, -2.0, 117.5, 11.5, -2.0, -2.0, 6.375, 161.5, -2.0, 2.950000047683716, -2.0, -2.0, -2.0, -34.5, 146.5, 99.0, -2.0, -2.0, -2.0, 4.069999933242798, -2.0, 8.0, -2.0, -2.0], "feature": [3, 1, -2, 2, 0, 2, 1, 1, -2, -2, 7, -2, 6, -2, 6, -2, -2, -2, 5, 4, 4, 1, -2, 1, -2, 3, -2, -2, -2, 6, -2, -2, -2, 0, -2, 4, 7, 4, -2, -2, -2, 0, -2, 0, 0, 6, -2, -2, 1, -2, -2, -2, 1, 0, 0, 4, -2, 7, -2, -2, 1, 2, -2, -2, 1, 1, 7, 4, -2, 2, 6, -2, -2, -2, -2, -2, 1, -2, 0, -2, -2, 0, 8, 8, 7, -2, 4, 8, 7, 7, -2, -2, -2, -2, 4, 6, -2, 6, 3, -2, 3, 6, -2, -2, 1, 4, 8, -2, 8, -2, 5, -2, -2, -2, -2, -2, 4, -2, -2, 7, 5, -2, 4, -2, -2, -2, -2, 8, 2, -2, -2, 4, 8, -2, 4, -2, -2, -2, 0, 1, 8, -2, -2, -2, 7, -2, 8, -2, -2], "classes": [0, 1], "value": [[4083.0, 4076.0], [1822.0, 1200.0], [97.0, 24.0], [1725.0, 1176.0], [1097.0, 643.0], [353.0, 281.0], [276.0, 253.0], [66.0, 96.0], [62.0, 54.0], [4.0, 42.0], [210.0, 157.0], [147.0, 129.0], [63.0, 28.0], [7.0, 14.0], [56.0, 14.0], [55.0, 6.0], [1.0, 8.0], [77.0, 28.0], [744.0, 362.0], [312.0, 205.0], [205.0, 166.0], [203.0, 153.0], [3.0, 13.0], [200.0, 140.0], [119.0, 54.0], [81.0, 86.0], [12.0, 39.0], [69.0, 47.0], [2.0, 13.0], [107.0, 39.0], [1.0, 8.0], [106.0, 31.0], [432.0, 157.0], [628.0, 533.0], [93.0, 26.0], [535.0, 507.0], [257.0, 320.0], [155.0, 137.0], [153.0, 119.0], [2.0, 18.0], [102.0, 183.0], [278.0, 187.0], [12.0, 26.0], [266.0, 161.0], [176.0, 128.0], [110.0, 47.0], [46.0, 4.0], [64.0, 43.0], [66.0, 81.0], [60.0, 52.0], [6.0, 29.0], [90.0, 33.0], [2261.0, 2876.0], [1947.0, 2663.0], [490.0, 952.0], [85.0, 67.0], [11.0, 32.0], [74.0, 35.0], [5.0, 14.0], [69.0, 21.0], [405.0, 885.0], [56.0, 49.0], [9.0, 27.0], [47.0, 22.0], [349.0, 836.0], [105.0, 396.0], [69.0, 150.0], [45.0, 133.0], [1.0, 42.0], [44.0, 91.0], [40.0, 54.0], [14.0, 1.0], [26.0, 53.0], [4.0, 37.0], [24.0, 17.0], [36.0, 246.0], [244.0, 440.0], [219.0, 327.0], [25.0, 113.0], [12.0, 105.0], [13.0, 8.0], [1457.0, 1711.0], [1196.0, 1247.0], [1094.0, 1064.0], [655.0, 729.0], [46.0, 14.0], [609.0, 715.0], [223.0, 338.0], [74.0, 71.0], [65.0, 46.0], [12.0, 28.0], [53.0, 18.0], [9.0, 25.0], [149.0, 267.0], [386.0, 377.0], [271.0, 220.0], [22.0, 43.0], [249.0, 177.0], [247.0, 163.0], [1.0, 9.0], [246.0, 154.0], [49.0, 6.0], [49.0, 1.0], [0.0, 5.0], [197.0, 148.0], [178.0, 147.0], [144.0, 139.0], [93.0, 62.0], [51.0, 77.0], [8.0, 40.0], [43.0, 37.0], [42.0, 21.0], [1.0, 16.0], [34.0, 8.0], [19.0, 1.0], [2.0, 14.0], [115.0, 157.0], [99.0, 154.0], [16.0, 3.0], [439.0, 335.0], [400.0, 326.0], [229.0, 140.0], [171.0, 186.0], [21.0, 3.0], [150.0, 183.0], [39.0, 9.0], [102.0, 183.0], [261.0, 464.0], [92.0, 81.0], [35.0, 4.0], [57.0, 77.0], [169.0, 383.0], [136.0, 370.0], [92.0, 312.0], [44.0, 58.0], [12.0, 39.0], [32.0, 19.0], [33.0, 13.0], [314.0, 213.0], [100.0, 119.0], [74.0, 35.0], [5.0, 17.0], [69.0, 18.0], [26.0, 84.0], [214.0, 94.0], [0.0, 7.0], [214.0, 87.0], [3.0, 11.0], [211.0, 76.0]]}, {"children_left": [1, 2, 3, 4, -1, 6, -1, -1, 9, 10, 11, -1, 13, -1, -1, 16, -1, -1, 19, 20, -1, 22, 23, -1, -1, 26, -1, 28, -1, -1, -1, 32, 33, -1, 35, 36, -1, 38, -1, -1, 41, -1, -1, 44, -1, 46, -1, -1, 49, 50, 51, 52, 53, -1, 55, 56, 57, 58, -1, 60, 61, -1, -1, -1, 65, 66, -1, -1, 69, -1, 71, -1, -1, -1, 75, -1, 77, 78, -1, -1, -1, 82, -1, -1, 85, -1, 87, 88, 89, 90, 91, -1, -1, -1, -1, -1, 97, -1, -1, 100, 101, -1, -1, -1, 105, 106, 107, 108, 109, -1, -1, -1, 113, -1, 115, 116, -1, -1, -1, 120, 121, 122, 123, -1, 125, -1, 127, -1, -1, 130, 131, 132, 133, -1, -1, -1, -1, 138, -1, -1, 141, 142, 143, 144, 145, 146, 147, -1, 149, -1, -1, -1, -1, 154, -1, 156, 157, 158, -1, -1, 161, -1, -1, -1, -1, -1, -1, -1, -1], "children_right": [48, 31, 8, 5, -1, 7, -1, -1, 18, 15, 12, -1, 14, -1, -1, 17, -1, -1, 30, 21, -1, 25, 24, -1, -1, 27, -1, 29, -1, -1, -1, 43, 34, -1, 40, 37, -1, 39, -1, -1, 42, -1, -1, 45, -1, 47, -1, -1, 104, 99, 84, 81, 54, -1, 74, 73, 64, 59, -1, 63, 62, -1, -1, -1, 68, 67, -1, -1, 70, -1, 72, -1, -1, -1, 76, -1, 80, 79, -1, -1, -1, 83, -1, -1, 86, -1, 96, 95, 94, 93, 92, -1, -1, -1, -1, -1, 98, -1, -1, 103, 102, -1, -1, -1, 168, 119, 112, 111, 110, -1, -1, -1, 114, -1, 118, 117, -1, -1, -1, 167, 140, 129, 124, -1, 126, -1, 128, -1, -1, 137, 136, 135, 134, -1, -1, -1, -1, 139, -1, -1, 166, 165, 164, 153, 152, 151, 148, -1, 150, -1, -1, -1, -1, 155, -1, 163, 160, 159, -1, -1, 162, -1, -1, -1, -1, -1, -1, -1, -1], "threshold": [18.425000190734863, 2.7450000047683716, -79.5, -0.9099999964237213, -2.0, 1.5, -2.0, -2.0, 156.5, 15.5, 2.4850000143051147, -2.0, 61.5, -2.0, -2.0, -30.5, -2.0, -2.0, 153.0, -32.5, -2.0, 12.5, 5.5, -2.0, -2.0, 232.5, -2.0, 8.46999979019165, -2.0, -2.0, -2.0, 83.5, 50.5, -2.0, 135.0, 1013.5, -2.0, -1.5, -2.0, -2.0, 1010.5, -2.0, -2.0, 6.990000009536743, -2.0, 1014.5, -2.0, -2.0, 3.1950000524520874, 21.734999656677246, 49.5, 205.5, 21.5, -2.0, 133.5, 27.6850004196167, 11.420000076293945, 0.7599999904632568, -2.0, 37.5, 8.5, -2.0, -2.0, -2.0, 4.5, 1.0600000023841858, -2.0, -2.0, 17.5, -2.0, 2.7949999570846558, -2.0, -2.0, -2.0, 136.5, -2.0, 7.934999942779541, 199.5, -2.0, -2.0, -2.0, -24.0, -2.0, -2.0, 109.5, -2.0, 175.5, 31.230000495910645, 24.710000038146973, 129.5, 2.259999990463257, -2.0, -2.0, -2.0, -2.0, -2.0, 1017.5, -2.0, -2.0, 27.164999961853027, 152.5, -2.0, -2.0, -2.0, 128.5, 29.5, -30.5, 70.5, 5.244999885559082, -2.0, -2.0, -2.0, 242.5, -2.0, 26.80500030517578, 24.804999351501465, -2.0, -2.0, -2.0, 55.5, 4.244999885559082, 96.5, 3.7450000047683716, -2.0, 71.0, -2.0, 14.5, -2.0, -2.0, 28.47000026702881, 84.5, 16.8100004196167, 49.5, -2.0, -2.0, -2.0, -2.0, -108.0, -2.0, -2.0, 54.5, 17.5, 16.5, 6.744999885559082, 31.489999771118164, 44.5, 5.275000095367432, -2.0, 4.769999980926514, -2.0, -2.0, -2.0, -2.0, 7.015000104904175, -2.0, 18.170000076293945, 47.0, 19.820000648498535, -2.0, -2.0, 19.75999927520752, -2.0, -2.0, -2.0, -2.0, -2.0, -2.0, -2.0, -2.0], "feature": [3, 4, 1, 7, -2, 2, -2, -2, 8, 2, 4, -2, 8, -2, -2, 0, -2, -2, 1, 0, -2, 2, 2, -2, -2, 8, -2, 3, -2, -2, -2, 5, 0, -2, 8, 6, -2, 1, -2, -2, 6, -2, -2, 7, -2, 6, -2, -2, 4, 7, 0, 8, 8, -2, 8, 3, 7, 4, -2, 5, 2, -2, -2, -2, 2, 4, -2, -2, 2, -2, 4, -2, -2, -2, 8, -2, 7, 8, -2, -2, -2, 0, -2, -2, 8, -2, 8, 3, 3, 8, 4, -2, -2, -2, -2, -2, 6, -2, -2, 3, 1, -2, -2, -2, 1, 0, 0, 1, 4, -2, -2, -2, 8, -2, 3, 3, -2, -2, -2, 0, 4, 8, 4, -2, 8, -2, 2, -2, -2, 3, 5, 7, 0, -2, -2, -2, -2, 1, -2, -2, 0, 2, 2, 4, 3, 5, 7, -2, 4, -2, -2, -2, -2, 4, -2, 7, 0, 3, -2, -2, 3, -2, -2, -2, -2, -2, -2, -2, -2], "classes": [0, 1], "value": [[4125.0, 4034.0], [1597.0, 995.0], [655.0, 501.0], [178.0, 85.0], [15.0, 22.0], [163.0, 63.0], [4.0, 12.0], [159.0, 51.0], [477.0, 416.0], [281.0, 306.0], [195.0, 157.0], [181.0, 125.0], [14.0, 32.0], [3.0, 28.0], [11.0, 4.0], [86.0, 149.0], [22.0, 6.0], [64.0, 143.0], [196.0, 110.0], [195.0, 101.0], [70.0, 14.0], [125.0, 87.0], [72.0, 31.0], [18.0, 21.0], [54.0, 10.0], [53.0, 56.0], [29.0, 10.0], [24.0, 46.0], [14.0, 6.0], [10.0, 40.0], [1.0, 9.0], [942.0, 494.0], [683.0, 412.0], [427.0, 301.0], [256.0, 111.0], [206.0, 59.0], [90.0, 7.0], [116.0, 52.0], [14.0, 24.0], [102.0, 28.0], [50.0, 52.0], [26.0, 7.0], [24.0, 45.0], [259.0, 82.0], [77.0, 6.0], [182.0, 76.0], [126.0, 30.0], [56.0, 46.0], [2528.0, 3039.0], [1187.0, 1758.0], [990.0, 1313.0], [863.0, 1030.0], [776.0, 851.0], [8.0, 41.0], [768.0, 810.0], [437.0, 536.0], [379.0, 405.0], [132.0, 88.0], [18.0, 0.0], [114.0, 88.0], [30.0, 48.0], [15.0, 4.0], [15.0, 44.0], [84.0, 40.0], [247.0, 317.0], [22.0, 68.0], [11.0, 4.0], [11.0, 64.0], [225.0, 249.0], [149.0, 118.0], [76.0, 131.0], [47.0, 114.0], [29.0, 17.0], [58.0, 131.0], [331.0, 274.0], [27.0, 5.0], [304.0, 269.0], [16.0, 35.0], [8.0, 35.0], [8.0, 0.0], [288.0, 234.0], [87.0, 179.0], [40.0, 31.0], [47.0, 148.0], [127.0, 283.0], [36.0, 24.0], [91.0, 259.0], [70.0, 241.0], [66.0, 240.0], [57.0, 158.0], [27.0, 33.0], [5.0, 29.0], [22.0, 4.0], [30.0, 125.0], [9.0, 82.0], [4.0, 1.0], [21.0, 18.0], [20.0, 5.0], [1.0, 13.0], [197.0, 445.0], [62.0, 214.0], [55.0, 213.0], [7.0, 1.0], [135.0, 231.0], [1341.0, 1281.0], [1158.0, 1201.0], [275.0, 417.0], [50.0, 27.0], [15.0, 21.0], [15.0, 6.0], [0.0, 15.0], [35.0, 6.0], [225.0, 390.0], [170.0, 336.0], [55.0, 54.0], [20.0, 38.0], [19.0, 14.0], [1.0, 24.0], [35.0, 16.0], [883.0, 784.0], [875.0, 758.0], [299.0, 324.0], [96.0, 62.0], [67.0, 23.0], [29.0, 39.0], [4.0, 26.0], [25.0, 13.0], [17.0, 0.0], [8.0, 13.0], [203.0, 262.0], [125.0, 202.0], [107.0, 196.0], [92.0, 123.0], [74.0, 68.0], [18.0, 55.0], [15.0, 73.0], [18.0, 6.0], [78.0, 60.0], [2.0, 17.0], [76.0, 43.0], [576.0, 434.0], [552.0, 431.0], [380.0, 256.0], [328.0, 245.0], [275.0, 173.0], [239.0, 166.0], [38.0, 56.0], [15.0, 3.0], [23.0, 53.0], [14.0, 6.0], [9.0, 47.0], [201.0, 110.0], [36.0, 7.0], [53.0, 72.0], [2.0, 25.0], [51.0, 47.0], [36.0, 45.0], [11.0, 36.0], [8.0, 1.0], [3.0, 35.0], [25.0, 9.0], [0.0, 6.0], [25.0, 3.0], [15.0, 2.0], [52.0, 11.0], [172.0, 175.0], [24.0, 3.0], [8.0, 26.0], [183.0, 80.0]]}, {"children_left": [1, 2, 3, 4, 5, 6, 7, -1, 9, 10, 11, 12, -1, -1, -1, 16, 17, -1, 19, 20, -1, -1, 23, -1, -1, 26, -1, -1, -1, -1, -1, -1, 33, -1, -1, -1, 37, 38, 39, 40, -1, 42, 43, 44, 45, 46, -1, 48, 49, 50, -1, -1, -1, 54, -1, -1, 57, 58, -1, -1, 61, -1, 63, -1, -1, -1, 67, -1, -1, 70, -1, -1, 73, -1, -1, 76, 77, 78, -1, 80, 81, 82, 83, -1, 85, -1, -1, -1, 89, -1, -1, 92, 93, -1, -1, -1, 97, 98, 99, 100, -1, -1, -1, 104, 105, -1, 107, 108, 109, -1, -1, 112, -1, 114, -1, -1, 117, -1, -1, -1, 121, -1, -1, 124, -1, 126, -1, -1, 129, 130, -1, -1, 133, -1, -1], "children_right": [36, 35, 32, 31, 30, 29, 8, -1, 28, 15, 14, 13, -1, -1, -1, 25, 18, -1, 22, 21, -1, -1, 24, -1, -1, 27, -1, -1, -1, -1, -1, -1, 34, -1, -1, -1, 128, 75, 72, 41, -1, 69, 66, 65, 56, 47, -1, 53, 52, 51, -1, -1, -1, 55, -1, -1, 60, 59, -1, -1, 62, -1, 64, -1, -1, -1, 68, -1, -1, 71, -1, -1, 74, -1, -1, 123, 96, 79, -1, 91, 88, 87, 84, -1, 86, -1, -1, -1, 90, -1, -1, 95, 94, -1, -1, -1, 120, 103, 102, 101, -1, -1, -1, 119, 106, -1, 116, 111, 110, -1, -1, 113, -1, 115, -1, -1, 118, -1, -1, -1, 122, -1, -1, 125, -1, 127, -1, -1, 132, 131, -1, -1, 134, -1, -1], "threshold": [17.0649995803833, 4.724999904632568, 86.5, 151.5, 60.5, 13.139999866485596, -34.5, -2.0, 1029.5, -72.5, 1021.5, 14.0, -2.0, -2.0, -2.0, 2.9850000143051147, 0.8699999749660492, -2.0, 50.5, 1018.5, -2.0, -2.0, 10.184999942779541, -2.0, -2.0, 27.5, -2.0, -2.0, -2.0, -2.0, -2.0, -2.0, 53.5, -2.0, -2.0, -2.0, 19.984999656677246, 3.215000033378601, 150.5, 3.0, -2.0, 19.734999656677246, 236.5, 145.5, 15.5, -106.0, -2.0, 30.170000076293945, -2.5, 20.975000381469727, -2.0, -2.0, -2.0, 138.0, -2.0, -2.0, 55.5, 18.640000343322754, -2.0, -2.0, 1010.5, -2.0, -101.0, -2.0, -2.0, -2.0, 20.72000026702881, -2.0, -2.0, 2.7200000286102295, -2.0, -2.0, 14.625, -2.0, -2.0, 114.0, 22.329999923706055, 13.5, -2.0, -56.5, 6.295000076293945, 5.634999990463257, 73.5, -2.0, 1005.0, -2.0, -2.0, -2.0, -78.0, -2.0, -2.0, 4.625, 32.0, -2.0, -2.0, -2.0, 19.074999809265137, 15.5, 29.5, 284.5, -2.0, -2.0, -2.0, 7.115000009536743, 1006.5, -2.0, 15.210000038146973, 131.5, 5.009999990463257, -2.0, -2.0, 188.0, -2.0, 201.5, -2.0, -2.0, -0.5, -2.0, -2.0, -2.0, 27.5, -2.0, -2.0, 148.5, -2.0, 15.639999866485596, -2.0, -2.0, 29.5, 148.0, -2.0, -2.0, 1.0449999570846558, -2.0, -2.0], "feature": [3, 4, 5, 1, 0, 7, 0, -2, 6, 1, 6, 8, -2, -2, -2, 4, 4, -2, 1, 6, -2, -2, 7, -2, -2, 8, -2, -2, -2, -2, -2, -2, 0, -2, -2, -2, 7, 4, 1, 7, -2, 7, 8, 1, 2, 1, -2, 3, 1, 3, -2, -2, -2, 8, -2, -2, 5, 7, -2, -2, 6, -2, 1, -2, -2, -2, 3, -2, -2, 4, -2, -2, 7, -2, -2, 1, 3, 2, -2, 1, 4, 4, 5, -2, 6, -2, -2, -2, 1, -2, -2, 4, 1, -2, -2, -2, 7, 2, 0, 8, -2, -2, -2, 4, 6, -2, 7, 8, 4, -2, -2, 8, -2, 8, -2, -2, 1, -2, -2, -2, 0, -2, -2, 1, -2, 7, -2, -2, 0, 1, -2, -2, 4, -2, -2], "classes": [0, 1], "value": [[4025.0, 4134.0], [1331.0, 840.0], [945.0, 681.0], [680.0, 543.0], [673.0, 519.0], [670.0, 506.0], [656.0, 479.0], [81.0, 33.0], [575.0, 446.0], [560.0, 415.0], [215.0, 116.0], [153.0, 105.0], [1.0, 11.0], [152.0, 94.0], [62.0, 11.0], [345.0, 299.0], [187.0, 205.0], [32.0, 11.0], [155.0, 194.0], [123.0, 181.0], [85.0, 85.0], [38.0, 96.0], [32.0, 13.0], [31.0, 2.0], [1.0, 11.0], [158.0, 94.0], [4.0, 17.0], [154.0, 77.0], [15.0, 31.0], [14.0, 27.0], [3.0, 13.0], [7.0, 24.0], [265.0, 138.0], [227.0, 138.0], [38.0, 0.0], [386.0, 159.0], [2694.0, 3294.0], [2138.0, 2316.0], [1012.0, 1303.0], [928.0, 1255.0], [52.0, 26.0], [876.0, 1229.0], [851.0, 1221.0], [821.0, 1124.0], [796.0, 1049.0], [442.0, 492.0], [19.0, 66.0], [423.0, 426.0], [411.0, 385.0], [144.0, 89.0], [90.0, 33.0], [54.0, 56.0], [267.0, 296.0], [12.0, 41.0], [0.0, 30.0], [12.0, 11.0], [354.0, 557.0], [191.0, 199.0], [173.0, 197.0], [18.0, 2.0], [163.0, 358.0], [47.0, 44.0], [116.0, 314.0], [17.0, 8.0], [99.0, 306.0], [25.0, 75.0], [30.0, 97.0], [23.0, 27.0], [7.0, 70.0], [25.0, 8.0], [25.0, 1.0], [0.0, 7.0], [84.0, 48.0], [26.0, 34.0], [58.0, 14.0], [1126.0, 1013.0], [909.0, 896.0], [448.0, 339.0], [196.0, 98.0], [252.0, 241.0], [129.0, 84.0], [114.0, 58.0], [90.0, 58.0], [77.0, 35.0], [13.0, 23.0], [8.0, 0.0], [5.0, 23.0], [24.0, 0.0], [15.0, 26.0], [8.0, 26.0], [7.0, 0.0], [123.0, 157.0], [44.0, 87.0], [31.0, 86.0], [13.0, 1.0], [79.0, 70.0], [461.0, 557.0], [407.0, 532.0], [174.0, 294.0], [9.0, 56.0], [1.0, 52.0], [8.0, 4.0], [165.0, 238.0], [233.0, 238.0], [189.0, 226.0], [8.0, 37.0], [181.0, 189.0], [122.0, 92.0], [56.0, 66.0], [51.0, 38.0], [5.0, 28.0], [66.0, 26.0], [51.0, 10.0], [15.0, 16.0], [0.0, 11.0], [15.0, 5.0], [59.0, 97.0], [51.0, 55.0], [8.0, 42.0], [44.0, 12.0], [54.0, 25.0], [5.0, 13.0], [49.0, 12.0], [217.0, 117.0], [104.0, 32.0], [113.0, 85.0], [50.0, 68.0], [63.0, 17.0], [556.0, 978.0], [336.0, 726.0], [302.0, 704.0], [34.0, 22.0], [220.0, 252.0], [28.0, 6.0], [192.0, 246.0]]}, {"children_left": [1, 2, 3, 4, 5, 6, 7, 8, 9, 10, -1, -1, 13, -1, 15, -1, 17, -1, -1, 20, -1, -1, 23, -1, -1, -1, -1, 28, 29, -1, 31, 32, -1, -1, -1, 36, 37, 38, -1, -1, -1, -1, 43, 44, 45, 46, -1, 48, -1, -1, -1, 52, 53, 54, 55, 56, -1, 58, -1, -1, -1, 62, -1, -1, -1, 66, -1, 68, 69, -1, 71, -1, -1, 74, 75, -1, -1, -1, 79, -1, 81, -1, -1, 84, 85, -1, 87, 88, -1, 90, -1, -1, -1, -1, 95, 96, 97, 98, 99, 100, -1, -1, 103, 104, -1, -1, 107, -1, 109, -1, 111, 112, -1, -1, 115, 116, -1, -1, -1, 120, 121, -1, -1, 124, -1, -1, 127, 128, -1, -1, 131, 132, -1, 134, -1, -1, -1, 138, 139, 140, 141, -1, -1, -1, -1, -1, 147, 148, -1, 150, -1, -1, 153, 154, 155, -1, -1, 158, -1, -1, -1], "children_right": [94, 83, 42, 27, 26, 25, 22, 19, 12, 11, -1, -1, 14, -1, 16, -1, 18, -1, -1, 21, -1, -1, 24, -1, -1, -1, -1, 35, 30, -1, 34, 33, -1, -1, -1, 41, 40, 39, -1, -1, -1, -1, 78, 51, 50, 47, -1, 49, -1, -1, -1, 65, 64, 61, 60, 57, -1, 59, -1, -1, -1, 63, -1, -1, -1, 67, -1, 73, 70, -1, 72, -1, -1, 77, 76, -1, -1, -1, 80, -1, 82, -1, -1, 93, 86, -1, 92, 89, -1, 91, -1, -1, -1, -1, 146, 137, 126, 119, 102, 101, -1, -1, 106, 105, -1, -1, 108, -1, 110, -1, 114, 113, -1, -1, 118, 117, -1, -1, -1, 123, 122, -1, -1, 125, -1, -1, 130, 129, -1, -1, 136, 133, -1, 135, -1, -1, -1, 145, 144, 143, 142, -1, -1, -1, -1, -1, 152, 149, -1, 151, -1, -1, 160, 157, 156, -1, -1, 159, -1, -1, -1], "threshold": [20.454999923706055, 82.5, 3.9250000715255737, 15.5, 55.5, 54.5, 19.734999656677246, 17.5, 1013.5, 2.1850000619888306, -2.0, -2.0, 2.40500009059906, -2.0, 2.9850000143051147, -2.0, 11.5, -2.0, -2.0, 1.9700000286102295, -2.0, -2.0, 1018.5, -2.0, -2.0, -2.0, -2.0, 40.5, 22.5, -2.0, 4.974999904632568, -1.074999988079071, -2.0, -2.0, -2.0, 141.0, 2.3399999141693115, 1.7400000095367432, -2.0, -2.0, -2.0, -2.0, 8.654999732971191, 7.5, 3.5, 5.134999990463257, -2.0, 42.5, -2.0, -2.0, -2.0, 39.5, 36.5, 33.5, -27.5, 5.5899999141693115, -2.0, -39.0, -2.0, -2.0, -2.0, 23.5, -2.0, -2.0, -2.0, 29.5, -2.0, 2.334999918937683, -89.0, -2.0, -6.5899999141693115, -2.0, -2.0, 17.265000343322754, 13.179999828338623, -2.0, -2.0, -2.0, 10.5, -2.0, 53.5, -2.0, -2.0, 19.515000343322754, -61.5, -2.0, 60.5, 40.5, -2.0, 3.899999976158142, -2.0, -2.0, -2.0, -2.0, 4.055000066757202, 48.5, 28.5, 128.5, -99.5, 11.5, -2.0, -2.0, -25.5, 42.5, -2.0, -2.0, 95.5, -2.0, 100.5, -2.0, 22.835000038146973, 102.5, -2.0, -2.0, 89.5, 24.199999809265137, -2.0, -2.0, -2.0, 26.219999313354492, -25.5, -2.0, -2.0, 23.0, -2.0, -2.0, 1.284999966621399, 1021.5, -2.0, -2.0, 116.5, 2.6049998998641968, -2.0, 23.585000038146973, -2.0, -2.0, -2.0, 146.5, 16.5, 115.0, 13.835000038146973, -2.0, -2.0, -2.0, -2.0, -2.0, 4.315000057220459, 49.5, -2.0, 18.5, -2.0, -2.0, 25.335000038146973, 65.5, -120.5, -2.0, -2.0, 4.8999998569488525, -2.0, -2.0, -2.0], "feature": [3, 5, 4, 2, 0, 0, 3, 3, 6, 7, -2, -2, 4, -2, 4, -2, 2, -2, -2, 4, -2, -2, 6, -2, -2, -2, -2, 0, 8, -2, 7, 7, -2, -2, -2, 8, 4, 4, -2, -2, -2, -2, 4, 2, 2, 4, -2, 0, -2, -2, -2, 0, 0, 0, 0, 4, -2, 0, -2, -2, -2, 2, -2, -2, -2, 8, -2, 7, 1, -2, 7, -2, -2, 3, 7, -2, -2, -2, 2, -2, 0, -2, -2, 3, 1, -2, 8, 0, -2, 4, -2, -2, -2, -2, 4, 0, 0, 1, 1, 2, -2, -2, 0, 5, -2, -2, 1, -2, 1, -2, 7, 1, -2, -2, 5, 7, -2, -2, -2, 3, 0, -2, -2, 8, -2, -2, 4, 6, -2, -2, 8, 4, -2, 3, -2, -2, -2, 8, 1, 8, 7, -2, -2, -2, -2, -2, 4, 0, -2, 2, -2, -2, 7, 5, 1, -2, -2, 4, -2, -2, -2], "classes": [0, 1], "value": [[4023.0, 4136.0], [2053.0, 1407.0], [1398.0, 1098.0], [814.0, 733.0], [518.0, 390.0], [508.0, 365.0], [492.0, 365.0], [433.0, 344.0], [345.0, 234.0], [62.0, 74.0], [5.0, 27.0], [57.0, 47.0], [283.0, 160.0], [190.0, 72.0], [93.0, 88.0], [31.0, 52.0], [62.0, 36.0], [39.0, 36.0], [23.0, 0.0], [88.0, 110.0], [18.0, 55.0], [70.0, 55.0], [59.0, 21.0], [52.0, 8.0], [7.0, 13.0], [16.0, 0.0], [10.0, 25.0], [296.0, 343.0], [141.0, 102.0], [3.0, 15.0], [138.0, 87.0], [56.0, 17.0], [5.0, 11.0], [51.0, 6.0], [82.0, 70.0], [155.0, 241.0], [123.0, 139.0], [43.0, 89.0], [33.0, 35.0], [10.0, 54.0], [80.0, 50.0], [32.0, 102.0], [584.0, 365.0], [560.0, 329.0], [104.0, 35.0], [22.0, 21.0], [1.0, 12.0], [21.0, 9.0], [21.0, 2.0], [0.0, 7.0], [82.0, 14.0], [456.0, 294.0], [105.0, 108.0], [92.0, 71.0], [69.0, 67.0], [59.0, 37.0], [19.0, 28.0], [40.0, 9.0], [0.0, 5.0], [40.0, 4.0], [10.0, 30.0], [23.0, 4.0], [23.0, 0.0], [0.0, 4.0], [13.0, 37.0], [351.0, 186.0], [45.0, 3.0], [306.0, 183.0], [33.0, 48.0], [14.0, 2.0], [19.0, 46.0], [6.0, 0.0], [13.0, 46.0], [273.0, 135.0], [170.0, 60.0], [170.0, 52.0], [0.0, 8.0], [103.0, 75.0], [24.0, 36.0], [15.0, 5.0], [9.0, 31.0], [4.0, 31.0], [5.0, 0.0], [655.0, 309.0], [627.0, 269.0], [232.0, 56.0], [395.0, 213.0], [46.0, 49.0], [24.0, 7.0], [22.0, 42.0], [8.0, 37.0], [14.0, 5.0], [349.0, 164.0], [28.0, 40.0], [1970.0, 2729.0], [1264.0, 1965.0], [1134.0, 1642.0], [440.0, 833.0], [302.0, 693.0], [18.0, 8.0], [0.0, 7.0], [18.0, 1.0], [284.0, 685.0], [35.0, 35.0], [27.0, 9.0], [8.0, 26.0], [249.0, 650.0], [69.0, 290.0], [180.0, 360.0], [23.0, 7.0], [157.0, 353.0], [51.0, 66.0], [21.0, 6.0], [30.0, 60.0], [106.0, 287.0], [99.0, 221.0], [25.0, 112.0], [74.0, 109.0], [7.0, 66.0], [138.0, 140.0], [74.0, 115.0], [57.0, 113.0], [17.0, 2.0], [64.0, 25.0], [0.0, 7.0], [64.0, 18.0], [694.0, 809.0], [134.0, 89.0], [133.0, 76.0], [1.0, 13.0], [560.0, 720.0], [190.0, 316.0], [59.0, 164.0], [131.0, 152.0], [63.0, 30.0], [68.0, 122.0], [370.0, 404.0], [130.0, 323.0], [70.0, 235.0], [36.0, 179.0], [19.0, 34.0], [0.0, 22.0], [19.0, 12.0], [17.0, 145.0], [34.0, 56.0], [60.0, 88.0], [706.0, 764.0], [106.0, 56.0], [99.0, 37.0], [7.0, 19.0], [1.0, 19.0], [6.0, 0.0], [600.0, 708.0], [585.0, 658.0], [367.0, 480.0], [15.0, 2.0], [352.0, 478.0], [218.0, 178.0], [48.0, 75.0], [170.0, 103.0], [15.0, 50.0]]}, {"children_left": [1, 2, 3, 4, 5, -1, 7, -1, 9, -1, -1, 12, -1, 14, -1, 16, -1, 18, -1, 20, -1, 22, 23, -1, -1, -1, 27, 28, -1, -1, 31, 32, -1, -1, -1, 36, 37, -1, -1, 40, 41, 42, 43, -1, -1, 46, -1, 48, -1, 50, -1, -1, 53, -1, -1, -1, 57, 58, 59, 60, -1, 62, -1, -1, 65, -1, 67, 68, 69, -1, -1, 72, -1, -1, 75, -1, 77, -1, 79, 80, -1, -1, -1, 84, 85, 86, 87, 88, 89, -1, 91, -1, -1, 94, 95, -1, -1, -1, 99, -1, 101, 102, 103, -1, 105, 106, -1, -1, -1, 110, -1, -1, 113, -1, 115, 116, -1, -1, -1, -1, -1, 122, 123, 124, -1, 126, 127, 128, 129, 130, -1, -1, -1, -1, -1, -1, 137, -1, -1, -1, 141, 142, 143, -1, -1, 146, -1, -1, -1], "children_right": [56, 35, 26, 11, 6, -1, 8, -1, 10, -1, -1, 13, -1, 15, -1, 17, -1, 19, -1, 21, -1, 25, 24, -1, -1, -1, 30, 29, -1, -1, 34, 33, -1, -1, -1, 39, 38, -1, -1, 55, 52, 45, 44, -1, -1, 47, -1, 49, -1, 51, -1, -1, 54, -1, -1, -1, 140, 83, 64, 61, -1, 63, -1, -1, 66, -1, 74, 71, 70, -1, -1, 73, -1, -1, 76, -1, 78, -1, 82, 81, -1, -1, -1, 121, 120, 119, 98, 93, 90, -1, 92, -1, -1, 97, 96, -1, -1, -1, 100, -1, 112, 109, 104, -1, 108, 107, -1, -1, -1, 111, -1, -1, 114, -1, 118, 117, -1, -1, -1, -1, -1, 139, 136, 125, -1, 135, 134, 133, 132, 131, -1, -1, -1, -1, -1, -1, 138, -1, -1, -1, 148, 145, 144, -1, -1, 147, -1, -1, -1], "threshold": [18.734999656677246, 81.5, 4.704999923706055, 1018.5, 58.5, -2.0, 78.5, -2.0, -35.5, -2.0, -2.0, 26.0, -2.0, -120.5, -2.0, 68.5, -2.0, 93.5, -2.0, 5.620000123977661, -2.0, 78.5, 14.105000019073486, -2.0, -2.0, -2.0, 40.5, 14.5, -2.0, -2.0, 0.875, 45.5, -2.0, -2.0, -2.0, -8.5, 20.5, -2.0, -2.0, 140.0, 3.875, 8.5, 14.985000133514404, -2.0, -2.0, 1.4049999713897705, -2.0, 136.0, -2.0, 997.0, -2.0, -2.0, 10.644999980926514, -2.0, -2.0, -2.0, 125.5, 29.5, -25.5, 134.5, -2.0, 187.5, -2.0, -2.0, -98.5, -2.0, 6.5, 35.0, -76.5, -2.0, -2.0, 17.5, -2.0, -2.0, 5.5, -2.0, 28.530000686645508, -2.0, 31.479999542236328, 21.5, -2.0, -2.0, -2.0, 42.5, 201.5, 163.5, 16.675000190734863, 8.0, 1012.5, -2.0, 1.175000011920929, -2.0, -2.0, 18.5, 111.0, -2.0, -2.0, -2.0, -96.5, -2.0, 132.5, 24.4350004196167, 5.5, -2.0, 19.47499942779541, 97.0, -2.0, -2.0, -2.0, 4.325000047683716, -2.0, -2.0, 135.5, -2.0, 38.5, 158.5, -2.0, -2.0, -2.0, -2.0, -2.0, 17.5, 4.0350000858306885, 20.994999885559082, -2.0, 3.8950001001358032, 3.834999918937683, 1023.5, 9.5, 7.5, -2.0, -2.0, -2.0, -2.0, -2.0, -2.0, -3.5, -2.0, -2.0, -2.0, 15.59000015258789, 118.0, 4.115000009536743, -2.0, -2.0, 152.5, -2.0, -2.0, -2.0], "feature": [3, 5, 4, 6, 8, -2, 8, -2, 0, -2, -2, 5, -2, 1, -2, 5, -2, 8, -2, 3, -2, 5, 3, -2, -2, -2, 0, 8, -2, -2, 7, 8, -2, -2, -2, 1, 0, -2, -2, 1, 4, 2, 3, -2, -2, 4, -2, 8, -2, 6, -2, -2, 3, -2, -2, -2, 1, 0, 0, 8, -2, 8, -2, -2, 1, -2, 0, 1, 1, -2, -2, 2, -2, -2, 2, -2, 3, -2, 3, 2, -2, -2, -2, 0, 8, 8, 7, 1, 6, -2, 4, -2, -2, 2, 8, -2, -2, -2, 1, -2, 8, 3, 2, -2, 7, 8, -2, -2, -2, 4, -2, -2, 8, -2, 0, 8, -2, -2, -2, -2, -2, 2, 4, 3, -2, 4, 4, 6, 2, 2, -2, -2, -2, -2, -2, -2, 1, -2, -2, -2, 7, 8, 4, -2, -2, 1, -2, -2, -2], "classes": [0, 1], "value": [[4059.0, 4100.0], [1660.0, 1115.0], [1070.0, 832.0], [750.0, 652.0], [388.0, 406.0], [93.0, 145.0], [295.0, 261.0], [69.0, 26.0], [226.0, 235.0], [23.0, 5.0], [203.0, 230.0], [362.0, 246.0], [1.0, 12.0], [361.0, 234.0], [21.0, 1.0], [340.0, 233.0], [217.0, 117.0], [123.0, 116.0], [27.0, 51.0], [96.0, 65.0], [5.0, 17.0], [91.0, 48.0], [61.0, 47.0], [35.0, 9.0], [26.0, 38.0], [30.0, 1.0], [320.0, 180.0], [89.0, 80.0], [2.0, 17.0], [87.0, 63.0], [231.0, 100.0], [32.0, 33.0], [25.0, 10.0], [7.0, 23.0], [199.0, 67.0], [590.0, 283.0], [233.0, 66.0], [6.0, 17.0], [227.0, 49.0], [357.0, 217.0], [273.0, 201.0], [157.0, 160.0], [64.0, 31.0], [52.0, 13.0], [12.0, 18.0], [93.0, 129.0], [10.0, 45.0], [83.0, 84.0], [32.0, 59.0], [51.0, 25.0], [0.0, 7.0], [51.0, 18.0], [116.0, 41.0], [17.0, 19.0], [99.0, 22.0], [84.0, 16.0], [2399.0, 2985.0], [2029.0, 2740.0], [472.0, 973.0], [94.0, 79.0], [36.0, 57.0], [58.0, 22.0], [39.0, 3.0], [19.0, 19.0], [378.0, 894.0], [44.0, 52.0], [334.0, 842.0], [146.0, 263.0], [15.0, 82.0], [7.0, 3.0], [8.0, 79.0], [131.0, 181.0], [104.0, 171.0], [27.0, 10.0], [188.0, 579.0], [64.0, 110.0], [124.0, 469.0], [49.0, 275.0], [75.0, 194.0], [62.0, 107.0], [52.0, 107.0], [10.0, 0.0], [13.0, 87.0], [1557.0, 1767.0], [885.0, 795.0], [836.0, 698.0], [669.0, 610.0], [418.0, 312.0], [288.0, 155.0], [93.0, 84.0], [195.0, 71.0], [3.0, 12.0], [192.0, 59.0], [130.0, 157.0], [125.0, 123.0], [105.0, 76.0], [20.0, 47.0], [5.0, 34.0], [251.0, 298.0], [12.0, 45.0], [239.0, 253.0], [137.0, 184.0], [60.0, 48.0], [12.0, 25.0], [48.0, 23.0], [22.0, 23.0], [5.0, 19.0], [17.0, 4.0], [26.0, 0.0], [77.0, 136.0], [35.0, 108.0], [42.0, 28.0], [102.0, 69.0], [20.0, 0.0], [82.0, 69.0], [57.0, 29.0], [55.0, 14.0], [2.0, 15.0], [25.0, 40.0], [167.0, 88.0], [49.0, 97.0], [672.0, 972.0], [500.0, 572.0], [280.0, 409.0], [93.0, 73.0], [187.0, 336.0], [187.0, 313.0], [176.0, 312.0], [163.0, 309.0], [54.0, 56.0], [17.0, 42.0], [37.0, 14.0], [109.0, 253.0], [13.0, 3.0], [11.0, 1.0], [0.0, 23.0], [220.0, 163.0], [36.0, 7.0], [184.0, 156.0], [172.0, 400.0], [370.0, 245.0], [155.0, 150.0], [48.0, 83.0], [15.0, 61.0], [33.0, 22.0], [107.0, 67.0], [102.0, 50.0], [5.0, 17.0], [215.0, 95.0]]}, {"children_left": [1, 2, 3, 4, -1, 6, 7, 8, 9, -1, -1, 12, 13, -1, 15, -1, -1, 18, -1, 20, -1, -1, 23, -1, -1, -1, 27, 28, 29, 30, -1, 32, -1, -1, -1, 36, -1, -1, 39, 40, 41, -1, -1, -1, 45, -1, -1, 48, -1, 50, -1, -1, 53, 54, 55, 56, -1, 58, -1, -1, 61, -1, 63, -1, 65, -1, 67, 68, -1, 70, -1, -1, 73, -1, -1, 76, 77, -1, 79, 80, 81, 82, -1, 84, 85, -1, 87, 88, -1, 90, -1, -1, 93, -1, -1, -1, 97, 98, -1, -1, -1, 102, -1, 104, -1, -1, -1, 108, 109, 110, -1, 112, -1, 114, 115, -1, 117, -1, -1, 120, -1, -1, 123, -1, 125, 126, 127, -1, -1, -1, 131, -1, 133, -1, -1, 136, -1, -1, 139, 140, -1, 142, -1, -1, -1], "children_right": [52, 47, 26, 5, -1, 25, 22, 11, 10, -1, -1, 17, 14, -1, 16, -1, -1, 19, -1, 21, -1, -1, 24, -1, -1, -1, 38, 35, 34, 31, -1, 33, -1, -1, -1, 37, -1, -1, 44, 43, 42, -1, -1, -1, 46, -1, -1, 49, -1, 51, -1, -1, 138, 75, 60, 57, -1, 59, -1, -1, 62, -1, 64, -1, 66, -1, 72, 69, -1, 71, -1, -1, 74, -1, -1, 107, 78, -1, 106, 101, 96, 83, -1, 95, 86, -1, 92, 89, -1, 91, -1, -1, 94, -1, -1, -1, 100, 99, -1, -1, -1, 103, -1, 105, -1, -1, -1, 135, 122, 111, -1, 113, -1, 119, 116, -1, 118, -1, -1, 121, -1, -1, 124, -1, 130, 129, 128, -1, -1, -1, 132, -1, 134, -1, -1, 137, -1, -1, 144, 141, -1, 143, -1, -1, -1], "threshold": [18.65499973297119, 87.5, 13.5, 14.5, -2.0, 4.5, 15.5, 54.5, 71.5, -2.0, -2.0, 12.46500015258789, 164.5, -2.0, 1012.5, -2.0, -2.0, -88.5, -2.0, 16.280000686645508, -2.0, -2.0, -112.5, -2.0, -2.0, -2.0, -31.5, 17.804999351501465, 13.5, 1022.5, -2.0, 15.349999904632568, -2.0, -2.0, -2.0, 148.0, -2.0, -2.0, 6.5, 5.28000020980835, 1015.0, -2.0, -2.0, -2.0, 8.139999866485596, -2.0, -2.0, 13.5, -2.0, 125.5, -2.0, -2.0, 130.0, 31.5, -25.5, 106.5, -2.0, 18.949999809265137, -2.0, -2.0, -101.5, -2.0, -6.5, -2.0, 56.5, -2.0, 25.335000038146973, 24.574999809265137, -2.0, 28.72000026702881, -2.0, -2.0, 94.5, -2.0, -2.0, 41.5, 0.9350000023841858, -2.0, 194.5, 133.5, 112.5, 1009.5, -2.0, 6.025000095367432, 15.5, -2.0, -0.5, 25.045000076293945, -2.0, 20.5, -2.0, -2.0, 33.5, -2.0, -2.0, -2.0, -87.5, -121.0, -2.0, -2.0, -2.0, 33.93499946594238, -2.0, 29.0, -2.0, -2.0, -2.0, 4.015000104904175, 14.5, 1007.5, -2.0, 6.075000047683716, -2.0, 9.5, 19.614999771118164, -2.0, 25.8100004196167, -2.0, -2.0, 92.5, -2.0, -2.0, 21.27500057220459, -2.0, 134.5, 23.550000190734863, -40.0, -2.0, -2.0, -2.0, 2.165000081062317, -2.0, 135.5, -2.0, -2.0, -112.5, -2.0, -2.0, -34.5, 145.5, -2.0, 95.5, -2.0, -2.0, -2.0], "feature": [3, 5, 1, 0, -2, 1, 2, 5, 8, -2, -2, 7, 8, -2, 6, -2, -2, 1, -2, 3, -2, -2, 1, -2, -2, -2, 0, 3, 2, 6, -2, 3, -2, -2, -2, 1, -2, -2, 2, 7, 6, -2, -2, -2, 7, -2, -2, 2, -2, 8, -2, -2, 1, 0, 0, 8, -2, 7, -2, -2, 1, -2, 0, -2, 8, -2, 7, 7, -2, 3, -2, -2, 5, -2, -2, 0, 4, -2, 8, 8, 8, 6, -2, 4, 2, -2, 1, 3, -2, 2, -2, -2, 1, -2, -2, -2, 1, 1, -2, -2, -2, 3, -2, 1, -2, -2, -2, 4, 2, 6, -2, 7, -2, 2, 3, -2, 3, -2, -2, 5, -2, -2, 3, -2, 8, 3, 1, -2, -2, -2, 4, -2, 8, -2, -2, 1, -2, -2, 0, 1, -2, 8, -2, -2, -2], "classes": [0, 1], "value": [[4051.0, 4108.0], [1615.0, 1106.0], [1252.0, 946.0], [761.0, 489.0], [4.0, 32.0], [757.0, 457.0], [659.0, 428.0], [380.0, 200.0], [36.0, 42.0], [7.0, 28.0], [29.0, 14.0], [344.0, 158.0], [298.0, 113.0], [219.0, 64.0], [79.0, 49.0], [4.0, 23.0], [75.0, 26.0], [46.0, 45.0], [3.0, 23.0], [43.0, 22.0], [1.0, 10.0], [42.0, 12.0], [279.0, 228.0], [51.0, 12.0], [228.0, 216.0], [98.0, 29.0], [491.0, 457.0], [211.0, 135.0], [195.0, 102.0], [109.0, 81.0], [83.0, 41.0], [26.0, 40.0], [23.0, 16.0], [3.0, 24.0], [86.0, 21.0], [16.0, 33.0], [15.0, 7.0], [1.0, 26.0], [280.0, 322.0], [56.0, 30.0], [15.0, 20.0], [9.0, 0.0], [6.0, 20.0], [41.0, 10.0], [224.0, 292.0], [160.0, 158.0], [64.0, 134.0], [363.0, 160.0], [222.0, 71.0], [141.0, 89.0], [51.0, 59.0], [90.0, 30.0], [2436.0, 3002.0], [2106.0, 2771.0], [597.0, 1040.0], [101.0, 80.0], [31.0, 57.0], [70.0, 23.0], [70.0, 14.0], [0.0, 9.0], [496.0, 960.0], [38.0, 18.0], [458.0, 942.0], [15.0, 106.0], [443.0, 836.0], [91.0, 97.0], [352.0, 739.0], [318.0, 603.0], [243.0, 527.0], [75.0, 76.0], [24.0, 53.0], [51.0, 23.0], [34.0, 136.0], [29.0, 136.0], [5.0, 0.0], [1509.0, 1731.0], [751.0, 669.0], [62.0, 15.0], [689.0, 654.0], [641.0, 563.0], [399.0, 416.0], [312.0, 278.0], [99.0, 51.0], [213.0, 227.0], [205.0, 199.0], [106.0, 75.0], [99.0, 124.0], [87.0, 83.0], [56.0, 30.0], [31.0, 53.0], [6.0, 38.0], [25.0, 15.0], [12.0, 41.0], [5.0, 40.0], [7.0, 1.0], [8.0, 28.0], [87.0, 138.0], [15.0, 54.0], [7.0, 1.0], [8.0, 53.0], [72.0, 84.0], [242.0, 147.0], [234.0, 123.0], [8.0, 24.0], [3.0, 24.0], [5.0, 0.0], [48.0, 91.0], [758.0, 1062.0], [454.0, 767.0], [248.0, 309.0], [5.0, 35.0], [243.0, 274.0], [2.0, 19.0], [241.0, 255.0], [110.0, 79.0], [10.0, 29.0], [100.0, 50.0], [90.0, 31.0], [10.0, 19.0], [131.0, 176.0], [119.0, 176.0], [12.0, 0.0], [206.0, 458.0], [30.0, 141.0], [176.0, 317.0], [84.0, 208.0], [40.0, 42.0], [23.0, 4.0], [17.0, 38.0], [44.0, 166.0], [92.0, 109.0], [46.0, 23.0], [46.0, 86.0], [10.0, 1.0], [36.0, 85.0], [304.0, 295.0], [17.0, 0.0], [287.0, 295.0], [330.0, 231.0], [103.0, 116.0], [62.0, 26.0], [41.0, 90.0], [2.0, 36.0], [39.0, 54.0], [227.0, 115.0]]}, {"children_left": [1, 2, 3, 4, -1, 6, 7, 8, -1, 10, -1, 12, 13, -1, 15, -1, 17, -1, -1, -1, -1, -1, 23, 24, 25, -1, -1, 28, 29, 30, -1, -1, -1, -1, 35, 36, -1, -1, 39, -1, -1, 42, 43, 44, 45, 46, -1, 48, 49, -1, -1, 52, -1, -1, -1, -1, 57, -1, -1, 60, 61, -1, 63, -1, 65, -1, -1, -1, 69, 70, 71, -1, 73, 74, 75, 76, -1, -1, -1, -1, 81, -1, 83, -1, -1, 86, 87, 88, -1, -1, -1, 92, -1, 94, 95, -1, 97, 98, 99, -1, -1, -1, -1, 104, 105, -1, 107, -1, 109, -1, -1, -1, 113, 114, 115, 116, -1, 118, -1, -1, -1, 122, 123, -1, 125, 126, -1, 128, -1, 130, 131, -1, -1, 134, 135, -1, 137, -1, -1, -1, -1, -1, 143, -1, -1], "children_right": [68, 41, 22, 5, -1, 21, 20, 9, -1, 11, -1, 19, 14, -1, 16, -1, 18, -1, -1, -1, -1, -1, 34, 27, 26, -1, -1, 33, 32, 31, -1, -1, -1, -1, 38, 37, -1, -1, 40, -1, -1, 59, 56, 55, 54, 47, -1, 51, 50, -1, -1, 53, -1, -1, -1, -1, 58, -1, -1, 67, 62, -1, 64, -1, 66, -1, -1, -1, 112, 85, 72, -1, 80, 79, 78, 77, -1, -1, -1, -1, 82, -1, 84, -1, -1, 91, 90, 89, -1, -1, -1, 93, -1, 103, 96, -1, 102, 101, 100, -1, -1, -1, -1, 111, 106, -1, 108, -1, 110, -1, -1, -1, 142, 121, 120, 117, -1, 119, -1, -1, -1, 141, 124, -1, 140, 127, -1, 129, -1, 133, 132, -1, -1, 139, 136, -1, 138, -1, -1, -1, -1, -1, 144, -1, -1], "threshold": [20.84500026702881, 16.86500072479248, -62.5, 32.5, -2.0, 83.5, -77.5, 4.5, -2.0, -118.5, -2.0, 5.569999933242798, 3.190000057220459, -2.0, 1020.5, -2.0, 80.5, -2.0, -2.0, -2.0, -2.0, -2.0, 2.7549999952316284, 10.5, 3.5, -2.0, -2.0, -33.5, 12.5, 1.1400000154972076, -2.0, -2.0, -2.0, -2.0, 4.199999809265137, -3.865000009536743, -2.0, -2.0, -29.5, -2.0, -2.0, 3.125, 52.5, 206.5, 97.5, 17.195000648498535, -2.0, 1.409999966621399, 47.5, -2.0, -2.0, 3.0749999284744263, -2.0, -2.0, -2.0, -2.0, 18.78499984741211, -2.0, -2.0, 13.595000267028809, 1019.5, -2.0, 5.320000171661377, -2.0, 6.245000123977661, -2.0, -2.0, -2.0, 3.5749999284744263, -79.5, 0.9300000071525574, -2.0, 24.984999656677246, 22.6850004196167, 153.5, 133.5, -2.0, -2.0, -2.0, -2.0, 31.515000343322754, -2.0, 2.7450000047683716, -2.0, -2.0, 9.5, 23.440000534057617, 13.875, -2.0, -2.0, -2.0, 6.5, -2.0, 30.0, 97.0, -2.0, 6.5, 20.5, 1.100000023841858, -2.0, -2.0, -2.0, -2.0, 41.5, 1.625, -2.0, 169.0, -2.0, 1012.5, -2.0, -2.0, -2.0, 111.5, 25.5, 101.5, -157.0, -2.0, 22.050000190734863, -2.0, -2.0, -2.0, 34.540000915527344, 4.1549999713897705, -2.0, 28.5, 4.325000047683716, -2.0, 4.414999961853027, -2.0, -0.5, -5.5, -2.0, -2.0, 185.0, 14.65500020980835, -2.0, 6.129999876022339, -2.0, -2.0, -2.0, -2.0, -2.0, 23.28499984741211, -2.0, -2.0], "feature": [3, 3, 1, 0, -2, 5, 1, 8, -2, 1, -2, 4, 4, -2, 6, -2, 8, -2, -2, -2, -2, -2, 4, 2, 2, -2, -2, 0, 2, 4, -2, -2, -2, -2, 7, 7, -2, -2, 1, -2, -2, 4, 0, 8, 5, 3, -2, 4, 5, -2, -2, 4, -2, -2, -2, -2, 3, -2, -2, 7, 6, -2, 4, -2, 4, -2, -2, -2, 4, 1, 4, -2, 3, 3, 8, 8, -2, -2, -2, -2, 3, -2, 4, -2, -2, 2, 7, 7, -2, -2, -2, 8, -2, 0, 1, -2, 0, 2, 4, -2, -2, -2, -2, 0, 4, -2, 8, -2, 6, -2, -2, -2, 1, 0, 1, 1, -2, 3, -2, -2, -2, 3, 7, -2, 1, 4, -2, 4, -2, 1, 1, -2, -2, 8, 7, -2, 4, -2, -2, -2, -2, -2, 7, -2, -2], "classes": [0, 1], "value": [[3953.0, 4206.0], [2056.0, 1566.0], [1274.0, 818.0], [474.0, 223.0], [24.0, 48.0], [450.0, 175.0], [319.0, 158.0], [237.0, 143.0], [2.0, 10.0], [235.0, 133.0], [53.0, 12.0], [182.0, 121.0], [127.0, 102.0], [87.0, 39.0], [40.0, 63.0], [19.0, 51.0], [21.0, 12.0], [2.0, 11.0], [19.0, 1.0], [55.0, 19.0], [82.0, 15.0], [131.0, 17.0], [800.0, 595.0], [324.0, 318.0], [145.0, 91.0], [7.0, 22.0], [138.0, 69.0], [179.0, 227.0], [67.0, 30.0], [11.0, 15.0], [2.0, 15.0], [9.0, 0.0], [56.0, 15.0], [112.0, 197.0], [476.0, 277.0], [76.0, 83.0], [14.0, 1.0], [62.0, 82.0], [400.0, 194.0], [3.0, 12.0], [397.0, 182.0], [782.0, 748.0], [384.0, 453.0], [358.0, 385.0], [305.0, 278.0], [290.0, 278.0], [14.0, 37.0], [276.0, 241.0], [52.0, 83.0], [13.0, 2.0], [39.0, 81.0], [224.0, 158.0], [223.0, 146.0], [1.0, 12.0], [15.0, 0.0], [53.0, 107.0], [26.0, 68.0], [15.0, 10.0], [11.0, 58.0], [398.0, 295.0], [229.0, 206.0], [183.0, 133.0], [46.0, 73.0], [21.0, 57.0], [25.0, 16.0], [21.0, 2.0], [4.0, 14.0], [169.0, 89.0], [1897.0, 2640.0], [1020.0, 1681.0], [307.0, 367.0], [42.0, 15.0], [265.0, 352.0], [151.0, 135.0], [45.0, 79.0], [39.0, 38.0], [22.0, 37.0], [17.0, 1.0], [6.0, 41.0], [106.0, 56.0], [114.0, 217.0], [81.0, 189.0], [33.0, 28.0], [27.0, 9.0], [6.0, 19.0], [713.0, 1314.0], [241.0, 320.0], [196.0, 189.0], [41.0, 81.0], [155.0, 108.0], [45.0, 131.0], [472.0, 994.0], [6.0, 0.0], [466.0, 994.0], [155.0, 434.0], [17.0, 146.0], [138.0, 288.0], [104.0, 148.0], [63.0, 125.0], [2.0, 36.0], [61.0, 89.0], [41.0, 23.0], [34.0, 140.0], [311.0, 560.0], [123.0, 141.0], [37.0, 19.0], [86.0, 122.0], [57.0, 104.0], [29.0, 18.0], [26.0, 3.0], [3.0, 15.0], [188.0, 419.0], [877.0, 959.0], [647.0, 816.0], [82.0, 203.0], [47.0, 166.0], [8.0, 2.0], [39.0, 164.0], [5.0, 0.0], [34.0, 164.0], [35.0, 37.0], [565.0, 613.0], [557.0, 579.0], [31.0, 8.0], [526.0, 571.0], [451.0, 523.0], [115.0, 184.0], [336.0, 339.0], [31.0, 6.0], [305.0, 333.0], [195.0, 172.0], [152.0, 161.0], [43.0, 11.0], [110.0, 161.0], [109.0, 137.0], [68.0, 56.0], [41.0, 81.0], [22.0, 71.0], [19.0, 10.0], [1.0, 24.0], [75.0, 48.0], [8.0, 34.0], [230.0, 143.0], [189.0, 76.0], [41.0, 67.0]]}, {"children_left": [1, 2, 3, -1, -1, 6, 7, 8, 9, -1, -1, 12, 13, -1, -1, -1, 17, -1, -1, 20, 21, 22, 23, -1, 25, 26, -1, -1, -1, -1, 31, 32, 33, 34, 35, 36, 37, -1, -1, -1, 41, 42, 43, -1, -1, 46, -1, -1, -1, -1, -1, -1, 53, 54, 55, -1, 57, -1, 59, 60, -1, -1, -1, -1, -1, -1, 67, 68, 69, 70, 71, -1, -1, -1, 75, 76, -1, -1, 79, -1, 81, 82, -1, 84, -1, 86, -1, 88, 89, 90, 91, -1, 93, -1, -1, -1, -1, -1, 99, 100, 101, 102, -1, -1, 105, -1, -1, 108, -1, -1, -1, 112, 113, -1, 115, -1, 117, 118, -1, -1, 121, -1, 123, 124, -1, -1, -1, 128, 129, 130, -1, 132, -1, -1, 135, -1, 137, -1, -1, 140, -1, -1, 143, 144, 145, -1, -1, 148, -1, 150, 151, -1, -1, -1, 155, -1, -1], "children_right": [66, 5, 4, -1, -1, 19, 16, 11, 10, -1, -1, 15, 14, -1, -1, -1, 18, -1, -1, 65, 30, 29, 24, -1, 28, 27, -1, -1, -1, -1, 52, 51, 50, 49, 40, 39, 38, -1, -1, -1, 48, 45, 44, -1, -1, 47, -1, -1, -1, -1, -1, -1, 64, 63, 56, -1, 58, -1, 62, 61, -1, -1, -1, -1, -1, -1, 142, 111, 74, 73, 72, -1, -1, -1, 78, 77, -1, -1, 80, -1, 98, 83, -1, 85, -1, 87, -1, 97, 96, 95, 92, -1, 94, -1, -1, -1, -1, -1, 110, 107, 104, 103, -1, -1, 106, -1, -1, 109, -1, -1, -1, 127, 114, -1, 116, -1, 120, 119, -1, -1, 122, -1, 126, 125, -1, -1, -1, 139, 134, 131, -1, 133, -1, -1, 136, -1, 138, -1, -1, 141, -1, -1, 154, 147, 146, -1, -1, 149, -1, 153, 152, -1, -1, -1, 156, -1, -1], "threshold": [20.84500026702881, -116.0, 13.325000286102295, -2.0, -2.0, 65.5, 5.234999895095825, 10.735000133514404, 1006.5, -2.0, -2.0, 220.5, 52.5, -2.0, -2.0, -2.0, 15.5, -2.0, -2.0, 4.085000038146973, 61.5, 130.0, -2.5, -2.0, 79.5, 1018.5, -2.0, -2.0, -2.0, -2.0, 13.755000114440918, 79.5, 18.005000114440918, 17.774999618530273, 233.5, -2.5, 17.5, -2.0, -2.0, -2.0, 14.53499984741211, 74.5, -36.0, -2.0, -2.0, 3.5299999713897705, -2.0, -2.0, -2.0, -2.0, -2.0, -2.0, 220.5, 54.5, 14.515000343322754, -2.0, -3.5, -2.0, -0.5, 14.960000038146973, -2.0, -2.0, -2.0, -2.0, -2.0, -2.0, 129.0, 27.5, -31.5, 3.1200000047683716, 1.550000011920929, -2.0, -2.0, -2.0, -102.5, 145.0, -2.0, -2.0, 59.5, -2.0, 3.1750000715255737, -99.5, -2.0, 21.5, -2.0, 63.5, -2.0, 17.5, 107.5, 1010.5, 1007.5, -2.0, 27.354999542236328, -2.0, -2.0, -2.0, -2.0, -2.0, 25.5, 19.5, 11.5, 4.224999904632568, -2.0, -2.0, 29.34500026702881, -2.0, -2.0, 21.53499984741211, -2.0, -2.0, -2.0, 42.5, 5.269999980926514, -2.0, 1.0549999475479126, -2.0, 2.165000081062317, 33.27000045776367, -2.0, -2.0, -94.5, -2.0, 205.5, 179.5, -2.0, -2.0, -2.0, 4.134999990463257, 164.5, 9.925000190734863, -2.0, 68.5, -2.0, -2.0, 2.0449999570846558, -2.0, 1023.0, -2.0, -2.0, 7.5, -2.0, -2.0, 4.015000104904175, 129.0, -34.5, -2.0, -2.0, 34.5, -2.0, 3.8700000047683716, 22.469999313354492, -2.0, -2.0, -2.0, 19.5, -2.0, -2.0], "feature": [3, 1, 7, -2, -2, 5, 4, 3, 6, -2, -2, 8, 0, -2, -2, -2, 1, -2, -2, 4, 8, 1, 1, -2, 5, 6, -2, -2, -2, -2, 7, 5, 3, 3, 8, 1, 2, -2, -2, -2, 3, 5, 0, -2, -2, 4, -2, -2, -2, -2, -2, -2, 8, 0, 7, -2, 1, -2, 1, 7, -2, -2, -2, -2, -2, -2, 1, 0, 0, 4, 4, -2, -2, -2, 1, 8, -2, -2, 5, -2, 4, 1, -2, 1, -2, 5, -2, 0, 1, 6, 6, -2, 3, -2, -2, -2, -2, -2, 0, 0, 2, 4, -2, -2, 3, -2, -2, 7, -2, -2, -2, 0, 7, -2, 4, -2, 4, 3, -2, -2, 1, -2, 8, 8, -2, -2, -2, 4, 8, 7, -2, 8, -2, -2, 4, -2, 6, -2, -2, 2, -2, -2, 4, 8, 0, -2, -2, 5, -2, 4, 3, -2, -2, -2, 8, -2, -2], "classes": [0, 1], "value": [[4053.0, 4106.0], [2140.0, 1555.0], [131.0, 37.0], [124.0, 25.0], [7.0, 12.0], [2009.0, 1518.0], [679.0, 651.0], [493.0, 534.0], [84.0, 48.0], [0.0, 9.0], [84.0, 39.0], [409.0, 486.0], [345.0, 360.0], [312.0, 291.0], [33.0, 69.0], [64.0, 126.0], [186.0, 117.0], [99.0, 88.0], [87.0, 29.0], [1330.0, 867.0], [878.0, 653.0], [143.0, 151.0], [107.0, 138.0], [57.0, 38.0], [50.0, 100.0], [35.0, 37.0], [32.0, 16.0], [3.0, 21.0], [15.0, 63.0], [36.0, 13.0], [735.0, 502.0], [466.0, 267.0], [221.0, 170.0], [182.0, 162.0], [181.0, 151.0], [134.0, 86.0], [33.0, 38.0], [33.0, 21.0], [0.0, 17.0], [101.0, 48.0], [47.0, 65.0], [46.0, 44.0], [18.0, 34.0], [7.0, 0.0], [11.0, 34.0], [28.0, 10.0], [28.0, 4.0], [0.0, 6.0], [1.0, 21.0], [1.0, 11.0], [39.0, 8.0], [245.0, 97.0], [269.0, 235.0], [254.0, 197.0], [251.0, 179.0], [34.0, 51.0], [217.0, 128.0], [98.0, 31.0], [119.0, 97.0], [10.0, 30.0], [6.0, 0.0], [4.0, 30.0], [109.0, 67.0], [3.0, 18.0], [15.0, 38.0], [452.0, 214.0], [1913.0, 2551.0], [1635.0, 2360.0], [448.0, 874.0], [44.0, 31.0], [7.0, 22.0], [5.0, 0.0], [2.0, 22.0], [37.0, 9.0], [404.0, 843.0], [25.0, 13.0], [6.0, 13.0], [19.0, 0.0], [379.0, 830.0], [49.0, 198.0], [330.0, 632.0], [165.0, 403.0], [4.0, 0.0], [161.0, 403.0], [14.0, 84.0], [147.0, 319.0], [13.0, 3.0], [134.0, 316.0], [134.0, 287.0], [73.0, 103.0], [39.0, 85.0], [17.0, 7.0], [22.0, 78.0], [18.0, 20.0], [4.0, 58.0], [34.0, 18.0], [61.0, 184.0], [0.0, 29.0], [165.0, 229.0], [151.0, 226.0], [145.0, 179.0], [90.0, 72.0], [47.0, 16.0], [43.0, 56.0], [55.0, 107.0], [36.0, 97.0], [19.0, 10.0], [6.0, 47.0], [4.0, 0.0], [2.0, 47.0], [14.0, 3.0], [1187.0, 1486.0], [739.0, 778.0], [80.0, 39.0], [659.0, 739.0], [64.0, 34.0], [595.0, 705.0], [105.0, 184.0], [96.0, 184.0], [9.0, 0.0], [490.0, 521.0], [71.0, 125.0], [419.0, 396.0], [410.0, 366.0], [353.0, 344.0], [57.0, 22.0], [9.0, 30.0], [448.0, 708.0], [273.0, 531.0], [200.0, 456.0], [5.0, 49.0], [195.0, 407.0], [10.0, 0.0], [185.0, 407.0], [73.0, 75.0], [41.0, 11.0], [32.0, 64.0], [24.0, 64.0], [8.0, 0.0], [175.0, 177.0], [18.0, 1.0], [157.0, 176.0], [278.0, 191.0], [138.0, 141.0], [34.0, 62.0], [2.0, 34.0], [32.0, 28.0], [104.0, 79.0], [21.0, 1.0], [83.0, 78.0], [83.0, 68.0], [26.0, 4.0], [57.0, 64.0], [0.0, 10.0], [140.0, 50.0], [2.0, 16.0], [138.0, 34.0]]}, {"children_left": [1, 2, 3, 4, -1, -1, 7, 8, 9, -1, -1, 12, 13, 14, 15, -1, -1, 18, 19, -1, -1, -1, -1, 24, -1, 26, -1, -1, 29, -1, -1, 32, 33, -1, 35, 36, 37, 38, -1, -1, 41, -1, -1, 44, 45, -1, -1, 48, -1, -1, -1, 52, 53, 54, -1, 56, -1, -1, -1, -1, 61, 62, 63, 64, -1, 66, -1, -1, 69, -1, -1, 72, 73, -1, 75, -1, 77, -1, 79, -1, 81, -1, -1, 84, -1, -1, 87, 88, 89, 90, 91, -1, -1, -1, 95, 96, 97, -1, -1, 100, -1, -1, 103, 104, 105, -1, 107, -1, 109, -1, -1, -1, -1, -1, 115, 116, 117, -1, 119, 120, 121, 122, 123, 124, -1, -1, 127, 128, 129, -1, -1, -1, -1, -1, 135, 136, -1, 138, -1, -1, -1, 142, -1, -1, -1, 146, 147, 148, -1, -1, 151, -1, -1, 154, 155, -1, -1, -1, 159, 160, 161, 162, -1, 164, -1, -1, 167, -1, -1, -1, -1], "children_right": [60, 31, 6, 5, -1, -1, 28, 11, 10, -1, -1, 23, 22, 17, 16, -1, -1, 21, 20, -1, -1, -1, -1, 25, -1, 27, -1, -1, 30, -1, -1, 51, 34, -1, 50, 43, 40, 39, -1, -1, 42, -1, -1, 47, 46, -1, -1, 49, -1, -1, -1, 59, 58, 55, -1, 57, -1, -1, -1, -1, 86, 71, 68, 65, -1, 67, -1, -1, 70, -1, -1, 83, 74, -1, 76, -1, 78, -1, 80, -1, 82, -1, -1, 85, -1, -1, 114, 113, 94, 93, 92, -1, -1, -1, 102, 99, 98, -1, -1, 101, -1, -1, 112, 111, 106, -1, 108, -1, 110, -1, -1, -1, -1, -1, 158, 145, 118, -1, 144, 141, 134, 133, 126, 125, -1, -1, 132, 131, 130, -1, -1, -1, -1, -1, 140, 137, -1, 139, -1, -1, -1, 143, -1, -1, -1, 153, 150, 149, -1, -1, 152, -1, -1, 157, 156, -1, -1, -1, 170, 169, 166, 163, -1, 165, -1, -1, 168, -1, -1, -1, -1], "threshold": [18.734999656677246, 13.5, 18.5, -30.0, -2.0, -2.0, 83.5, 4.5, 2.2100000381469727, -2.0, -2.0, 140.5, 16.119999885559082, 2.819999933242798, 45.5, -2.0, -2.0, 1028.5, 65.5, -2.0, -2.0, -2.0, -2.0, 303.5, -2.0, 32.0, -2.0, -2.0, 18.144999504089355, -2.0, -2.0, 50.5, 0.8549999892711639, -2.0, 308.5, 9.0, 43.5, 5.680000066757202, -2.0, -2.0, 15.5, -2.0, -2.0, 6.5, 46.5, -2.0, -2.0, 61.5, -2.0, -2.0, -2.0, 4.890000104904175, 3.59499990940094, 16.295000076293945, -2.0, 130.0, -2.0, -2.0, -2.0, -2.0, -20.5, 123.5, 22.5, 3.009999990463257, -2.0, 8.5, -2.0, -2.0, -35.5, -2.0, -2.0, 1023.5, -40.0, -2.0, 53.5, -2.0, 1.0499999821186066, -2.0, 22.164999961853027, -2.0, 10.5, -2.0, -2.0, 4.125, -2.0, -2.0, 31.5, 362.5, -98.5, 179.0, 1014.5, -2.0, -2.0, -2.0, 3.2450000047683716, 28.210000038146973, 135.5, -2.0, -2.0, 16.5, -2.0, -2.0, 31.664999961853027, 10.5, 86.5, -2.0, 4.2099997997283936, -2.0, 6.414999961853027, -2.0, -2.0, -2.0, -2.0, -2.0, 4.055000066757202, 49.5, 0.675000011920929, -2.0, 203.5, 130.5, 107.5, 15.5, 1.7000000476837158, 5.5, -2.0, -2.0, 3.9100000858306885, 3.7200000286102295, 2.8799999952316284, -2.0, -2.0, -2.0, -2.0, -2.0, 41.5, 7.0, -2.0, 21.770000457763672, -2.0, -2.0, -2.0, 1020.5, -2.0, -2.0, -2.0, 13.5, 2.9250000715255737, 94.0, -2.0, -2.0, 3.8950001001358032, -2.0, -2.0, 183.5, 0.5349999964237213, -2.0, -2.0, -2.0, 32.76499938964844, 55.5, 54.5, 0.5, -2.0, 17.5, -2.0, -2.0, -1.5, -2.0, -2.0, -2.0, -2.0], "feature": [3, 1, 0, 0, -2, -2, 5, 2, 4, -2, -2, 8, 3, 4, 0, -2, -2, 6, 5, -2, -2, -2, -2, 8, -2, 0, -2, -2, 3, -2, -2, 1, 4, -2, 8, 7, 5, 4, -2, -2, 1, -2, -2, 2, 0, -2, -2, 8, -2, -2, -2, 4, 4, 3, -2, 1, -2, -2, -2, -2, 0, 8, 2, 4, -2, 8, -2, -2, 0, -2, -2, 6, 0, -2, 5, -2, 4, -2, 3, -2, 2, -2, -2, 4, -2, -2, 0, 8, 1, 8, 6, -2, -2, -2, 4, 3, 1, -2, -2, 0, -2, -2, 3, 2, 8, -2, 4, -2, 4, -2, -2, -2, -2, -2, 4, 0, 4, -2, 8, 8, 8, 2, 4, 2, -2, -2, 4, 4, 4, -2, -2, -2, -2, -2, 0, 2, -2, 3, -2, -2, -2, 6, -2, -2, -2, 2, 4, 8, -2, -2, 4, -2, -2, 8, 4, -2, -2, -2, 3, 0, 0, 1, -2, 2, -2, -2, 1, -2, -2, -2, -2], "classes": [0, 1], "value": [[3971.0, 4188.0], [1596.0, 1113.0], [1038.0, 620.0], [17.0, 41.0], [14.0, 8.0], [3.0, 33.0], [1021.0, 579.0], [688.0, 462.0], [63.0, 78.0], [29.0, 11.0], [34.0, 67.0], [625.0, 384.0], [450.0, 231.0], [271.0, 181.0], [82.0, 87.0], [46.0, 23.0], [36.0, 64.0], [189.0, 94.0], [189.0, 86.0], [73.0, 56.0], [116.0, 30.0], [0.0, 8.0], [179.0, 50.0], [175.0, 153.0], [107.0, 125.0], [68.0, 28.0], [0.0, 9.0], [68.0, 19.0], [333.0, 117.0], [324.0, 100.0], [9.0, 17.0], [558.0, 493.0], [305.0, 336.0], [32.0, 9.0], [273.0, 327.0], [263.0, 286.0], [175.0, 139.0], [12.0, 29.0], [5.0, 29.0], [7.0, 0.0], [163.0, 110.0], [2.0, 13.0], [161.0, 97.0], [88.0, 147.0], [31.0, 13.0], [10.0, 13.0], [21.0, 0.0], [57.0, 134.0], [2.0, 43.0], [55.0, 91.0], [10.0, 41.0], [253.0, 157.0], [195.0, 149.0], [170.0, 102.0], [124.0, 51.0], [46.0, 51.0], [1.0, 20.0], [45.0, 31.0], [25.0, 47.0], [58.0, 8.0], [2375.0, 3075.0], [401.0, 291.0], [110.0, 144.0], [84.0, 136.0], [17.0, 61.0], [67.0, 75.0], [0.0, 14.0], [67.0, 61.0], [26.0, 8.0], [4.0, 8.0], [22.0, 0.0], [291.0, 147.0], [281.0, 124.0], [1.0, 8.0], [280.0, 116.0], [127.0, 28.0], [153.0, 88.0], [3.0, 14.0], [150.0, 74.0], [72.0, 18.0], [78.0, 56.0], [71.0, 29.0], [7.0, 27.0], [10.0, 23.0], [4.0, 23.0], [6.0, 0.0], [1974.0, 2784.0], [439.0, 991.0], [429.0, 990.0], [48.0, 51.0], [29.0, 48.0], [23.0, 16.0], [6.0, 32.0], [19.0, 3.0], [381.0, 939.0], [168.0, 546.0], [75.0, 355.0], [70.0, 355.0], [5.0, 0.0], [93.0, 191.0], [76.0, 111.0], [17.0, 80.0], [213.0, 393.0], [192.0, 307.0], [91.0, 88.0], [10.0, 28.0], [81.0, 60.0], [47.0, 17.0], [34.0, 43.0], [18.0, 40.0], [16.0, 3.0], [101.0, 219.0], [21.0, 86.0], [10.0, 1.0], [1535.0, 1793.0], [970.0, 1297.0], [806.0, 924.0], [51.0, 16.0], [755.0, 908.0], [720.0, 821.0], [392.0, 530.0], [266.0, 266.0], [151.0, 111.0], [54.0, 16.0], [4.0, 9.0], [50.0, 7.0], [97.0, 95.0], [86.0, 95.0], [84.0, 75.0], [42.0, 63.0], [42.0, 12.0], [2.0, 20.0], [11.0, 0.0], [115.0, 155.0], [126.0, 264.0], [78.0, 107.0], [5.0, 33.0], [73.0, 74.0], [17.0, 2.0], [56.0, 72.0], [48.0, 157.0], [328.0, 291.0], [281.0, 279.0], [47.0, 12.0], [35.0, 87.0], [164.0, 373.0], [83.0, 101.0], [26.0, 66.0], [9.0, 1.0], [17.0, 65.0], [57.0, 35.0], [56.0, 25.0], [1.0, 10.0], [81.0, 272.0], [73.0, 270.0], [8.0, 2.0], [65.0, 268.0], [8.0, 2.0], [565.0, 496.0], [515.0, 484.0], [509.0, 458.0], [484.0, 452.0], [314.0, 242.0], [170.0, 210.0], [153.0, 153.0], [17.0, 57.0], [25.0, 6.0], [1.0, 6.0], [24.0, 0.0], [6.0, 26.0], [50.0, 12.0]]}, {"children_left": [1, 2, 3, -1, 5, 6, 7, 8, -1, -1, -1, 12, 13, 14, -1, -1, -1, 18, 19, -1, -1, -1, -1, 24, 25, 26, -1, 28, -1, -1, 31, -1, -1, 34, 35, -1, 37, -1, -1, 40, -1, 42, -1, -1, 45, 46, 47, 48, 49, -1, -1, -1, 53, -1, 55, 56, -1, -1, 59, -1, 61, -1, 63, -1, -1, 66, 67, 68, 69, 70, -1, -1, 73, -1, -1, 76, -1, 78, -1, 80, -1, -1, 83, -1, 85, 86, -1, 88, 89, 90, 91, -1, -1, -1, -1, 96, -1, -1, -1, 100, 101, -1, 103, 104, 105, -1, 107, 108, 109, 110, 111, -1, -1, 114, -1, -1, -1, -1, -1, 120, 121, -1, 123, -1, -1, -1, 127, -1, -1, -1, 131, 132, 133, -1, 135, -1, -1, -1, 139, -1, 141, -1, 143, -1, 145, -1, 147, -1, -1], "children_right": [44, 23, 4, -1, 22, 11, 10, 9, -1, -1, -1, 17, 16, 15, -1, -1, -1, 21, 20, -1, -1, -1, -1, 33, 30, 27, -1, 29, -1, -1, 32, -1, -1, 39, 36, -1, 38, -1, -1, 41, -1, 43, -1, -1, 130, 65, 52, 51, 50, -1, -1, -1, 54, -1, 58, 57, -1, -1, 60, -1, 62, -1, 64, -1, -1, 99, 82, 75, 72, 71, -1, -1, 74, -1, -1, 77, -1, 79, -1, 81, -1, -1, 84, -1, 98, 87, -1, 95, 94, 93, 92, -1, -1, -1, -1, 97, -1, -1, -1, 129, 102, -1, 126, 119, 106, -1, 118, 117, 116, 113, 112, -1, -1, 115, -1, -1, -1, -1, -1, 125, 122, -1, 124, -1, -1, -1, 128, -1, -1, -1, 138, 137, 134, -1, 136, -1, -1, -1, 140, -1, 142, -1, 144, -1, 146, -1, 148, -1, -1], "threshold": [18.744999885559082, 11.5, 20.5, -2.0, 93.5, 17.5, 3.5, 2.6049998998641968, -2.0, -2.0, -2.0, 61.5, 29.5, 3.9600000381469727, -2.0, -2.0, -2.0, 1.6399999856948853, -95.5, -2.0, -2.0, -2.0, -2.0, -29.5, 13.5, 1022.5, -2.0, 8.065000057220459, -2.0, -2.0, 1011.5, -2.0, -2.0, 8.974999904632568, 5.555000066757202, -2.0, 35.0, -2.0, -2.0, 11.5, -2.0, 24.5, -2.0, -2.0, 130.0, 24.5, -25.5, 144.5, 17.344999313354492, -2.0, -2.0, -2.0, 3.0, -2.0, 5.5, -16.5, -2.0, -2.0, 24.204999923706055, -2.0, 243.5, -2.0, 87.5, -2.0, -2.0, 4.365000009536743, 42.5, 24.324999809265137, 51.5, 8.044999837875366, -2.0, -2.0, -106.5, -2.0, -2.0, 0.4300000071525574, -2.0, 3.5, -2.0, 48.5, -2.0, -2.0, 68.5, -2.0, 17.5, 1007.5, -2.0, 74.5, 10.5, 1.9049999713897705, 1.4200000166893005, -2.0, -2.0, -2.0, -2.0, 23.860000610351562, -2.0, -2.0, -2.0, 1020.5, 21.5, -2.0, 195.5, 17.5, 55.5, -2.0, 64.5, 32.295000076293945, 14.940000057220459, 102.5, 58.5, -2.0, -2.0, 12.40500020980835, -2.0, -2.0, -2.0, -2.0, -2.0, 32.43499946594238, 19.809999465942383, -2.0, 23.25, -2.0, -2.0, -2.0, 1009.5, -2.0, -2.0, -2.0, 124.5, -31.5, 3.2100000381469727, -2.0, 17.5, -2.0, -2.0, -2.0, 1.2649999856948853, -2.0, -40.0, -2.0, 185.5, -2.0, 11.884999752044678, -2.0, 13.024999618530273, -2.0, -2.0], "feature": [3, 1, 0, -2, 5, 2, 2, 4, -2, -2, -2, 8, 8, 4, -2, -2, -2, 4, 1, -2, -2, -2, -2, 0, 2, 6, -2, 7, -2, -2, 6, -2, -2, 7, 3, -2, 1, -2, -2, 2, -2, 1, -2, -2, 1, 0, 0, 8, 7, -2, -2, -2, 8, -2, 2, 0, -2, -2, 7, -2, 8, -2, 5, -2, -2, 4, 0, 3, 8, 7, -2, -2, 1, -2, -2, 4, -2, 2, -2, 1, -2, -2, 8, -2, 2, 6, -2, 5, 1, 4, 4, -2, -2, -2, -2, 3, -2, -2, -2, 6, 5, -2, 8, 2, 8, -2, 5, 3, 7, 8, 8, -2, -2, 7, -2, -2, -2, -2, -2, 3, 3, -2, 3, -2, -2, -2, 6, -2, -2, -2, 8, 0, 4, -2, 8, -2, -2, -2, 4, -2, 0, -2, 8, -2, 7, -2, 7, -2, -2], "classes": [0, 1], "value": [[3995.0, 4164.0], [1641.0, 1105.0], [1032.0, 585.0], [13.0, 51.0], [1019.0, 534.0], [903.0, 507.0], [618.0, 299.0], [78.0, 65.0], [47.0, 18.0], [31.0, 47.0], [540.0, 234.0], [285.0, 208.0], [63.0, 83.0], [36.0, 19.0], [14.0, 18.0], [22.0, 1.0], [27.0, 64.0], [222.0, 125.0], [16.0, 28.0], [13.0, 5.0], [3.0, 23.0], [206.0, 97.0], [116.0, 27.0], [609.0, 520.0], [255.0, 133.0], [144.0, 103.0], [112.0, 59.0], [32.0, 44.0], [24.0, 10.0], [8.0, 34.0], [111.0, 30.0], [3.0, 11.0], [108.0, 19.0], [354.0, 387.0], [241.0, 201.0], [16.0, 42.0], [225.0, 159.0], [193.0, 110.0], [32.0, 49.0], [113.0, 186.0], [51.0, 42.0], [62.0, 144.0], [14.0, 77.0], [48.0, 67.0], [2354.0, 3059.0], [2014.0, 2828.0], [400.0, 873.0], [95.0, 85.0], [37.0, 67.0], [36.0, 40.0], [1.0, 27.0], [58.0, 18.0], [305.0, 788.0], [17.0, 1.0], [288.0, 787.0], [75.0, 124.0], [9.0, 0.0], [66.0, 124.0], [213.0, 663.0], [112.0, 462.0], [101.0, 201.0], [79.0, 189.0], [22.0, 12.0], [20.0, 2.0], [2.0, 10.0], [1614.0, 1955.0], [1079.0, 1468.0], [689.0, 754.0], [343.0, 282.0], [22.0, 44.0], [16.0, 7.0], [6.0, 37.0], [321.0, 238.0], [23.0, 42.0], [298.0, 196.0], [346.0, 472.0], [17.0, 1.0], [329.0, 471.0], [19.0, 75.0], [310.0, 396.0], [303.0, 347.0], [7.0, 49.0], [390.0, 714.0], [18.0, 6.0], [372.0, 708.0], [268.0, 415.0], [4.0, 41.0], [264.0, 374.0], [206.0, 327.0], [89.0, 196.0], [32.0, 24.0], [9.0, 20.0], [23.0, 4.0], [57.0, 172.0], [117.0, 131.0], [58.0, 47.0], [58.0, 36.0], [0.0, 11.0], [104.0, 293.0], [535.0, 487.0], [478.0, 469.0], [37.0, 10.0], [441.0, 459.0], [415.0, 398.0], [293.0, 232.0], [5.0, 27.0], [288.0, 205.0], [163.0, 153.0], [127.0, 147.0], [102.0, 93.0], [23.0, 45.0], [7.0, 0.0], [16.0, 45.0], [79.0, 48.0], [45.0, 44.0], [34.0, 4.0], [25.0, 54.0], [36.0, 6.0], [125.0, 52.0], [122.0, 166.0], [119.0, 141.0], [11.0, 1.0], [108.0, 140.0], [24.0, 67.0], [84.0, 73.0], [3.0, 25.0], [26.0, 61.0], [10.0, 3.0], [16.0, 58.0], [57.0, 18.0], [340.0, 231.0], [109.0, 126.0], [58.0, 111.0], [14.0, 65.0], [44.0, 46.0], [1.0, 19.0], [43.0, 27.0], [51.0, 15.0], [231.0, 105.0], [11.0, 20.0], [220.0, 85.0], [0.0, 5.0], [220.0, 80.0], [133.0, 30.0], [87.0, 50.0], [37.0, 5.0], [50.0, 45.0], [0.0, 15.0], [50.0, 30.0]]}, {"children_left": [1, 2, 3, 4, 5, -1, 7, 8, 9, -1, -1, -1, -1, 14, 15, 16, -1, 18, -1, 20, -1, -1, -1, 24, -1, 26, -1, 28, 29, 30, -1, 32, -1, -1, -1, 36, -1, 38, -1, -1, 41, -1, 43, -1, 45, -1, -1, 48, 49, -1, 51, -1, -1, 54, -1, 56, 57, -1, -1, 60, -1, -1, 63, 64, 65, -1, 67, 68, -1, 70, -1, -1, -1, 74, 75, 76, -1, -1, -1, -1, 81, 82, 83, -1, 85, 86, -1, -1, -1, 90, -1, 92, 93, 94, -1, -1, -1, -1, 99, 100, -1, 102, 103, 104, 105, 106, -1, 108, 109, -1, 111, -1, -1, 114, -1, 116, 117, 118, -1, -1, 121, -1, -1, -1, -1, 126, -1, 128, 129, -1, -1, -1, -1, -1, 135, 136, 137, 138, -1, 140, -1, -1, -1, 144, 145, -1, 147, -1, -1, -1, 151, 152, 153, -1, 155, 156, -1, -1, 159, -1, 161, -1, 163, 164, 165, -1, -1, -1, 169, -1, -1, -1, 173, -1, 175, -1, -1], "children_right": [62, 47, 40, 13, 6, -1, 12, 11, 10, -1, -1, -1, -1, 23, 22, 17, -1, 19, -1, 21, -1, -1, -1, 25, -1, 27, -1, 35, 34, 31, -1, 33, -1, -1, -1, 37, -1, 39, -1, -1, 42, -1, 44, -1, 46, -1, -1, 53, 50, -1, 52, -1, -1, 55, -1, 59, 58, -1, -1, 61, -1, -1, 80, 73, 66, -1, 72, 69, -1, 71, -1, -1, -1, 79, 78, 77, -1, -1, -1, -1, 98, 89, 84, -1, 88, 87, -1, -1, -1, 91, -1, 97, 96, 95, -1, -1, -1, -1, 134, 101, -1, 133, 132, 125, 124, 107, -1, 113, 110, -1, 112, -1, -1, 115, -1, 123, 120, 119, -1, -1, 122, -1, -1, -1, -1, 127, -1, 131, 130, -1, -1, -1, -1, -1, 150, 143, 142, 139, -1, 141, -1, -1, -1, 149, 146, -1, 148, -1, -1, -1, 172, 171, 154, -1, 158, 157, -1, -1, 160, -1, 162, -1, 168, 167, 166, -1, -1, -1, 170, -1, -1, -1, 174, -1, 176, -1, -1], "threshold": [19.505000114440918, 83.5, 3.2649999856948853, -72.5, 11.484999656677246, -2.0, -82.5, 11.519999980926514, 13.989999771118164, -2.0, -2.0, -2.0, -2.0, 10.5, 328.0, 3.5, -2.0, 274.0, -2.0, 67.5, -2.0, -2.0, -2.0, 2.5, -2.0, 5.5, -2.0, 1.3700000047683716, 0.6949999928474426, 26.5, -2.0, 11.650000095367432, -2.0, -2.0, -2.0, 8.744999885559082, -2.0, 9.914999961853027, -2.0, -2.0, 42.5, -2.0, 1008.5, -2.0, 15.625, -2.0, -2.0, 14.709999561309814, 1025.5, -2.0, 9.0, -2.0, -2.0, -26.5, -2.0, 11.5, 20.5, -2.0, -2.0, 1014.5, -2.0, -2.0, -16.5, 126.5, 15.690000057220459, -2.0, 111.5, 6.5, -2.0, -29.5, -2.0, -2.0, -2.0, 3.0649999380111694, 0.9199999868869781, 52.0, -2.0, -2.0, -2.0, -2.0, 31.5, 3.5, 21.34000015258789, -2.0, 3.1200000047683716, 1010.5, -2.0, -2.0, -2.0, -76.5, -2.0, 10.5, 28.5, 21.065000534057617, -2.0, -2.0, -2.0, -2.0, 41.5, -120.5, -2.0, 88.5, 23.5, 1.0, -7.0, 33.5, -2.0, 24.875, 12.855000019073486, -2.0, 17.695000648498535, -2.0, -2.0, 0.8900000154972076, -2.0, 6.980000019073486, 28.30500030517578, 40.5, -2.0, -2.0, 28.97499942779541, -2.0, -2.0, -2.0, -2.0, 26.0, -2.0, 30.7549991607666, 7.555000066757202, -2.0, -2.0, -2.0, -2.0, -2.0, 4.075000047683716, 49.5, 1.2350000143051147, 125.5, -2.0, 20.25, -2.0, -2.0, -2.0, 116.5, 50.5, -2.0, 13.5, -2.0, -2.0, -2.0, 16.5, 27.5, 19.77500057220459, -2.0, 4.244999885559082, 1011.0, -2.0, -2.0, 38.5, -2.0, 41.5, -2.0, 22.22000026702881, 102.5, 5.5, -2.0, -2.0, -2.0, 27.704999923706055, -2.0, -2.0, -2.0, 24.104999542236328, -2.0, 4.590000152587891, -2.0, -2.0], "feature": [3, 5, 4, 1, 3, -2, 1, 7, 3, -2, -2, -2, -2, 2, 8, 2, -2, 8, -2, 5, -2, -2, -2, 1, -2, 1, -2, 4, 4, 1, -2, 7, -2, -2, -2, 7, -2, 7, -2, -2, 5, -2, 6, -2, 7, -2, -2, 3, 6, -2, 1, -2, -2, 0, -2, 1, 0, -2, -2, 6, -2, -2, 0, 8, 7, -2, 8, 8, -2, 0, -2, -2, -2, 4, 4, 5, -2, -2, -2, -2, 0, 0, 7, -2, 4, 6, -2, -2, -2, 1, -2, 2, 0, 7, -2, -2, -2, -2, 0, 1, -2, 5, 2, 1, 1, 0, -2, 3, 7, -2, 7, -2, -2, 4, -2, 4, 3, 0, -2, -2, 3, -2, -2, -2, -2, 1, -2, 3, 4, -2, -2, -2, -2, -2, 4, 0, 4, 8, -2, 3, -2, -2, -2, 8, 0, -2, 2, -2, -2, -2, 2, 1, 3, -2, 4, 6, -2, -2, 5, -2, 5, -2, 3, 8, 1, -2, -2, -2, 3, -2, -2, -2, 3, -2, 4, -2, -2], "classes": [0, 1], "value": [[3967.0, 4192.0], [1786.0, 1256.0], [1237.0, 1001.0], [588.0, 559.0], [197.0, 117.0], [84.0, 21.0], [113.0, 96.0], [73.0, 79.0], [61.0, 43.0], [7.0, 21.0], [54.0, 22.0], [12.0, 36.0], [40.0, 17.0], [391.0, 442.0], [165.0, 120.0], [141.0, 120.0], [14.0, 34.0], [127.0, 86.0], [121.0, 70.0], [6.0, 16.0], [0.0, 16.0], [6.0, 0.0], [24.0, 0.0], [226.0, 322.0], [39.0, 95.0], [187.0, 227.0], [19.0, 4.0], [168.0, 223.0], [30.0, 75.0], [19.0, 15.0], [10.0, 0.0], [9.0, 15.0], [2.0, 15.0], [7.0, 0.0], [11.0, 60.0], [138.0, 148.0], [88.0, 59.0], [50.0, 89.0], [3.0, 31.0], [47.0, 58.0], [649.0, 442.0], [34.0, 56.0], [615.0, 386.0], [142.0, 51.0], [473.0, 335.0], [472.0, 323.0], [1.0, 12.0], [549.0, 255.0], [358.0, 113.0], [333.0, 90.0], [25.0, 23.0], [22.0, 8.0], [3.0, 15.0], [191.0, 142.0], [43.0, 5.0], [148.0, 137.0], [121.0, 84.0], [0.0, 9.0], [121.0, 75.0], [27.0, 53.0], [25.0, 22.0], [2.0, 31.0], [2181.0, 2936.0], [418.0, 335.0], [133.0, 176.0], [64.0, 138.0], [69.0, 38.0], [67.0, 28.0], [0.0, 6.0], [67.0, 22.0], [27.0, 21.0], [40.0, 1.0], [2.0, 10.0], [285.0, 159.0], [104.0, 102.0], [4.0, 22.0], [4.0, 0.0], [0.0, 22.0], [100.0, 80.0], [181.0, 57.0], [1763.0, 2601.0], [425.0, 973.0], [120.0, 173.0], [16.0, 57.0], [104.0, 116.0], [50.0, 82.0], [21.0, 65.0], [29.0, 17.0], [54.0, 34.0], [305.0, 800.0], [133.0, 213.0], [172.0, 587.0], [104.0, 203.0], [91.0, 200.0], [4.0, 46.0], [87.0, 154.0], [13.0, 3.0], [68.0, 384.0], [1338.0, 1628.0], [703.0, 642.0], [28.0, 6.0], [675.0, 636.0], [634.0, 621.0], [615.0, 579.0], [434.0, 357.0], [328.0, 319.0], [35.0, 62.0], [293.0, 257.0], [155.0, 99.0], [66.0, 20.0], [89.0, 79.0], [39.0, 57.0], [50.0, 22.0], [138.0, 158.0], [15.0, 0.0], [123.0, 158.0], [110.0, 158.0], [47.0, 103.0], [20.0, 81.0], [27.0, 22.0], [63.0, 55.0], [22.0, 3.0], [41.0, 52.0], [13.0, 0.0], [106.0, 38.0], [181.0, 222.0], [9.0, 46.0], [172.0, 176.0], [154.0, 133.0], [154.0, 120.0], [0.0, 13.0], [18.0, 43.0], [19.0, 42.0], [41.0, 15.0], [635.0, 986.0], [362.0, 689.0], [250.0, 394.0], [56.0, 47.0], [14.0, 28.0], [42.0, 19.0], [0.0, 9.0], [42.0, 10.0], [194.0, 347.0], [112.0, 295.0], [44.0, 52.0], [2.0, 18.0], [42.0, 34.0], [23.0, 4.0], [19.0, 30.0], [68.0, 243.0], [273.0, 297.0], [185.0, 146.0], [175.0, 122.0], [3.0, 14.0], [172.0, 108.0], [10.0, 23.0], [8.0, 2.0], [2.0, 21.0], [162.0, 85.0], [28.0, 3.0], [134.0, 82.0], [1.0, 11.0], [133.0, 71.0], [69.0, 16.0], [13.0, 11.0], [2.0, 11.0], [11.0, 0.0], [56.0, 5.0], [64.0, 55.0], [44.0, 54.0], [20.0, 1.0], [10.0, 24.0], [88.0, 151.0], [37.0, 103.0], [51.0, 48.0], [19.0, 3.0], [32.0, 45.0]]}, {"children_left": [1, 2, 3, -1, 5, 6, 7, 8, -1, 10, -1, 12, -1, 14, -1, 16, -1, -1, -1, -1, -1, 22, 23, 24, 25, -1, -1, -1, 29, 30, -1, 32, 33, -1, 35, 36, -1, -1, -1, 40, 41, -1, -1, 44, -1, 46, 47, -1, -1, -1, 51, 52, 53, 54, -1, -1, -1, -1, -1, 60, 61, 62, -1, 64, -1, -1, -1, 68, -1, -1, 71, 72, 73, 74, 75, -1, 77, 78, 79, -1, 81, 82, 83, 84, -1, -1, -1, 88, 89, -1, -1, -1, 93, 94, -1, 96, -1, -1, -1, -1, 101, -1, 103, -1, -1, 106, 107, -1, 109, 110, -1, -1, -1, 114, 115, 116, 117, -1, -1, -1, 121, -1, -1, -1, 125, -1, 127, -1, -1, 130, 131, -1, 133, 134, 135, -1, -1, -1, 139, -1, 141, -1, 143, -1, 145, -1, 147, 148, -1, -1, 151, 152, 153, 154, -1, -1, -1, 158, -1, 160, -1, -1, -1, 164, 165, -1, -1, 168, 169, -1, -1, -1, 173, 174, 175, -1, -1, 178, -1, 180, 181, -1, 183, 184, -1, -1, -1, -1, 189, -1, 191, 192, -1, 194, -1, -1, -1], "children_right": [70, 21, 4, -1, 20, 19, 18, 9, -1, 11, -1, 13, -1, 15, -1, 17, -1, -1, -1, -1, -1, 59, 28, 27, 26, -1, -1, -1, 50, 31, -1, 39, 34, -1, 38, 37, -1, -1, -1, 43, 42, -1, -1, 45, -1, 49, 48, -1, -1, -1, 58, 57, 56, 55, -1, -1, -1, -1, -1, 67, 66, 63, -1, 65, -1, -1, -1, 69, -1, -1, 172, 129, 124, 105, 76, -1, 100, 99, 80, -1, 92, 87, 86, 85, -1, -1, -1, 91, 90, -1, -1, -1, 98, 95, -1, 97, -1, -1, -1, -1, 102, -1, 104, -1, -1, 113, 108, -1, 112, 111, -1, -1, -1, 123, 120, 119, 118, -1, -1, -1, 122, -1, -1, -1, 126, -1, 128, -1, -1, 163, 132, -1, 138, 137, 136, -1, -1, -1, 140, -1, 142, -1, 144, -1, 146, -1, 150, 149, -1, -1, 162, 157, 156, 155, -1, -1, -1, 159, -1, 161, -1, -1, -1, 167, 166, -1, -1, 171, 170, -1, -1, -1, 188, 177, 176, -1, -1, 179, -1, 187, 182, -1, 186, 185, -1, -1, -1, -1, 190, -1, 196, 193, -1, 195, -1, -1, -1], "threshold": [18.84500026702881, -72.5, 18.5, -2.0, -77.5, 87.5, 18.63499927520752, 14.5, -2.0, 32.5, -2.0, 3.2450000047683716, -2.0, 5.125, -2.0, 76.5, -2.0, -2.0, -2.0, -2.0, -2.0, 3.284999966621399, 0.6899999976158142, 12.555000305175781, 0.5250000059604645, -2.0, -2.0, -2.0, 50.5, 37.5, -2.0, 8.5, 14.5, -2.0, 49.5, 2.774999976158142, -2.0, -2.0, -2.0, 1.3049999475479126, 39.0, -2.0, -2.0, 4.914999961853027, -2.0, 55.5, 1005.5, -2.0, -2.0, -2.0, 1028.5, 74.5, 151.5, 72.5, -2.0, -2.0, -2.0, -2.0, -2.0, 44.5, -31.5, 1023.5, -2.0, 1030.0, -2.0, -2.0, -2.0, 42.0, -2.0, -2.0, 20.719999313354492, 4.0350000858306885, 49.5, 130.5, 0.4450000077486038, -2.0, 28.994999885559082, 28.854999542236328, -34.5, -2.0, 106.5, 1008.5, -83.5, 11.0, -2.0, -2.0, -2.0, 19.6850004196167, 3.309999942779541, -2.0, -2.0, -2.0, 20.835000038146973, 19.039999961853027, -2.0, 117.5, -2.0, -2.0, -2.0, -2.0, 34.170000076293945, -2.0, 20.0, -2.0, -2.0, 206.5, 1000.5, -2.0, 9.5, 91.5, -2.0, -2.0, -2.0, 106.0, 2.65500009059906, 13.140000343322754, 222.5, -2.0, -2.0, -2.0, 23.524999618530273, -2.0, -2.0, -2.0, 115.5, -2.0, 9.5, -2.0, -2.0, 112.0, 29.5, -2.0, -0.5, 225.5, 43.0, -2.0, -2.0, -2.0, 7.5, -2.0, 4.375, -2.0, 4.644999980926514, -2.0, 4.7900002002716064, -2.0, 20.11500072479248, 2.0, -2.0, -2.0, 16.940000534057617, 13.779999732971191, 24.005000114440918, 54.5, -2.0, -2.0, -2.0, 6.159999847412109, -2.0, 7.200000047683716, -2.0, -2.0, -2.0, 19.5, 11.15500020980835, -2.0, -2.0, 21.270000457763672, 5.230000019073486, -2.0, -2.0, -2.0, 27.5, -8.5, 1011.5, -2.0, -2.0, 99.5, -2.0, 19.5, 63.5, -2.0, 1.5, 84.0, -2.0, -2.0, -2.0, -2.0, 1.199999988079071, -2.0, 7.134999990463257, 1012.5, -2.0, -84.5, -2.0, -2.0, -2.0], "feature": [3, 1, 0, -2, 1, 5, 3, 2, -2, 0, -2, 4, -2, 4, -2, 5, -2, -2, -2, -2, -2, 4, 4, 3, 4, -2, -2, -2, 1, 0, -2, 2, 1, -2, 0, 4, -2, -2, -2, 4, 0, -2, -2, 7, -2, 8, 6, -2, -2, -2, 6, 5, 1, 5, -2, -2, -2, -2, -2, 0, 0, 6, -2, 6, -2, -2, -2, 5, -2, -2, 7, 4, 0, 8, 4, -2, 3, 3, 0, -2, 8, 6, 1, 7, -2, -2, -2, 3, 4, -2, -2, -2, 3, 3, -2, 8, -2, -2, -2, -2, 3, -2, 5, -2, -2, 8, 6, -2, 2, 5, -2, -2, -2, 1, 4, 7, 8, -2, -2, -2, 3, -2, -2, -2, 8, -2, 2, -2, -2, 1, 0, -2, 1, 8, 8, -2, -2, -2, 2, -2, 4, -2, 4, -2, 4, -2, 3, 1, -2, -2, 7, 7, 3, 5, -2, -2, -2, 4, -2, 4, -2, -2, -2, 8, 7, -2, -2, 3, 4, -2, -2, -2, 0, 0, 6, -2, -2, 1, -2, 2, 5, -2, 0, 8, -2, -2, -2, -2, 4, -2, 4, 6, -2, 1, -2, -2, -2], "classes": [0, 1], "value": [[4061.0, 4098.0], [1679.0, 1100.0], [602.0, 271.0], [1.0, 13.0], [601.0, 258.0], [476.0, 233.0], [369.0, 207.0], [369.0, 199.0], [211.0, 83.0], [158.0, 116.0], [2.0, 14.0], [156.0, 102.0], [77.0, 30.0], [79.0, 72.0], [21.0, 49.0], [58.0, 23.0], [57.0, 15.0], [1.0, 8.0], [0.0, 8.0], [107.0, 26.0], [125.0, 25.0], [1077.0, 829.0], [570.0, 539.0], [54.0, 20.0], [13.0, 15.0], [2.0, 13.0], [11.0, 2.0], [41.0, 5.0], [516.0, 519.0], [359.0, 414.0], [11.0, 56.0], [348.0, 358.0], [115.0, 70.0], [76.0, 28.0], [39.0, 42.0], [37.0, 25.0], [36.0, 14.0], [1.0, 11.0], [2.0, 17.0], [233.0, 288.0], [26.0, 72.0], [9.0, 2.0], [17.0, 70.0], [207.0, 216.0], [57.0, 30.0], [150.0, 186.0], [16.0, 48.0], [10.0, 4.0], [6.0, 44.0], [134.0, 138.0], [157.0, 105.0], [154.0, 88.0], [60.0, 57.0], [58.0, 40.0], [57.0, 27.0], [1.0, 13.0], [2.0, 17.0], [94.0, 31.0], [3.0, 17.0], [507.0, 290.0], [167.0, 137.0], [97.0, 47.0], [86.0, 29.0], [11.0, 18.0], [4.0, 18.0], [7.0, 0.0], [70.0, 90.0], [340.0, 153.0], [3.0, 13.0], [337.0, 140.0], [2382.0, 2998.0], [1899.0, 2119.0], [1157.0, 1508.0], [998.0, 1172.0], [455.0, 642.0], [20.0, 4.0], [435.0, 638.0], [400.0, 538.0], [390.0, 538.0], [12.0, 47.0], [378.0, 491.0], [265.0, 280.0], [38.0, 13.0], [9.0, 12.0], [9.0, 2.0], [0.0, 10.0], [29.0, 1.0], [227.0, 267.0], [8.0, 35.0], [0.0, 32.0], [8.0, 3.0], [219.0, 232.0], [113.0, 211.0], [38.0, 35.0], [0.0, 14.0], [38.0, 21.0], [28.0, 4.0], [10.0, 17.0], [75.0, 176.0], [10.0, 0.0], [35.0, 100.0], [21.0, 92.0], [14.0, 8.0], [1.0, 7.0], [13.0, 1.0], [543.0, 530.0], [425.0, 343.0], [0.0, 8.0], [425.0, 335.0], [146.0, 81.0], [146.0, 68.0], [0.0, 13.0], [279.0, 254.0], [118.0, 187.0], [71.0, 163.0], [24.0, 103.0], [19.0, 46.0], [14.0, 5.0], [5.0, 41.0], [5.0, 57.0], [47.0, 60.0], [36.0, 22.0], [11.0, 38.0], [47.0, 24.0], [159.0, 336.0], [50.0, 42.0], [109.0, 294.0], [28.0, 25.0], [81.0, 269.0], [742.0, 611.0], [586.0, 546.0], [53.0, 98.0], [533.0, 448.0], [315.0, 205.0], [314.0, 191.0], [19.0, 37.0], [295.0, 154.0], [1.0, 14.0], [218.0, 243.0], [16.0, 0.0], [202.0, 243.0], [46.0, 24.0], [156.0, 219.0], [4.0, 31.0], [152.0, 188.0], [25.0, 8.0], [127.0, 180.0], [31.0, 18.0], [0.0, 8.0], [31.0, 10.0], [96.0, 162.0], [65.0, 139.0], [52.0, 67.0], [17.0, 44.0], [6.0, 40.0], [11.0, 4.0], [35.0, 23.0], [13.0, 72.0], [2.0, 60.0], [11.0, 12.0], [11.0, 2.0], [0.0, 10.0], [31.0, 23.0], [156.0, 65.0], [6.0, 16.0], [0.0, 15.0], [6.0, 1.0], [150.0, 49.0], [36.0, 25.0], [25.0, 3.0], [11.0, 22.0], [114.0, 24.0], [483.0, 879.0], [288.0, 642.0], [49.0, 32.0], [28.0, 3.0], [21.0, 29.0], [239.0, 610.0], [42.0, 190.0], [197.0, 420.0], [172.0, 404.0], [42.0, 40.0], [130.0, 364.0], [49.0, 67.0], [20.0, 4.0], [29.0, 63.0], [81.0, 297.0], [25.0, 16.0], [195.0, 237.0], [31.0, 9.0], [164.0, 228.0], [146.0, 224.0], [33.0, 107.0], [113.0, 117.0], [24.0, 52.0], [89.0, 65.0], [18.0, 4.0]]}, {"children_left": [1, 2, 3, 4, -1, 6, 7, -1, 9, 10, 11, -1, 13, -1, -1, 16, 17, 18, -1, -1, -1, -1, 23, 24, 25, -1, -1, -1, 29, -1, 31, -1, -1, -1, 35, 36, 37, 38, -1, -1, -1, -1, 43, 44, -1, -1, 47, -1, -1, 50, 51, -1, 53, -1, -1, -1, 57, 58, 59, 60, 61, 62, -1, 64, -1, -1, 67, -1, 69, -1, -1, -1, 73, -1, 75, -1, 77, -1, -1, 80, 81, 82, 83, -1, 85, -1, 87, -1, 89, -1, -1, 92, -1, -1, -1, 96, -1, -1, 99, 100, 101, -1, -1, -1, 105, 106, 107, 108, -1, -1, 111, -1, -1, -1, 115, 116, 117, 118, 119, -1, -1, -1, 123, -1, -1, 126, 127, 128, 129, -1, -1, -1, -1, 134, 135, 136, -1, 138, -1, -1, -1, -1, 143, 144, 145, 146, 147, 148, -1, -1, -1, -1, -1, -1, 155, 156, 157, -1, -1, 160, -1, -1, 163, 164, 165, -1, 167, 168, -1, -1, -1, -1, -1], "children_right": [56, 49, 34, 5, -1, 33, 8, -1, 22, 15, 12, -1, 14, -1, -1, 21, 20, 19, -1, -1, -1, -1, 28, 27, 26, -1, -1, -1, 30, -1, 32, -1, -1, -1, 42, 41, 40, 39, -1, -1, -1, -1, 46, 45, -1, -1, 48, -1, -1, 55, 52, -1, 54, -1, -1, -1, 98, 79, 72, 71, 66, 63, -1, 65, -1, -1, 68, -1, 70, -1, -1, -1, 74, -1, 76, -1, 78, -1, -1, 95, 94, 91, 84, -1, 86, -1, 88, -1, 90, -1, -1, 93, -1, -1, -1, 97, -1, -1, 104, 103, 102, -1, -1, -1, 114, 113, 110, 109, -1, -1, 112, -1, -1, -1, 142, 125, 122, 121, 120, -1, -1, -1, 124, -1, -1, 133, 132, 131, 130, -1, -1, -1, -1, 141, 140, 137, -1, 139, -1, -1, -1, -1, 154, 153, 152, 151, 150, 149, -1, -1, -1, -1, -1, -1, 162, 159, 158, -1, -1, 161, -1, -1, 172, 171, 166, -1, 170, 169, -1, -1, -1, -1, -1], "threshold": [18.734999656677246, 87.5, 12.5, 14.5, -2.0, 1029.5, -1.0799999833106995, -2.0, 14.984999656677246, 13.5, 7.5, -2.0, 13.934999942779541, -2.0, -2.0, 303.5, -98.5, 206.0, -2.0, -2.0, -2.0, -2.0, 12.484999656677246, 60.5, 1013.5, -2.0, -2.0, -2.0, -98.5, -2.0, 53.5, -2.0, -2.0, -2.0, -0.12000000104308128, 48.0, -2.8149999380111694, -7.549999952316284, -2.0, -2.0, -2.0, -2.0, 23.5, 8.829999923706055, -2.0, -2.0, 10.699999809265137, -2.0, -2.0, 123.5, 1014.5, -2.0, -5.0, -2.0, -2.0, -2.0, 2.965000033378601, 26.5, -8.5, 22.550000190734863, 131.5, 7.5, -2.0, 69.5, -2.0, -2.0, 27.0, -2.0, 1.0149999856948853, -2.0, -2.0, -2.0, -100.5, -2.0, 22.15499973297119, -2.0, 41.5, -2.0, -2.0, 49.5, 222.5, 130.5, 57.5, -2.0, 5.5, -2.0, 9.5, -2.0, 20.5, -2.0, -2.0, 1.284999966621399, -2.0, -2.0, -2.0, 32.5, -2.0, -2.0, -20.5, 144.5, 7.5, -2.0, -2.0, -2.0, 24.5, 125.5, 98.0, -90.5, -2.0, -2.0, 17.5, -2.0, -2.0, -2.0, 41.5, 1012.5, 27.875, 27.145000457763672, 49.5, -2.0, -2.0, -2.0, 28.5, -2.0, -2.0, 4.240000009536743, 49.0, 84.5, 39.5, -2.0, -2.0, -2.0, -2.0, 25.329999923706055, 175.5, 7.289999961853027, -2.0, 69.0, -2.0, -2.0, -2.0, -2.0, 4.254999876022339, 16.5, 49.5, 1016.5, 158.0, 16.420000076293945, -2.0, -2.0, -2.0, -2.0, -2.0, -2.0, 46.5, 18.699999809265137, 20.68000030517578, -2.0, -2.0, -86.0, -2.0, -2.0, 55.5, 5.994999885559082, 5.065000057220459, -2.0, 22.014999389648438, 23.0, -2.0, -2.0, -2.0, -2.0, -2.0], "feature": [3, 5, 1, 0, -2, 6, 3, -2, 3, 2, 8, -2, 3, -2, -2, 8, 1, 8, -2, -2, -2, -2, 7, 5, 6, -2, -2, -2, 1, -2, 0, -2, -2, -2, 7, 1, 7, 7, -2, -2, -2, -2, 1, 7, -2, -2, 3, -2, -2, 8, 6, -2, 1, -2, -2, -2, 4, 0, 0, 7, 8, 2, -2, 8, -2, -2, 1, -2, 4, -2, -2, -2, 1, -2, 7, -2, 8, -2, -2, 0, 8, 8, 8, -2, 2, -2, 2, -2, 1, -2, -2, 4, -2, -2, -2, 1, -2, -2, 0, 8, 2, -2, -2, -2, 0, 1, 1, 1, -2, -2, 2, -2, -2, -2, 0, 6, 3, 3, 5, -2, -2, -2, 0, -2, -2, 4, 8, 5, 0, -2, -2, -2, -2, 7, 8, 4, -2, 5, -2, -2, -2, -2, 4, 1, 0, 6, 8, 7, -2, -2, -2, -2, -2, -2, 0, 7, 3, -2, -2, 1, -2, -2, 0, 4, 4, -2, 3, 1, -2, -2, -2, -2, -2], "classes": [0, 1], "value": [[4080.0, 4079.0], [1629.0, 1052.0], [1252.0, 920.0], [743.0, 475.0], [7.0, 40.0], [736.0, 435.0], [721.0, 410.0], [16.0, 0.0], [705.0, 410.0], [331.0, 233.0], [190.0, 91.0], [0.0, 8.0], [190.0, 83.0], [173.0, 59.0], [17.0, 24.0], [141.0, 142.0], [106.0, 132.0], [32.0, 14.0], [30.0, 4.0], [2.0, 10.0], [74.0, 118.0], [35.0, 10.0], [374.0, 177.0], [273.0, 100.0], [109.0, 64.0], [25.0, 34.0], [84.0, 30.0], [164.0, 36.0], [101.0, 77.0], [3.0, 20.0], [98.0, 57.0], [95.0, 44.0], [3.0, 13.0], [15.0, 25.0], [509.0, 445.0], [27.0, 63.0], [19.0, 63.0], [16.0, 17.0], [0.0, 12.0], [16.0, 5.0], [3.0, 46.0], [8.0, 0.0], [482.0, 382.0], [98.0, 128.0], [80.0, 64.0], [18.0, 64.0], [384.0, 254.0], [62.0, 16.0], [322.0, 238.0], [377.0, 132.0], [159.0, 83.0], [103.0, 26.0], [56.0, 57.0], [40.0, 20.0], [16.0, 37.0], [218.0, 49.0], [2451.0, 3027.0], [974.0, 1588.0], [311.0, 648.0], [161.0, 192.0], [145.0, 190.0], [46.0, 96.0], [7.0, 46.0], [39.0, 50.0], [28.0, 15.0], [11.0, 35.0], [99.0, 94.0], [4.0, 21.0], [95.0, 73.0], [6.0, 20.0], [89.0, 53.0], [16.0, 2.0], [150.0, 456.0], [18.0, 7.0], [132.0, 449.0], [22.0, 158.0], [110.0, 291.0], [20.0, 13.0], [90.0, 278.0], [663.0, 940.0], [579.0, 710.0], [572.0, 666.0], [282.0, 414.0], [42.0, 25.0], [240.0, 389.0], [21.0, 73.0], [219.0, 316.0], [43.0, 23.0], [176.0, 293.0], [157.0, 208.0], [19.0, 85.0], [290.0, 252.0], [90.0, 38.0], [200.0, 214.0], [7.0, 44.0], [84.0, 230.0], [74.0, 229.0], [10.0, 1.0], [1477.0, 1439.0], [287.0, 138.0], [120.0, 94.0], [63.0, 24.0], [57.0, 70.0], [167.0, 44.0], [1190.0, 1301.0], [198.0, 318.0], [185.0, 317.0], [54.0, 140.0], [29.0, 29.0], [25.0, 111.0], [131.0, 177.0], [114.0, 173.0], [17.0, 4.0], [13.0, 1.0], [992.0, 983.0], [545.0, 422.0], [223.0, 218.0], [103.0, 143.0], [102.0, 118.0], [22.0, 54.0], [80.0, 64.0], [1.0, 25.0], [120.0, 75.0], [4.0, 19.0], [116.0, 56.0], [322.0, 204.0], [150.0, 133.0], [10.0, 27.0], [4.0, 27.0], [0.0, 27.0], [4.0, 0.0], [6.0, 0.0], [140.0, 106.0], [172.0, 71.0], [172.0, 64.0], [120.0, 60.0], [112.0, 43.0], [8.0, 17.0], [2.0, 17.0], [6.0, 0.0], [52.0, 4.0], [0.0, 7.0], [447.0, 561.0], [179.0, 308.0], [126.0, 268.0], [86.0, 133.0], [52.0, 107.0], [51.0, 80.0], [21.0, 65.0], [30.0, 15.0], [1.0, 27.0], [34.0, 26.0], [40.0, 135.0], [53.0, 40.0], [268.0, 253.0], [69.0, 115.0], [43.0, 103.0], [13.0, 6.0], [30.0, 97.0], [26.0, 12.0], [1.0, 10.0], [25.0, 2.0], [199.0, 138.0], [196.0, 122.0], [135.0, 106.0], [94.0, 41.0], [41.0, 65.0], [35.0, 19.0], [17.0, 19.0], [18.0, 0.0], [6.0, 46.0], [61.0, 16.0], [3.0, 16.0]]}, {"children_left": [1, 2, 3, 4, 5, 6, 7, 8, -1, -1, 11, -1, 13, 14, -1, 16, 17, -1, -1, -1, -1, -1, -1, -1, 25, 26, 27, 28, -1, -1, -1, -1, 33, 34, 35, -1, -1, -1, 39, -1, -1, 42, -1, 44, 45, 46, -1, 48, -1, 50, 51, -1, 53, -1, -1, 56, -1, 58, -1, -1, -1, -1, 63, 64, 65, 66, -1, -1, 69, 70, 71, 72, 73, -1, 75, 76, -1, 78, -1, 80, -1, 82, -1, 84, 85, -1, -1, -1, -1, 90, 91, -1, -1, -1, -1, 96, 97, -1, 99, -1, -1, 102, 103, -1, 105, 106, -1, 108, -1, 110, -1, -1, -1, 114, 115, 116, -1, -1, -1, -1, 121, 122, -1, -1, -1, 126, 127, 128, 129, -1, -1, 132, -1, -1, 135, -1, -1, 138, 139, 140, 141, -1, 143, -1, -1, -1, -1, 148, -1, 150, 151, 152, -1, -1, -1, -1, 157, 158, 159, -1, 161, -1, 163, 164, -1, 166, -1, -1, -1, -1, 171, -1, 173, 174, -1, -1, -1], "children_right": [62, 41, 24, 23, 22, 21, 10, 9, -1, -1, 12, -1, 20, 15, -1, 19, 18, -1, -1, -1, -1, -1, -1, -1, 32, 31, 30, 29, -1, -1, -1, -1, 38, 37, 36, -1, -1, -1, 40, -1, -1, 43, -1, 61, 60, 47, -1, 49, -1, 55, 52, -1, 54, -1, -1, 57, -1, 59, -1, -1, -1, -1, 156, 125, 68, 67, -1, -1, 120, 95, 94, 89, 74, -1, 88, 77, -1, 79, -1, 81, -1, 83, -1, 87, 86, -1, -1, -1, -1, 93, 92, -1, -1, -1, -1, 101, 98, -1, 100, -1, -1, 113, 104, -1, 112, 107, -1, 109, -1, 111, -1, -1, -1, 119, 118, 117, -1, -1, -1, -1, 124, 123, -1, -1, -1, 137, 134, 131, 130, -1, -1, 133, -1, -1, 136, -1, -1, 147, 146, 145, 142, -1, 144, -1, -1, -1, -1, 149, -1, 155, 154, 153, -1, -1, -1, -1, 170, 169, 160, -1, 162, -1, 168, 165, -1, 167, -1, -1, -1, -1, 172, -1, 176, 175, -1, -1, -1], "threshold": [18.585000038146973, 78.5, -73.5, 49.5, 8.644999980926514, 6.680000066757202, 35.5, 1020.5, -2.0, -2.0, 0.26999999582767487, -2.0, -78.5, 2.034999966621399, -2.0, 41.5, 18.0, -2.0, -2.0, -2.0, -2.0, -2.0, -2.0, -2.0, 2.7549999952316284, 18.295000076293945, 9.454999923706055, 7.275000095367432, -2.0, -2.0, -2.0, -2.0, 219.5, 48.5, 8.010000228881836, -2.0, -2.0, -2.0, -31.5, -2.0, -2.0, -39.0, -2.0, 13.389999866485596, 57.5, -100.5, -2.0, -99.5, -2.0, 141.5, 11.5, -2.0, 144.5, -2.0, -2.0, 1023.5, -2.0, 0.5, -2.0, -2.0, -2.0, -2.0, 21.27500057220459, 42.5, 14.5, -98.5, -2.0, -2.0, 217.5, 123.5, 30.360000610351562, 3.965000033378601, -34.5, -2.0, 3.6450001001358032, 19.600000381469727, -2.0, -33.5, -2.0, 4.5, -2.0, 20.934999465942383, -2.0, -80.5, 51.5, -2.0, -2.0, -2.0, -2.0, 119.5, -157.0, -2.0, -2.0, -2.0, -2.0, 16.34500026702881, 146.5, -2.0, 13.78499984741211, -2.0, -2.0, 78.5, 20.5, -2.0, 205.5, 18.52500057220459, -2.0, 135.5, -2.0, 163.5, -2.0, -2.0, -2.0, 26.795000076293945, 89.5, 1014.5, -2.0, -2.0, -2.0, -2.0, 25.635000228881836, 1.4549999833106995, -2.0, -2.0, -2.0, 17.5, 22.335000038146973, 5.245000123977661, 68.5, -2.0, -2.0, 55.5, -2.0, -2.0, 22.755000114440918, -2.0, -2.0, 3.634999990463257, 30.84999942779541, 2.65500009059906, 150.0, -2.0, 21.329999923706055, -2.0, -2.0, -2.0, -2.0, 1005.5, -2.0, 172.0, 6.634999990463257, 47.5, -2.0, -2.0, -2.0, -2.0, 29.5, 148.0, 1.0549999475479126, -2.0, 1.1549999713897705, -2.0, 5.5, 1.4300000071525574, -2.0, 80.5, -2.0, -2.0, -2.0, -2.0, 4.5, -2.0, 121.5, 24.239999771118164, -2.0, -2.0, -2.0], "feature": [3, 5, 1, 0, 4, 4, 0, 6, -2, -2, 4, -2, 1, 4, -2, 0, 8, -2, -2, -2, -2, -2, -2, -2, 4, 3, 7, 7, -2, -2, -2, -2, 8, 8, 7, -2, -2, -2, 0, -2, -2, 0, -2, 7, 0, 1, -2, 1, -2, 8, 2, -2, 1, -2, -2, 6, -2, 1, -2, -2, -2, -2, 7, 0, 8, 1, -2, -2, 8, 8, 3, 4, 0, -2, 4, 3, -2, 0, -2, 2, -2, 3, -2, 1, 8, -2, -2, -2, -2, 8, 1, -2, -2, -2, -2, 7, 1, -2, 7, -2, -2, 1, 0, -2, 8, 7, -2, 8, -2, 8, -2, -2, -2, 3, 5, 6, -2, -2, -2, -2, 3, 4, -2, -2, -2, 2, 3, 4, 8, -2, -2, 0, -2, -2, 3, -2, -2, 4, 3, 4, 8, -2, 3, -2, -2, -2, -2, 6, -2, 8, 4, 0, -2, -2, -2, -2, 0, 1, 4, -2, 4, -2, 0, 4, -2, 5, -2, -2, -2, -2, 2, -2, 8, 3, -2, -2, -2], "classes": [0, 1], "value": [[4103.0, 4056.0], [1649.0, 1068.0], [982.0, 738.0], [332.0, 187.0], [327.0, 168.0], [323.0, 153.0], [278.0, 149.0], [52.0, 51.0], [28.0, 45.0], [24.0, 6.0], [226.0, 98.0], [0.0, 5.0], [226.0, 93.0], [167.0, 86.0], [88.0, 22.0], [79.0, 64.0], [48.0, 18.0], [1.0, 8.0], [47.0, 10.0], [31.0, 46.0], [59.0, 7.0], [45.0, 4.0], [4.0, 15.0], [5.0, 19.0], [650.0, 551.0], [240.0, 264.0], [213.0, 260.0], [171.0, 166.0], [105.0, 144.0], [66.0, 22.0], [42.0, 94.0], [27.0, 4.0], [410.0, 287.0], [333.0, 205.0], [72.0, 73.0], [66.0, 39.0], [6.0, 34.0], [261.0, 132.0], [77.0, 82.0], [50.0, 21.0], [27.0, 61.0], [667.0, 330.0], [4.0, 13.0], [663.0, 317.0], [484.0, 192.0], [484.0, 185.0], [69.0, 8.0], [415.0, 177.0], [0.0, 7.0], [415.0, 170.0], [205.0, 110.0], [105.0, 32.0], [100.0, 78.0], [70.0, 73.0], [30.0, 5.0], [210.0, 60.0], [172.0, 33.0], [38.0, 27.0], [22.0, 1.0], [16.0, 26.0], [0.0, 7.0], [179.0, 125.0], [2454.0, 2988.0], [1992.0, 2183.0], [1337.0, 1270.0], [28.0, 66.0], [9.0, 0.0], [19.0, 66.0], [1309.0, 1204.0], [1173.0, 1004.0], [602.0, 615.0], [573.0, 534.0], [320.0, 363.0], [8.0, 48.0], [312.0, 315.0], [296.0, 271.0], [11.0, 31.0], [285.0, 240.0], [28.0, 3.0], [257.0, 237.0], [16.0, 46.0], [241.0, 191.0], [63.0, 23.0], [178.0, 168.0], [84.0, 47.0], [3.0, 14.0], [81.0, 33.0], [94.0, 121.0], [16.0, 44.0], [253.0, 171.0], [249.0, 152.0], [0.0, 10.0], [249.0, 142.0], [4.0, 19.0], [29.0, 81.0], [571.0, 389.0], [335.0, 176.0], [307.0, 134.0], [28.0, 42.0], [9.0, 33.0], [19.0, 9.0], [236.0, 213.0], [142.0, 171.0], [5.0, 34.0], [137.0, 137.0], [137.0, 120.0], [57.0, 78.0], [80.0, 42.0], [22.0, 1.0], [58.0, 41.0], [14.0, 28.0], [44.0, 13.0], [0.0, 17.0], [94.0, 42.0], [52.0, 39.0], [37.0, 39.0], [29.0, 14.0], [8.0, 25.0], [15.0, 0.0], [42.0, 3.0], [136.0, 200.0], [125.0, 142.0], [9.0, 37.0], [116.0, 105.0], [11.0, 58.0], [655.0, 913.0], [482.0, 537.0], [236.0, 179.0], [165.0, 156.0], [16.0, 1.0], [149.0, 155.0], [71.0, 23.0], [71.0, 17.0], [0.0, 6.0], [246.0, 358.0], [6.0, 42.0], [240.0, 316.0], [173.0, 376.0], [99.0, 275.0], [92.0, 274.0], [74.0, 158.0], [37.0, 123.0], [37.0, 35.0], [3.0, 17.0], [34.0, 18.0], [18.0, 116.0], [7.0, 1.0], [74.0, 101.0], [2.0, 21.0], [72.0, 80.0], [70.0, 63.0], [65.0, 44.0], [38.0, 8.0], [27.0, 36.0], [5.0, 19.0], [2.0, 17.0], [462.0, 805.0], [307.0, 634.0], [275.0, 620.0], [13.0, 86.0], [262.0, 534.0], [16.0, 3.0], [246.0, 531.0], [109.0, 150.0], [2.0, 27.0], [107.0, 123.0], [50.0, 87.0], [57.0, 36.0], [137.0, 381.0], [32.0, 14.0], [155.0, 171.0], [12.0, 47.0], [143.0, 124.0], [27.0, 59.0], [8.0, 1.0], [19.0, 58.0], [116.0, 65.0]]}, {"children_left": [1, 2, 3, 4, 5, 6, 7, 8, 9, -1, -1, -1, 13, -1, -1, 16, 17, 18, 19, -1, -1, -1, 23, -1, 25, 26, -1, 28, -1, -1, -1, -1, -1, -1, 35, 36, 37, 38, -1, -1, 41, 42, -1, 44, -1, -1, 47, 48, -1, 50, 51, -1, -1, 54, -1, -1, -1, -1, 59, 60, -1, -1, -1, 64, 65, 66, -1, 68, -1, 70, -1, -1, -1, -1, 75, 76, 77, -1, 79, 80, 81, -1, -1, -1, -1, 86, -1, 88, 89, -1, 91, -1, -1, 94, -1, -1, 97, 98, 99, 100, 101, 102, 103, 104, 105, 106, 107, -1, 109, 110, -1, 112, -1, -1, -1, -1, 117, -1, -1, -1, -1, 122, 123, -1, -1, 126, -1, -1, -1, 130, 131, -1, 133, -1, -1, 136, 137, -1, 139, -1, -1, 142, -1, 144, -1, -1, 147, -1, -1, -1, 151, -1, -1], "children_right": [74, 63, 34, 33, 32, 15, 12, 11, 10, -1, -1, -1, 14, -1, -1, 31, 22, 21, 20, -1, -1, -1, 24, -1, 30, 27, -1, 29, -1, -1, -1, -1, -1, -1, 58, 57, 40, 39, -1, -1, 46, 43, -1, 45, -1, -1, 56, 49, -1, 53, 52, -1, -1, 55, -1, -1, -1, -1, 62, 61, -1, -1, -1, 73, 72, 67, -1, 69, -1, 71, -1, -1, -1, -1, 96, 85, 78, -1, 84, 83, 82, -1, -1, -1, -1, 87, -1, 93, 90, -1, 92, -1, -1, 95, -1, -1, 150, 149, 146, 129, 128, 121, 120, 119, 116, 115, 108, -1, 114, 111, -1, 113, -1, -1, -1, -1, 118, -1, -1, -1, -1, 125, 124, -1, -1, 127, -1, -1, -1, 135, 132, -1, 134, -1, -1, 141, 138, -1, 140, -1, -1, 143, -1, 145, -1, -1, 148, -1, -1, -1, 152, -1, -1], "threshold": [20.6850004196167, 5.105000019073486, 83.5, 20.105000495910645, 17.399999618530273, 15.5, 21.5, 23.5, 6.5, -2.0, -2.0, -2.0, 3.5049999952316284, -2.0, -2.0, 1029.5, 6.769999980926514, 48.0, 27.5, -2.0, -2.0, -2.0, 14.674999713897705, -2.0, 3.5399999618530273, -109.0, -2.0, 1024.0, -2.0, -2.0, -2.0, -2.0, -2.0, -2.0, 2.665000081062317, 37.5, 18.5, 0.7949999868869781, -2.0, -2.0, -8.5, 263.5, -2.0, 315.5, -2.0, -2.0, 115.0, 8.855000019073486, -2.0, 46.5, 1014.5, -2.0, -2.0, 0.8350000083446503, -2.0, -2.0, -2.0, -2.0, 81.5, 4.6600000858306885, -2.0, -2.0, -2.0, 17.31999969482422, 1.1150000095367432, 5.454999923706055, -2.0, 42.0, -2.0, 48.5, -2.0, -2.0, -2.0, -2.0, 2.965000033378601, 16.795000076293945, 0.8149999976158142, -2.0, 32.96500015258789, 8.5, 3.5, -2.0, -2.0, -2.0, -2.0, 9.5, -2.0, -79.5, 19.869999885559082, -2.0, 40.5, -2.0, -2.0, 152.5, -2.0, -2.0, 125.5, 189.5, 159.5, 1012.5, 122.0, 29.5, 18.5, 77.5, 63.5, 23.020000457763672, 116.5, -2.0, 4.045000076293945, 15.525000095367432, -2.0, -93.5, -2.0, -2.0, -2.0, -2.0, 1007.5, -2.0, -2.0, -2.0, -2.0, 3.5999999046325684, 31.420000076293945, -2.0, -2.0, 4.419999837875366, -2.0, -2.0, -2.0, 49.5, 21.020000457763672, -2.0, 3.5, -2.0, -2.0, 5.5, 5.549999952316284, -2.0, 3.0, -2.0, -2.0, 3.8850001096725464, -2.0, 38.5, -2.0, -2.0, 55.5, -2.0, -2.0, -2.0, 22.5, -2.0, -2.0], "feature": [3, 4, 5, 3, 3, 2, 1, 0, 2, -2, -2, -2, 7, -2, -2, 6, 7, 1, 1, -2, -2, -2, 3, -2, 4, 1, -2, 6, -2, -2, -2, -2, -2, -2, 4, 1, 0, 4, -2, -2, 1, 8, -2, 8, -2, -2, 8, 3, -2, 0, 6, -2, -2, 4, -2, -2, -2, -2, 8, 4, -2, -2, -2, 3, 7, 4, -2, 5, -2, 5, -2, -2, -2, -2, 4, 7, 4, -2, 3, 2, 2, -2, -2, -2, -2, 8, -2, 1, 7, -2, 0, -2, -2, 1, -2, -2, 1, 8, 8, 6, 1, 1, 1, 5, 5, 7, 8, -2, 4, 7, -2, 1, -2, -2, -2, -2, 6, -2, -2, -2, -2, 4, 3, -2, -2, 4, -2, -2, -2, 0, 7, -2, 2, -2, -2, 1, 4, -2, 1, -2, -2, 4, -2, 5, -2, -2, 5, -2, -2, -2, 8, -2, -2], "classes": [0, 1], "value": [[4091.0, 4068.0], [2132.0, 1554.0], [1636.0, 1309.0], [1151.0, 1025.0], [1043.0, 976.0], [720.0, 592.0], [459.0, 312.0], [311.0, 164.0], [5.0, 16.0], [0.0, 16.0], [5.0, 0.0], [306.0, 148.0], [148.0, 148.0], [13.0, 48.0], [135.0, 100.0], [261.0, 280.0], [259.0, 260.0], [156.0, 118.0], [125.0, 112.0], [114.0, 78.0], [11.0, 34.0], [31.0, 6.0], [103.0, 142.0], [29.0, 74.0], [74.0, 68.0], [34.0, 55.0], [10.0, 1.0], [24.0, 54.0], [17.0, 54.0], [7.0, 0.0], [40.0, 13.0], [2.0, 20.0], [323.0, 384.0], [108.0, 49.0], [485.0, 284.0], [272.0, 202.0], [199.0, 178.0], [7.0, 33.0], [7.0, 3.0], [0.0, 30.0], [192.0, 145.0], [101.0, 33.0], [89.0, 17.0], [12.0, 16.0], [1.0, 14.0], [11.0, 2.0], [91.0, 112.0], [60.0, 43.0], [0.0, 10.0], [60.0, 33.0], [24.0, 27.0], [18.0, 6.0], [6.0, 21.0], [36.0, 6.0], [0.0, 5.0], [36.0, 1.0], [31.0, 69.0], [73.0, 24.0], [213.0, 82.0], [41.0, 38.0], [40.0, 22.0], [1.0, 16.0], [172.0, 44.0], [496.0, 245.0], [346.0, 126.0], [53.0, 46.0], [12.0, 0.0], [41.0, 46.0], [3.0, 19.0], [38.0, 27.0], [19.0, 1.0], [19.0, 26.0], [293.0, 80.0], [150.0, 119.0], [1959.0, 2514.0], [752.0, 1259.0], [412.0, 520.0], [53.0, 25.0], [359.0, 495.0], [340.0, 490.0], [87.0, 79.0], [24.0, 47.0], [63.0, 32.0], [253.0, 411.0], [19.0, 5.0], [340.0, 739.0], [13.0, 2.0], [327.0, 737.0], [104.0, 138.0], [18.0, 64.0], [86.0, 74.0], [57.0, 73.0], [29.0, 1.0], [223.0, 599.0], [210.0, 594.0], [13.0, 5.0], [1207.0, 1255.0], [1032.0, 1169.0], [922.0, 965.0], [738.0, 851.0], [351.0, 485.0], [350.0, 464.0], [198.0, 311.0], [192.0, 256.0], [164.0, 242.0], [143.0, 170.0], [135.0, 170.0], [72.0, 118.0], [63.0, 52.0], [12.0, 31.0], [0.0, 21.0], [12.0, 10.0], [0.0, 8.0], [12.0, 2.0], [51.0, 21.0], [8.0, 0.0], [21.0, 72.0], [17.0, 17.0], [4.0, 55.0], [28.0, 14.0], [6.0, 55.0], [152.0, 153.0], [47.0, 18.0], [38.0, 4.0], [9.0, 14.0], [105.0, 135.0], [16.0, 51.0], [89.0, 84.0], [1.0, 21.0], [387.0, 366.0], [321.0, 244.0], [268.0, 167.0], [53.0, 77.0], [0.0, 19.0], [53.0, 58.0], [66.0, 122.0], [30.0, 88.0], [19.0, 82.0], [11.0, 6.0], [11.0, 0.0], [0.0, 6.0], [36.0, 34.0], [19.0, 3.0], [17.0, 31.0], [9.0, 1.0], [8.0, 30.0], [184.0, 114.0], [84.0, 27.0], [100.0, 87.0], [110.0, 204.0], [175.0, 86.0], [7.0, 24.0], [168.0, 62.0]]}, {"children_left": [1, 2, 3, 4, -1, 6, 7, 8, -1, -1, 11, -1, -1, -1, 15, 16, -1, 18, 19, -1, -1, 22, -1, 24, -1, 26, -1, 28, -1, -1, 31, 32, -1, -1, -1, 36, 37, -1, 39, 40, -1, 42, 43, -1, 45, -1, 47, -1, 49, -1, -1, 52, -1, 54, -1, 56, -1, -1, 59, 60, 61, -1, 63, 64, 65, -1, 67, -1, -1, -1, -1, -1, -1, -1, 75, 76, 77, 78, 79, -1, -1, 82, 83, -1, -1, 86, -1, -1, 89, 90, 91, -1, 93, -1, -1, -1, 97, 98, -1, 100, 101, -1, 103, -1, -1, -1, -1, 108, 109, 110, 111, 112, -1, -1, 115, -1, -1, -1, -1, 120, 121, 122, 123, -1, 125, 126, -1, 128, -1, 130, 131, 132, -1, -1, 135, 136, -1, -1, -1, -1, 141, -1, -1, -1, 145, 146, -1, 148, -1, -1, 151, -1, -1, -1, 155, 156, 157, -1, -1, -1, 161, -1, -1], "children_right": [74, 35, 14, 5, -1, 13, 10, 9, -1, -1, 12, -1, -1, -1, 30, 17, -1, 21, 20, -1, -1, 23, -1, 25, -1, 27, -1, 29, -1, -1, 34, 33, -1, -1, -1, 73, 38, -1, 58, 41, -1, 51, 44, -1, 46, -1, 48, -1, 50, -1, -1, 53, -1, 55, -1, 57, -1, -1, 72, 71, 62, -1, 70, 69, 66, -1, 68, -1, -1, -1, -1, -1, -1, -1, 154, 107, 88, 81, 80, -1, -1, 85, 84, -1, -1, 87, -1, -1, 96, 95, 92, -1, 94, -1, -1, -1, 106, 99, -1, 105, 102, -1, 104, -1, -1, -1, -1, 119, 118, 117, 114, 113, -1, -1, 116, -1, -1, -1, -1, 153, 144, 143, 124, -1, 140, 127, -1, 129, -1, 139, 134, 133, -1, -1, 138, 137, -1, -1, -1, -1, 142, -1, -1, -1, 150, 147, -1, 149, -1, -1, 152, -1, -1, -1, 160, 159, 158, -1, -1, -1, 162, -1, -1], "threshold": [20.994999885559082, 2.7949999570846558, -72.5, 18.5, -2.0, -78.5, 18.635000228881836, 0.4100000113248825, -2.0, -2.0, 39.5, -2.0, -2.0, -2.0, 11.5, 1006.5, -2.0, 37.5, 27.0, -2.0, -2.0, 6.8999998569488525, -2.0, 51.5, -2.0, 112.5, -2.0, 2.240000009536743, -2.0, -2.0, -29.5, 73.5, -2.0, -2.0, -2.0, 87.5, -119.5, -2.0, 17.359999656677246, -84.5, -2.0, 57.5, 11.134999752044678, -2.0, 1009.5, -2.0, 12.875, -2.0, 14.28000020980835, -2.0, -2.0, 162.5, -2.0, 7.740000009536743, -2.0, 8.330000400543213, -2.0, -2.0, 7.890000104904175, 13.345000267028809, 19.97499942779541, -2.0, 1019.5, 1012.5, 40.5, -2.0, 117.0, -2.0, -2.0, -2.0, -2.0, -2.0, -2.0, -2.0, 127.5, 25.5, 97.5, -97.5, 24.734999656677246, -2.0, -2.0, -25.5, 1017.5, -2.0, -2.0, 11.5, -2.0, -2.0, 3.5, 5.210000038146973, 3.5, -2.0, 77.5, -2.0, -2.0, -2.0, 1009.5, 26.5, -2.0, 25.969999313354492, 26.46500015258789, -2.0, 21.645000457763672, -2.0, -2.0, -2.0, -2.0, 41.5, 225.5, 38.81999969482422, 39.5, 4.494999885559082, -2.0, -2.0, 202.5, -2.0, -2.0, -2.0, -2.0, 92.5, 4.234999895095825, 1025.5, 0.7350000143051147, -2.0, 31.3100004196167, 1006.5, -2.0, 1007.5, -2.0, 35.5, 7.0, 87.5, -2.0, -2.0, 9.5, 68.5, -2.0, -2.0, -2.0, -2.0, 3.4600000381469727, -2.0, -2.0, -2.0, 131.5, -88.5, -2.0, 14.699999809265137, -2.0, -2.0, -36.5, -2.0, -2.0, -2.0, 26.859999656677246, -25.5, 21.800000190734863, -2.0, -2.0, -2.0, 28.5, -2.0, -2.0], "feature": [3, 4, 1, 0, -2, 1, 3, 7, -2, -2, 0, -2, -2, -2, 2, 6, -2, 0, 1, -2, -2, 7, -2, 8, -2, 8, -2, 4, -2, -2, 0, 5, -2, -2, -2, 5, 1, -2, 3, 1, -2, 8, 3, -2, 6, -2, 3, -2, 3, -2, -2, 8, -2, 7, -2, 7, -2, -2, 4, 7, 3, -2, 6, 6, 0, -2, 8, -2, -2, -2, -2, -2, -2, -2, 1, 0, 1, 1, 3, -2, -2, 0, 6, -2, -2, 8, -2, -2, 0, 4, 2, -2, 5, -2, -2, -2, 6, 8, -2, 7, 3, -2, 7, -2, -2, -2, -2, 0, 8, 3, 0, 4, -2, -2, 8, -2, -2, -2, -2, 5, 4, 6, 4, -2, 3, 6, -2, 6, -2, 1, 2, 5, -2, -2, 2, 5, -2, -2, -2, -2, 4, -2, -2, -2, 8, 1, -2, 7, -2, -2, 1, -2, -2, -2, 3, 0, 3, -2, -2, -2, 8, -2, -2], "classes": [0, 1], "value": [[3975.0, 4184.0], [2076.0, 1590.0], [841.0, 809.0], [282.0, 170.0], [4.0, 19.0], [278.0, 151.0], [211.0, 139.0], [174.0, 85.0], [18.0, 27.0], [156.0, 58.0], [37.0, 54.0], [33.0, 23.0], [4.0, 31.0], [67.0, 12.0], [559.0, 639.0], [279.0, 246.0], [3.0, 18.0], [276.0, 228.0], [86.0, 107.0], [2.0, 22.0], [84.0, 85.0], [190.0, 121.0], [53.0, 11.0], [137.0, 110.0], [8.0, 23.0], [129.0, 87.0], [58.0, 14.0], [71.0, 73.0], [44.0, 66.0], [27.0, 7.0], [280.0, 393.0], [95.0, 53.0], [23.0, 31.0], [72.0, 22.0], [185.0, 340.0], [1235.0, 781.0], [1024.0, 711.0], [26.0, 1.0], [998.0, 710.0], [623.0, 378.0], [72.0, 83.0], [551.0, 295.0], [148.0, 119.0], [93.0, 41.0], [55.0, 78.0], [18.0, 5.0], [37.0, 73.0], [0.0, 25.0], [37.0, 48.0], [18.0, 4.0], [19.0, 44.0], [403.0, 176.0], [250.0, 83.0], [153.0, 93.0], [96.0, 33.0], [57.0, 60.0], [0.0, 14.0], [57.0, 46.0], [375.0, 332.0], [366.0, 298.0], [203.0, 215.0], [121.0, 170.0], [82.0, 45.0], [73.0, 27.0], [19.0, 21.0], [2.0, 13.0], [17.0, 8.0], [15.0, 0.0], [2.0, 8.0], [54.0, 6.0], [9.0, 18.0], [163.0, 83.0], [9.0, 34.0], [211.0, 70.0], [1899.0, 2594.0], [1661.0, 2416.0], [425.0, 831.0], [119.0, 357.0], [30.0, 33.0], [5.0, 21.0], [25.0, 12.0], [89.0, 324.0], [32.0, 44.0], [16.0, 44.0], [16.0, 0.0], [57.0, 280.0], [11.0, 7.0], [46.0, 273.0], [306.0, 474.0], [145.0, 130.0], [107.0, 123.0], [23.0, 4.0], [84.0, 119.0], [34.0, 80.0], [50.0, 39.0], [38.0, 7.0], [161.0, 344.0], [114.0, 166.0], [13.0, 0.0], [101.0, 166.0], [97.0, 128.0], [3.0, 32.0], [94.0, 96.0], [1.0, 16.0], [93.0, 80.0], [4.0, 38.0], [47.0, 178.0], [1236.0, 1585.0], [693.0, 740.0], [683.0, 705.0], [682.0, 690.0], [434.0, 495.0], [291.0, 385.0], [143.0, 110.0], [248.0, 195.0], [246.0, 177.0], [2.0, 18.0], [1.0, 15.0], [10.0, 35.0], [543.0, 845.0], [530.0, 844.0], [340.0, 632.0], [327.0, 630.0], [28.0, 16.0], [299.0, 614.0], [268.0, 593.0], [1.0, 38.0], [267.0, 555.0], [15.0, 3.0], [252.0, 552.0], [244.0, 552.0], [6.0, 49.0], [2.0, 49.0], [4.0, 0.0], [238.0, 503.0], [30.0, 26.0], [14.0, 26.0], [16.0, 0.0], [208.0, 477.0], [8.0, 0.0], [31.0, 21.0], [29.0, 9.0], [2.0, 12.0], [13.0, 2.0], [190.0, 212.0], [82.0, 129.0], [3.0, 29.0], [79.0, 100.0], [48.0, 30.0], [31.0, 70.0], [108.0, 83.0], [39.0, 10.0], [69.0, 73.0], [13.0, 1.0], [238.0, 178.0], [139.0, 143.0], [112.0, 139.0], [37.0, 16.0], [75.0, 123.0], [27.0, 4.0], [99.0, 35.0], [0.0, 8.0], [99.0, 27.0]]}, {"children_left": [1, 2, 3, 4, 5, -1, -1, 8, 9, -1, 11, -1, 13, 14, 15, 16, -1, -1, -1, 20, -1, 22, -1, 24, 25, -1, -1, -1, -1, -1, 31, -1, -1, -1, 35, 36, 37, 38, -1, 40, -1, 42, -1, -1, 45, -1, 47, 48, 49, 50, -1, -1, -1, 54, -1, -1, 57, 58, 59, -1, 61, -1, -1, -1, 65, 66, -1, 68, -1, -1, -1, 72, 73, 74, 75, -1, 77, -1, -1, 80, 81, 82, 83, 84, -1, 86, 87, -1, 89, -1, -1, -1, 93, -1, 95, -1, 97, -1, -1, 100, 101, 102, 103, 104, -1, -1, -1, 108, 109, -1, -1, 112, -1, 114, -1, -1, -1, -1, 119, -1, 121, -1, 123, -1, -1, 126, 127, -1, -1, 130, -1, -1, 133, 134, -1, -1, 137, 138, -1, 140, 141, 142, -1, -1, -1, -1, -1, 148, 149, -1, -1, -1, 153, 154, -1, -1, 157, -1, -1], "children_right": [34, 33, 30, 7, 6, -1, -1, 29, 10, -1, 12, -1, 28, 19, 18, 17, -1, -1, -1, 21, -1, 23, -1, 27, 26, -1, -1, -1, -1, -1, 32, -1, -1, -1, 152, 71, 44, 39, -1, 41, -1, 43, -1, -1, 46, -1, 56, 53, 52, 51, -1, -1, -1, 55, -1, -1, 64, 63, 60, -1, 62, -1, -1, -1, 70, 67, -1, 69, -1, -1, -1, 147, 132, 79, 76, -1, 78, -1, -1, 125, 118, 99, 92, 85, -1, 91, 88, -1, 90, -1, -1, -1, 94, -1, 96, -1, 98, -1, -1, 117, 116, 107, 106, 105, -1, -1, -1, 111, 110, -1, -1, 113, -1, 115, -1, -1, -1, -1, 120, -1, 122, -1, 124, -1, -1, 129, 128, -1, -1, 131, -1, -1, 136, 135, -1, -1, 146, 139, -1, 145, 144, 143, -1, -1, -1, -1, -1, 151, 150, -1, -1, -1, 156, 155, -1, -1, 158, -1, -1], "threshold": [17.52500057220459, 152.5, 4.305000066757202, 53.5, 3.8249999284744263, -2.0, -2.0, 56.5, 4.045000076293945, -2.0, 10.674999713897705, -2.0, 221.5, 7.045000076293945, 57.5, 14.369999885559082, -2.0, -2.0, -2.0, 66.5, -2.0, 16.5, -2.0, 39.0, 12.474999904632568, -2.0, -2.0, -2.0, -2.0, -2.0, 1016.5, -2.0, -2.0, -2.0, 22.969999313354492, 10.5, -73.5, 32.5, -2.0, 77.5, -2.0, 1.149999976158142, -2.0, -2.0, 29.5, -2.0, -34.5, 146.5, 154.5, 20.6850004196167, -2.0, -2.0, -2.0, 26.375, -2.0, -2.0, -9.5, 22.795000076293945, 1.9050000309944153, -2.0, 9.5, -2.0, -2.0, -2.0, 25.369999885559082, 3.5, -2.0, 191.5, -2.0, -2.0, -2.0, 228.5, 49.5, -86.5, 30.539999961853027, -2.0, -111.5, -2.0, -2.0, 143.5, 29.84000015258789, 17.5, 18.5, 18.5, -2.0, 3.865000009536743, 1.6850000023841858, -2.0, 1013.5, -2.0, -2.0, -2.0, 20.5, -2.0, 3.5999999046325684, -2.0, 4.315000057220459, -2.0, -2.0, 35.0, 22.5, 1009.5, 1007.5, 85.5, -2.0, -2.0, -2.0, 14.490000247955322, 1021.5, -2.0, -2.0, 20.610000610351562, -2.0, 36.0, -2.0, 