{"classes_": [0, 1], "dtrees": [{"children_left": [1, 2, 3, 4, -1, 6, -1, 8, 9, 10, 11, -1, -1, -1, -1, 16, 17, -1, -1, -1, 21, 22, 23, 24, -1, -1, 27, 28, 29, -1, 31, -1, 33, -1, -1, 36, 37, -1, -1, -1, 41, -1, -1, 44, 45, -1, -1, -1, 49, 50, 51, 52, -1, -1, 55, 56, -1, -1, -1, 60, -1, -1, -1, 64, 65, 66, 67, 68, 69, 70, -1, -1, -1, -1, -1, 76, 77, -1, -1, -1, 81, 82, -1, 84, -1, 86, -1, -1, 89, -1, -1, 92, 93, 94, 95, -1, 97, 98, -1, -1, -1, 102, 103, -1, -1, -1, -1, -1, 109, 110, 111, 112, 113, 114, 115, 116, 117, 118, -1, -1, -1, -1, 123, 124, 125, -1, 127, -1, -1, 130, 131, 132, -1, -1, -1, -1, 137, -1, -1, 140, 141, 142, -1, 144, -1, -1, 147, -1, -1, 150, -1, 152, -1, -1, 155, 156, -1, -1, -1, 160, 161, 162, 163, 164, -1, 166, -1, 168, -1, 170, -1, 172, -1, 174, -1, -1, -1, 178, 179, -1, 181, -1, -1, -1, -1, 186, -1, -1, 189, 190, 191, -1, 193, -1, -1, 196, 197, -1, 199, 200, 201, 202, -1, -1, 205, -1, -1, -1, 209, -1, -1, -1, 213, 214, 215, 216, 217, 218, 219, -1, -1, -1, -1, -1, -1, 226, 227, -1, -1, 230, -1, 232, -1, 234, -1, -1, 237, -1, 239, 240, 241, -1, -1, -1, 245, -1, 247, -1, -1, 250, 251, 252, 253, 254, 255, 256, -1, 258, 259, -1, 261, -1, 263, -1, -1, -1, 267, 268, -1, -1, -1, 272, 273, -1, 275, -1, 277, 278, -1, -1, 281, 282, -1, 284, -1, -1, -1, 288, 289, 290, -1, -1, -1, -1, 295, 296, 297, -1, -1, 300, 301, -1, 303, -1, -1, 306, 307, 308, -1, -1, -1, 312, -1, 314, 315, -1, -1, 318, -1, 320, 321, -1, 323, 324, 325, -1, -1, -1, -1, 330, -1, 332, -1, -1, -1, 336, 337, -1, 339, 340, -1, 342, 343, -1, -1, 346, 347, -1, -1, -1, -1, 352, 353, 354, -1, -1, 357, -1, 359, -1, -1, 362, -1, -1, 365, 366, 367, 368, -1, -1, 371, 372, -1, -1, -1, 376, -1, -1, 379, -1, 381, 382, 383, 384, -1, -1, 387, -1, 389, -1, -1, 392, 393, -1, -1, -1, 397, 398, 399, -1, -1, 402, 403, 404, -1, 406, 407, -1, -1, -1, 411, 412, -1, -1, -1, 416, -1, -1, 419, -1, 421, 422, 423, 424, 425, -1, -1, -1, -1, 430, -1, 432, 433, -1, 435, -1, 437, 438, -1, 440, -1, -1, 443, -1, -1, -1, -1, 448, 449, 450, 451, 452, -1, 454, -1, 456, 457, -1, -1, -1, -1, 462, -1, 464, -1, 466, -1, -1, 469, -1, 471, 472, -1, -1, -1, 476, 477, -1, 479, -1, -1, 482, 483, -1, 485, -1, 487, -1, -1, 490, 491, -1, 493, 494, -1, -1, -1, 498, 499, 500, 501, 502, 503, 504, -1, -1, -1, -1, 509, 510, -1, 512, 513, -1, 515, -1, 517, -1, -1, 520, 521, -1, -1, 524, 525, -1, -1, 528, -1, 530, 531, -1, 533, 534, -1, -1, 537, -1, 539, -1, -1, -1, 543, -1, 545, 546, 547, 548, -1, 550, 551, -1, 553, -1, 555, -1, -1, -1, 559, -1, -1, -1, -1, 564, 565, 566, -1, -1, -1, -1, -1, 572, 573, -1, -1, 576, 577, -1, -1, -1, 581, 582, 583, 584, 585, 586, -1, 588, 589, 590, 591, -1, 593, 594, -1, -1, -1, -1, 599, -1, -1, 602, -1, 604, 605, -1, 607, 608, -1, -1, -1, -1, 613, -1, 615, 616, 617, -1, -1, -1, 621, -1, -1, 624, 625, -1, 627, 628, 629, -1, 631, 632, 633, 634, -1, 636, -1, -1, -1, 640, -1, 642, 643, -1, -1, -1, 647, 648, 649, 650, -1, 652, 653, 654, -1, -1, 657, -1, -1, 660, 661, -1, 663, 664, -1, 666, -1, -1, 669, 670, -1, -1, -1, 674, -1, 676, -1, 678, -1, -1, 681, 682, 683, -1, -1, 686, 687, -1, 689, 690, 691, -1, -1, -1, 695, 696, -1, -1, 699, -1, -1, 702, 703, -1, -1, -1, -1, 708, 709, 710, 711, 712, 713, 714, 715, 716, -1, -1, -1, -1, 721, -1, -1, 724, -1, -1, 727, 728, -1, 730, 731, 732, 733, -1, -1, -1, -1, 738, 739, 740, -1, 742, 743, -1, -1, -1, -1, 748, -1, 750, 751, 752, -1, -1, 755, 756, -1, -1, -1, -1, 761, -1, 763, -1, 765, 766, 767, -1, -1, -1, 771, 772, -1, -1, 775, 776, -1, -1, 779, -1, -1, -1, 783, 784, 785, 786, 787, 788, -1, 790, -1, -1, -1, -1, 795, 796, -1, 798, -1, -1, 801, 802, -1, -1, -1, -1, -1, 808, 809, -1, 811, 812, -1, 814, -1, 816, 817, -1, 819, 820, 821, 822, -1, -1, -1, -1, -1, -1, -1, 830, -1, 832, 833, 834, -1, 836, -1, -1, -1, -1, 841, 842, -1, -1, 845, 846, -1, 848, -1, -1, 851, -1, -1, 854, 855, 856, -1, 858, -1, -1, 861, 862, 863, 864, 865, -1, 867, -1, -1, 870, 871, -1, -1, 874, -1, -1, -1, 878, 879, -1, 881, -1, -1, 884, -1, 886, -1, -1, 889, 890, 891, -1, 893, -1, -1, 896, -1, -1, 899, -1, 901, 902, -1, -1, -1, -1, 907, 908, 909, 910, 911, -1, 913, -1, -1, 916, -1, 918, 919, 920, 921, -1, -1, -1, 925, 926, -1, -1, -1, 930, -1, 932, -1, -1, -1, 936, 937, 938, -1, -1, -1, 942, 943, -1, 945, -1, -1, 948, 949, 950, -1, 952, 953, 954, 955, -1, 957, -1, -1, 960, -1, -1, 963, -1, -1, -1, 967, -1, -1, 970, 971, 972, 973, 974, -1, -1, -1, -1, -1, -1, 981, -1, -1, 984, 985, 986, -1, -1, 989, 990, 991, 992, 993, -1, -1, -1, -1, -1, -1, 1000, 1001, 1002, 1003, 1004, 1005, -1, 1007, -1, -1, 1010, -1, -1, -1, 1014, 1015, 1016, 1017, -1, 1019, -1, -1, -1, -1, -1, 1025, 1026, -1, -1, -1, 1030, -1, 1032, 1033, -1, -1, -1, 1037, -1, 1039, 1040, -1, 1042, -1, -1, 1045, -1, 1047, 1048, -1, 1050, 1051, 1052, -1, -1, -1, -1, -1, 1058, -1, 1060, -1, -1, 1063, 1064, 1065, 1066, -1, 1068, 1069, 1070, -1, 1072, -1, -1, 1075, -1, 1077, -1, 1079, -1, -1, 1082, 1083, -1, 1085, -1, 1087, -1, -1, 1090, 1091, -1, -1, -1, 1095, -1, 1097, 1098, 1099, 1100, -1, 1102, -1, 1104, -1, 1106, -1, 1108, -1, 1110, -1, -1, 1113, 1114, 1115, -1, -1, -1, -1, 1120, -1, 1122, -1, -1, 1125, 1126, -1, -1, 1129, -1, 1131, 1132, -1, -1, -1, 1136, -1, 1138, 1139, 1140, -1, 1142, -1, 1144, 1145, 1146, -1, -1, -1, 1150, -1, 1152, 1153, 1154, 1155, 1156, 1157, -1, 1159, -1, 1161, -1, 1163, -1, -1, -1, -1, -1, -1, 1170, 1171, -1, -1, 1174, -1, -1, 1177, -1, -1, -1, -1], "children_right": [108, 63, 20, 5, -1, 7, -1, 15, 14, 13, 12, -1, -1, -1, -1, 19, 18, -1, -1, -1, 48, 43, 26, 25, -1, -1, 40, 35, 30, -1, 32, -1, 34, -1, -1, 39, 38, -1, -1, -1, 42, -1, -1, 47, 46, -1, -1, -1, 62, 59, 54, 53, -1, -1, 58, 57, -1, -1, -1, 61, -1, -1, -1, 91, 80, 75, 74, 73, 72, 71, -1, -1, -1, -1, -1, 79, 78, -1, -1, -1, 88, 83, -1, 85, -1, 87, -1, -1, 90, -1, -1, 107, 106, 101, 96, -1, 100, 99, -1, -1, -1, 105, 104, -1, -1, -1, -1, -1, 580, 249, 188, 159, 154, 139, 122, 121, 120, 119, -1, -1, -1, -1, 136, 129, 126, -1, 128, -1, -1, 135, 134, 133, -1, -1, -1, -1, 138, -1, -1, 149, 146, 143, -1, 145, -1, -1, 148, -1, -1, 151, -1, 153, -1, -1, 158, 157, -1, -1, -1, 185, 184, 177, 176, 165, -1, 167, -1, 169, -1, 171, -1, 173, -1, 175, -1, -1, -1, 183, 180, -1, 182, -1, -1, -1, -1, 187, -1, -1, 212, 195, 192, -1, 194, -1, -1, 211, 198, -1, 208, 207, 204, 203, -1, -1, 206, -1, -1, -1, 210, -1, -1, -1, 236, 225, 224, 223, 222, 221, 220, -1, -1, -1, -1, -1, -1, 229, 228, -1, -1, 231, -1, 233, -1, 235, -1, -1, 238, -1, 244, 243, 242, -1, -1, -1, 246, -1, 248, -1, -1, 447, 364, 335, 294, 271, 266, 257, -1, 265, 260, -1, 262, -1, 264, -1, -1, -1, 270, 269, -1, -1, -1, 287, 274, -1, 276, -1, 280, 279, -1, -1, 286, 283, -1, 285, -1, -1, -1, 293, 292, 291, -1, -1, -1, -1, 334, 299, 298, -1, -1, 305, 302, -1, 304, -1, -1, 311, 310, 309, -1, -1, -1, 313, -1, 317, 316, -1, -1, 319, -1, 329, 322, -1, 328, 327, 326, -1, -1, -1, -1, 331, -1, 333, -1, -1, -1, 351, 338, -1, 350, 341, -1, 345, 344, -1, -1, 349, 348, -1, -1, -1, -1, 361, 356, 355, -1, -1, 358, -1, 360, -1, -1, 363, -1, -1, 378, 375, 370, 369, -1, -1, 374, 373, -1, -1, -1, 377, -1, -1, 380, -1, 396, 391, 386, 385, -1, -1, 388, -1, 390, -1, -1, 395, 394, -1, -1, -1, 418, 401, 400, -1, -1, 415, 410, 405, -1, 409, 408, -1, -1, -1, 414, 413, -1, -1, -1, 417, -1, -1, 420, -1, 446, 429, 428, 427, 426, -1, -1, -1, -1, 431, -1, 445, 434, -1, 436, -1, 442, 439, -1, 441, -1, -1, 444, -1, -1, -1, -1, 475, 468, 461, 460, 453, -1, 455, -1, 459, 458, -1, -1, -1, -1, 463, -1, 465, -1, 467, -1, -1, 470, -1, 474, 473, -1, -1, -1, 481, 478, -1, 480, -1, -1, 489, 484, -1, 486, -1, 488, -1, -1, 497, 492, -1, 496, 495, -1, -1, -1, 571, 570, 563, 508, 507, 506, 505, -1, -1, -1, -1, 542, 511, -1, 519, 514, -1, 516, -1, 518, -1, -1, 523, 522, -1, -1, 527, 526, -1, -1, 529, -1, 541, 532, -1, 536, 535, -1, -1, 538, -1, 540, -1, -1, -1, 544, -1, 562, 561, 558, 549, -1, 557, 552, -1, 554, -1, 556, -1, -1, -1, 560, -1, -1, -1, -1, 569, 568, 567, -1, -1, -1, -1, -1, 575, 574, -1, -1, 579, 578, -1, -1, -1, 1062, 1057, 1036, 623, 612, 587, -1, 601, 598, 597, 592, -1, 596, 595, -1, -1, -1, -1, 600, -1, -1, 603, -1, 611, 606, -1, 610, 609, -1, -1, -1, -1, 614, -1, 620, 619, 618, -1, -1, -1, 622, -1, -1, 983, 626, -1, 906, 853, 630, -1, 646, 639, 638, 635, -1, 637, -1, -1, -1, 641, -1, 645, 644, -1, -1, -1, 840, 707, 680, 651, -1, 659, 656, 655, -1, -1, 658, -1, -1, 673, 662, -1, 668, 665, -1, 667, -1, -1, 672, 671, -1, -1, -1, 675, -1, 677, -1, 679, -1, -1, 706, 685, 684, -1, -1, 701, 688, -1, 694, 693, 692, -1, -1, -1, 698, 697, -1, -1, 700, -1, -1, 705, 704, -1, -1, -1, -1, 807, 782, 781, 726, 723, 720, 719, 718, 717, -1, -1, -1, -1, 722, -1, -1, 725, -1, -1, 760, 729, -1, 737, 736, 735, 734, -1, -1, -1, -1, 747, 746, 741, -1, 745, 744, -1, -1, -1, -1, 749, -1, 759, 754, 753, -1, -1, 758, 757, -1, -1, -1, -1, 762, -1, 764, -1, 770, 769, 768, -1, -1, -1, 774, 773, -1, -1, 778, 777, -1, -1, 780, -1, -1, -1, 806, 805, 794, 793, 792, 789, -1, 791, -1, -1, -1, -1, 800, 797, -1, 799, -1, -1, 804, 803, -1, -1, -1, -1, -1, 829, 810, -1, 828, 813, -1, 815, -1, 827, 818, -1, 826, 825, 824, 823, -1, -1, -1, -1, -1, -1, -1, 831, -1, 839, 838, 835, -1, 837, -1, -1, -1, -1, 844, 843, -1, -1, 850, 847, -1, 849, -1, -1, 852, -1, -1, 905, 860, 857, -1, 859, -1, -1, 888, 877, 876, 869, 866, -1, 868, -1, -1, 873, 872, -1, -1, 875, -1, -1, -1, 883, 880, -1, 882, -1, -1, 885, -1, 887, -1, -1, 898, 895, 892, -1, 894, -1, -1, 897, -1, -1, 900, -1, 904, 903, -1, -1, -1, -1, 980, 935, 934, 915, 912, -1, 914, -1, -1, 917, -1, 929, 924, 923, 922, -1, -1, -1, 928, 927, -1, -1, -1, 931, -1, 933, -1, -1, -1, 941, 940, 939, -1, -1, -1, 947, 944, -1, 946, -1, -1, 969, 966, 951, -1, 965, 962, 959, 956, -1, 958, -1, -1, 961, -1, -1, 964, -1, -1, -1, 968, -1, -1, 979, 978, 977, 976, 975, -1, -1, -1, -1, -1, -1, 982, -1, -1, 999, 988, 987, -1, -1, 998, 997, 996, 995, 994, -1, -1, -1, -1, -1, -1, 1029, 1024, 1013, 1012, 1009, 1006, -1, 1008, -1, -1, 1011, -1, -1, -1, 1023, 1022, 1021, 1018, -1, 1020, -1, -1, -1, -1, -1, 1028, 1027, -1, -1, -1, 1031, -1, 1035, 1034, -1, -1, -1, 1038, -1, 1044, 1041, -1, 1043, -1, -1, 1046, -1, 1056, 1049, -1, 1055, 1054, 1053, -1, -1, -1, -1, -1, 1059, -1, 1061, -1, -1, 1180, 1135, 1094, 1067, -1, 1081, 1074, 1071, -1, 1073, -1, -1, 1076, -1, 1078, -1, 1080, -1, -1, 1089, 1084, -1, 1086, -1, 1088, -1, -1, 1093, 1092, -1, -1, -1, 1096, -1, 1124, 1119, 1112, 1101, -1, 1103, -1, 1105, -1, 1107, -1, 1109, -1, 1111, -1, -1, 1118, 1117, 1116, -1, -1, -1, -1, 1121, -1, 1123, -1, -1, 1128, 1127, -1, -1, 1130, -1, 1134, 1133, -1, -1, -1, 1137, -1, 1179, 1176, 1141, -1, 1143, -1, 1149, 1148, 1147, -1, -1, -1, 1151, -1, 1169, 1168, 1167, 1166, 1165, 1158, -1, 1160, -1, 1162, -1, 1164, -1, -1, -1, -1, -1, -1, 1173, 1172, -1, -1, 1175, -1, -1, 1178, -1, -1, -1, -1], "threshold": [-104.5, 17.5, 112.5, 28.5, -2.0, 1.1849999502301216, -2.0, 0.10999999940395355, 0.5, -122.0, 79.0, -2.0, -2.0, -2.0, -2.0, 10.0, 5.5, -2.0, -2.0, -2.0, 40.5, 38.5, 28.0, 36.0, -2.0, -2.0, 1025.5, 1010.5, 5.5, -2.0, 148.0, -2.0, 17.0, -2.0, -2.0, -121.5, 4.149999976158142, -2.0, -2.0, -2.0, -111.0, -2.0, -2.0, 18.5, 8.0, -2.0, -2.0, -2.0, 0.004999999888241291, 16.5, -122.5, 31.0, -2.0, -2.0, 118.5, 115.5, -2.0, -2.0, -2.0, 56.0, -2.0, -2.0, -2.0, 40.5, 18.5, 159.0, 36.0, 4.5, -106.5, 131.5, -2.0, -2.0, -2.0, -2.0, -2.0, 7.6000001430511475, 61.5, -2.0, -2.0, -2.0, 171.5, -108.5, -2.0, 0.2800000011920929, -2.0, 23.5, -2.0, -2.0, 87.0, -2.0, -2.0, 29.5, 1021.0, 145.0, 3.350000023841858, -2.0, -118.0, 1014.0, -2.0, -2.0, -2.0, -112.5, 76.0, -2.0, -2.0, -2.0, -2.0, -2.0, 20.5, 13.5, 79.5, 11.5, 0.3800000101327896, 41.5, 2.450000047683716, 138.5, -29.0, 72.0, -2.0, -2.0, -2.0, -2.0, 19.5, 1016.5, 6.25, -2.0, 9.300000190734863, -2.0, -2.0, 7.550000190734863, 2.850000023841858, 153.5, -2.0, -2.0, -2.0, -2.0, 60.0, -2.0, -2.0, 70.0, 1017.5, 10.5, -2.0, 0.044999999925494194, -2.0, -2.0, 1028.5, -2.0, -2.0, 76.5, -2.0, 221.0, -2.0, -2.0, 53.0, 23.5, -2.0, -2.0, -2.0, 90.0, 53.5, 1021.5, 71.5, 1007.5, -2.0, 4.5, -2.0, 28.5, -2.0, 18.0, -2.0, 59.0, -2.0, 3.75, -2.0, -2.0, -2.0, 39.5, 0.5, -2.0, 50.5, -2.0, -2.0, -2.0, -2.0, -91.5, -2.0, -2.0, 89.5, 81.5, 5.5, -2.0, 1011.0, -2.0, -2.0, 9.849999904632568, -79.5, -2.0, 42.0, 0.7099999934434891, 8.550000190734863, 49.5, -2.0, -2.0, 15.5, -2.0, -2.0, -2.0, 21.5, -2.0, -2.0, -2.0, 17.5, 84.5, 49.0, 21.5, 88.0, 1017.0, 1004.5, -2.0, -2.0, -2.0, -2.0, -2.0, -2.0, 8.0, 93.0, -2.0, -2.0, 1020.5, -2.0, 68.5, -2.0, 0.6050000041723251, -2.0, -2.0, 1.600000023841858, -2.0, 0.75, 2.199999988079071, 92.5, -2.0, -2.0, -2.0, -39.0, -2.0, 92.5, -2.0, -2.0, 16.5, 74.5, 19.5, 65.5, 16.5, 51.0, 33.0, -2.0, 40.0, 1011.5, -2.0, 28.0, -2.0, -2.5, -2.0, -2.0, -2.0, 7.449999809265137, 8.5, -2.0, -2.0, -2.0, 69.0, 35.0, -2.0, -91.5, -2.0, 42.5, -35.5, -2.0, -2.0, 18.5, 1023.5, -2.0, 24.0, -2.0, -2.0, -2.0, 18.5, 3.0, 276.5, -2.0, -2.0, -2.0, -2.0, 57.0, -33.5, 2.399999976158142, -2.0, -2.0, 37.5, 18.5, -2.0, 80.5, -2.0, -2.0, 99.0, 1.0, 1019.0, -2.0, -2.0, -2.0, 72.0, -2.0, 15.5, 78.5, -2.0, -2.0, 77.0, -2.0, 3.399999976158142, 1017.5, -2.0, -1.0, 2.899999976158142, 49.0, -2.0, -2.0, -2.0, -2.0, 18.5, -2.0, 0.3050000071525574, -2.0, -2.0, -2.0, -2.5, -97.5, -2.0, 0.7699999809265137, 119.5, -2.0, 3.5, 40.5, -2.0, -2.0, 20.0, 1010.0, -2.0, -2.0, -2.0, -2.0, 51.5, 61.5, 45.5, -2.0, -2.0, 1013.0, -2.0, 1.9000000357627869, -2.0, -2.0, 52.5, -2.0, -2.0, 66.5, 6.400000095367432, -98.5, 97.5, -2.0, -2.0, 2.9499999284744263, 1006.5, -2.0, -2.0, -2.0, 127.5, -2.0, -2.0, 20.0, -2.0, 93.5, 3.049999952316284, 91.5, 14.5, -2.0, -2.0, -83.0, -2.0, -80.5, -2.0, -2.0, 0.10000000149011612, 3.5500000715255737, -2.0, -2.0, -2.0, 14.5, 1000.5, 996.0, -2.0, -2.0, 228.0, 1016.5, 5.950000047683716, -2.0, 1005.5, 131.5, -2.0, -2.0, -2.0, 8.5, 3.049999952316284, -2.0, -2.0, -2.0, 0.15000000223517418, -2.0, -2.0, 15.5, -2.0, 4.5, 93.0, 22.0, 1003.0, 0.1450000014156103, -2.0, -2.0, -2.0, -2.0, 98.0, -2.0, 23.5, 1006.5, -2.0, 1.9999999403953552, -2.0, 0.07500000111758709, 16.0, -2.0, 76.0, -2.0, -2.0, -0.5, -2.0, -2.0, -2.0, -2.0, 61.0, 4.900000095367432, 53.5, 1023.5, 26.0, -2.0, 1013.0, -2.0, 40.5, 31.0, -2.0, -2.0, -2.0, -2.0, -29.0, -2.0, 1006.0, -2.0, -4.0, -2.0, -2.0, 1010.5, -2.0, 39.5, 8.25, -2.0, -2.0, -2.0, 1004.0, 0.7599999904632568, -2.0, 3.850000023841858, -2.0, -2.0, -37.5, 1.449999988079071, -2.0, 200.0, -2.0, 68.5, -2.0, -2.0, 14.5, 75.5, -2.0, 3.5500000715255737, 2.5, -2.0, -2.0, -2.0, 5.799999952316284, 164.0, 4.1499998569488525, 1011.5, 150.0, 0.8599999696016312, 73.5, -2.0, -2.0, -2.0, -2.0, 2.450000047683716, 64.0, -2.0, -30.0, 1.4000000357627869, -2.0, 15.0, -2.0, 81.0, -2.0, -2.0, 0.7399999797344208, 1019.5, -2.0, -2.0, 75.5, 45.0, -2.0, -2.0, 19.5, -2.0, 1028.5, 1016.5, -2.0, 56.0, 69.0, -2.0, -2.0, 1.800000011920929, -2.0, 263.0, -2.0, -2.0, -2.0, 74.5, -2.0, 151.5, 59.5, 18.5, 15.5, -2.0, 91.0, 78.0, -2.0, 94.5, -2.0, 7.5, -2.0, -2.0, -2.0, 42.5, -2.0, -2.0, -2.0, -2.0, 257.0, 1013.5, 70.5, -2.0, -2.0, -2.0, -2.0, -2.0, 62.0, 150.5, -2.0, -2.0, 89.0, 72.5, -2.0, -2.0, -2.0, 0.38499999046325684, 8.349999904632568, 1021.5, 53.0, 1013.5, 1.5, -2.0, 74.0, 28.0, 5.5, 10.5, -2.0, 62.5, 5.3500001430511475, -2.0, -2.0, -2.0, -2.0, 64.0, -2.0, -2.0, 2.5, -2.0, 41.5, 4.25, -2.0, 9.5, -9.0, -2.0, -2.0, -2.0, -2.0, -37.0, -2.0, 150.5, -79.5, 38.5, -2.0, -2.0, -2.0, 32.0, -2.0, -2.0, 126.0, 17.5, -2.0, 77.5, 195.5, 0.7199999988079071, -2.0, 1003.5, 0.009999999776482582, 4.900000095367432, 1000.5, -2.0, 26.0, -2.0, -2.0, -2.0, 0.19500000029802322, -2.0, 9.5, 72.0, -2.0, -2.0, -2.0, 6.3500001430511475, -75.5, 38.0, 60.0, -2.0, 2.149999976158142, 8.0, 65.5, -2.0, -2.0, 1011.0, -2.0, -2.0, 4.25, 80.5, -2.0, 26.5, -87.0, -2.0, 35.0, -2.0, -2.0, 1010.5, 35.5, -2.0, -2.0, -2.0, 26.0, -2.0, 1013.5, -2.0, -89.0, -2.0, -2.0, 48.5, 1.5, 0.014999999664723873, -2.0, -2.0, 22.5, 43.5, -2.0, 0.5, 52.5, 106.0, -2.0, -2.0, -2.0, 126.0, 1.9000000357627869, -2.0, -2.0, 17.0, -2.0, -2.0, 0.04499999899417162, 28.0, -2.0, -2.0, -2.0, -2.0, 34.0, 158.5, 21.5, 1011.5, 33.0, 0.14999999850988388, 2.049999952316284, 25.5, 10.0, -2.0, -2.0, -2.0, -2.0, 5.25, -2.0, -2.0, 24.0, -2.0, -2.0, 27.0, 9.5, -2.0, -3.5, 5.450000047683716, 26.5, 3.6999999284744263, -2.0, -2.0, -2.0, -2.0, 39.5, 7.5, 24.5, -2.0, 5.5, 86.5, -2.0, -2.0, -2.0, -2.0, 12.5, -2.0, 48.0, 1014.5, 42.0, -2.0, -2.0, 39.5, 3.399999976158142, -2.0, -2.0, -2.0, -2.0, 40.5, -2.0, -35.5, -2.0, 104.0, 21.5, 11.0, -2.0, -2.0, -2.0, 1013.5, 65.0, -2.0, -2.0, 2.699999988079071, 129.0, -2.0, -2.0, 28.0, -2.0, -2.0, -2.0, 54.5, 28.5, 1017.5, 22.0, 93.0, 191.0, -2.0, 1012.5, -2.0, -2.0, -2.0, -2.0, 13.5, 25.5, -2.0, 171.0, -2.0, -2.0, 3.5, -36.0, -2.0, -2.0, -2.0, -2.0, -2.0, 16.5, 22.0, -2.0, 14.5, 3.5, -2.0, 1.899999976158142, -2.0, 4.75, 6.5, -2.0, 44.5, 31.0, 28.5, 71.5, -2.0, -2.0, -2.0, -2.0, -2.0, -2.0, -2.0, 1011.5, -2.0, 27.5, 1014.0, 9.5, -2.0, 122.0, -2.0, -2.0, -2.0, -2.0, 11.5, 6.950000047683716, -2.0, -2.0, 7.25, 54.0, -2.0, 1010.0, -2.0, -2.0, 48.0, -2.0, -2.0, 31.5, 4.5, 1019.0, -2.0, 48.5, -2.0, -2.0, 28.5, 1017.5, 73.5, 20.5, 4.950000047683716, -2.0, 1010.0, -2.0, -2.0, 2.4999999403953552, 1.800000011920929, -2.0, -2.0, 23.5, -2.0, -2.0, -2.0, 24.5, 214.0, -2.0, 51.5, -2.0, -2.0, 3.25, -2.0, 207.5, -2.0, -2.0, 1012.5, 281.5, 20.0, -2.0, 26.5, -2.0, -2.0, 1011.5, -2.0, -2.0, 8.0, -2.0, 1.5, 76.5, -2.0, -2.0, -2.0, -2.0, 331.0, 23.5, 86.0, 41.5, 84.5, -2.0, 230.5, -2.0, -2.0, 10.5, -2.0, 5.700000047683716, 22.5, 96.5, 95.5, -2.0, -2.0, -2.0, 3.9499999284744263, 16.5, -2.0, -2.0, -2.0, 22.5, -2.0, 5.950000047683716, -2.0, -2.0, -2.0, 10.5, 81.5, 25.0, -2.0, -2.0, -2.0, 90.5, 13.5, -2.0, 10.5, -2.0, -2.0, 1014.5, 5.200000047683716, 11.5, -2.0, 0.36499999463558197, 49.5, 295.0, 83.5, -2.0, 85.0, -2.0, -2.0, 12.0, -2.0, -2.0, 24.5, -2.0, -2.0, -2.0, 1010.5, -2.0, -2.0, 3.6999999284744263, 2.25, 98.0, 19.0, 165.0, -2.0, -2.0, -2.0, -2.0, -2.0, -2.0, 123.5, -2.0, -2.0, 146.0, 86.5, 39.0, -2.0, -2.0, 212.5, 39.5, 1015.5, 1.0, 1012.5, -2.0, -2.0, -2.0, -2.0, -2.0, -2.0, -26.0, 13.5, 3.350000023841858, 0.02500000037252903, 7.5, 49.5, -2.0, 26.5, -2.0, -2.0, 1009.0, -2.0, -2.0, -2.0, 34.5, 25.5, 81.5, 0.03999999910593033, -2.0, 4.100000023841858, -2.0, -2.0, -2.0, -2.0, -2.0, 165.0, 50.0, -2.0, -2.0, -2.0, 52.5, -2.0, 11.5, 57.5, -2.0, -2.0, -2.0, 9.5, -2.0, 11.5, 1022.5, -2.0, 44.0, -2.0, -2.0, 36.0, -2.0, 4.299999952316284, 86.0, -2.0, 228.0, 43.0, 215.5, -2.0, -2.0, -2.0, -2.0, -2.0, 1004.5, -2.0, 22.5, -2.0, -2.0, 52.5, 81.5, 2.950000047683716, 1008.5, -2.0, 0.6299999952316284, 105.5, 77.0, -2.0, 24.0, -2.0, -2.0, 1.0150000154972076, -2.0, 26.5, -2.0, 0.48999999463558197, -2.0, -2.0, 120.5, 21.0, -2.0, 67.0, -2.0, 7.0, -2.0, -2.0, 1.5, 1011.5, -2.0, -2.0, -2.0, 26.0, -2.0, 43.5, 74.5, 70.5, 58.0, -2.0, -34.5, -2.0, 1010.0, -2.0, 84.0, -2.0, -40.0, -2.0, 1014.0, -2.0, -2.0, 73.5, -1.0, 1020.5, -2.0, -2.0, -2.0, -2.0, 87.5, -2.0, 96.0, -2.0, -2.0, 37.5, -1.5, -2.0, -2.0, 65.5, -2.0, 0.6400000154972076, 1006.0, -2.0, -2.0, -2.0, 18.5, -2.0, 31.5, 303.0, 0.3699999898672104, -2.0, 6.0, -2.0, 1007.5, 2.899999976158142, 91.0, -2.0, -2.0, -2.0, 1009.5, -2.0, 0.875, 120.5, 119.0, 4.900000095367432, -32.0, 19.5, -2.0, 22.5, -2.0, 84.5, -2.0, -74.0, -2.0, -2.0, -2.0, -2.0, -2.0, -2.0, 90.5, 203.0, -2.0, -2.0, 96.0, -2.0, -2.0, 1.550000011920929, -2.0, -2.0, -2.0, -2.0], "feature": [1, 2, 9, 0, -2, 3, -2, 5, 7, 1, 6, -2, -2, -2, -2, 7, 2, -2, -2, -2, 0, 0, 6, 0, -2, -2, 8, 8, 2, -2, 9, -2, 3, -2, -2, 1, 4, -2, -2, -2, 1, -2, -2, 3, 7, -2, -2, -2, 5, 2, 1, 6, -2, -2, 9, 9, -2, -2, -2, 6, -2, -2, -2, 0, 7, 9, 0, 7, 1, 9, -2, -2, -2, -2, -2, 4, 6, -2, -2, -2, 9, 1, -2, 5, -2, 3, -2, -2, 7, -2, -2, 3, 8, 9, 4, -2, 1, 8, -2, -2, -2, 1, 6, -2, -2, -2, -2, -2, 3, 3, 6, 3, 5, 7, 4, 1, 1, 9, -2, -2, -2, -2, 2, 8, 3, -2, 3, -2, -2, 4, 4, 9, -2, -2, -2, -2, 6, -2, -2, 6, 8, 3, -2, 5, -2, -2, 8, -2, -2, 6, -2, 9, -2, -2, 0, 2, -2, -2, -2, 7, 0, 8, 7, 8, -2, 2, -2, 0, -2, 7, -2, 7, -2, 4, -2, -2, -2, 9, 0, -2, 7, -2, -2, -2, -2, 1, -2, -2, 6, 6, 4, -2, 8, -2, -2, 3, 1, -2, 0, 5, 3, 9, -2, -2, 2, -2, -2, -2, 1, -2, -2, -2, 2, 7, 0, 1, 9, 8, 8, -2, -2, -2, -2, -2, -2, 9, 6, -2, -2, 8, -2, 9, -2, 5, -2, -2, 4, -2, 5, 3, 6, -2, -2, -2, 1, -2, 6, -2, -2, 1, 7, 3, 6, 2, 6, 0, -2, 7, 8, -2, 7, -2, 1, -2, -2, -2, 4, 1, -2, -2, -2, 9, 9, -2, 1, -2, 0, 1, -2, -2, 2, 8, -2, 7, -2, -2, -2, 3, 4, 9, -2, -2, -2, -2, 0, 0, 4, -2, -2, 0, 3, -2, 6, -2, -2, 9, 7, 8, -2, -2, -2, 6, -2, 3, 6, -2, -2, 6, -2, 4, 8, -2, 1, 4, 0, -2, -2, -2, -2, 3, -2, 5, -2, -2, -2, 1, 1, -2, 5, 9, -2, 2, 0, -2, -2, 7, 8, -2, -2, -2, -2, 0, 6, 0, -2, -2, 8, -2, 4, -2, -2, 7, -2, -2, 6, 4, 1, 7, -2, -2, 4, 8, -2, -2, -2, 9, -2, -2, 0, -2, 9, 4, 6, 3, -2, -2, 1, -2, 1, -2, -2, 5, 4, -2, -2, -2, 2, 8, 8, -2, -2, 9, 8, 4, -2, 8, 9, -2, -2, -2, 2, 4, -2, -2, -2, 5, -2, -2, 2, -2, 1, 7, 2, 8, 5, -2, -2, -2, -2, 7, -2, 2, 8, -2, 4, -2, 5, 3, -2, 6, -2, -2, 1, -2, -2, -2, -2, 9, 4, 6, 8, 1, -2, 8, -2, 6, 1, -2, -2, -2, -2, 0, -2, 8, -2, 0, -2, -2, 8, -2, 9, 4, -2, -2, -2, 8, 5, -2, 4, -2, -2, 0, 4, -2, 9, -2, 6, -2, -2, 3, 6, -2, 4, 4, -2, -2, -2, 4, 1, 4, 8, 1, 4, 6, -2, -2, -2, -2, 4, 9, -2, 0, 4, -2, 7, -2, 9, -2, -2, 4, 8, -2, -2, 9, 6, -2, -2, 1, -2, 8, 8, -2, 6, 7, -2, -2, 4, -2, 9, -2, -2, -2, 9, -2, 1, 0, 2, 3, -2, 6, 6, -2, 9, -2, 2, -2, -2, -2, 0, -2, -2, -2, -2, 9, 8, 6, -2, -2, -2, -2, -2, 6, 1, -2, -2, 7, 6, -2, -2, -2, 5, 4, 8, 9, 8, 2, -2, 1, 3, 4, 2, -2, 7, 4, -2, -2, -2, -2, 1, -2, -2, 9, -2, 7, 4, -2, 2, 0, -2, -2, -2, -2, 0, -2, 1, 1, 0, -2, -2, -2, 7, -2, -2, 1, 6, -2, 7, 9, 4, -2, 8, 5, 4, 8, -2, 3, -2, -2, -2, 5, -2, 2, 6, -2, -2, -2, 4, 1, 0, 9, -2, 4, 2, 6, -2, -2, 8, -2, -2, 4, 9, -2, 3, 1, -2, 0, -2, -2, 8, 3, -2, -2, -2, 3, -2, 8, -2, 1, -2, -2, 0, 2, 5, -2, -2, 7, 6, -2, 7, 6, 9, -2, -2, -2, 9, 4, -2, -2, 2, -2, -2, 5, 3, -2, -2, -2, -2, 1, 9, 2, 8, 3, 5, 4, 3, 7, -2, -2, -2, -2, 4, -2, -2, 6, -2, -2, 7, 2, -2, 1, 4, 3, 4, -2, -2, -2, -2, 6, 1, 3, -2, 4, 9, -2, -2, -2, -2, 2, -2, 0, 8, 0, -2, -2, 0, 4, -2, -2, -2, -2, 6, -2, 1, -2, 9, 3, 0, -2, -2, -2, 8, 7, -2, -2, 4, 9, -2, -2, 1, -2, -2, -2, 0, 1, 8, 2, 6, 9, -2, 8, -2, -2, -2, -2, 2, 3, -2, 9, -2, -2, 1, 1, -2, -2, -2, -2, -2, 0, 3, -2, 2, 2, -2, 4, -2, 4, 2, -2, 7, 3, 3, 6, -2, -2, -2, -2, -2, -2, -2, 8, -2, 3, 8, 2, -2, 9, -2, -2, -2, -2, 2, 4, -2, -2, 4, 1, -2, 8, -2, -2, 0, -2, -2, 3, 2, 8, -2, 6, -2, -2, 1, 8, 7, 2, 4, -2, 8, -2, -2, 4, 4, -2, -2, 3, -2, -2, -2, 3, 9, -2, 6, -2, -2, 4, -2, 9, -2, -2, 8, 9, 2, -2, 3, -2, -2, 8, -2, -2, 2, -2, 7, 1, -2, -2, -2, -2, 9, 3, 6, 0, 6, -2, 9, -2, -2, 2, -2, 4, 3, 7, 7, -2, -2, -2, 4, 1, -2, -2, -2, 3, -2, 4, -2, -2, -2, 2, 7, 0, -2, -2, -2, 9, 2, -2, 1, -2, -2, 8, 4, 2, -2, 5, 0, 9, 6, -2, 6, -2, -2, 0, -2, -2, 3, -2, -2, -2, 8, -2, -2, 4, 4, 7, 1, 9, -2, -2, -2, -2, -2, -2, 1, -2, -2, 1, 9, 7, -2, -2, 9, 6, 8, 7, 8, -2, -2, -2, -2, -2, -2, 0, 2, 4, 5, 2, 6, -2, 3, -2, -2, 8, -2, -2, -2, 3, 3, 6, 5, -2, 4, -2, -2, -2, -2, -2, 1, 6, -2, -2, -2, 7, -2, 2, 7, -2, -2, -2, 2, -2, 2, 8, -2, 0, -2, -2, 0, -2, 4, 9, -2, 9, 0, 9, -2, -2, -2, -2, -2, 8, -2, 6, -2, -2, 0, 6, 4, 8, -2, 5, 1, 7, -2, 1, -2, -2, 4, -2, 3, -2, 5, -2, -2, 9, 7, -2, 6, -2, 2, -2, -2, 4, 8, -2, -2, -2, 9, -2, 0, 6, 6, 7, -2, 0, -2, 8, -2, 7, -2, 1, -2, 8, -2, -2, 6, 0, 8, -2, -2, -2, -2, 7, -2, 7, -2, -2, 7, 1, -2, -2, 7, -2, 5, 8, -2, -2, -2, 9, -2, 3, 9, 4, -2, 7, -2, 8, 4, 6, -2, -2, -2, 8, -2, 5, 1, 1, 4, 1, 2, -2, 3, -2, 7, -2, 1, -2, -2, -2, -2, -2, -2, 6, 9, -2, -2, 6, -2, -2, 4, -2, -2, -2, -2], "classes_": [0, 1], "value": [[1469.0, 1392.0], [177.0, 86.0], [116.0, 43.0], [59.0, 11.0], [0.0, 3.0], [59.0, 8.0], [0.0, 2.0], [59.0, 6.0], [46.0, 1.0], [4.0, 1.0], [1.0, 1.0], [1.0, 0.0], [0.0, 1.0], [3.0, 0.0], [42.0, 0.0], [13.0, 5.0], [2.0, 5.0], [0.0, 5.0], [2.0, 0.0], [11.0, 0.0], [57.0, 32.0], [25.0, 24.0], [23.0, 14.0], [2.0, 6.0], [0.0, 6.0], [2.0, 0.0], [21.0, 8.0], [19.0, 3.0], [3.0, 2.0], [2.0, 0.0], [1.0, 2.0], [0.0, 1.0], [1.0, 1.0], [0.0, 1.0], [1.0, 0.0], [16.0, 1.0], [3.0, 1.0], [0.0, 1.0], [3.0, 0.0], [13.0, 0.0], [2.0, 5.0], [0.0, 5.0], [2.0, 0.0], [2.0, 10.0], [2.0, 1.0], [0.0, 1.0], [2.0, 0.0], [0.0, 9.0], [32.0, 8.0], [32.0, 4.0], [31.0, 3.0], [1.0, 2.0], [1.0, 0.0], [0.0, 2.0], [30.0, 1.0], [2.0, 1.0], [2.0, 0.0], [0.0, 1.0], [28.0, 0.0], [1.0, 1.0], [0.0, 1.0], [1.0, 0.0], [0.0, 4.0], [61.0, 43.0], [45.0, 19.0], [16.0, 14.0], [14.0, 7.0], [6.0, 7.0], [6.0, 3.0], [6.0, 2.0], [6.0, 0.0], [0.0, 2.0], [0.0, 1.0], [0.0, 4.0], [8.0, 0.0], [2.0, 7.0], [1.0, 7.0], [0.0, 7.0], [1.0, 0.0], [1.0, 0.0], [29.0, 5.0], [27.0, 2.0], [20.0, 0.0], [7.0, 2.0], [6.0, 0.0], [1.0, 2.0], [0.0, 2.0], [1.0, 0.0], [2.0, 3.0], [2.0, 0.0], [0.0, 3.0], [16.0, 24.0], [12.0, 24.0], [7.0, 24.0], [1.0, 19.0], [0.0, 11.0], [1.0, 8.0], [1.0, 1.0], [1.0, 0.0], [0.0, 1.0], [0.0, 7.0], [6.0, 5.0], [6.0, 2.0], [6.0, 0.0], [0.0, 2.0], [0.0, 3.0], [5.0, 0.0], [4.0, 0.0], [1292.0, 1306.0], [654.0, 459.0], [241.0, 130.0], [102.0, 88.0], [47.0, 66.0], [45.0, 54.0], [20.0, 36.0], [2.0, 16.0], [1.0, 16.0], [1.0, 6.0], [1.0, 0.0], [0.0, 6.0], [0.0, 10.0], [1.0, 0.0], [18.0, 20.0], [8.0, 17.0], [6.0, 3.0], [4.0, 0.0], [2.0, 3.0], [0.0, 3.0], [2.0, 0.0], [2.0, 14.0], [1.0, 14.0], [1.0, 1.0], [1.0, 0.0], [0.0, 1.0], [0.0, 13.0], [1.0, 0.0], [10.0, 3.0], [0.0, 3.0], [10.0, 0.0], [25.0, 18.0], [11.0, 15.0], [2.0, 14.0], [0.0, 11.0], [2.0, 3.0], [0.0, 3.0], [2.0, 0.0], [9.0, 1.0], [9.0, 0.0], [0.0, 1.0], [14.0, 3.0], [13.0, 0.0], [1.0, 3.0], [0.0, 3.0], [1.0, 0.0], [2.0, 12.0], [1.0, 12.0], [0.0, 12.0], [1.0, 0.0], [1.0, 0.0], [55.0, 22.0], [38.0, 21.0], [38.0, 17.0], [18.0, 15.0], [18.0, 9.0], [6.0, 0.0], [12.0, 9.0], [5.0, 0.0], [7.0, 9.0], [0.0, 5.0], [7.0, 4.0], [0.0, 3.0], [7.0, 1.0], [6.0, 0.0], [1.0, 1.0], [0.0, 1.0], [1.0, 0.0], [0.0, 6.0], [20.0, 2.0], [10.0, 2.0], [8.0, 0.0], [2.0, 2.0], [0.0, 2.0], [2.0, 0.0], [10.0, 0.0], [0.0, 4.0], [17.0, 1.0], [0.0, 1.0], [17.0, 0.0], [139.0, 42.0], [84.0, 11.0], [26.0, 1.0], [25.0, 0.0], [1.0, 1.0], [0.0, 1.0], [1.0, 0.0], [58.0, 10.0], [21.0, 10.0], [0.0, 2.0], [21.0, 8.0], [7.0, 7.0], [3.0, 7.0], [1.0, 5.0], [1.0, 0.0], [0.0, 5.0], [2.0, 2.0], [0.0, 2.0], [2.0, 0.0], [4.0, 0.0], [14.0, 1.0], [14.0, 0.0], [0.0, 1.0], [37.0, 0.0], [55.0, 31.0], [48.0, 14.0], [17.0, 11.0], [10.0, 11.0], [4.0, 11.0], [4.0, 1.0], [1.0, 1.0], [1.0, 0.0], [0.0, 1.0], [3.0, 0.0], [0.0, 10.0], [6.0, 0.0], [7.0, 0.0], [31.0, 3.0], [1.0, 2.0], [1.0, 0.0], [0.0, 2.0], [30.0, 1.0], [23.0, 0.0], [7.0, 1.0], [5.0, 0.0], [2.0, 1.0], [0.0, 1.0], [2.0, 0.0], [7.0, 17.0], [3.0, 0.0], [4.0, 17.0], [1.0, 16.0], [1.0, 2.0], [0.0, 2.0], [1.0, 0.0], [0.0, 14.0], [3.0, 1.0], [2.0, 0.0], [1.0, 1.0], [1.0, 0.0], [0.0, 1.0], [413.0, 329.0], [282.0, 177.0], [137.0, 116.0], [113.0, 75.0], [48.0, 51.0], [12.0, 32.0], [10.0, 7.0], [0.0, 4.0], [10.0, 3.0], [5.0, 3.0], [0.0, 2.0], [5.0, 1.0], [4.0, 0.0], [1.0, 1.0], [1.0, 0.0], [0.0, 1.0], [5.0, 0.0], [2.0, 25.0], [1.0, 25.0], [0.0, 25.0], [1.0, 0.0], [1.0, 0.0], [36.0, 19.0], [9.0, 17.0], [0.0, 8.0], [9.0, 9.0], [0.0, 3.0], [9.0, 6.0], [6.0, 1.0], [6.0, 0.0], [0.0, 1.0], [3.0, 5.0], [3.0, 2.0], [2.0, 0.0], [1.0, 2.0], [0.0, 2.0], [1.0, 0.0], [0.0, 3.0], [27.0, 2.0], [27.0, 1.0], [4.0, 1.0], [4.0, 0.0], [0.0, 1.0], [23.0, 0.0], [0.0, 1.0], [65.0, 24.0], [65.0, 22.0], [1.0, 3.0], [0.0, 3.0], [1.0, 0.0], [64.0, 19.0], [12.0, 1.0], [9.0, 0.0], [3.0, 1.0], [3.0, 0.0], [0.0, 1.0], [52.0, 18.0], [21.0, 3.0], [2.0, 3.0], [2.0, 0.0], [0.0, 3.0], [19.0, 0.0], [31.0, 15.0], [9.0, 0.0], [22.0, 15.0], [11.0, 2.0], [0.0, 2.0], [11.0, 0.0], [11.0, 13.0], [0.0, 3.0], [11.0, 10.0], [4.0, 9.0], [0.0, 5.0], [4.0, 4.0], [2.0, 4.0], [2.0, 1.0], [2.0, 0.0], [0.0, 1.0], [0.0, 3.0], [2.0, 0.0], [7.0, 1.0], [6.0, 0.0], [1.0, 1.0], [0.0, 1.0], [1.0, 0.0], [0.0, 2.0], [24.0, 41.0], [5.0, 26.0], [1.0, 0.0], [4.0, 26.0], [3.0, 26.0], [0.0, 16.0], [3.0, 10.0], [2.0, 1.0], [0.0, 1.0], [2.0, 0.0], [1.0, 9.0], [1.0, 1.0], [0.0, 1.0], [1.0, 0.0], [0.0, 8.0], [1.0, 0.0], [19.0, 15.0], [18.0, 9.0], [12.0, 1.0], [0.0, 1.0], [12.0, 0.0], [6.0, 8.0], [4.0, 0.0], [2.0, 8.0], [2.0, 0.0], [0.0, 8.0], [1.0, 6.0], [0.0, 6.0], [1.0, 0.0], [145.0, 61.0], [55.0, 10.0], [48.0, 3.0], [4.0, 2.0], [4.0, 0.0], [0.0, 2.0], [44.0, 1.0], [11.0, 1.0], [0.0, 1.0], [11.0, 0.0], [33.0, 0.0], [7.0, 7.0], [7.0, 0.0], [0.0, 7.0], [90.0, 51.0], [0.0, 8.0], [90.0, 43.0], [16.0, 16.0], [6.0, 15.0], [1.0, 14.0], [1.0, 0.0], [0.0, 14.0], [5.0, 1.0], [3.0, 0.0], [2.0, 1.0], [0.0, 1.0], [2.0, 0.0], [10.0, 1.0], [4.0, 1.0], [0.0, 1.0], [4.0, 0.0], [6.0, 0.0], [74.0, 27.0], [48.0, 6.0], [1.0, 1.0], [1.0, 0.0], [0.0, 1.0], [47.0, 5.0], [42.0, 2.0], [39.0, 1.0], [28.0, 0.0], [11.0, 1.0], [1.0, 1.0], [1.0, 0.0], [0.0, 1.0], [10.0, 0.0], [3.0, 1.0], [1.0, 1.0], [1.0, 0.0], [0.0, 1.0], [2.0, 0.0], [5.0, 3.0], [5.0, 0.0], [0.0, 3.0], [26.0, 21.0], [0.0, 5.0], [26.0, 16.0], [18.0, 16.0], [9.0, 2.0], [9.0, 1.0], [1.0, 1.0], [1.0, 0.0], [0.0, 1.0], [8.0, 0.0], [0.0, 1.0], [9.0, 14.0], [0.0, 2.0], [9.0, 12.0], [7.0, 12.0], [0.0, 5.0], [7.0, 7.0], [0.0, 2.0], [7.0, 5.0], [2.0, 4.0], [1.0, 0.0], [1.0, 4.0], [1.0, 0.0], [0.0, 4.0], [5.0, 1.0], [5.0, 0.0], [0.0, 1.0], [2.0, 0.0], [8.0, 0.0], [131.0, 152.0], [20.0, 48.0], [11.0, 42.0], [9.0, 15.0], [4.0, 15.0], [1.0, 0.0], [3.0, 15.0], [0.0, 6.0], [3.0, 9.0], [1.0, 9.0], [1.0, 0.0], [0.0, 9.0], [2.0, 0.0], [5.0, 0.0], [2.0, 27.0], [0.0, 15.0], [2.0, 12.0], [1.0, 0.0], [1.0, 12.0], [1.0, 0.0], [0.0, 12.0], [9.0, 6.0], [4.0, 0.0], [5.0, 6.0], [5.0, 1.0], [5.0, 0.0], [0.0, 1.0], [0.0, 5.0], [111.0, 104.0], [1.0, 15.0], [0.0, 11.0], [1.0, 4.0], [1.0, 0.0], [0.0, 4.0], [110.0, 89.0], [19.0, 2.0], [0.0, 1.0], [19.0, 1.0], [15.0, 0.0], [4.0, 1.0], [0.0, 1.0], [4.0, 0.0], [91.0, 87.0], [2.0, 19.0], [0.0, 9.0], [2.0, 10.0], [2.0, 4.0], [0.0, 4.0], [2.0, 0.0], [0.0, 6.0], [89.0, 68.0], [87.0, 56.0], [87.0, 53.0], [71.0, 50.0], [15.0, 5.0], [15.0, 2.0], [1.0, 2.0], [1.0, 0.0], [0.0, 2.0], [14.0, 0.0], [0.0, 3.0], [56.0, 45.0], [41.0, 20.0], [5.0, 0.0], [36.0, 20.0], [5.0, 9.0], [4.0, 0.0], [1.0, 9.0], [0.0, 7.0], [1.0, 2.0], [1.0, 0.0], [0.0, 2.0], [31.0, 11.0], [2.0, 4.0], [0.0, 4.0], [2.0, 0.0], [29.0, 7.0], [1.0, 3.0], [1.0, 0.0], [0.0, 3.0], [28.0, 4.0], [8.0, 0.0], [20.0, 4.0], [20.0, 3.0], [10.0, 0.0], [10.0, 3.0], [1.0, 2.0], [0.0, 2.0], [1.0, 0.0], [9.0, 1.0], [5.0, 0.0], [4.0, 1.0], [4.0, 0.0], [0.0, 1.0], [0.0, 1.0], [15.0, 25.0], [5.0, 0.0], [10.0, 25.0], [7.0, 25.0], [6.0, 25.0], [4.0, 24.0], [2.0, 0.0], [2.0, 24.0], [1.0, 24.0], [0.0, 19.0], [1.0, 5.0], [0.0, 3.0], [1.0, 2.0], [1.0, 0.0], [0.0, 2.0], [1.0, 0.0], [2.0, 1.0], [2.0, 0.0], [0.0, 1.0], [1.0, 0.0], [3.0, 0.0], [16.0, 3.0], [16.0, 2.0], [3.0, 2.0], [3.0, 0.0], [0.0, 2.0], [13.0, 0.0], [0.0, 1.0], [0.0, 3.0], [2.0, 12.0], [1.0, 1.0], [1.0, 0.0], [0.0, 1.0], [1.0, 11.0], [1.0, 4.0], [0.0, 4.0], [1.0, 0.0], [0.0, 7.0], [638.0, 847.0], [545.0, 636.0], [524.0, 633.0], [509.0, 587.0], [31.0, 86.0], [27.0, 56.0], [3.0, 0.0], [24.0, 56.0], [18.0, 23.0], [12.0, 7.0], [5.0, 7.0], [3.0, 0.0], [2.0, 7.0], [1.0, 7.0], [0.0, 6.0], [1.0, 1.0], [1.0, 0.0], [7.0, 0.0], [6.0, 16.0], [0.0, 16.0], [6.0, 0.0], [6.0, 33.0], [1.0, 0.0], [5.0, 33.0], [5.0, 17.0], [0.0, 15.0], [5.0, 2.0], [2.0, 2.0], [2.0, 0.0], [0.0, 2.0], [3.0, 0.0], [0.0, 16.0], [4.0, 30.0], [1.0, 0.0], [3.0, 30.0], [1.0, 26.0], [1.0, 4.0], [0.0, 4.0], [1.0, 0.0], [0.0, 22.0], [2.0, 4.0], [2.0, 0.0], [0.0, 4.0], [478.0, 501.0], [398.0, 458.0], [0.0, 11.0], [398.0, 447.0], [339.0, 320.0], [298.0, 247.0], [10.0, 0.0], [288.0, 247.0], [9.0, 22.0], [8.0, 9.0], [8.0, 2.0], [7.0, 0.0], [1.0, 2.0], [1.0, 0.0], [0.0, 2.0], [0.0, 7.0], [1.0, 13.0], [0.0, 8.0], [1.0, 5.0], [1.0, 2.0], [0.0, 2.0], [1.0, 0.0], [0.0, 3.0], [279.0, 225.0], [257.0, 222.0], [93.0, 52.0], [38.0, 34.0], [0.0, 4.0], [38.0, 30.0], [16.0, 3.0], [3.0, 2.0], [3.0, 0.0], [0.0, 2.0], [13.0, 1.0], [0.0, 1.0], [13.0, 0.0], [22.0, 27.0], [11.0, 24.0], [3.0, 0.0], [8.0, 24.0], [7.0, 5.0], [6.0, 0.0], [1.0, 5.0], [1.0, 0.0], [0.0, 5.0], [1.0, 19.0], [1.0, 3.0], [0.0, 3.0], [1.0, 0.0], [0.0, 16.0], [11.0, 3.0], [0.0, 2.0], [11.0, 1.0], [8.0, 0.0], [3.0, 1.0], [0.0, 1.0], [3.0, 0.0], [55.0, 18.0], [55.0, 15.0], [4.0, 4.0], [0.0, 4.0], [4.0, 0.0], [51.0, 11.0], [42.0, 5.0], [16.0, 0.0], [26.0, 5.0], [16.0, 1.0], [5.0, 1.0], [5.0, 0.0], [0.0, 1.0], [11.0, 0.0], [10.0, 4.0], [8.0, 1.0], [0.0, 1.0], [8.0, 0.0], [2.0, 3.0], [2.0, 0.0], [0.0, 3.0], [9.0, 6.0], [2.0, 6.0], [0.0, 6.0], [2.0, 0.0], [7.0, 0.0], [0.0, 3.0], [164.0, 170.0], [113.0, 138.0], [71.0, 121.0], [65.0, 121.0], [7.0, 33.0], [3.0, 32.0], [1.0, 30.0], [1.0, 7.0], [1.0, 1.0], [1.0, 0.0], [0.0, 1.0], [0.0, 6.0], [0.0, 23.0], [2.0, 2.0], [0.0, 2.0], [2.0, 0.0], [4.0, 1.0], [0.0, 1.0], [4.0, 0.0], [58.0, 88.0], [27.0, 69.0], [4.0, 0.0], [23.0, 69.0], [11.0, 11.0], [11.0, 7.0], [5.0, 7.0], [0.0, 7.0], [5.0, 0.0], [6.0, 0.0], [0.0, 4.0], [12.0, 58.0], [9.0, 16.0], [5.0, 16.0], [2.0, 0.0], [3.0, 16.0], [1.0, 16.0], [1.0, 0.0], [0.0, 16.0], [2.0, 0.0], [4.0, 0.0], [3.0, 42.0], [0.0, 18.0], [3.0, 24.0], [3.0, 9.0], [2.0, 1.0], [0.0, 1.0], [2.0, 0.0], [1.0, 8.0], [1.0, 1.0], [0.0, 1.0], [1.0, 0.0], [0.0, 7.0], [0.0, 15.0], [31.0, 19.0], [11.0, 0.0], [20.0, 19.0], [0.0, 5.0], [20.0, 14.0], [12.0, 1.0], [2.0, 1.0], [0.0, 1.0], [2.0, 0.0], [10.0, 0.0], [8.0, 13.0], [5.0, 1.0], [5.0, 0.0], [0.0, 1.0], [3.0, 12.0], [2.0, 1.0], [0.0, 1.0], [2.0, 0.0], [1.0, 11.0], [0.0, 11.0], [1.0, 0.0], [6.0, 0.0], [42.0, 17.0], [42.0, 15.0], [42.0, 11.0], [32.0, 3.0], [32.0, 2.0], [32.0, 1.0], [31.0, 0.0], [1.0, 1.0], [1.0, 0.0], [0.0, 1.0], [0.0, 1.0], [0.0, 1.0], [10.0, 8.0], [9.0, 2.0], [8.0, 0.0], [1.0, 2.0], [1.0, 0.0], [0.0, 2.0], [1.0, 6.0], [1.0, 2.0], [0.0, 2.0], [1.0, 0.0], [0.0, 4.0], [0.0, 4.0], [0.0, 2.0], [51.0, 32.0], [14.0, 27.0], [2.0, 0.0], [12.0, 27.0], [12.0, 15.0], [0.0, 5.0], [12.0, 10.0], [5.0, 0.0], [7.0, 10.0], [4.0, 10.0], [0.0, 5.0], [4.0, 5.0], [2.0, 5.0], [1.0, 5.0], [1.0, 2.0], [1.0, 1.0], [0.0, 1.0], [0.0, 3.0], [1.0, 0.0], [2.0, 0.0], [3.0, 0.0], [0.0, 12.0], [37.0, 5.0], [26.0, 0.0], [11.0, 5.0], [6.0, 5.0], [2.0, 5.0], [1.0, 0.0], [1.0, 5.0], [0.0, 5.0], [1.0, 0.0], [4.0, 0.0], [5.0, 0.0], [22.0, 3.0], [1.0, 1.0], [1.0, 0.0], [0.0, 1.0], [21.0, 2.0], [19.0, 1.0], [16.0, 0.0], [3.0, 1.0], [3.0, 0.0], [0.0, 1.0], [2.0, 1.0], [2.0, 0.0], [0.0, 1.0], [41.0, 73.0], [41.0, 66.0], [1.0, 15.0], [0.0, 12.0], [1.0, 3.0], [1.0, 0.0], [0.0, 3.0], [40.0, 51.0], [20.0, 40.0], [9.0, 32.0], [6.0, 32.0], [2.0, 25.0], [0.0, 23.0], [2.0, 2.0], [2.0, 0.0], [0.0, 2.0], [4.0, 7.0], [3.0, 1.0], [0.0, 1.0], [3.0, 0.0], [1.0, 6.0], [1.0, 0.0], [0.0, 6.0], [3.0, 0.0], [11.0, 8.0], [9.0, 2.0], [8.0, 0.0], [1.0, 2.0], [1.0, 0.0], [0.0, 2.0], [2.0, 6.0], [0.0, 5.0], [2.0, 1.0], [0.0, 1.0], [2.0, 0.0], [20.0, 11.0], [15.0, 3.0], [14.0, 1.0], [13.0, 0.0], [1.0, 1.0], [0.0, 1.0], [1.0, 0.0], [1.0, 2.0], [1.0, 0.0], [0.0, 2.0], [5.0, 8.0], [3.0, 0.0], [2.0, 8.0], [2.0, 1.0], [2.0, 0.0], [0.0, 1.0], [0.0, 7.0], [0.0, 7.0], [59.0, 127.0], [51.0, 126.0], [28.0, 39.0], [28.0, 29.0], [13.0, 1.0], [10.0, 0.0], [3.0, 1.0], [3.0, 0.0], [0.0, 1.0], [15.0, 28.0], [5.0, 0.0], [10.0, 28.0], [3.0, 23.0], [1.0, 20.0], [1.0, 5.0], [0.0, 5.0], [1.0, 0.0], [0.0, 15.0], [2.0, 3.0], [2.0, 1.0], [2.0, 0.0], [0.0, 1.0], [0.0, 2.0], [7.0, 5.0], [4.0, 0.0], [3.0, 5.0], [3.0, 0.0], [0.0, 5.0], [0.0, 10.0], [23.0, 87.0], [1.0, 27.0], [1.0, 5.0], [0.0, 5.0], [1.0, 0.0], [0.0, 22.0], [22.0, 60.0], [5.0, 2.0], [0.0, 1.0], [5.0, 1.0], [0.0, 1.0], [5.0, 0.0], [17.0, 58.0], [10.0, 51.0], [6.0, 50.0], [1.0, 0.0], [5.0, 50.0], [4.0, 50.0], [3.0, 49.0], [1.0, 42.0], [0.0, 39.0], [1.0, 3.0], [1.0, 0.0], [0.0, 3.0], [2.0, 7.0], [2.0, 0.0], [0.0, 7.0], [1.0, 1.0], [0.0, 1.0], [1.0, 0.0], [1.0, 0.0], [4.0, 1.0], [0.0, 1.0], [4.0, 0.0], [7.0, 7.0], [2.0, 7.0], [2.0, 4.0], [2.0, 1.0], [1.0, 1.0], [0.0, 1.0], [1.0, 0.0], [1.0, 0.0], [0.0, 3.0], [0.0, 3.0], [5.0, 0.0], [8.0, 1.0], [8.0, 0.0], [0.0, 1.0], [80.0, 43.0], [34.0, 6.0], [2.0, 3.0], [2.0, 0.0], [0.0, 3.0], [32.0, 3.0], [32.0, 2.0], [12.0, 2.0], [12.0, 1.0], [2.0, 1.0], [0.0, 1.0], [2.0, 0.0], [10.0, 0.0], [0.0, 1.0], [20.0, 0.0], [0.0, 1.0], [46.0, 37.0], [27.0, 36.0], [14.0, 33.0], [10.0, 7.0], [6.0, 7.0], [5.0, 1.0], [4.0, 0.0], [1.0, 1.0], [1.0, 0.0], [0.0, 1.0], [1.0, 6.0], [1.0, 0.0], [0.0, 6.0], [4.0, 0.0], [4.0, 26.0], [3.0, 26.0], [3.0, 8.0], [1.0, 8.0], [0.0, 6.0], [1.0, 2.0], [1.0, 0.0], [0.0, 2.0], [2.0, 0.0], [0.0, 18.0], [1.0, 0.0], [13.0, 3.0], [13.0, 1.0], [0.0, 1.0], [13.0, 0.0], [0.0, 2.0], [19.0, 1.0], [12.0, 0.0], [7.0, 1.0], [2.0, 1.0], [0.0, 1.0], [2.0, 0.0], [5.0, 0.0], [15.0, 46.0], [0.0, 22.0], [15.0, 24.0], [11.0, 5.0], [0.0, 4.0], [11.0, 1.0], [0.0, 1.0], [11.0, 0.0], [4.0, 19.0], [0.0, 10.0], [4.0, 9.0], [3.0, 9.0], [1.0, 0.0], [2.0, 9.0], [1.0, 9.0], [1.0, 4.0], [1.0, 0.0], [0.0, 4.0], [0.0, 5.0], [1.0, 0.0], [1.0, 0.0], [21.0, 3.0], [0.0, 2.0], [21.0, 1.0], [0.0, 1.0], [21.0, 0.0], [93.0, 211.0], [87.0, 211.0], [63.0, 108.0], [18.0, 63.0], [0.0, 22.0], [18.0, 41.0], [7.0, 26.0], [1.0, 17.0], [0.0, 10.0], [1.0, 7.0], [0.0, 7.0], [1.0, 0.0], [6.0, 9.0], [0.0, 5.0], [6.0, 4.0], [3.0, 0.0], [3.0, 4.0], [3.0, 0.0], [0.0, 4.0], [11.0, 15.0], [8.0, 3.0], [0.0, 1.0], [8.0, 2.0], [0.0, 1.0], [8.0, 1.0], [3.0, 1.0], [5.0, 0.0], [3.0, 12.0], [3.0, 1.0], [0.0, 1.0], [3.0, 0.0], [0.0, 11.0], [45.0, 45.0], [0.0, 6.0], [45.0, 39.0], [37.0, 20.0], [19.0, 18.0], [17.0, 7.0], [11.0, 0.0], [6.0, 7.0], [0.0, 4.0], [6.0, 3.0], [4.0, 0.0], [2.0, 3.0], [0.0, 2.0], [2.0, 1.0], [1.0, 0.0], [1.0, 1.0], [0.0, 1.0], [1.0, 0.0], [2.0, 11.0], [2.0, 4.0], [2.0, 1.0], [2.0, 0.0], [0.0, 1.0], [0.0, 3.0], [0.0, 7.0], [18.0, 2.0], [14.0, 0.0], [4.0, 2.0], [0.0, 2.0], [4.0, 0.0], [8.0, 19.0], [6.0, 2.0], [0.0, 2.0], [6.0, 0.0], [2.0, 17.0], [0.0, 9.0], [2.0, 8.0], [2.0, 1.0], [0.0, 1.0], [2.0, 0.0], [0.0, 7.0], [24.0, 103.0], [3.0, 0.0], [21.0, 103.0], [20.0, 103.0], [17.0, 102.0], [1.0, 0.0], [16.0, 102.0], [1.0, 0.0], [15.0, 102.0], [4.0, 9.0], [4.0, 2.0], [4.0, 0.0], [0.0, 2.0], [0.0, 7.0], [11.0, 93.0], [0.0, 29.0], [11.0, 64.0], [4.0, 52.0], [4.0, 27.0], [3.0, 27.0], [2.0, 27.0], [2.0, 14.0], [0.0, 9.0], [2.0, 5.0], [0.0, 4.0], [2.0, 1.0], [1.0, 0.0], [1.0, 1.0], [0.0, 1.0], [1.0, 0.0], [0.0, 13.0], [1.0, 0.0], [1.0, 0.0], [0.0, 25.0], [7.0, 12.0], [1.0, 11.0], [0.0, 11.0], [1.0, 0.0], [6.0, 1.0], [6.0, 0.0], [0.0, 1.0], [3.0, 1.0], [0.0, 1.0], [3.0, 0.0], [1.0, 0.0], [6.0, 0.0]]}, {"children_left": [1, 2, 3, 4, 5, 6, 7, 8, 9, -1, 11, -1, 13, 14, -1, 16, -1, -1, -1, 20, 21, 22, -1, -1, -1, 26, -1, -1, 29, 30, 31, -1, 33, 34, -1, -1, -1, 38, 39, 40, 41, -1, -1, -1, -1, -1, 47, 48, 49, 50, -1, -1, -1, 54, 55, -1, 57, 58, -1, 60, -1, 62, -1, -1, -1, 66, 67, -1, 69, -1, -1, 72, -1, 74, -1, -1, 77, 78, 79, -1, 81, -1, -1, 84, 85, 86, -1, -1, -1, 90, -1, -1, 93, -1, 95, 96, 97, -1, 99, -1, 101, 102, -1, -1, -1, 106, 107, -1, -1, -1, -1, 112, 113, 114, -1, -1, -1, 118, 119, -1, 121, -1, -1, 124, -1, -1, 127, 128, -1, 130, 131, -1, -1, 134, -1, -1, 137, 138, 139, 140, -1, -1, -1, -1, -1, 146, 147, 148, -1, 150, 151, -1, -1, 154, -1, 156, -1, 158, 159, -1, -1, 162, 163, -1, 165, -1, 167, -1, -1, 170, -1, -1, 173, 174, 175, -1, -1, 178, -1, -1, -1, 182, -1, 184, 185, 186, -1, 188, 189, -1, -1, -1, 193, 194, -1, -1, 197, 198, -1, 200, -1, -1, 203, -1, 205, -1, -1, 208, -1, -1, 211, 212, 213, 214, -1, 216, -1, -1, -1, 220, -1, 222, -1, -1, 225, -1, 227, 228, -1, 230, -1, -1, -1, 234, 235, 236, 237, 238, 239, -1, 241, 242, -1, -1, -1, 246, 247, 248, -1, -1, -1, 252, -1, 254, -1, -1, 257, -1, -1, 260, 261, -1, 263, -1, 265, -1, -1, 268, 269, 270, 271, -1, -1, 274, -1, -1, 277, -1, -1, 280, 281, 282, 283, -1, -1, -1, -1, 288, -1, 290, -1, 292, -1, -1, 295, -1, 297, 298, -1, -1, 301, 302, 303, -1, -1, -1, -1, 308, 309, -1, 311, 312, 313, -1, -1, -1, -1, -1, 319, 320, -1, 322, -1, -1, 325, 326, 327, -1, 329, -1, 331, 332, 333, -1, 335, -1, -1, 338, 339, -1, -1, -1, 343, -1, -1, 346, 347, 348, 349, 350, -1, -1, -1, 354, 355, -1, 357, -1, 359, 360, -1, -1, 363, -1, -1, 366, -1, -1, 369, 370, -1, 372, -1, -1, 375, 376, -1, -1, 379, -1, -1, 382, 383, -1, 385, 386, -1, -1, 389, -1, -1, 392, 393, 394, 395, 396, -1, -1, 399, 400, 401, 402, -1, 404, -1, 406, 407, -1, -1, -1, 411, -1, 413, -1, 415, 416, 417, -1, -1, 420, -1, 422, -1, -1, -1, 426, 427, -1, -1, -1, 431, 432, -1, -1, -1, -1, 437, 438, 439, -1, -1, -1, -1, 444, -1, 446, 447, 448, -1, -1, 451, -1, 453, -1, 455, -1, -1, 458, 459, -1, 461, 462, -1, 464, -1, 466, -1, -1, -1, -1, 471, 472, 473, -1, -1, 476, 477, 478, -1, -1, 481, -1, 483, -1, -1, 486, 487, 488, -1, 490, 491, 492, 493, 494, -1, 496, 497, 498, -1, -1, -1, -1, -1, -1, 505, -1, 507, 508, 509, 510, -1, -1, -1, -1, 515, 516, 517, -1, -1, -1, -1, -1, -1, 524, 525, 526, -1, 528, -1, -1, 531, 532, -1, 534, 535, 536, 537, -1, -1, 540, -1, 542, -1, -1, 545, -1, 547, -1, 549, -1, -1, 552, 553, 554, 555, -1, -1, 558, -1, 560, -1, -1, 563, 564, -1, 566, -1, 568, 569, -1, 571, -1, 573, 574, -1, -1, -1, -1, 579, -1, -1, 582, -1, -1, 585, 586, 587, 588, 589, 590, 591, -1, -1, -1, -1, 596, -1, 598, -1, 600, -1, 602, 603, -1, -1, -1, 607, 608, -1, -1, -1, 612, -1, 614, 615, 616, -1, 618, -1, -1, -1, -1, 623, 624, 625, 626, -1, 628, -1, -1, 631, -1, -1, -1, -1, 636, 637, -1, 639, -1, -1, -1, 643, 644, 645, 646, 647, 648, 649, -1, -1, -1, 653, -1, -1, 656, 657, -1, -1, -1, 661, 662, 663, 664, 665, 666, 667, -1, 669, -1, 671, -1, 673, 674, -1, -1, -1, 678, 679, 680, 681, -1, 683, -1, -1, 686, 687, -1, 689, 690, 691, 692, -1, -1, -1, -1, -1, 698, -1, -1, 701, -1, 703, -1, 705, -1, -1, 708, 709, -1, -1, -1, 713, 714, 715, -1, 717, -1, 719, -1, -1, -1, -1, 724, 725, 726, 727, 728, 729, 730, 731, 732, 733, -1, -1, -1, -1, -1, 739, 740, -1, 742, -1, -1, 745, -1, -1, 748, -1, 750, -1, -1, 753, -1, 755, 756, -1, -1, -1, 760, 761, 762, 763, -1, 765, 766, 767, -1, -1, -1, -1, 772, 773, 774, -1, -1, 777, 778, -1, -1, -1, -1, 783, 784, 785, -1, 787, -1, -1, -1, -1, 792, 793, 794, 795, 796, -1, 798, -1, -1, 801, -1, 803, -1, 805, -1, -1, 808, -1, -1, 811, 812, 813, -1, -1, -1, -1, -1, 819, 820, -1, -1, 823, 824, -1, 826, -1, -1, 829, -1, 831, 832, -1, -1, -1, -1, 837, 838, 839, 840, -1, -1, -1, 844, -1, 846, 847, -1, -1, -1, 851, 852, 853, 854, 855, -1, 857, -1, 859, -1, -1, 862, -1, -1, -1, -1, -1, 868, 869, -1, -1, 872, 873, 874, -1, -1, -1, -1, 879, 880, 881, 882, -1, -1, 885, 886, -1, -1, -1, 890, -1, 892, 893, -1, -1, -1, -1, 898, 899, 900, 901, 902, 903, 904, -1, 906, -1, -1, -1, 910, 911, -1, -1, -1, -1, 916, -1, 918, -1, 920, -1, 922, -1, 924, -1, -1, 927, 928, 929, 930, -1, -1, 933, 934, -1, 936, -1, 938, 939, 940, -1, -1, -1, 944, -1, -1, 947, 948, 949, 950, -1, 952, -1, 954, 955, -1, 957, -1, 959, -1, -1, -1, -1, 964, 965, 966, 967, -1, 969, -1, -1, -1, 973, -1, -1, 976, 977, -1, 979, -1, -1, -1, 983, -1, 985, 986, -1, 988, -1, -1, -1, 992, -1, 994, 995, 996, -1, -1, -1, -1, 1001, 1002, -1, 1004, -1, -1, -1, 1008, 1009, 1010, 1011, -1, 1013, -1, 1015, -1, -1, 1018, 1019, -1, -1, -1, 1023, -1, -1, 1026, 1027, 1028, 1029, -1, -1, -1, 1033, 1034, -1, -1, -1, 1038, 1039, 1040, 1041, 1042, -1, 1044, -1, 1046, -1, -1, -1, -1, -1, 1052, 1053, -1, 1055, -1, 1057, -1, 1059, -1, -1, 1062, 1063, 1064, 1065, -1, 1067, 1068, -1, -1, 1071, -1, 1073, 1074, -1, 1076, 1077, 1078, -1, -1, -1, -1, -1, 1084, 1085, 1086, 1087, 1088, 1089, -1, -1, -1, -1, -1, -1, -1, 1097, -1, -1, 1100, 1101, -1, 1103, 1104, 1105, -1, -1, 1108, 1109, -1, 1111, -1, -1, -1, 1115, -1, -1, -1, 1119, 1120, -1, 1122, 1123, 1124, -1, -1, 1127, 1128, -1, -1, -1, -1, 1133, 1134, -1, -1, -1], "children_right": [318, 233, 210, 145, 126, 111, 28, 19, 10, -1, 12, -1, 18, 15, -1, 17, -1, -1, -1, 25, 24, 23, -1, -1, -1, 27, -1, -1, 46, 37, 32, -1, 36, 35, -1, -1, -1, 45, 44, 43, 42, -1, -1, -1, -1, -1, 76, 53, 52, 51, -1, -1, -1, 65, 56, -1, 64, 59, -1, 61, -1, 63, -1, -1, -1, 71, 68, -1, 70, -1, -1, 73, -1, 75, -1, -1, 92, 83, 80, -1, 82, -1, -1, 89, 88, 87, -1, -1, -1, 91, -1, -1, 94, -1, 110, 105, 98, -1, 100, -1, 104, 103, -1, -1, -1, 109, 108, -1, -1, -1, -1, 117, 116, 115, -1, -1, -1, 123, 120, -1, 122, -1, -1, 125, -1, -1, 136, 129, -1, 133, 132, -1, -1, 135, -1, -1, 144, 143, 142, 141, -1, -1, -1, -1, -1, 181, 172, 149, -1, 153, 152, -1, -1, 155, -1, 157, -1, 161, 160, -1, -1, 169, 164, -1, 166, -1, 168, -1, -1, 171, -1, -1, 180, 177, 176, -1, -1, 179, -1, -1, -1, 183, -1, 207, 192, 187, -1, 191, 190, -1, -1, -1, 196, 195, -1, -1, 202, 199, -1, 201, -1, -1, 204, -1, 206, -1, -1, 209, -1, -1, 224, 219, 218, 215, -1, 217, -1, -1, -1, 221, -1, 223, -1, -1, 226, -1, 232, 229, -1, 231, -1, -1, -1, 307, 294, 259, 256, 245, 240, -1, 244, 243, -1, -1, -1, 251, 250, 249, -1, -1, -1, 253, -1, 255, -1, -1, 258, -1, -1, 267, 262, -1, 264, -1, 266, -1, -1, 279, 276, 273, 272, -1, -1, 275, -1, -1, 278, -1, -1, 287, 286, 285, 284, -1, -1, -1, -1, 289, -1, 291, -1, 293, -1, -1, 296, -1, 300, 299, -1, -1, 306, 305, 304, -1, -1, -1, -1, 317, 310, -1, 316, 315, 314, -1, -1, -1, -1, -1, 324, 321, -1, 323, -1, -1, 470, 345, 328, -1, 330, -1, 342, 337, 334, -1, 336, -1, -1, 341, 340, -1, -1, -1, 344, -1, -1, 381, 368, 353, 352, 351, -1, -1, -1, 365, 356, -1, 358, -1, 362, 361, -1, -1, 364, -1, -1, 367, -1, -1, 374, 371, -1, 373, -1, -1, 378, 377, -1, -1, 380, -1, -1, 391, 384, -1, 388, 387, -1, -1, 390, -1, -1, 443, 436, 435, 398, 397, -1, -1, 430, 425, 410, 403, -1, 405, -1, 409, 408, -1, -1, -1, 412, -1, 414, -1, 424, 419, 418, -1, -1, 421, -1, 423, -1, -1, -1, 429, 428, -1, -1, -1, 434, 433, -1, -1, -1, -1, 442, 441, 440, -1, -1, -1, -1, 445, -1, 457, 450, 449, -1, -1, 452, -1, 454, -1, 456, -1, -1, 469, 460, -1, 468, 463, -1, 465, -1, 467, -1, -1, -1, -1, 642, 475, 474, -1, -1, 485, 480, 479, -1, -1, 482, -1, 484, -1, -1, 523, 522, 489, -1, 521, 504, 503, 502, 495, -1, 501, 500, 499, -1, -1, -1, -1, -1, -1, 506, -1, 514, 513, 512, 511, -1, -1, -1, -1, 520, 519, 518, -1, -1, -1, -1, -1, -1, 635, 530, 527, -1, 529, -1, -1, 584, 533, -1, 551, 544, 539, 538, -1, -1, 541, -1, 543, -1, -1, 546, -1, 548, -1, 550, -1, -1, 581, 562, 557, 556, -1, -1, 559, -1, 561, -1, -1, 578, 565, -1, 567, -1, 577, 570, -1, 572, -1, 576, 575, -1, -1, -1, -1, 580, -1, -1, 583, -1, -1, 622, 611, 606, 595, 594, 593, 592, -1, -1, -1, -1, 597, -1, 599, -1, 601, -1, 605, 604, -1, -1, -1, 610, 609, -1, -1, -1, 613, -1, 621, 620, 617, -1, 619, -1, -1, -1, -1, 634, 633, 630, 627, -1, 629, -1, -1, 632, -1, -1, -1, -1, 641, 638, -1, 640, -1, -1, -1, 1118, 897, 660, 655, 652, 651, 650, -1, -1, -1, 654, -1, -1, 659, 658, -1, -1, -1, 878, 867, 836, 723, 712, 677, 668, -1, 670, -1, 672, -1, 676, 675, -1, -1, -1, 707, 700, 685, 682, -1, 684, -1, -1, 697, 688, -1, 696, 695, 694, 693, -1, -1, -1, -1, -1, 699, -1, -1, 702, -1, 704, -1, 706, -1, -1, 711, 710, -1, -1, -1, 722, 721, 716, -1, 718, -1, 720, -1, -1, -1, -1, 835, 818, 759, 752, 747, 738, 737, 736, 735, 734, -1, -1, -1, -1, -1, 744, 741, -1, 743, -1, -1, 746, -1, -1, 749, -1, 751, -1, -1, 754, -1, 758, 757, -1, -1, -1, 791, 782, 771, 764, -1, 770, 769, 768, -1, -1, -1, -1, 781, 776, 775, -1, -1, 780, 779, -1, -1, -1, -1, 790, 789, 786, -1, 788, -1, -1, -1, -1, 817, 810, 807, 800, 797, -1, 799, -1, -1, 802, -1, 804, -1, 806, -1, -1, 809, -1, -1, 816, 815, 814, -1, -1, -1, -1, -1, 822, 821, -1, -1, 828, 825, -1, 827, -1, -1, 830, -1, 834, 833, -1, -1, -1, -1, 850, 843, 842, 841, -1, -1, -1, 845, -1, 849, 848, -1, -1, -1, 866, 865, 864, 861, 856, -1, 858, -1, 860, -1, -1, 863, -1, -1, -1, -1, -1, 871, 870, -1, -1, 877, 876, 875, -1, -1, -1, -1, 896, 889, 884, 883, -1, -1, 888, 887, -1, -1, -1, 891, -1, 895, 894, -1, -1, -1, -1, 1007, 926, 915, 914, 909, 908, 905, -1, 907, -1, -1, -1, 913, 912, -1, -1, -1, -1, 917, -1, 919, -1, 921, -1, 923, -1, 925, -1, -1, 1000, 991, 932, 931, -1, -1, 946, 935, -1, 937, -1, 943, 942, 941, -1, -1, -1, 945, -1, -1, 982, 963, 962, 951, -1, 953, -1, 961, 956, -1, 958, -1, 960, -1, -1, -1, -1, 975, 972, 971, 968, -1, 970, -1, -1, -1, 974, -1, -1, 981, 978, -1, 980, -1, -1, -1, 984, -1, 990, 987, -1, 989, -1, -1, -1, 993, -1, 999, 998, 997, -1, -1, -1, -1, 1006, 1003, -1, 1005, -1, -1, -1, 1025, 1022, 1017, 1012, -1, 1014, -1, 1016, -1, -1, 1021, 1020, -1, -1, -1, 1024, -1, -1, 1037, 1032, 1031, 1030, -1, -1, -1, 1036, 1035, -1, -1, -1, 1051, 1050, 1049, 1048, 1043, -1, 1045, -1, 1047, -1, -1, -1, -1, -1, 1061, 1054, -1, 1056, -1, 1058, -1, 1060, -1, -1, 1099, 1096, 1083, 1066, -1, 1070, 1069, -1, -1, 1072, -1, 1082, 1075, -1, 1081, 1080, 1079, -1, -1, -1, -1, -1, 1095, 1094, 1093, 1092, 1091, 1090, -1, -1, -1, -1, -1, -1, -1, 1098, -1, -1, 1117, 1102, -1, 1114, 1107, 1106, -1, -1, 1113, 1110, -1, 1112, -1, -1, -1, 1116, -1, -1, -1, 1132, 1121, -1, 1131, 1126, 1125, -1, -1, 1130, 1129, -1, -1, -1, -1, 1136, 1135, -1, -1, -1], "threshold": [17.5, 221.0, 167.0, 79.5, 75.5, 6.1499998569488525, -90.0, 0.5, 6.0, -2.0, 34.5, -2.0, -103.5, 5.5, -2.0, 1.300000011920929, -2.0, -2.0, -2.0, 51.0, 50.0, 12.0, -2.0, -2.0, -2.0, 66.5, -2.0, -2.0, -75.5, 3.049999952316284, 43.0, -2.0, 15.5, 1024.0, -2.0, -2.0, -2.0, 1023.0, 69.0, 14.5, 41.5, -2.0, -2.0, -2.0, -2.0, -2.0, 41.5, 3.0, 1026.5, 19.5, -2.0, -2.0, -2.0, 64.5, 40.5, -2.0, 34.0, 11.5, -2.0, 0.029999999329447746, -2.0, 0.3099999874830246, -2.0, -2.0, -2.0, -25.0, 90.0, -2.0, 67.0, -2.0, -2.0, 67.5, -2.0, 34.0, -2.0, -2.0, 60.5, 2.850000023841858, 0.8600000143051147, -2.0, 27.0, -2.0, -2.0, 72.5, 1012.0, 21.0, -2.0, -2.0, -2.0, 18.5, -2.0, -2.0, 48.0, -2.0, 130.0, 13.5, 7.5, -2.0, -2.0, -2.0, 17.5, 14.5, -2.0, -2.0, -2.0, 12.0, 3.950000047683716, -2.0, -2.0, -2.0, -2.0, 14.5, 53.5, 6.650000095367432, -2.0, -2.0, -2.0, 7.400000095367432, -92.0, -2.0, 57.5, -2.0, -2.0, 8.300000190734863, -2.0, -2.0, 3.25, 0.04500000178813934, -2.0, 64.0, -36.0, -2.0, -2.0, 14.5, -2.0, -2.0, 0.8550000190734863, 15.0, 18.5, 1020.5, -2.0, -2.0, -2.0, -2.0, -2.0, 91.5, 13.5, -43.5, -2.0, 997.0, 3.450000047683716, -2.0, -2.0, 6.599999904632568, -2.0, 3.0, -2.0, 4.5, 1.899999976158142, -2.0, -2.0, 17.5, 87.0, -2.0, 47.5, -2.0, 88.5, -2.0, -2.0, 90.0, -2.0, -2.0, 46.5, 1.949999988079071, 1007.5, -2.0, -2.0, 29.5, -2.0, -2.0, -2.0, 95.0, -2.0, 20.5, -74.0, 11.5, -2.0, 46.5, 56.5, -2.0, -2.0, -2.0, 99.5, 161.5, -2.0, -2.0, 5.25, 20.0, -2.0, 1018.0, -2.0, -2.0, 146.5, -2.0, 16.0, -2.0, -2.0, 2.350000023841858, -2.0, -2.0, 16.5, 14.5, 218.0, 5.0, -2.0, 179.5, -2.0, -2.0, -2.0, 1020.5, -2.0, 7.0, -2.0, -2.0, 1.5, -2.0, 7.8500001430511475, 144.5, -2.0, 160.0, -2.0, -2.0, -2.0, 92.5, 81.5, 1019.5, 73.0, 5.5, 2.4650000035762787, -2.0, 0.009999999776482582, 306.0, -2.0, -2.0, -2.0, 69.0, 15.5, 17.5, -2.0, -2.0, -2.0, 68.5, -2.0, 2.5, -2.0, -2.0, 1.5, -2.0, -2.0, 42.0, 1.2399999797344208, -2.0, 44.5, -2.0, 2.5, -2.0, -2.0, -29.5, 146.0, 12.5, 2.799999952316284, -2.0, -2.0, 1025.5, -2.0, -2.0, 55.5, -2.0, -2.0, 8.200000047683716, 57.5, 261.0, 18.5, -2.0, -2.0, -2.0, -2.0, 0.4699999988079071, -2.0, 16.5, -2.0, -25.5, -2.0, -2.0, 0.9500000178813934, -2.0, 1000.5, 98.5, -2.0, -2.0, 1029.5, 1008.0, 6.0, -2.0, -2.0, -2.0, -2.0, 92.5, -2.5, -2.0, 97.0, 25.5, 1.7499999403953552, -2.0, -2.0, -2.0, -2.0, -2.0, 999.5, 14.0, -2.0, 104.0, -2.0, -2.0, -20.0, 37.5, 1008.0, -2.0, 19.5, -2.0, 62.5, 3.899999976158142, 14.0, -2.0, 148.0, -2.0, -2.0, -31.0, 149.5, -2.0, -2.0, -2.0, 10.5, -2.0, -2.0, 146.0, -32.5, 69.5, 20.5, 1016.5, -2.0, -2.0, -2.0, 220.5, 3.5, -2.0, 5.0, -2.0, 72.0, 4.0, -2.0, -2.0, 27.5, -2.0, -2.0, 38.5, -2.0, -2.0, 8.5, 54.0, -2.0, 72.0, -2.0, -2.0, 1.3600000143051147, 176.5, -2.0, -2.0, 314.5, -2.0, -2.0, 1.550000011920929, 0.5049999952316284, -2.0, 152.0, 18.5, -2.0, -2.0, 199.0, -2.0, -2.0, 151.5, -28.0, 6.950000047683716, 1.5, 69.5, -2.0, -2.0, 99.5, 76.5, 64.5, 1008.5, -2.0, -35.5, -2.0, 1015.5, 45.5, -2.0, -2.0, -2.0, 149.5, -2.0, 4.6000001430511475, -2.0, 6.3999998569488525, 5.5, 150.5, -2.0, -2.0, 150.5, -2.0, 18.5, -2.0, -2.0, -2.0, 94.0, 154.5, -2.0, -2.0, -2.0, 11.5, 150.5, -2.0, -2.0, -2.0, -2.0, 0.820000022649765, 18.0, 1010.5, -2.0, -2.0, -2.0, -2.0, 1.8499999642372131, -2.0, 144.5, 5.5, 41.5, -2.0, -2.0, -27.5, -2.0, 73.5, -2.0, 2.899999976158142, -2.0, -2.0, 328.5, 1.949999988079071, -2.0, -26.0, 152.5, -2.0, 221.5, -2.0, 263.0, -2.0, -2.0, -2.0, -2.0, 25.5, 1.5, 18.5, -2.0, -2.0, -95.5, 1016.5, 0.8950000107288361, -2.0, -2.0, 2.200000047683716, -2.0, 165.0, -2.0, -2.0, 64.0, 6.8500001430511475, 1006.5, -2.0, 4.1499998569488525, 104.0, 76.5, 14.5, 16.0, -2.0, 3.399999976158142, 3.049999952316284, 58.0, -2.0, -2.0, -2.0, -2.0, -2.0, -2.0, 1008.5, -2.0, 1.449999988079071, 85.0, 284.5, 71.0, -2.0, -2.0, -2.0, -2.0, 15.5, -73.5, 0.3400000035762787, -2.0, -2.0, -2.0, -2.0, -2.0, -2.0, 1014.5, 73.5, 30.5, -2.0, 0.02500000037252903, -2.0, -2.0, 79.5, 1000.5, -2.0, 23.5, 0.004999999888241291, 30.0, 91.0, -2.0, -2.0, 266.5, -2.0, 8.5, -2.0, -2.0, 0.06499999947845936, -2.0, 2.700000047683716, -2.0, 4.550000071525574, -2.0, -2.0, 32.5, 1.6500000357627869, 115.0, 64.5, -2.0, -2.0, 246.5, -2.0, 2.0, -2.0, -2.0, 341.5, 119.0, -2.0, 1008.5, -2.0, 15.5, 45.0, -2.0, 77.5, -2.0, 98.5, 30.0, -2.0, -2.0, -2.0, -2.0, 1009.5, -2.0, -2.0, 2.5500000715255737, -2.0, -2.0, 28.5, 122.5, 295.0, 52.5, 23.5, 46.0, 225.5, -2.0, -2.0, -2.0, -2.0, 97.5, -2.0, 15.5, -2.0, 86.0, -2.0, 120.5, 17.0, -2.0, -2.0, -2.0, 19.5, 1.699999988079071, -2.0, -2.0, -2.0, 25.5, -2.0, 89.5, 1009.5, 88.0, -2.0, 85.0, -2.0, -2.0, -2.0, -2.0, 90.5, 84.5, 137.0, 1004.0, -2.0, 69.0, -2.0, -2.0, 0.48499999940395355, -2.0, -2.0, -2.0, -2.0, 1019.5, 3.5, -2.0, 60.5, -2.0, -2.0, -2.0, 1023.5, 3.149999976158142, 0.7549999952316284, 77.0, 21.0, 1013.5, 41.5, -2.0, -2.0, -2.0, 157.5, -2.0, -2.0, 0.48499999940395355, 88.5, -2.0, -2.0, -2.0, 34.0, 0.7049999833106995, 15.5, 7.5, 0.014999999664723873, 97.0, 34.5, -2.0, 39.5, -2.0, 2.25, -2.0, 93.0, 68.5, -2.0, -2.0, -2.0, 2.75, 21.5, 22.5, 13.5, -2.0, 1021.0, -2.0, -2.0, 2.549999952316284, -113.0, -2.0, 2.5, 41.5, -41.5, 1010.0, -2.0, -2.0, -2.0, -2.0, -2.0, 180.5, -2.0, -2.0, 2.049999952316284, -2.0, 22.5, -2.0, 1015.5, -2.0, -2.0, 31.5, 177.5, -2.0, -2.0, -2.0, 84.0, 0.5049999952316284, 28.0, -2.0, 15.0, -2.0, 57.0, -2.0, -2.0, -2.0, -2.0, 1021.5, 21.5, 58.0, 1017.5, 28.5, 42.5, 9.5, 1012.5, 39.0, 1008.5, -2.0, -2.0, -2.0, -2.0, -2.0, 27.5, 50.5, -2.0, 24.5, -2.0, -2.0, 18.5, -2.0, -2.0, 36.5, -2.0, 45.0, -2.0, -2.0, 0.8400000035762787, -2.0, 36.5, 34.5, -2.0, -2.0, -2.0, 13.5, 73.5, -40.0, -121.0, -2.0, 43.0, 4.0, 1014.5, -2.0, -2.0, -2.0, -2.0, 212.0, 6.5, 47.5, -2.0, -2.0, 26.5, 99.5, -2.0, -2.0, -2.0, -2.0, 0.45499999821186066, 48.5, 38.5, -2.0, 88.0, -2.0, -2.0, -2.0, -2.0, 26.5, 0.6049999892711639, 76.5, 136.5, 42.5, -2.0, 66.5, -2.0, -2.0, -2.5, -2.0, 52.5, -2.0, 67.0, -2.0, -2.0, 1003.5, -2.0, -2.0, 19.5, 63.5, 17.5, -2.0, -2.0, -2.0, -2.0, -2.0, 34.5, 12.5, -2.0, -2.0, -73.5, 0.0949999988079071, -2.0, 0.2849999964237213, -2.0, -2.0, 40.0, -2.0, -72.0, 80.5, -2.0, -2.0, -2.0, -2.0, 20.5, 10.5, 18.5, 6.5, -2.0, -2.0, -2.0, 17.5, -2.0, 59.0, 49.0, -2.0, -2.0, -2.0, 72.0, 46.5, 32.0, 16.5, 35.5, -2.0, 190.5, -2.0, 21.5, -2.0, -2.0, 24.0, -2.0, -2.0, -2.0, -2.0, -2.0, 1015.0, 30.0, -2.0, -2.0, 103.0, 44.0, 94.5, -2.0, -2.0, -2.0, -2.0, 2.649999976158142, 0.14999999850988388, 9.5, 20.5, -2.0, -2.0, 1019.5, 40.0, -2.0, -2.0, -2.0, 66.0, -2.0, 109.5, 89.0, -2.0, -2.0, -2.0, -2.0, 42.5, 83.5, 21.5, 0.5199999995529652, -73.5, 33.5, 26.5, -2.0, -90.0, -2.0, -2.0, -2.0, 62.0, 75.0, -2.0, -2.0, -2.0, -2.0, 21.5, -2.0, 5.299999952316284, -2.0, 26.5, -2.0, 1009.5, -2.0, 37.5, -2.0, -2.0, 36.5, 19.5, -106.0, 1.5, -2.0, -2.0, 20.5, 61.0, -2.0, 18.5, -2.0, 85.5, 0.42000001296401024, 0.05999999865889549, -2.0, -2.0, -2.0, 86.5, -2.0, -2.0, 4.950000047683716, 3.75, 18.5, 37.5, -2.0, -76.0, -2.0, 28.0, 112.0, -2.0, 41.0, -2.0, 57.5, -2.0, -2.0, -2.0, -2.0, 41.5, 74.0, 23.5, -103.5, -2.0, 78.5, -2.0, -2.0, -2.0, -89.0, -2.0, -2.0, 1014.5, 23.0, -2.0, -30.0, -2.0, -2.0, -2.0, -97.0, -2.0, 0.9799999892711639, 14.0, -2.0, 6.950000047683716, -2.0, -2.0, -2.0, 30.5, -2.0, 7.099999904632568, 111.5, -39.0, -2.0, -2.0, -2.0, -2.0, 36.5, 21.5, -2.0, -96.5, -2.0, -2.0, -2.0, 2.5, 19.5, 37.5, 112.5, -2.0, 135.0, -2.0, 9.5, -2.0, -2.0, -85.0, 1015.0, -2.0, -2.0, -2.0, 65.0, -2.0, -2.0, 14.5, 8.5, 1014.0, 96.0, -2.0, -2.0, -2.0, 18.5, 126.0, -2.0, -2.0, -2.0, 26.0, 60.0, 124.5, 1014.5, 75.0, -2.0, 1013.5, -2.0, 12.0, -2.0, -2.0, -2.0, -2.0, -2.0, -2.5, 36.0, -2.0, 99.5, -2.0, 1013.0, -2.0, 18.5, -2.0, -2.0, 14.5, 186.5, 90.0, 10.5, -2.0, 51.5, 0.7249999940395355, -2.0, -2.0, 99.0, -2.0, 4.25, 56.0, -2.0, 82.0, 1011.0, -1.5, -2.0, -2.0, -2.0, -2.0, -2.0, 13.5, 66.5, 8.549999713897705, 5.25, 58.5, 56.5, -2.0, -2.0, -2.0, -2.0, -2.0, -2.0, -2.0, 1022.5, -2.0, -2.0, 0.8650000095367432, 95.5, -2.0, 19.5, 39.0, 139.0, -2.0, -2.0, 191.5, 24.5, -2.0, 55.5, -2.0, -2.0, -2.0, 0.2500000074505806, -2.0, -2.0, -2.0, 43.5, 1024.5, -2.0, 0.36500000953674316, 40.0, 40.0, -2.0, -2.0, 1025.5, 22.5, -2.0, -2.0, -2.0, -2.0, 34.0, 56.5, -2.0, -2.0, -2.0], "feature": [3, 9, 9, 6, 6, 4, 1, 7, 2, -2, 6, -2, 1, 3, -2, 4, -2, -2, -2, 0, 6, 2, -2, -2, -2, 9, -2, -2, 1, 4, 0, -2, 2, 8, -2, -2, -2, 8, 6, 2, 0, -2, -2, -2, -2, -2, 0, 7, 8, 2, -2, -2, -2, 6, 7, -2, 1, 2, -2, 5, -2, 5, -2, -2, -2, 0, 7, -2, 9, -2, -2, 6, -2, 1, -2, -2, 6, 4, 4, -2, 1, -2, -2, 9, 8, 2, -2, -2, -2, 2, -2, -2, 0, -2, 9, 1, 2, -2, 1, -2, 7, 3, -2, -2, -2, 3, 4, -2, -2, -2, -2, 2, 6, 4, -2, -2, -2, 4, 1, -2, 0, -2, -2, 4, -2, -2, 4, 5, -2, 9, 0, -2, -2, 3, -2, -2, 5, 1, 7, 8, -2, -2, -2, -2, -2, 9, 3, 0, -2, 8, 3, -2, -2, 3, -2, 9, -2, 2, 4, -2, -2, 2, 6, -2, 0, -2, 6, -2, -2, 6, -2, -2, 0, 4, 8, -2, -2, 7, -2, -2, -2, 9, -2, 2, 1, 2, -2, 0, 7, -2, -2, -2, 7, 9, -2, -2, 4, 1, -2, 8, -2, -2, 9, -2, 3, -2, -2, 4, -2, -2, 3, 3, 9, 1, -2, 9, -2, -2, -2, 8, -2, 4, -2, -2, 1, -2, 4, 1, -2, 1, -2, -2, -2, 6, 6, 8, 6, 2, 3, -2, 5, 9, -2, -2, -2, 7, 3, 2, -2, -2, -2, 6, -2, 0, -2, -2, 7, -2, -2, 6, 4, -2, 7, -2, 2, -2, -2, 0, 1, 3, 4, -2, -2, 8, -2, -2, 6, -2, -2, 3, 7, 9, 7, -2, -2, -2, -2, 4, -2, 3, -2, 0, -2, -2, 4, -2, 8, 7, -2, -2, 8, 8, 4, -2, -2, -2, -2, 7, 1, -2, 6, 7, 4, -2, -2, -2, -2, -2, 8, 2, -2, 9, -2, -2, 0, 6, 8, -2, 3, -2, 7, 4, 7, -2, 1, -2, -2, 0, 1, -2, -2, -2, 2, -2, -2, 1, 0, 1, 3, 8, -2, -2, -2, 9, 7, -2, 7, -2, 9, 2, -2, -2, 3, -2, -2, 7, -2, -2, 7, 6, -2, 1, -2, -2, 4, 9, -2, -2, 9, -2, -2, 4, 4, -2, 1, 3, -2, -2, 9, -2, -2, 1, 0, 4, 2, 7, -2, -2, 7, 6, 9, 8, -2, 0, -2, 8, 6, -2, -2, -2, 1, -2, 4, -2, 4, 2, 1, -2, -2, 1, -2, 3, -2, -2, -2, 6, 9, -2, -2, -2, 2, 1, -2, -2, -2, -2, 5, 7, 8, -2, -2, -2, -2, 4, -2, 9, 2, 9, -2, -2, 0, -2, 6, -2, 4, -2, -2, 9, 4, -2, 0, 1, -2, 9, -2, 9, -2, -2, -2, -2, 0, 2, 0, -2, -2, 1, 8, 5, -2, -2, 4, -2, 9, -2, -2, 1, 4, 8, -2, 4, 9, 6, 0, 7, -2, 4, 4, 6, -2, -2, -2, -2, -2, -2, 8, -2, 4, 6, 9, 7, -2, -2, -2, -2, 2, 1, 5, -2, -2, -2, -2, -2, -2, 8, 1, 3, -2, 5, -2, -2, 6, 8, -2, 7, 5, 3, 1, -2, -2, 9, -2, 2, -2, -2, 5, -2, 4, -2, 4, -2, -2, 3, 4, 9, 7, -2, -2, 9, -2, 0, -2, -2, 9, 1, -2, 8, -2, 0, 9, -2, 7, -2, 7, 3, -2, -2, -2, -2, 8, -2, -2, 4, -2, -2, 3, 1, 9, 7, 2, 7, 9, -2, -2, -2, -2, 7, -2, 0, -2, 9, -2, 1, 0, -2, -2, -2, 2, 4, -2, -2, -2, 3, -2, 6, 8, 7, -2, 6, -2, -2, -2, -2, 6, 6, 9, 8, -2, 9, -2, -2, 5, -2, -2, -2, -2, 8, 2, -2, 7, -2, -2, -2, 8, 4, 4, 6, 2, 8, 6, -2, -2, -2, 9, -2, -2, 4, 6, -2, -2, -2, 1, 5, 1, 7, 5, 9, 6, -2, 6, -2, 4, -2, 9, 6, -2, -2, -2, 4, 2, 3, 2, -2, 8, -2, -2, 4, 1, -2, 2, 0, 1, 8, -2, -2, -2, -2, -2, 9, -2, -2, 4, -2, 2, -2, 8, -2, -2, 0, 9, -2, -2, -2, 6, 5, 3, -2, 2, -2, 6, -2, -2, -2, -2, 8, 2, 6, 8, 3, 6, 1, 8, 0, 8, -2, -2, -2, -2, -2, 3, 0, -2, 3, -2, -2, 2, -2, -2, 7, -2, 0, -2, -2, 4, -2, 6, 6, -2, -2, -2, 2, 6, 1, 1, -2, 0, 2, 8, -2, -2, -2, -2, 9, 2, 0, -2, -2, 3, 7, -2, -2, -2, -2, 5, 7, 0, -2, 6, -2, -2, -2, -2, 3, 5, 6, 9, 0, -2, 6, -2, -2, 1, -2, 0, -2, 7, -2, -2, 8, -2, -2, 2, 7, 2, -2, -2, -2, -2, -2, 6, 7, -2, -2, 1, 5, -2, 5, -2, -2, 0, -2, 1, 7, -2, -2, -2, -2, 1, 2, 1, 2, -2, -2, -2, 2, -2, 6, 0, -2, -2, -2, 6, 7, 3, 2, 6, -2, 9, -2, 3, -2, -2, 3, -2, -2, -2, -2, -2, 8, 0, -2, -2, 9, 0, 7, -2, -2, -2, -2, 4, 5, 2, 3, -2, -2, 8, 0, -2, -2, -2, 6, -2, 9, 9, -2, -2, -2, -2, 0, 9, 7, 5, 1, 3, 3, -2, 1, -2, -2, -2, 1, 9, -2, -2, -2, -2, 3, -2, 4, -2, 3, -2, 8, -2, 7, -2, -2, 3, 2, 1, 2, -2, -2, 3, 6, -2, 7, -2, 6, 5, 5, -2, -2, -2, 9, -2, -2, 4, 4, 2, 0, -2, 1, -2, 1, 9, -2, 0, -2, 6, -2, -2, -2, -2, 0, 6, 3, 1, -2, 7, -2, -2, -2, 1, -2, -2, 8, 3, -2, 1, -2, -2, -2, 1, -2, 5, 1, -2, 4, -2, -2, -2, 0, -2, 4, 9, 1, -2, -2, -2, -2, 0, 2, -2, 1, -2, -2, -2, 7, 2, 6, 9, -2, 9, -2, 2, -2, -2, 1, 8, -2, -2, -2, 9, -2, -2, 7, 7, 8, 9, -2, -2, -2, 2, 9, -2, -2, -2, 7, 0, 9, 8, 9, -2, 8, -2, 2, -2, -2, -2, -2, -2, 1, 6, -2, 7, -2, 8, -2, 3, -2, -2, 1, 9, 7, 2, -2, 0, 5, -2, -2, 9, -2, 4, 7, -2, 7, 8, 1, -2, -2, -2, -2, -2, 1, 6, 4, 4, 6, 0, -2, -2, -2, -2, -2, -2, -2, 8, -2, -2, 5, 9, -2, 2, 6, 9, -2, -2, 9, 3, -2, 6, -2, -2, -2, 5, -2, -2, -2, 0, 8, -2, 5, 6, 0, -2, -2, 8, 3, -2, -2, -2, -2, 6, 0, -2, -2, -2], "classes_": [0, 1], "value": [[1427.0, 1434.0], [492.0, 318.0], [385.0, 213.0], [327.0, 199.0], [181.0, 147.0], [159.0, 114.0], [147.0, 90.0], [42.0, 8.0], [6.0, 6.0], [4.0, 0.0], [2.0, 6.0], [1.0, 0.0], [1.0, 6.0], [1.0, 2.0], [0.0, 1.0], [1.0, 1.0], [1.0, 0.0], [0.0, 1.0], [0.0, 4.0], [36.0, 2.0], [35.0, 1.0], [3.0, 1.0], [3.0, 0.0], [0.0, 1.0], [32.0, 0.0], [1.0, 1.0], [1.0, 0.0], [0.0, 1.0], [105.0, 82.0], [10.0, 22.0], [1.0, 15.0], [0.0, 11.0], [1.0, 4.0], [1.0, 1.0], [1.0, 0.0], [0.0, 1.0], [0.0, 3.0], [9.0, 7.0], [4.0, 7.0], [1.0, 7.0], [1.0, 1.0], [1.0, 0.0], [0.0, 1.0], [0.0, 6.0], [3.0, 0.0], [5.0, 0.0], [95.0, 60.0], [27.0, 28.0], [4.0, 12.0], [2.0, 12.0], [0.0, 12.0], [2.0, 0.0], [2.0, 0.0], [23.0, 16.0], [16.0, 5.0], [9.0, 0.0], [7.0, 5.0], [7.0, 2.0], [4.0, 0.0], [3.0, 2.0], [2.0, 0.0], [1.0, 2.0], [0.0, 2.0], [1.0, 0.0], [0.0, 3.0], [7.0, 11.0], [6.0, 3.0], [4.0, 0.0], [2.0, 3.0], [2.0, 0.0], [0.0, 3.0], [1.0, 8.0], [0.0, 5.0], [1.0, 3.0], [0.0, 3.0], [1.0, 0.0], [68.0, 32.0], [16.0, 21.0], [2.0, 14.0], [1.0, 0.0], [1.0, 14.0], [0.0, 14.0], [1.0, 0.0], [14.0, 7.0], [13.0, 2.0], [1.0, 2.0], [0.0, 2.0], [1.0, 0.0], [12.0, 0.0], [1.0, 5.0], [0.0, 5.0], [1.0, 0.0], [52.0, 11.0], [20.0, 0.0], [32.0, 11.0], [19.0, 11.0], [18.0, 6.0], [0.0, 3.0], [18.0, 3.0], [0.0, 2.0], [18.0, 1.0], [2.0, 1.0], [0.0, 1.0], [2.0, 0.0], [16.0, 0.0], [1.0, 5.0], [1.0, 1.0], [1.0, 0.0], [0.0, 1.0], [0.0, 4.0], [13.0, 0.0], [12.0, 24.0], [7.0, 3.0], [1.0, 3.0], [1.0, 0.0], [0.0, 3.0], [6.0, 0.0], [5.0, 21.0], [2.0, 17.0], [1.0, 0.0], [1.0, 17.0], [0.0, 17.0], [1.0, 0.0], [3.0, 4.0], [3.0, 0.0], [0.0, 4.0], [22.0, 33.0], [8.0, 23.0], [0.0, 16.0], [8.0, 7.0], [7.0, 1.0], [0.0, 1.0], [7.0, 0.0], [1.0, 6.0], [1.0, 0.0], [0.0, 6.0], [14.0, 10.0], [14.0, 5.0], [14.0, 3.0], [1.0, 3.0], [0.0, 3.0], [1.0, 0.0], [13.0, 0.0], [0.0, 2.0], [0.0, 5.0], [146.0, 52.0], [91.0, 19.0], [79.0, 11.0], [0.0, 2.0], [79.0, 9.0], [1.0, 1.0], [0.0, 1.0], [1.0, 0.0], [78.0, 8.0], [31.0, 0.0], [47.0, 8.0], [0.0, 1.0], [47.0, 7.0], [5.0, 3.0], [0.0, 3.0], [5.0, 0.0], [42.0, 4.0], [33.0, 1.0], [27.0, 0.0], [6.0, 1.0], [4.0, 0.0], [2.0, 1.0], [0.0, 1.0], [2.0, 0.0], [9.0, 3.0], [9.0, 0.0], [0.0, 3.0], [12.0, 8.0], [6.0, 8.0], [1.0, 6.0], [1.0, 0.0], [0.0, 6.0], [5.0, 2.0], [0.0, 2.0], [5.0, 0.0], [6.0, 0.0], [55.0, 33.0], [0.0, 6.0], [55.0, 27.0], [48.0, 17.0], [3.0, 9.0], [0.0, 8.0], [3.0, 1.0], [1.0, 1.0], [1.0, 0.0], [0.0, 1.0], [2.0, 0.0], [45.0, 8.0], [30.0, 1.0], [30.0, 0.0], [0.0, 1.0], [15.0, 7.0], [14.0, 1.0], [13.0, 0.0], [1.0, 1.0], [0.0, 1.0], [1.0, 0.0], [1.0, 6.0], [0.0, 5.0], [1.0, 1.0], [0.0, 1.0], [1.0, 0.0], [7.0, 10.0], [7.0, 0.0], [0.0, 10.0], [58.0, 14.0], [51.0, 8.0], [20.0, 7.0], [20.0, 5.0], [16.0, 0.0], [4.0, 5.0], [4.0, 0.0], [0.0, 5.0], [0.0, 2.0], [31.0, 1.0], [30.0, 0.0], [1.0, 1.0], [0.0, 1.0], [1.0, 0.0], [7.0, 6.0], [5.0, 0.0], [2.0, 6.0], [1.0, 6.0], [0.0, 5.0], [1.0, 1.0], [1.0, 0.0], [0.0, 1.0], [1.0, 0.0], [107.0, 105.0], [102.0, 85.0], [64.0, 77.0], [22.0, 48.0], [20.0, 30.0], [12.0, 3.0], [0.0, 1.0], [12.0, 2.0], [1.0, 2.0], [1.0, 0.0], [0.0, 2.0], [11.0, 0.0], [8.0, 27.0], [7.0, 9.0], [7.0, 3.0], [7.0, 0.0], [0.0, 3.0], [0.0, 6.0], [1.0, 18.0], [0.0, 17.0], [1.0, 1.0], [0.0, 1.0], [1.0, 0.0], [2.0, 18.0], [2.0, 0.0], [0.0, 18.0], [42.0, 29.0], [3.0, 9.0], [2.0, 0.0], [1.0, 9.0], [0.0, 8.0], [1.0, 1.0], [0.0, 1.0], [1.0, 0.0], [39.0, 20.0], [8.0, 13.0], [3.0, 12.0], [2.0, 2.0], [2.0, 0.0], [0.0, 2.0], [1.0, 10.0], [0.0, 10.0], [1.0, 0.0], [5.0, 1.0], [0.0, 1.0], [5.0, 0.0], [31.0, 7.0], [8.0, 5.0], [3.0, 5.0], [3.0, 2.0], [3.0, 0.0], [0.0, 2.0], [0.0, 3.0], [5.0, 0.0], [23.0, 2.0], [0.0, 1.0], [23.0, 1.0], [20.0, 0.0], [3.0, 1.0], [3.0, 0.0], [0.0, 1.0], [38.0, 8.0], [0.0, 3.0], [38.0, 5.0], [1.0, 3.0], [0.0, 3.0], [1.0, 0.0], [37.0, 2.0], [37.0, 1.0], [2.0, 1.0], [0.0, 1.0], [2.0, 0.0], [35.0, 0.0], [0.0, 1.0], [5.0, 20.0], [5.0, 4.0], [0.0, 2.0], [5.0, 2.0], [5.0, 1.0], [1.0, 1.0], [0.0, 1.0], [1.0, 0.0], [4.0, 0.0], [0.0, 1.0], [0.0, 16.0], [935.0, 1116.0], [17.0, 1.0], [15.0, 0.0], [2.0, 1.0], [2.0, 0.0], [0.0, 1.0], [918.0, 1115.0], [193.0, 151.0], [16.0, 34.0], [4.0, 0.0], [12.0, 34.0], [2.0, 0.0], [10.0, 34.0], [9.0, 22.0], [3.0, 17.0], [0.0, 15.0], [3.0, 2.0], [3.0, 0.0], [0.0, 2.0], [6.0, 5.0], [6.0, 1.0], [6.0, 0.0], [0.0, 1.0], [0.0, 4.0], [1.0, 12.0], [0.0, 12.0], [1.0, 0.0], [177.0, 117.0], [69.0, 26.0], [55.0, 12.0], [2.0, 4.0], [2.0, 1.0], [2.0, 0.0], [0.0, 1.0], [0.0, 3.0], [53.0, 8.0], [48.0, 3.0], [22.0, 0.0], [26.0, 3.0], [0.0, 1.0], [26.0, 2.0], [1.0, 1.0], [1.0, 0.0], [0.0, 1.0], [25.0, 1.0], [25.0, 0.0], [0.0, 1.0], [5.0, 5.0], [5.0, 0.0], [0.0, 5.0], [14.0, 14.0], [10.0, 4.0], [7.0, 0.0], [3.0, 4.0], [3.0, 0.0], [0.0, 4.0], [4.0, 10.0], [3.0, 1.0], [0.0, 1.0], [3.0, 0.0], [1.0, 9.0], [0.0, 9.0], [1.0, 0.0], [108.0, 91.0], [25.0, 5.0], [0.0, 3.0], [25.0, 2.0], [24.0, 1.0], [0.0, 1.0], [24.0, 0.0], [1.0, 1.0], [0.0, 1.0], [1.0, 0.0], [83.0, 86.0], [44.0, 65.0], [28.0, 62.0], [25.0, 62.0], [5.0, 3.0], [5.0, 0.0], [0.0, 3.0], [20.0, 59.0], [14.0, 56.0], [9.0, 54.0], [5.0, 15.0], [2.0, 0.0], [3.0, 15.0], [1.0, 0.0], [2.0, 15.0], [2.0, 6.0], [2.0, 0.0], [0.0, 6.0], [0.0, 9.0], [4.0, 39.0], [0.0, 19.0], [4.0, 20.0], [0.0, 7.0], [4.0, 13.0], [4.0, 6.0], [1.0, 4.0], [0.0, 4.0], [1.0, 0.0], [3.0, 2.0], [2.0, 0.0], [1.0, 2.0], [1.0, 0.0], [0.0, 2.0], [0.0, 7.0], [5.0, 2.0], [2.0, 2.0], [0.0, 2.0], [2.0, 0.0], [3.0, 0.0], [6.0, 3.0], [1.0, 3.0], [0.0, 3.0], [1.0, 0.0], [5.0, 0.0], [3.0, 0.0], [16.0, 3.0], [16.0, 1.0], [1.0, 1.0], [1.0, 0.0], [0.0, 1.0], [15.0, 0.0], [0.0, 2.0], [39.0, 21.0], [0.0, 3.0], [39.0, 18.0], [28.0, 2.0], [3.0, 1.0], [0.0, 1.0], [3.0, 0.0], [25.0, 1.0], [19.0, 0.0], [6.0, 1.0], [5.0, 0.0], [1.0, 1.0], [1.0, 0.0], [0.0, 1.0], [11.0, 16.0], [9.0, 16.0], [2.0, 0.0], [7.0, 16.0], [4.0, 16.0], [1.0, 0.0], [3.0, 16.0], [0.0, 11.0], [3.0, 5.0], [3.0, 0.0], [0.0, 5.0], [3.0, 0.0], [2.0, 0.0], [725.0, 964.0], [135.0, 323.0], [6.0, 1.0], [6.0, 0.0], [0.0, 1.0], [129.0, 322.0], [11.0, 6.0], [6.0, 1.0], [6.0, 0.0], [0.0, 1.0], [5.0, 5.0], [3.0, 0.0], [2.0, 5.0], [0.0, 5.0], [2.0, 0.0], [118.0, 316.0], [18.0, 101.0], [16.0, 101.0], [2.0, 0.0], [14.0, 101.0], [14.0, 71.0], [8.0, 7.0], [8.0, 5.0], [8.0, 3.0], [0.0, 1.0], [8.0, 2.0], [4.0, 2.0], [4.0, 1.0], [0.0, 1.0], [4.0, 0.0], [0.0, 1.0], [4.0, 0.0], [0.0, 2.0], [0.0, 2.0], [6.0, 64.0], [1.0, 0.0], [5.0, 64.0], [4.0, 23.0], [4.0, 6.0], [2.0, 6.0], [0.0, 6.0], [2.0, 0.0], [2.0, 0.0], [0.0, 17.0], [1.0, 41.0], [1.0, 14.0], [1.0, 1.0], [1.0, 0.0], [0.0, 1.0], [0.0, 13.0], [0.0, 27.0], [0.0, 30.0], [2.0, 0.0], [100.0, 215.0], [91.0, 211.0], [7.0, 4.0], [6.0, 0.0], [1.0, 4.0], [0.0, 4.0], [1.0, 0.0], [84.0, 207.0], [38.0, 125.0], [2.0, 0.0], [36.0, 125.0], [18.0, 31.0], [5.0, 20.0], [4.0, 4.0], [0.0, 4.0], [4.0, 0.0], [1.0, 16.0], [0.0, 13.0], [1.0, 3.0], [1.0, 0.0], [0.0, 3.0], [13.0, 11.0], [9.0, 0.0], [4.0, 11.0], [0.0, 8.0], [4.0, 3.0], [4.0, 0.0], [0.0, 3.0], [18.0, 94.0], [13.0, 88.0], [7.0, 10.0], [6.0, 1.0], [0.0, 1.0], [6.0, 0.0], [1.0, 9.0], [0.0, 7.0], [1.0, 2.0], [1.0, 0.0], [0.0, 2.0], [6.0, 78.0], [5.0, 77.0], [0.0, 39.0], [5.0, 38.0], [0.0, 17.0], [5.0, 21.0], [4.0, 21.0], [1.0, 0.0], [3.0, 21.0], [0.0, 15.0], [3.0, 6.0], [3.0, 1.0], [0.0, 1.0], [3.0, 0.0], [0.0, 5.0], [1.0, 0.0], [1.0, 1.0], [0.0, 1.0], [1.0, 0.0], [5.0, 6.0], [0.0, 6.0], [5.0, 0.0], [46.0, 82.0], [33.0, 75.0], [17.0, 57.0], [10.0, 54.0], [5.0, 13.0], [2.0, 13.0], [1.0, 13.0], [0.0, 13.0], [1.0, 0.0], [1.0, 0.0], [3.0, 0.0], [5.0, 41.0], [0.0, 21.0], [5.0, 20.0], [0.0, 16.0], [5.0, 4.0], [0.0, 2.0], [5.0, 2.0], [5.0, 1.0], [5.0, 0.0], [0.0, 1.0], [0.0, 1.0], [7.0, 3.0], [7.0, 1.0], [0.0, 1.0], [7.0, 0.0], [0.0, 2.0], [16.0, 18.0], [8.0, 0.0], [8.0, 18.0], [5.0, 18.0], [5.0, 3.0], [0.0, 2.0], [5.0, 1.0], [5.0, 0.0], [0.0, 1.0], [0.0, 15.0], [3.0, 0.0], [13.0, 7.0], [13.0, 4.0], [7.0, 4.0], [2.0, 3.0], [0.0, 2.0], [2.0, 1.0], [2.0, 0.0], [0.0, 1.0], [5.0, 1.0], [5.0, 0.0], [0.0, 1.0], [6.0, 0.0], [0.0, 3.0], [9.0, 4.0], [9.0, 2.0], [0.0, 1.0], [9.0, 1.0], [9.0, 0.0], [0.0, 1.0], [0.0, 2.0], [590.0, 641.0], [556.0, 628.0], [252.0, 351.0], [22.0, 9.0], [19.0, 2.0], [18.0, 1.0], [5.0, 1.0], [0.0, 1.0], [5.0, 0.0], [13.0, 0.0], [1.0, 1.0], [1.0, 0.0], [0.0, 1.0], [3.0, 7.0], [3.0, 1.0], [3.0, 0.0], [0.0, 1.0], [0.0, 6.0], [230.0, 342.0], [199.0, 327.0], [191.0, 295.0], [167.0, 225.0], [43.0, 89.0], [40.0, 72.0], [14.0, 9.0], [0.0, 4.0], [14.0, 5.0], [7.0, 0.0], [7.0, 5.0], [2.0, 0.0], [5.0, 5.0], [2.0, 5.0], [0.0, 5.0], [2.0, 0.0], [3.0, 0.0], [26.0, 63.0], [25.0, 46.0], [18.0, 44.0], [11.0, 8.0], [10.0, 0.0], [1.0, 8.0], [0.0, 8.0], [1.0, 0.0], [7.0, 36.0], [4.0, 35.0], [2.0, 0.0], [2.0, 35.0], [2.0, 6.0], [1.0, 6.0], [1.0, 4.0], [0.0, 1.0], [1.0, 3.0], [0.0, 2.0], [1.0, 0.0], [0.0, 29.0], [3.0, 1.0], [3.0, 0.0], [0.0, 1.0], [7.0, 2.0], [6.0, 0.0], [1.0, 2.0], [0.0, 1.0], [1.0, 1.0], [1.0, 0.0], [0.0, 1.0], [1.0, 17.0], [1.0, 1.0], [0.0, 1.0], [1.0, 0.0], [0.0, 16.0], [3.0, 17.0], [2.0, 17.0], [1.0, 17.0], [0.0, 14.0], [1.0, 3.0], [0.0, 2.0], [1.0, 1.0], [0.0, 1.0], [1.0, 0.0], [1.0, 0.0], [1.0, 0.0], [124.0, 136.0], [124.0, 129.0], [117.0, 99.0], [58.0, 19.0], [36.0, 17.0], [24.0, 16.0], [4.0, 13.0], [3.0, 13.0], [3.0, 1.0], [1.0, 1.0], [0.0, 1.0], [1.0, 0.0], [2.0, 0.0], [0.0, 12.0], [1.0, 0.0], [20.0, 3.0], [17.0, 1.0], [16.0, 0.0], [1.0, 1.0], [0.0, 1.0], [1.0, 0.0], [3.0, 2.0], [0.0, 2.0], [3.0, 0.0], [12.0, 1.0], [9.0, 0.0], [3.0, 1.0], [3.0, 0.0], [0.0, 1.0], [22.0, 2.0], [0.0, 1.0], [22.0, 1.0], [4.0, 1.0], [4.0, 0.0], [0.0, 1.0], [18.0, 0.0], [59.0, 80.0], [41.0, 34.0], [22.0, 28.0], [5.0, 21.0], [2.0, 0.0], [3.0, 21.0], [3.0, 9.0], [3.0, 4.0], [3.0, 0.0], [0.0, 4.0], [0.0, 5.0], [0.0, 12.0], [17.0, 7.0], [17.0, 4.0], [1.0, 2.0], [0.0, 2.0], [1.0, 0.0], [16.0, 2.0], [16.0, 1.0], [16.0, 0.0], [0.0, 1.0], [0.0, 1.0], [0.0, 3.0], [19.0, 6.0], [19.0, 2.0], [4.0, 2.0], [3.0, 0.0], [1.0, 2.0], [0.0, 2.0], [1.0, 0.0], [15.0, 0.0], [0.0, 4.0], [18.0, 46.0], [16.0, 46.0], [10.0, 43.0], [9.0, 20.0], [6.0, 3.0], [5.0, 0.0], [1.0, 3.0], [0.0, 3.0], [1.0, 0.0], [3.0, 17.0], [0.0, 10.0], [3.0, 7.0], [2.0, 0.0], [1.0, 7.0], [0.0, 7.0], [1.0, 0.0], [1.0, 23.0], [1.0, 0.0], [0.0, 23.0], [6.0, 3.0], [6.0, 1.0], [1.0, 1.0], [0.0, 1.0], [1.0, 0.0], [5.0, 0.0], [0.0, 2.0], [2.0, 0.0], [7.0, 30.0], [3.0, 1.0], [0.0, 1.0], [3.0, 0.0], [4.0, 29.0], [1.0, 21.0], [0.0, 20.0], [1.0, 1.0], [1.0, 0.0], [0.0, 1.0], [3.0, 8.0], [2.0, 0.0], [1.0, 8.0], [1.0, 1.0], [1.0, 0.0], [0.0, 1.0], [0.0, 7.0], [0.0, 7.0], [24.0, 70.0], [7.0, 41.0], [4.0, 2.0], [4.0, 1.0], [0.0, 1.0], [4.0, 0.0], [0.0, 1.0], [3.0, 39.0], [0.0, 30.0], [3.0, 9.0], [3.0, 2.0], [3.0, 0.0], [0.0, 2.0], [0.0, 7.0], [17.0, 29.0], [11.0, 29.0], [11.0, 16.0], [7.0, 16.0], [3.0, 14.0], [2.0, 0.0], [1.0, 14.0], [0.0, 13.0], [1.0, 1.0], [0.0, 1.0], [1.0, 0.0], [4.0, 2.0], [4.0, 0.0], [0.0, 2.0], [4.0, 0.0], [0.0, 13.0], [6.0, 0.0], [8.0, 32.0], [1.0, 19.0], [1.0, 0.0], [0.0, 19.0], [7.0, 13.0], [7.0, 5.0], [7.0, 1.0], [7.0, 0.0], [0.0, 1.0], [0.0, 4.0], [0.0, 8.0], [31.0, 15.0], [17.0, 15.0], [5.0, 11.0], [3.0, 1.0], [0.0, 1.0], [3.0, 0.0], [2.0, 10.0], [1.0, 10.0], [0.0, 10.0], [1.0, 0.0], [1.0, 0.0], [12.0, 4.0], [9.0, 0.0], [3.0, 4.0], [3.0, 1.0], [0.0, 1.0], [3.0, 0.0], [0.0, 3.0], [14.0, 0.0], [304.0, 277.0], [184.0, 118.0], [37.0, 44.0], [10.0, 34.0], [8.0, 34.0], [3.0, 26.0], [1.0, 26.0], [0.0, 24.0], [1.0, 2.0], [0.0, 2.0], [1.0, 0.0], [2.0, 0.0], [5.0, 8.0], [5.0, 1.0], [5.0, 0.0], [0.0, 1.0], [0.0, 7.0], [2.0, 0.0], [27.0, 10.0], [14.0, 0.0], [13.0, 10.0], [0.0, 9.0], [13.0, 1.0], [7.0, 0.0], [6.0, 1.0], [5.0, 0.0], [1.0, 1.0], [1.0, 0.0], [0.0, 1.0], [147.0, 74.0], [143.0, 63.0], [86.0, 51.0], [21.0, 1.0], [0.0, 1.0], [21.0, 0.0], [65.0, 50.0], [6.0, 14.0], [0.0, 6.0], [6.0, 8.0], [3.0, 0.0], [3.0, 8.0], [1.0, 7.0], [1.0, 3.0], [0.0, 3.0], [1.0, 0.0], [0.0, 4.0], [2.0, 1.0], [0.0, 1.0], [2.0, 0.0], [59.0, 36.0], [31.0, 31.0], [21.0, 7.0], [21.0, 6.0], [10.0, 0.0], [11.0, 6.0], [4.0, 0.0], [7.0, 6.0], [3.0, 6.0], [2.0, 0.0], [1.0, 6.0], [0.0, 5.0], [1.0, 1.0], [0.0, 1.0], [1.0, 0.0], [4.0, 0.0], [0.0, 1.0], [10.0, 24.0], [5.0, 22.0], [2.0, 21.0], [2.0, 7.0], [1.0, 0.0], [1.0, 7.0], [0.0, 7.0], [1.0, 0.0], [0.0, 14.0], [3.0, 1.0], [3.0, 0.0], [0.0, 1.0], [5.0, 2.0], [1.0, 2.0], [0.0, 1.0], [1.0, 1.0], [1.0, 0.0], [0.0, 1.0], [4.0, 0.0], [28.0, 5.0], [0.0, 1.0], [28.0, 4.0], [28.0, 3.0], [23.0, 0.0], [5.0, 3.0], [5.0, 0.0], [0.0, 3.0], [0.0, 1.0], [57.0, 12.0], [0.0, 7.0], [57.0, 5.0], [57.0, 3.0], [10.0, 3.0], [10.0, 0.0], [0.0, 3.0], [47.0, 0.0], [0.0, 2.0], [4.0, 11.0], [2.0, 11.0], [0.0, 10.0], [2.0, 1.0], [0.0, 1.0], [2.0, 0.0], [2.0, 0.0], [120.0, 159.0], [11.0, 28.0], [5.0, 27.0], [4.0, 6.0], [3.0, 0.0], [1.0, 6.0], [0.0, 4.0], [1.0, 2.0], [0.0, 2.0], [1.0, 0.0], [1.0, 21.0], [1.0, 3.0], [0.0, 3.0], [1.0, 0.0], [0.0, 18.0], [6.0, 1.0], [0.0, 1.0], [6.0, 0.0], [109.0, 131.0], [21.0, 6.0], [16.0, 3.0], [2.0, 3.0], [2.0, 0.0], [0.0, 3.0], [14.0, 0.0], [5.0, 3.0], [5.0, 1.0], [0.0, 1.0], [5.0, 0.0], [0.0, 2.0], [88.0, 125.0], [6.0, 29.0], [4.0, 29.0], [4.0, 7.0], [4.0, 4.0], [0.0, 2.0], [4.0, 2.0], [3.0, 0.0], [1.0, 2.0], [1.0, 0.0], [0.0, 2.0], [0.0, 3.0], [0.0, 22.0], [2.0, 0.0], [82.0, 96.0], [7.0, 30.0], [4.0, 0.0], [3.0, 30.0], [0.0, 27.0], [3.0, 3.0], [0.0, 2.0], [3.0, 1.0], [0.0, 1.0], [3.0, 0.0], [75.0, 66.0], [61.0, 35.0], [59.0, 28.0], [43.0, 14.0], [0.0, 3.0], [43.0, 11.0], [22.0, 1.0], [22.0, 0.0], [0.0, 1.0], [21.0, 10.0], [0.0, 5.0], [21.0, 5.0], [5.0, 5.0], [3.0, 0.0], [2.0, 5.0], [1.0, 5.0], [1.0, 1.0], [0.0, 1.0], [1.0, 0.0], [0.0, 4.0], [1.0, 0.0], [16.0, 0.0], [16.0, 14.0], [9.0, 14.0], [9.0, 6.0], [9.0, 4.0], [4.0, 4.0], [1.0, 4.0], [0.0, 4.0], [1.0, 0.0], [3.0, 0.0], [5.0, 0.0], [0.0, 2.0], [0.0, 8.0], [7.0, 0.0], [2.0, 7.0], [0.0, 7.0], [2.0, 0.0], [14.0, 31.0], [12.0, 31.0], [6.0, 0.0], [6.0, 31.0], [3.0, 29.0], [1.0, 1.0], [0.0, 1.0], [1.0, 0.0], [2.0, 28.0], [1.0, 28.0], [0.0, 22.0], [1.0, 6.0], [0.0, 6.0], [1.0, 0.0], [1.0, 0.0], [3.0, 2.0], [3.0, 0.0], [0.0, 2.0], [2.0, 0.0], [34.0, 13.0], [12.0, 12.0], [5.0, 0.0], [7.0, 12.0], [4.0, 12.0], [3.0, 1.0], [0.0, 1.0], [3.0, 0.0], [1.0, 11.0], [1.0, 1.0], [0.0, 1.0], [1.0, 0.0], [0.0, 10.0], [3.0, 0.0], [22.0, 1.0], [1.0, 1.0], [0.0, 1.0], [1.0, 0.0], [21.0, 0.0]]}, {"children_left": [1, 2, 3, 4, 5, 6, -1, 8, 9, 10, 11, -1, 13, -1, 15, 16, -1, 18, -1, 20, -1, -1, 23, -1, 25, -1, -1, 28, -1, -1, -1, 32, 33, -1, 35, 36, 37, 38, -1, 40, -1, -1, -1, 44, -1, 46, -1, -1, -1, 50, 51, 52, -1, -1, 55, -1, 57, -1, -1, 60, 61, -1, -1, -1, 65, 66, 67, -1, 69, 70, 71, 72, -1, -1, 75, -1, 77, -1, 79, -1, -1, 82, -1, 84, -1, 86, -1, 88, 89, 90, -1, -1, -1, -1, 95, 96, -1, -1, 99, 100, -1, -1, -1, 104, 105, 106, -1, -1, -1, -1, 111, 112, -1, 114, -1, -1, 117, 118, 119, -1, -1, -1, 123, -1, 125, -1, -1, 128, 129, -1, 131, 132, -1, -1, 135, 136, 137, 138, 139, -1, -1, 142, -1, -1, -1, -1, 147, 148, 149, 150, -1, -1, -1, -1, 155, 156, -1, -1, -1, 160, 161, 162, 163, 164, -1, -1, 167, 168, 169, 170, 171, 172, -1, -1, -1, 176, -1, 178, -1, 180, -1, 182, -1, -1, 185, 186, -1, -1, -1, 190, -1, -1, -1, 194, -1, 196, 197, -1, -1, 200, 201, -1, -1, -1, 205, 206, 207, 208, 209, -1, -1, -1, -1, -1, -1, 216, 217, 218, -1, -1, -1, 222, 223, 224, 225, -1, 227, -1, 229, -1, -1, -1, 233, -1, 235, 236, 237, -1, -1, 240, -1, -1, 243, 244, -1, -1, 247, -1, 249, -1, -1, 252, -1, -1, 255, 256, 257, -1, 259, -1, 261, 262, -1, -1, 265, 266, 267, 268, -1, -1, -1, -1, -1, 274, 275, 276, -1, -1, 279, 280, -1, -1, -1, -1, 285, -1, 287, 288, -1, 290, -1, -1, -1, 294, 295, 296, 297, -1, -1, 300, 301, 302, 303, -1, 305, -1, -1, 308, 309, -1, 311, -1, -1, -1, -1, 316, 317, 318, -1, 320, 321, -1, -1, 324, -1, -1, -1, 328, 329, -1, -1, -1, -1, 334, 335, 336, 337, -1, 339, -1, 341, -1, -1, 344, 345, 346, 347, -1, 349, -1, -1, -1, 353, 354, -1, -1, -1, 358, -1, 360, -1, -1, 363, 364, 365, 366, -1, 368, -1, -1, -1, -1, -1, 374, 375, -1, 377, -1, 379, 380, 381, -1, -1, 384, 385, -1, -1, -1, 389, 390, 391, -1, 393, 394, -1, 396, -1, -1, -1, 400, 401, 402, -1, 404, -1, 406, -1, -1, -1, 410, -1, -1, 413, -1, -1, 416, 417, 418, -1, 420, -1, -1, 423, -1, 425, -1, -1, 428, -1, 430, 431, -1, -1, -1, 435, 436, 437, 438, 439, 440, 441, -1, -1, -1, 445, 446, -1, 448, -1, -1, 451, 452, -1, 454, 455, 456, 457, 458, -1, 460, -1, -1, -1, -1, -1, -1, 467, 468, 469, 470, 471, -1, 473, 474, -1, -1, -1, -1, 479, 480, 481, -1, -1, 484, -1, 486, -1, 488, -1, 490, -1, -1, 493, -1, -1, -1, 497, 498, 499, -1, -1, -1, 503, -1, -1, 506, 507, 508, -1, 510, 511, 512, 513, 514, -1, 516, 517, 518, -1, -1, -1, -1, -1, -1, -1, -1, 527, -1, 529, 530, -1, -1, 533, -1, -1, 536, -1, 538, 539, -1, -1, 542, 543, -1, 545, 546, 547, -1, -1, -1, -1, -1, 553, 554, 555, 556, 557, 558, 559, 560, -1, -1, -1, 564, -1, -1, 567, 568, -1, 570, -1, 572, -1, -1, -1, 576, 577, 578, 579, -1, 581, 582, 583, 584, -1, -1, -1, 588, -1, 590, 591, 592, 593, -1, -1, -1, 597, -1, 599, -1, -1, -1, -1, -1, -1, 606, 607, 608, -1, 610, 611, 612, -1, 614, -1, -1, 617, -1, -1, 620, -1, 622, -1, -1, -1, 626, 627, -1, -1, 630, -1, 632, 633, -1, 635, -1, 637, -1, -1, 640, -1, -1, 643, 644, 645, -1, 647, -1, -1, -1, -1, 652, 653, 654, -1, -1, 657, 658, -1, -1, -1, -1, 663, 664, 665, 666, 667, 668, 669, -1, -1, 672, -1, -1, 675, 676, -1, 678, 679, -1, -1, -1, 683, 684, -1, 686, -1, 688, -1, -1, -1, 692, 693, -1, -1, -1, 697, 698, 699, 700, -1, -1, 703, -1, -1, -1, 707, -1, -1, 710, 711, 712, 713, -1, 715, -1, -1, -1, 719, 720, -1, -1, -1, 724, 725, -1, -1, 728, 729, 730, 731, -1, -1, 734, -1, -1, -1, -1, 739, 740, 741, 742, 743, 744, 745, 746, 747, -1, -1, -1, 751, 752, -1, -1, -1, 756, -1, -1, -1, -1, -1, 762, -1, -1, 765, 766, 767, -1, 769, -1, 771, -1, 773, -1, 775, -1, -1, 778, -1, -1, -1, 782, 783, 784, 785, 786, 787, 788, 789, -1, -1, -1, 793, -1, -1, 796, -1, 798, 799, 800, -1, 802, -1, -1, 805, -1, -1, -1, 809, -1, 811, -1, -1, 814, 815, -1, 817, 818, -1, -1, -1, 822, 823, -1, 825, 826, -1, -1, 829, 830, -1, -1, -1, -1, 835, 836, 837, 838, 839, -1, 841, -1, 843, -1, -1, 846, -1, 848, -1, -1, 851, 852, 853, 854, -1, -1, 857, -1, 859, -1, 861, 862, -1, 864, -1, 866, -1, 868, -1, -1, 871, -1, -1, 874, 875, 876, 877, 878, 879, 880, 881, 882, -1, 884, 885, -1, -1, -1, 889, -1, 891, -1, -1, -1, 895, -1, -1, -1, 899, -1, 901, 902, -1, 904, -1, 906, -1, -1, 909, 910, -1, -1, -1, 914, 915, -1, 917, 918, 919, -1, 921, 922, -1, -1, -1, -1, -1, 928, -1, 930, 931, -1, 933, -1, 935, -1, -1, -1, 939, -1, 941, 942, -1, -1, 945, -1, 947, -1, -1, 950, -1, 952, 953, 954, 955, -1, -1, -1, 959, -1, -1, 962, -1, 964, 965, -1, -1, -1, 969, 970, -1, -1, 973, -1, 975, -1, -1, 978, 979, -1, 981, 982, 983, -1, -1, -1, 987, -1, -1, 990, -1, 992, 993, -1, 995, 996, -1, -1, 999, -1, -1, -1, 1003, 1004, -1, 1006, 1007, 1008, -1, -1, -1, -1, 1013, 1014, -1, 1016, -1, -1, 1019, -1, 1021, 1022, -1, -1, 1025, 1026, -1, 1028, -1, -1, 1031, -1, 1033, -1, -1, 1036, 1037, 1038, 1039, 1040, -1, 1042, -1, 1044, -1, -1, -1, -1, 1049, 1050, 1051, 1052, -1, -1, -1, 1056, -1, 1058, 1059, -1, -1, -1, 1063, 1064, 1065, -1, -1, 1068, 1069, -1, 1071, -1, -1, -1, -1, 1076, 1077, -1, -1, 1080, 1081, -1, 1083, 1084, -1, -1, 1087, 1088, -1, 1090, -1, -1, -1, -1, 1095, 1096, -1, 1098, 1099, -1, 1101, -1, -1, 1104, -1, 1106, 1107, 1108, 1109, -1, -1, -1, 1113, -1, -1, -1, 1117, 1118, -1, 1120, -1, -1, 1123, 1124, 1125, -1, -1, -1, 1129, -1, 1131, -1, 1133, 1134, 1135, -1, -1, -1, 1139, 1140, -1, 1142, 1143, 1144, -1, -1, 1147, 1148, -1, -1, -1, -1, 1153, 1154, -1, -1, -1], "children_right": [434, 293, 254, 127, 64, 7, -1, 31, 30, 27, 12, -1, 14, -1, 22, 17, -1, 19, -1, 21, -1, -1, 24, -1, 26, -1, -1, 29, -1, -1, -1, 49, 34, -1, 48, 43, 42, 39, -1, 41, -1, -1, -1, 45, -1, 47, -1, -1, -1, 59, 54, 53, -1, -1, 56, -1, 58, -1, -1, 63, 62, -1, -1, -1, 110, 103, 68, -1, 94, 81, 74, 73, -1, -1, 76, -1, 78, -1, 80, -1, -1, 83, -1, 85, -1, 87, -1, 93, 92, 91, -1, -1, -1, -1, 98, 97, -1, -1, 102, 101, -1, -1, -1, 109, 108, 107, -1, -1, -1, -1, 116, 113, -1, 115, -1, -1, 122, 121, 120, -1, -1, -1, 124, -1, 126, -1, -1, 159, 130, -1, 134, 133, -1, -1, 146, 145, 144, 141, 140, -1, -1, 143, -1, -1, -1, -1, 154, 153, 152, 151, -1, -1, -1, -1, 158, 157, -1, -1, -1, 215, 204, 193, 166, 165, -1, -1, 192, 189, 184, 175, 174, 173, -1, -1, -1, 177, -1, 179, -1, 181, -1, 183, -1, -1, 188, 187, -1, -1, -1, 191, -1, -1, -1, 195, -1, 199, 198, -1, -1, 203, 202, -1, -1, -1, 214, 213, 212, 211, 210, -1, -1, -1, -1, -1, -1, 221, 220, 219, -1, -1, -1, 251, 232, 231, 226, -1, 228, -1, 230, -1, -1, -1, 234, -1, 242, 239, 238, -1, -1, 241, -1, -1, 246, 245, -1, -1, 248, -1, 250, -1, -1, 253, -1, -1, 284, 273, 258, -1, 260, -1, 264, 263, -1, -1, 272, 271, 270, 269, -1, -1, -1, -1, -1, 283, 278, 277, -1, -1, 282, 281, -1, -1, -1, -1, 286, -1, 292, 289, -1, 291, -1, -1, -1, 333, 332, 299, 298, -1, -1, 315, 314, 307, 304, -1, 306, -1, -1, 313, 310, -1, 312, -1, -1, -1, -1, 327, 326, 319, -1, 323, 322, -1, -1, 325, -1, -1, -1, 331, 330, -1, -1, -1, -1, 373, 362, 343, 338, -1, 340, -1, 342, -1, -1, 357, 352, 351, 348, -1, 350, -1, -1, -1, 356, 355, -1, -1, -1, 359, -1, 361, -1, -1, 372, 371, 370, 367, -1, 369, -1, -1, -1, -1, -1, 415, 376, -1, 378, -1, 388, 383, 382, -1, -1, 387, 386, -1, -1, -1, 412, 399, 392, -1, 398, 395, -1, 397, -1, -1, -1, 409, 408, 403, -1, 405, -1, 407, -1, -1, -1, 411, -1, -1, 414, -1, -1, 427, 422, 419, -1, 421, -1, -1, 424, -1, 426, -1, -1, 429, -1, 433, 432, -1, -1, -1, 1094, 781, 552, 505, 444, 443, 442, -1, -1, -1, 450, 447, -1, 449, -1, -1, 466, 453, -1, 465, 464, 463, 462, 459, -1, 461, -1, -1, -1, -1, -1, -1, 496, 495, 478, 477, 472, -1, 476, 475, -1, -1, -1, -1, 492, 483, 482, -1, -1, 485, -1, 487, -1, 489, -1, 491, -1, -1, 494, -1, -1, -1, 502, 501, 500, -1, -1, -1, 504, -1, -1, 535, 526, 509, -1, 525, 524, 523, 522, 515, -1, 521, 520, 519, -1, -1, -1, -1, -1, -1, -1, -1, 528, -1, 532, 531, -1, -1, 534, -1, -1, 537, -1, 541, 540, -1, -1, 551, 544, -1, 550, 549, 548, -1, -1, -1, -1, -1, 662, 651, 642, 575, 566, 563, 562, 561, -1, -1, -1, 565, -1, -1, 574, 569, -1, 571, -1, 573, -1, -1, -1, 605, 604, 603, 580, -1, 602, 587, 586, 585, -1, -1, -1, 589, -1, 601, 596, 595, 594, -1, -1, -1, 598, -1, 600, -1, -1, -1, -1, -1, -1, 625, 624, 609, -1, 619, 616, 613, -1, 615, -1, -1, 618, -1, -1, 621, -1, 623, -1, -1, -1, 629, 628, -1, -1, 631, -1, 639, 634, -1, 636, -1, 638, -1, -1, 641, -1, -1, 650, 649, 646, -1, 648, -1, -1, -1, -1, 661, 656, 655, -1, -1, 660, 659, -1, -1, -1, -1, 738, 709, 696, 691, 674, 671, 670, -1, -1, 673, -1, -1, 682, 677, -1, 681, 680, -1, -1, -1, 690, 685, -1, 687, -1, 689, -1, -1, -1, 695, 694, -1, -1, -1, 706, 705, 702, 701, -1, -1, 704, -1, -1, -1, 708, -1, -1, 723, 718, 717, 714, -1, 716, -1, -1, -1, 722, 721, -1, -1, -1, 727, 726, -1, -1, 737, 736, 733, 732, -1, -1, 735, -1, -1, -1, -1, 764, 761, 760, 759, 758, 755, 750, 749, 748, -1, -1, -1, 754, 753, -1, -1, -1, 757, -1, -1, -1, -1, -1, 763, -1, -1, 780, 777, 768, -1, 770, -1, 772, -1, 774, -1, 776, -1, -1, 779, -1, -1, -1, 1035, 834, 813, 808, 795, 792, 791, 790, -1, -1, -1, 794, -1, -1, 797, -1, 807, 804, 801, -1, 803, -1, -1, 806, -1, -1, -1, 810, -1, 812, -1, -1, 821, 816, -1, 820, 819, -1, -1, -1, 833, 824, -1, 828, 827, -1, -1, 832, 831, -1, -1, -1, -1, 1002, 977, 850, 845, 840, -1, 842, -1, 844, -1, -1, 847, -1, 849, -1, -1, 968, 873, 856, 855, -1, -1, 858, -1, 860, -1, 870, 863, -1, 865, -1, 867, -1, 869, -1, -1, 872, -1, -1, 949, 938, 913, 898, 897, 894, 893, 888, 883, -1, 887, 886, -1, -1, -1, 890, -1, 892, -1, -1, -1, 896, -1, -1, -1, 900, -1, 908, 903, -1, 905, -1, 907, -1, -1, 912, 911, -1, -1, -1, 927, 916, -1, 926, 925, 920, -1, 924, 923, -1, -1, -1, -1, -1, 929, -1, 937, 932, -1, 934, -1, 936, -1, -1, -1, 940, -1, 944, 943, -1, -1, 946, -1, 948, -1, -1, 951, -1, 961, 958, 957, 956, -1, -1, -1, 960, -1, -1, 963, -1, 967, 966, -1, -1, -1, 972, 971, -1, -1, 974, -1, 976, -1, -1, 989, 980, -1, 986, 985, 984, -1, -1, -1, 988, -1, -1, 991, -1, 1001, 994, -1, 998, 997, -1, -1, 1000, -1, -1, -1, 1012, 1005, -1, 1011, 1010, 1009, -1, -1, -1, -1, 1018, 1015, -1, 1017, -1, -1, 1020, -1, 1024, 1023, -1, -1, 1030, 1027, -1, 1029, -1, -1, 1032, -1, 1034, -1, -1, 1075, 1048, 1047, 1046, 1041, -1, 1043, -1, 1045, -1, -1, -1, -1, 1062, 1055, 1054, 1053, -1, -1, -1, 1057, -1, 1061, 1060, -1, -1, -1, 1074, 1067, 1066, -1, -1, 1073, 1070, -1, 1072, -1, -1, -1, -1, 1079, 1078, -1, -1, 1093, 1082, -1, 1086, 1085, -1, -1, 1092, 1089, -1, 1091, -1, -1, -1, -1, 1116, 1097, -1, 1103, 1100, -1, 1102, -1, -1, 1105, -1, 1115, 1112, 1111, 1110, -1, -1, -1, 1114, -1, -1, -1, 1122, 1119, -1, 1121, -1, -1, 1128, 1127, 1126, -1, -1, -1, 1130, -1, 1132, -1, 1138, 1137, 1136, -1, -1, -1, 1152, 1141, -1, 1151, 1146, 1145, -1, -1, 1150, 1149, -1, -1, -1, -1, 1156, 1155, -1, -1, -1], "threshold": [33.5, 128.5, 1018.5, 2.950000047683716, 47.0, 20.5, -2.0, 67.5, 111.5, 1015.5, 990.0, -2.0, -26.0, -2.0, 1008.5, 13.5, -2.0, 1.5999999642372131, -2.0, 56.5, -2.0, -2.0, 29.0, -2.0, -96.5, -2.0, -2.0, 15.5, -2.0, -2.0, -2.0, 0.4699999988079071, 0.7549999952316284, -2.0, 95.0, 19.5, 12.0, 0.044999999925494194, -2.0, 84.0, -2.0, -2.0, -2.0, 0.39499999582767487, -2.0, 0.4300000071525574, -2.0, -2.0, -2.0, 24.0, 1.5, 219.0, -2.0, -2.0, 0.7350000143051147, -2.0, 21.0, -2.0, -2.0, 68.0, 73.5, -2.0, -2.0, -2.0, 122.0, 314.0, 0.45500001311302185, -2.0, 158.5, 0.06499999947845936, -90.0, 76.5, -2.0, -2.0, 1.600000023841858, -2.0, 11.0, -2.0, 87.0, -2.0, -2.0, 1001.5, -2.0, -89.5, -2.0, 15.5, -2.0, 2.5, 17.5, 22.5, -2.0, -2.0, -2.0, -2.0, -10.5, 24.0, -2.0, -2.0, 54.5, 83.0, -2.0, -2.0, -2.0, 2.3000000715255737, 351.5, 25.5, -2.0, -2.0, -2.0, -2.0, 1.199999988079071, 17.0, -2.0, 85.0, -2.0, -2.0, 91.5, 125.5, 75.0, -2.0, -2.0, -2.0, 124.0, -2.0, 1.9500000476837158, -2.0, -2.0, 54.0, 13.5, -2.0, 3.149999976158142, 82.0, -2.0, -2.0, 0.5, 41.0, 36.0, 33.0, -110.5, -2.0, -2.0, 1010.0, -2.0, -2.0, -2.0, -2.0, 20.0, 1015.0, 4.200000047683716, 4.0, -2.0, -2.0, -2.0, -2.0, 22.5, 28.0, -2.0, -2.0, -2.0, 76.5, 120.5, 181.0, 1006.0, 8.5, -2.0, -2.0, 1016.5, 0.7849999964237213, 78.0, 7.5, 0.019999999552965164, 3.5, -2.0, -2.0, -2.0, 28.5, -2.0, 36.0, -2.0, 87.0, -2.0, 30.0, -2.0, -2.0, 90.5, 18.5, -2.0, -2.0, -2.0, 0.9050000011920929, -2.0, -2.0, -2.0, 3.0, -2.0, 15.0, 272.5, -2.0, -2.0, 0.2849999964237213, 27.0, -2.0, -2.0, -2.0, 92.5, 30.5, 6.099999904632568, 9.5, 4.549999952316284, -2.0, -2.0, -2.0, -2.0, -2.0, -2.0, 33.5, 81.0, 79.5, -2.0, -2.0, -2.0, 0.9449999928474426, 3.549999952316284, 3.350000023841858, 57.5, -2.0, 12.5, -2.0, 84.5, -2.0, -2.0, -2.0, -96.5, -2.0, 4.75, 23.0, 0.8649999797344208, -2.0, -2.0, 288.5, -2.0, -2.0, 107.0, 70.0, -2.0, -2.0, 330.0, -2.0, 17.0, -2.0, -2.0, 87.5, -2.0, -2.0, 76.0, 21.0, -97.0, -2.0, -66.0, -2.0, 8.0, -32.5, -2.0, -2.0, 3.450000047683716, 345.5, 10.0, 1.8499999642372131, -2.0, -2.0, -2.0, -2.0, -2.0, 0.4449999928474426, 3.0, -0.5, -2.0, -2.0, 37.5, 22.5, -2.0, -2.0, -2.0, -2.0, -88.0, -2.0, -21.5, 2.1100000143051147, -2.0, 337.0, -2.0, -2.0, -2.0, 147.5, 0.9950000047683716, 14.5, -27.5, -2.0, -2.0, 140.5, 304.0, 15.5, 18.0, -2.0, 23.0, -2.0, -2.0, 87.5, 41.5, -2.0, 4.450000047683716, -2.0, -2.0, -2.0, -2.0, 6.5, 4.050000071525574, -37.0, -2.0, -35.5, 32.5, -2.0, -2.0, 22.5, -2.0, -2.0, -2.0, 48.0, 43.5, -2.0, -2.0, -2.0, -2.0, -34.5, 3.899999976158142, 15.5, 41.5, -2.0, 11.0, -2.0, 301.0, -2.0, -2.0, 20.5, 0.32999999821186066, 1015.5, 32.5, -2.0, 1.899999976158142, -2.0, -2.0, -2.0, 118.0, 0.8899999856948853, -2.0, -2.0, -2.0, 0.03999999910593033, -2.0, 1.1600000262260437, -2.0, -2.0, 6.799999952316284, 1022.0, 5.450000047683716, 20.5, -2.0, 0.009999999776482582, -2.0, -2.0, -2.0, -2.0, -2.0, 152.5, 1005.5, -2.0, 26.0, -2.0, 15.5, 1019.5, 335.5, -2.0, -2.0, 79.5, 1029.5, -2.0, -2.0, -2.0, 89.5, 3.5, 121.0, -2.0, 0.8700000047683716, 2.5, -2.0, 299.5, -2.0, -2.0, -2.0, -33.5, 6.650000095367432, 31.0, -2.0, 0.2199999988079071, -2.0, 0.23499999940395355, -2.0, -2.0, -2.0, 1006.5, -2.0, -2.0, 0.6450000107288361, -2.0, -2.0, 17.5, 9.5, 27.0, -2.0, 42.5, -2.0, -2.0, 16.0, -2.0, 74.0, -2.0, -2.0, 19.0, -2.0, 1011.0, 16.5, -2.0, -2.0, -2.0, 1023.5, 125.5, 17.5, 13.5, -103.5, 50.5, 14.0, -2.0, -2.0, -2.0, 37.5, 1014.0, -2.0, 3.5, -2.0, -2.0, -78.0, 0.5, -2.0, -79.5, 87.5, 5.8500001430511475, 17.0, 1006.5, -2.0, 11.5, -2.0, -2.0, -2.0, -2.0, -2.0, -2.0, 92.5, 87.5, 1014.5, 3.5, 120.5, -2.0, 16.5, -1.5, -2.0, -2.0, -2.0, -2.0, 73.5, 40.5, 0.014999999664723873, -2.0, -2.0, 0.2800000011920929, -2.0, 69.5, -2.0, 1019.5, -2.0, 20.5, -2.0, -2.0, 9.0, -2.0, -2.0, -2.0, 17.5, 13.5, 51.5, -2.0, -2.0, -2.0, 106.5, -2.0, -2.0, 79.0, 3.649999976158142, 16.5, -2.0, 1022.5, 45.5, 16.5, 19.5, 56.0, -2.0, 0.43000001460313797, 0.019999999552965164, 69.5, -2.0, -2.0, -2.0, -2.0, -2.0, -2.0, -2.0, -2.0, 1001.5, -2.0, 1017.5, 51.5, -2.0, -2.0, 83.0, -2.0, -2.0, 37.0, -2.0, 8.650000095367432, 1008.0, -2.0, -2.0, 0.7750000059604645, 0.019999999552965164, -2.0, 20.0, 77.5, 1017.5, -2.0, -2.0, -2.0, -2.0, -2.0, 2.950000047683716, 47.5, 28.5, 19.5, 2.3000000715255737, 83.5, 51.0, 52.5, -2.0, -2.0, -2.0, 15.5, -2.0, -2.0, 2.75, 4.5, -2.0, 1014.5, -2.0, -26.5, -2.0, -2.0, -2.0, 18.5, 19.5, 25.5, 72.5, -2.0, 76.0, 40.5, 1012.5, 38.0, -2.0, -2.0, -2.0, 1008.5, -2.0, 1016.5, 37.5, 0.3100000023841858, 1014.0, -2.0, -2.0, -2.0, 39.5, -2.0, 33.0, -2.0, -2.0, -2.0, -2.0, -2.0, -2.0, -37.0, 97.5, 0.8449999988079071, -2.0, 83.5, 1020.5, 27.5, -2.0, 41.5, -2.0, -2.0, 2.0, -2.0, -2.0, -82.5, -2.0, 22.5, -2.0, -2.0, -2.0, 80.5, 37.0, -2.0, -2.0, 0.9900000095367432, -2.0, 87.5, 1009.0, -2.0, 0.38499998301267624, -2.0, 23.0, -2.0, -2.0, 22.0, -2.0, -2.0, 0.2850000038743019, 44.0, 2.5, -2.0, 1014.0, -2.0, -2.0, -2.0, -2.0, 124.5, 10.0, 65.5, -2.0, -2.0, 1013.5, 35.5, -2.0, -2.0, -2.0, -2.0, 62.5, 26.5, 17.5, 65.0, 3.600000023841858, 22.5, 41.0, -2.0, -2.0, 53.0, -2.0, -2.0, 45.5, 19.0, -2.0, 0.10000000149011612, 1014.0, -2.0, -2.0, -2.0, 10.0, 1009.5, -2.0, 1014.0, -2.0, 47.0, -2.0, -2.0, -2.0, -40.5, 38.0, -2.0, -2.0, -2.0, 78.0, 15.0, 100.5, 41.5, -2.0, -2.0, 3.9999998807907104, -2.0, -2.0, -2.0, 40.5, -2.0, -2.0, 1.5, 0.07500000298023224, 14.0, 12.5, -2.0, 114.0, -2.0, -2.0, -2.0, 29.0, 1014.5, -2.0, -2.0, -2.0, 6.5, 3.549999952316284, -2.0, -2.0, 51.0, 40.0, 1010.5, 35.0, -2.0, -2.0, 1014.5, -2.0, -2.0, -2.0, -2.0, 18.5, 0.7400000095367432, 5.25, 28.5, 4.5, 22.5, 113.0, 0.03999999910593033, 90.5, -2.0, -2.0, -2.0, 4.75, 13.5, -2.0, -2.0, -2.0, 4.599999904632568, -2.0, -2.0, -2.0, -2.0, -2.0, 115.0, -2.0, -2.0, 74.0, 24.5, 26.0, -2.0, 57.5, -2.0, 74.5, -2.0, 28.0, -2.0, 90.5, -2.0, -2.0, 85.5, -2.0, -2.0, -2.0, 5.3500001430511475, 38.5, 1015.5, 0.39499999582767487, 152.5, 27.5, 4.5, 37.0, -2.0, -2.0, -2.0, 1014.5, -2.0, -2.0, 22.5, -2.0, 12.5, 15.5, -25.5, -2.0, 34.0, -2.0, -2.0, 179.0, -2.0, -2.0, -2.0, 50.0, -2.0, 37.5, -2.0, -2.0, 2.100000023841858, 302.0, -2.0, 0.7150000184774399, 45.0, -2.0, -2.0, -2.0, 37.5, 5.0, -2.0, -90.5, -118.0, -2.0, -2.0, 279.0, 0.17999999690800905, -2.0, -2.0, -2.0, -2.0, 99.5, 203.0, 127.5, 3.5, 9.5, -2.0, 50.5, -2.0, 0.6149999797344208, -2.0, -2.0, 3.950000047683716, -2.0, 45.0, -2.0, -2.0, 54.5, 1009.5, 18.5, 3.200000047683716, -2.0, -2.0, -108.5, -2.0, 1006.5, -2.0, 25.5, 15.5, -2.0, 1.550000011920929, -2.0, 3.0, -2.0, 22.5, -2.0, -2.0, 41.5, -2.0, -2.0, 175.5, 20.5, 150.0, 41.5, 17.5, 0.014999999664723873, 50.5, 10.0, 39.0, -2.0, 3.799999952316284, 30.5, -2.0, -2.0, -2.0, 9.0, -2.0, 1.9000000357627869, -2.0, -2.0, -2.0, 16.5, -2.0, -2.0, -2.0, 63.0, -2.0, 141.0, 13.0, -2.0, 58.0, -2.0, 4.0, -2.0, -2.0, 2.050000011920929, 87.0, -2.0, -2.0, -2.0, 13.5, 35.0, -2.0, 50.5, 12.5, 1013.5, -2.0, 25.5, 21.0, -2.0, -2.0, -2.0, -2.0, -2.0, 2.25, -2.0, 77.0, 16.5, -2.0, 165.0, -2.0, 59.5, -2.0, -2.0, -2.0, 6.0, -2.0, 145.5, 98.0, -2.0, -2.0, 1.0100000202655792, -2.0, 23.5, -2.0, -2.0, 16.5, -2.0, -1.5, 189.0, 20.5, 4.5, -2.0, -2.0, -2.0, 13.0, -2.0, -2.0, 18.0, -2.0, 1013.5, 12.0, -2.0, -2.0, -2.0, 1008.0, 0.4000000134110451, -2.0, -2.0, 67.5, -2.0, 19.5, -2.0, -2.0, 250.0, 16.5, -2.0, 1020.0, 18.5, 16.5, -2.0, -2.0, -2.0, -2.0, -2.0, -2.0, -117.5, -2.0, 3.75, 39.5, -2.0, 76.5, 3.25, -2.0, -2.0, 85.0, -2.0, -2.0, -2.0, 45.0, 0.8499999642372131, -2.0, 0.029999999329447746, 174.5, 62.5, -2.0, -2.0, -2.0, -2.0, -72.0, 1.350000023841858, -2.0, 151.0, -2.0, -2.0, 8.100000143051147, -2.0, 55.5, 1015.5, -2.0, -2.0, 0.804999977350235, 196.5, -2.0, 3.149999976158142, -2.0, -2.0, 14.0, -2.0, 1013.0, -2.0, -2.0, 90.0, 18.5, 7.75, 16.5, -61.5, -2.0, 39.0, -2.0, 1017.0, -2.0, -2.0, -2.0, -2.0, 0.4350000023841858, 18.5, 19.0, 7.0, -2.0, -2.0, -2.0, 65.5, -2.0, 1011.5, 7.799999952316284, -2.0, -2.0, -2.0, 19.5, 72.0, 50.5, -2.0, -2.0, 93.5, 198.0, -2.0, 12.0, -2.0, -2.0, -2.0, -2.0, 146.5, 95.0, -2.0, -2.0, 19.0, 1009.0, -2.0, 1015.5, 99.5, -2.0, -2.0, 54.0, 158.5, -2.0, 96.0, -2.0, -2.0, -2.0, -2.0, -72.5, 17.0, -2.0, 83.5, 63.0, -2.0, 37.0, -2.0, -2.0, 31.5, -2.0, 0.8599999845027924, -106.0, 10.5, 5.5, -2.0, -2.0, -2.0, -87.5, -2.0, -2.0, -2.0, 5.050000190734863, 2.399999976158142, -2.0, 11.5, -2.0, -2.0, 47.0, 1.5, 23.5, -2.0, -2.0, -2.0, 50.5, -2.0, 56.0, -2.0, -8.5, -40.0, 1029.5, -2.0, -2.0, -2.0, 80.0, 47.5, -2.0, 63.0, -1.5, 4.900000095367432, -2.0, -2.0, 78.0, 4.5000001192092896, -2.0, -2.0, -2.0, -2.0, 78.0, 67.5, -2.0, -2.0, -2.0], "feature": [0, 1, 8, 4, 7, 3, -2, 6, 1, 8, 8, -2, 0, -2, 8, 2, -2, 4, -2, 1, -2, -2, 0, -2, 1, -2, -2, 2, -2, -2, -2, 5, 4, -2, 6, 7, 7, 5, -2, 9, -2, -2, -2, 5, -2, 5, -2, -2, -2, 7, 4, 9, -2, -2, 5, -2, 7, -2, -2, 9, 6, -2, -2, -2, 1, 9, 4, -2, 9, 5, 1, 9, -2, -2, 4, -2, 0, -2, 6, -2, -2, 8, -2, 1, -2, 0, -2, 4, 0, 2, -2, -2, -2, -2, 0, 3, -2, -2, 7, 6, -2, -2, -2, 4, 9, 3, -2, -2, -2, -2, 4, 2, -2, 6, -2, -2, 7, 1, 6, -2, -2, -2, 1, -2, 4, -2, -2, 6, 9, -2, 4, 9, -2, -2, 7, 6, 3, 1, 1, -2, -2, 8, -2, -2, -2, -2, 0, 8, 4, 4, -2, -2, -2, -2, 6, 3, -2, -2, -2, 6, 1, 9, 8, 0, -2, -2, 8, 5, 7, 7, 5, 7, -2, -2, -2, 7, -2, 7, -2, 1, -2, 3, -2, -2, 7, 2, -2, -2, -2, 5, -2, -2, -2, 7, -2, 2, 9, -2, -2, 5, 3, -2, -2, -2, 7, 3, 4, 2, 4, -2, -2, -2, -2, -2, -2, 7, 6, 6, -2, -2, -2, 5, 4, 4, 9, -2, 0, -2, 6, -2, -2, -2, 1, -2, 4, 3, 5, -2, -2, 9, -2, -2, 9, 7, -2, -2, 9, -2, 2, -2, -2, 7, -2, -2, 7, 7, 1, -2, 1, -2, 2, 0, -2, -2, 4, 9, 2, 4, -2, -2, -2, -2, -2, 5, 2, 0, -2, -2, 6, 7, -2, -2, -2, -2, 1, -2, 0, 4, -2, 9, -2, -2, -2, 1, 5, 9, 0, -2, -2, 1, 9, 7, 3, -2, 3, -2, -2, 7, 7, -2, 4, -2, -2, -2, -2, 2, 4, 0, -2, 0, 6, -2, -2, 6, -2, -2, -2, 6, 6, -2, -2, -2, -2, 0, 4, 3, 7, -2, 2, -2, 9, -2, -2, 3, 5, 8, 7, -2, 4, -2, -2, -2, 9, 5, -2, -2, -2, 5, -2, 4, -2, -2, 4, 8, 4, 3, -2, 5, -2, -2, -2, -2, -2, 1, 8, -2, 6, -2, 3, 8, 9, -2, -2, 6, 8, -2, -2, -2, 6, 2, 9, -2, 5, 2, -2, 9, -2, -2, -2, 0, 4, 6, -2, 5, -2, 5, -2, -2, -2, 8, -2, -2, 5, -2, -2, 7, 2, 3, -2, 6, -2, -2, 2, -2, 6, -2, -2, 3, -2, 8, 2, -2, -2, -2, 8, 9, 3, 1, 1, 6, 2, -2, -2, -2, 0, 8, -2, 7, -2, -2, 1, 7, -2, 1, 7, 4, 2, 8, -2, 2, -2, -2, -2, -2, -2, -2, 6, 7, 8, 1, 9, -2, 3, 1, -2, -2, -2, -2, 7, 0, 5, -2, -2, 4, -2, 6, -2, 8, -2, 2, -2, -2, 2, -2, -2, -2, 2, 3, 0, -2, -2, -2, 9, -2, -2, 6, 4, 1, -2, 8, 0, 3, 2, 6, -2, 5, 5, 7, -2, -2, -2, -2, -2, -2, -2, -2, 8, -2, 8, 0, -2, -2, 7, -2, -2, 9, -2, 3, 8, -2, -2, 5, 5, -2, 2, 7, 8, -2, -2, -2, -2, -2, 4, 0, 3, 3, 4, 6, 6, 9, -2, -2, -2, 2, -2, -2, 4, 2, -2, 8, -2, 1, -2, -2, -2, 7, 2, 3, 9, -2, 6, 6, 8, 0, -2, -2, -2, 8, -2, 8, 0, 5, 8, -2, -2, -2, 0, -2, 1, -2, -2, -2, -2, -2, -2, 1, 6, 4, -2, 6, 8, 3, -2, 6, -2, -2, 4, -2, -2, 1, -2, 3, -2, -2, -2, 9, 9, -2, -2, 4, -2, 7, 8, -2, 5, -2, 3, -2, -2, 3, -2, -2, 5, 6, 1, -2, 8, -2, -2, -2, -2, 9, 2, 6, -2, -2, 8, 7, -2, -2, -2, -2, 7, 3, 2, 6, 4, 1, 0, -2, -2, 6, -2, -2, 6, 3, -2, 5, 8, -2, -2, -2, 2, 8, -2, 8, -2, 0, -2, -2, -2, 1, 0, -2, -2, -2, 6, 7, 9, 0, -2, -2, 4, -2, -2, -2, 0, -2, -2, 7, 5, 2, 2, -2, 9, -2, -2, -2, 3, 8, -2, -2, -2, 7, 4, -2, -2, 0, 6, 8, 6, -2, -2, 8, -2, -2, -2, -2, 1, 5, 4, 3, 1, 3, 9, 5, 7, -2, -2, -2, 4, 2, -2, -2, -2, 4, -2, -2, -2, -2, -2, 9, -2, -2, 6, 3, 9, -2, 9, -2, 7, -2, 1, -2, 9, -2, -2, 7, -2, -2, -2, 4, 0, 8, 5, 9, 3, 2, 0, -2, -2, -2, 8, -2, -2, 3, -2, 2, 7, 1, -2, 6, -2, -2, 9, -2, -2, -2, 7, -2, 0, -2, -2, 4, 9, -2, 4, 6, -2, -2, -2, 0, 2, -2, 1, 1, -2, -2, 9, 5, -2, -2, -2, -2, 7, 9, 9, 4, 1, -2, 0, -2, 4, -2, -2, 4, -2, 0, -2, -2, 0, 8, 3, 4, -2, -2, 1, -2, 8, -2, 3, 2, -2, 4, -2, 1, -2, 2, -2, -2, 0, -2, -2, 9, 2, 9, 7, 2, 5, 0, 1, 6, -2, 4, 3, -2, -2, -2, 2, -2, 4, -2, -2, -2, 2, -2, -2, -2, 7, -2, 9, 2, -2, 6, -2, 4, -2, -2, 4, 6, -2, -2, -2, 2, 6, -2, 0, 2, 8, -2, 3, 3, -2, -2, -2, -2, -2, 4, -2, 7, 3, -2, 9, -2, 6, -2, -2, -2, 7, -2, 9, 7, -2, -2, 4, -2, 2, -2, -2, 3, -2, 1, 9, 2, 4, -2, -2, -2, 2, -2, -2, 3, -2, 8, 1, -2, -2, -2, 8, 5, -2, -2, 7, -2, 2, -2, -2, 9, 2, -2, 8, 2, 3, -2, -2, -2, 1, -2, -2, 1, -2, 4, 0, -2, 6, 4, -2, -2, 6, -2, -2, -2, 0, 3, -2, 5, 9, 6, -2, -2, -2, -2, 1, 4, -2, 9, -2, -2, 3, -2, 6, 8, -2, -2, 5, 9, -2, 4, -2, -2, 2, -2, 8, -2, -2, 7, 7, 4, 2, 1, -2, 0, -2, 8, -2, -2, -2, -2, 5, 3, 2, 1, -2, -2, -2, 6, -2, 8, 4, -2, -2, -2, 2, 6, 7, -2, -2, 6, 9, -2, 1, -2, -2, -2, -2, 9, 7, -2, -2, 2, 8, -2, 8, 7, -2, -2, 0, 9, -2, 7, -2, -2, -2, -2, 1, 9, -2, 9, 6, -2, 0, -2, -2, 6, -2, 5, 1, 2, 7, -2, -2, -2, 1, -2, -2, -2, 3, 4, -2, 2, -2, -2, 6, 7, 6, -2, -2, -2, 6, -2, 9, -2, 1, 1, 8, -2, -2, -2, 7, 0, -2, 7, 1, 4, -2, -2, 9, 4, -2, -2, -2, -2, 9, 6, -2, -2, -2], "classes_": [0, 1], "value": [[1444.0, 1417.0], [484.0, 620.0], [256.0, 472.0], [210.0, 437.0], [86.0, 255.0], [50.0, 95.0], [0.0, 17.0], [50.0, 78.0], [12.0, 41.0], [10.0, 41.0], [7.0, 40.0], [1.0, 0.0], [6.0, 40.0], [1.0, 0.0], [5.0, 40.0], [3.0, 9.0], [0.0, 7.0], [3.0, 2.0], [0.0, 1.0], [3.0, 1.0], [2.0, 0.0], [1.0, 1.0], [2.0, 31.0], [0.0, 27.0], [2.0, 4.0], [0.0, 4.0], [2.0, 0.0], [3.0, 1.0], [0.0, 1.0], [3.0, 0.0], [2.0, 0.0], [38.0, 37.0], [27.0, 14.0], [0.0, 4.0], [27.0, 10.0], [27.0, 7.0], [9.0, 6.0], [9.0, 3.0], [6.0, 0.0], [3.0, 3.0], [0.0, 3.0], [3.0, 0.0], [0.0, 3.0], [18.0, 1.0], [16.0, 0.0], [2.0, 1.0], [0.0, 1.0], [2.0, 0.0], [0.0, 3.0], [11.0, 23.0], [9.0, 8.0], [5.0, 1.0], [5.0, 0.0], [0.0, 1.0], [4.0, 7.0], [0.0, 6.0], [4.0, 1.0], [1.0, 0.0], [3.0, 1.0], [2.0, 15.0], [2.0, 1.0], [2.0, 0.0], [0.0, 1.0], [0.0, 14.0], [36.0, 160.0], [22.0, 146.0], [17.0, 140.0], [1.0, 0.0], [16.0, 140.0], [14.0, 79.0], [8.0, 23.0], [4.0, 2.0], [0.0, 2.0], [4.0, 0.0], [4.0, 21.0], [0.0, 14.0], [4.0, 7.0], [0.0, 4.0], [4.0, 3.0], [4.0, 0.0], [0.0, 3.0], [6.0, 56.0], [2.0, 0.0], [4.0, 56.0], [1.0, 0.0], [3.0, 56.0], [0.0, 41.0], [3.0, 15.0], [2.0, 15.0], [2.0, 3.0], [2.0, 0.0], [0.0, 3.0], [0.0, 12.0], [1.0, 0.0], [2.0, 61.0], [1.0, 2.0], [1.0, 0.0], [0.0, 2.0], [1.0, 59.0], [1.0, 4.0], [0.0, 4.0], [1.0, 0.0], [0.0, 55.0], [5.0, 6.0], [5.0, 2.0], [5.0, 1.0], [0.0, 1.0], [5.0, 0.0], [0.0, 1.0], [0.0, 4.0], [14.0, 14.0], [2.0, 9.0], [0.0, 8.0], [2.0, 1.0], [2.0, 0.0], [0.0, 1.0], [12.0, 5.0], [3.0, 4.0], [1.0, 4.0], [1.0, 2.0], [0.0, 2.0], [2.0, 0.0], [9.0, 1.0], [6.0, 0.0], [3.0, 1.0], [3.0, 0.0], [0.0, 1.0], [124.0, 182.0], [21.0, 82.0], [4.0, 0.0], [17.0, 82.0], [3.0, 2.0], [0.0, 2.0], [3.0, 0.0], [14.0, 80.0], [9.0, 16.0], [9.0, 10.0], [9.0, 4.0], [1.0, 3.0], [1.0, 0.0], [0.0, 3.0], [8.0, 1.0], [8.0, 