{"classes": [0, 1], "dtrees": [{"children_left": [1, 2, 3, 4, -1, -1, 7, 8, -1, 10, -1, 12, -1, -1, 15, 16, 17, -1, 19, -1, -1, 22, 23, -1, -1, -1, -1, 28, -1, 30, 31, -1, 33, -1, 35, -1, 37, 38, 39, 40, -1, -1, -1, -1, -1, 46, 47, 48, -1, -1, -1, -1, 53, 54, 55, -1, 57, 58, -1, 60, -1, 62, 63, 64, 65, 66, 67, -1, -1, -1, -1, -1, -1, -1, 75, -1, 77, -1, 79, -1, 81, -1, 83, -1, -1, 86, 87, 88, -1, 90, 91, -1, -1, -1, 95, 96, -1, 98, -1, 100, -1, -1, 103, 104, -1, 106, 107, 108, 109, -1, -1, -1, -1, 114, -1, -1, 117, 118, -1, -1, -1, 122, -1, -1, 125, 126, 127, -1, 129, -1, -1, -1, -1], "children_right": [52, 27, 6, 5, -1, -1, 14, 9, -1, 11, -1, 13, -1, -1, 26, 21, 18, -1, 20, -1, -1, 25, 24, -1, -1, -1, -1, 29, -1, 45, 32, -1, 34, -1, 36, -1, 44, 43, 42, 41, -1, -1, -1, -1, -1, 51, 50, 49, -1, -1, -1, -1, 124, 85, 56, -1, 74, 59, -1, 61, -1, 73, 72, 71, 70, 69, 68, -1, -1, -1, -1, -1, -1, -1, 76, -1, 78, -1, 80, -1, 82, -1, 84, -1, -1, 121, 94, 89, -1, 93, 92, -1, -1, -1, 102, 97, -1, 99, -1, 101, -1, -1, 116, 105, -1, 113, 112, 111, 110, -1, -1, -1, -1, 115, -1, -1, 120, 119, -1, -1, -1, 123, -1, -1, 132, 131, 128, -1, 130, -1, -1, -1, -1], "threshold": [20.335000038146973, 15.5, 10.615000247955322, 61.5, -2.0, -2.0, 35.5, -19.5, -2.0, 18.5, -2.0, 6.5, -2.0, -2.0, 93.5, -0.5, 13.929999828338623, -2.0, 3.5199999809265137, -2.0, -2.0, 1.5750000476837158, 1.5, -2.0, -2.0, -2.0, -2.0, -32.5, -2.0, 14.5, -3.0199999809265137, -2.0, -83.5, -2.0, 31.0, -2.0, 15.795000076293945, 8.5, 2.2549999952316284, 14.539999961853027, -2.0, -2.0, -2.0, -2.0, -2.0, 152.5, 1013.5, 3.1449999809265137, -2.0, -2.0, -2.0, -2.0, 86.5, 24.664999961853027, 0.9750000238418579, -2.0, 118.5, 51.5, -2.0, 7.140000104904175, -2.0, 22.5649995803833, 152.0, 20.800000190734863, 51.5, 1019.5, 12.059999942779541, -2.0, -2.0, -2.0, -2.0, -2.0, -2.0, -2.0, 39.5, -2.0, 2.865000009536743, -2.0, 43.5, -2.0, 22.030000686645508, -2.0, 23.90499973297119, -2.0, -2.0, 215.5, -85.5, 25.195000648498535, -2.0, 1012.5, -113.5, -2.0, -2.0, -2.0, 2.5, 80.0, -2.0, 27.84500026702881, -2.0, 1.4549999833106995, -2.0, -2.0, 160.5, 3.375, -2.0, 137.5, 1019.5, 3.5199999809265137, 29.5, -2.0, -2.0, -2.0, -2.0, 20.5, -2.0, -2.0, 122.0, 4.010000109672546, -2.0, -2.0, -2.0, 85.5, -2.0, -2.0, 23.949999809265137, 51.5, 137.0, -2.0, 2.200000047683716, -2.0, -2.0, -2.0, -2.0], "feature": [3, 2, 3, 5, -2, -2, 0, 0, -2, 0, -2, 2, -2, -2, 5, 1, 3, -2, 4, -2, -2, 4, 1, -2, -2, -2, -2, 0, -2, 1, 7, -2, 1, -2, 0, -2, 7, 1, 4, 7, -2, -2, -2, -2, -2, 1, 6, 4, -2, -2, -2, -2, 5, 3, 4, -2, 8, 8, -2, 7, -2, 3, 1, 3, 0, 6, 7, -2, -2, -2, -2, -2, -2, -2, 0, -2, 4, -2, 0, -2, 3, -2, 3, -2, -2, 8, 1, 3, -2, 6, 1, -2, -2, -2, 0, 1, -2, 3, -2, 4, -2, -2, 8, 4, -2, 8, 6, 4, 5, -2, -2, -2, -2, 2, -2, -2, 1, 4, -2, -2, -2, 5, -2, -2, 7, 0, 8, -2, 4, -2, -2, -2, -2], "classes": [0, 1], "value": [[3970.0, 3972.0], [1881.0, 1273.0], [1148.0, 637.0], [270.0, 89.0], [27.0, 30.0], [243.0, 59.0], [878.0, 548.0], [252.0, 210.0], [201.0, 123.0], [51.0, 87.0], [0.0, 27.0], [51.0, 60.0], [19.0, 43.0], [32.0, 17.0], [626.0, 338.0], [573.0, 329.0], [312.0, 131.0], [81.0, 10.0], [231.0, 121.0], [118.0, 95.0], [113.0, 26.0], [261.0, 198.0], [54.0, 20.0], [0.0, 7.0], [54.0, 13.0], [207.0, 178.0], [53.0, 9.0], [733.0, 636.0], [85.0, 32.0], [648.0, 604.0], [497.0, 360.0], [20.0, 43.0], [477.0, 317.0], [136.0, 56.0], [341.0, 261.0], [1.0, 16.0], [340.0, 245.0], [322.0, 210.0], [280.0, 203.0], [24.0, 44.0], [15.0, 44.0], [9.0, 0.0], [256.0, 159.0], [42.0, 7.0], [18.0, 35.0], [151.0, 244.0], [142.0, 244.0], [80.0, 70.0], [62.0, 27.0], [18.0, 43.0], [62.0, 174.0], [9.0, 0.0], [2089.0, 2699.0], [1976.0, 2426.0], [841.0, 827.0], [20.0, 55.0], [821.0, 772.0], [442.0, 324.0], [39.0, 70.0], [403.0, 254.0], [21.0, 31.0], [382.0, 223.0], [217.0, 97.0], [217.0, 91.0], [38.0, 33.0], [21.0, 32.0], [21.0, 16.0], [16.0, 1.0], [5.0, 15.0], [0.0, 16.0], [17.0, 1.0], [179.0, 58.0], [0.0, 6.0], [165.0, 126.0], [379.0, 448.0], [161.0, 126.0], [218.0, 322.0], [66.0, 145.0], [152.0, 177.0], [26.0, 57.0], [126.0, 120.0], [65.0, 35.0], [61.0, 85.0], [27.0, 68.0], [34.0, 17.0], [1135.0, 1599.0], [1062.0, 1408.0], [262.0, 248.0], [11.0, 39.0], [251.0, 209.0], [102.0, 123.0], [38.0, 20.0], [64.0, 103.0], [149.0, 86.0], [800.0, 1160.0], [183.0, 145.0], [19.0, 32.0], [164.0, 113.0], [49.0, 62.0], [115.0, 51.0], [4.0, 12.0], [111.0, 39.0], [617.0, 1015.0], [470.0, 851.0], [227.0, 526.0], [243.0, 325.0], [180.0, 275.0], [179.0, 250.0], [26.0, 10.0], [0.0, 7.0], [26.0, 3.0], [153.0, 240.0], [1.0, 25.0], [63.0, 50.0], [62.0, 37.0], [1.0, 13.0], [147.0, 164.0], [147.0, 148.0], [116.0, 86.0], [31.0, 62.0], [0.0, 16.0], [73.0, 191.0], [65.0, 191.0], [8.0, 0.0], [113.0, 273.0], [88.0, 138.0], [82.0, 138.0], [27.0, 95.0], [55.0, 43.0], [14.0, 29.0], [41.0, 14.0], [6.0, 0.0], [25.0, 135.0]]}, {"children_left": [1, 2, 3, 4, 5, 6, -1, 8, -1, 10, -1, -1, 13, -1, -1, 16, -1, 18, -1, -1, 21, 22, -1, -1, 25, -1, 27, -1, 29, 30, -1, 32, 33, -1, -1, 36, 37, -1, 39, -1, -1, -1, 43, -1, -1, 46, 47, -1, -1, 50, 51, 52, -1, 54, -1, -1, -1, -1, 59, 60, 61, -1, -1, -1, 65, 66, -1, 68, -1, 70, -1, 72, -1, -1, 75, 76, 77, 78, 79, 80, 81, -1, -1, 84, -1, -1, 87, -1, -1, -1, 91, -1, 93, 94, -1, -1, -1, 98, -1, -1, 101, 102, 103, -1, -1, 106, -1, 108, -1, -1, 111, -1, 113, 114, 115, 116, -1, -1, -1, 120, 121, -1, 123, -1, -1, 126, -1, 128, -1, -1, -1], "children_right": [58, 45, 20, 15, 12, 7, -1, 9, -1, 11, -1, -1, 14, -1, -1, 17, -1, 19, -1, -1, 24, 23, -1, -1, 26, -1, 28, -1, 42, 31, -1, 35, 34, -1, -1, 41, 38, -1, 40, -1, -1, -1, 44, -1, -1, 49, 48, -1, -1, 57, 56, 53, -1, 55, -1, -1, -1, -1, 64, 63, 62, -1, -1, -1, 74, 67, -1, 69, -1, 71, -1, 73, -1, -1, 100, 97, 90, 89, 86, 83, 82, -1, -1, 85, -1, -1, 88, -1, -1, -1, 92, -1, 96, 95, -1, -1, -1, 99, -1, -1, 110, 105, 104, -1, -1, 107, -1, 109, -1, -1, 112, -1, 130, 119, 118, 117, -1, -1, -1, 125, 122, -1, 124, -1, -1, 127, -1, 129, -1, -1, -1], "threshold": [19.554999351501465, 17.5, 35.5, 111.0, -80.5, 19.5, -2.0, 10.15500020980835, -2.0, 15.505000114440918, -2.0, -2.0, -23.5, -2.0, -2.0, 15.699999809265137, -2.0, 50.5, -2.0, -2.0, -110.5, 249.0, -2.0, -2.0, 1.5, -2.0, -8.5, -2.0, 10.5, 27.0, -2.0, 16.0649995803833, 53.5, -2.0, -2.0, 177.0, 16.825000762939453, -2.0, 19.0649995803833, -2.0, -2.0, -2.0, 46.5, -2.0, -2.0, 39.5, 15.934999942779541, -2.0, -2.0, 17.5, 2.65500009059906, 88.5, -2.0, 1016.5, -2.0, -2.0, -2.0, -2.0, 1.4149999618530273, 12.5, 19.96500015258789, -2.0, -2.0, -2.0, -27.5, 148.5, -2.0, 151.5, -2.0, 144.5, -2.0, 9.90999984741211, -2.0, -2.0, 31.5, 128.5, 28.860000610351562, 317.5, 103.5, -92.5, 6.5, -2.0, -2.0, -25.5, -2.0, -2.0, 13.5, -2.0, -2.0, -2.0, 1.9149999618530273, -2.0, 195.5, 29.5, -2.0, -2.0, -2.0, 21.019999504089355, -2.0, -2.0, 42.5, 11.0, 40.5, -2.0, -2.0, 1.5, -2.0, 2.0399999618530273, -2.0, -2.0, 7.434999942779541, -2.0, 28.4399995803833, 13.5, 15.585000038146973, 26.5, -2.0, -2.0, -2.0, 116.5, 17.5, -2.0, 6.5, -2.0, -2.0, 39.5, -2.0, 20.164999961853027, -2.0, -2.0, -2.0], "feature": [3, 2, 0, 1, 1, 0, -2, 3, -2, 3, -2, -2, 0, -2, -2, 3, -2, 8, -2, -2, 1, 8, -2, -2, 8, -2, 1, -2, 2, 8, -2, 3, 5, -2, -2, 8, 3, -2, 3, -2, -2, -2, 0, -2, -2, 0, 7, -2, -2, 1, 4, 5, -2, 6, -2, -2, -2, -2, 4, 0, 7, -2, -2, -2, 0, 1, -2, 1, -2, 8, -2, 7, -2, -2, 0, 1, 3, 8, 1, 1, 2, -2, -2, 0, -2, -2, 2, -2, -2, -2, 4, -2, 8, 0, -2, -2, -2, 3, -2, -2, 0, 7, 0, -2, -2, 4, -2, 4, -2, -2, 7, -2, 3, 2, 7, 1, -2, -2, -2, 8, 2, -2, 1, -2, -2, 5, -2, 7, -2, -2, -2], "classes": [0, 1], "value": [[3931.0, 4011.0], [1748.0, 1171.0], [1240.0, 726.0], [273.0, 242.0], [89.0, 131.0], [66.0, 53.0], [0.0, 7.0], [66.0, 46.0], [23.0, 3.0], [43.0, 43.0], [8.0, 29.0], [35.0, 14.0], [23.0, 78.0], [22.0, 29.0], [1.0, 49.0], [184.0, 111.0], [101.0, 35.0], [83.0, 76.0], [4.0, 29.0], [79.0, 47.0], [967.0, 484.0], [52.0, 55.0], [50.0, 36.0], [2.0, 19.0], [915.0, 429.0], [0.0, 6.0], [915.0, 423.0], [330.0, 99.0], [585.0, 324.0], [305.0, 120.0], [27.0, 0.0], [278.0, 120.0], [192.0, 60.0], [8.0, 15.0], [184.0, 45.0], [86.0, 60.0], [82.0, 43.0], [11.0, 20.0], [71.0, 23.0], [62.0, 10.0], [9.0, 13.0], [4.0, 17.0], [280.0, 204.0], [58.0, 78.0], [222.0, 126.0], [508.0, 445.0], [164.0, 96.0], [161.0, 83.0], [3.0, 13.0], [344.0, 349.0], [294.0, 231.0], [84.0, 103.0], [47.0, 91.0], [37.0, 12.0], [29.0, 1.0], [8.0, 11.0], [210.0, 128.0], [50.0, 118.0], [2183.0, 2840.0], [197.0, 478.0], [47.0, 196.0], [30.0, 52.0], [17.0, 144.0], [150.0, 282.0], [1986.0, 2362.0], [243.0, 145.0], [147.0, 51.0], [96.0, 94.0], [39.0, 71.0], [57.0, 23.0], [44.0, 6.0], [13.0, 17.0], [9.0, 0.0], [4.0, 17.0], [1743.0, 2217.0], [457.0, 843.0], [394.0, 809.0], [196.0, 504.0], [158.0, 459.0], [79.0, 301.0], [34.0, 57.0], [23.0, 12.0], [11.0, 45.0], [45.0, 244.0], [9.0, 4.0], [36.0, 240.0], [79.0, 158.0], [34.0, 117.0], [45.0, 41.0], [38.0, 45.0], [198.0, 305.0], [29.0, 14.0], [169.0, 291.0], [155.0, 227.0], [134.0, 220.0], [21.0, 7.0], [14.0, 64.0], [63.0, 34.0], [0.0, 7.0], [63.0, 27.0], [1286.0, 1374.0], [729.0, 625.0], [150.0, 186.0], [129.0, 124.0], [21.0, 62.0], [579.0, 439.0], [27.0, 5.0], [552.0, 434.0], [43.0, 70.0], [509.0, 364.0], [557.0, 749.0], [11.0, 51.0], [546.0, 698.0], [507.0, 571.0], [211.0, 157.0], [143.0, 75.0], [140.0, 63.0], [3.0, 12.0], [68.0, 82.0], [296.0, 414.0], [132.0, 104.0], [79.0, 36.0], [53.0, 68.0], [52.0, 49.0], [1.0, 19.0], [164.0, 310.0], [18.0, 4.0], [146.0, 306.0], [126.0, 297.0], [20.0, 9.0], [39.0, 127.0]]}, {"children_left": [1, 2, 3, 4, -1, 6, -1, 8, -1, 10, 11, -1, 13, -1, 15, 16, -1, -1, 19, 20, 21, 22, -1, -1, -1, -1, 27, -1, -1, -1, 31, 32, -1, 34, -1, 36, -1, -1, -1, 40, -1, 42, -1, 44, 45, 46, 47, 48, 49, -1, 51, -1, -1, -1, -1, 56, -1, 58, 59, -1, -1, 62, 63, 64, -1, -1, 67, -1, -1, -1, 71, 72, -1, -1, 75, -1, 77, 78, -1, 80, -1, -1, -1, -1, 85, 86, 87, 88, -1, 90, -1, -1, 93, 94, 95, -1, -1, 98, -1, 100, -1, -1, 103, -1, 105, -1, -1, -1, 109, 110, 111, -1, 113, -1, 115, -1, 117, 118, 119, -1, 121, 122, 123, -1, -1, 126, -1, -1, -1, -1, -1, -1, -1], "children_right": [84, 39, 30, 5, -1, 7, -1, 9, -1, 29, 12, -1, 14, -1, 18, 17, -1, -1, 26, 25, 24, 23, -1, -1, -1, -1, 28, -1, -1, -1, 38, 33, -1, 35, -1, 37, -1, -1, -1, 41, -1, 43, -1, 83, 70, 55, 54, 53, 50, -1, 52, -1, -1, -1, -1, 57, -1, 61, 60, -1, -1, 69, 66, 65, -1, -1, 68, -1, -1, -1, 74, 73, -1, -1, 76, -1, 82, 79, -1, 81, -1, -1, -1, -1, 108, 107, 92, 89, -1, 91, -1, -1, 102, 97, 96, -1, -1, 99, -1, 101, -1, -1, 104, -1, 106, -1, -1, -1, 132, 131, 112, -1, 114, -1, 116, -1, 130, 129, 120, -1, 128, 125, 124, -1, -1, 127, -1, -1, -1, -1, -1, -1, -1], "threshold": [15.385000228881836, 16.925000190734863, 4.1499998569488525, 1.7199999690055847, -2.0, 8.46500015258789, -2.0, 2.865000009536743, -2.0, 63.5, -119.5, -2.0, 2.5, -2.0, -34.5, -65.5, -2.0, -2.0, 16.5, 261.5, 6.5, 19.0, -2.0, -2.0, -2.0, -2.0, 1.5750000476837158, -2.0, -2.0, -2.0, 94.5, 11.5, -2.0, 1021.5, -2.0, 303.0, -2.0, -2.0, -2.0, 998.5, -2.0, 14.5, -2.0, 1025.5, 16.5, 1013.5, 151.5, 148.5, -31.0, -2.0, 35.5, -2.0, -2.0, -2.0, -2.0, 21.13499927520752, -2.0, 9.5, 1019.5, -2.0, -2.0, 21.5, 117.0, 25.934999465942383, -2.0, -2.0, 130.5, -2.0, -2.0, -2.0, -110.5, 38.5, -2.0, -2.0, 18.899999618530273, -2.0, 1007.5, 2.815000057220459, -2.0, 22.914999961853027, -2.0, -2.0, -2.0, -2.0, 29.5, 128.5, 2.640000104904175, 300.5, -2.0, 27.59000015258789, -2.0, -2.0, 10.5, 26.119999885559082, 90.5, -2.0, -2.0, 27.395000457763672, -2.0, 6.5, -2.0, -2.0, 24.204999923706055, -2.0, 25.15499973297119, -2.0, -2.0, -2.0, 30.90000057220459, 48.5, 2.6049998998641968, -2.0, 37.0, -2.0, -117.5, -2.0, 29.494999885559082, 20.5, 99.5, -2.0, 3.915000081062317, 20.570000648498535, 17.649999618530273, -2.0, -2.0, 24.90499973297119, -2.0, -2.0, -2.0, -2.0, -2.0, -2.0, -2.0], "feature": [7, 3, 4, 3, -2, 3, -2, 7, -2, 0, 1, -2, 2, -2, 0, 1, -2, -2, 1, 8, 1, 0, -2, -2, -2, -2, 4, -2, -2, -2, 5, 2, -2, 6, -2, 8, -2, -2, -2, 6, -2, 8, -2, 6, 2, 6, 1, 1, 0, -2, 0, -2, -2, -2, -2, 3, -2, 2, 6, -2, -2, 1, 8, 3, -2, -2, 8, -2, -2, -2, 1, 0, -2, -2, 3, -2, 6, 4, -2, 3, -2, -2, -2, -2, 0, 1, 4, 8, -2, 3, -2, -2, 2, 3, 5, -2, -2, 3, -2, 0, -2, -2, 7, -2, 7, -2, -2, -2, 3, 0, 4, -2, 8, -2, 1, -2, 3, 2, 8, -2, 4, 7, 7, -2, -2, 3, -2, -2, -2, -2, -2, -2, -2], "classes": [0, 1], "value": [[3902.0, 4040.0], [2450.0, 2077.0], [1172.0, 707.0], [766.0, 527.0], [26.0, 43.0], [740.0, 484.0], [166.0, 59.0], [574.0, 425.0], [48.0, 77.0], [526.0, 348.0], [526.0, 339.0], [43.0, 8.0], [483.0, 331.0], [16.0, 27.0], [467.0, 304.0], [74.0, 25.0], [0.0, 6.0], [74.0, 19.0], [393.0, 279.0], [274.0, 150.0], [266.0, 134.0], [209.0, 126.0], [0.0, 16.0], [209.0, 110.0], [57.0, 8.0], [8.0, 16.0], [119.0, 129.0], [60.0, 31.0], [59.0, 98.0], [0.0, 9.0], [406.0, 180.0], [382.0, 180.0], [144.0, 39.0], [238.0, 141.0], [208.0, 100.0], [30.0, 41.0], [30.0, 22.0], [0.0, 19.0], [24.0, 0.0], [1278.0, 1370.0], [20.0, 1.0], [1258.0, 1369.0], [7.0, 63.0], [1251.0, 1306.0], [1232.0, 1253.0], [802.0, 718.0], [316.0, 371.0], [301.0, 368.0], [295.0, 338.0], [59.0, 29.0], [236.0, 309.0], [31.0, 83.0], [205.0, 226.0], [6.0, 30.0], [15.0, 3.0], [486.0, 347.0], [243.0, 132.0], [243.0, 215.0], [102.0, 57.0], [85.0, 30.0], [17.0, 27.0], [141.0, 158.0], [119.0, 92.0], [50.0, 19.0], [47.0, 7.0], [3.0, 12.0], [69.0, 73.0], [12.0, 37.0], [57.0, 36.0], [22.0, 66.0], [430.0, 535.0], [73.0, 44.0], [40.0, 5.0], [33.0, 39.0], [357.0, 491.0], [98.0, 84.0], [259.0, 407.0], [43.0, 28.0], [2.0, 12.0], [41.0, 16.0], [25.0, 0.0], [16.0, 16.0], [216.0, 379.0], [19.0, 53.0], [1452.0, 1963.0], [548.0, 980.0], [387.0, 878.0], [142.0, 441.0], [117.0, 420.0], [25.0, 21.0], [8.0, 21.0], [17.0, 0.0], [245.0, 437.0], [134.0, 180.0], [41.0, 28.0], [39.0, 16.0], [2.0, 12.0], [93.0, 152.0], [0.0, 24.0], [93.0, 128.0], [38.0, 19.0], [55.0, 109.0], [111.0, 257.0], [52.0, 184.0], [59.0, 73.0], [41.0, 25.0], [18.0, 48.0], [161.0, 102.0], [904.0, 983.0], [787.0, 921.0], [626.0, 658.0], [235.0, 326.0], [391.0, 332.0], [3.0, 17.0], [388.0, 315.0], [2.0, 15.0], [386.0, 300.0], [359.0, 252.0], [296.0, 179.0], [67.0, 18.0], [229.0, 161.0], [142.0, 80.0], [111.0, 44.0], [37.0, 34.0], [74.0, 10.0], [31.0, 36.0], [1.0, 18.0], [30.0, 18.0], [87.0, 81.0], [63.0, 73.0], [27.0, 48.0], [161.0, 263.0], [117.0, 62.0]]}, {"children_left": [1, 2, 3, 4, 5, 6, -1, -1, 9, -1, -1, 12, 13, -1, 15, -1, 17, -1, -1, 20, -1, 22, 23, 24, -1, -1, -1, -1, -1, 30, 31, -1, -1, 34, -1, 36, 37, -1, -1, -1, 41, 42, -1, 44, -1, 46, -1, -1, 49, 50, 51, 52, -1, -1, 55, -1, -1, 58, 59, -1, -1, 62, 63, -1, -1, 66, -1, -1, 69, 70, 71, 72, 73, -1, -1, 76, -1, 78, -1, -1, 81, -1, 83, 84, 85, -1, -1, 88, 89, 90, -1, -1, 93, -1, -1, -1, 97, 98, 99, -1, -1, 102, 103, -1, -1, 106, -1, -1, -1, 110, 111, 112, -1, 114, 115, -1, 117, -1, -1, 120, -1, 122, -1, -1, 125, -1, 127, 128, -1, -1, 131, 132, -1, 134, -1, 136, -1, -1, -1, 140, -1, -1, -1], "children_right": [40, 29, 28, 11, 8, 7, -1, -1, 10, -1, -1, 19, 14, -1, 16, -1, 18, -1, -1, 21, -1, 27, 26, 25, -1, -1, -1, -1, -1, 33, 32, -1, -1, 35, -1, 39, 38, -1, -1, -1, 48, 43, -1, 45, -1, 47, -1, -1, 68, 57, 54, 53, -1, -1, 56, -1, -1, 61, 60, -1, -1, 65, 64, -1, -1, 67, -1, -1, 142, 109, 80, 75, 74, -1, -1, 77, -1, 79, -1, -1, 82, -1, 96, 87, 86, -1, -1, 95, 92, 91, -1, -1, 94, -1, -1, -1, 108, 101, 100, -1, -1, 105, 104, -1, -1, 107, -1, -1, -1, 139, 124, 113, -1, 119, 116, -1, 118, -1, -1, 121, -1, 123, -1, -1, 126, -1, 130, 129, -1, -1, 138, 133, -1, 135, -1, 137, -1, -1, -1, 141, -1, -1, -1], "threshold": [17.65499973297119, 66.5, 7.034999847412109, 35.5, -30.5, 7.150000095367432, -2.0, -2.0, 8.674999713897705, -2.0, -2.0, 69.0, 13.5, -2.0, -83.5, -2.0, 6.830000162124634, -2.0, -2.0, 84.0, -2.0, 13.454999923706055, -39.5, -98.5, -2.0, -2.0, -2.0, -2.0, -2.0, -1.475000023841858, 3.4049999713897705, -2.0, -2.0, 8.144999980926514, -2.0, 58.5, 94.5, -2.0, -2.0, -2.0, -16.5, 27.5, -2.0, 146.5, -2.0, -34.5, -2.0, -2.0, 28.5, 3.5, 1.8649999499320984, 17.765000343322754, -2.0, -2.0, 4.275000095367432, -2.0, -2.0, 19.5, 101.5, -2.0, -2.0, 1015.5, 35.66499900817871, -2.0, -2.0, 4.605000019073486, -2.0, -2.0, 8.825000286102295, 112.5, 46.5, 4.224999904632568, 27.5, -2.0, -2.0, 3.8299999237060547, -2.0, 19.505000114440918, -2.0, -2.0, 1006.5, -2.0, 22.38499927520752, 16.5, 34.5, -2.0, -2.0, 21.63499927520752, 1016.5, 63.5, -2.0, -2.0, 14.62999963760376, -2.0, -2.0, -2.0, 18.5, 5.5, 103.0, -2.0, -2.0, 17.5, 26.640000343322754, -2.0, -2.0, 102.5, -2.0, -2.0, -2.0, 22.670000076293945, 1006.5, 118.5, -2.0, 159.5, 4.434999942779541, -2.0, 26.485000610351562, -2.0, -2.0, -0.5, -2.0, 3.0, -2.0, -2.0, 1007.5, -2.0, 6.129999876022339, 1009.5, -2.0, -2.0, -83.5, 113.5, -2.0, 2.4350000619888306, -2.0, 27.389999389648438, -2.0, -2.0, -2.0, 24.945000648498535, -2.0, -2.0, -2.0], "feature": [3, 5, 4, 0, 0, 7, -2, -2, 3, -2, -2, 8, 2, -2, 1, -2, 7, -2, -2, 8, -2, 3, 1, 1, -2, -2, -2, -2, -2, 7, 4, -2, -2, 7, -2, 0, 5, -2, -2, -2, 0, 1, -2, 1, -2, 0, -2, -2, 0, 2, 4, 7, -2, -2, 4, -2, -2, 0, 1, -2, -2, 6, 3, -2, -2, 4, -2, -2, 4, 8, 8, 4, 8, -2, -2, 7, -2, 3, -2, -2, 6, -2, 3, 2, 0, -2, -2, 3, 6, 8, -2, -2, 7, -2, -2, -2, 2, 2, 8, -2, -2, 1, 3, -2, -2, 8, -2, -2, -2, 7, 6, 8, -2, 8, 4, -2, 3, -2, -2, 1, -2, 2, -2, -2, 6, -2, 7, 6, -2, -2, 1, 8, -2, 4, -2, 3, -2, -2, -2, 7, -2, -2, -2], "classes": [0, 1], "value": [[3905.0, 4037.0], [1280.0, 855.0], [357.0, 321.0], [294.0, 308.0], [45.0, 87.0], [35.0, 31.0], [29.0, 12.0], [6.0, 19.0], [10.0, 56.0], [6.0, 1.0], [4.0, 55.0], [249.0, 221.0], [156.0, 94.0], [76.0, 17.0], [80.0, 77.0], [24.0, 5.0], [56.0, 72.0], [41.0, 69.0], [15.0, 3.0], [93.0, 127.0], [12.0, 48.0], [81.0, 79.0], [27.0, 44.0], [22.0, 11.0], [3.0, 9.0], [19.0, 2.0], [5.0, 33.0], [54.0, 35.0], [63.0, 13.0], [923.0, 534.0], [28.0, 39.0], [8.0, 31.0], [20.0, 8.0], [895.0, 495.0], [340.0, 136.0], [555.0, 359.0], [552.0, 346.0], [487.0, 332.0], [65.0, 14.0], [3.0, 13.0], [2625.0, 3182.0], [414.0, 321.0], [40.0, 64.0], [374.0, 257.0], [156.0, 60.0], [218.0, 197.0], [52.0, 96.0], [166.0, 101.0], [2211.0, 2861.0], [402.0, 895.0], [75.0, 83.0], [16.0, 38.0], [10.0, 3.0], [6.0, 35.0], [59.0, 45.0], [50.0, 23.0], [9.0, 22.0], [327.0, 812.0], [228.0, 650.0], [44.0, 270.0], [184.0, 380.0], [99.0, 162.0], [51.0, 131.0], [36.0, 126.0], [15.0, 5.0], [48.0, 31.0], [37.0, 8.0], [11.0, 23.0], [1809.0, 1966.0], [1800.0, 1930.0], [740.0, 634.0], [50.0, 111.0], [20.0, 79.0], [12.0, 10.0], [8.0, 69.0], [30.0, 32.0], [11.0, 0.0], [19.0, 32.0], [11.0, 3.0], [8.0, 29.0], [690.0, 523.0], [76.0, 26.0], [614.0, 497.0], [327.0, 209.0], [234.0, 118.0], [5.0, 16.0], [229.0, 102.0], [93.0, 91.0], [71.0, 88.0], [53.0, 41.0], [17.0, 1.0], [36.0, 40.0], [18.0, 47.0], [10.0, 46.0], [8.0, 1.0], [22.0, 3.0], [287.0, 288.0], [197.0, 154.0], [17.0, 43.0], [8.0, 40.0], [9.0, 3.0], [180.0, 111.0], [126.0, 52.0], [100.0, 20.0], [26.0, 32.0], [54.0, 59.0], [49.0, 35.0], [5.0, 24.0], [90.0, 134.0], [1060.0, 1296.0], [969.0, 1237.0], [54.0, 125.0], [12.0, 5.0], [42.0, 120.0], [19.0, 93.0], [4.0, 69.0], [15.0, 24.0], [14.0, 5.0], [1.0, 19.0], [23.0, 27.0], [14.0, 3.0], [9.0, 24.0], [6.0, 0.0], [3.0, 24.0], [915.0, 1112.0], [47.0, 24.0], [868.0, 1088.0], [22.0, 75.0], [11.0, 7.0], [11.0, 68.0], [846.0, 1013.0], [214.0, 169.0], [0.0, 10.0], [214.0, 159.0], [49.0, 66.0], [165.0, 93.0], [115.0, 41.0], [50.0, 52.0], [632.0, 844.0], [91.0, 59.0], [88.0, 44.0], [3.0, 15.0], [9.0, 36.0]]}, {"children_left": [1, 2, 3, -1, -1, 6, 7, 8, -1, -1, 11, -1, 13, -1, -1, 16, 17, 18, -1, -1, 21, 22, -1, -1, -1, 26, -1, 28, -1, -1, 31, 32, 33, 34, -1, 36, -1, 38, -1, 40, -1, -1, 43, 44, -1, 46, -1, -1, 49, -1, 51, -1, 53, -1, 55, -1, -1, 58, -1, 60, -1, 62, 63, -1, -1, 66, -1, 68, -1, 70, 71, 72, -1, -1, -1, -1, 77, 78, 79, 80, 81, -1, -1, 84, 85, -1, -1, 88, -1, 90, -1, -1, -1, 94, -1, -1, 97, 98, 99, -1, 101, -1, 103, 104, -1, -1, -1, 108, 109, 110, 111, 112, -1, 114, -1, -1, -1, 118, -1, 120, -1, -1, 123, 124, -1, 126, -1, -1, -1, -1, 131, -1, -1], "children_right": [30, 5, 4, -1, -1, 15, 10, 9, -1, -1, 12, -1, 14, -1, -1, 25, 20, 19, -1, -1, 24, 23, -1, -1, -1, 27, -1, 29, -1, -1, 76, 57, 42, 35, -1, 37, -1, 39, -1, 41, -1, -1, 48, 45, -1, 47, -1, -1, 50, -1, 52, -1, 54, -1, 56, -1, -1, 59, -1, 61, -1, 65, 64, -1, -1, 67, -1, 69, -1, 75, 74, 73, -1, -1, -1, -1, 96, 93, 92, 83, 82, -1, -1, 87, 86, -1, -1, 89, -1, 91, -1, -1, -1, 95, -1, -1, 130, 107, 100, -1, 102, -1, 106, 105, -1, -1, -1, 129, 122, 117, 116, 113, -1, 115, -1, -1, -1, 119, -1, 121, -1, -1, 128, 125, -1, 127, -1, -1, -1, -1, 132, -1, -1], "threshold": [17.960000038146973, 17.5, 19.5, -2.0, -2.0, 144.5, 42.5, 1.090000033378601, -2.0, -2.0, 23.5, -2.0, 25.5, -2.0, -2.0, 75.5, 56.5, 5.170000076293945, -2.0, -2.0, 11.704999923706055, 68.5, -2.0, -2.0, -2.0, 1027.5, -2.0, 323.5, -2.0, -2.0, 28.5, -16.5, 137.5, 1.2899999618530273, -2.0, 1012.5, -2.0, 1017.5, -2.0, 18.789999961853027, -2.0, -2.0, 2.6049998998641968, 3.5, -2.0, 140.5, -2.0, -2.0, 18.065000534057617, -2.0, 10.744999885559082, -2.0, 146.5, -2.0, -28.5, -2.0, -2.0, 1.4350000023841858, -2.0, 19.8100004196167, -2.0, 20.65999984741211, 27.454999923706055, -2.0, -2.0, -97.5, -2.0, 21.46500015258789, -2.0, 214.5, 180.5, 76.5, -2.0, -2.0, -2.0, -2.0, 2.774999976158142, 20.5, 31.69499969482422, 115.5, 27.77500057220459, -2.0, -2.0, 173.5, 10.5, -2.0, -2.0, 42.5, -2.0, 0.7849999964237213, -2.0, -2.0, -2.0, 31.5, -2.0, -2.0, 71.5, 21.43000030517578, 56.5, -2.0, 1009.5, -2.0, 16.5, 1012.5, -2.0, -2.0, -2.0, 34.98000144958496, 42.5, 29.5, 7.5, 68.5, -2.0, -92.0, -2.0, -2.0, -2.0, 1011.5, -2.0, 4.440000057220459, -2.0, -2.0, 3.3049999475479126, 135.5, -2.0, 26.97499942779541, -2.0, -2.0, -2.0, -2.0, 209.5, -2.0, -2.0], "feature": [3, 1, 0, -2, -2, 1, 0, 4, -2, -2, 1, -2, 1, -2, -2, 5, 5, 4, -2, -2, 7, 5, -2, -2, -2, 6, -2, 8, -2, -2, 0, 0, 8, 4, -2, 6, -2, 6, -2, 7, -2, -2, 4, 2, -2, 8, -2, -2, 3, -2, 7, -2, 1, -2, 0, -2, -2, 4, -2, 7, -2, 7, 3, -2, -2, 1, -2, 7, -2, 8, 8, 5, -2, -2, -2, -2, 4, 1, 3, 8, 3, -2, -2, 8, 2, -2, -2, 0, -2, 4, -2, -2, -2, 0, -2, -2, 5, 3, 8, -2, 6, -2, 2, 6, -2, -2, -2, 3, 0, 1, 1, 5, -2, 1, -2, -2, -2, 6, -2, 4, -2, -2, 4, 8, -2, 3, -2, -2, -2, -2, 8, -2, -2], "classes": [0, 1], "value": [[3989.0, 3953.0], [1516.0, 902.0], [1062.0, 529.0], [9.0, 36.0], [1053.0, 493.0], [454.0, 373.0], [266.0, 281.0], [124.0, 187.0], [29.0, 16.0], [95.0, 171.0], [142.0, 94.0], [70.0, 67.0], [72.0, 27.0], [50.0, 3.0], [22.0, 24.0], [188.0, 92.0], [82.0, 59.0], [25.0, 5.0], [25.0, 1.0], [0.0, 4.0], [57.0, 54.0], [57.0, 39.0], [18.0, 27.0], [39.0, 12.0], [0.0, 15.0], [106.0, 33.0], [97.0, 20.0], [9.0, 13.0], [2.0, 13.0], [7.0, 0.0], [2473.0, 3051.0], [759.0, 1227.0], [374.0, 339.0], [142.0, 195.0], [3.0, 26.0], [139.0, 169.0], [47.0, 90.0], [92.0, 79.0], [63.0, 31.0], [29.0, 48.0], [17.0, 47.0], [12.0, 1.0], [232.0, 144.0], [52.0, 82.0], [13.0, 3.0], [39.0, 79.0], [7.0, 0.0], [32.0, 79.0], [180.0, 62.0], [1.0, 8.0], [179.0, 54.0], [49.0, 2.0], [130.0, 52.0], [72.0, 14.0], [58.0, 38.0], [17.0, 29.0], [41.0, 9.0], [385.0, 888.0], [47.0, 224.0], [338.0, 664.0], [51.0, 179.0], [287.0, 485.0], [26.0, 9.0], [24.0, 2.0], [2.0, 7.0], [261.0, 476.0], [11.0, 1.0], [250.0, 475.0], [3.0, 39.0], [247.0, 436.0], [212.0, 325.0], [180.0, 307.0], [113.0, 122.0], [67.0, 185.0], [32.0, 18.0], [35.0, 111.0], [1714.0, 1824.0], [615.0, 803.0], [521.0, 610.0], [480.0, 594.0], [209.0, 197.0], [198.0, 156.0], [11.0, 41.0], [271.0, 397.0], [187.0, 327.0], [74.0, 76.0], [113.0, 251.0], [84.0, 70.0], [63.0, 30.0], [21.0, 40.0], [8.0, 0.0], [13.0, 40.0], [41.0, 16.0], [94.0, 193.0], [13.0, 3.0], [81.0, 190.0], [1099.0, 1021.0], [839.0, 853.0], [251.0, 175.0], [15.0, 30.0], [236.0, 145.0], [48.0, 7.0], [188.0, 138.0], [132.0, 70.0], [12.0, 28.0], [120.0, 42.0], [56.0, 68.0], [588.0, 678.0], [554.0, 667.0], [309.0, 293.0], [251.0, 262.0], [220.0, 192.0], [212.0, 165.0], [8.0, 27.0], [7.0, 2.0], [1.0, 25.0], [31.0, 70.0], [58.0, 31.0], [49.0, 14.0], [9.0, 17.0], [2.0, 16.0], [7.0, 1.0], [245.0, 374.0], [81.0, 68.0], [55.0, 28.0], [26.0, 40.0], [11.0, 36.0], [15.0, 4.0], [164.0, 306.0], [34.0, 11.0], [260.0, 168.0], [260.0, 159.0], [0.0, 9.0]]}, {"children_left": [1, 2, 3, -1, 5, -1, 7, -1, 9, 10, -1, 12, 13, -1, -1, 16, 17, 18, -1, 20, -1, -1, -1, -1, -1, 26, 27, -1, 29, -1, -1, 32, -1, 34, -1, -1, 37, 38, 39, 40, -1, -1, 43, -1, 45, -1, 47, -1, 49, 50, -1, -1, -1, 54, 55, 56, 57, -1, 59, -1, -1, -1, 63, -1, 65, 66, 67, -1, 69, -1, 71, -1, -1, 74, 75, -1, 77, 78, 79, 80, 81, -1, -1, -1, 85, -1, 87, -1, -1, 90, -1, 92, -1, -1, 95, -1, 97, -1, -1, -1, 101, 102, 103, 104, 105, -1, -1, -1, 109, -1, 111, -1, 113, 114, 115, 116, -1, -1, -1, 120, -1, -1, -1, 124, -1, -1, 127, 128, 129, -1, -1, 132, -1, -1, 135, 136, -1, -1, -1, -1, 141, 142, -1, -1, 145, -1, -1], "children_right": [36, 25, 4, -1, 6, -1, 8, -1, 24, 11, -1, 15, 14, -1, -1, 23, 22, 19, -1, 21, -1, -1, -1, -1, -1, 31, 28, -1, 30, -1, -1, 33, -1, 35, -1, -1, 140, 53, 42, 41, -1, -1, 44, -1, 46, -1, 48, -1, 52, 51, -1, -1, -1, 139, 62, 61, 58, -1, 60, -1, -1, -1, 64, -1, 100, 73, 68, -1, 70, -1, 72, -1, -1, 99, 76, -1, 94, 89, 84, 83, 82, -1, -1, -1, 86, -1, 88, -1, -1, 91, -1, 93, -1, -1, 96, -1, 98, -1, -1, -1, 126, 123, 108, 107, 106, -1, -1, -1, 110, -1, 112, -1, 122, 119, 118, 117, -1, -1, -1, 121, -1, -1, -1, 125, -1, -1, 134, 131, 130, -1, -1, 133, -1, -1, 138, 137, -1, -1, -1, -1, 144, 143, -1, -1, 146, -1, -1], "threshold": [20.035000801086426, 40.5, 8.224999904632568, -2.0, -5.549999952316284, -2.0, 30.5, -2.0, 4.18999981880188, -33.5, -2.0, 33.5, 152.5, -2.0, -2.0, -42.0, -93.5, 6.5, -2.0, 19.15499973297119, -2.0, -2.0, -2.0, -2.0, -2.0, 17.5, 16.664999961853027, -2.0, 17.300000190734863, -2.0, -2.0, 13.5, -2.0, 1020.5, -2.0, -2.0, 23.664999961853027, -27.5, 1.8849999904632568, -33.5, -2.0, -2.0, 71.5, -2.0, 137.5, -2.0, 20.69499969482422, -2.0, 201.0, 51.5, -2.0, -2.0, -2.0, 192.5, 31.5, 171.5, 21.535000801086426, -2.0, 125.5, -2.0, -2.0, -2.0, -120.5, -2.0, 42.5, 5.5, 0.9300000071525574, -2.0, 2.024999976158142, -2.0, 15.985000133514404, -2.0, -2.0, 40.5, -106.5, -2.0, 31.989998817443848, 20.5, 9.904999732971191, 19.5, 4.525000095367432, -2.0, -2.0, -2.0, 12.360000133514404, -2.0, 149.5, -2.0, -2.0, 21.5, -2.0, 65.5, -2.0, -2.0, 35.010000228881836, -2.0, 37.31999969482422, -2.0, -2.0, -2.0, 15.5, 4.335000038146973, 115.5, 28.065000534057617, 24.44499969482422, -2.0, -2.0, -2.0, 8.904999732971191, -2.0, 37.5, -2.0, 181.0, 49.5, 20.03499984741211, 1019.5, -2.0, -2.0, -2.0, 64.5, -2.0, -2.0, -2.0, 35.5, -2.0, -2.0, 66.5, 41.5, 27.645000457763672, -2.0, -2.0, 1019.5, -2.0, -2.0, 22.46500015258789, 67.5, -2.0, -2.0, -2.0, -2.0, 28.304999351501465, 30.5, -2.0, -2.0, 25.15499973297119, -2.0, -2.0], "feature": [3, 0, 3, -2, 7, -2, 8, -2, 4, 0, -2, 0, 1, -2, -2, 1, 1, 2, -2, 3, -2, -2, -2, -2, -2, 1, 3, -2, 3, -2, -2, 2, -2, 6, -2, -2, 7, 0, 4, 0, -2, -2, 1, -2, 1, -2, 3, -2, 8, 8, -2, -2, -2, 8, 0, 8, 3, -2, 1, -2, -2, -2, 1, -2, 0, 2, 4, -2, 4, -2, 7, -2, -2, 1, 1, -2, 3, 2, 7, 2, 4, -2, -2, -2, 7, -2, 8, -2, -2, 2, -2, 5, -2, -2, 3, -2, 3, -2, -2, -2, 2, 4, 8, 3, 3, -2, -2, -2, 7, -2, 5, -2, 8, 0, 7, 6, -2, -2, -2, 5, -2, -2, -2, 5, -2, -2, 5, 5, 3, -2, -2, 6, -2, -2, 7, 5, -2, -2, -2, -2, 3, 0, -2, -2, 7, -2, -2], "classes": [0, 1], "value": [[3988.0, 3954.0], [1882.0, 1208.0], [607.0, 519.0], [69.0, 18.0], [538.0, 501.0], [3.0, 19.0], [535.0, 482.0], [52.0, 89.0], [483.0, 393.0], [344.0, 330.0], [136.0, 80.0], [208.0, 250.0], [61.0, 113.0], [48.0, 110.0], [13.0, 3.0], [147.0, 137.0], [110.0, 77.0], [53.0, 54.0], [7.0, 27.0], [46.0, 27.0], [44.0, 15.0], [2.0, 12.0], [57.0, 23.0], [37.0, 60.0], [139.0, 63.0], [1275.0, 689.0], [1043.0, 491.0], [704.0, 265.0], [339.0, 226.0], [37.0, 51.0], [302.0, 175.0], [232.0, 198.0], [144.0, 58.0], [88.0, 140.0], [84.0, 99.0], [4.0, 41.0], [2106.0, 2746.0], [1896.0, 2279.0], [253.0, 185.0], [31.0, 56.0], [17.0, 51.0], [14.0, 5.0], [222.0, 129.0], [16.0, 33.0], [206.0, 96.0], [49.0, 5.0], [157.0, 91.0], [23.0, 0.0], [134.0, 91.0], [126.0, 69.0], [7.0, 20.0], [119.0, 49.0], [8.0, 22.0], [1643.0, 2094.0], [1493.0, 1809.0], [216.0, 399.0], [187.0, 390.0], [6.0, 52.0], [181.0, 338.0], [148.0, 322.0], [33.0, 16.0], [29.0, 9.0], [1277.0, 1410.0], [61.0, 14.0], [1216.0, 1396.0], [654.0, 606.0], [76.0, 108.0], [9.0, 0.0], [67.0, 108.0], [6.0, 34.0], [61.0, 74.0], [17.0, 45.0], [44.0, 29.0], [578.0, 498.0], [566.0, 461.0], [50.0, 15.0], [516.0, 446.0], [484.0, 381.0], [363.0, 245.0], [44.0, 53.0], [37.0, 53.0], [21.0, 50.0], [16.0, 3.0], [7.0, 0.0], [319.0, 192.0], [74.0, 15.0], [245.0, 177.0], [170.0, 153.0], [75.0, 24.0], [121.0, 136.0], [23.0, 58.0], [98.0, 78.0], [43.0, 56.0], [55.0, 22.0], [32.0, 65.0], [12.0, 50.0], [20.0, 15.0], [16.0, 2.0], [4.0, 13.0], [12.0, 37.0], [562.0, 790.0], [300.0, 310.0], [198.0, 246.0], [78.0, 62.0], [73.0, 43.0], [38.0, 40.0], [35.0, 3.0], [5.0, 19.0], [120.0, 184.0], [0.0, 16.0], [120.0, 168.0], [10.0, 0.0], [110.0, 168.0], [97.0, 165.0], [65.0, 74.0], [61.0, 52.0], [59.0, 32.0], [2.0, 20.0], [4.0, 22.0], [32.0, 91.0], [13.0, 74.0], [19.0, 17.0], [13.0, 3.0], [102.0, 64.0], [2.0, 17.0], [100.0, 47.0], [262.0, 480.0], [168.0, 370.0], [46.0, 40.0], [32.0, 9.0], [14.0, 31.0], [122.0, 330.0], [113.0, 239.0], [9.0, 91.0], [94.0, 110.0], [83.0, 110.0], [17.0, 4.0], [66.0, 106.0], [11.0, 0.0], [150.0, 285.0], [210.0, 467.0], [58.0, 227.0], [49.0, 223.0], [9.0, 4.0], [152.0, 240.0], [115.0, 129.0], [37.0, 111.0]]}, {"children_left": [1, 2, 3, 4, 5, 6, -1, -1, -1, 10, -1, 12, -1, -1, -1, 16, 17, -1, 19, -1, -1, 22, 23, -1, 25, -1, -1, -1, 29, 30, 31, 32, -1, 34, 35, -1, -1, -1, -1, 40, -1, 42, -1, -1, 45, 46, 47, 48, 49, 50, 51, -1, -1, -1, 55, -1, 57, -1, 59, -1, -1, 62, -1, 64, 65, 66, -1, 68, 69, -1, -1, -1, 73, 74, 75, -1, -1, -1, 79, 80, -1, -1, 83, 84, 85, -1, 87, -1, -1, -1, 91, -1, -1, 94, 95, -1, 97, -1, -1, -1, 101, -1, 103, -1, 105, 106, 107, -1, -1, -1, -1, 112, 113, -1, 115, -1, -1, 118, 119, -1, -1, -1, 123, -1, -1], "children_right": [28, 15, 14, 9, 8, 7, -1, -1, -1, 11, -1, 13, -1, -1, -1, 21, 18, -1, 20, -1, -1, 27, 24, -1, 26, -1, -1, -1, 44, 39, 38, 33, -1, 37, 36, -1, -1, -1, -1, 41, -1, 43, -1, -1, 122, 111, 100, 61, 54, 53, 52, -1, -1, -1, 56, -1, 58, -1, 60, -1, -1, 63, -1, 93, 72, 67, -1, 71, 70, -1, -1, -1, 78, 77, 76, -1, -1, -1, 82, 81, -1, -1, 90, 89, 86, -1, 88, -1, -1, -1, 92, -1, -1, 99, 96, -1, 98, -1, -1, -1, 102, -1, 104, -1, 110, 109, 108, -1, -1, -1, -1, 117, 114, -1, 116, -1, -1, 121, 120, -1, -1, -1, 124, -1, -1], "threshold": [17.969999313354492, 14.5, 150.0, 229.0, 20.5, 144.5, -2.0, -2.0, -2.0, 7.244999885559082, -2.0, -78.5, -2.0, -2.0, -2.0, 16.5, 32.0, -2.0, 15.789999961853027, -2.0, -2.0, 123.5, 11.865000247955322, -2.0, 12.864999771118164, -2.0, -2.0, -2.0, 1.4049999713897705, -90.5, -104.0, 75.5, -2.0, -119.5, 44.5, -2.0, -2.0, -2.0, -2.0, 33.5, -2.0, 30.479999542236328, -2.0, -2.0, 24.11500072479248, 216.5, 164.5, -86.5, 3.5, 9.599999904632568, 7.549999952316284, -2.0, -2.0, -2.0, 82.5, -2.0, 19.774999618530273, -2.0, 4.860000133514404, -2.0, -2.0, 18.15499973297119, -2.0, 15.5, 2.5549999475479126, -72.5, -2.0, 43.5, 10.775000095367432, -2.0, -2.0, -2.0, 21.699999809265137, 4.979999780654907, 47.0, -2.0, -2.0, -2.0, 2.84499990940094, 65.0, -2.0, -2.0, 29.94499969482422, -33.5, 130.0, -2.0, 148.5, -2.0, -2.0, -2.0, 32.19499969482422, -2.0, -2.0, 3.390000104904175, 102.0, -2.0, 27.77999973297119, -2.0, -2.0, -2.0, -35.5, -2.0, 192.5, -2.0, 210.5, 2.319999933242798, 24.0, -2.0, -2.0, -2.0, -2.0, 103.5, 1015.5, -2.0, -73.5, -2.0, -2.0, 6.5, 18.125, -2.0, -2.0, -2.0, 62.5, -2.0, -2.0], "feature": [3, 2, 1, 8, 0, 1, -2, -2, -2, 7, -2, 1, -2, -2, -2, 1, 0, -2, 7, -2, -2, 1, 7, -2, 7, -2, -2, -2, 4, 1, 1, 8, -2, 1, 0, -2, -2, -2, -2, 0, -2, 3, -2, -2, 7, 8, 8, 1, 2, 7, 4, -2, -2, -2, 8, -2, 7, -2, 4, -2, -2, 3, -2, 2, 4, 1, -2, 5, 7, -2, -2, -2, 3, 4, 8, -2, -2, -2, 4, 8, -2, -2, 3, 0, 8, -2, 8, -2, -2, -2, 3, -2, -2, 4, 1, -2, 3, -2, -2, -2, 0, -2, 8, -2, 8, 4, 1, -2, -2, -2, -2, 1, 6, -2, 1, -2, -2, 0, 3, -2, -2, -2, 5, -2, -2], "classes": [0, 1], "value": [[4000.0, 3942.0], [1467.0, 874.0], [822.0, 395.0], [794.0, 360.0], [653.0, 255.0], [54.0, 48.0], [9.0, 41.0], [45.0, 7.0], [599.0, 207.0], [141.0, 105.0], [97.0, 40.0], [44.0, 65.0], [0.0, 22.0], [44.0, 43.0], [28.0, 35.0], [645.0, 479.0], [486.0, 310.0], [5.0, 25.0], [481.0, 285.0], [476.0, 267.0], [5.0, 18.0], [159.0, 169.0], [95.0, 147.0], [62.0, 126.0], [33.0, 21.0], [16.0, 0.0], [17.0, 21.0], [64.0, 22.0], [2533.0, 3068.0], [238.0, 480.0], [52.0, 42.0], [23.0, 36.0], [5.0, 0.0], [18.0, 36.0], [14.0, 8.0], [14.0, 0.0], [0.0, 8.0], [4.0, 28.0], [29.0, 6.0], [186.0, 438.0], [77.0, 262.0], [109.0, 176.0], [98.0, 175.0], [11.0, 1.0], [2295.0, 2588.0], [2139.0, 2290.0], [1979.0, 2023.0], [1574.0, 1729.0], [336.0, 271.0], [57.0, 81.0], [6.0, 29.0], [1.0, 29.0], [5.0, 0.0], [51.0, 52.0], [279.0, 190.0], [109.0, 38.0], [170.0, 152.0], [112.0, 128.0], [58.0, 24.0], [48.0, 8.0], [10.0, 16.0], [1238.0, 1458.0], [23.0, 3.0], [1215.0, 1455.0], [760.0, 741.0], [173.0, 262.0], [46.0, 32.0], [127.0, 230.0], [49.0, 49.0], [20.0, 39.0], [29.0, 10.0], [78.0, 181.0], [587.0, 479.0], [213.0, 110.0], [164.0, 59.0], [6.0, 13.0], [158.0, 46.0], [49.0, 51.0], [374.0, 369.0], [48.0, 17.0], [0.0, 6.0], [48.0, 11.0], [326.0, 352.0], [242.0, 300.0], [23.0, 63.0], [10.0, 55.0], [13.0, 8.0], [11.0, 0.0], [2.0, 8.0], [219.0, 237.0], [84.0, 52.0], [58.0, 16.0], [26.0, 36.0], [455.0, 714.0], [183.0, 360.0], [158.0, 349.0], [25.0, 11.0], [25.0, 5.0], [0.0, 6.0], [272.0, 354.0], [405.0, 294.0], [34.0, 3.0], [371.0, 291.0], [292.0, 190.0], [79.0, 101.0], [51.0, 90.0], [18.0, 8.0], [16.0, 0.0], [2.0, 8.0], [33.0, 82.0], [28.0, 11.0], [160.0, 267.0], [63.0, 166.0], [16.0, 113.0], [47.0, 53.0], [30.0, 13.0], [17.0, 40.0], [97.0, 101.0], [82.0, 59.0], [0.0, 10.0], [82.0, 49.0], [15.0, 42.0], [156.0, 298.0], [27.0, 6.0], [129.0, 292.0]]}, {"children_left": [1, 2, 3, 4, 5, -1, 7, 8, -1, -1, 11, -1, -1, 14, -1, 16, -1, -1, -1, 20, 21, -1, 23, -1, 25, 26, -1, -1, 29, -1, 31, 32, -1, -1, 35, -1, -1, 38, 39, -1, 41, -1, 43, 44, -1, -1, 47, -1, -1, 50, 51, 52, -1, 54, -1, -1, -1, 58, -1, -1, 61, 62, 63, -1, 65, 66, 67, 68, 69, -1, 71, 72, -1, -1, -1, -1, -1, -1, -1, 80, -1, -1, 83, 84, 85, -1, -1, 88, 89, 90, 91, -1, -1, -1, 95, 96, -1, 98, -1, -1, -1, 102, -1, 104, -1, 106, 107, 108, -1, -1, -1, -1, 113, 114, -1, 116, -1, 118, -1, 120, 121, -1, -1, -1, 125, -1, 127, -1, 129, 130, 131, -1, 133, 134, -1, -1, 137, 138, -1, -1, -1, 142, 143, -1, -1, -1, -1], "children_right": [60, 19, 18, 13, 6, -1, 10, 9, -1, -1, 12, -1, -1, 15, -1, 17, -1, -1, -1, 37, 22, -1, 24, -1, 28, 27, -1, -1, 30, -1, 34, 33, -1, -1, 36, -1, -1, 49, 40, -1, 42, -1, 46, 45, -1, -1, 48, -1, -1, 57, 56, 53, -1, 55, -1, -1, -1, 59, -1, -1, 82, 79, 64, -1, 78, 77, 76, 75, 70, -1, 74, 73, -1, -1, -1, -1, -1, -1, -1, 81, -1, -1, 112, 87, 86, -1, -1, 101, 94, 93, 92, -1, -1, -1, 100, 97, -1, 99, -1, -1, -1, 103, -1, 105, -1, 111, 110, 109, -1, -1, -1, -1, 124, 115, -1, 117, -1, 119, -1, 123, 122, -1, -1, -1, 126, -1, 128, -1, 146, 141, 132, -1, 136, 135, -1, -1, 140, 139, -1, -1, -1, 145, 144, -1, -1, -1, -1], "threshold": [20.4350004196167, 59.5, 1029.5, 4.484999895095825, 50.5, -2.0, 3.7200000286102295, 67.5, -2.0, -2.0, 135.5, -2.0, -2.0, 1008.5, -2.0, 1010.5, -2.0, -2.0, -2.0, 17.5, 33.5, -2.0, 16.34500026702881, -2.0, -5.5, -98.5, -2.0, -2.0, 113.5, -2.0, 3.319999933242798, 7.5, -2.0, -2.0, 15.5, -2.0, -2.0, -24.5, 68.5, -2.0, 10.03000020980835, -2.0, 1022.5, 8.5, -2.0, -2.0, 9.5, -2.0, -2.0, 4.9049999713897705, 13.5, 30.5, -2.0, 62.0, -2.0, -2.0, -2.0, 7.0, -2.0, -2.0, 2.59499990940094, 29.789999961853027, -87.5, -2.0, 87.5, 151.5, 25.445000648498535, 2.40500009059906, 12.335000038146973, -2.0, 96.5, -83.5, -2.0, -2.0, -2.0, -2.0, -2.0, -2.0, -2.0, 3.5, -2.0, -2.0, 16.5, 21.8149995803833, 41.5, -2.0, -2.0, 63.5, 28.5, 12.96500015258789, 7.574999809265137, -2.0, -2.0, -2.0, 44.0, 86.5, -2.0, 202.0, -2.0, -2.0, -2.0, -89.5, -2.0, 28.5, -2.0, 25.5, 3.5, 120.5, -2.0, -2.0, -2.0, -2.0, 17.375, -100.5, -2.0, 6.230000019073486, -2.0, 21.219999313354492, -2.0, 14.304999828338623, 22.03499984741211, -2.0, -2.0, -2.0, 2.7450000047683716, -2.0, 50.5, -2.0, 151.0, 25.265000343322754, 92.5, -2.0, 143.5, 1016.5, -2.0, -2.0, 50.5, 190.0, -2.0, -2.0, -2.0, 113.5, 18.265000343322754, -2.0, -2.0, -2.0, -2.0], "feature": [3, 5, 6, 4, 8, -2, 4, 8, -2, -2, 1, -2, -2, 6, -2, 6, -2, -2, -2, 1, 0, -2, 3, -2, 1, 1, -2, -2, 8, -2, 4, 1, -2, -2, 2, -2, -2, 0, 5, -2, 7, -2, 6, 2, -2, -2, 2, -2, -2, 4, 2, 1, -2, 5, -2, -2, -2, 2, -2, -2, 4, 3, 1, -2, 5, 1, 3, 4, 7, -2, 8, 1, -2, -2, -2, -2, -2, -2, -2, 2, -2, -2, 2, 3, 0, -2, -2, 5, 1, 7, 4, -2, -2, -2, 0, 8, -2, 8, -2, -2, -2, 1, -2, 1, -2, 0, 2, 1, -2, -2, -2, -2, 7, 1, -2, 7, -2, 3, -2, 7, 3, -2, -2, -2, 4, -2, 5, -2, 1, 3, 8, -2, 8, 6, -2, -2, 0, 8, -2, -2, -2, 8, 7, -2, -2, -2, -2], "classes": [0, 1], "value": [[3939.0, 4003.0], [1875.0, 1329.0], [472.0, 427.0], [435.0, 421.0], [260.0, 325.0], [59.0, 116.0], [201.0, 209.0], [174.0, 155.0], [40.0, 10.0], [134.0, 145.0], [27.0, 54.0], [20.0, 54.0], [7.0, 0.0], [175.0, 96.0], [51.0, 9.0], [124.0, 87.0], [9.0, 22.0], [115.0, 65.0], [37.0, 6.0], [1403.0, 902.0], [1000.0, 542.0], [33.0, 68.0], [967.0, 474.0], [611.0, 253.0], [356.0, 221.0], [194.0, 85.0], [29.0, 33.0], [165.0, 52.0], [162.0, 136.0], [70.0, 29.0], [92.0, 107.0], [31.0, 60.0], [9.0, 50.0], [22.0, 10.0], [61.0, 47.0], [51.0, 10.0], [10.0, 37.0], [403.0, 360.0], [212.0, 124.0], [37.0, 43.0], [175.0, 81.0], [86.0, 21.0], [89.0, 60.0], [80.0, 39.0], [9.0, 17.0], [71.0, 22.0], [9.0, 21.0], [7.0, 1.0], [2.0, 20.0], [191.0, 236.0], [169.0, 181.0], [86.0, 55.0], [67.0, 27.0], [19.0, 28.0], [8.0, 0.0], [11.0, 28.0], [83.0, 126.0], [22.0, 55.0], [9.0, 0.0], [13.0, 55.0], [2064.0, 2674.0], [672.0, 1132.0], [526.0, 989.0], [93.0, 88.0], [433.0, 901.0], [393.0, 730.0], [375.0, 725.0], [235.0, 366.0], [220.0, 308.0], [39.0, 87.0], [181.0, 221.0], [51.0, 23.0], [0.0, 7.0], [51.0, 16.0], [130.0, 198.0], [15.0, 58.0], [140.0, 359.0], [18.0, 5.0], [40.0, 171.0], [146.0, 143.0], [25.0, 5.0], [121.0, 138.0], [1392.0, 1542.0], [923.0, 902.0], [156.0, 89.0], [60.0, 62.0], [96.0, 27.0], [767.0, 813.0], [481.0, 422.0], [213.0, 258.0], [65.0, 134.0], [56.0, 133.0], [9.0, 1.0], [148.0, 124.0], [268.0, 164.0], [266.0, 151.0], [44.0, 48.0], [222.0, 103.0], [192.0, 67.0], [30.0, 36.0], [2.0, 13.0], [286.0, 391.0], [37.0, 16.0], [249.0, 375.0], [64.0, 139.0], [185.0, 236.0], [155.0, 225.0], [37.0, 19.0], [30.0, 4.0], [7.0, 15.0], [118.0, 206.0], [30.0, 11.0], [469.0, 640.0], [221.0, 395.0], [48.0, 35.0], [173.0, 360.0], [3.0, 44.0], [170.0, 316.0], [9.0, 53.0], [161.0, 263.0], [107.0, 122.0], [33.0, 13.0], [74.0, 109.0], [54.0, 141.0], [248.0, 245.0], [22.0, 4.0], [226.0, 241.0], [32.0, 11.0], [194.0, 230.0], [183.0, 229.0], [74.0, 59.0], [20.0, 2.0], [54.0, 57.0], [14.0, 36.0], [6.0, 34.0], [8.0, 2.0], [40.0, 21.0], [38.0, 13.0], [37.0, 5.0], [1.0, 8.0], [2.0, 8.0], [109.0, 170.0], [27.0, 81.0], [8.0, 2.0], [19.0, 79.0], [82.0, 89.0], [11.0, 1.0]]}, {"children_left": [1, 2, 3, 4, -1, 6, 7, -1, -1, -1, 11, 12, 13, -1, -1, -1, 17, 18, -1, 20, -1, 22, -1, -1, -1, 26, 27, 28, 29, -1, -1, -1, 33, 34, -1, -1, -1, 38, 39, -1, -1, 42, -1, 44, 45, 46, -1, -1, -1, -1, 51, 52, 53, 54, 55, -1, 57, -1, 59, 60, -1, 62, 63, -1, -1, 66, -1, 68, -1, 70, -1, 72, -1, -1, -1, 76, -1, 78, 79, -1, 81, -1, -1, 84, 85, -1, -1, 88, -1, 90, -1, 92, 93, -1, -1, -1, 97, 98, 99, 100, -1, -1, -1, 104, 105, 106, -1, -1, -1, -1, -1, 112, 113, 114, -1, -1, -1, 118, -1, 120, -1, 122, -1, -1, 125, -1, 127, -1, 129, 130, -1, -1, -1], "children_right": [50, 25, 10, 5, -1, 9, 8, -1, -1, -1, 16, 15, 14, -1, -1, -1, 24, 19, -1, 21, -1, 23, -1, -1, -1, 37, 32, 31, 30, -1, -1, -1, 36, 35, -1, -1, -1, 41, 40, -1, -1, 43, -1, 49, 48, 47, -1, -1, -1, -1, 124, 111, 96, 75, 56, -1, 58, -1, 74, 61, -1, 65, 64, -1, -1, 67, -1, 69, -1, 71, -1, 73, -1, -1, -1, 77, -1, 83, 80, -1, 82, -1, -1, 87, 86, -1, -1, 89, -1, 91, -1, 95, 94, -1, -1, -1, 110, 103, 102, 101, -1, -1, -1, 109, 108, 107, -1, -1, -1, -1, -1, 117, 116, 115, -1, -1, -1, 119, -1, 121, -1, 123, -1, -1, 126, -1, 128, -1, 132, 131, -1, -1, -1], "threshold": [20.5649995803833, 62.5, 2.65500009059906, 14.505000114440918, -2.0, 16.795000076293945, 1.600000023841858, -2.0, -2.0, -2.0, 13.555000305175781, 10.099999904632568, 50.5, -2.0, -2.0, -2.0, 7.650000095367432, 26.0, -2.0, -3.5, -2.0, 40.5, -2.0, -2.0, -2.0, 40.5, 111.5, 20.5, 5.340000152587891, -2.0, -2.0, -2.0, 32.0, 9.464999675750732, -2.0, -2.0, -2.0, 14.5, 9.660000324249268, -2.0, -2.0, -3.5, -2.0, 19.730000495910645, 53.5, 53.5, -2.0, -2.0, -2.0, -2.0, 215.5, 82.5, 42.5, 29.5, 114.5, -2.0, 117.5, -2.0, 23.5649995803833, 22.929999351501465, -2.0, 4.5, 3.5, -2.0, -2.0, -34.5, -2.0, 21.264999389648438, -2.0, 22.274999618530273, -2.0, 1008.5, -2.0, -2.0, -2.0, 5.5, -2.0, 22.539999961853027, 3.834999918937683, -2.0, -83.5, -2.0, -2.0, 10.775000095367432, 29.5, -2.0, -2.0, 17.5, -2.0, 155.5, -2.0, 20.954999923706055, 20.5, -2.0, -2.0, -2.0, 22.630000114440918, -93.5, 57.0, 87.0, -2.0, -2.0, -2.0, 16.5, 26.5, 21.8149995803833, -2.0, -2.0, -2.0, -2.0, -2.0, 15.5, 1.5, 2.659999966621399, -2.0, -2.0, -2.0, 39.5, -2.0, 45.5, -2.0, 1016.0, -2.0, -2.0, 8.744999885559082, -2.0, 78.0, -2.0, 25.179999351501465, 118.5, -2.0, -2.0, -2.0], "feature": [3, 5, 4, 3, -2, 3, 7, -2, -2, -2, 3, 3, 8, -2, -2, -2, 4, 5, -2, 1, -2, 8, -2, -2, -2, 0, 1, 0, 4, -2, -2, -2, 8, 7, -2, -2, -2, 2, 3, -2, -2, 1, -2, 3, 8, 0, -2, -2, -2, -2, 8, 5, 0, 0, 1, -2, 1, -2, 7, 3, -2, 2, 2, -2, -2, 0, -2, 7, -2, 7, -2, 6, -2, -2, -2, 2, -2, 3, 4, -2, 1, -2, -2, 7, 5, -2, -2, 2, -2, 8, -2, 7, 2, -2, -2, -2, 7, 1, 5, 8, -2, -2, -2, 2, 1, 3, -2, -2, -2, -2, -2, 0, 0, 4, -2, -2, -2, 8, -2, 0, -2, 6, -2, -2, 7, -2, 1, -2, 3, 1, -2, -2, -2], "classes": [0, 1], "value": [[3894.0, 4048.0], [1948.0, 1378.0], [533.0, 488.0], [146.0, 192.0], [29.0, 85.0], [117.0, 107.0], [59.0, 23.0], [5.0, 11.0], [54.0, 12.0], [58.0, 84.0], [387.0, 296.0], [132.0, 63.0], [53.0, 45.0], [34.0, 10.0], [19.0, 35.0], [79.0, 18.0], [255.0, 233.0], [227.0, 229.0], [1.0, 18.0], [226.0, 211.0], [67.0, 95.0], [159.0, 116.0], [13.0, 30.0], [146.0, 86.0], [28.0, 4.0], [1415.0, 890.0], [432.0, 351.0], [239.0, 240.0], [22.0, 71.0], [14.0, 69.0], [8.0, 2.0], [217.0, 169.0], [193.0, 111.0], [8.0, 25.0], [8.0, 3.0], [0.0, 22.0], [185.0, 86.0], [983.0, 539.0], [559.0, 221.0], [97.0, 67.0], [462.0, 154.0], [424.0, 318.0], [164.0, 73.0], [260.0, 245.0], [248.0, 209.0], [23.0, 53.0], [12.0, 52.0], [11.0, 1.0], [225.0, 156.0], [12.0, 36.0], [1946.0, 2670.0], [1829.0, 2370.0], [1655.0, 1984.0], [1157.0, 1228.0], [465.0, 607.0], [169.0, 355.0], [296.0, 252.0], [36.0, 5.0], [260.0, 247.0], [221.0, 176.0], [27.0, 67.0], [194.0, 109.0], [46.0, 41.0], [40.0, 18.0], [6.0, 23.0], [148.0, 68.0], [31.0, 31.0], [117.0, 37.0], [85.0, 14.0], [32.0, 23.0], [2.0, 13.0], [30.0, 10.0], [4.0, 9.0], [26.0, 1.0], [39.0, 71.0], [692.0, 621.0], [76.0, 121.0], [616.0, 500.0], [110.0, 50.0], [75.0, 19.0], [35.0, 31.0], [19.0, 2.0], [16.0, 29.0], [506.0, 450.0], [83.0, 119.0], [65.0, 56.0], [18.0, 63.0], [423.0, 331.0], [192.0, 113.0], [231.0, 218.0], [156.0, 187.0], [75.0, 31.0], [41.0, 28.0], [24.0, 3.0], [17.0, 25.0], [34.0, 3.0], [498.0, 756.0], [481.0, 753.0], [54.0, 40.0], [30.0, 38.0], [16.0, 3.0], [14.0, 35.0], [24.0, 2.0], [427.0, 713.0], [284.0, 390.0], [277.0, 349.0], [63.0, 32.0], [214.0, 317.0], [7.0, 41.0], [143.0, 323.0], [17.0, 3.0], [174.0, 386.0], [53.0, 193.0], [33.0, 54.0], [14.0, 45.0], [19.0, 9.0], [20.0, 139.0], [121.0, 193.0], [0.0, 16.0], [121.0, 177.0], [112.0, 142.0], [9.0, 35.0], [0.0, 33.0], [9.0, 2.0], [117.0, 300.0], [20.0, 11.0], [97.0, 289.0], [21.0, 128.0], [76.0, 161.0], [37.0, 28.0], [22.0, 3.0], [15.0, 25.0], [39.0, 133.0]]}, {"children_left": [1, 2, 3, 4, 5, 6, 7, -1, -1, -1, 11, -1, -1, 14, 15, -1, 17, -1, 19, -1, 21, -1, -1, -1, 25, 26, 27, 28, -1, -1, -1, -1, -1, 34, 35, -1, -1, 38, -1, 40, -1, 42, -1, -1, 45, 46, -1, 48, 49, 50, 51, -1, -1, 54, -1, -1, -1, 58, -1, 60, 61, -1, -1, 64, 65, 66, -1, -1, -1, -1, 71, 72, 73, 74, -1, 76, 77, -1, -1, 80, -1, 82, -1, 84, 85, -1, -1, -1, 89, 90, 91, 92, 93, -1, 95, -1, -1, -1, 99, -1, 101, -1, 103, 104, 105, 106, 107, -1, 109, -1, -1, -1, 113, -1, -1, -1, -1, -1, -1, 120, -1, 122, 123, 124, 125, 126, 127, -1, -1, -1, -1, -1, 133, -1, 135, -1, -1, -1, 139, -1, -1], "children_right": [44, 33, 24, 13, 10, 9, 8, -1, -1, -1, 12, -1, -1, 23, 16, -1, 18, -1, 20, -1, 22, -1, -1, -1, 32, 31, 30, 29, -1, -1, -1, -1, -1, 37, 36, -1, -1, 39, -1, 41, -1, 43, -1, -1, 70, 47, -1, 57, 56, 53, 52, -1, -1, 55, -1, -1, -1, 59, -1, 63, 62, -1, -1, 69, 68, 67, -1, -1, -1, -1, 138, 119, 88, 75, -1, 79, 78, -1, -1, 81, -1, 83, -1, 87, 86, -1, -1, -1, 118, 117, 98, 97, 94, -1, 96, -1, -1, -1, 100, -1, 102, -1, 116, 115, 112, 111, 108, -1, 110, -1, -1, -1, 114, -1, -1, -1, -1, -1, -1, 121, -1, 137, 132, 131, 130, 129, 128, -1, -1, -1, -1, -1, 134, -1, 136, -1, -1, -1, 140, -1, -1], "threshold": [20.38499927520752, 3.034999966621399, 16.824999809265137, 68.5, 14.760000228881836, 4.554999828338623, 95.0, -2.0, -2.0, -2.0, 1.8949999809265137, -2.0, -2.0, 16.5, 1.7400000095367432, -2.0, 11.039999961853027, -2.0, 139.0, -2.0, 0.7950000166893005, -2.0, -2.0, -2.0, 2.890000104904175, 2.725000023841858, -5.5, 231.5, -2.0, -2.0, -2.0, -2.0, -2.0, 13.5, 28.5, -2.0, -2.0, 4.949999809265137, -2.0, 6.880000114440918, -2.0, 8.5, -2.0, -2.0, 2.625, -92.5, -2.0, 28.954999923706055, 349.0, 1013.5, 89.5, -2.0, -2.0, 34.0, -2.0, -2.0, -2.0, 1.5, -2.0, 27.0, 29.195000648498535, -2.0, -2.0, 171.0, 21.5, 1008.5, -2.0, -2.0, -2.0, -2.0, 195.5, 144.5, 24.734999656677246, 7.140000104904175, -2.0, 8.265000343322754, 123.5, -2.0, -2.0, 78.5, -2.0, 112.5, -2.0, 14.5, 1007.0, -2.0, -2.0, -2.0, 7.305000066757202, 34.59499931335449, 3.165000081062317, 16.960000038146973, 8.724999904632568, -2.0, 15.5, -2.0, -2.0, -2.0, 4.730000019073486, -2.0, 3.2050000429153442, -2.0, 110.5, 1017.5, 31.46500015258789, 1016.5, 4.115000009536743, -2.0, 23.665000915527344, -2.0, -2.0, -2.0, 3.8049999475479126, -2.0, -2.0, -2.0, -2.0, -2.0, -2.0, -31.0, -2.0, 25.244999885559082, 51.5, 12.005000114440918, 183.0, 38.5, 11.5, -2.0, -2.0, -2.0, -2.0, -2.0, 49.5, -2.0, 22.519999504089355, -2.0, -2.0, -2.0, -15.0, -2.0, -2.0], "feature": [3, 4, 3, 5, 3, 7, 1, -2, -2, -2, 7, -2, -2, 2, 3, -2, 7, -2, 8, -2, 4, -2, -2, -2, 4, 4, 1, 8, -2, -2, -2, -2, -2, 1, 0, -2, -2, 3, -2, 3, -2, 8, -2, -2, 4, 1, -2, 3, 8, 6, 5, -2, -2, 1, -2, -2, -2, 0, -2, 0, 3, -2, -2, 8, 2, 6, -2, -2, -2, -2, 8, 8, 3, 7, -2, 7, 8, -2, -2, 8, -2, 8, -2, 2, 6, -2, -2, -2, 4, 3, 4, 7, 7, -2, 2, -2, -2, -2, 7, -2, 4, -2, 8, 6, 3, 6, 4, -2, 7, -2, -2, -2, 4, -2, -2, -2, -2, -2, -2, 0, -2, 7, 0, 7, 8, 5, 2, -2, -2, -2, -2, -2, 5, -2, 3, -2, -2, -2, 0, -2, -2], "classes": [0, 1], "value": [[3968.0, 3974.0], [1957.0, 1334.0], [842.0, 709.0], [575.0, 367.0], [153.0, 147.0], [89.0, 112.0], [72.0, 65.0], [58.0, 65.0], [14.0, 0.0], [17.0, 47.0], [64.0, 35.0], [3.0, 13.0], [61.0, 22.0], [422.0, 220.0], [286.0, 114.0], [8.0, 18.0], [278.0, 96.0], [199.0, 46.0], [79.0, 50.0], [32.0, 37.0], [47.0, 13.0], [1.0, 6.0], [46.0, 7.0], [136.0, 106.0], [267.0, 342.0], [264.0, 301.0], [225.0, 292.0], [103.0, 82.0], [103.0, 66.0], [0.0, 16.0], [122.0, 210.0], [39.0, 9.0], [3.0, 41.0], [1115.0, 625.0], [798.0, 383.0], [13.0, 25.0], [785.0, 358.0], [317.0, 242.0], [29.0, 3.0], [288.0, 239.0], [3.0, 17.0], [285.0, 222.0], [4.0, 18.0], [281.0, 204.0], [2011.0, 2640.0], [673.0, 1155.0], [101.0, 97.0], [572.0, 1058.0], [419.0, 889.0], [411.0, 889.0], [170.0, 468.0], [158.0, 369.0], [12.0, 99.0], [241.0, 421.0], [179.0, 366.0], [62.0, 55.0], [8.0, 0.0], [153.0, 169.0], [32.0, 11.0], [121.0, 158.0], [36.0, 79.0], [11.0, 0.0], [25.0, 79.0], [85.0, 79.0], [70.0, 79.0], [51.0, 72.0], [19.0, 3.0], [32.0, 69.0], [19.0, 7.0], [15.0, 0.0], [1338.0, 1485.0], [1232.0, 1282.0], [821.0, 979.0], [361.0, 325.0], [22.0, 50.0], [339.0, 275.0], [27.0, 5.0], [27.0, 0.0], [0.0, 5.0], [312.0, 270.0], [62.0, 83.0], [250.0, 187.0], [142.0, 65.0], [108.0, 122.0], [68.0, 42.0], [0.0, 8.0], [68.0, 34.0], [40.0, 80.0], [460.0, 654.0], [443.0, 595.0], [417.0, 582.0], [68.0, 135.0], [37.0, 39.0], [1.0, 16.0], [36.0, 23.0], [29.0, 5.0], [7.0, 18.0], [31.0, 96.0], [349.0, 447.0], [15.0, 3.0], [334.0, 444.0], [11.0, 1.0], [323.0, 443.0], [155.0, 267.0], [150.0, 228.0], [111.0, 196.0], [98.0, 195.0], [21.0, 94.0], [77.0, 101.0], [67.0, 63.0], [10.0, 38.0], [13.0, 1.0], [39.0, 32.0], [22.0, 3.0], [17.0, 29.0], [5.0, 39.0], [168.0, 176.0], [26.0, 13.0], [17.0, 59.0], [411.0, 303.0], [56.0, 14.0], [355.0, 289.0], [351.0, 260.0], [325.0, 217.0], [41.0, 50.0], [22.0, 49.0], [22.0, 33.0], [3.0, 25.0], [19.0, 8.0], [0.0, 16.0], [19.0, 1.0], [284.0, 167.0], [26.0, 43.0], [0.0, 11.0], [26.0, 32.0], [21.0, 5.0], [5.0, 27.0], [4.0, 29.0], [106.0, 203.0], [32.0, 24.0], [74.0, 179.0]]}, {"children_left": [1, 2, 3, 4, 5, -1, 7, 8, -1, -1, 11, -1, -1, 14, -1, -1, 17, 18, 19, 20, 21, -1, 23, -1, -1, -1, -1, 28, 29, -1, -1, 32, 33, 34, 35, 36, -1, -1, -1, -1, -1, -1, 43, -1, 45, 46, -1, -1, 49, -1, 51, -1, -1, 54, 55, 56, -1, -1, 59, 60, 61, 62, -1, -1, -1, 66, 67, 68, -1, -1, -1, -1, 73, 74, -1, 76, -1, 78, -1, 80, 81, -1, 83, -1, -1, 86, -1, -1, 89, -1, 91, 92, -1, -1, 95, 96, -1, -1, -1, 100, 101, -1, -1, 104, 105, 106, -1, -1, 109, 110, -1, -1, -1, 114, -1, -1, 117, 118, 119, -1, 121, -1, -1, 124, 125, 126, -1, 128, -1, 130, -1, -1, -1, -1, 135, 136, 137, -1, 139, -1, -1, 142, -1, -1, 145, 146, -1, -1, -1], "children_right": [116, 53, 16, 13, 6, -1, 10, 9, -1, -1, 12, -1, -1, 15, -1, -1, 42, 27, 26, 25, 22, -1, 24, -1, -1, -1, -1, 31, 30, -1, -1, 41, 40, 39, 38, 37, -1, -1, -1, -1, -1, -1, 44, -1, 48, 47, -1, -1, 50, -1, 52, -1, -1, 99, 58, 57, -1, -1, 72, 65, 64, 63, -1, -1, -1, 71, 70, 69, -1, -1, -1, -1, 88, 75, -1, 77, -1, 79, -1, 85, 82, -1, 84, -1, -1, 87, -1, -1, 90, -1, 94, 93, -1, -1, 98, 97, -1, -1, -1, 103, 102, -1, -1, 113, 108, 107, -1, -1, 112, 111, -1, -1, -1, 115, -1, -1, 134, 123, 120, -1, 122, -1, -1, 133, 132, 127, -1, 129, -1, 131, -1, -1, -1, -1, 144, 141, 138, -1, 140, -1, -1, 143, -1, -1, 148, 147, -1, -1, -1], "threshold": [18.855000495910645, 20.505000114440918, 35.5, -32.5, 7.065000057220459, -2.0, 61.0, 5.134999990463257, -2.0, -2.0, 184.0, -2.0, -2.0, 8.5, -2.0, -2.0, 17.5, -96.5, 7.049999952316284, 10.875, 7.820000171661377, -2.0, 4.299999952316284, -2.0, -2.0, -2.0, -2.0, 17.5, 48.5, -2.0, -2.0, 90.5, 15.90999984741211, 15.049999713897705, 16.510000228881836, 5.240000009536743, -2.0, -2.0, -2.0, -2.0, -2.0, -2.0, 14.5, -2.0, 23.5, 48.5, -2.0, -2.0, 2.0199999809265137, -2.0, 8.335000276565552, -2.0, -2.0, 49.5, 32.5, 1008.5, -2.0, -2.0, 103.5, 38.5, 100.5, 0.9249999821186066, -2.0, -2.0, -2.0, 26.46500015258789, 32.0, 7.704999923706055, -2.0, -2.0, -2.0, -2.0, 78.5, 33.5, -2.0, 114.5, -2.0, 1005.5, -2.0, 16.5, 32.5, -2.0, 1.0699999928474426, -2.0, -2.0, 184.5, -2.0, -2.0, 32.5, -2.0, 118.5, 306.5, -2.0, -2.0, 18.530000686645508, 12.5, -2.0, -2.0, -2.0, 116.5, 1.5149999856948853, -2.0, -2.0, 165.5, 3.165000081062317, 21.5, -2.0, -2.0, 21.619999885559082, 1012.5, -2.0, -2.0, -2.0, 50.5, -2.0, -2.0, 3.0749999284744263, 29.5, 103.5, -2.0, 106.5, -2.0, -2.0, 185.0, 31.585000038146973, 19.355000495910645, -2.0, 17.5, -2.0, 56.5, -2.0, -2.0, -2.0, -2.0, 25.005000114440918, 124.5, 28.5, -2.0, 20.945000648498535, -2.0, -2.0, -34.5, -2.0, -2.0, 4.015000104904175, 30.359999656677246, -2.0, -2.0, -2.0], "feature": [7, 3, 0, 0, 7, -2, 8, 4, -2, -2, 8, -2, -2, 2, -2, -2, 1, 1, 4, 7, 7, -2, 4, -2, -2, -2, -2, 2, 5, -2, -2, 5, 7, 7, 3, 7, -2, -2, -2, -2, -2, -2, 2, -2, 1, 0, -2, -2, 4, -2, 3, -2, -2, 0, 8, 6, -2, -2, 8, 0, 8, 4, -2, -2, -2, 3, 1, 7, -2, -2, -2, -2, 1, 0, -2, 8, -2, 6, -2, 2, 5, -2, 4, -2, -2, 8, -2, -2, 5, -2, 1, 8, -2, -2, 7, 2, -2, -2, -2, 8, 4, -2, -2, 8, 4, 2, -2, -2, 3, 6, -2, -2, -2, 0, -2, -2, 4, 0, 1, -2, 1, -2, -2, 8, 3, 7, -2, 2, -2, 5, -2, -2, -2, -2, 7, 1, 0, -2, 7, -2, -2, 0, -2, -2, 4, 3, -2, -2, -2], "classes": [0, 1], "value": [[3903.0, 4039.0], [3183.0, 2857.0], [1903.0, 1359.0], [418.0, 401.0], [251.0, 158.0], [79.0, 22.0], [172.0, 136.0], [20.0, 49.0], [11.0, 47.0], [9.0, 2.0], [152.0, 87.0], [69.0, 18.0], [83.0, 69.0], [167.0, 243.0], [41.0, 103.0], [126.0, 140.0], [1485.0, 958.0], [1185.0, 645.0], [128.0, 113.0], [109.0, 111.0], [97.0, 75.0], [59.0, 67.0], [38.0, 8.0], [38.0, 3.0], [0.0, 5.0], [12.0, 36.0], [19.0, 2.0], [1057.0, 532.0], [750.0, 302.0], [32.0, 33.0], [718.0, 269.0], [307.0, 230.0], [261.0, 217.0], [253.0, 190.0], [234.0, 189.0], [170.0, 105.0], [58.0, 60.0], [112.0, 45.0], [64.0, 84.0], [19.0, 1.0], [8.0, 27.0], [46.0, 13.0], [300.0, 313.0], [161.0, 110.0], [139.0, 203.0], [46.0, 109.0], [8.0, 67.0], [38.0, 42.0], [93.0, 94.0], [42.0, 17.0], [51.0, 77.0], [12.0, 2.0], [39.0, 75.0], [1280.0, 1498.0], [1072.0, 1148.0], [40.0, 89.0], [20.0, 13.0], [20.0, 76.0], [1032.0, 1059.0], [389.0, 309.0], [153.0, 183.0], [139.0, 182.0], [10.0, 0.0], [129.0, 182.0], [14.0, 1.0], [236.0, 126.0], [202.0, 86.0], [199.0, 73.0], [23.0, 24.0], [176.0, 49.0], [3.0, 13.0], [34.0, 40.0], [643.0, 750.0], [502.0, 658.0], [41.0, 106.0], [461.0, 552.0], [38.0, 99.0], [423.0, 453.0], [7.0, 30.0], [416.0, 423.0], [233.0, 194.0], [30.0, 56.0], [203.0, 138.0], [4.0, 17.0], [199.0, 121.0], [183.0, 229.0], [128.0, 202.0], [55.0, 27.0], [141.0, 92.0], [31.0, 2.0], [110.0, 90.0], [37.0, 11.0], [35.0, 3.0], [2.0, 8.0], [73.0, 79.0], [58.0, 78.0], [45.0, 76.0], [13.0, 2.0], [15.0, 1.0], [208.0, 350.0], [78.0, 50.0], [1.0, 12.0], [77.0, 38.0], [130.0, 300.0], [103.0, 278.0], [32.0, 151.0], [27.0, 151.0], [5.0, 0.0], [71.0, 127.0], [26.0, 15.0], [1.0, 9.0], [25.0, 6.0], [45.0, 112.0], [27.0, 22.0], [3.0, 16.0], [24.0, 6.0], [720.0, 1182.0], [329.0, 723.0], [171.0, 495.0], [46.0, 242.0], [125.0, 253.0], [29.0, 15.0], [96.0, 238.0], [158.0, 228.0], [133.0, 217.0], [112.0, 208.0], [25.0, 14.0], [87.0, 194.0], [66.0, 95.0], [21.0, 99.0], [5.0, 0.0], [16.0, 99.0], [21.0, 9.0], [25.0, 11.0], [391.0, 459.0], [358.0, 361.0], [305.0, 340.0], [140.0, 209.0], [165.0, 131.0], [53.0, 75.0], [112.0, 56.0], [53.0, 21.0], [0.0, 6.0], [53.0, 15.0], [33.0, 98.0], [23.0, 25.0], [20.0, 7.0], [3.0, 18.0], [10.0, 73.0]]}, {"children_left": [1, 2, 3, 4, 5, -1, 7, 8, 9, -1, -1, -1, -1, 14, -1, -1, 17, 18, 19, 20, 21, -1, -1, 24, -1, -1, -1, -1, -1, 30, 31, -1, 33, -1, -1, 36, -1, 38, 39, 40, 41, -1, 43, -1, -1, 46, 47, -1, 49, -1, -1, -1, -1, -1, 55, 56, 57, 58, 59, 60, 61, 62, -1, 64, -1, 66, -1, 68, 69, 70, -1, -1, 73, -1, -1, 76, 77, 78, -1, -1, -1, 82, 83, -1, -1, -1, 87, 88, -1, -1, 91, -1, -1, 94, -1, 96, -1, -1, 99, -1, 101, -1, -1, 104, -1, 106, -1, 108, 109, -1, 111, -1, 113, 114, 115, 116, 117, -1, -1, 120, 121, -1, -1, 124, -1, -1, -1, -1, 129, 130, -1, -1, -1, 134, -1, -1, 137, 138, -1, 140, -1, -1, -1, -1, 145, 146, 147, -1, 149, -1, 151, 152, 153, -1, -1, -1, 157, 158, -1, 160, -1, -1, -1, -1, -1], "children_right": [54, 29, 16, 13, 6, -1, 12, 11, 10, -1, -1, -1, -1, 15, -1, -1, 28, 27, 26, 23, 22, -1, -1, 25, -1, -1, -1, -1, -1, 35, 32, -1, 34, -1, -1, 37, -1, 53, 52, 45, 42, -1, 44, -1, -1, 51, 48, -1, 50, -1, -1, -1, -1, -1, 144, 143, 136, 103, 98, 93, 86, 63, -1, 65, -1, 67, -1, 75, 72, 71, -1, -1, 74, -1, -1, 81, 80, 79, -1, -1, -1, 85, 84, -1, -1, -1, 90, 89, -1, -1, 92, -1, -1, 95, -1, 97, -1, -1, 100, -1, 102, -1, -1, 105, -1, 107, -1, 133, 110, -1, 112, -1, 128, 127, 126, 119, 118, -1, -1, 123, 122, -1, -1, 125, -1, -1, -1, -1, 132, 131, -1, -1, -1, 135, -1, -1, 142, 139, -1, 141, -1, -1, -1, -1, 164, 163, 148, -1, 150, -1, 156, 155, 154, -1, -1, -1, 162, 159, -1, 161, -1, -1, -1, -1, -1], "threshold": [20.47499942779541, 14.5, 35.5, -27.5, 0.6500000059604645, -2.0, 1027.5, 66.0, 8.0, -2.0, -2.0, -2.0, -2.0, -98.5, -2.0, -2.0, 345.5, 7.105000019073486, 232.5, 15.639999866485596, 76.5, -2.0, -2.0, 51.5, -2.0, -2.0, -2.0, -2.0, -2.0, 1.5, 19.5, -2.0, 53.5, -2.0, -2.0, -33.5, -2.0, 48.5, 19.244999885559082, 23.5, 13.680000305175781, -2.0, 8.5, -2.0, -2.0, 2.1950000524520874, 13.825000286102295, -2.0, 1014.5, -2.0, -2.0, -2.0, -2.0, -2.0, 23.204999923706055, 151.5, 195.5, 3.0649999380111694, 172.5, 82.5, 49.5, 20.72499942779541, -2.0, 8.630000114440918, -2.0, 9.800000190734863, -2.0, 26.09000015258789, 103.5, 36.5, -2.0, -2.0, 18.289999961853027, -2.0, -2.0, 41.5, 125.0, 8.5, -2.0, -2.0, -2.0, 1.7050000429153442, 29.649999618530273, -2.0, -2.0, -2.0, 117.0, 57.5, -2.0, -2.0, 21.5, -2.0, -2.0, 5.5, -2.0, 1009.5, -2.0, -2.0, -74.5, -2.0, 2.8149999380111694, -2.0, -2.0, 41.5, -2.0, -92.5, -2.0, 16.5, 6.505000114440918, -2.0, 21.84500026702881, -2.0, 114.5, 75.5, 59.5, 11.5, 3.7450000047683716, -2.0, -2.0, 49.5, 36.5, -2.0, -2.0, 54.5, -2.0, -2.0, -2.0, -2.0, 102.5, 51.0, -2.0, -2.0, -2.0, 19.5, -2.0, -2.0, 6.5, -48.5, -2.0, 7.5, -2.0, -2.0, -2.0, -2.0, 35.30500030517578, 46.5, 4.5, -2.0, 59.5, -2.0, 14.5, 10.5, 26.380000114440918, -2.0, -2.0, -2.0, 25.94499969482422, 123.5, -2.0, 25.15999984741211, -2.0, -2.0, -2.0, -2.0, -2.0], "feature": [3, 2, 0, 0, 4, -2, 6, 8, 2, -2, -2, -2, -2, 1, -2, -2, 8, 4, 8, 3, 5, -2, -2, 0, -2, -2, -2, -2, -2, 1, 0, -2, 0, -2, -2, 0, -2, 0, 3, 1, 7, -2, 1, -2, -2, 4, 3, -2, 6, -2, -2, -2, -2, -2, 7, 1, 8, 4, 8, 5, 0, 3, -2, 7, -2, 7, -2, 3, 8, 8, -2, -2, 7, -2, -2, 0, 8, 8, -2, -2, -2, 4, 3, -2, -2, -2, 8, 5, -2, -2, 2, -2, -2, 2, -2, 6, -2, -2, 1, -2, 4, -2, -2, 8, -2, 1, -2, 2, 7, -2, 3, -2, 1, 5, 5, 2, 4, -2, -2, 0, 0, -2, -2, 5, -2, -2, -2, -2, 8, 5, -2, -2, -2, 2, -2, -2, 0, 1, -2, 2, -2, -2, -2, -2, 3, 0, 2, -2, 5, -2, 2, 2, 7, -2, -2, -2, 7, 8, -2, 7, -2, -2, -2, -2, -2], "classes": [0, 1], "value": [[3918.0, 4024.0], [1926.0, 1351.0], [1068.0, 617.0], [258.0, 248.0], [199.0, 129.0], [3.0, 12.0], [196.0, 117.0], [189.0, 99.0], [26.0, 33.0], [7.0, 26.0], [19.0, 7.0], [163.0, 66.0], [7.0, 18.0], [59.0, 119.0], [32.0, 25.0], [27.0, 94.0], [810.0, 369.0], [775.0, 366.0], [707.0, 356.0], [665.0, 301.0], [331.0, 108.0], [147.0, 73.0], [184.0, 35.0], [334.0, 193.0], [267.0, 124.0], [67.0, 69.0], [42.0, 55.0], [68.0, 10.0], [35.0, 3.0], [858.0, 734.0], [534.0, 366.0], [8.0, 33.0], [526.0, 333.0], [480.0, 274.0], [46.0, 59.0], [324.0, 368.0], [79.0, 20.0], [245.0, 348.0], [101.0, 227.0], [93.0, 163.0], [26.0, 88.0], [10.0, 75.0], [16.0, 13.0], [1.0, 10.0], [15.0, 3.0], [67.0, 75.0], [42.0, 25.0], [25.0, 5.0], [17.0, 20.0], [14.0, 2.0], [3.0, 18.0], [25.0, 50.0], [8.0, 64.0], [144.0, 121.0], [1992.0, 2673.0], [1711.0, 2121.0], [1634.0, 2083.0], [1507.0, 1814.0], [684.0, 961.0], [588.0, 909.0], [534.0, 766.0], [461.0, 591.0], [3.0, 24.0], [458.0, 567.0], [41.0, 93.0], [417.0, 474.0], [33.0, 12.0], [384.0, 462.0], [251.0, 233.0], [122.0, 77.0], [2.0, 15.0], [120.0, 62.0], [129.0, 156.0], [76.0, 128.0], [53.0, 28.0], [133.0, 229.0], [98.0, 133.0], [46.0, 96.0], [8.0, 0.0], [38.0, 96.0], [52.0, 37.0], [35.0, 96.0], [14.0, 17.0], [1.0, 16.0], [13.0, 1.0], [21.0, 79.0], [73.0, 175.0], [37.0, 31.0], [15.0, 29.0], [22.0, 2.0], [36.0, 144.0], [29.0, 144.0], [7.0, 0.0], [54.0, 143.0], [5.0, 58.0], [49.0, 85.0], [2.0, 30.0], [47.0, 55.0], [96.0, 52.0], [23.0, 27.0], [73.0, 25.0], [72.0, 17.0], [1.0, 8.0], [823.0, 853.0], [34.0, 78.0], [789.0, 775.0], [163.0, 103.0], [626.0, 672.0], [433.0, 372.0], [31.0, 7.0], [402.0, 365.0], [88.0, 36.0], [314.0, 329.0], [244.0, 288.0], [212.0, 272.0], [170.0, 173.0], [40.0, 76.0], [28.0, 22.0], [12.0, 54.0], [130.0, 97.0], [93.0, 39.0], [1.0, 13.0], [92.0, 26.0], [37.0, 58.0], [20.0, 54.0], [17.0, 4.0], [42.0, 99.0], [32.0, 16.0], [70.0, 41.0], [13.0, 27.0], [12.0, 7.0], [1.0, 20.0], [57.0, 14.0], [193.0, 300.0], [78.0, 175.0], [115.0, 125.0], [127.0, 269.0], [60.0, 72.0], [2.0, 20.0], [58.0, 52.0], [39.0, 17.0], [19.0, 35.0], [67.0, 197.0], [77.0, 38.0], [281.0, 552.0], [268.0, 550.0], [260.0, 550.0], [47.0, 49.0], [213.0, 501.0], [15.0, 8.0], [198.0, 493.0], [107.0, 333.0], [65.0, 124.0], [64.0, 96.0], [1.0, 28.0], [42.0, 209.0], [91.0, 160.0], [81.0, 158.0], [23.0, 85.0], [58.0, 73.0], [58.0, 53.0], [0.0, 20.0], [10.0, 2.0], [8.0, 0.0], [13.0, 2.0]]}]}