{"classes": [0, 1], "dtrees": [{"children_left": [1, 2, 3, 4, 5, 6, 7, -1, 9, -1, 11, -1, 13, 14, 15, 16, -1, -1, -1, -1, -1, -1, 23, -1, -1, 26, -1, 28, 29, -1, 31, 32, 33, -1, 35, -1, 37, 38, 39, -1, -1, 42, -1, -1, -1, -1, 47, -1, -1, 50, 51, -1, 53, -1, -1, 56, -1, -1, 59, -1, 61, -1, 63, 64, 65, -1, -1, 68, -1, -1, 71, -1, -1, 74, 75, 76, 77, 78, 79, -1, -1, -1, -1, 84, 85, 86, 87, -1, -1, -1, -1, 92, 93, 94, -1, 96, -1, -1, -1, -1, 101, 102, 103, -1, 105, -1, 107, -1, -1, 110, -1, 112, -1, -1, -1, 116, -1, 118, -1, 120, 121, -1, 123, -1, 125, -1, -1, -1, 129, 130, 131, -1, -1, 134, -1, 136, 137, -1, 139, 140, -1, -1, -1, 144, -1, 146, 147, 148, -1, -1, -1, 152, 153, 154, -1, -1, -1, -1, 159, 160, -1, 162, 163, 164, 165, 166, 167, -1, 169, 170, 171, -1, -1, 174, 175, -1, 177, -1, 179, 180, 181, -1, 183, -1, -1, 186, 187, -1, -1, -1, -1, 192, 193, 194, 195, -1, -1, -1, -1, -1, 201, 202, 203, 204, -1, -1, 207, -1, 209, 210, 211, -1, -1, -1, -1, -1, -1, 218, -1, -1, -1, 222, -1, 224, 225, -1, 227, 228, 229, -1, 231, -1, -1, -1, 235, -1, 237, 238, -1, 240, -1, -1, -1, 244, -1, 246, 247, 248, 249, 250, -1, 252, -1, -1, -1, -1, -1, -1, 259, -1, 261, -1, 263, -1, -1, 266, 267, -1, -1, -1, 271, 272, -1, -1, -1], "children_right": [128, 73, 58, 25, 22, 21, 8, -1, 10, -1, 12, -1, 20, 19, 18, 17, -1, -1, -1, -1, -1, -1, 24, -1, -1, 27, -1, 49, 30, -1, 46, 45, 34, -1, 36, -1, 44, 41, 40, -1, -1, 43, -1, -1, -1, -1, 48, -1, -1, 55, 52, -1, 54, -1, -1, 57, -1, -1, 60, -1, 62, -1, 70, 67, 66, -1, -1, 69, -1, -1, 72, -1, -1, 115, 100, 83, 82, 81, 80, -1, -1, -1, -1, 91, 90, 89, 88, -1, -1, -1, -1, 99, 98, 95, -1, 97, -1, -1, -1, -1, 114, 109, 104, -1, 106, -1, 108, -1, -1, 111, -1, 113, -1, -1, -1, 117, -1, 119, -1, 127, 122, -1, 124, -1, 126, -1, -1, -1, 158, 133, 132, -1, -1, 135, -1, 143, 138, -1, 142, 141, -1, -1, -1, 145, -1, 151, 150, 149, -1, -1, -1, 157, 156, 155, -1, -1, -1, -1, 270, 161, -1, 265, 258, 221, 220, 217, 168, -1, 200, 173, 172, -1, -1, 191, 176, -1, 178, -1, 190, 185, 182, -1, 184, -1, -1, 189, 188, -1, -1, -1, -1, 199, 198, 197, 196, -1, -1, -1, -1, -1, 216, 215, 206, 205, -1, -1, 208, -1, 214, 213, 212, -1, -1, -1, -1, -1, -1, 219, -1, -1, -1, 223, -1, 243, 226, -1, 234, 233, 230, -1, 232, -1, -1, -1, 236, -1, 242, 239, -1, 241, -1, -1, -1, 245, -1, 257, 256, 255, 254, 251, -1, 253, -1, -1, -1, -1, -1, -1, 260, -1, 262, -1, 264, -1, -1, 269, 268, -1, -1, -1, 274, 273, -1, -1, -1], "threshold": [13.204999923706055, 18.52500057220459, 4.555000066757202, 92.5, 27.5, 10.96999979019165, 9.5, -2.0, -8.5, -2.0, 0.7600000202655792, -2.0, 2.140000104904175, 14.554999828338623, 8.945000171661377, 11.5, -2.0, -2.0, -2.0, -2.0, -2.0, -2.0, 6.3450000286102295, -2.0, -2.0, -32.0, -2.0, 16.5, 33.5, -2.0, 3.9550000429153442, 43.5, -1.2949999570846558, -2.0, 1000.5, -2.0, 51.5, 60.0, 1.8550000190734863, -2.0, -2.0, -109.0, -2.0, -2.0, -2.0, -2.0, 308.5, -2.0, -2.0, 3.5, 2.5049999952316284, -2.0, 1006.0, -2.0, -2.0, 1.7249999642372131, -2.0, -2.0, 5.275000095367432, -2.0, 11.364999771118164, -2.0, 174.5, 1023.0, 14.230000019073486, -2.0, -2.0, 15.974999904632568, -2.0, -2.0, 6.825000047683716, -2.0, -2.0, 47.5, 9.440000057220459, 41.5, -79.5, 4.454999923706055, -102.5, -2.0, -2.0, -2.0, -2.0, 143.5, 1012.5, 1006.5, -79.5, -2.0, -2.0, -2.0, -2.0, 33.385000228881836, 22.05500030517578, -87.0, -2.0, 21.315000534057617, -2.0, -2.0, -2.0, -2.0, 43.5, 13.5, 28.114999771118164, -2.0, 1006.5, -2.0, 77.5, -2.0, -2.0, 24.730000495910645, -2.0, 10.684999942779541, -2.0, -2.0, -2.0, 9.849999904632568, -2.0, 49.5, -2.0, 5.490000009536743, 1.3199999928474426, -2.0, 20.0, -2.0, 1020.0, -2.0, -2.0, -2.0, 1.715000033378601, 20.510000228881836, 151.5, -2.0, -2.0, 21.149999618530273, -2.0, 21.5, 0.8349999785423279, -2.0, 14.5, 108.5, -2.0, -2.0, -2.0, 64.5, -2.0, 0.6650000214576721, 0.5699999928474426, 39.5, -2.0, -2.0, -2.0, 22.635000228881836, 42.5, 125.0, -2.0, -2.0, -2.0, -2.0, 92.5, 1003.5, -2.0, 220.5, 180.5, 28.40499973297119, 25.175000190734863, 21.464999198913574, 37.5, -2.0, 15.5, -34.5, 17.875, -2.0, -2.0, 17.295000076293945, 2.4700000286102295, -2.0, 34.5, -2.0, 53.5, 74.5, 3.2549999952316284, -2.0, 20.5, -2.0, -2.0, 17.649999618530273, 16.610000610351562, -2.0, -2.0, -2.0, -2.0, 19.114999771118164, 17.90999984741211, 12.5, 17.710000038146973, -2.0, -2.0, -2.0, -2.0, -2.0, 20.545000076293945, 113.5, 84.5, 48.5, -2.0, -2.0, 104.5, -2.0, 22.975000381469727, 48.0, 20.5, -2.0, -2.0, -2.0, -2.0, -2.0, -2.0, 22.86500072479248, -2.0, -2.0, -2.0, 1.784999966621399, -2.0, 30.574999809265137, 13.744999885559082, -2.0, 22.364999771118164, 18.179999351501465, 14.074999809265137, -2.0, 38.5, -2.0, -2.0, -2.0, 22.494999885559082, -2.0, 36.0, 2.2200000286102295, -2.0, 2.90500009059906, -2.0, -2.0, -2.0, 32.5, -2.0, 23.15499973297119, 16.0, 21.5, 130.0, 3.8600000143051147, -2.0, 7.450000047683716, -2.0, -2.0, -2.0, -2.0, -2.0, -2.0, 61.5, -2.0, 3.0199999809265137, -2.0, 200.5, -2.0, -2.0, 342.5, 1.9249999523162842, -2.0, -2.0, -2.0, -81.5, -91.5, -2.0, -2.0, -2.0], "feature": [7, 3, 4, 8, 1, 7, 2, -2, 1, -2, 4, -2, 4, 3, 7, 1, -2, -2, -2, -2, -2, -2, 7, -2, -2, 0, -2, 2, 0, -2, 4, 1, 3, -2, 6, -2, 0, 5, 4, -2, -2, 1, -2, -2, -2, -2, 8, -2, -2, 1, 4, -2, 6, -2, -2, 7, -2, -2, 4, -2, 3, -2, 8, 6, 3, -2, -2, 3, -2, -2, 4, -2, -2, 5, 7, 8, 1, 4, 1, -2, -2, -2, -2, 8, 6, 6, 1, -2, -2, -2, -2, 3, 3, 1, -2, 3, -2, -2, -2, -2, 5, 2, 3, -2, 6, -2, 1, -2, -2, 3, -2, 7, -2, -2, -2, 7, -2, 0, -2, 4, 4, -2, 1, -2, 6, -2, -2, -2, 4, 3, 1, -2, -2, 3, -2, 0, 4, -2, 2, 1, -2, -2, -2, 8, -2, 4, 4, 0, -2, -2, -2, 7, 0, 8, -2, -2, -2, -2, 5, 6, -2, 8, 8, 3, 3, 7, 8, -2, 2, 0, 3, -2, -2, 7, 4, -2, 0, -2, 0, 5, 4, -2, 3, -2, -2, 3, 3, -2, -2, -2, -2, 7, 7, 1, 7, -2, -2, -2, -2, -2, 7, 8, 8, 0, -2, -2, 8, -2, 3, 0, 2, -2, -2, -2, -2, -2, -2, 7, -2, -2, -2, 4, -2, 3, 7, -2, 7, 7, 7, -2, 0, -2, -2, -2, 7, -2, 0, 4, -2, 4, -2, -2, -2, 5, -2, 7, 1, 2, 8, 4, -2, 4, -2, -2, -2, -2, -2, -2, 5, -2, 4, -2, 8, -2, -2, 8, 4, -2, -2, -2, 1, 1, -2, -2, -2], "classes": [0, 1], "value": [[2837.0, 2936.0], [1514.0, 1195.0], [966.0, 603.0], [652.0, 480.0], [328.0, 177.0], [277.0, 123.0], [238.0, 119.0], [53.0, 43.0], [185.0, 76.0], [104.0, 24.0], [81.0, 52.0], [13.0, 0.0], [68.0, 52.0], [15.0, 26.0], [15.0, 10.0], [7.0, 10.0], [0.0, 10.0], [7.0, 0.0], [8.0, 0.0], [0.0, 16.0], [53.0, 26.0], [39.0, 4.0], [51.0, 54.0], [6.0, 27.0], [45.0, 27.0], [324.0, 303.0], [78.0, 33.0], [246.0, 270.0], [185.0, 155.0], [10.0, 36.0], [175.0, 119.0], [168.0, 93.0], [168.0, 83.0], [0.0, 9.0], [168.0, 74.0], [2.0, 10.0], [166.0, 64.0], [123.0, 61.0], [23.0, 22.0], [17.0, 2.0], [6.0, 20.0], [100.0, 39.0], [12.0, 15.0], [88.0, 24.0], [43.0, 3.0], [0.0, 10.0], [7.0, 26.0], [3.0, 26.0], [4.0, 0.0], [61.0, 115.0], [44.0, 55.0], [33.0, 17.0], [11.0, 38.0], [4.0, 0.0], [7.0, 38.0], [17.0, 60.0], [7.0, 1.0], [10.0, 59.0], [314.0, 123.0], [107.0, 20.0], [207.0, 103.0], [98.0, 27.0], [109.0, 76.0], [90.0, 42.0], [85.0, 31.0], [9.0, 14.0], [76.0, 17.0], [5.0, 11.0], [1.0, 11.0], [4.0, 0.0], [19.0, 34.0], [7.0, 28.0], [12.0, 6.0], [548.0, 592.0], [335.0, 428.0], [190.0, 300.0], [17.0, 64.0], [11.0, 10.0], [11.0, 4.0], [0.0, 4.0], [11.0, 0.0], [0.0, 6.0], [6.0, 54.0], [173.0, 236.0], [120.0, 127.0], [44.0, 71.0], [22.0, 12.0], [3.0, 10.0], [19.0, 2.0], [22.0, 59.0], [76.0, 56.0], [53.0, 109.0], [39.0, 103.0], [22.0, 29.0], [0.0, 12.0], [22.0, 17.0], [12.0, 17.0], [10.0, 0.0], [17.0, 74.0], [14.0, 6.0], [145.0, 128.0], [129.0, 94.0], [73.0, 29.0], [55.0, 12.0], [18.0, 17.0], [0.0, 8.0], [18.0, 9.0], [4.0, 9.0], [14.0, 0.0], [56.0, 65.0], [1.0, 16.0], [55.0, 49.0], [29.0, 10.0], [26.0, 39.0], [16.0, 34.0], [213.0, 164.0], [39.0, 8.0], [174.0, 156.0], [129.0, 84.0], [45.0, 72.0], [29.0, 66.0], [6.0, 1.0], [23.0, 65.0], [15.0, 61.0], [8.0, 4.0], [8.0, 0.0], [0.0, 4.0], [16.0, 6.0], [1323.0, 1741.0], [239.0, 412.0], [85.0, 74.0], [75.0, 74.0], [10.0, 0.0], [154.0, 338.0], [1.0, 28.0], [153.0, 310.0], [63.0, 177.0], [6.0, 64.0], [57.0, 113.0], [47.0, 64.0], [27.0, 16.0], [20.0, 48.0], [10.0, 49.0], [90.0, 133.0], [11.0, 0.0], [79.0, 133.0], [29.0, 19.0], [16.0, 19.0], [1.0, 12.0], [15.0, 7.0], [13.0, 0.0], [50.0, 114.0], [50.0, 94.0], [38.0, 40.0], [21.0, 6.0], [17.0, 34.0], [12.0, 54.0], [0.0, 20.0], [1084.0, 1329.0], [1001.0, 1269.0], [26.0, 72.0], [975.0, 1197.0], [909.0, 1060.0], [776.0, 960.0], [531.0, 738.0], [396.0, 444.0], [385.0, 409.0], [6.0, 27.0], [379.0, 382.0], [235.0, 194.0], [9.0, 26.0], [5.0, 0.0], [4.0, 26.0], [226.0, 168.0], [165.0, 96.0], [43.0, 7.0], [122.0, 89.0], [31.0, 9.0], [91.0, 80.0], [69.0, 72.0], [37.0, 53.0], [2.0, 19.0], [35.0, 34.0], [2.0, 15.0], [33.0, 19.0], [32.0, 19.0], [7.0, 13.0], [6.0, 1.0], [1.0, 12.0], [25.0, 6.0], [22.0, 8.0], [61.0, 72.0], [28.0, 51.0], [19.0, 18.0], [8.0, 17.0], [3.0, 17.0], [5.0, 0.0], [11.0, 1.0], [9.0, 33.0], [33.0, 21.0], [144.0, 188.0], [129.0, 187.0], [73.0, 67.0], [16.0, 39.0], [9.0, 38.0], [7.0, 1.0], [57.0, 28.0], [32.0, 7.0], [25.0, 21.0], [15.0, 21.0], [4.0, 17.0], [0.0, 16.0], [4.0, 1.0], [11.0, 4.0], [10.0, 0.0], [56.0, 120.0], [15.0, 1.0], [11.0, 35.0], [5.0, 33.0], [6.0, 2.0], [135.0, 294.0], [245.0, 222.0], [13.0, 0.0], [232.0, 222.0], [137.0, 95.0], [0.0, 7.0], [137.0, 88.0], [85.0, 40.0], [27.0, 30.0], [7.0, 0.0], [20.0, 30.0], [17.0, 9.0], [3.0, 21.0], [58.0, 10.0], [52.0, 48.0], [0.0, 5.0], [52.0, 43.0], [40.0, 42.0], [8.0, 0.0], [32.0, 42.0], [1.0, 17.0], [31.0, 25.0], [12.0, 1.0], [95.0, 127.0], [13.0, 1.0], [82.0, 126.0], [41.0, 93.0], [35.0, 53.0], [33.0, 34.0], [22.0, 9.0], [17.0, 0.0], [5.0, 9.0], [1.0, 9.0], [4.0, 0.0], [11.0, 25.0], [2.0, 19.0], [6.0, 40.0], [41.0, 33.0], [133.0, 100.0], [30.0, 47.0], [103.0, 53.0], [32.0, 33.0], [71.0, 20.0], [51.0, 5.0], [20.0, 15.0], [66.0, 137.0], [51.0, 130.0], [9.0, 3.0], [42.0, 127.0], [15.0, 7.0], [83.0, 60.0], [12.0, 21.0], [10.0, 4.0], [2.0, 17.0], [71.0, 39.0]]}, {"children_left": [1, 2, 3, 4, 5, 6, -1, 8, 9, -1, 11, -1, -1, 14, 15, 16, 17, 18, -1, -1, -1, -1, -1, 24, -1, -1, -1, 28, 29, 30, -1, 32, 33, 34, -1, -1, 37, -1, 39, -1, -1, -1, 43, 44, 45, -1, 47, -1, -1, 50, 51, -1, 53, -1, 55, -1, -1, 58, 59, -1, -1, -1, -1, 64, 65, -1, 67, -1, -1, 70, -1, 72, -1, 74, 75, -1, -1, -1, 79, 80, 81, 82, 83, 84, -1, 86, -1, -1, -1, 90, -1, 92, -1, -1, 95, 96, -1, -1, -1, 100, -1, -1, -1, 104, 105, -1, 107, -1, -1, 110, -1, 112, 113, -1, 115, 116, 117, 118, -1, 120, 121, -1, -1, -1, 125, -1, 127, -1, -1, 130, 131, 132, -1, 134, 135, 136, -1, -1, -1, 140, 141, -1, -1, -1, -1, 146, -1, -1, 149, 150, 151, -1, -1, -1, -1, 156, 157, 158, -1, -1, -1, -1, 163, 164, 165, 166, 167, -1, -1, 170, -1, 172, -1, 174, 175, -1, 177, -1, -1, -1, -1, -1, 183, 184, 185, 186, 187, 188, -1, -1, -1, 192, -1, -1, -1, 196, 197, 198, 199, -1, -1, -1, 203, -1, 205, -1, -1, 208, 209, 210, 211, 212, -1, 214, -1, -1, 217, -1, -1, -1, 221, 222, 223, 224, 225, -1, 227, 228, -1, -1, 231, -1, 233, 234, -1, -1, 237, 238, -1, -1, 241, 242, 243, -1, -1, -1, -1, 248, 249, -1, -1, -1, -1, 254, 255, -1, 257, -1, 259, -1, 261, -1, 263, -1, 265, -1, -1, -1, -1, 270, 271, -1, 273, 274, -1, -1, -1, -1, 279, 280, -1, 282, -1, -1, 285, -1, 287, 288, -1, -1, -1], "children_right": [162, 103, 78, 27, 26, 7, -1, 13, 10, -1, 12, -1, -1, 23, 22, 21, 20, 19, -1, -1, -1, -1, -1, 25, -1, -1, -1, 63, 42, 31, -1, 41, 36, 35, -1, -1, 38, -1, 40, -1, -1, -1, 62, 49, 46, -1, 48, -1, -1, 57, 52, -1, 54, -1, 56, -1, -1, 61, 60, -1, -1, -1, -1, 69, 66, -1, 68, -1, -1, 71, -1, 73, -1, 77, 76, -1, -1, -1, 102, 99, 94, 89, 88, 85, -1, 87, -1, -1, -1, 91, -1, 93, -1, -1, 98, 97, -1, -1, -1, 101, -1, -1, -1, 109, 106, -1, 108, -1, -1, 111, -1, 155, 114, -1, 148, 129, 124, 119, -1, 123, 122, -1, -1, -1, 126, -1, 128, -1, -1, 145, 144, 133, -1, 139, 138, 137, -1, -1, -1, 143, 142, -1, -1, -1, -1, 147, -1, -1, 154, 153, 152, -1, -1, -1, -1, 161, 160, 159, -1, -1, -1, -1, 182, 181, 180, 169, 168, -1, -1, 171, -1, 173, -1, 179, 176, -1, 178, -1, -1, -1, -1, -1, 278, 195, 194, 191, 190, 189, -1, -1, -1, 193, -1, -1, -1, 207, 202, 201, 200, -1, -1, -1, 204, -1, 206, -1, -1, 269, 220, 219, 216, 213, -1, 215, -1, -1, 218, -1, -1, -1, 268, 253, 252, 247, 226, -1, 230, 229, -1, -1, 232, -1, 236, 235, -1, -1, 240, 239, -1, -1, 246, 245, 244, -1, -1, -1, -1, 251, 250, -1, -1, -1, -1, 267, 256, -1, 258, -1, 260, -1, 262, -1, 264, -1, 266, -1, -1, -1, -1, 277, 272, -1, 276, 275, -1, -1, -1, -1, 284, 281, -1, 283, -1, -1, 286, -1, 290, 289, -1, -1, -1], "threshold": [14.474999904632568, 20.244999885559082, 4.555000066757202, 31.5, -32.0, -39.0, -2.0, 9.320000171661377, 48.5, -2.0, 4.5, -2.0, -2.0, 19.385000228881836, 16.914999961853027, 1029.0, 11.510000228881836, 15.09499979019165, -2.0, -2.0, -2.0, -2.0, -2.0, 262.5, -2.0, -2.0, -2.0, 12.5, 63.5, 1.5, -2.0, 4.2099997997283936, 50.5, 3.615000009536743, -2.0, -2.0, 1007.0, -2.0, 3.2949999570846558, -2.0, -2.0, -2.0, 277.0, 10.974999904632568, 45.5, -2.0, 1018.5, -2.0, -2.0, 79.5, 8.15999984741211, -2.0, 93.5, -2.0, -101.0, -2.0, -2.0, 3.0749999284744263, 10.989999771118164, -2.0, -2.0, -2.0, -2.0, 7.275000095367432, 3.0199999809265137, -2.0, 34.5, -2.0, -2.0, 7.5, -2.0, 43.5, -2.0, 293.0, 7.799999952316284, -2.0, -2.0, -2.0, 148.0, 1023.5, 163.0, 14.514999866485596, 32.0, 16.5, -2.0, 7.2749998569488525, -2.0, -2.0, -2.0, 11.5, -2.0, 13.00499963760376, -2.0, -2.0, 342.5, 16.27999973297119, -2.0, -2.0, -2.0, 235.5, -2.0, -2.0, -2.0, 28.5, 16.0, -2.0, 2.4850000143051147, -2.0, -2.0, 0.5249999761581421, -2.0, 52.5, 1.1850000023841858, -2.0, 194.5, -79.5, 6.2149999141693115, -118.5, -2.0, 85.0, 76.5, -2.0, -2.0, -2.0, 33.5, -2.0, 8.044999837875366, -2.0, -2.0, 49.5, 1015.5, 2.5, -2.0, 127.5, 9.324999809265137, 16.5, -2.0, -2.0, -2.0, 41.5, 6.369999885559082, -2.0, -2.0, -2.0, -2.0, 13.929999828338623, -2.0, -2.0, 27.53499984741211, 14.5, 6.0350000858306885, -2.0, -2.0, -2.0, -2.0, 22.190000534057617, 163.5, 3.159999966621399, -2.0, -2.0, -2.0, -2.0, 19.97499942779541, 209.5, 162.5, 15.40999984741211, 17.975000381469727, -2.0, -2.0, 18.21500015258789, -2.0, 0.804999977350235, -2.0, 52.5, 18.44499969482422, -2.0, 7.860000133514404, -2.0, -2.0, -2.0, -2.0, -2.0, 204.5, -10.5, 177.5, 21.0649995803833, 6.240000009536743, 1004.5, -2.0, -2.0, -2.0, 161.5, -2.0, -2.0, -2.0, 14.5, 1008.5, 22.514999389648438, 6.515000104904175, -2.0, -2.0, -2.0, 23.68000030517578, -2.0, 23.829999923706055, -2.0, -2.0, 4.674999952316284, -81.5, 36.5, 2.6200000047683716, -95.5, -2.0, 29.5, -2.0, -2.0, 15.654999732971191, -2.0, -2.0, -2.0, 87.5, 16.5, 197.5, 48.5, 15.160000324249268, -2.0, 22.84500026702881, 77.5, -2.0, -2.0, 25.085000038146973, -2.0, 26.640000343322754, 143.0, -2.0, -2.0, 5.5, 23.320000648498535, -2.0, -2.0, 14.5, 47.5, 168.5, -2.0, -2.0, -2.0, -2.0, 53.5, 18.164999961853027, -2.0, -2.0, -2.0, -2.0, 42.5, 82.5, -2.0, 21.28499984741211, -2.0, 21.614999771118164, -2.0, -73.5, -2.0, 20.460000038146973, -2.0, 22.050000190734863, -2.0, -2.0, -2.0, -2.0, 39.5, 23.5, -2.0, 44.5, 37.959999084472656, -2.0, -2.0, -2.0, -2.0, 21.375, 133.5, -2.0, 4.9700000286102295, -2.0, -2.0, 24.899999618530273, -2.0, 14.5, 4.479999780654907, -2.0, -2.0, -2.0], "feature": [7, 3, 4, 0, 0, 0, -2, 7, 5, -2, 8, -2, -2, 3, 3, 6, 7, 3, -2, -2, -2, -2, -2, 8, -2, -2, -2, 1, 5, 2, -2, 4, 0, 4, -2, -2, 6, -2, 4, -2, -2, -2, 8, 3, 0, -2, 6, -2, -2, 5, 7, -2, 8, -2, 1, -2, -2, 4, 3, -2, -2, -2, -2, 7, 4, -2, 1, -2, -2, 2, -2, 8, -2, 8, 7, -2, -2, -2, 1, 6, 8, 3, 1, 2, -2, 4, -2, -2, -2, 1, -2, 7, -2, -2, 8, 3, -2, -2, -2, 8, -2, -2, -2, 8, 2, -2, 4, -2, -2, 4, -2, 0, 4, -2, 8, 1, 4, 1, -2, 8, 8, -2, -2, -2, 0, -2, 4, -2, -2, 0, 6, 2, -2, 8, 7, 2, -2, -2, -2, 0, 4, -2, -2, -2, -2, 7, -2, -2, 3, 2, 4, -2, -2, -2, -2, 3, 8, 4, -2, -2, -2, -2, 3, 8, 8, 7, 3, -2, -2, 3, -2, 4, -2, 0, 3, -2, 4, -2, -2, -2, -2, -2, 8, 0, 8, 7, 4, 6, -2, -2, -2, 8, -2, -2, -2, 0, 6, 7, 4, -2, -2, -2, 7, -2, 7, -2, -2, 4, 1, 0, 4, 1, -2, 0, -2, -2, 7, -2, -2, -2, 5, 2, 8, 0, 7, -2, 3, 5, -2, -2, 3, -2, 3, 8, -2, -2, 2, 7, -2, -2, 2, 0, 8, -2, -2, -2, -2, 0, 7, -2, -2, -2, -2, 1, 8, -2, 3, -2, 3, -2, 1, -2, 7, -2, 7, -2, -2, -2, -2, 0, 0, -2, 5, 3, -2, -2, -2, -2, 7, 1, -2, 4, -2, -2, 3, -2, 2, 4, -2, -2, -2], "classes": [0, 1], "value": [[2866.0, 2907.0], [1686.0, 1384.0], [1165.0, 779.0], [752.0, 608.0], [139.0, 160.0], [115.0, 94.0], [1.0, 11.0], [114.0, 83.0], [71.0, 25.0], [6.0, 13.0], [65.0, 12.0], [0.0, 4.0], [65.0, 8.0], [43.0, 58.0], [31.0, 54.0], [24.0, 17.0], [23.0, 11.0], [6.0, 10.0], [1.0, 10.0], [5.0, 0.0], [17.0, 1.0], [1.0, 6.0], [7.0, 37.0], [12.0, 4.0], [12.0, 0.0], [0.0, 4.0], [24.0, 66.0], [613.0, 448.0], [467.0, 280.0], [175.0, 76.0], [2.0, 7.0], [173.0, 69.0], [149.0, 68.0], [130.0, 42.0], [114.0, 24.0], [16.0, 18.0], [19.0, 26.0], [8.0, 0.0], [11.0, 26.0], [5.0, 25.0], [6.0, 1.0], [24.0, 1.0], [292.0, 204.0], [280.0, 176.0], [92.0, 26.0], [46.0, 4.0], [46.0, 22.0], [34.0, 6.0], [12.0, 16.0], [188.0, 150.0], [95.0, 106.0], [4.0, 19.0], [91.0, 87.0], [35.0, 16.0], [56.0, 71.0], [6.0, 25.0], [50.0, 46.0], [93.0, 44.0], [82.0, 25.0], [0.0, 5.0], [82.0, 20.0], [11.0, 19.0], [12.0, 28.0], [146.0, 168.0], [54.0, 98.0], [33.0, 86.0], [21.0, 12.0], [21.0, 4.0], [0.0, 8.0], [92.0, 70.0], [27.0, 3.0], [65.0, 67.0], [18.0, 2.0], [47.0, 65.0], [40.0, 65.0], [13.0, 4.0], [27.0, 61.0], [7.0, 0.0], [413.0, 171.0], [380.0, 171.0], [347.0, 137.0], [265.0, 82.0], [97.0, 50.0], [97.0, 42.0], [68.0, 17.0], [29.0, 25.0], [15.0, 23.0], [14.0, 2.0], [0.0, 8.0], [168.0, 32.0], [132.0, 12.0], [36.0, 20.0], [32.0, 10.0], [4.0, 10.0], [82.0, 55.0], [57.0, 53.0], [43.0, 21.0], [14.0, 32.0], [25.0, 2.0], [33.0, 34.0], [28.0, 14.0], [5.0, 20.0], [33.0, 0.0], [521.0, 605.0], [16.0, 57.0], [3.0, 43.0], [13.0, 14.0], [0.0, 12.0], [13.0, 2.0], [505.0, 548.0], [13.0, 0.0], [492.0, 548.0], [475.0, 499.0], [14.0, 44.0], [461.0, 455.0], [404.0, 361.0], [111.0, 147.0], [83.0, 136.0], [28.0, 17.0], [55.0, 119.0], [23.0, 25.0], [11.0, 25.0], [12.0, 0.0], [32.0, 94.0], [28.0, 11.0], [0.0, 5.0], [28.0, 6.0], [26.0, 0.0], [2.0, 6.0], [293.0, 214.0], [238.0, 154.0], [151.0, 122.0], [0.0, 6.0], [151.0, 116.0], [71.0, 79.0], [13.0, 37.0], [2.0, 28.0], [11.0, 9.0], [58.0, 42.0], [80.0, 37.0], [71.0, 21.0], [71.0, 16.0], [0.0, 5.0], [9.0, 16.0], [87.0, 32.0], [55.0, 60.0], [54.0, 45.0], [1.0, 15.0], [57.0, 94.0], [39.0, 87.0], [31.0, 38.0], [31.0, 27.0], [0.0, 11.0], [8.0, 49.0], [18.0, 7.0], [17.0, 49.0], [15.0, 16.0], [7.0, 16.0], [4.0, 0.0], [3.0, 16.0], [8.0, 0.0], [2.0, 33.0], [1180.0, 1523.0], [171.0, 131.0], [165.0, 107.0], [123.0, 97.0], [25.0, 38.0], [6.0, 26.0], [19.0, 12.0], [98.0, 59.0], [45.0, 12.0], [53.0, 47.0], [1.0, 10.0], [52.0, 37.0], [52.0, 27.0], [1.0, 8.0], [51.0, 19.0], [51.0, 14.0], [0.0, 5.0], [0.0, 10.0], [42.0, 10.0], [6.0, 24.0], [1009.0, 1392.0], [915.0, 1127.0], [145.0, 113.0], [115.0, 109.0], [78.0, 96.0], [58.0, 91.0], [8.0, 0.0], [50.0, 91.0], [20.0, 5.0], [37.0, 13.0], [37.0, 6.0], [0.0, 7.0], [30.0, 4.0], [770.0, 1014.0], [93.0, 212.0], [53.0, 59.0], [4.0, 18.0], [1.0, 18.0], [3.0, 0.0], [49.0, 41.0], [40.0, 153.0], [14.0, 90.0], [26.0, 63.0], [10.0, 1.0], [16.0, 62.0], [677.0, 802.0], [496.0, 649.0], [180.0, 171.0], [80.0, 109.0], [46.0, 38.0], [3.0, 17.0], [43.0, 21.0], [3.0, 9.0], [40.0, 12.0], [34.0, 71.0], [7.0, 0.0], [27.0, 71.0], [100.0, 62.0], [316.0, 478.0], [303.0, 388.0], [210.0, 220.0], [196.0, 220.0], [163.0, 157.0], [15.0, 2.0], [148.0, 155.0], [9.0, 26.0], [0.0, 19.0], [9.0, 7.0], [139.0, 129.0], [32.0, 9.0], [107.0, 120.0], [5.0, 24.0], [1.0, 23.0], [4.0, 1.0], [102.0, 96.0], [23.0, 6.0], [4.0, 6.0], [19.0, 0.0], [79.0, 90.0], [52.0, 78.0], [44.0, 78.0], [44.0, 61.0], [0.0, 17.0], [8.0, 0.0], [27.0, 12.0], [33.0, 63.0], [20.0, 59.0], [6.0, 50.0], [14.0, 9.0], [13.0, 4.0], [14.0, 0.0], [93.0, 168.0], [83.0, 167.0], [6.0, 0.0], [77.0, 167.0], [1.0, 18.0], [76.0, 149.0], [8.0, 0.0], [68.0, 149.0], [13.0, 63.0], [55.0, 86.0], [37.0, 78.0], [18.0, 8.0], [13.0, 0.0], [5.0, 8.0], [10.0, 1.0], [13.0, 90.0], [181.0, 153.0], [119.0, 71.0], [32.0, 38.0], [87.0, 33.0], [8.0, 13.0], [2.0, 12.0], [6.0, 1.0], [79.0, 20.0], [62.0, 82.0], [94.0, 265.0], [24.0, 142.0], [14.0, 128.0], [10.0, 14.0], [4.0, 14.0], [6.0, 0.0], [70.0, 123.0], [15.0, 6.0], [55.0, 117.0], [54.0, 85.0], [34.0, 76.0], [20.0, 9.0], [1.0, 32.0]]}, {"children_left": [1, 2, 3, 4, 5, -1, 7, -1, -1, 10, -1, -1, 13, -1, 15, -1, 17, -1, 19, 20, -1, -1, 23, -1, 25, -1, 27, -1, 29, -1, -1, 32, 33, 34, 35, -1, 37, -1, -1, -1, 41, 42, 43, 44, -1, -1, 47, -1, -1, -1, 51, 52, -1, -1, -1, 56, 57, -1, 59, 60, 61, 62, -1, 64, -1, -1, -1, -1, -1, -1, 71, 72, 73, -1, 75, 76, -1, 78, -1, 80, 81, 82, -1, 84, -1, 86, 87, -1, -1, 90, 91, -1, -1, -1, 95, -1, -1, 98, 99, -1, 101, 102, 103, -1, 105, -1, -1, -1, 109, -1, -1, 112, -1, -1, 115, -1, 117, -1, 119, -1, -1, 122, -1, 124, 125, -1, -1, -1, 129, 130, 131, -1, 133, -1, 135, 136, -1, -1, -1, 140, 141, 142, -1, 144, 145, -1, -1, 148, 149, 150, 151, -1, -1, 154, -1, -1, -1, 158, 159, 160, 161, -1, 163, -1, -1, 166, -1, -1, 169, 170, 171, -1, 173, -1, 175, -1, -1, 178, -1, 180, -1, 182, 183, -1, 185, -1, -1, 188, -1, -1, 191, -1, -1, 194, 195, 196, 197, 198, 199, -1, -1, -1, -1, 204, -1, 206, -1, -1, -1, 210, 211, 212, 213, 214, -1, 216, -1, -1, -1, -1, -1, 222, -1, 224, -1, 226, -1, -1, 229, -1, -1, 232, 233, 234, -1, -1, 237, -1, -1, 240, 241, -1, 243, 244, -1, -1, -1, 248, 249, 250, 251, -1, -1, -1, 255, -1, -1, 258, 259, -1, -1, -1, 263, 264, -1, 266, 267, -1, -1, -1, -1], "children_right": [70, 31, 12, 9, 6, -1, 8, -1, -1, 11, -1, -1, 14, -1, 16, -1, 18, -1, 22, 21, -1, -1, 24, -1, 26, -1, 28, -1, 30, -1, -1, 55, 40, 39, 36, -1, 38, -1, -1, -1, 50, 49, 46, 45, -1, -1, 48, -1, -1, -1, 54, 53, -1, -1, -1, 69, 58, -1, 68, 67, 66, 63, -1, 65, -1, -1, -1, -1, -1, -1, 128, 121, 74, -1, 114, 77, -1, 79, -1, 97, 94, 83, -1, 85, -1, 89, 88, -1, -1, 93, 92, -1, -1, -1, 96, -1, -1, 111, 100, -1, 108, 107, 104, -1, 106, -1, -1, -1, 110, -1, -1, 113, -1, -1, 116, -1, 118, -1, 120, -1, -1, 123, -1, 127, 126, -1, -1, -1, 262, 139, 132, -1, 134, -1, 138, 137, -1, -1, -1, 231, 228, 143, -1, 147, 146, -1, -1, 157, 156, 153, 152, -1, -1, 155, -1, -1, -1, 193, 168, 165, 162, -1, 164, -1, -1, 167, -1, -1, 190, 177, 172, -1, 174, -1, 176, -1, -1, 179, -1, 181, -1, 187, 184, -1, 186, -1, -1, 189, -1, -1, 192, -1, -1, 209, 208, 203, 202, 201, 200, -1, -1, -1, -1, 205, -1, 207, -1, -1, -1, 221, 220, 219, 218, 215, -1, 217, -1, -1, -1, -1, -1, 223, -1, 225, -1, 227, -1, -1, 230, -1, -1, 239, 236, 235, -1, -1, 238, -1, -1, 247, 242, -1, 246, 245, -1, -1, -1, 257, 254, 253, 252, -1, -1, -1, 256, -1, -1, 261, 260, -1, -1, -1, 270, 265, -1, 269, 268, -1, -1, -1, -1], "threshold": [18.625, 144.5, 13.5, 23.5, 4.575000047683716, -2.0, 8.730000019073486, -2.0, -2.0, 8.875, -2.0, -2.0, 9.5, -2.0, 6.140000104904175, -2.0, 9.369999885559082, -2.0, 67.5, 1.6899999976158142, -2.0, -2.0, 12.28000020980835, -2.0, 12.5, -2.0, 54.0, -2.0, 68.0, -2.0, -2.0, 9.320000171661377, 10.5, 1019.5, 37.5, -2.0, 2.5, -2.0, -2.0, -2.0, 21.5, 17.769999504089355, -30.5, 9.650000095367432, -2.0, -2.0, 35.0, -2.0, -2.0, -2.0, 5.990000009536743, 271.0, -2.0, -2.0, -2.0, 18.394999504089355, 62.5, -2.0, 245.0, 15.154999732971191, 85.5, -84.5, -2.0, 148.5, -2.0, -2.0, -2.0, -2.0, -2.0, -2.0, 14.755000114440918, 4.765000104904175, -3.290000081062317, -2.0, 28.890000343322754, 8.010000228881836, -2.0, 0.9549999833106995, -2.0, 117.5, 22.5, 9.765000343322754, -2.0, 46.5, -2.0, 2.2949999570846558, 1020.5, -2.0, -2.0, 17.5, 1008.5, -2.0, -2.0, -2.0, 102.5, -2.0, -2.0, 38.5, 18.84500026702881, -2.0, 14.24500036239624, 26.3149995803833, 1023.5, -2.0, 48.5, -2.0, -2.0, -2.0, 17.5, -2.0, -2.0, 1.6200000047683716, -2.0, -2.0, 30.02500057220459, -2.0, 2.3950001001358032, -2.0, 3.509999990463257, -2.0, -2.0, 19.0, -2.0, 3.0749999284744263, 37.5, -2.0, -2.0, -2.0, 6.799999952316284, 1.0549999475479126, 4.5, -2.0, 1018.5, -2.0, 27.614999771118164, 1020.0, -2.0, -2.0, -2.0, 21.744999885559082, 219.0, 1000.5, -2.0, 35.5, 25.5, -2.0, -2.0, 19.97499942779541, 160.0, 123.5, 41.5, -2.0, -2.0, 17.809999465942383, -2.0, -2.0, -2.0, 3.465000033378601, 25.5, 23.59999942779541, 1.824999988079071, -2.0, 2.8550000190734863, -2.0, -2.0, 2.5, -2.0, -2.0, 27.605000495910645, -82.5, 1.5, -2.0, 93.0, -2.0, 118.5, -2.0, -2.0, -79.5, -2.0, 20.265000343322754, -2.0, 2.975000023841858, 20.510000228881836, -2.0, 120.0, -2.0, -2.0, -5.5, -2.0, -2.0, 28.489999771118164, -2.0, -2.0, 39.5, 84.5, 4.8450000286102295, 4.730000019073486, 64.5, -7.5, -2.0, -2.0, -2.0, -2.0, 22.15999984741211, -2.0, -99.0, -2.0, -2.0, -2.0, 5.065000057220459, 20.5, 4.979999780654907, 19.30500030517578, 3.7699999809265137, -2.0, 1020.5, -2.0, -2.0, -2.0, -2.0, -2.0, 5.684999942779541, -2.0, 16.494999885559082, -2.0, 43.5, -2.0, -2.0, 5.5, -2.0, -2.0, 24.695000648498535, 136.0, 36.5, -2.0, -2.0, 152.0, -2.0, -2.0, 8.5, 31.074999809265137, -2.0, 33.885000228881836, 1.6550000309944153, -2.0, -2.0, -2.0, 1010.5, 26.06999969482422, 176.0, 30.760000228881836, -2.0, -2.0, -2.0, 147.5, -2.0, -2.0, 18.0, 28.125, -2.0, -2.0, -2.0, 24.264999389648438, 9.5, -2.0, 21.06999969482422, 21.960000038146973, -2.0, -2.0, -2.0, -2.0], "feature": [3, 8, 1, 2, 4, -2, 4, -2, -2, 7, -2, -2, 8, -2, 3, -2, 3, -2, 5, 7, -2, -2, 7, -2, 2, -2, 0, -2, 8, -2, -2, 7, 2, 6, 0, -2, 2, -2, -2, -2, 2, 3, 0, 3, -2, -2, 1, -2, -2, -2, 3, 8, -2, -2, -2, 3, 5, -2, 8, 7, 5, 1, -2, 8, -2, -2, -2, -2, -2, -2, 7, 4, 7, -2, 3, 7, -2, 4, -2, 8, 1, 7, -2, 5, -2, 4, 6, -2, -2, 2, 6, -2, -2, -2, 8, -2, -2, 1, 3, -2, 7, 3, 6, -2, 5, -2, -2, -2, 2, -2, -2, 4, -2, -2, 3, -2, 4, -2, 4, -2, -2, 8, -2, 7, 1, -2, -2, -2, 4, 4, 0, -2, 6, -2, 3, 6, -2, -2, -2, 7, 8, 6, -2, 5, 5, -2, -2, 3, 8, 8, 8, -2, -2, 7, -2, -2, -2, 4, 0, 3, 4, -2, 4, -2, -2, 2, -2, -2, 3, 1, 2, -2, 8, -2, 8, -2, -2, 1, -2, 3, -2, 4, 7, -2, 8, -2, -2, 1, -2, -2, 3, -2, -2, 0, 5, 4, 4, 5, 1, -2, -2, -2, -2, 3, -2, 1, -2, -2, -2, 4, 1, 4, 7, 4, -2, 6, -2, -2, -2, -2, -2, 4, -2, 7, -2, 0, -2, -2, 2, -2, -2, 7, 1, 8, -2, -2, 1, -2, -2, 2, 3, -2, 3, 4, -2, -2, -2, 6, 7, 8, 3, -2, -2, -2, 8, -2, -2, 2, 3, -2, -2, -2, 7, 2, -2, 7, 3, -2, -2, -2, -2], "classes": [0, 1], "value": [[2848.0, 2925.0], [1174.0, 715.0], [785.0, 377.0], [579.0, 220.0], [569.0, 204.0], [367.0, 159.0], [202.0, 45.0], [199.0, 38.0], [3.0, 7.0], [10.0, 16.0], [9.0, 4.0], [1.0, 12.0], [206.0, 157.0], [21.0, 0.0], [185.0, 157.0], [1.0, 13.0], [184.0, 144.0], [24.0, 4.0], [160.0, 140.0], [90.0, 43.0], [8.0, 14.0], [82.0, 29.0], [70.0, 97.0], [23.0, 61.0], [47.0, 36.0], [29.0, 7.0], [18.0, 29.0], [7.0, 25.0], [11.0, 4.0], [0.0, 4.0], [11.0, 0.0], [389.0, 338.0], [236.0, 153.0], [102.0, 41.0], [34.0, 28.0], [7.0, 18.0], [27.0, 10.0], [2.0, 7.0], [25.0, 3.0], [68.0, 13.0], [134.0, 112.0], [91.0, 96.0], [90.0, 84.0], [21.0, 4.0], [0.0, 4.0], [21.0, 0.0], [69.0, 80.0], [69.0, 67.0], [0.0, 13.0], [1.0, 12.0], [43.0, 16.0], [5.0, 11.0], [4.0, 0.0], [1.0, 11.0], [38.0, 5.0], [153.0, 185.0], [134.0, 184.0], [1.0, 17.0], [133.0, 167.0], [114.0, 106.0], [108.0, 84.0], [77.0, 74.0], [1.0, 16.0], [76.0, 58.0], [1.0, 11.0], [75.0, 47.0], [31.0, 10.0], [6.0, 22.0], [19.0, 61.0], [19.0, 1.0], [1674.0, 2210.0], [722.0, 731.0], [510.0, 574.0], [13.0, 0.0], [497.0, 574.0], [409.0, 513.0], [57.0, 121.0], [352.0, 392.0], [30.0, 9.0], [322.0, 383.0], [171.0, 149.0], [132.0, 82.0], [22.0, 4.0], [110.0, 78.0], [13.0, 27.0], [97.0, 51.0], [45.0, 11.0], [45.0, 6.0], [0.0, 5.0], [52.0, 40.0], [43.0, 21.0], [1.0, 9.0], [42.0, 12.0], [9.0, 19.0], [39.0, 67.0], [29.0, 65.0], [10.0, 2.0], [151.0, 234.0], [104.0, 213.0], [7.0, 2.0], [97.0, 211.0], [63.0, 187.0], [41.0, 164.0], [28.0, 150.0], [13.0, 14.0], [0.0, 11.0], [13.0, 3.0], [22.0, 23.0], [34.0, 24.0], [29.0, 8.0], [5.0, 16.0], [47.0, 21.0], [2.0, 8.0], [45.0, 13.0], [88.0, 61.0], [40.0, 5.0], [48.0, 56.0], [8.0, 26.0], [40.0, 30.0], [25.0, 7.0], [15.0, 23.0], [212.0, 157.0], [1.0, 12.0], [211.0, 145.0], [12.0, 26.0], [6.0, 26.0], [6.0, 0.0], [199.0, 119.0], [952.0, 1479.0], [875.0, 1436.0], [47.0, 168.0], [23.0, 31.0], [24.0, 137.0], [14.0, 125.0], [10.0, 12.0], [5.0, 12.0], [5.0, 1.0], [0.0, 11.0], [5.0, 0.0], [828.0, 1268.0], [588.0, 808.0], [567.0, 729.0], [15.0, 2.0], [552.0, 727.0], [3.0, 25.0], [3.0, 0.0], [0.0, 25.0], [549.0, 702.0], [54.0, 37.0], [34.0, 36.0], [29.0, 8.0], [0.0, 5.0], [29.0, 3.0], [5.0, 28.0], [0.0, 26.0], [5.0, 2.0], [20.0, 1.0], [495.0, 665.0], [251.0, 404.0], [38.0, 101.0], [26.0, 36.0], [2.0, 20.0], [24.0, 16.0], [19.0, 4.0], [5.0, 12.0], [12.0, 65.0], [7.0, 2.0], [5.0, 63.0], [213.0, 303.0], [147.0, 249.0], [65.0, 66.0], [0.0, 9.0], [65.0, 57.0], [27.0, 8.0], [38.0, 49.0], [3.0, 23.0], [35.0, 26.0], [82.0, 183.0], [0.0, 26.0], [82.0, 157.0], [0.0, 18.0], [82.0, 139.0], [56.0, 122.0], [46.0, 117.0], [10.0, 5.0], [0.0, 5.0], [10.0, 0.0], [26.0, 17.0], [14.0, 1.0], [12.0, 16.0], [66.0, 54.0], [25.0, 4.0], [41.0, 50.0], [244.0, 261.0], [149.0, 113.0], [146.0, 96.0], [76.0, 72.0], [76.0, 60.0], [32.0, 42.0], [28.0, 19.0], [4.0, 23.0], [44.0, 18.0], [0.0, 12.0], [70.0, 24.0], [2.0, 7.0], [68.0, 17.0], [3.0, 8.0], [65.0, 9.0], [3.0, 17.0], [95.0, 148.0], [77.0, 78.0], [58.0, 74.0], [49.0, 74.0], [33.0, 68.0], [15.0, 8.0], [18.0, 60.0], [14.0, 60.0], [4.0, 0.0], [16.0, 6.0], [9.0, 0.0], [19.0, 4.0], [18.0, 70.0], [2.0, 43.0], [16.0, 27.0], [3.0, 21.0], [13.0, 6.0], [0.0, 4.0], [13.0, 2.0], [21.0, 79.0], [13.0, 7.0], [8.0, 72.0], [240.0, 460.0], [143.0, 346.0], [133.0, 341.0], [13.0, 6.0], [120.0, 335.0], [10.0, 5.0], [9.0, 0.0], [1.0, 5.0], [97.0, 114.0], [26.0, 54.0], [10.0, 37.0], [16.0, 17.0], [15.0, 6.0], [1.0, 5.0], [14.0, 1.0], [1.0, 11.0], [71.0, 60.0], [60.0, 39.0], [51.0, 22.0], [29.0, 21.0], [18.0, 21.0], [11.0, 0.0], [22.0, 1.0], [9.0, 17.0], [9.0, 5.0], [0.0, 12.0], [11.0, 21.0], [11.0, 8.0], [0.0, 6.0], [11.0, 2.0], [0.0, 13.0], [77.0, 43.0], [77.0, 34.0], [33.0, 4.0], [44.0, 30.0], [24.0, 26.0], [12.0, 2.0], [12.0, 24.0], [20.0, 4.0], [0.0, 9.0]]}, {"children_left": [1, 2, 3, 4, 5, 6, 7, 8, 9, -1, -1, -1, 13, -1, 15, -1, -1, -1, 19, 20, -1, -1, 23, 24, 25, 26, 27, 28, -1, 30, -1, 32, -1, -1, -1, -1, 37, 38, 39, 40, -1, 42, 43, -1, -1, 46, -1, -1, -1, -1, -1, 52, 53, 54, -1, -1, -1, 58, -1, -1, -1, 62, 63, -1, 65, -1, 67, 68, -1, -1, -1, 72, 73, -1, -1, 76, -1, 78, 79, 80, -1, -1, -1, -1, 85, -1, 87, -1, 89, -1, 91, -1, -1, 94, 95, -1, 97, 98, 99, 100, -1, -1, -1, -1, 105, 106, -1, -1, -1, -1, 111, 112, 113, 114, 115, 116, 117, -1, 119, -1, 121, -1, -1, -1, -1, -1, 127, 128, -1, 130, 131, -1, -1, -1, 135, 136, -1, 138, -1, -1, 141, 142, 143, -1, -1, -1, -1, -1, 149, 150, 151, 152, -1, -1, 155, -1, 157, 158, -1, 160, 161, -1, -1, 164, -1, -1, -1, 168, 169, 170, 171, -1, 173, -1, -1, -1, 177, 178, 179, 180, 181, -1, -1, -1, 185, -1, -1, 188, 189, 190, 191, 192, -1, 194, 195, -1, -1, 198, 199, 200, 201, -1, -1, -1, -1, -1, -1, 208, -1, 210, -1, -1, 213, -1, 215, -1, -1, 218, 219, 220, -1, -1, -1, -1, -1, 226, -1, 228, 229, -1, -1, 232, 233, 234, -1, 236, 237, 238, -1, -1, 241, -1, 243, 244, -1, 246, -1, 248, 249, -1, -1, 252, 253, 254, 255, 256, -1, 258, 259, -1, -1, -1, -1, -1, -1, -1, -1, 268, 269, -1, 271, -1, -1, 274, 275, 276, 277, -1, -1, -1, -1, -1, -1, 284, 285, 286, -1, 288, -1, 290, -1, -1, 293, -1, 295, 296, -1, 298, -1, 300, 301, -1, -1, -1, -1, -1, 307, -1, 309, 310, 311, 312, -1, 314, -1, 316, 317, 318, 319, -1, -1, -1, -1, -1, -1, -1, 327, -1, 329, -1, -1], "children_right": [110, 93, 84, 61, 18, 17, 12, 11, 10, -1, -1, -1, 14, -1, 16, -1, -1, -1, 22, 21, -1, -1, 60, 51, 36, 35, 34, 29, -1, 31, -1, 33, -1, -1, -1, -1, 50, 49, 48, 41, -1, 45, 44, -1, -1, 47, -1, -1, -1, -1, -1, 57, 56, 55, -1, -1, -1, 59, -1, -1, -1, 71, 64, -1, 66, -1, 70, 69, -1, -1, -1, 75, 74, -1, -1, 77, -1, 83, 82, 81, -1, -1, -1, -1, 86, -1, 88, -1, 90, -1, 92, -1, -1, 109, 96, -1, 104, 103, 102, 101, -1, -1, -1, -1, 108, 107, -1, -1, -1, -1, 148, 147, 126, 125, 124, 123, 118, -1, 120, -1, 122, -1, -1, -1, -1, -1, 134, 129, -1, 133, 132, -1, -1, -1, 140, 137, -1, 139, -1, -1, 146, 145, 144, -1, -1, -1, -1, -1, 306, 167, 154, 153, -1, -1, 156, -1, 166, 159, -1, 163, 162, -1, -1, 165, -1, -1, -1, 225, 176, 175, 172, -1, 174, -1, -1, -1, 224, 187, 184, 183, 182, -1, -1, -1, 186, -1, -1, 217, 212, 207, 206, 193, -1, 197, 196, -1, -1, 205, 204, 203, 202, -1, -1, -1, -1, -1, -1, 209, -1, 211, -1, -1, 214, -1, 216, -1, -1, 223, 222, 221, -1, -1, -1, -1, -1, 227, -1, 231, 230, -1, -1, 283, 282, 235, -1, 267, 240, 239, -1, -1, 242, -1, 266, 245, -1, 247, -1, 251, 250, -1, -1, 265, 264, 263, 262, 257, -1, 261, 260, -1, -1, -1, -1, -1, -1, -1, -1, 273, 270, -1, 272, -1, -1, 281, 280, 279, 278, -1, -1, -1, -1, -1, -1, 305, 292, 287, -1, 289, -1, 291, -1, -1, 294, -1, 304, 297, -1, 299, -1, 303, 302, -1, -1, -1, -1, -1, 308, -1, 326, 325, 324, 313, -1, 315, -1, 323, 322, 321, 320, -1, -1, -1, -1, -1, -1, -1, 328, -1, 330, -1, -1], "threshold": [19.835000038146973, 4.555000066757202, 1023.5, 13.5, 73.5, 4.460000038146973, 13.404999732971191, 1010.5, 78.0, -2.0, -2.0, -2.0, 1008.5, -2.0, 19.360000610351562, -2.0, -2.0, -2.0, -117.5, -123.5, -2.0, -2.0, 3.859999895095825, 91.5, 14.5, 12.414999961853027, 44.5, 12.960000038146973, -2.0, 1.300000011920929, -2.0, 18.114999771118164, -2.0, -2.0, -2.0, -2.0, 19.625, 1019.5, 3.0199999809265137, -0.9699999839067459, -2.0, 49.5, 83.5, -2.0, -2.0, 82.5, -2.0, -2.0, -2.0, -2.0, -2.0, 47.5, 287.5, 19.210000038146973, -2.0, -2.0, -2.0, 147.5, -2.0, -2.0, -2.0, -34.5, 1.5, -2.0, 3.5, -2.0, 2.4800000190734863, 16.27999973297119, -2.0, -2.0, -2.0, 1006.5, 196.5, -2.0, -2.0, 42.5, -2.0, 90.5, 1.2450000047683716, 1013.5, -2.0, -2.0, -2.0, -2.0, 50.5, -2.0, 3.0149999856948853, -2.0, 3.465000033378601, -2.0, 233.5, -2.0, -2.0, 144.5, 4.8399999141693115, -2.0, 19.5, 17.229999542236328, 1026.5, 32.0, -2.0, -2.0, -2.0, -2.0, -8.5, 32.0, -2.0, -2.0, -2.0, -2.0, 1.784999966621399, 150.5, -81.5, 23.905000686645508, 20.255000114440918, -85.5, 1008.0, -2.0, 18.5, -2.0, 79.0, -2.0, -2.0, -2.0, -2.0, -2.0, 36.5, 97.5, -2.0, 5.5, 148.0, -2.0, -2.0, -2.0, 144.5, 15.125, -2.0, 114.5, -2.0, -2.0, 27.0, 1012.5, 24.604999542236328, -2.0, -2.0, -2.0, -2.0, -2.0, 124.5, 20.5, 103.5, 1.8899999856948853, -2.0, -2.0, -19.5, -2.0, 2.665000081062317, -0.5, -2.0, 186.5, 10.5, -2.0, -2.0, 14.5, -2.0, -2.0, -2.0, 118.5, 7.5, 17.1899995803833, 4.485000014305115, -2.0, 6.5, -2.0, -2.0, -2.0, 1025.5, 2.715000033378601, 16.96500015258789, 84.0, 12.450000286102295, -2.0, -2.0, -2.0, 2.2050000429153442, -2.0, -2.0, 77.5, 1015.5, 29.020000457763672, 38.5, 19.899999618530273, -2.0, 4.305000066757202, 20.105000495910645, -2.0, -2.0, 66.0, 22.5, -84.5, 61.0, -2.0, -2.0, -2.0, -2.0, -2.0, -2.0, 100.5, -2.0, 42.5, -2.0, -2.0, 14.5, -2.0, 22.47499942779541, -2.0, -2.0, 89.5, 41.5, 23.84000015258789, -2.0, -2.0, -2.0, -2.0, -2.0, -120.5, -2.0, 21.5, 43.5, -2.0, -2.0, 182.5, 21.5, -110.5, -2.0, 50.5, 33.5, 7.190000057220459, -2.0, -2.0, 38.5, -2.0, 21.44499969482422, 1.9850000143051147, -2.0, 2.2549999952316284, -2.0, 3.1750000715255737, 42.5, -2.0, -2.0, 1020.5, 7.625, 34.579999923706055, 148.0, 40.5, -2.0, 25.0, 1016.5, -2.0, -2.0, -2.0, -2.0, -2.0, -2.0, -2.0, -2.0, 59.5, 3.665000081062317, -2.0, 3.7300000190734863, -2.0, -2.0, 1019.5, 71.5, 3.5, 20.53499984741211, -2.0, -2.0, -2.0, -2.0, -2.0, -2.0, 6.5, -0.5, 8.010000228881836, -2.0, 234.5, -2.0, 302.5, -2.0, -2.0, 11.625, -2.0, 29.270000457763672, 34.5, -2.0, 184.5, -2.0, 27.59000015258789, 19.5, -2.0, -2.0, -2.0, -2.0, -2.0, 18.5, -2.0, 27.55500030517578, -25.5, 27.110000610351562, 6.729999780654907, -2.0, 11.175000190734863, -2.0, 6.474999904632568, 219.0, 3.5999999046325684, 158.0, -2.0, -2.0, -2.0, -2.0, -2.0, -2.0, -2.0, 24.135000228881836, -2.0, 30.3100004196167, -2.0, -2.0], "feature": [3, 4, 6, 1, 8, 4, 7, 6, 5, -2, -2, -2, 6, -2, 3, -2, -2, -2, 1, 1, -2, -2, 4, 5, 2, 7, 0, 3, -2, 4, -2, 3, -2, -2, -2, -2, 3, 6, 4, 7, -2, 0, 5, -2, -2, 5, -2, -2, -2, -2, -2, 0, 8, 3, -2, -2, -2, 8, -2, -2, -2, 0, 2, -2, 8, -2, 4, 3, -2, -2, -2, 6, 8, -2, -2, 0, -2, 5, 4, 6, -2, -2, -2, -2, 5, -2, 4, -2, 4, -2, 8, -2, -2, 1, 4, -2, 2, 3, 6, 1, -2, -2, -2, -2, 1, 0, -2, -2, -2, -2, 4, 1, 1, 7, 7, 1, 6, -2, 5, -2, 5, -2, -2, -2, -2, -2, 0, 1, -2, 0, 1, -2, -2, -2, 8, 7, -2, 8, -2, -2, 1, 6, 3, -2, -2, -2, -2, -2, 1, 0, 1, 4, -2, -2, 0, -2, 4, 0, -2, 8, 0, -2, -2, 0, -2, -2, -2, 8, 2, 7, 7, -2, 2, -2, -2, -2, 6, 4, 7, 8, 7, -2, -2, -2, 4, -2, -2, 5, 6, 3, 1, 3, -2, 4, 7, -2, -2, 5, 1, 1, 8, -2, -2, -2, -2, -2, -2, 8, -2, 0, -2, -2, 1, -2, 3, -2, -2, 5, 0, 3, -2, -2, -2, -2, -2, 1, -2, 5, 0, -2, -2, 8, 2, 1, -2, 0, 0, 4, -2, -2, 0, -2, 7, 4, -2, 4, -2, 4, 0, -2, -2, 6, 4, 3, 8, 0, -2, 1, 6, -2, -2, -2, -2, -2, -2, -2, -2, 5, 4, -2, 4, -2, -2, 6, 5, 1, 3, -2, -2, -2, -2, -2, -2, 4, 1, 7, -2, 8, -2, 8, -2, -2, 7, -2, 3, 0, -2, 8, -2, 3, 2, -2, -2, -2, -2, -2, 8, -2, 3, 0, 3, 7, -2, 7, -2, 4, 8, 4, 8, -2, -2, -2, -2, -2, -2, -2, 7, -2, 3, -2, -2], "classes": [0, 1], "value": [[2848.0, 2925.0], [1254.0, 900.0], [876.0, 711.0], [710.0, 632.0], [502.0, 377.0], [187.0, 87.0], [187.0, 81.0], [176.0, 64.0], [30.0, 28.0], [7.0, 22.0], [23.0, 6.0], [146.0, 36.0], [11.0, 17.0], [5.0, 0.0], [6.0, 17.0], [0.0, 14.0], [6.0, 3.0], [0.0, 6.0], [315.0, 290.0], [17.0, 47.0], [5.0, 0.0], [12.0, 47.0], [298.0, 243.0], [277.0, 191.0], [244.0, 140.0], [158.0, 49.0], [81.0, 39.0], [40.0, 31.0], [22.0, 6.0], [18.0, 25.0], [5.0, 0.0], [13.0, 25.0], [7.0, 25.0], [6.0, 0.0], [41.0, 8.0], [77.0, 10.0], [86.0, 91.0], [73.0, 91.0], [54.0, 86.0], [50.0, 59.0], [0.0, 10.0], [50.0, 49.0], [34.0, 13.0], [31.0, 4.0], [3.0, 9.0], [16.0, 36.0], [9.0, 35.0], [7.0, 1.0], [4.0, 27.0], [19.0, 5.0], [13.0, 0.0], [33.0, 51.0], [19.0, 44.0], [14.0, 44.0], [10.0, 44.0], [4.0, 0.0], [5.0, 0.0], [14.0, 7.0], [12.0, 0.0], [2.0, 7.0], [21.0, 52.0], [208.0, 255.0], [70.0, 38.0], [0.0, 7.0], [70.0, 31.0], [0.0, 5.0], [70.0, 26.0], [34.0, 21.0], [25.0, 5.0], [9.0, 16.0], [36.0, 5.0], [138.0, 217.0], [24.0, 7.0], [24.0, 3.0], [0.0, 4.0], [114.0, 210.0], [53.0, 134.0], [61.0, 76.0], [50.0, 74.0], [12.0, 4.0], [0.0, 4.0], [12.0, 0.0], [38.0, 70.0], [11.0, 2.0], [166.0, 79.0], [15.0, 26.0], [151.0, 53.0], [123.0, 31.0], [28.0, 22.0], [5.0, 14.0], [23.0, 8.0], [19.0, 1.0], [4.0, 7.0], [378.0, 189.0], [340.0, 189.0], [56.0, 10.0], [284.0, 179.0], [241.0, 129.0], [183.0, 75.0], [174.0, 61.0], [171.0, 53.0], [3.0, 8.0], [9.0, 14.0], [58.0, 54.0], [43.0, 50.0], [27.0, 15.0], [0.0, 5.0], [27.0, 10.0], [16.0, 35.0], [38.0, 0.0], [1594.0, 2025.0], [233.0, 457.0], [209.0, 447.0], [53.0, 67.0], [45.0, 67.0], [43.0, 52.0], [29.0, 48.0], [8.0, 1.0], [21.0, 47.0], [5.0, 0.0], [16.0, 47.0], [12.0, 47.0], [4.0, 0.0], [14.0, 4.0], [2.0, 15.0], [8.0, 0.0], [156.0, 380.0], [78.0, 249.0], [12.0, 103.0], [66.0, 146.0], [39.0, 50.0], [38.0, 35.0], [1.0, 15.0], [27.0, 96.0], [78.0, 131.0], [62.0, 69.0], [40.0, 26.0], [22.0, 43.0], [2.0, 24.0], [20.0, 19.0], [16.0, 62.0], [10.0, 60.0], [7.0, 8.0], [0.0, 8.0], [7.0, 0.0], [3.0, 52.0], [6.0, 2.0], [24.0, 10.0], [1361.0, 1568.0], [1147.0, 1412.0], [238.0, 394.0], [82.0, 203.0], [9.0, 3.0], [73.0, 200.0], [156.0, 191.0], [49.0, 14.0], [107.0, 177.0], [42.0, 37.0], [0.0, 11.0], [42.0, 26.0], [24.0, 23.0], [1.0, 11.0], [23.0, 12.0], [18.0, 3.0], [18.0, 0.0], [0.0, 3.0], [65.0, 140.0], [909.0, 1018.0], [409.0, 358.0], [42.0, 81.0], [34.0, 26.0], [0.0, 11.0], [34.0, 15.0], [34.0, 10.0], [0.0, 5.0], [8.0, 55.0], [367.0, 277.0], [364.0, 263.0], [56.0, 69.0], [28.0, 58.0], [18.0, 18.0], [6.0, 18.0], [12.0, 0.0], [10.0, 40.0], [28.0, 11.0], [17.0, 0.0], [11.0, 11.0], [308.0, 194.0], [283.0, 163.0], [186.0, 133.0], [151.0, 84.0], [150.0, 76.0], [0.0, 5.0], [150.0, 71.0], [79.0, 24.0], [79.0, 18.0], [0.0, 6.0], [71.0, 47.0], [58.0, 47.0], [56.0, 33.0], [14.0, 18.0], [12.0, 3.0], [2.0, 15.0], [42.0, 15.0], [2.0, 14.0], [13.0, 0.0], [1.0, 8.0], [35.0, 49.0], [9.0, 39.0], [26.0, 10.0], [24.0, 2.0], [2.0, 8.0], [97.0, 30.0], [85.0, 17.0], [12.0, 13.0], [7.0, 0.0], [5.0, 13.0], [25.0, 31.0], [17.0, 31.0], [17.0, 17.0], [14.0, 3.0], [3.0, 14.0], [0.0, 14.0], [8.0, 0.0], [3.0, 14.0], [500.0, 660.0], [24.0, 4.0], [476.0, 656.0], [29.0, 11.0], [29.0, 6.0], [0.0, 5.0], [447.0, 645.0], [300.0, 526.0], [290.0, 470.0], [8.0, 47.0], [282.0, 423.0], [204.0, 244.0], [15.0, 50.0], [9.0, 48.0], [6.0, 2.0], [189.0, 194.0], [53.0, 20.0], [136.0, 174.0], [127.0, 142.0], [2.0, 15.0], [125.0, 127.0], [18.0, 4.0], [107.0, 123.0], [19.0, 47.0], [14.0, 5.0], [5.0, 42.0], [88.0, 76.0], [87.0, 66.0], [87.0, 59.0], [86.0, 52.0], [46.0, 39.0], [2.0, 14.0], [44.0, 25.0], [44.0, 20.0], [40.0, 10.0], [4.0, 10.0], [0.0, 5.0], [40.0, 13.0], [1.0, 7.0], [0.0, 7.0], [1.0, 10.0], [9.0, 32.0], [78.0, 179.0], [16.0, 97.0], [1.0, 63.0], [15.0, 34.0], [5.0, 0.0], [10.0, 34.0], [62.0, 82.0], [58.0, 64.0], [44.0, 27.0], [19.0, 22.0], [9.0, 0.0], [10.0, 22.0], [25.0, 5.0], [14.0, 37.0], [4.0, 18.0], [10.0, 56.0], [147.0, 119.0], [145.0, 102.0], [98.0, 39.0], [1.0, 9.0], [97.0, 30.0], [92.0, 19.0], [5.0, 11.0], [1.0, 11.0], [4.0, 0.0], [47.0, 63.0], [22.0, 7.0], [25.0, 56.0], [25.0, 42.0], [8.0, 0.0], [17.0, 42.0], [4.0, 0.0], [13.0, 42.0], [10.0, 42.0], [3.0, 39.0], [7.0, 3.0], [3.0, 0.0], [0.0, 14.0], [2.0, 17.0], [214.0, 156.0], [10.0, 24.0], [204.0, 132.0], [126.0, 106.0], [94.0, 97.0], [94.0, 85.0], [14.0, 3.0], [80.0, 82.0], [5.0, 18.0], [75.0, 64.0], [73.0, 53.0], [73.0, 44.0], [27.0, 30.0], [15.0, 29.0], [12.0, 1.0], [46.0, 14.0], [0.0, 9.0], [2.0, 11.0], [0.0, 12.0], [32.0, 9.0], [78.0, 26.0], [68.0, 12.0], [10.0, 14.0], [0.0, 11.0], [10.0, 3.0]]}, {"children_left": [1, 2, 3, 4, 5, 6, 7, -1, 9, -1, -1, 12, 13, 14, 15, -1, -1, 18, 19, 20, 21, -1, 23, 24, -1, -1, 27, -1, -1, -1, -1, 32, -1, -1, -1, -1, -1, 38, -1, 40, 41, 42, 43, -1, -1, -1, -1, 48, 49, -1, 51, -1, -1, 54, 55, 56, -1, -1, 59, -1, -1, -1, 63, -1, 65, -1, 67, -1, 69, -1, 71, -1, 73, -1, 75, -1, -1, 78, 79, 80, -1, 82, -1, 84, -1, -1, -1, 88, -1, -1, 91, 92, 93, -1, -1, 96, 97, 98, 99, 100, 101, 102, -1, 104, 105, -1, -1, 108, 109, 110, 111, -1, -1, -1, 115, -1, -1, 118, -1, -1, 121, -1, -1, 124, 125, 126, 127, -1, 129, 130, -1, -1, 133, 134, 135, 136, -1, -1, -1, 140, 141, -1, 143, -1, 145, 146, -1, -1, 149, -1, -1, 152, 153, -1, -1, 156, 157, 158, 159, -1, 161, -1, 163, -1, -1, 166, -1, -1, -1, -1, 171, 172, -1, 174, -1, -1, -1, 178, -1, -1, -1, 182, -1, -1, 185, 186, -1, -1, 189, 190, 191, -1, -1, 194, -1, 196, -1, -1, 199, -1, -1, 202, -1, 204, 205, 206, -1, -1, 209, 210, -1, -1, -1, 214, 215, -1, -1, 218, -1, 220, -1, -1, -1, -1, 225, 226, 227, 228, -1, 230, 231, 232, -1, -1, 235, 236, -1, 238, -1, 240, -1, -1, 243, -1, -1, 246, 247, 248, 249, -1, -1, -1, -1, -1, 255, -1, 257, 258, 259, 260, 261, -1, -1, -1, -1, -1, -1, 268, 269, -1, 271, -1, -1, -1, 275, -1, -1], "children_right": [90, 77, 62, 37, 36, 11, 8, -1, 10, -1, -1, 35, 34, 17, 16, -1, -1, 31, 30, 29, 22, -1, 26, 25, -1, -1, 28, -1, -1, -1, -1, 33, -1, -1, -1, -1, -1, 39, -1, 47, 46, 45, 44, -1, -1, -1, -1, 53, 50, -1, 52, -1, -1, 61, 58, 57, -1, -1, 60, -1, -1, -1, 64, -1, 66, -1, 68, -1, 70, -1, 72, -1, 74, -1, 76, -1, -1, 87, 86, 81, -1, 83, -1, 85, -1, -1, -1, 89, -1, -1, 224, 95, 94, -1, -1, 223, 222, 201, 184, 123, 120, 103, -1, 107, 106, -1, -1, 117, 114, 113, 112, -1, -1, -1, 116, -1, -1, 119, -1, -1, 122, -1, -1, 181, 180, 177, 128, -1, 132, 131, -1, -1, 170, 139, 138, 137, -1, -1, -1, 151, 142, -1, 144, -1, 148, 147, -1, -1, 150, -1, -1, 155, 154, -1, -1, 169, 168, 165, 160, -1, 162, -1, 164, -1, -1, 167, -1, -1, -1, -1, 176, 173, -1, 175, -1, -1, -1, 179, -1, -1, -1, 183, -1, -1, 188, 187, -1, -1, 198, 193, 192, -1, -1, 195, -1, 197, -1, -1, 200, -1, -1, 203, -1, 213, 208, 207, -1, -1, 212, 211, -1, -1, -1, 217, 216, -1, -1, 219, -1, 221, -1, -1, -1, -1, 274, 267, 254, 229, -1, 245, 234, 233, -1, -1, 242, 237, -1, 239, -1, 241, -1, -1, 244, -1, -1, 253, 252, 251, 250, -1, -1, -1, -1, -1, 256, -1, 266, 265, 264, 263, 262, -1, -1, -1, -1, -1, -1, 273, 270, -1, 272, -1, -1, -1, 276, -1, -1], "threshold": [18.175000190734863, 261.5, 4.565000057220459, 0.5, 4.4700000286102295, 66.5, 19.5, -2.0, 3.504999876022339, -2.0, -2.0, -2.5, 1028.5, 6.5, -73.0, -2.0, -2.0, 3.5299999713897705, 2.4200000762939453, 92.5, 1014.5, -2.0, 1019.5, 17.27999973297119, -2.0, -2.0, 45.5, -2.0, -2.0, -2.0, -2.0, -7.5, -2.0, -2.0, -2.0, -2.0, -2.0, 11.5, -2.0, 65.5, 11.449999809265137, 62.5, 16.52999973297119, -2.0, -2.0, -2.0, -2.0, 12.5, 3.5, -2.0, 37.0, -2.0, -2.0, 130.0, 102.5, 22.5, -2.0, -2.0, 1010.5, -2.0, -2.0, -2.0, 1006.5, -2.0, 5.365000009536743, -2.0, 6.0299999713897705, -2.0, 9.704999923706055, -2.0, 70.0, -2.0, 10.445000171661377, -2.0, 5.495000123977661, -2.0, -2.0, 4.539999961853027, 338.5, 0.800000011920929, -2.0, 16.960000038146973, -2.0, 17.77999973297119, -2.0, -2.0, -2.0, 10.5, -2.0, -2.0, 19.760000228881836, 17.0, 18.579999923706055, -2.0, -2.0, 19.61500072479248, 54.5, 27.61500072479248, 24.5, 60.5, 57.5, 1013.5, -2.0, 40.5, 5.795000076293945, -2.0, -2.0, 13.5, 84.5, 22.0, 8.259999752044678, -2.0, -2.0, -2.0, 18.734999656677246, -2.0, -2.0, 12.875, -2.0, -2.0, 228.0, -2.0, -2.0, 24.199999809265137, 20.5, 228.5, -36.5, -2.0, -33.5, 89.0, -2.0, -2.0, 180.5, 75.5, 2.384999990463257, 19.425000190734863, -2.0, -2.0, -2.0, 66.5, -90.5, -2.0, 14.440000057220459, -2.0, 4.0249998569488525, 23.019999504089355, -2.0, -2.0, 22.420000076293945, -2.0, -2.0, 84.5, 14.5, -2.0, -2.0, 19.399999618530273, 20.570000648498535, 20.089999198913574, -117.5, -2.0, 38.0, -2.0, 19.510000228881836, -2.0, -2.0, 8.5, -2.0, -2.0, -2.0, -2.0, 22.234999656677246, 12.5, -2.0, 15.214999675750732, -2.0, -2.0, -2.0, 151.5, -2.0, -2.0, -2.0, 1.2750000357627869, -2.0, -2.0, 66.5, 36.0, -2.0, -2.0, 19.214999198913574, 2.8549998998641968, 0.39499999582767487, -2.0, -2.0, 9.400000095367432, -2.0, 10.684999942779541, -2.0, -2.0, 6.0, -2.0, -2.0, -25.5, -2.0, -74.5, 32.5, 22.5, -2.0, -2.0, 20.5, 1009.5, -2.0, -2.0, -2.0, 14.125, 1013.5, -2.0, -2.0, 1001.0, -2.0, 7.5899999141693115, -2.0, -2.0, -2.0, -2.0, 129.5, 5.930000066757202, 29.84500026702881, 1.0299999713897705, -2.0, 20.5, 78.5, 1007.5, -2.0, -2.0, 204.5, 21.579999923706055, -2.0, 27.015000343322754, -2.0, 1.4249999523162842, -2.0, -2.0, 110.0, -2.0, -2.0, 23.5, 28.835000038146973, 4.365000009536743, 69.5, -2.0, -2.0, -2.0, -2.0, -2.0, 54.5, -2.0, 4.335000038146973, 171.5, 15.5, 9.5, 31.274999618530273, -2.0, -2.0, -2.0, -2.0, -2.0, -2.0, 26.359999656677246, 30.22000026702881, -2.0, -91.5, -2.0, -2.0, -2.0, 1014.5, -2.0, -2.0], "feature": [3, 8, 4, 1, 4, 8, 2, -2, 7, -2, -2, 1, 6, 2, 1, -2, -2, 4, 4, 5, 6, -2, 6, 3, -2, -2, 0, -2, -2, -2, -2, 1, -2, -2, -2, -2, -2, 8, -2, 8, 7, 5, 3, -2, -2, -2, -2, 2, 1, -2, 0, -2, -2, 1, 8, 1, -2, -2, 6, -2, -2, -2, 6, -2, 4, -2, 3, -2, 7, -2, 5, -2, 7, -2, 4, -2, -2, 4, 8, 4, -2, 3, -2, 3, -2, -2, -2, 2, -2, -2, 7, 8, 3, -2, -2, 7, 0, 3, 3, 5, 5, 6, -2, 5, 7, -2, -2, 2, 8, 1, 7, -2, -2, -2, 3, -2, -2, 7, -2, -2, 8, -2, -2, 3, 2, 8, 0, -2, 0, 5, -2, -2, 8, 8, 4, 3, -2, -2, -2, 5, 1, -2, 7, -2, 4, 3, -2, -2, 3, -2, -2, 8, 2, -2, -2, 7, 3, 3, 1, -2, 0, -2, 3, -2, -2, 2, -2, -2, -2, -2, 3, 2, -2, 7, -2, -2, -2, 1, -2, -2, -2, 4, -2, -2, 8, 5, -2, -2, 7, 4, 4, -2, -2, 7, -2, 7, -2, -2, 2, -2, -2, 0, -2, 1, 0, 2, -2, -2, 2, 6, -2, -2, -2, 7, 6, -2, -2, 6, -2, 4, -2, -2, -2, -2, 1, 4, 3, 4, -2, 2, 5, 6, -2, -2, 8, 7, -2, 3, -2, 4, -2, -2, 1, -2, -2, 2, 3, 4, 1, -2, -2, -2, -2, -2, 5, -2, 4, 8, 2, 2, 3, -2, -2, -2, -2, -2, -2, 7, 3, -2, 1, -2, -2, -2, 6, -2, -2], "classes": [0, 1], "value": [[2822.0, 2951.0], [1063.0, 664.0], [927.0, 504.0], [628.0, 383.0], [367.0, 175.0], [366.0, 166.0], [149.0, 42.0], [117.0, 22.0], [32.0, 20.0], [5.0, 14.0], [27.0, 6.0], [217.0, 124.0], [160.0, 112.0], [159.0, 104.0], [36.0, 40.0], [34.0, 25.0], [2.0, 15.0], [123.0, 64.0], [114.0, 49.0], [72.0, 42.0], [56.0, 41.0], [33.0, 4.0], [23.0, 37.0], [5.0, 31.0], [2.0, 31.0], [3.0, 0.0], [18.0, 6.0], [16.0, 0.0], [2.0, 6.0], [16.0, 1.0], [42.0, 7.0], [9.0, 15.0], [9.0, 2.0], [0.0, 13.0], [1.0, 8.0], [57.0, 12.0], [1.0, 9.0], [261.0, 208.0], [22.0, 2.0], [239.0, 206.0], [62.0, 85.0], [58.0, 61.0], [23.0, 40.0], [11.0, 35.0], [12.0, 5.0], [35.0, 21.0], [4.0, 24.0], [177.0, 121.0], [97.0, 46.0], [0.0, 10.0], [97.0, 36.0], [25.0, 23.0], [72.0, 13.0], [80.0, 75.0], [49.0, 67.0], [26.0, 17.0], [22.0, 5.0], [4.0, 12.0], [23.0, 50.0], [12.0, 3.0], [11.0, 47.0], [31.0, 8.0], [299.0, 121.0], [47.0, 35.0], [252.0, 86.0], [115.0, 21.0], [137.0, 65.0], [7.0, 12.0], [130.0, 53.0], [91.0, 20.0], [39.0, 33.0], [2.0, 10.0], [37.0, 23.0], [0.0, 7.0], [37.0, 16.0], [0.0, 6.0], [37.0, 10.0], [136.0, 160.0], [87.0, 133.0], [56.0, 111.0], [11.0, 4.0], [45.0, 107.0], [35.0, 101.0], [10.0, 6.0], [9.0, 0.0], [1.0, 6.0], [31.0, 22.0], [49.0, 27.0], [24.0, 3.0], [25.0, 24.0], [1759.0, 2287.0], [1307.0, 1536.0], [16.0, 66.0], [5.0, 0.0], [11.0, 66.0], [1291.0, 1470.0], [1264.0, 1466.0], [1239.0, 1395.0], [954.0, 1157.0], [756.0, 826.0], [350.0, 319.0], [285.0, 292.0], [74.0, 115.0], [211.0, 177.0], [46.0, 62.0], [40.0, 35.0], [6.0, 27.0], [165.0, 115.0], [83.0, 38.0], [17.0, 21.0], [15.0, 5.0], [0.0, 5.0], [15.0, 0.0], [2.0, 16.0], [66.0, 17.0], [4.0, 8.0], [62.0, 9.0], [82.0, 77.0], [77.0, 53.0], [5.0, 24.0], [65.0, 27.0], [65.0, 22.0], [0.0, 5.0], [406.0, 507.0], [383.0, 500.0], [346.0, 408.0], [335.0, 370.0], [15.0, 3.0], [320.0, 367.0], [14.0, 44.0], [10.0, 44.0], [4.0, 0.0], [306.0, 323.0], [260.0, 303.0], [39.0, 20.0], [5.0, 11.0], [4.0, 0.0], [1.0, 11.0], [34.0, 9.0], [221.0, 283.0], [41.0, 90.0], [9.0, 3.0], [32.0, 87.0], [10.0, 55.0], [22.0, 32.0], [11.0, 26.0], [11.0, 6.0], [0.0, 20.0], [11.0, 6.0], [1.0, 6.0], [10.0, 0.0], [180.0, 193.0], [7.0, 25.0], [7.0, 5.0], [0.0, 20.0], [173.0, 168.0], [173.0, 157.0], [96.0, 63.0], [68.0, 59.0], [0.0, 12.0], [68.0, 47.0], [11.0, 0.0], [57.0, 47.0], [49.0, 26.0], [8.0, 21.0], [28.0, 4.0], [0.0, 3.0], [28.0, 1.0], [77.0, 94.0], [0.0, 11.0], [46.0, 20.0], [41.0, 10.0], [24.0, 0.0], [17.0, 10.0], [14.0, 1.0], [3.0, 9.0], [5.0, 10.0], [11.0, 38.0], [3.0, 33.0], [8.0, 5.0], [37.0, 92.0], [23.0, 7.0], [0.0, 6.0], [23.0, 1.0], [198.0, 331.0], [42.0, 16.0], [10.0, 12.0], [32.0, 4.0], [156.0, 315.0], [142.0, 307.0], [45.0, 155.0], [4.0, 0.0], [41.0, 155.0], [97.0, 152.0], [7.0, 38.0], [90.0, 114.0], [19.0, 3.0], [71.0, 111.0], [14.0, 8.0], [11.0, 0.0], [3.0, 8.0], [285.0, 238.0], [53.0, 18.0], [232.0, 220.0], [114.0, 62.0], [13.0, 22.0], [7.0, 22.0], [6.0, 0.0], [101.0, 40.0], [40.0, 27.0], [3.0, 12.0], [37.0, 15.0], [61.0, 13.0], [118.0, 158.0], [65.0, 46.0], [31.0, 36.0], [34.0, 10.0], [53.0, 112.0], [6.0, 0.0], [47.0, 112.0], [38.0, 110.0], [9.0, 2.0], [25.0, 71.0], [27.0, 4.0], [452.0, 751.0], [402.0, 709.0], [347.0, 667.0], [223.0, 512.0], [13.0, 72.0], [210.0, 440.0], [167.0, 391.0], [42.0, 171.0], [13.0, 8.0], [29.0, 163.0], [125.0, 220.0], [91.0, 194.0], [36.0, 35.0], [55.0, 159.0], [14.0, 91.0], [41.0, 68.0], [12.0, 1.0], [29.0, 67.0], [34.0, 26.0], [30.0, 12.0], [4.0, 14.0], [43.0, 49.0], [37.0, 24.0], [26.0, 24.0], [14.0, 23.0], [7.0, 22.0], [7.0, 1.0], [12.0, 1.0], [11.0, 0.0], [6.0, 25.0], [124.0, 155.0], [14.0, 46.0], [110.0, 109.0], [103.0, 84.0], [88.0, 51.0], [61.0, 23.0], [28.0, 20.0], [6.0, 17.0], [22.0, 3.0], [33.0, 3.0], [27.0, 28.0], [15.0, 33.0], [7.0, 25.0], [55.0, 42.0], [55.0, 34.0], [46.0, 19.0], [9.0, 15.0], [6.0, 0.0], [3.0, 15.0], [0.0, 8.0], [50.0, 42.0], [47.0, 25.0], [3.0, 17.0]]}, {"children_left": [1, 2, 3, 4, 5, 6, 7, 8, -1, 10, -1, -1, 13, -1, -1, 16, 17, 18, -1, -1, 21, -1, -1, 24, 25, 26, -1, 28, -1, -1, -1, -1, 33, 34, -1, 36, -1, -1, -1, 40, 41, -1, 43, -1, 45, 46, -1, -1, -1, 50, -1, -1, 53, 54, 55, 56, 57, 58, -1, 60, -1, -1, 63, 64, -1, 66, 67, -1, -1, -1, 71, -1, 73, 74, 75, 76, -1, -1, 79, -1, 81, -1, -1, -1, 85, 86, -1, 88, 89, 90, -1, -1, -1, -1, -1, 96, -1, -1, 99, -1, -1, 102, 103, 104, -1, -1, 107, -1, 109, 110, -1, -1, -1, 114, 115, 116, -1, 118, -1, 120, 121, 122, 123, 124, -1, -1, 127, 128, -1, -1, -1, -1, -1, -1, 135, -1, -1, -1, 139, 140, -1, -1, 143, -1, 145, -1, -1, 148, -1, 150, 151, 152, 153, 154, 155, 156, -1, -1, -1, -1, -1, -1, 163, 164, -1, 166, -1, -1, 169, 170, -1, -1, -1, -1, 175, 176, 177, -1, 179, -1, -1, -1, 183, 184, 185, 186, 187, 188, -1, -1, -1, 192, 193, -1, -1, -1, 197, -1, 199, 200, 201, 202, 203, -1, -1, -1, 207, 208, -1, -1, 211, -1, -1, -1, -1, 216, 217, 218, -1, -1, 221, 222, -1, -1, -1, 226, 227, 228, 229, -1, 231, 232, -1, -1, 235, 236, 237, 238, -1, -1, 241, -1, 243, 244, -1, -1, -1, 248, 249, 250, -1, 252, -1, -1, -1, -1, -1, 258, 259, 260, -1, -1, -1, -1, 265, -1, -1, 268, -1, 270, -1, 272, -1, -1, 275, 276, 277, -1, -1, -1, 281, -1, 283, -1, 285, 286, 287, 288, 289, -1, -1, 292, 293, -1, -1, -1, -1, -1, -1], "children_right": [174, 147, 52, 39, 32, 15, 12, 9, -1, 11, -1, -1, 14, -1, -1, 23, 20, 19, -1, -1, 22, -1, -1, 31, 30, 27, -1, 29, -1, -1, -1, -1, 38, 35, -1, 37, -1, -1, -1, 49, 42, -1, 44, -1, 48, 47, -1, -1, -1, 51, -1, -1, 138, 101, 98, 95, 62, 59, -1, 61, -1, -1, 70, 65, -1, 69, 68, -1, -1, -1, 72, -1, 84, 83, 78, 77, -1, -1, 80, -1, 82, -1, -1, -1, 94, 87, -1, 93, 92, 91, -1, -1, -1, -1, -1, 97, -1, -1, 100, -1, -1, 113, 106, 105, -1, -1, 108, -1, 112, 111, -1, -1, -1, 137, 134, 117, -1, 119, -1, 133, 132, 131, 126, 125, -1, -1, 130, 129, -1, -1, -1, -1, -1, -1, 136, -1, -1, -1, 142, 141, -1, -1, 144, -1, 146, -1, -1, 149, -1, 173, 162, 161, 160, 159, 158, 157, -1, -1, -1, -1, -1, -1, 168, 165, -1, 167, -1, -1, 172, 171, -1, -1, -1, -1, 182, 181, 178, -1, 180, -1, -1, -1, 274, 215, 196, 191, 190, 189, -1, -1, -1, 195, 194, -1, -1, -1, 198, -1, 214, 213, 206, 205, 204, -1, -1, -1, 210, 209, -1, -1, 212, -1, -1, -1, -1, 225, 220, 219, -1, -1, 224, 223, -1, -1, -1, 267, 264, 257, 230, -1, 234, 233, -1, -1, 256, 247, 240, 239, -1, -1, 242, -1, 246, 245, -1, -1, -1, 255, 254, 251, -1, 253, -1, -1, -1, -1, -1, 263, 262, 261, -1, -1, -1, -1, 266, -1, -1, 269, -1, 271, -1, 273, -1, -1, 280, 279, 278, -1, -1, -1, 282, -1, 284, -1, 298, 297, 296, 291, 290, -1, -1, 295, 294, -1, -1, -1, -1, -1, -1], "threshold": [15.190000057220459, 77.5, 17.02500057220459, 4.580000162124634, 207.5, 66.5, 7.5, 1.6899999976158142, -2.0, 1013.5, -2.0, -2.0, 6.644999980926514, -2.0, -2.0, 1.4300000071525574, 17.0, 1008.5, -2.0, -2.0, 4.0, -2.0, -2.0, 16.9350004196167, 10.169999599456787, 4.990000009536743, -2.0, 1021.5, -2.0, -2.0, -2.0, -2.0, 6.5, 320.5, -2.0, 59.0, -2.0, -2.0, -2.0, 75.5, 11.040000438690186, -2.0, 27.5, -2.0, 1010.5, 1008.5, -2.0, -2.0, -2.0, 8.019999980926514, -2.0, -2.0, 228.5, 4.0350000858306885, 3.584999918937683, 209.5, 36.5, 1.9149999618530273, -2.0, 11.5, -2.0, -2.0, 114.5, 26.15000057220459, -2.0, -73.5, -122.0, -2.0, -2.0, -2.0, 0.6650000214576721, -2.0, 13.5, 3.415000081062317, 7.5, 14.46999979019165, -2.0, -2.0, 49.5, -2.0, 20.885000228881836, -2.0, -2.0, -2.0, 1024.5, 18.184999465942383, -2.0, 3.0449999570846558, 45.5, 33.0, -2.0, -2.0, -2.0, -2.0, -2.0, 14.494999885559082, -2.0, -2.0, 28.5, -2.0, -2.0, 20.945000648498535, 67.0, 1010.0, -2.0, -2.0, 163.5, -2.0, 19.829999923706055, 26.0, -2.0, -2.0, -2.0, 1020.5, 1014.5, 22.4350004196167, -2.0, 15.0, -2.0, 140.5, 192.5, 182.0, 8.28499984741211, 5.1000001430511475, -2.0, -2.0, 12.134999752044678, 22.5, -2.0, -2.0, -2.0, -2.0, -2.0, -2.0, 11.329999923706055, -2.0, -2.0, -2.0, 46.0, 350.0, -2.0, -2.0, 57.5, -2.0, 14.070000171661377, -2.0, -2.0, -41.0, -2.0, 97.5, 15.5, 43.5, 143.5, 113.5, 1020.5, 0.9650000035762787, -2.0, -2.0, -2.0, -2.0, -2.0, -2.0, 11.105000019073486, 21.5, -2.0, -79.5, -2.0, -2.0, 12.894999980926514, 93.5, -2.0, -2.0, -2.0, -2.0, 0.8349999785423279, 150.5, 28.5, -2.0, 25.280000686645508, -2.0, -2.0, -2.0, 125.5, 27.5, 89.0, 93.0, 77.5, 3.884999990463257, -2.0, -2.0, -2.0, -83.0, 26.84000015258789, -2.0, -2.0, -2.0, -32.5, -2.0, 1011.5, 122.5, 27.605000495910645, 23.90999984741211, 3.5549999475479126, -2.0, -2.0, -2.0, 9.5, 3.5, -2.0, -2.0, 6.2250001430511475, -2.0, -2.0, -2.0, -2.0, 19.994999885559082, 123.5, -108.5, -2.0, -2.0, 5.0249998569488525, 16.059999465942383, -2.0, -2.0, -2.0, 50.5, 28.324999809265137, 1014.5, 1002.5, -2.0, 2.1200000047683716, -86.5, -2.0, -2.0, 34.0, 122.5, 35.5, 22.5, -2.0, -2.0, 78.5, -2.0, 96.5, 2.2300000190734863, -2.0, -2.0, -2.0, 12.5, 4.009999990463257, 20.90999984741211, -2.0, 136.5, -2.0, -2.0, -2.0, -2.0, -2.0, 15.5, 21.640000343322754, 15.664999961853027, -2.0, -2.0, -2.0, -2.0, 15.464999675750732, -2.0, -2.0, 9.5, -2.0, 116.5, -2.0, 190.5, -2.0, -2.0, 1010.5, 22.859999656677246, 21.649999618530273, -2.0, -2.0, -2.0, 1.3100000023841858, -2.0, 59.5, -2.0, 190.5, 152.5, 28.65000057220459, 127.5, 1011.5, -2.0, -2.0, 155.5, 21.475000381469727, -2.0, -2.0, -2.0, -2.0, -2.0, -2.0], "feature": [7, 5, 3, 4, 8, 5, 2, 4, -2, 6, -2, -2, 3, -2, -2, 4, 2, 6, -2, -2, 1, -2, -2, 3, 7, 7, -2, 6, -2, -2, -2, -2, 2, 8, -2, 5, -2, -2, -2, 5, 3, -2, 8, -2, 6, 6, -2, -2, -2, 7, -2, -2, 8, 4, 4, 8, 0, 4, -2, 8, -2, -2, 8, 3, -2, 1, 1, -2, -2, -2, 4, -2, 2, 4, 2, 7, -2, -2, 0, -2, 3, -2, -2, -2, 6, 3, -2, 4, 0, 5, -2, -2, -2, -2, -2, 7, -2, -2, 5, -2, -2, 3, 8, 6, -2, -2, 8, -2, 3, 1, -2, -2, -2, 6, 6, 3, -2, 8, -2, 1, 8, 8, 7, 7, -2, -2, 7, 2, -2, -2, -2, -2, -2, -2, 7, -2, -2, -2, 1, 8, -2, -2, 5, -2, 7, -2, -2, 0, -2, 5, 2, 0, 1, 8, 6, 4, -2, -2, -2, -2, -2, -2, 7, 2, -2, 1, -2, -2, 7, 5, -2, -2, -2, -2, 4, 1, 0, -2, 3, -2, -2, -2, 1, 0, 1, 8, 5, 4, -2, -2, -2, 1, 3, -2, -2, -2, 0, -2, 6, 1, 3, 7, 4, -2, -2, -2, 2, 2, -2, -2, 4, -2, -2, -2, -2, 3, 8, 1, -2, -2, 4, 7, -2, -2, -2, 0, 3, 6, 6, -2, 4, 1, -2, -2, 1, 8, 0, 2, -2, -2, 8, -2, 8, 4, -2, -2, -2, 2, 4, 3, -2, 8, -2, -2, -2, -2, -2, 1, 7, 7, -2, -2, -2, -2, 7, -2, -2, 2, -2, 8, -2, 8, -2, -2, 6, 3, 3, -2, -2, -2, 4, -2, 5, -2, 8, 1, 3, 8, 6, -2, -2, 8, 7, -2, -2, -2, -2, -2, -2], "classes": [0, 1], "value": [[2816.0, 2957.0], [1804.0, 1519.0], [1364.0, 1294.0], [480.0, 327.0], [304.0, 257.0], [221.0, 148.0], [142.0, 70.0], [27.0, 28.0], [1.0, 14.0], [26.0, 14.0], [3.0, 9.0], [23.0, 5.0], [115.0, 42.0], [3.0, 10.0], [112.0, 32.0], [79.0, 78.0], [26.0, 12.0], [20.0, 3.0], [0.0, 3.0], [20.0, 0.0], [6.0, 9.0], [6.0, 1.0], [0.0, 8.0], [53.0, 66.0], [47.0, 66.0], [38.0, 35.0], [3.0, 14.0], [35.0, 21.0], [19.0, 21.0], [16.0, 0.0], [9.0, 31.0], [6.0, 0.0], [83.0, 109.0], [36.0, 17.0], [29.0, 6.0], [7.0, 11.0], [1.0, 10.0], [6.0, 1.0], [47.0, 92.0], [176.0, 70.0], [167.0, 56.0], [66.0, 10.0], [101.0, 46.0], [4.0, 12.0], [97.0, 34.0], [16.0, 17.0], [13.0, 4.0], [3.0, 13.0], [81.0, 17.0], [9.0, 14.0], [0.0, 10.0], [9.0, 4.0], [884.0, 967.0], [831.0, 855.0], [492.0, 582.0], [442.0, 478.0], [404.0, 469.0], [93.0, 162.0], [26.0, 95.0], [67.0, 67.0], [0.0, 10.0], [67.0, 57.0], [311.0, 307.0], [188.0, 104.0], [168.0, 73.0], [20.0, 31.0], [13.0, 7.0], [0.0, 6.0], [13.0, 1.0], [7.0, 24.0], [123.0, 203.0], [10.0, 0.0], [113.0, 203.0], [59.0, 71.0], [48.0, 71.0], [10.0, 37.0], [6.0, 37.0], [4.0, 0.0], [38.0, 34.0], [28.0, 10.0], [10.0, 24.0], [7.0, 0.0], [3.0, 24.0], [11.0, 0.0], [54.0, 132.0], [48.0, 132.0], [8.0, 5.0], [40.0, 127.0], [37.0, 84.0], [22.0, 18.0], [0.0, 7.0], [22.0, 11.0], [15.0, 66.0], [3.0, 43.0], [6.0, 0.0], [38.0, 9.0], [38.0, 4.0], [0.0, 5.0], [50.0, 104.0], [14.0, 5.0], [36.0, 99.0], [339.0, 273.0], [150.0, 78.0], [20.0, 28.0], [0.0, 11.0], [20.0, 17.0], [130.0, 50.0], [111.0, 28.0], [19.0, 22.0], [10.0, 22.0], [3.0, 21.0], [7.0, 1.0], [9.0, 0.0], [189.0, 195.0], [188.0, 166.0], [113.0, 131.0], [9.0, 34.0], [104.0, 97.0], [0.0, 9.0], [104.0, 88.0], [91.0, 87.0], [91.0, 80.0], [78.0, 80.0], [36.0, 20.0], [13.0, 17.0], [23.0, 3.0], [42.0, 60.0], [13.0, 44.0], [7.0, 43.0], [6.0, 1.0], [29.0, 16.0], [13.0, 0.0], [0.0, 7.0], [13.0, 1.0], [75.0, 35.0], [43.0, 8.0], [32.0, 27.0], [1.0, 29.0], [53.0, 112.0], [14.0, 59.0], [8.0, 56.0], [6.0, 3.0], [39.0, 53.0], [31.0, 24.0], [8.0, 29.0], [3.0, 28.0], [5.0, 1.0], [440.0, 225.0], [0.0, 6.0], [440.0, 219.0], [437.0, 211.0], [280.0, 93.0], [108.0, 56.0], [81.0, 54.0], [58.0, 21.0], [52.0, 10.0], [2.0, 5.0], [50.0, 5.0], [6.0, 11.0], [23.0, 33.0], [27.0, 2.0], [172.0, 37.0], [157.0, 118.0], [102.0, 45.0], [60.0, 41.0], [42.0, 4.0], [2.0, 4.0], [40.0, 0.0], [55.0, 73.0], [8.0, 41.0], [2.0, 41.0], [6.0, 0.0], [47.0, 32.0], [3.0, 8.0], [1012.0, 1438.0], [36.0, 127.0], [30.0, 125.0], [8.0, 88.0], [22.0, 37.0], [6.0, 27.0], [16.0, 10.0], [6.0, 2.0], [976.0, 1311.0], [840.0, 1208.0], [256.0, 527.0], [60.0, 240.0], [34.0, 57.0], [28.0, 15.0], [4.0, 13.0], [24.0, 2.0], [6.0, 42.0], [26.0, 183.0], [14.0, 30.0], [4.0, 25.0], [10.0, 5.0], [12.0, 153.0], [196.0, 287.0], [10.0, 0.0], [186.0, 287.0], [167.0, 219.0], [156.0, 177.0], [36.0, 71.0], [25.0, 20.0], [13.0, 20.0], [12.0, 0.0], [11.0, 51.0], [120.0, 106.0], [37.0, 62.0], [13.0, 2.0], [24.0, 60.0], [83.0, 44.0], [83.0, 38.0], [0.0, 6.0], [11.0, 42.0], [19.0, 68.0], [584.0, 681.0], [119.0, 75.0], [69.0, 16.0], [0.0, 4.0], [69.0, 12.0], [50.0, 59.0], [31.0, 54.0], [8.0, 37.0], [23.0, 17.0], [19.0, 5.0], [465.0, 606.0], [428.0, 504.0], [265.0, 378.0], [130.0, 247.0], [13.0, 4.0], [117.0, 243.0], [13.0, 70.0], [7.0, 3.0], [6.0, 67.0], [104.0, 173.0], [94.0, 172.0], [58.0, 72.0], [11.0, 30.0], [7.0, 30.0], [4.0, 0.0], [47.0, 42.0], [11.0, 1.0], [36.0, 41.0], [5.0, 25.0], [4.0, 0.0], [1.0, 25.0], [31.0, 16.0], [36.0, 100.0], [21.0, 19.0], [18.0, 8.0], [0.0, 5.0], [18.0, 3.0], [0.0, 3.0], [18.0, 0.0], [3.0, 11.0], [15.0, 81.0], [10.0, 1.0], [135.0, 131.0], [132.0, 99.0], [130.0, 83.0], [3.0, 11.0], [127.0, 72.0], [2.0, 16.0], [3.0, 32.0], [163.0, 126.0], [0.0, 9.0], [163.0, 117.0], [37.0, 102.0], [9.0, 3.0], [28.0, 99.0], [14.0, 10.0], [14.0, 89.0], [10.0, 88.0], [4.0, 1.0], [136.0, 103.0], [55.0, 23.0], [6.0, 10.0], [6.0, 1.0], [0.0, 9.0], [49.0, 13.0], [81.0, 80.0], [2.0, 13.0], [79.0, 67.0], [1.0, 15.0], [78.0, 52.0], [47.0, 44.0], [43.0, 26.0], [42.0, 20.0], [30.0, 5.0], [0.0, 3.0], [30.0, 2.0], [12.0, 15.0], [3.0, 13.0], [0.0, 13.0], [3.0, 0.0], [9.0, 2.0], [1.0, 6.0], [4.0, 18.0], [31.0, 8.0]]}, {"children_left": [1, 2, 3, 4, 5, 6, 7, -1, -1, 10, 11, 12, 13, 14, -1, -1, -1, 18, -1, -1, -1, -1, 23, 24, 25, -1, 27, 28, 29, 30, -1, -1, -1, -1, -1, -1, 37, -1, -1, 40, 41, 42, -1, 44, 45, -1, -1, -1, 49, -1, 51, -1, -1, 54, -1, 56, -1, -1, 59, 60, -1, -1, 63, -1, 65, -1, 67, 68, -1, -1, -1, 72, 73, 74, 75, -1, 77, -1, 79, 80, -1, 82, -1, 84, -1, -1, -1, 88, 89, 90, 91, -1, -1, -1, 95, 96, 97, -1, -1, -1, -1, -1, -1, 104, -1, 106, 107, 108, 109, 110, 111, -1, 113, -1, -1, -1, -1, 118, -1, -1, 121, 122, -1, -1, -1, 126, 127, 128, -1, -1, 131, -1, -1, -1, 135, 136, 137, 138, 139, 140, -1, -1, -1, -1, -1, 146, 147, 148, 149, 150, -1, -1, 153, 154, 155, -1, -1, -1, -1, -1, -1, 162, 163, -1, 165, -1, 167, 168, -1, 170, -1, -1, 173, 174, -1, -1, -1, 178, -1, 180, -1, 182, -1, 184, -1, 186, 187, 188, 189, 190, -1, 192, -1, 194, -1, -1, -1, -1, 199, -1, -1, 202, 203, -1, -1, 206, -1, 208, -1, -1, 211, 212, 213, 214, -1, -1, 217, 218, -1, -1, -1, 222, -1, -1, 225, 226, 227, 228, -1, 230, 231, -1, -1, 234, -1, 236, -1, -1, 239, 240, 241, 242, 243, 244, 245, 246, -1, -1, -1, 250, 251, -1, 253, -1, 255, 256, 257, -1, -1, -1, -1, -1, 263, -1, -1, -1, 267, -1, 269, -1, -1, -1, -1, 274, 275, 276, -1, 278, -1, 280, -1, -1, -1, 284, -1, -1, -1], "children_right": [134, 71, 58, 39, 22, 9, 8, -1, -1, 21, 20, 17, 16, 15, -1, -1, -1, 19, -1, -1, -1, -1, 36, 35, 26, -1, 34, 33, 32, 31, -1, -1, -1, -1, -1, -1, 38, -1, -1, 53, 48, 43, -1, 47, 46, -1, -1, -1, 50, -1, 52, -1, -1, 55, -1, 57, -1, -1, 62, 61, -1, -1, 64, -1, 66, -1, 70, 69, -1, -1, -1, 103, 102, 87, 76, -1, 78, -1, 86, 81, -1, 83, -1, 85, -1, -1, -1, 101, 94, 93, 92, -1, -1, -1, 100, 99, 98, -1, -1, -1, -1, -1, -1, 105, -1, 125, 120, 117, 116, 115, 112, -1, 114, -1, -1, -1, -1, 119, -1, -1, 124, 123, -1, -1, -1, 133, 130, 129, -1, -1, 132, -1, -1, -1, 210, 145, 144, 143, 142, 141, -1, -1, -1, -1, -1, 161, 160, 159, 152, 151, -1, -1, 158, 157, 156, -1, -1, -1, -1, -1, -1, 177, 164, -1, 166, -1, 172, 169, -1, 171, -1, -1, 176, 175, -1, -1, -1, 179, -1, 181, -1, 183, -1, 185, -1, 201, 198, 197, 196, 191, -1, 193, -1, 195, -1, -1, -1, -1, 200, -1, -1, 205, 204, -1, -1, 207, -1, 209, -1, -1, 224, 221, 216, 215, -1, -1, 220, 219, -1, -1, -1, 223, -1, -1, 286, 273, 238, 229, -1, 233, 232, -1, -1, 235, -1, 237, -1, -1, 272, 271, 266, 265, 262, 249, 248, 247, -1, -1, -1, 261, 252, -1, 254, -1, 260, 259, 258, -1, -1, -1, -1, -1, 264, -1, -1, -1, 268, -1, 270, -1, -1, -1, -1, 283, 282, 277, -1, 279, -1, 281, -1, -1, -1, 285, -1, -1, -1], "threshold": [14.554999828338623, 18.304999351501465, 17.5, 174.5, 42.5, 1.3949999809265137, 2.394999995827675, -2.0, -2.0, 91.5, 7.5, 30.0, 65.5, 1015.5, -2.0, -2.0, -2.0, 61.5, -2.0, -2.0, -2.0, -2.0, 16.5, 78.5, 9.660000324249268, -2.0, 12.990000247955322, 16.554999351501465, 52.5, 54.0, -2.0, -2.0, -2.0, -2.0, -2.0, -2.0, 68.5, -2.0, -2.0, 1020.5, 262.0, 14.055000305175781, -2.0, 12.5, -33.0, -2.0, -2.0, -2.0, 4.079999923706055, -2.0, -83.0, -2.0, -2.0, 188.5, -2.0, -0.9449999630451202, -2.0, -2.0, 5.430000066757202, -2.7350000143051147, -2.0, -2.0, 7.5, -2.0, 1020.5, -2.0, 3.174999952316284, -27.0, -2.0, -2.0, -2.0, -3.5, -4.5, 47.5, -0.23499999195337296, -2.0, -112.5, -2.0, 110.5, 1010.5, -2.0, 1018.5, -2.0, 20.164999961853027, -2.0, -2.0, -2.0, -8.5, 1.5849999785423279, 1014.0, -105.0, -2.0, -2.0, -2.0, 18.5, 11.889999866485596, 160.0, -2.0, -2.0, -2.0, -2.0, -2.0, -2.0, 4.5899999141693115, -2.0, 112.0, 60.5, 136.5, 131.5, 13.519999980926514, 28.5, -2.0, 26.385000228881836, -2.0, -2.0, -2.0, -2.0, 14.265000343322754, -2.0, -2.0, 1018.5, 146.5, -2.0, -2.0, -2.0, 3.8299999237060547, 111.5, 13.485000133514404, -2.0, -2.0, 20.344999313354492, -2.0, -2.0, -2.0, 3.3850001096725464, 19.925000190734863, 19.3149995803833, 202.0, 15.87000036239624, 2.4000000953674316, -2.0, -2.0, -2.0, -2.0, -2.0, -81.5, 219.5, -84.5, 1.300000011920929, -118.0, -2.0, -2.0, -87.5, 1009.5, 17.0, -2.0, -2.0, -2.0, -2.0, -2.0, -2.0, -22.0, 1006.5, -2.0, 3.5, -2.0, 23.175000190734863, -76.5, -2.0, 20.835000038146973, -2.0, -2.0, 1012.5, 23.795000076293945, -2.0, -2.0, -2.0, 63.5, -2.0, 0.42499999701976776, -2.0, 1.0699999928474426, -2.0, 1.1800000071525574, -2.0, 114.5, 2.430000066757202, 151.5, 2.125, 10.5, -2.0, 91.5, -2.0, 2.0049999952316284, -2.0, -2.0, -2.0, -2.0, 21.960000038146973, -2.0, -2.0, -35.5, 1012.0, -2.0, -2.0, 23.5, -2.0, 24.389999389648438, -2.0, -2.0, 7.5, 1015.5, 109.5, 106.5, -2.0, -2.0, -33.5, 157.0, -2.0, -2.0, -2.0, 17.515000343322754, -2.0, -2.0, 224.5, 1014.5, 65.5, 34.5, -2.0, 53.5, 32.66499900817871, -2.0, -2.0, 1009.5, -2.0, 18.5, -2.0, -2.0, 52.5, 205.5, 82.5, 6.8450000286102295, 21.5, 17.144999504089355, 5.659999847412109, -81.0, -2.0, -2.0, -2.0, 5.940000057220459, 84.5, -2.0, 1003.5, -2.0, 4.869999885559082, 170.5, -7.0, -2.0, -2.0, -2.0, -2.0, -2.0, 80.0, -2.0, -2.0, -2.0, 19.56999969482422, -2.0, 6.545000076293945, -2.0, -2.0, -2.0, -2.0, 5.305000066757202, 49.5, 14.974999904632568, -2.0, 20.344999313354492, -2.0, 20.5, -2.0, -2.0, -2.0, 49.5, -2.0, -2.0, -2.0], "feature": [7, 3, 2, 8, 0, 4, 7, -2, -2, 5, 2, 0, 5, 6, -2, -2, -2, 5, -2, -2, -2, -2, 2, 8, 3, -2, 7, 3, 5, 0, -2, -2, -2, -2, -2, -2, 5, -2, -2, 6, 8, 3, -2, 2, 0, -2, -2, -2, 4, -2, 1, -2, -2, 8, -2, 3, -2, -2, 3, 7, -2, -2, 1, -2, 6, -2, 4, 0, -2, -2, -2, 1, 1, 5, 7, -2, 1, -2, 8, 6, -2, 6, -2, 3, -2, -2, -2, 1, 4, 6, 1, -2, -2, -2, 2, 7, 8, -2, -2, -2, -2, -2, -2, 7, -2, 1, 5, 8, 8, 7, 0, -2, 3, -2, -2, -2, -2, 7, -2, -2, 6, 8, -2, -2, -2, 4, 8, 7, -2, -2, 3, -2, -2, -2, 4, 3, 3, 8, 7, 4, -2, -2, -2, -2, -2, 1, 8, 1, 4, 1, -2, -2, 1, 6, 2, -2, -2, -2, -2, -2, -2, 1, 6, -2, 0, -2, 3, 1, -2, 3, -2, -2, 6, 7, -2, -2, -2, 8, -2, 4, -2, 4, -2, 4, -2, 8, 4, 1, 4, 0, -2, 8, -2, 4, -2, -2, -2, -2, 3, -2, -2, 0, 6, -2, -2, 2, -2, 7, -2, -2, 0, 6, 1, 1, -2, -2, 0, 8, -2, -2, -2, 7, -2, -2, 8, 6, 5, 0, -2, 5, 3, -2, -2, 6, -2, 1, -2, -2, 0, 8, 5, 4, 2, 7, 4, 1, -2, -2, -2, 4, 8, -2, 6, -2, 4, 8, 1, -2, -2, -2, -2, -2, 5, -2, -2, -2, 3, -2, 4, -2, -2, -2, -2, 4, 0, 7, -2, 7, -2, 2, -2, -2, -2, 8, -2, -2, -2], "classes": [0, 1], "value": [[2882.0, 2891.0], [1711.0, 1364.0], [1004.0, 615.0], [746.0, 408.0], [517.0, 222.0], [180.0, 127.0], [14.0, 26.0], [5.0, 0.0], [9.0, 26.0], [166.0, 101.0], [153.0, 100.0], [57.0, 55.0], [13.0, 27.0], [9.0, 4.0], [0.0, 4.0], [9.0, 0.0], [4.0, 23.0], [44.0, 28.0], [2.0, 13.0], [42.0, 15.0], [96.0, 45.0], [13.0, 1.0], [337.0, 95.0], [318.0, 79.0], [164.0, 57.0], [77.0, 7.0], [87.0, 50.0], [87.0, 43.0], [57.0, 41.0], [6.0, 18.0], [2.0, 18.0], [4.0, 0.0], [51.0, 23.0], [30.0, 2.0], [0.0, 7.0], [154.0, 22.0], [19.0, 16.0], [13.0, 2.0], [6.0, 14.0], [229.0, 186.0], [107.0, 136.0], [66.0, 51.0], [40.0, 12.0], [26.0, 39.0], [14.0, 37.0], [8.0, 3.0], [6.0, 34.0], [12.0, 2.0], [41.0, 85.0], [14.0, 64.0], [27.0, 21.0], [0.0, 12.0], [27.0, 9.0], [122.0, 50.0], [0.0, 8.0], [122.0, 42.0], [1.0, 9.0], [121.0, 33.0], [258.0, 207.0], [19.0, 35.0], [16.0, 5.0], [3.0, 30.0], [239.0, 172.0], [172.0, 98.0], [67.0, 74.0], [37.0, 59.0], [30.0, 15.0], [13.0, 15.0], [10.0, 1.0], [3.0, 14.0], [17.0, 0.0], [707.0, 749.0], [305.0, 260.0], [271.0, 256.0], [147.0, 179.0], [22.0, 5.0], [125.0, 174.0], [43.0, 27.0], [82.0, 147.0], [56.0, 61.0], [8.0, 31.0], [48.0, 30.0], [42.0, 15.0], [6.0, 15.0], [5.0, 0.0], [1.0, 15.0], [26.0, 86.0], [124.0, 77.0], [120.0, 65.0], [10.0, 18.0], [8.0, 4.0], [0.0, 4.0], [8.0, 0.0], [2.0, 14.0], [110.0, 47.0], [86.0, 21.0], [28.0, 13.0], [27.0, 5.0], [1.0, 8.0], [58.0, 8.0], [24.0, 26.0], [4.0, 12.0], [34.0, 4.0], [402.0, 489.0], [16.0, 51.0], [386.0, 438.0], [260.0, 351.0], [196.0, 307.0], [132.0, 148.0], [114.0, 146.0], [99.0, 110.0], [2.0, 16.0], [97.0, 94.0], [66.0, 85.0], [31.0, 9.0], [15.0, 36.0], [18.0, 2.0], [64.0, 159.0], [57.0, 159.0], [7.0, 0.0], [64.0, 44.0], [47.0, 41.0], [28.0, 40.0], [19.0, 1.0], [17.0, 3.0], [126.0, 87.0], [64.0, 63.0], [14.0, 38.0], [6.0, 36.0], [8.0, 2.0], [50.0, 25.0], [5.0, 13.0], [45.0, 12.0], [62.0, 24.0], [1171.0, 1527.0], [597.0, 948.0], [105.0, 79.0], [63.0, 70.0], [61.0, 49.0], [23.0, 34.0], [20.0, 11.0], [3.0, 23.0], [38.0, 15.0], [2.0, 21.0], [42.0, 9.0], [492.0, 869.0], [130.0, 130.0], [130.0, 116.0], [80.0, 92.0], [5.0, 25.0], [4.0, 1.0], [1.0, 24.0], [75.0, 67.0], [71.0, 48.0], [8.0, 17.0], [1.0, 16.0], [7.0, 1.0], [63.0, 31.0], [4.0, 19.0], [50.0, 24.0], [0.0, 14.0], [362.0, 739.0], [57.0, 183.0], [8.0, 3.0], [49.0, 180.0], [0.0, 31.0], [49.0, 149.0], [23.0, 35.0], [6.0, 25.0], [17.0, 10.0], [0.0, 5.0], [17.0, 5.0], [26.0, 114.0], [20.0, 40.0], [10.0, 37.0], [10.0, 3.0], [6.0, 74.0], [305.0, 556.0], [10.0, 49.0], [295.0, 507.0], [16.0, 6.0], [279.0, 501.0], [21.0, 76.0], [258.0, 425.0], [18.0, 7.0], [240.0, 418.0], [86.0, 95.0], [45.0, 72.0], [37.0, 72.0], [37.0, 50.0], [5.0, 25.0], [32.0, 25.0], [21.0, 3.0], [11.0, 22.0], [6.0, 22.0], [5.0, 0.0], [0.0, 22.0], [8.0, 0.0], [41.0, 23.0], [1.0, 11.0], [40.0, 12.0], [154.0, 323.0], [15.0, 8.0], [14.0, 1.0], [1.0, 7.0], [139.0, 315.0], [130.0, 311.0], [9.0, 4.0], [0.0, 4.0], [9.0, 0.0], [574.0, 579.0], [159.0, 93.0], [141.0, 67.0], [55.0, 41.0], [49.0, 24.0], [6.0, 17.0], [86.0, 26.0], [20.0, 15.0], [9.0, 15.0], [11.0, 0.0], [66.0, 11.0], [18.0, 26.0], [15.0, 9.0], [3.0, 17.0], [415.0, 486.0], [404.0, 435.0], [265.0, 332.0], [85.0, 141.0], [23.0, 75.0], [62.0, 66.0], [36.0, 19.0], [21.0, 19.0], [15.0, 0.0], [26.0, 47.0], [15.0, 7.0], [11.0, 40.0], [6.0, 39.0], [5.0, 1.0], [180.0, 191.0], [163.0, 186.0], [154.0, 185.0], [115.0, 112.0], [111.0, 93.0], [103.0, 71.0], [13.0, 20.0], [13.0, 11.0], [0.0, 7.0], [13.0, 4.0], [0.0, 9.0], [90.0, 51.0], [67.0, 50.0], [7.0, 18.0], [60.0, 32.0], [0.0, 6.0], [60.0, 26.0], [35.0, 24.0], [35.0, 17.0], [2.0, 8.0], [33.0, 9.0], [0.0, 7.0], [25.0, 2.0], [23.0, 1.0], [8.0, 22.0], [4.0, 22.0], [4.0, 0.0], [4.0, 19.0], [39.0, 73.0], [17.0, 10.0], [22.0, 63.0], [12.0, 59.0], [10.0, 4.0], [9.0, 1.0], [17.0, 5.0], [139.0, 103.0], [78.0, 87.0], [68.0, 51.0], [3.0, 12.0], [65.0, 39.0], [56.0, 22.0], [9.0, 17.0], [3.0, 17.0], [6.0, 0.0], [10.0, 36.0], [61.0, 16.0], [0.0, 6.0], [61.0, 10.0], [11.0, 51.0]]}, {"children_left": [1, 2, 3, 4, 5, -1, -1, 8, 9, -1, 11, 12, -1, 14, -1, -1, 17, -1, -1, 20, -1, 22, 23, -1, -1, -1, 27, -1, -1, 30, -1, 32, -1, 34, -1, 36, -1, 38, 39, 40, -1, -1, -1, 44, -1, 46, -1, 48, -1, 50, 51, 52, -1, 54, -1, -1, 57, -1, 59, -1, 61, 62, -1, -1, -1, -1, 67, 68, 69, 70, -1, 72, 73, 74, 75, 76, -1, -1, 79, -1, -1, -1, -1, -1, 85, 86, -1, 88, 89, -1, -1, 92, 93, -1, -1, -1, 97, 98, -1, -1, 101, 102, -1, 104, 105, 106, 107, -1, -1, -1, -1, -1, -1, 114, 115, 116, 117, 118, 119, 120, 121, 122, -1, -1, -1, 126, 127, -1, 129, -1, -1, 132, -1, 134, -1, -1, 137, 138, 139, 140, 141, -1, 143, -1, -1, -1, -1, -1, 149, -1, -1, 152, -1, -1, 155, 156, 157, -1, -1, 160, 161, -1, -1, -1, -1, 166, 167, 168, 169, 170, -1, 172, -1, -1, 175, 176, -1, 178, 179, 180, -1, -1, -1, -1, 185, 186, -1, -1, 189, -1, 191, 192, 193, -1, -1, -1, -1, -1, 199, 200, 201, 202, 203, -1, -1, 206, -1, -1, 209, -1, 211, 212, -1, 214, -1, -1, -1, 218, 219, 220, 221, 222, -1, -1, -1, 226, -1, 228, -1, 230, -1, -1, -1, 234, -1, -1, -1, 238, 239, -1, -1, -1, 243, 244, 245, -1, 247, 248, -1, -1, 251, 252, -1, -1, -1, -1, 257, 258, 259, -1, 261, -1, 263, 264, 265, -1, -1, -1, -1, 270, -1, -1, 273, -1, -1, 276, 277, 278, 279, -1, 281, 282, 283, -1, -1, -1, -1, 288, 289, 290, 291, -1, -1, 294, -1, -1, -1, -1, -1, -1, 301, 302, -1, 304, 305, -1, 307, -1, -1, 310, -1, -1, -1], "children_right": [66, 29, 26, 7, 6, -1, -1, 19, 10, -1, 16, 13, -1, 15, -1, -1, 18, -1, -1, 21, -1, 25, 24, -1, -1, -1, 28, -1, -1, 31, -1, 33, -1, 35, -1, 37, -1, 43, 42, 41, -1, -1, -1, 45, -1, 47, -1, 49, -1, 65, 56, 53, -1, 55, -1, -1, 58, -1, 60, -1, 64, 63, -1, -1, -1, -1, 300, 113, 84, 71, -1, 83, 82, 81, 78, 77, -1, -1, 80, -1, -1, -1, -1, -1, 96, 87, -1, 91, 90, -1, -1, 95, 94, -1, -1, -1, 100, 99, -1, -1, 112, 103, -1, 111, 110, 109, 108, -1, -1, -1, -1, -1, -1, 275, 242, 165, 154, 151, 136, 125, 124, 123, -1, -1, -1, 131, 128, -1, 130, -1, -1, 133, -1, 135, -1, -1, 148, 147, 146, 145, 142, -1, 144, -1, -1, -1, -1, -1, 150, -1, -1, 153, -1, -1, 164, 159, 158, -1, -1, 163, 162, -1, -1, -1, -1, 237, 198, 197, 174, 171, -1, 173, -1, -1, 184, 177, -1, 183, 182, 181, -1, -1, -1, -1, 188, 187, -1, -1, 190, -1, 196, 195, 194, -1, -1, -1, -1, -1, 236, 217, 208, 205, 204, -1, -1, 207, -1, -1, 210, -1, 216, 213, -1, 215, -1, -1, -1, 233, 232, 225, 224, 223, -1, -1, -1, 227, -1, 229, -1, 231, -1, -1, -1, 235, -1, -1, -1, 241, 240, -1, -1, -1, 256, 255, 246, -1, 250, 249, -1, -1, 254, 253, -1, -1, -1, -1, 272, 269, 260, -1, 262, -1, 268, 267, 266, -1, -1, -1, -1, 271, -1, -1, 274, -1, -1, 299, 298, 287, 280, -1, 286, 285, 284, -1, -1, -1, -1, 297, 296, 293, 292, -1, -1, 295, -1, -1, -1, -1, -1, -1, 312, 303, -1, 309, 306, -1, 308, -1, -1, 311, -1, -1, -1], "threshold": [16.945000648498535, 4.079999923706055, 21.5, 33.0, 4.0, -2.0, -2.0, 1016.5, 48.5, -2.0, 16.5, 42.0, -2.0, 87.0, -2.0, -2.0, 48.0, -2.0, -2.0, 44.5, -2.0, 57.5, 15.625000476837158, -2.0, -2.0, -2.0, 1030.5, -2.0, -2.0, 10.825000286102295, -2.0, 0.4650000035762787, -2.0, -40.5, -2.0, 11.515000343322754, -2.0, 1012.5, 6.115000009536743, 5.454999923706055, -2.0, -2.0, -2.0, 27.5, -2.0, -34.5, -2.0, 4.625, -2.0, 4.315000057220459, 1018.5, 64.5, -2.0, -0.5, -2.0, -2.0, 8.5, -2.0, 74.5, -2.0, 1.4049999713897705, -42.0, -2.0, -2.0, -2.0, -2.0, 7.545000076293945, 1.784999966621399, 29.5, 106.0, -2.0, 33.21999931335449, 1019.5, 1011.5, 150.0, 1009.5, -2.0, -2.0, 100.0, -2.0, -2.0, -2.0, -2.0, -2.0, 14.90999984741211, 0.5349999964237213, -2.0, 9.5, 63.5, -2.0, -2.0, 128.5, -114.0, -2.0, -2.0, -2.0, 16.925000190734863, 1006.5, -2.0, -2.0, 1.6549999713897705, -91.0, -2.0, 200.5, 167.5, 148.5, 7.5, -2.0, -2.0, -2.0, -2.0, -2.0, -2.0, 22.1850004196167, 109.5, 121.5, 48.5, 29.59000015258789, -72.5, 78.5, 36.5, 1014.5, -2.0, -2.0, -2.0, 99.5, 18.5, -2.0, 4.7850000858306885, -2.0, -2.0, 18.21500015258789, -2.0, -78.0, -2.0, -2.0, 27.34500026702881, 104.5, 95.5, 16.5, -0.5, -2.0, 19.130000114440918, -2.0, -2.0, -2.0, -2.0, -2.0, 64.0, -2.0, -2.0, 87.5, -2.0, -2.0, 71.5, 11.5, 113.5, -2.0, -2.0, 3.1299999952316284, 2.2799999713897705, -2.0, -2.0, -2.0, -2.0, 228.0, 42.5, 50.5, 148.5, -13.0, -2.0, 21.5, -2.0, -2.0, 17.5, -0.5, -2.0, 1021.0, 1009.5, 1006.5, -2.0, -2.0, -2.0, -2.0, -79.5, -117.5, -2.0, -2.0, 155.5, -2.0, 1014.5, 38.5, 19.260000228881836, -2.0, -2.0, -2.0, -2.0, -2.0, 206.5, 21.625, 14.5, 19.729999542236328, 3.865000009536743, -2.0, -2.0, 8.5, -2.0, -2.0, 1002.5, -2.0, 4.265000104904175, 17.925000190734863, -2.0, 47.5, -2.0, -2.0, -2.0, 18.56999969482422, 5.734999895095825, 41.5, 13.5, 12.569999694824219, -2.0, -2.0, -2.0, 2.5, -2.0, 14.295000076293945, -2.0, 14.644999980926514, -2.0, -2.0, -2.0, 27.72000026702881, -2.0, -2.0, -2.0, -76.5, -89.0, -2.0, -2.0, -2.0, 96.5, -24.5, 2.6999999284744263, -2.0, 7.5, 18.684999465942383, -2.0, -2.0, 3.884999990463257, 2.934999942779541, -2.0, -2.0, -2.0, -2.0, 326.5, 23.5, 149.5, -2.0, 21.449999809265137, -2.0, -25.5, 138.5, 4.629999876022339, -2.0, -2.0, -2.0, -2.0, -31.5, -2.0, -2.0, 1011.5, -2.0, -2.0, 125.5, 337.0, 23.65499973297119, 3.834999918937683, -2.0, 32.31500053405762, 20.0, 64.5, -2.0, -2.0, -2.0, -2.0, 5.729999780654907, 30.980000495910645, 9.5, 23.880000114440918, -2.0, -2.0, 3.9850001335144043, -2.0, -2.0, -2.0, -2.0, -2.0, -2.0, 24.114999771118164, 27.5, -2.0, 8.509999752044678, -98.5, -2.0, 25.0, -2.0, -2.0, 1003.5, -2.0, -2.0, -2.0], "feature": [3, 7, 1, 0, 4, -2, -2, 6, 8, -2, 2, 0, -2, 5, -2, -2, 5, -2, -2, 0, -2, 5, 3, -2, -2, -2, 6, -2, -2, 3, -2, 4, -2, 0, -2, 3, -2, 6, 7, 7, -2, -2, -2, 8, -2, 0, -2, 7, -2, 4, 6, 8, -2, 1, -2, -2, 2, -2, 5, -2, 4, 1, -2, -2, -2, -2, 4, 4, 0, 1, -2, 3, 6, 6, 1, 6, -2, -2, 8, -2, -2, -2, -2, -2, 7, 4, -2, 2, 5, -2, -2, 8, 1, -2, -2, -2, 7, 6, -2, -2, 4, 1, -2, 8, 8, 8, 2, -2, -2, -2, -2, -2, -2, 7, 1, 8, 0, 3, 1, 8, 8, 6, -2, -2, -2, 8, 2, -2, 4, -2, -2, 3, -2, 1, -2, -2, 3, 8, 8, 2, 1, -2, 3, -2, -2, -2, -2, -2, 5, -2, -2, 1, -2, -2, 5, 2, 8, -2, -2, 4, 4, -2, -2, -2, -2, 8, 0, 1, 8, 1, -2, 1, -2, -2, 2, 1, -2, 6, 6, 6, -2, -2, -2, -2, 1, 1, -2, -2, 8, -2, 6, 0, 7, -2, -2, -2, -2, -2, 8, 3, 2, 3, 4, -2, -2, 2, -2, -2, 6, -2, 4, 3, -2, 0, -2, -2, -2, 7, 4, 5, 2, 7, -2, -2, -2, 2, -2, 7, -2, 7, -2, -2, -2, 3, -2, -2, -2, 1, 1, -2, -2, -2, 8, 0, 7, -2, 2, 7, -2, -2, 4, 4, -2, -2, -2, -2, 8, 2, 1, -2, 3, -2, 0, 8, 4, -2, -2, -2, -2, 0, -2, -2, 6, -2, -2, 1, 8, 7, 4, -2, 3, 0, 5, -2, -2, -2, -2, 4, 3, 2, 7, -2, -2, 4, -2, -2, -2, -2, -2, -2, 7, 0, -2, 4, 1, -2, 3, -2, -2, 6, -2, -2, -2], "classes": [0, 1], "value": [[2936.0, 2837.0], [932.0, 500.0], [230.0, 175.0], [193.0, 110.0], [3.0, 12.0], [0.0, 12.0], [3.0, 0.0], [190.0, 98.0], [81.0, 65.0], [41.0, 12.0], [40.0, 53.0], [30.0, 18.0], [17.0, 1.0], [13.0, 17.0], [6.0, 17.0], [7.0, 0.0], [10.0, 35.0], [8.0, 6.0], [2.0, 29.0], [109.0, 33.0], [67.0, 10.0], [42.0, 23.0], [8.0, 15.0], [3.0, 15.0], [5.0, 0.0], [34.0, 8.0], [37.0, 65.0], [31.0, 65.0], [6.0, 0.0], [702.0, 325.0], [158.0, 37.0], [544.0, 288.0], [1.0, 9.0], [543.0, 279.0], [0.0, 6.0], [543.0, 273.0], [17.0, 24.0], [526.0, 249.0], [162.0, 50.0], [15.0, 11.0], [13.0, 0.0], [2.0, 11.0], [147.0, 39.0], [364.0, 199.0], [15.0, 24.0], [349.0, 175.0], [54.0, 10.0], [295.0, 165.0], [4.0, 12.0], [291.0, 153.0], [207.0, 131.0], [83.0, 72.0], [24.0, 6.0], [59.0, 66.0], [48.0, 26.0], [11.0, 40.0], [124.0, 59.0], [41.0, 6.0], [83.0, 53.0], [27.0, 32.0], [56.0, 21.0], [7.0, 9.0], [6.0, 0.0], [1.0, 9.0], [49.0, 12.0], [84.0, 22.0], [2004.0, 2337.0], [1893.0, 2277.0], [352.0, 540.0], [124.0, 284.0], [34.0, 147.0], [90.0, 137.0], [82.0, 137.0], [67.0, 130.0], [56.0, 69.0], [41.0, 66.0], [11.0, 41.0], [30.0, 25.0], [15.0, 3.0], [0.0, 3.0], [15.0, 0.0], [11.0, 61.0], [15.0, 7.0], [8.0, 0.0], [228.0, 256.0], [131.0, 105.0], [24.0, 3.0], [107.0, 102.0], [18.0, 42.0], [6.0, 35.0], [12.0, 7.0], [89.0, 60.0], [65.0, 28.0], [3.0, 10.0], [62.0, 18.0], [24.0, 32.0], [97.0, 151.0], [21.0, 83.0], [6.0, 0.0], [15.0, 83.0], [76.0, 68.0], [73.0, 50.0], [15.0, 0.0], [58.0, 50.0], [58.0, 44.0], [37.0, 41.0], [36.0, 28.0], [1.0, 9.0], [35.0, 19.0], [1.0, 13.0], [21.0, 3.0], [0.0, 6.0], [3.0, 18.0], [1541.0, 1737.0], [1328.0, 1410.0], [1058.0, 1211.0], [549.0, 487.0], [396.0, 421.0], [334.0, 384.0], [219.0, 189.0], [128.0, 75.0], [12.0, 23.0], [10.0, 6.0], [2.0, 17.0], [116.0, 52.0], [91.0, 114.0], [31.0, 68.0], [12.0, 49.0], [19.0, 19.0], [17.0, 5.0], [2.0, 14.0], [60.0, 46.0], [9.0, 0.0], [51.0, 46.0], [33.0, 43.0], [18.0, 3.0], [115.0, 195.0], [110.0, 160.0], [88.0, 103.0], [61.0, 98.0], [48.0, 45.0], [21.0, 1.0], [27.0, 44.0], [10.0, 3.0], [17.0, 41.0], [13.0, 53.0], [27.0, 5.0], [22.0, 57.0], [5.0, 35.0], [2.0, 35.0], [3.0, 0.0], [62.0, 37.0], [60.0, 24.0], [2.0, 13.0], [153.0, 66.0], [97.0, 58.0], [14.0, 22.0], [8.0, 22.0], [6.0, 0.0], [83.0, 36.0], [20.0, 20.0], [13.0, 1.0], [7.0, 19.0], [63.0, 16.0], [56.0, 8.0], [509.0, 724.0], [480.0, 639.0], [231.0, 222.0], [231.0, 209.0], [58.0, 83.0], [29.0, 65.0], [29.0, 18.0], [16.0, 0.0], [13.0, 18.0], [173.0, 126.0], [111.0, 53.0], [87.0, 26.0], [24.0, 27.0], [18.0, 27.0], [13.0, 6.0], [2.0, 6.0], [11.0, 0.0], [5.0, 21.0], [6.0, 0.0], [62.0, 73.0], [17.0, 48.0], [6.0, 1.0], [11.0, 47.0], [45.0, 25.0], [0.0, 4.0], [45.0, 21.0], [14.0, 17.0], [13.0, 5.0], [13.0, 1.0], [0.0, 4.0], [1.0, 12.0], [31.0, 4.0], [0.0, 13.0], [249.0, 417.0], [235.0, 412.0], [126.0, 157.0], [75.0, 61.0], [29.0, 45.0], [21.0, 14.0], [8.0, 31.0], [46.0, 16.0], [2.0, 9.0], [44.0, 7.0], [51.0, 96.0], [7.0, 1.0], [44.0, 95.0], [19.0, 75.0], [5.0, 1.0], [14.0, 74.0], [10.0, 12.0], [4.0, 62.0], [25.0, 20.0], [109.0, 255.0], [75.0, 227.0], [58.0, 207.0], [25.0, 41.0], [5.0, 27.0], [2.0, 27.0], [3.0, 0.0], [20.0, 14.0], [33.0, 166.0], [4.0, 1.0], [29.0, 165.0], [0.0, 57.0], [29.0, 108.0], [9.0, 2.0], [20.0, 106.0], [17.0, 20.0], [34.0, 28.0], [27.0, 8.0], [7.0, 20.0], [14.0, 5.0], [29.0, 85.0], [14.0, 16.0], [1.0, 12.0], [13.0, 4.0], [15.0, 69.0], [270.0, 199.0], [66.0, 111.0], [40.0, 106.0], [7.0, 0.0], [33.0, 106.0], [7.0, 62.0], [3.0, 61.0], [4.0, 1.0], [26.0, 44.0], [13.0, 38.0], [12.0, 13.0], [1.0, 25.0], [13.0, 6.0], [26.0, 5.0], [204.0, 88.0], [195.0, 73.0], [191.0, 64.0], [134.0, 30.0], [57.0, 34.0], [23.0, 4.0], [34.0, 30.0], [21.0, 29.0], [16.0, 10.0], [16.0, 3.0], [0.0, 7.0], [5.0, 19.0], [13.0, 1.0], [4.0, 9.0], [0.0, 9.0], [4.0, 0.0], [9.0, 15.0], [5.0, 0.0], [4.0, 15.0], [213.0, 327.0], [188.0, 319.0], [173.0, 316.0], [45.0, 128.0], [11.0, 80.0], [34.0, 48.0], [34.0, 29.0], [13.0, 21.0], [8.0, 1.0], [5.0, 20.0], [21.0, 8.0], [0.0, 19.0], [128.0, 188.0], [110.0, 181.0], [84.0, 164.0], [13.0, 59.0], [6.0, 2.0], [7.0, 57.0], [71.0, 105.0], [63.0, 72.0], [8.0, 33.0], [26.0, 17.0], [18.0, 7.0], [15.0, 3.0], [25.0, 8.0], [111.0, 60.0], [111.0, 54.0], [48.0, 9.0], [63.0, 45.0], [46.0, 18.0], [16.0, 0.0], [30.0, 18.0], [27.0, 7.0], [3.0, 11.0], [17.0, 27.0], [7.0, 1.0], [10.0, 26.0], [0.0, 6.0]]}, {"children_left": [1, 2, 3, 4, -1, 6, -1, 8, 9, -1, 11, 12, -1, 14, -1, -1, 17, 18, -1, -1, 21, 22, 23, -1, 25, -1, -1, 28, 29, 30, 31, 32, 33, -1, -1, 36, -1, -1, -1, -1, -1, -1, 43, 44, 45, 46, -1, -1, -1, 50, 51, -1, -1, -1, -1, 56, -1, 58, -1, -1, 61, 62, 63, -1, -1, 66, 67, 68, -1, 70, 71, 72, -1, -1, 75, -1, 77, 78, 79, 80, 81, 82, -1, -1, -1, -1, 87, -1, -1, -1, -1, 92, 93, 94, -1, -1, 97, 98, -1, 100, -1, 102, 103, -1, -1, -1, -1, 108, 109, 110, -1, -1, -1, -1, 115, -1, 117, -1, 119, 120, -1, -1, -1, 124, -1, 126, 127, -1, -1, -1, 131, 132, 133, -1, -1, 136, 137, 138, 139, -1, -1, 142, 143, 144, -1, 146, -1, -1, 149, -1, 151, -1, -1, -1, 155, 156, -1, 158, -1, -1, 161, -1, 163, -1, 165, -1, 167, 168, -1, 170, -1, 172, 173, -1, -1, -1, -1, -1, 179, 180, -1, -1, 183, -1, 185, 186, -1, -1, 189, 190, -1, -1, -1, 194, 195, 196, -1, 198, 199, -1, -1, 202, 203, 204, 205, -1, -1, -1, -1, 210, -1, 212, -1, 214, -1, 216, -1, -1, 219, 220, -1, 222, -1, -1, 225, 226, 227, -1, 229, -1, 231, -1, 233, -1, -1, -1, 237, -1, -1, 240, 241, -1, 243, -1, 245, -1, -1, -1, 249, 250, 251, -1, 253, 254, 255, 256, -1, -1, -1, 260, -1, -1, -1, -1, 265, 266, 267, 268, 269, -1, -1, 272, -1, 274, -1, 276, -1, 278, -1, 280, -1, -1, 283, -1, -1, 286, -1, -1, 289, 290, -1, 292, 293, -1, -1, -1, 297, 298, -1, 300, -1, -1, -1], "children_right": [248, 193, 60, 5, -1, 7, -1, 55, 10, -1, 16, 13, -1, 15, -1, -1, 20, 19, -1, -1, 42, 27, 24, -1, 26, -1, -1, 41, 40, 39, 38, 35, 34, -1, -1, 37, -1, -1, -1, -1, -1, -1, 54, 49, 48, 47, -1, -1, -1, 53, 52, -1, -1, -1, -1, 57, -1, 59, -1, -1, 130, 65, 64, -1, -1, 123, 114, 69, -1, 91, 74, 73, -1, -1, 76, -1, 90, 89, 86, 85, 84, 83, -1, -1, -1, -1, 88, -1, -1, -1, -1, 107, 96, 95, -1, -1, 106, 99, -1, 101, -1, 105, 104, -1, -1, -1, -1, 113, 112, 111, -1, -1, -1, -1, 116, -1, 118, -1, 122, 121, -1, -1, -1, 125, -1, 129, 128, -1, -1, -1, 178, 135, 134, -1, -1, 177, 154, 141, 140, -1, -1, 153, 148, 145, -1, 147, -1, -1, 150, -1, 152, -1, -1, -1, 160, 157, -1, 159, -1, -1, 162, -1, 164, -1, 166, -1, 176, 169, -1, 171, -1, 175, 174, -1, -1, -1, -1, -1, 182, 181, -1, -1, 184, -1, 188, 187, -1, -1, 192, 191, -1, -1, -1, 239, 218, 197, -1, 201, 200, -1, -1, 209, 208, 207, 206, -1, -1, -1, -1, 211, -1, 213, -1, 215, -1, 217, -1, -1, 224, 221, -1, 223, -1, -1, 236, 235, 228, -1, 230, -1, 232, -1, 234, -1, -1, -1, 238, -1, -1, 247, 242, -1, 244, -1, 246, -1, -1, -1, 264, 263, 252, -1, 262, 259, 258, 257, -1, -1, -1, 261, -1, -1, -1, -1, 288, 285, 282, 271, 270, -1, -1, 273, -1, 275, -1, 277, -1, 279, -1, 281, -1, -1, 284, -1, -1, 287, -1, -1, 296, 291, -1, 295, 294, -1, -1, -1, 302, 299, -1, 301, -1, -1, -1], "threshold": [4.664999961853027, 19.760000228881836, 16.234999656677246, -39.5, -2.0, -29.5, -2.0, 21.5, 23.5, -2.0, 1.350000023841858, 57.5, -2.0, -4.1249998807907104, -2.0, -2.0, 1000.5, 995.5, -2.0, -2.0, 13.984999656677246, 2.4600000381469727, 20.5, -2.0, 1.850000023841858, -2.0, -2.0, 20.5, 9.555000305175781, 1026.0, 3.2350000143051147, 1019.5, 12.420000076293945, -2.0, -2.0, -117.5, -2.0, -2.0, -2.0, -2.0, -2.0, -2.0, 15.760000228881836, 13.5, 12.5, 94.5, -2.0, -2.0, -2.0, 89.0, 1.5550000071525574, -2.0, -2.0, -2.0, -2.0, 25.0, -2.0, 3.15500009059906, -2.0, -2.0, 62.5, 16.5, 30.5, -2.0, -2.0, 49.5, 228.5, -40.0, -2.0, 125.5, 40.5, 1023.5, -2.0, -2.0, 42.5, -2.0, 28.864999771118164, 25.054999351501465, 23.425000190734863, -2.5, 1018.5, 3.6200000047683716, -2.0, -2.0, -2.0, -2.0, 90.5, -2.0, -2.0, -2.0, -2.0, 3.6350001096725464, -6.5, 13.680000305175781, -2.0, -2.0, 50.0, 25.0, -2.0, 21.97499942779541, -2.0, 17.399999618530273, -120.5, -2.0, -2.0, -2.0, -2.0, 45.5, 11.5, 3.5, -2.0, -2.0, -2.0, -2.0, -3.4299999475479126, -2.0, 106.5, -2.0, 20.494999885559082, 1.3799999952316284, -2.0, -2.0, -2.0, 113.5, -2.0, 39.5, 134.0, -2.0, -2.0, -2.0, 16.5, 16.835000038146973, 67.0, -2.0, -2.0, 228.5, 20.550000190734863, 99.5, 6.5, -2.0, -2.0, 19.59500026702881, 9.5, 67.0, -2.0, -104.0, -2.0, -2.0, 137.0, -2.0, -4.5, -2.0, -2.0, -2.0, 21.190000534057617, 7.5, -2.0, 85.5, -2.0, -2.0, 70.0, -2.0, 21.539999961853027, -2.0, 86.5, -2.0, 2.5, 1009.5, -2.0, 17.81999969482422, -2.0, 13.0, 3.5, -2.0, -2.0, -2.0, -2.0, -2.0, 1.9850000143051147, 137.0, -2.0, -2.0, 74.0, -2.0, 17.34000015258789, 105.5, -2.0, -2.0, 113.5, -4.0, -2.0, -2.0, -2.0, 29.139999389648438, 163.0, 0.8700000047683716, -2.0, 23.954999923706055, 119.0, -2.0, -2.0, 1.4249999523162842, 16.5, 122.5, 27.964999198913574, -2.0, -2.0, -2.0, -2.0, 3.15500009059906, -2.0, 119.5, -2.0, 136.5, -2.0, 26.45500087738037, -2.0, -2.0, 25.144999504089355, 20.630000114440918, -2.0, 311.0, -2.0, -2.0, 25.214999198913574, 4.454999923706055, 204.0, -2.0, 207.5, -2.0, 24.34999942779541, -2.0, 24.554999351501465, -2.0, -2.0, -2.0, 103.0, -2.0, -2.0, 23.09500026702881, 2.7799999713897705, -2.0, 54.5, -2.0, 1005.5, -2.0, -2.0, -2.0, 20.369999885559082, 144.5, 6.244999885559082, -2.0, 94.5, 9.0, -81.5, 18.5, -2.0, -2.0, -2.0, -2.0, -2.0, -2.0, -2.0, -2.0, 39.5, 34.5, 30.59500026702881, 44.0, 23.5, -2.0, -2.0, 11.224999904632568, -2.0, 56.5, -2.0, -33.5, -2.0, 5.009999990463257, -2.0, 10.5, -2.0, -2.0, 143.0, -2.0, -2.0, 8.5, -2.0, -2.0, 1015.5, -73.5, -2.0, 129.5, 1010.5, -2.0, -2.0, -2.0, 27.309999465942383, 1017.5, -2.0, 15.5, -2.0, -2.0, -2.0], "feature": [4, 7, 3, 0, -2, 0, -2, 1, 0, -2, 3, 5, -2, 3, -2, -2, 6, 6, -2, -2, 3, 7, 2, -2, 4, -2, -2, 2, 7, 6, 4, 6, 3, -2, -2, 1, -2, -2, -2, -2, -2, -2, 3, 2, 7, 8, -2, -2, -2, 5, 4, -2, -2, -2, -2, 8, -2, 4, -2, -2, 5, 8, 0, -2, -2, 0, 8, 0, -2, 8, 5, 6, -2, -2, 5, -2, 3, 3, 3, 1, 6, 4, -2, -2, -2, -2, 8, -2, -2, -2, -2, 4, 0, 7, -2, -2, 1, 5, -2, 3, -2, 7, 1, -2, -2, -2, -2, 0, 2, 2, -2, -2, -2, -2, 7, -2, 1, -2, 3, 4, -2, -2, -2, 8, -2, 5, 8, -2, -2, -2, 2, 3, 8, -2, -2, 8, 3, 8, 2, -2, -2, 3, 2, 5, -2, 1, -2, -2, 8, -2, 1, -2, -2, -2, 3, 2, -2, 5, -2, -2, 8, -2, 3, -2, 8, -2, 1, 6, -2, 7, -2, 2, 2, -2, -2, -2, -2, -2, 4, 1, -2, -2, 8, -2, 3, 8, -2, -2, 8, 1, -2, -2, -2, 3, 8, 4, -2, 3, 1, -2, -2, 4, 2, 1, 3, -2, -2, -2, -2, 4, -2, 8, -2, 8, -2, 3, -2, -2, 3, 7, -2, 8, -2, -2, 7, 4, 8, -2, 8, -2, 7, -2, 7, -2, -2, -2, 1, -2, -2, 7, 4, -2, 8, -2, 6, -2, -2, -2, 3, 1, 4, -2, 5, 1, 1, 3, -2, -2, -2, 0, -2, -2, -2, -2, 0, 0, 3, 5, 2, -2, -2, 7, -2, 5, -2, 0, -2, 4, -2, 2, -2, -2, 1, -2, -2, 4, -2, -2, 6, 1, -2, 8, 6, -2, -2, -2, 3, 6, -2, 2, -2, -2, -2], "classes": [0, 1], "value": [[2904.0, 2869.0], [2049.0, 2281.0], [1660.0, 1666.0], [549.0, 360.0], [4.0, 16.0], [545.0, 344.0], [96.0, 30.0], [449.0, 314.0], [384.0, 229.0], [8.0, 16.0], [376.0, 213.0], [17.0, 26.0], [7.0, 0.0], [10.0, 26.0], [7.0, 3.0], [3.0, 23.0], [359.0, 187.0], [10.0, 16.0], [10.0, 4.0], [0.0, 12.0], [349.0, 171.0], [253.0, 102.0], [78.0, 19.0], [65.0, 8.0], [13.0, 11.0], [9.0, 0.0], [4.0, 11.0], [175.0, 83.0], [139.0, 80.0], [92.0, 69.0], [82.0, 69.0], [55.0, 59.0], [46.0, 35.0], [46.0, 19.0], [0.0, 16.0], [9.0, 24.0], [7.0, 0.0], [2.0, 24.0], [27.0, 10.0], [10.0, 0.0], [47.0, 11.0], [36.0, 3.0], [96.0, 69.0], [68.0, 63.0], [41.0, 19.0], [22.0, 19.0], [17.0, 1.0], [5.0, 18.0], [19.0, 0.0], [27.0, 44.0], [27.0, 34.0], [0.0, 15.0], [27.0, 19.0], [0.0, 10.0], [28.0, 6.0], [65.0, 85.0], [16.0, 3.0], [49.0, 82.0], [31.0, 73.0], [18.0, 9.0], [1111.0, 1306.0], [595.0, 803.0], [7.0, 40.0], [1.0, 37.0], [6.0, 3.0], [588.0, 763.0], [502.0, 591.0], [454.0, 496.0], [0.0, 10.0], [454.0, 486.0], [221.0, 288.0], [57.0, 116.0], [48.0, 115.0], [9.0, 1.0], [164.0, 172.0], [27.0, 4.0], [137.0, 168.0], [118.0, 163.0], [97.0, 101.0], [68.0, 87.0], [40.0, 26.0], [36.0, 15.0], [35.0, 9.0], [1.0, 6.0], [4.0, 11.0], [28.0, 61.0], [29.0, 14.0], [23.0, 1.0], [6.0, 13.0], [21.0, 62.0], [19.0, 5.0], [233.0, 198.0], [184.0, 113.0], [55.0, 17.0], [52.0, 6.0], [3.0, 11.0], [129.0, 96.0], [129.0, 90.0], [18.0, 2.0], [111.0, 88.0], [14.0, 2.0], [97.0, 86.0], [60.0, 76.0], [11.0, 2.0], [49.0, 74.0], [37.0, 10.0], [0.0, 6.0], [49.0, 85.0], [40.0, 84.0], [22.0, 21.0], [5.0, 16.0], [17.0, 5.0], [18.0, 63.0], [9.0, 1.0], [48.0, 95.0], [9.0, 0.0], [39.0, 95.0], [19.0, 75.0], [20.0, 20.0], [5.0, 18.0], [5.0, 2.0], [0.0, 16.0], [15.0, 2.0], [86.0, 172.0], [38.0, 36.0], [48.0, 136.0], [15.0, 11.0], [2.0, 11.0], [13.0, 0.0], [33.0, 125.0], [516.0, 503.0], [371.0, 287.0], [18.0, 32.0], [0.0, 14.0], [18.0, 18.0], [353.0, 255.0], [343.0, 220.0], [201.0, 96.0], [83.0, 21.0], [14.0, 12.0], [69.0, 9.0], [118.0, 75.0], [75.0, 66.0], [52.0, 27.0], [2.0, 10.0], [50.0, 17.0], [2.0, 7.0], [48.0, 10.0], [23.0, 39.0], [6.0, 27.0], [17.0, 12.0], [11.0, 0.0], [6.0, 12.0], [43.0, 9.0], [142.0, 124.0], [20.0, 44.0], [2.0, 30.0], [18.0, 14.0], [16.0, 5.0], [2.0, 9.0], [122.0, 80.0], [3.0, 12.0], [119.0, 68.0], [28.0, 4.0], [91.0, 64.0], [23.0, 4.0], [68.0, 60.0], [27.0, 40.0], [0.0, 10.0], [27.0, 30.0], [5.0, 19.0], [22.0, 11.0], [10.0, 11.0], [8.0, 1.0], [2.0, 10.0], [12.0, 0.0], [41.0, 20.0], [10.0, 35.0], [145.0, 216.0], [34.0, 99.0], [25.0, 94.0], [9.0, 5.0], [111.0, 117.0], [6.0, 24.0], [105.0, 93.0], [5.0, 18.0], [5.0, 2.0], [0.0, 16.0], [100.0, 75.0], [55.0, 16.0], [11.0, 12.0], [44.0, 4.0], [45.0, 59.0], [389.0, 615.0], [227.0, 446.0], [131.0, 327.0], [3.0, 46.0], [128.0, 281.0], [40.0, 41.0], [25.0, 39.0], [15.0, 2.0], [88.0, 240.0], [27.0, 30.0], [23.0, 14.0], [21.0, 6.0], [18.0, 0.0], [3.0, 6.0], [2.0, 8.0], [4.0, 16.0], [61.0, 210.0], [27.0, 150.0], [34.0, 60.0], [9.0, 40.0], [25.0, 20.0], [13.0, 1.0], [12.0, 19.0], [10.0, 4.0], [2.0, 15.0], [96.0, 119.0], [52.0, 25.0], [6.0, 13.0], [46.0, 12.0], [43.0, 5.0], [3.0, 7.0], [44.0, 94.0], [26.0, 82.0], [20.0, 82.0], [4.0, 38.0], [16.0, 44.0], [5.0, 0.0], [11.0, 44.0], [2.0, 39.0], [9.0, 5.0], [9.0, 0.0], [0.0, 5.0], [6.0, 0.0], [18.0, 12.0], [12.0, 1.0], [6.0, 11.0], [162.0, 169.0], [36.0, 78.0], [6.0, 45.0], [30.0, 33.0], [7.0, 0.0], [23.0, 33.0], [7.0, 0.0], [16.0, 33.0], [126.0, 91.0], [855.0, 588.0], [466.0, 191.0], [423.0, 188.0], [277.0, 86.0], [146.0, 102.0], [144.0, 92.0], [120.0, 61.0], [33.0, 30.0], [33.0, 21.0], [0.0, 9.0], [87.0, 31.0], [24.0, 31.0], [12.0, 2.0], [12.0, 29.0], [2.0, 10.0], [43.0, 3.0], [389.0, 397.0], [272.0, 233.0], [190.0, 199.0], [166.0, 138.0], [18.0, 39.0], [13.0, 39.0], [5.0, 0.0], [148.0, 99.0], [0.0, 5.0], [148.0, 94.0], [32.0, 6.0], [116.0, 88.0], [2.0, 14.0], [114.0, 74.0], [14.0, 22.0], [100.0, 52.0], [63.0, 17.0], [37.0, 35.0], [24.0, 61.0], [18.0, 60.0], [6.0, 1.0], [82.0, 34.0], [79.0, 24.0], [3.0, 10.0], [117.0, 164.0], [72.0, 129.0], [14.0, 48.0], [58.0, 81.0], [14.0, 47.0], [10.0, 9.0], [4.0, 38.0], [44.0, 34.0], [45.0, 35.0], [31.0, 35.0], [15.0, 4.0], [16.0, 31.0], [14.0, 9.0], [2.0, 22.0], [14.0, 0.0]]}, {"children_left": [1, 2, 3, 4, 5, 6, -1, -1, 9, -1, 11, -1, -1, 14, 15, 16, -1, 18, 19, 20, 21, 22, -1, 24, -1, -1, -1, -1, 29, 30, -1, -1, -1, -1, 35, 36, -1, 38, -1, 40, -1, -1, 43, -1, -1, 46, 47, -1, -1, -1, 51, 52, -1, -1, -1, 56, 57, 58, 59, 60, 61, -1, 63, -1, 65, 66, 67, -1, -1, 70, -1, -1, -1, 74, -1, -1, -1, 78, -1, -1, -1, 82, 83, 84, -1, -1, -1, 88, 89, 90, 91, 92, -1, 94, -1, 96, -1, -1, 99, -1, 101, 102, -1, -1, -1, -1, -1, -1, 109, 110, 111, 112, 113, 114, 115, 116, 117, -1, -1, -1, 121, 122, 123, 124, 125, -1, -1, -1, 129, -1, -1, -1, 133, -1, -1, 136, 137, 138, -1, 140, -1, 142, 143, -1, -1, 146, 147, 148, 149, -1, -1, -1, 153, -1, 155, -1, 157, 158, -1, -1, -1, -1, -1, 164, -1, -1, 167, -1, 169, -1, 171, -1, -1, 174, 175, -1, 177, -1, -1, 180, -1, 182, 183, 184, 185, -1, -1, 188, 189, 190, 191, 192, 193, 194, -1, 196, 197, 198, -1, -1, -1, -1, 203, -1, -1, -1, -1, -1, 209, 210, -1, 212, 213, 214, 215, 216, 217, -1, -1, -1, -1, -1, -1, -1, 225, 226, 227, 228, 229, 230, -1, -1, -1, -1, -1, -1, 237, -1, -1, 240, -1, -1, -1, -1, 245, 246, -1, -1, 249, -1, -1, 252, -1, 254, 255, -1, -1, 258, -1, -1, 261, 262, -1, -1, 265, 266, -1, 268, 269, -1, 271, -1, 273, -1, -1, -1, -1], "children_right": [108, 55, 50, 13, 8, 7, -1, -1, 10, -1, 12, -1, -1, 45, 34, 17, -1, 33, 28, 27, 26, 23, -1, 25, -1, -1, -1, -1, 32, 31, -1, -1, -1, -1, 42, 37, -1, 39, -1, 41, -1, -1, 44, -1, -1, 49, 48, -1, -1, -1, 54, 53, -1, -1, -1, 81, 80, 77, 76, 73, 62, -1, 64, -1, 72, 69, 68, -1, -1, 71, -1, -1, -1, 75, -1, -1, -1, 79, -1, -1, -1, 87, 86, 85, -1, -1, -1, 107, 106, 105, 98, 93, -1, 95, -1, 97, -1, -1, 100, -1, 104, 103, -1, -1, -1, -1, -1, -1, 260, 251, 244, 173, 166, 135, 120, 119, 118, -1, -1, -1, 132, 131, 128, 127, 126, -1, -1, -1, 130, -1, -1, -1, 134, -1, -1, 163, 162, 139, -1, 141, -1, 145, 144, -1, -1, 161, 152, 151, 150, -1, -1, -1, 154, -1, 156, -1, 160, 159, -1, -1, -1, -1, -1, 165, -1, -1, 168, -1, 170, -1, 172, -1, -1, 179, 176, -1, 178, -1, -1, 181, -1, 243, 242, 187, 186, -1, -1, 239, 208, 207, 206, 205, 202, 195, -1, 201, 200, 199, -1, -1, -1, -1, 204, -1, -1, -1, -1, -1, 224, 211, -1, 223, 222, 221, 220, 219, 218, -1, -1, -1, -1, -1, -1, -1, 236, 235, 234, 233, 232, 231, -1, -1, -1, -1, -1, -1, 238, -1, -1, 241, -1, -1, -1, -1, 248, 247, -1, -1, 250, -1, -1, 253, -1, 257, 256, -1, -1, 259, -1, -1, 264, 263, -1, -1, 276, 267, -1, 275, 270, -1, 272, -1, 274, -1, -1, -1, -1], "threshold": [20.005000114440918, 144.5, 78.5, 2.0649999380111694, -36.0, 121.0, -2.0, -2.0, 17.730000495910645, -2.0, 13.114999771118164, -2.0, -2.0, 74.5, 18.489999771118164, 11.5, -2.0, 78.5, 68.5, 18.005000114440918, 17.90999984741211, 17.020000457763672, -2.0, 17.36500072479248, -2.0, -2.0, -2.0, -2.0, 13.5, 85.0, -2.0, -2.0, -2.0, -2.0, 12.919999599456787, 90.0, -2.0, 11.654999732971191, -2.0, 143.5, -2.0, -2.0, 18.90000057220459, -2.0, -2.0, 1026.5, 52.5, -2.0, -2.0, -2.0, 19.5, -26.5, -2.0, -2.0, -2.0, 23.5, 21.5, 95.5, 7.9649999141693115, 16.5, 3.690000057220459, -2.0, 3.5, -2.0, 54.5, 4.5, 1009.5, -2.0, -2.0, 51.5, -2.0, -2.0, -2.0, 2.049999952316284, -2.0, -2.0, -2.0, 15.239999771118164, -2.0, -2.0, -2.0, 12.114999771118164, 4.305000066757202, 44.5, -2.0, -2.0, -2.0, 23.5, 55.0, 5.2149999141693115, 273.5, 1.4049999713897705, -2.0, 1.7900000214576721, -2.0, 3.640000104904175, -2.0, -2.0, 1020.5, -2.0, 1029.5, 17.90999984741211, -2.0, -2.0, -2.0, -2.0, -2.0, -2.0, 82.5, 215.5, 1021.5, 3.334999918937683, 3.1049998998641968, 14.904999732971191, 5.525000095367432, 103.5, 41.5, -2.0, -2.0, -2.0, 32.34000015258789, 49.5, 125.5, 13.829999923706055, 35.5, -2.0, -2.0, -2.0, 1.350000023841858, -2.0, -2.0, -2.0, 1009.5, -2.0, -2.0, 3.0149999856948853, 25.15999984741211, 23.8100004196167, -2.0, 1.5, -2.0, 17.34000015258789, -91.5, -2.0, -2.0, 2.4600000381469727, 27.605000495910645, 1.225000023841858, 21.464999198913574, -2.0, -2.0, -2.0, 19.5, -2.0, 62.5, -2.0, 1011.5, 110.5, -2.0, -2.0, -2.0, -2.0, -2.0, 17.5, -2.0, -2.0, 14.5, -2.0, 106.0, -2.0, 18.5, -2.0, -2.0, 20.510000228881836, 5.309999942779541, -2.0, 74.0, -2.0, -2.0, 3.3649998903274536, -2.0, 10.664999961853027, 8.519999980926514, 1003.5, 999.5, -2.0, -2.0, 52.5, 14.700000286102295, 1020.5, 196.0, 171.5, 1015.5, -3.5, -2.0, 4.870000123977661, -26.5, 25.989999771118164, -2.0, -2.0, -2.0, -2.0, -30.0, -2.0, -2.0, -2.0, -2.0, -2.0, 65.5, -96.5, -2.0, 21.739999771118164, 5.815000057220459, 32.69499969482422, 161.0, -87.0, 54.5, -2.0, -2.0, -2.0, -2.0, -2.0, -2.0, -2.0, 150.0, 115.0, 25.140000343322754, 22.704999923706055, 39.5, 3.4800000190734863, -2.0, -2.0, -2.0, -2.0, -2.0, -2.0, 27.84000015258789, -2.0, -2.0, 14.5, -2.0, -2.0, -2.0, -2.0, 9.5, 17.0, -2.0, -2.0, 2.200000047683716, -2.0, -2.0, 13.764999866485596, -2.0, 9.5, 71.5, -2.0, -2.0, -158.5, -2.0, -2.0, -23.5, 86.5, -2.0, -2.0, 7.830000162124634, -91.5, -2.0, 28.03499984741211, 212.5, -2.0, 23.920000076293945, -2.0, 26.90499973297119, -2.0, -2.0, -2.0, -2.0], "feature": [3, 8, 5, 4, 1, 8, -2, -2, 3, -2, 7, -2, -2, 5, 3, 8, -2, 8, 5, 3, 3, 3, -2, 3, -2, -2, -2, -2, 2, 1, -2, -2, -2, -2, 7, 8, -2, 7, -2, 1, -2, -2, 3, -2, -2, 6, 0, -2, -2, -2, 0, 0, -2, -2, -2, 1, 1, 5, 4, 2, 4, -2, 2, -2, 0, 1, 6, -2, -2, 0, -2, -2, -2, 4, -2, -2, -2, 7, -2, -2, -2, 3, 7, 1, -2, -2, -2, 2, 0, 4, 8, 4, -2, 4, -2, 4, -2, -2, 6, -2, 6, 3, -2, -2, -2, -2, -2, -2, 5, 8, 6, 4, 4, 7, 7, 8, 0, -2, -2, -2, 3, 0, 8, 7, 5, -2, -2, -2, 4, -2, -2, -2, 6, -2, -2, 4, 7, 3, -2, 0, -2, 7, 1, -2, -2, 4, 3, 4, 7, -2, -2, -2, 7, -2, 5, -2, 6, 1, -2, -2, -2, -2, -2, 2, -2, -2, 2, -2, 8, -2, 2, -2, -2, 3, 4, -2, 5, -2, -2, 4, -2, 4, 4, 6, 6, -2, -2, 0, 7, 6, 8, 8, 6, 1, -2, 4, 0, 3, -2, -2, -2, -2, 0, -2, -2, -2, -2, -2, 5, 1, -2, 7, 4, 3, 8, 1, 5, -2, -2, -2, -2, -2, -2, -2, 1, 1, 7, 7, 0, 4, -2, -2, -2, -2, -2, -2, 3, -2, -2, 2, -2, -2, -2, -2, 2, 8, -2, -2, 7, -2, -2, 7, -2, 0, 5, -2, -2, 1, -2, -2, 0, 1, -2, -2, 4, 1, -2, 7, 8, -2, 7, -2, 3, -2, -2, -2, -2], "classes": [0, 1], "value": [[2882.0, 2891.0], [1350.0, 925.0], [903.0, 514.0], [541.0, 360.0], [107.0, 115.0], [56.0, 26.0], [56.0, 17.0], [0.0, 9.0], [51.0, 89.0], [29.0, 72.0], [22.0, 17.0], [18.0, 4.0], [4.0, 13.0], [434.0, 245.0], [407.0, 198.0], [336.0, 134.0], [39.0, 0.0], [297.0, 134.0], [207.0, 118.0], [185.0, 85.0], [166.0, 85.0], [166.0, 77.0], [150.0, 60.0], [16.0, 17.0], [0.0, 14.0], [16.0, 3.0], [0.0, 8.0], [19.0, 0.0], [22.0, 33.0], [13.0, 5.0], [12.0, 0.0], [1.0, 5.0], [9.0, 28.0], [90.0, 16.0], [71.0, 64.0], [45.0, 59.0], [16.0, 38.0], [29.0, 21.0], [25.0, 3.0], [4.0, 18.0], [1.0, 18.0], [3.0, 0.0], [26.0, 5.0], [0.0, 3.0], [26.0, 2.0], [27.0, 47.0], [21.0, 47.0], [13.0, 46.0], [8.0, 1.0], [6.0, 0.0], [362.0, 154.0], [30.0, 30.0], [29.0, 15.0], [1.0, 